SVM-light Version V6.02
2 # kernel type
3 # kernel parameter -d 
10 # kernel parameter -g 
1 # kernel parameter -s 
1 # kernel parameter -r 
empty# kernel parameter -u 
54 # highest feature index 
10000 # number of training documents 
9919 # number of support vectors plus 1 
0.13255718 # threshold b, each following line is a SV (starting with alpha*y)
-0.66055545968128492884119395966991 1:0.148725 2:0.55714399 3:-0.81441897 4:2.12924 5:1.0048 6:2.2715099 7:-0.042958502 8:1.24836 9:0.79618502 10:2.70332 11:1 43:1 #
-0.83883016443464553102415948160342 1:0.0380027 2:-0.559825 3:-0.28037399 4:-0.75949198 5:-0.67615801 6:0.76758099 7:1.00299 8:-0.066767797 9:-0.823883 10:0.31997699 11:1 43:1 #
-1.328013610287847923174808784097 1:-2.2335899 2:-1.3461699 3:1.3217601 4:-0.13846201 5:0.747513 6:-0.61064601 7:-1.12626 8:-1.88771 9:-0.22289 10:-1.08692 14:1 24:1 #
-0.87612405279489591336528064857703 1:-0.544182 2:-0.78321898 3:1.3217601 4:-0.129052 5:1.34786 6:-0.55036098 7:0.92827803 8:-1.93829 9:-1.97361 10:-0.64514202 13:1 47:1 #
-0.85018586674359342136853001647978 1:0.102293 2:0.99499601 3:-0.146862 4:1.44705 5:0.61029202 6:2.1714599 7:-0.97684002 8:1.09661 9:1.42331 10:2.3665099 11:1 43:1 #
1.0076727122198261277219444309594 1:-2.1192901 2:-1.23894 3:2.6568799 4:-1.12646 5:-0.47032601 6:-1.20324 7:-1.49981 8:-3.7086501 9:-1.21583 10:-1.01065 14:1 24:1 #
0.64390547237443185313310323181213 1:-2.1728699 2:1.57582 3:1.05474 4:-0.86770201 5:-0.00720412 6:-0.81010097 7:-1.8733701 8:-0.87607503 9:0.979096 10:-0.79013598 14:1 24:1 #
1.1337428863430298875414337089751 1:-2.4586 2:0.36949301 3:1.05474 4:-1.12646 5:-0.67615801 6:-0.47596601 7:-0.15502401 8:1.45068 9:0.69166398 10:-0.68894202 14:1 31:1 #
0.85616622776116435566962081793463 1:-2.4943199 2:-0.96193397 3:2.25634 4:-0.86770201 5:-0.024356799 6:-1.14937 7:0.106462 8:-3.3039999 9:-2.26104 10:-0.77125603 14:1 24:1 #
0.84417092583204245137551424704725 1:-1.23709 2:0.83415198 3:0.65420598 4:-1.26761 5:-0.79622602 6:-0.60743898 7:-1.38775 8:1.34952 9:1.763 10:-0.64665198 13:1 34:1 #
-1.2396075867316154184294418882928 1:-2.3585999 2:1.58476 3:1.1882499 4:-0.75949198 5:-0.092967398 6:-1.06279 7:-1.8733701 8:-0.977238 9:0.92683601 10:-1.099 14:1 24:1 #
-1.0717082147531071800727886511595 1:-2.6979101 2:1.52221 3:0.92122799 4:-0.67010099 5:-0.315952 6:-0.749174 7:-1.79866 8:-0.62316602 9:1.10975 10:-0.63456899 14:1 24:1 #
-0.86888731550727582586546304810327 1:-2.6693299 2:0.235457 3:1.05474 4:-1.26761 5:-0.79622602 6:-0.548437 7:0.293239 8:1.24836 9:0.169062 10:-0.80675 14:1 31:1 #
1.5067551608677023367022229649592 1:-1.99429 2:-1.33724 3:1.1882499 4:-0.16669001 5:0.747513 6:-0.59781897 7:-1.01419 8:-1.73596 9:-0.19676 10:-1.19038 14:1 24:1 #
1.5337702237268109328738319163676 1:-2.30145 2:-1.3283 3:1.05474 4:-0.420748 5:0.37015399 6:-0.85371202 7:-0.939484 8:-1.68538 9:-0.22289 10:-0.86112303 14:1 24:1 #
1.0999128291022384207309414705378 1:-2.39431 2:-1.28362 3:1.3217601 4:0.25674 5:1.05626 6:-0.91079003 7:-0.90212899 8:-1.93829 9:-0.43193099 10:-0.87698102 14:1 24:1 #
-1.4271943657269825500577553611947 1:-2.3585999 2:-1.3014899 3:1.05474 4:-0.32194799 5:0.26723799 6:-0.65682203 7:-0.82741898 8:-1.73596 9:-0.327411 10:-0.73425299 14:1 24:1 #
-0.88430884862004399682433586349362 1:-2.5479 2:-1.18533 3:1.3217601 4:0.204987 5:1.09057 6:-0.67478001 7:-0.49122199 8:-2.09004 9:-0.823883 10:-0.94721299 14:1 24:1 #
-0.98606297793385744299143880198244 1:-1.8728499 2:1.45072 3:1.05474 4:-0.68421501 5:0.30154401 6:-0.89988798 7:-2.02279 8:-0.42084 9:1.37105 10:-0.52053702 14:1 24:1 #
0.4586606325295197184033213488874 1:-2.5014601 2:1.58476 3:0.92122799 4:-0.50543398 5:-0.11012 6:-0.72801 7:-1.72394 8:-0.82549298 9:0.90070599 10:-0.94268203 14:1 24:1 #
0.82113706395472296772908293860382 1:-2.7443399 2:1.60263 3:0.78771698 4:-0.82065398 5:-0.058662102 6:-1.0255899 7:-1.57452 8:-0.72433001 9:0.87457502 10:-0.72518998 14:1 24:1 #
0.82729130342217171989460666736704 1:-2.8157699 2:1.58476 3:1.1882499 4:-0.420748 5:-0.058662102 6:-1.12564 7:-1.9480799 8:-1.02782 9:0.95296597 10:-1.32329 14:1 24:1 #
-0.8917314675119429878691335034091 1:-2.92292 2:-0.96193397 3:2.1228299 4:-1.0700099 5:-0.52178401 6:-0.71454197 7:0.106462 8:-3.1522501 9:-2.1565199 10:-0.74482501 14:1 24:1 #
-0.92479285493961693731534978724085 1:-2.3693099 2:-1.28362 3:0.92122799 4:-0.68421501 5:-0.11012 6:-1.37255 7:-0.67799801 8:-1.53364 9:-0.327411 10:-0.73576301 14:1 24:1 #
-1.2124274824692622409827436058549 1:-3.09079 2:-0.86364001 3:2.1228299 4:-0.86770201 5:-0.333105 6:-1.3982 7:0.55472499 8:-3.05109 9:-2.4700799 10:-1.099 14:1 24:1 #
0.2713641093721670949356905566674 1:-1.91214 2:1.48646 3:0.92122799 4:-0.32194799 5:0.21578 6:-0.83383 7:-1.91072 8:-0.522003 9:1.2404 10:-0.85734701 14:1 24:1 #
0.53249726018265652882632821274456 1:-1.96214 2:1.42391 3:0.92122799 4:-0.56189102 5:-0.144425 6:-0.85627699 7:-1.98543 8:-0.31967601 9:1.39718 10:-0.84299803 14:1 24:1 #
0.81403035834781611868038453394547 1:-2.3085899 2:1.4149801 3:1.05474 4:-0.44427201 5:0.33584899 6:-0.81908 7:-2.02279 8:-0.31967601 9:1.44944 10:-0.84677398 14:1 24:1 #
-1.1468110692878208389799965516431 1:-1.5764 2:1.33455 3:0.65420598 4:-0.44427201 5:0.061406501 6:-1.12628 7:-1.7613 8:0.13555899 9:1.52783 10:-1.01518 14:1 24:1 #
-1.1167020539470198237097520177485 1:-2.6693299 2:1.2809401 3:1.1882499 4:-0.16669001 5:0.747513 6:-1.02495 7:-2.3963399 8:-0.016186099 9:1.84139 10:-1.20926 14:1 24:1 #
-1.0198575769638826837848455397761 1:-2.3764601 2:-1.33724 3:1.5887901 4:-0.75949198 5:0.061406501 6:-0.706846 7:-1.2756799 8:-2.1912 9:-0.327411 10:-1.06427 14:1 24:1 #
1.084936088899380646211056955508 1:-3.0729301 2:-0.89044797 3:2.25634 4:-0.703035 5:-0.436021 6:-1.35203 7:0.40530401 8:-3.3039999 9:-2.5223401 10:-1.1428 14:1 24:1 #
1.1374623595289343747083421476418 1:-3.0443599 2:-0.88151199 3:1.98932 4:-1.12646 5:-0.59039497 6:-1.17502 7:0.48001501 8:-2.8993399 9:-2.2871699 10:-0.89963698 14:1 24:1 #
0.66682737171571271339587383408798 1:-1.96214 2:-1.24788 3:0.92122799 4:-0.68421501 5:-0.264494 6:-1.08716 7:-0.52857703 8:-1.5842201 9:-0.45806101 10:-0.55980599 14:1 24:1 #
-1.5457119120981439586159922328079 1:-2.0335701 2:-1.29256 3:1.05474 4:-1.12646 5:-0.60754699 6:-0.93516099 7:-0.82741898 8:-1.73596 9:-0.35354099 10:-1.0786099 14:1 24:1 #
-0.88006687132427940944978672632715 1:-2.8764901 2:0.56607997 3:0.92122799 4:-1.12646 5:-0.67615801 6:-0.74083698 7:-0.75270802 8:1.55185 9:1.29266 10:-0.75313199 14:1 31:1 #
-0.99548596677413980771120805002283 1:-2.99436 2:1.42391 3:0.52069402 4:-0.86770201 5:-0.230189 6:-1.2641701 7:-1.6118799 8:-0.066767797 9:1.29266 10:-1.12997 14:1 24:1 #
0.7942235555759289411525969626382 1:-2.7943399 2:1.31668 3:1.1882499 4:-0.251376 5:0.61029202 6:-0.90886599 7:-2.28427 8:-0.016186099 9:1.7368701 10:-0.85734701 14:1 24:1 #
0.87426650031646668814744316478027 1:-1.85856 2:1.26307 3:0.65420598 4:-0.56189102 5:0.25008601 6:-1.11089 7:-1.83601 8:0.33788601 9:1.65848 10:-1.16546 14:1 24:1 #
0.81405761300926982038106416439405 1:-2.6264701 2:1.29881 3:1.05474 4:-0.420748 5:0.696055 6:-0.78508902 7:-2.2469201 8:0.034395501 9:1.763 10:-0.925313 14:1 24:1 #
-0.90913428250555572418534211465158 1:-2.0335701 2:1.13797 3:0.38718301 4:-0.547777 5:-0.041509401 6:-1.3982 7:-1.57452 8:0.74253899 9:1.68461 10:-0.98648202 14:1 24:1 #
-1.5100647772375119792798159323866 1:-1.70498 2:0.97712398 3:1.05474 4:-0.56189102 5:0.044253901 6:-1.28276 7:-1.98543 8:1.04603 9:2.0243001 10:-1.47282 14:1 24:1 #
-1.1395159836969415145802031474886 1:-2.0692899 2:1.45072 3:1.4552701 4:-1.12646 5:-0.50463098 6:-0.83511299 7:-2.4336901 8:-0.72433001 9:1.44944 10:-0.58472699 14:1 24:1 #
0.8489284689289978702575467650604 1:-2.11215 2:-1.28362 3:1.05474 4:-1.0700099 5:-0.487479 6:-0.67478001 7:-0.79006398 8:-1.78655 9:-0.405801 10:-0.89208502 14:1 24:1 #
0.86800695573794151016500109108165 1:-1.97286 2:-1.3283 3:1.1882499 4:-1.12646 5:-0.55608898 6:-0.68888903 7:-0.97684002 8:-1.73596 9:-0.22289 10:-0.90265697 14:1 24:1 #
1.1508785300335966361728878837312 1:-2.0335701 2:-1.2568099 3:0.92122799 4:-1.26761 5:-0.79622602 6:-0.79919797 7:-0.60328698 8:-1.6348 9:-0.43193099 10:-0.89737099 14:1 24:1 #
-0.94037316836847528733756007568445 1:-2.80863 2:1.7456 3:0.92122799 4:-0.27019501 5:-0.59039497 6:-1.13782 7:-1.2756799 8:-1.1795599 9:0.37810299 10:-0.97893101 14:1 24:1 #
-0.96478869284273482964664481187356 1:-1.75141 2:1.22733 3:0.92122799 4:-0.420748 5:0.62744403 6:-0.999295 7:-2.0975001 8:0.33788601 9:1.8152601 10:-0.33023199 14:1 24:1 #
-0.86669762744557121703081747909891 1:-2.4228899 2:-1.2657501 3:1.85581 4:0.651941 5:1.3307 6:-0.97877198 7:-1.16362 8:-2.7476001 9:-0.79775298 10:-0.72594601 14:1 24:1 #
0.93248458399265454765725280594779 1:-1.78713 2:0.97712398 3:1.05474 4:-0.37369999 5:-0.041509401 6:-1.17117 7:-2.02279 8:0.99544799 9:2.0504301 10:-1.26439 14:1 24:1 #
0.745107325993050628731850792974 1:-1.77284 2:0.87883103 3:1.05474 4:-0.32194799 5:0.0271012 6:-1.15321 7:-1.83601 8:1.24836 9:1.99817 10:-1.2424901 14:1 24:1 #
0.54705527848976809313086278052651 1:-1.67998 2:1.04861 3:0.92122799 4:-0.32194799 5:0.28439099 6:-1.18721 7:-1.91072 8:0.89428401 9:1.94591 10:-1.31423 14:1 24:1 #
-0.93705575725885237314827236332349 1:-1.6549799 2:0.79840899 3:0.92122799 4:-0.32194799 5:0.28439099 6:-1.2212 7:-1.4251 8:1.4001 9:1.78913 10:-1.39428 14:1 24:1 #
-0.97410660434329399137709515343886 1:-1.6656899 2:1.05755 3:1.3217601 4:-0.420748 5:0.33584899 6:-0.67221397 7:-2.32163 8:0.74253899 9:2.1288199 10:-0.97213399 14:1 24:1 #
-0.86999787408903406227267396388925 1:-2.2228701 2:1.01287 3:1.1882499 4:0.38376901 5:0.66175002 6:-1.29944 7:-2.2095599 8:0.89428401 9:2.10269 10:-1.01895 14:1 24:1 #
0.88650836866081950127238542336272 1:-2.3050201 2:1.4954 3:1.5887901 4:-1.12646 5:-0.52178401 6:-0.813308 7:-2.47105 8:-1.02782 9:1.29266 10:-0.74633503 14:1 24:1 #
0.90727966542517823889113515178906 1:-3.0550799 2:1.4596601 3:0.78771698 4:-0.95238799 5:-0.40171501 6:-1.3840899 7:-1.7613 8:-0.269095 9:1.26653 10:-0.89661598 14:1 24:1 #
1.030337138418485620761089194275 1:-2.05143 2:1.22733 3:0.78771698 4:-0.56189102 5:0.33584899 6:-0.82677603 7:-1.98543 8:0.38846701 9:1.763 10:-0.34080499 14:1 24:1 #
-1.2181625614007518532133644839632 1:-3.1908 2:1.36136 3:0.92122799 4:-1.0700099 5:-0.76192099 6:-1.00378 7:-2.02279 8:-0.066767797 9:1.55396 10:-0.97364402 14:1 24:1 #
-1.2980125725263733649228470312664 1:-3.01579 2:1.45072 3:1.7223001 4:-0.86770201 5:-0.264494 6:-1.31419 7:-2.65783 8:-0.92665702 9:1.47557 10:-1.07257 14:1 24:1 #
-0.87041475250134181518291143220267 1:-3.5408199 2:1.4596601 3:1.4552701 4:-0.82065398 5:0.130017 6:-1.4110301 7:-2.47105 8:-0.82549298 9:1.39718 10:-1.12392 14:1 24:1 #
0.76095510764105678269686450221343 1:-1.90856 2:1.44178 3:1.3217601 4:-0.75949198 5:-0.74476802 6:-0.97877198 7:-2.3589799 8:-0.67374802 9:1.44944 10:-0.704045 14:1 24:1 #
1.1779377798818699840666113232146 1:-3.00507 2:1.7187901 3:1.1882499 4:-0.053775601 5:-0.40171501 6:-1.21799 7:-1.49981 8:-1.3818901 9:0.430363 10:-0.89661598 14:1 24:1 #
0.85358831611939700589886115267291 1:-1.8728499 2:1.38817 3:1.3217601 4:-0.86770201 5:-0.72761601 6:-0.99480498 7:-2.47105 8:-0.471421 9:1.63235 10:-0.68365598 14:1 24:1 #
-2.4295554472598968054342094546882 1:-3.06936 2:-1.0870301 3:2.52336 4:-0.56189102 5:0.164322 6:-1.32573 7:-0.67799801 8:-3.7592299 9:-1.94748 10:-1.19718 14:1 24:1 #
-0.62233219261674976863218944345135 1:-2.2335899 2:1.18265 3:1.7223001 4:-0.95238799 5:-0.213036 6:-1.24813 7:-2.8819599 8:0.13555899 9:2.1810801 10:-0.275859 14:1 24:1 #
-0.93407707226010106005276156793116 1:-2.8479199 2:1.70986 3:0.52069402 4:-0.279605 5:0.88473397 6:-1.17117 7:-1.12626 8:-0.82549298 9:0.50875401 10:-1.16546 14:1 24:1 #
0.93557487010016981976434635726037 1:-3.1157899 2:1.45072 3:1.7223001 4:-1.0700099 5:-0.45317301 6:-1.09421 7:-2.7325399 8:-0.977238 9:1.5017 10:-0.87018502 14:1 24:1 #
0.69069796022647822475448720069835 1:-3.10151 2:1.38817 3:1.85581 4:-0.86770201 5:-0.24734101 6:-1.16283 7:-2.95667 8:-0.82549298 9:1.71074 10:-0.95098901 14:1 24:1 #
0.63682137077464340269017384343897 1:-3.2407999 2:1.47753 3:1.85581 4:-1.0700099 5:-0.47032601 6:-1.21286 7:-2.80725 8:-1.1795599 9:1.39718 10:-1.04237 14:1 24:1 #
-0.93151131051713464970021050248761 1:-3.31938 2:1.30775 3:1.98932 4:-1.12646 5:-0.47032601 6:-1.45272 7:-3.0687301 8:-0.522003 9:1.94591 10:-0.99629998 14:1 24:1 #
-0.9879380777859487761105583558674 1:-2.6800499 2:1.38817 3:2.25634 4:-0.95238799 5:-0.161578 6:-1.13975 7:-3.3675799 8:-1.12898 9:1.8152601 10:-0.46994001 14:1 24:1 #
-0.87240882423240728726909765100572 1:-2.9157801 2:1.28988 3:2.52336 4:-0.56189102 5:0.42161199 6:-0.66002899 7:-3.7037699 8:-0.82549298 9:2.1549499 10:-1.0559601 14:1 24:1 #
1.8255268579358285840896769514075 1:-3.09794 2:-1.10491 3:2.3898499 4:-0.63716799 5:0.0271012 6:-1.3712699 7:-0.67799801 8:-3.6074901 9:-1.81683 10:-1.12997 14:1 24:1 #
1.6869075467230001397211935909581 1:-3.1586499 2:-1.06916 3:2.52336 4:-0.63716799 5:0.35300201 6:-1.19169 7:-0.56593198 8:-3.8098099 9:-2.07813 10:-1.1073101 14:1 24:1 #
1.0891007191972921219758063671179 1:-3.2586601 2:-1.12278 3:2.6568799 4:-0.86770201 5:0.112864 6:-1.4110301 7:-0.86477399 8:-3.91098 9:-1.86909 10:-1.1775399 14:1 24:1 #
-0.90491317985495345332935812621145 1:-2.44432 2:-1.06916 3:2.52336 4:-0.37369999 5:1.15918 6:-1.04483 7:-0.56593198 8:-3.8098099 9:-2.0258701 10:-1.15036 14:1 24:1 #
-0.88551929626014069807382611543289 1:-1.9764301 2:1.4149801 3:1.5887901 4:-0.50543398 5:0.73035997 6:-1.27314 7:-2.5457599 8:-0.67374802 9:1.55396 10:-0.92908901 14:1 24:1 #
-0.86849070258699434532445593504235 1:-1.87642 2:-0.88151199 3:1.85581 4:-0.13846201 5:0.62744403 6:-1.08331 7:0.55472499 8:-2.6970201 9:-2.1826501 10:-0.55225497 14:1 24:1 #
1.1488811699455547810089228732977 1:-3.17294 2:1.40604 3:0.78771698 4:-1.0700099 5:-0.59039497 6:-1.15321 7:-1.83601 8:-0.11735 9:1.39718 10:-0.950234 14:1 24:1 #
1.0809743644269325102413858985528 1:-3.1586499 2:1.70092 3:0.52069402 4:-0.129052 5:0.52452803 6:-1.19426 7:-1.08891 8:-0.72433001 9:0.53488398 10:-0.97817498 14:1 24:1 #
0.86357650798822072069071964506293 1:-1.8835599 2:0.97712398 3:1.4552701 4:-0.75949198 5:0.0099485395 6:-0.59333003 7:-2.3963399 8:0.89428401 9:2.2072101 10:-1.01518 14:1 24:1 #
-0.86879742330840969977145960001508 1:-2.4693201 2:1.7634701 3:0.12016 4:0.59077901 5:0.25008601 6:-1.3148299 7:-0.71535301 8:-0.522003 9:0.37810299 10:-0.27510399 14:1 24:1 #
-0.9599751629280397491328358228202 1:-2.3336 2:1.30775 3:2.1228299 4:0.14382499 5:-0.89914203 6:-1.16668 7:-3.2555101 8:-0.62316602 9:1.99817 10:-1.00536 14:1 24:1 #
-0.88552789673679588311472343775677 1:-3.3550999 2:-0.81002599 3:1.85581 4:-1.26761 5:-0.79622602 6:-1.3295799 7:0.77885699 8:-2.59585 9:-2.3394301 10:-0.95174402 14:1 15:1 #
0.92188028456543302802117523242487 1:-1.92642 2:1.18265 3:1.3217601 4:-0.36429101 5:0.31869599 6:-0.764566 7:-2.47105 8:0.28730401 9:2.0243001 10:-0.93513 14:1 24:1 #
0.99679671569234051808905405778205 1:-2.0157199 2:-1.28362 3:1.4552701 4:-0.86770201 5:-0.024356799 6:-0.85050499 7:-0.97684002 8:-2.1912 9:-0.536452 10:-0.93588501 14:1 24:1 #
0.98849774717537042256765289494069 1:-2.17644 2:1.36136 3:1.4552701 4:-0.95238799 5:-0.264494 6:-0.81010097 7:-2.5831201 8:-0.42084 9:1.71074 10:-0.36874601 14:1 24:1 #
-0.99484004884741594754160587399383 1:-1.92285 2:1.3703001 3:1.7223001 4:-0.98532099 5:-0.50463098 6:-1.00378 7:-2.7698901 8:-0.62316602 9:1.7368701 10:-0.37403199 14:1 24:1 #
-0.89168185322258763925162838859251 1:-2.2228701 2:-1.11384 3:1.5887901 4:-0.75949198 5:0.45591801 6:-0.44005099 7:-0.34180099 8:-2.4946899 9:-1.2681 10:-0.87924701 14:1 24:1 #
-0.9097254269301510154477341529855 1:-1.90856 2:-1.3014899 3:2.1228299 4:-0.467796 5:0.095711797 6:-1.11089 7:-1.46246 8:-2.9499199 9:-0.71936202 10:-0.65269297 14:1 24:1 #
1.1623519909182378206935482012341 1:-2.5121801 2:1.34349 3:2.1228299 4:-0.067889899 5:-0.65900499 6:-0.972359 7:-3.29287 8:-0.82549298 9:1.91978 10:-0.74482501 14:1 24:1 #
1.1412496299480672234949452104047 1:-2.29074 2:-1.3908499 3:1.5887901 4:-0.56189102 5:0.42161199 6:-0.85178798 7:-1.46246 8:-2.0394499 9:-0.092239402 10:-0.860367 14:1 24:1 #
0.59555438504260460597095061530126 1:-1.94785 2:1.07542 3:0.65420598 4:-0.82065398 5:-0.17873099 6:-1.09101 7:-1.68659 8:0.89428401 9:1.8152601 10:-1.10807 14:1 24:1 #
-1.1559046454553221217054215230746 1:-1.83713 2:0.95925301 3:0.65420598 4:-0.50543398 5:-0.264494 6:-1.33407 7:-1.64923 8:1.09661 9:1.86752 10:-0.91776103 14:1 24:1 #
-0.91031845735671623742746305651963 1:-2.0871501 2:-0.908319 3:0.65420598 4:-0.251376 5:-0.213036 6:-0.90950799 7:0.55472499 8:-1.43247 9:-1.29423 10:-0.92908901 14:1 24:1 #
-0.86744425531115221250644253814244 1:-2.36217 2:-1.14958 3:3.1909201 4:-0.95238799 5:0.21578 6:-0.59461302 7:-1.31304 8:-4.5179601 9:-1.99974 10:-0.72594601 14:1 24:1 #
0.9492757018670485713585094345035 1:-1.9871401 2:1.40604 3:1.85581 4:-0.98532099 5:-0.29879901 6:-1.09614 7:-2.99402 8:-0.92665702 9:1.65848 10:-0.55300999 14:1 24:1 #
0.84692978594108903056536519216024 1:-1.87999 2:-1.2568099 3:2.1228299 4:-0.67010099 5:0.37015399 6:-0.876158 7:-1.23833 8:-3.00051 9:-0.87614298 10:-0.97817498 14:1 24:1 #
1.0532977647967829426534080994315 1:-1.92285 2:1.20052 3:0.12016 4:-0.68421501 5:-0.058662102 6:-1.08139 7:-1.2756799 8:0.69195801 9:1.47557 10:-1.11562 14:1 24:1 #
-0.99048918829280285791583082755096 1:-1.9871401 2:1.42391 3:1.7223001 4:-0.75949198 5:0.25008601 6:-0.82677603 7:-2.6951799 8:-0.82549298 9:1.55396 10:-0.61191398 14:1 24:1 #
-0.73200655922725299529219000760349 1:-1.4478199 2:1.28988 3:0.12016 4:-0.279605 5:0.232933 6:-1.30265 7:-1.31304 8:0.489631 9:1.39718 10:-0.87018502 14:1 24:1 #
-1.0106294698007085575142127709114 1:-2.2621601 2:1.42391 3:0.12016 4:-1.12646 5:-0.57324201 6:-1.11089 7:-1.2009701 8:0.186141 9:1.16201 10:-1.2221 14:1 24:1 #
0.89328359965581494162023545868578 1:-2.2514501 2:-0.91725498 3:0.65420598 4:-0.251376 5:0.35300201 6:-0.76969701 7:0.55472499 8:-1.3818901 9:-1.24196 10:-0.969868 14:1 24:1 #
0.78180546567147479741777260642266 1:-1.91571 2:1.37923 3:0.65420598 4:-0.44427201 5:0.0099485395 6:-0.88770199 7:-1.7613 8:0.034395501 9:1.42331 10:-0.800708 14:1 24:1 #
1.0843972242102146719133770602639 1:-1.71927 2:-0.91725498 3:0.52069402 4:-0.56189102 5:0.061406501 6:-0.93516099 7:0.55472499 8:-1.23015 9:-1.13744 10:-1.0559601 14:1 24:1 #
-1.2212856983276936251314737091889 1:-2.2943101 2:-0.93512601 3:0.52069402 4:-0.50543398 5:0.26723799 6:-1.06407 7:0.51736999 8:-1.23015 9:-1.08518 10:-1.0197099 14:1 24:1 #
-0.56439539003652339221872580310446 1:-1.9299901 2:0.968189 3:-0.54739702 4:-1.12646 5:-0.72761601 6:-1.2693 7:-0.60328698 8:1.09661 9:1.16201 10:-1.3029 14:1 24:1 #
-0.76381377008161788211282328120433 1:-1.69784 2:-0.54195303 3:0.12016 4:-0.95238799 5:-0.59039497 6:-1.14552 7:1.15241 8:-0.370258 9:-1.16357 10:-1.2153 14:1 24:1 #
0.17604251455005220927674258746265 1:-2.1300099 2:1.38817 3:0.12016 4:-0.95238799 5:-0.55608898 6:-0.70556402 7:-1.2756799 8:0.23672201 9:1.2404 10:-1.02877 14:1 24:1 #
0.32230049508035990557530681144272 1:-2.12644 2:1.3971 3:0.12016 4:-0.95238799 5:-0.487479 6:-0.67926902 7:-1.2009701 8:0.23672201 9:1.18814 10:-1.05822 14:1 24:1 #
0.21862793277017988913257795502432 1:-2.13358 2:1.4596601 3:0.12016 4:-0.98532099 5:-0.74476802 6:-0.73185802 7:-1.23833 8:0.084977202 9:1.10975 10:-0.99856502 14:1 24:1 #
-1.1018396685921056921131366834743 1:-2.00857 2:1.272 3:-0.413885 4:-1.12646 5:-0.71046299 6:-0.81458998 7:-0.90212899 8:0.64137602 9:1.18814 10:-0.710087 14:1 24:1 #
-0.93727935866395684083585138068884 1:-1.8157001 2:1.42391 3:1.4552701 4:-0.82065398 5:-0.29879901 6:-1.01982 7:-2.4336901 8:-0.62316602 9:1.5017 10:-0.42689499 13:1 24:1 #
-0.8666549797109904806902136442659 1:-2.24073 2:-1.02448 3:0.65420598 4:-0.467796 5:0.71320802 6:-0.62988597 7:0.25588301 8:-1.43247 9:-1.00679 10:-0.603607 14:1 16:1 #
0.90504930620911683281093473851797 1:-2.12287 2:1.40604 3:1.4552701 4:-0.75949198 5:0.232933 6:-0.93900901 7:-2.5084 8:-0.57258499 9:1.58009 10:-0.90492302 14:1 24:1 #
0.65030947935396954395770308110514 1:-2.10501 2:1.36136 3:1.5887901 4:-0.56189102 5:0.30154401 6:-0.749816 7:-2.65783 8:-0.471421 9:1.7368701 10:-0.38460499 14:1 24:1 #
0.66239370080334369905727953664609 1:-2.0585799 2:1.35243 3:1.7223001 4:-0.420748 5:0.52452803 6:-0.74083698 7:-2.80725 8:-0.522003 9:1.78913 10:-0.40650499 14:1 24:1 #
-0.99802487550862417631236667148187 1:-2.35145 2:1.3256201 3:1.7223001 4:-0.56189102 5:0.30154401 6:-0.95183599 7:-2.8819599 8:-0.42084 9:1.86752 10:-1.25155 14:1 24:1 #
-0.98379197605521029323938364541391 1:-2.68362 2:1.3971 3:1.85581 4:-0.067889899 5:1.48508 6:-0.520859 7:-2.8819599 8:-0.82549298 9:1.65848 10:-0.85583597 14:1 24:1 #
-0.95287637458618057451076310826465 1:-1.96214 2:1.272 3:2.1228299 4:-0.00672783 5:1.2964 6:-1.3000799 7:-3.2555101 8:-0.471421 9:2.10269 10:-0.803729 14:1 24:1 #
1.083218206815660611397333923378 1:-1.64783 2:1.45072 3:1.3217601 4:-0.98532099 5:-0.333105 6:-0.67991 7:-2.32163 8:-0.67374802 9:1.42331 10:-0.14823399 13:1 24:1 #
0.97938738771321920406620620269678 1:-2.2978799 2:1.33455 3:-0.146862 4:-1.12646 5:-0.71046299 6:-0.74596798 7:-1.05155 8:0.489631 9:1.21427 10:-0.43142599 14:1 24:1 #
0.57476911580682477076464920173748 1:-2.07286 2:1.44178 3:-0.413885 4:-0.86770201 5:-0.60754699 6:-0.791502 7:-0.82741898 8:0.33788601 9:0.979096 10:-0.92757797 14:1 24:1 #
-0.86749379003297311108156009140657 1:-3.0014999 2:1.2809401 3:-0.28037399 4:-1.12646 5:-0.65900499 6:-0.79535002 7:-0.939484 8:0.64137602 9:1.21427 10:-0.48126799 14:1 31:1 #
-1.2353327217451648412094300510944 1:-1.44425 2:-1.21213 3:1.1882499 4:-0.63716799 5:-0.40171501 6:-0.90501797 7:-0.56593198 8:-1.98887 9:-0.693232 10:-0.72594601 13:1 24:1 #
-0.86708670014963917793693326530047 1:-2.6586201 2:1.50433 3:0.92122799 4:-1.26761 5:-0.79622602 6:-1.2455699 7:-1.83601 8:-0.522003 9:1.16201 10:-0.55754101 14:1 30:1 #
0.53064445362910195314043448888697 1:-2.25859 2:1.30775 3:1.5887901 4:-0.703035 5:0.14717001 6:-0.77610999 7:-2.7698901 8:-0.269095 9:1.8936501 10:-0.95098901 14:1 24:1 #
0.997734528359128458596671862324 1:-2.48718 2:1.36136 3:1.5887901 4:-0.129052 5:1.36501 6:-0.77995801 7:-2.7325399 8:-0.522003 9:1.7368701 10:-0.87320602 14:1 24:1 #
0.72520683023525001065223705154494 1:-2.0585799 2:1.2452 3:1.98932 4:-0.279605 5:1.1248699 6:-0.96273798 7:-3.14344 8:-0.269095 9:2.1288199 10:-0.67081797 14:1 24:1 #
-0.86894251770585451133399601530982 1:-2.28002 2:1.01287 3:2.3898499 4:-0.41133901 5:1.15918 6:-1.29944 7:-3.3675799 8:0.43904901 9:2.5207701 10:-0.420854 14:1 24:1 #
-0.86667739377839159153893433540361 1:-1.88713 2:1.22733 3:1.3217601 4:-0.129052 5:1.79383 6:-1.3064899 7:-2.5084 8:0.13555899 9:1.9720401 10:-0.19279 14:1 24:1 #
-0.86726727004855086455847867910052 1:-2.12644 2:1.30775 3:1.1882499 4:0.73662698 5:1.31355 6:-1.2135 7:-2.3589799 8:-0.066767797 9:1.78913 10:-0.113496 14:1 24:1 #
1.0325317684828980713263035795535 1:-1.6085401 2:-1.2032 3:1.05474 4:-0.56189102 5:-0.35025701 6:-1.13718 7:-0.49122199 8:-1.83713 9:-0.66710198 10:-0.46389899 13:1 24:1 #
0.98602010376790016898951307666721 1:-1.5406801 2:-1.2032 3:1.3217601 4:-0.63716799 5:-0.64185202 6:-1.13718 7:-0.60328698 8:-2.14062 9:-0.79775298 10:-0.49259499 13:1 24:1 #
0.26415824452853553516717965976568 1:-1.67641 2:-1.23001 3:1.3217601 4:-0.95238799 5:-0.67615801 6:-1.08523 7:-0.67799801 8:-2.0394499 9:-0.66710198 10:-0.424629 13:1 24:1 #
-0.87020630312754965185462197041488 1:-1.39424 2:-1.3461699 3:1.5887901 4:-0.37369999 5:-0.41886801 6:-1.21863 7:-1.2756799 8:-2.14062 9:-0.30127999 10:-0.30002499 13:1 24:1 #
-0.89306937645945616566223179688677 1:-2.0264299 2:-0.96193397 3:1.05474 4:-0.56189102 5:-0.024356799 6:-1.15321 7:0.40530401 8:-1.83713 9:-1.42488 10:-1.02424 13:1 24:1 #
-1.0512058927027343457893948652782 1:-1.30138 2:-1.31936 3:0.38718301 4:-0.75949198 5:-0.29879901 6:-0.47275901 7:-0.52857703 8:-0.977238 9:-0.0399791 10:-0.51222998 13:1 24:1 #
1.0816585434852485914092312668799 1:-2.4121699 2:1.3703001 3:2.1228299 4:-0.105528 5:1.58799 6:-0.70620501 7:-3.2555101 8:-0.92665702 9:1.84139 10:-0.87244999 14:1 24:1 #
0.6231670307751034920684674034419 1:-2.9372101 2:1.44178 3:2.3898499 4:-0.86770201 5:0.0271012 6:-0.999295 7:-3.33022 8:-1.43247 9:1.58009 10:-0.80750501 14:1 24:1 #
0.85205983977266419593377122509992 1:-2.8764901 2:-1.06023 3:2.3898499 4:-0.13846201 5:0.98764998 6:-1.31419 7:-0.453866 8:-3.6580701 9:-2.0258701 10:-1.22361 14:1 24:1 #
-1.0360952373178975438605675662984 1:-2.5978999 2:1.35243 3:2.1228299 4:0.129711 5:1.89674 6:-0.531762 7:-3.2555101 8:-0.82549298 9:1.8936501 10:-0.82638401 14:1 24:1 #
-0.8777670102850307909392313376884 1:-2.6157601 2:1.47753 3:2.1228299 4:-0.13846201 5:1.81098 6:-0.563829 7:-2.99402 8:-1.3818901 9:1.42331 10:-0.82185298 14:1 24:1 #
-0.9945410222248772802444705121161 1:-2.8371999 2:1.48646 3:2.79039 4:-0.82065398 5:0.19862799 6:-0.75686997 7:-3.7784801 8:-2.14062 9:1.42331 10:-0.68667603 14:1 24:1 #
1.0273495196329327505679884779966 1:-1.59426 2:-1.33724 3:0.52069402 4:-0.82065398 5:-0.40171501 6:-0.52599001 7:-0.640643 8:-1.02782 9:-0.013849 10:-0.78409398 13:1 24:1 #
0.20703533790180428386662470074953 1:-1.63712 2:-1.3014899 3:0.253672 4:-0.82065398 5:-0.52178401 6:-0.563829 7:-0.453866 8:-0.92665702 9:-0.092239402 10:-0.81279099 13:1 24:1 #
0.6791841742551478766642958362354 1:-1.6264 2:-1.3283 3:0.253672 4:-0.95238799 5:-0.57324201 6:-0.52534902 7:-0.52857703 8:-0.87607503 9:0.0122812 10:-0.80675 13:1 24:1 #
-0.84859094714827310035332175175427 1:-1.02993 2:-1.1763901 3:-0.54739702 4:-1.0700099 5:-0.69331002 6:-0.53496897 7:0.106462 8:-0.269095 9:-0.066109203 10:-0.467675 13:1 24:1 #
-0.86738256522873125042849551391555 1:-1.57997 2:-1.28362 3:1.5887901 4:-0.95238799 5:-0.436021 6:-0.87936503 7:-1.05155 8:-2.24178 9:-0.536452 10:-0.51751602 13:1 47:1 #
-0.96177940734048195103866873978404 1:-2.4836099 2:1.7456 3:1.85581 4:-0.279605 5:0.47307 6:-0.76777297 7:-1.9480799 8:-2.14062 9:0.221322 10:-1.2689199 14:1 24:1 #
1.0687678141427985334388495175517 1:-2.9622099 2:1.4954 3:2.79039 4:-0.82065398 5:0.181475 6:-1.15899 7:-3.7784801 8:-2.1912 9:1.39718 10:-0.88302302 14:1 24:1 #
1.0647051453720532965263600999606 1:-1.47282 2:-1.23001 3:0.92122799 4:-0.703035 5:-0.19588301 6:-0.73314101 7:-0.49122199 8:-1.5842201 9:-0.51032102 10:-0.925313 13:1 24:1 #
0.79637382787214328061509149847552 1:-2.5978999 2:1.50433 3:0.65420598 4:-0.84417802 5:-0.57324201 6:-0.67862803 7:-1.64923 8:-0.370258 9:1.13588 10:-1.00536 14:1 24:1 #
-0.92445871558819148194885428893031 1:-2.83006 2:1.4149801 3:2.79039 4:-0.75949198 5:0.747513 6:-1.35331 7:-3.96526 8:-1.78655 9:1.763 10:-0.99856502 14:1 24:1 #
-0.86772140674178110941738850669935 1:-3.21223 2:1.33455 3:3.05741 4:-0.95238799 5:0.112864 6:-1.4257801 7:-4.2641001 8:-1.53364 9:2.07656 10:-0.99781001 14:1 24:1 #
-0.89290761537765472866112759220414 1:-1.18708 2:-1.38191 3:1.1882499 4:-0.56189102 5:0.095711797 6:-0.40541899 7:-1.2009701 8:-1.68538 9:-0.013849 10:-0.45559201 13:1 24:1 #
0.93982877937678133140053660099511 1:-2.5871799 2:1.7456 3:1.7223001 4:-0.63716799 5:0.26723799 6:-0.50674999 7:-1.91072 8:-2.09004 9:0.221322 10:-1.2372 14:1 24:1 #
0.75472773965100792281646135961637 1:-1.47639 2:-1.1763901 3:-0.68090802 4:-1.12646 5:-0.74476802 6:-0.57216603 7:0.14381801 8:-0.066767797 9:-0.013849 10:-0.52053702 13:1 24:1 #
0.40597898286394129563348087685881 1:-1.03707 2:-1.1763901 3:-0.413885 4:-0.86770201 5:-0.62470001 6:-0.20404001 7:0.069107197 8:-0.42084 9:-0.17062999 10:-0.087819703 13:1 24:1 #
-0.87786212743562153093535016523674 1:-1.02279 2:-0.92619097 3:-0.146862 4:-0.279605 5:-0.86483699 6:-0.32140499 7:0.55472499 8:-0.57258499 9:-0.66710198 10:-0.340049 13:1 24:1 #
-0.72075561401787613391434206278063 1:-1.08351 2:-0.89044797 3:-0.0133511 4:-0.37369999 5:-0.230189 6:-0.0026615399 7:0.59208101 8:-0.62316602 9:-0.77162302 10:-0.67459399 13:1 24:1 #
-0.87125823507996325023583494839841 1:-0.92277998 2:-0.78321898 3:-1.34846 4:-1.26761 5:-0.79622602 6:-0.078338899 7:0.44266 8:0.38846701 9:-0.013849 10:-1.02877 13:1 24:1 #
0.89108200674726134593583992682397 1:-1.41924 2:-1.31936 3:1.1882499 4:-0.420748 5:0.26723799 6:-0.429149 7:-0.939484 8:-1.83713 9:-0.30127999 10:-0.73576301 13:1 24:1 #
1.1301990356689119998634396324633 1:-2.3336 2:1.05755 3:-0.413885 4:-1.26761 5:-0.79622602 6:-0.68055201 7:-0.82741898 8:0.99544799 9:1.29266 10:-0.489575 14:1 24:1 #
0.76531748265384880181017024369794 1:-1.79427 2:1.07542 3:-0.28037399 4:-0.84417802 5:-0.47032601 6:-0.76777297 7:-0.939484 8:0.99544799 9:1.37105 10:-0.86867398 14:1 24:1 #
-0.90312790681270338488673132815165 1:-1.61926 2:-1.24788 3:1.5887901 4:-0.13846201 5:0.59313899 6:-0.548437 7:-0.86477399 8:-2.2923601 9:-0.693232 10:-1.15564 13:1 24:1 #
-0.98243239781207225558290474509704 1:-1.07279 2:-1.1763901 3:0.78771698 4:-0.13846201 5:0.81612301 6:-0.350265 7:-0.26708999 8:-1.53364 9:-0.64097202 10:-0.38460499 13:1 24:1 #
-0.86660113415866391051167738623917 1:-0.60847199 2:-1.14958 3:1.05474 4:-0.251376 5:0.112864 6:0.397531 7:-0.26708999 8:-1.88771 9:-0.87614298 10:-1.0333 13:1 24:1 #
1.1196307258107462967444689638796 1:-2.24073 2:-1.16746 3:1.5887901 4:-0.67010099 5:0.095711797 6:-0.67991 7:-0.56593198 8:-2.4441099 9:-1.03292 10:-1.21908 14:1 24:1 #
0.33490644553224291346538166180835 1:-2.1800101 2:1.56688 3:1.3217601 4:-0.95238799 5:-0.384563 6:-0.66066998 7:-2.02279 8:-1.02782 9:1.0052299 10:-1.3127199 14:1 24:1 #
0.81507532854402842126262385136215 1:-2.30145 2:-0.93512601 3:0.253672 4:-0.19491901 5:0.164322 6:-0.74789202 7:0.51736999 8:-0.92665702 9:-0.902273 10:-0.994789 14:1 24:1 #
-0.87387487231804106269095200332231 1:-0.75848299 2:-0.96193397 3:-0.413885 4:-0.82065398 5:-0.50463098 6:0.0133718 7:0.44266 8:-0.42084 9:-0.51032102 10:0.227845 13:1 46:1 #
-0.87499722050752926083561078485218 1:-2.2550199 2:-0.64918202 3:-1.34846 4:-1.12646 5:-0.77907401 6:-1.3148299 7:0.48001501 8:0.489631 9:0.0122812 10:-1.0597301 13:1 24:1 #
-0.96777855543898605450436889441335 1:-1.1478 2:-1.14958 3:-0.0133511 4:-0.67010099 5:-0.86483699 6:-0.611929 7:0.031752001 8:-0.77491099 9:-0.37967101 10:0.0080879601 13:1 25:1 #
0.75546609650358065302100385451922 1:-1.36567 2:-1.15852 3:0.65420598 4:0.0026817201 5:0.696055 6:-0.50226098 7:-0.15502401 8:-1.43247 9:-0.66710198 10:-0.67836899 13:1 24:1 #
0.83706280103751817822654857081943 1:-1.39781 2:-1.2032 3:0.78771698 4:-0.279605 5:0.54168099 6:-0.46698701 7:-0.34180099 8:-1.48306 9:-0.536452 10:-0.704045 13:1 24:1 #
0.62666169044599218107549631895381 1:-1.3799599 2:-1.12278 3:0.92122799 4:0.0120913 5:0.62744403 6:-0.521501 7:-0.15502401 8:-1.68538 9:-0.85001302 10:-0.657224 13:1 24:1 #
-0.87324031675232149929399838583777 1:-1.41924 2:-1.1317101 3:0.12016 4:0.45434001 5:1.24494 6:-0.84537399 7:0.031752001 8:-0.87607503 9:-0.45806101 10:-0.67685902 13:1 24:1 #
-0.86756186296030168847437380463816 1:-1.34067 2:-1.1763901 3:0.52069402 4:-0.32194799 5:0.33584899 6:0.051851898 7:-0.19238 8:-1.33131 9:-0.56258202 10:-1.05067 13:1 25:1 #
-0.86642671656887171316441254020901 1:-0.82634503 2:-1.2568099 3:0.12016 4:0.83072197 5:0.67890197 6:-1.20324 7:-0.26708999 8:-0.82549298 9:-0.17062999 10:-1.07937 13:1 24:1 #
0.66002872795112899062530686933314 1:-1.30852 2:-1.19426 3:-0.146862 4:-0.82065398 5:-0.65900499 6:-0.31435001 7:-0.0056032902 8:-0.522003 9:-0.17062999 10:0.037539899 13:1 25:1 #
1.1055978327253077608816056454089 1:-1.19066 2:-1.0423599 3:-0.146862 4:-0.41133901 5:-0.69331002 6:-0.77098 7:0.293239 8:-0.67374802 9:-0.536452 10:-0.22677299 13:1 25:1 #
0.80601917461063377068342106213095 1:-1.45139 2:-1.28362 3:1.5887901 4:-0.32194799 5:0.30154401 6:-0.21815 7:-1.01419 8:-2.24178 9:-0.536452 10:-0.93286502 13:1 24:1 #
-0.86969140053096682940747541579185 1:-1.36924 2:-1.11384 3:-0.413885 4:-0.84417802 5:-0.69331002 6:0.33724499 7:0.181173 8:-0.370258 9:-0.24902 10:0.41059801 13:1 25:1 #
1.0221898926088592851613157108659 1:-2.39431 2:1.3256201 3:1.85581 4:-0.00672783 5:1.81098 6:-0.73314101 7:-3.0687301 8:-0.57258499 9:1.91978 10:-0.85734701 14:1 24:1 #
-0.85578048965575415074624743283493 1:-1.27281 2:-0.98874098 3:-0.28037399 4:-0.16669001 5:0.164322 6:-0.89475697 7:0.40530401 8:-0.471421 9:-0.51032102 10:-0.52204698 13:1 25:1 #
-0.85656933137296054070475292974152 1:-0.79777098 2:-0.89938301 3:0.253672 4:-0.56189102 5:-0.075814798 6:-0.66900802 7:0.59208101 8:-0.92665702 9:-0.95453399 10:-0.34986699 13:1 25:1 #
1.0867248327002874130897680515773 1:-2.85149 2:-1.36404 3:1.5887901 4:-0.95238799 5:-0.333105 6:-0.67221397 7:-1.35039 8:-2.14062 9:-0.19676 10:-1.12997 14:1 24:1 #
1.1423087268464591215177961203153 1:-2.4621799 2:0.64650202 3:0.92122799 4:-1.26761 5:-0.79622602 6:-0.61898297 7:-1.01419 8:1.55185 9:1.5017 10:-1.09447 14:1 31:1 #
-0.87085813849021420640639234989067 1:-2.00857 2:1.26307 3:1.98932 4:0.43081599 5:1.9482 6:-1.00827 7:-3.1808 8:-0.370258 9:2.10269 10:-1.26212 14:1 24:1 #
-0.86234000541012734153412111481884 1:-1.4371001 2:-0.86364001 3:-0.413885 4:-0.467796 5:0.095711797 6:-0.460574 7:0.59208101 8:-0.31967601 9:-0.58871198 10:-0.19883101 13:1 25:1 #
-0.88115202134066317185556727054063 1:-1.29424 2:-1.31043 3:1.98932 4:-0.420748 5:-0.00720412 6:-0.499695 7:-1.4251 8:-2.7476001 9:-0.58871198 10:-0.35439801 13:1 24:1 #
0.96505483182734175251482611201936 1:-1.5513999 2:-1.1763901 3:1.05474 4:-0.84417802 5:-0.53893697 6:-0.66708398 7:-0.37915599 8:-1.88771 9:-0.77162302 10:-0.39064601 13:1 24:1 #
0.85061462545983002048188836852205 1:-2.6050401 2:-1.0870301 3:2.52336 4:-0.32194799 5:0.0271012 6:-1.10255 7:-0.67799801 8:-3.7592299 9:-1.94748 10:-0.82185298 14:1 24:1 #
0.7357385837182462973160568253661 1:-1.7692699 2:-0.92619097 3:1.3217601 4:-0.56189102 5:0.044253901 6:-0.85178798 7:0.44266 8:-2.14062 9:-1.68618 10:-0.76370502 13:1 24:1 #
-0.54881646637475678396356215671403 1:-0.38345599 2:-1.23894 3:-0.54739702 4:-0.86770201 5:-0.67615801 6:-0.66900802 7:-0.0056032902 8:-0.218513 9:0.038411301 10:0.36453199 13:1 25:1 #
-0.63483376634228272372695300873602 1:-0.76562601 2:-1.3283 3:-0.81441897 4:-0.95238799 5:-0.69331002 6:-0.80497003 7:-0.080313802 8:0.034395501 9:0.221322 10:0.131937 13:1 25:1 #
-0.66987519118187166533573417837033 1:-0.45846099 2:-1.11384 3:-0.54739702 4:-1.26761 5:-0.79622602 6:-0.73314101 7:0.218528 8:-0.269095 9:-0.19676 10:0.41664001 13:1 25:1 #
0.64008876953114979269088280489086 1:-2.8443501 2:1.30775 3:1.7223001 4:-0.50543398 5:0.38730699 6:-0.93516099 7:-2.8446 8:-0.370258 9:1.91978 10:-0.85130501 14:1 24:1 #
0.79768880216312565423208980064373 1:-2.99436 2:1.25413 3:0.52069402 4:-0.68421501 5:-0.24734101 6:-1.3712699 7:-1.64923 8:0.43904901 9:1.60622 10:-0.93286502 14:1 24:1 #
0.96176954603463027382304062484764 1:-2.70505 2:-1.0423599 3:2.79039 4:-0.420748 5:1.0391099 6:-1.1282001 7:-0.56593198 8:-4.1638799 9:-2.3132999 10:-0.85055 14:1 24:1 #
-1.3922360374417854789186321795569 1:-1.7907 2:-0.89044797 3:2.1228299 4:-0.67010099 5:0.14717001 6:-1.08716 7:0.40530401 8:-3.10167 9:-2.39169 10:-0.97213399 13:1 24:1 #
-0.87183572523591990055535916326335 1:-3.10865 2:0.94138098 3:1.85581 4:-0.67010099 5:0.33584899 6:-1.3840899 7:-2.6951799 8:0.89428401 9:2.3378601 10:-1.07408 14:1 24:1 #
-0.86850798856038635697984773287317 1:-2.8943501 2:-1.14958 3:3.4579401 4:0.120301 5:0.88473397 6:-1.23531 7:-1.49981 8:-4.9731898 9:-2.1826501 10:-1.20926 14:1 24:1 #
1.0990763615101075689750587116578 1:-2.9907899 2:-0.93512601 3:1.98932 4:-0.44427201 5:-0.24734101 6:-1.3295799 7:0.293239 8:-2.8993399 9:-2.1303899 10:-1.17377 14:1 24:1 #
0.93856230166941867487651052215369 1:-2.97293 2:-0.79215401 3:1.5887901 4:-0.86770201 5:-0.71046299 6:-1.28789 7:0.853567 8:-2.3429401 9:-2.23491 10:-0.78409398 14:1 15:1 #
1.0748141580676215944833984394791 1:-2.2550199 2:1.20945 3:2.25634 4:0.25674 5:1.1248699 6:-0.99480498 7:-3.5543499 8:-0.370258 9:2.3117299 10:-0.64212102 14:1 24:1 #
-0.9409558811768378161488612931862 1:-3.2836599 2:-0.93512601 3:1.98932 4:-0.86770201 5:-0.11012 6:-1.23787 7:0.293239 8:-2.8993399 9:-2.1303899 10:-0.97213399 14:1 24:1 #
-0.86761834949793015248076244461117 1:-3.06936 2:-0.89938301 3:1.98932 4:-0.467796 5:0.37015399 6:-1.11089 7:0.44266 8:-2.8993399 9:-2.26104 10:-0.94721299 14:1 20:1 #
-0.86830207299816319910235051793279 1:-1.8728499 2:-0.61343902 3:1.85581 4:-0.32194799 5:0.0271012 6:-1.02046 7:1.3018301 8:-2.0394499 9:-2.5223401 10:-0.99781001 14:1 15:1 #
1.5812206374417281384836542201811 1:-1.83713 2:-0.85470498 3:2.25634 4:-0.63716799 5:0.30154401 6:-1.0583 7:0.55472499 8:-3.2028301 9:-2.5746 10:-0.96458203 13:1 24:1 #
1.0160046605731731794719507888658 1:-1.8264199 2:-0.86364001 3:1.85581 4:-0.547777 5:0.130017 6:-0.97877198 7:0.59208101 8:-2.64643 9:-2.2087801 10:-0.73123199 13:1 24:1 #
0.9002350360992867894793789673713 1:-2.7336199 2:1.4954 3:1.98932 4:-0.063185103 5:1.36501 6:-1.07112 7:-2.9193101 8:-1.3818901 9:1.34492 10:-0.803729 14:1 24:1 #
-1.1651409179517537850756525585894 1:-2.49789 2:1.52221 3:2.1228299 4:-0.24196699 5:0.901887 6:-1.0422601 7:-2.99402 8:-1.6348 9:1.2404 10:-1.04161 14:1 24:1 #
-0.95640081879633132011520046944497 1:-2.5657499 2:1.57582 3:1.4552701 4:0.063843802 5:1.69091 6:-0.71390098 7:-2.13485 8:-1.1795599 9:0.979096 10:-0.65495902 14:1 24:1 #
-0.86845638570100769371151727682445 1:-1.59426 2:-0.97980499 3:2.3898499 4:0.129711 5:1.0048 6:-0.59589499 7:-0.080313802 8:-3.6074901 9:-2.3132999 10:-1.10429 13:1 24:1 #
0.95822048437769802298191734735155 1:-3.1229401 2:-0.86364001 3:1.7223001 4:-0.84417802 5:-0.17873099 6:-1.40911 7:0.59208101 8:-2.54527 9:-2.1565199 10:-1.11033 14:1 24:1 #
0.77753609003468615590293211425887 1:-2.3907399 2:1.61156 3:1.3217601 4:-0.36429101 5:-0.075814798 6:-0.97877198 7:-2.02279 8:-1.23015 9:0.848445 10:-0.70102501 14:1 24:1 #
1.1200885448475343952878802156192 1:-2.93364 2:1.75453 3:0.65420598 4:-0.41133901 5:-0.12727299 6:-1.28789 7:-1.05155 8:-0.977238 9:0.351973 10:-1.22285 14:1 24:1 #
-0.86719216987530034490561092752614 1:-0.844203 2:0.70905203 3:0.92122799 4:-0.98532099 5:-0.86483699 6:-1.00699 7:-1.23833 8:1.50126 9:1.65848 10:-1.03934 13:1 17:1 #
-0.50886930093902260630045475409133 1:-1.96928 2:-0.85470498 3:-0.146862 4:-0.50543398 5:-0.24734101 6:-0.806894 7:0.66679102 8:-0.57258499 9:-0.77162302 10:-0.87018502 14:1 20:1 #
-0.90423826963777498288976630647085 1:-0.80134302 2:1.40604 3:0.65420598 4:-1.26761 5:-0.79622602 6:-0.68504101 7:-1.68659 8:-0.016186099 9:1.34492 10:-0.36648101 13:1 34:1 #
1.1377481157964495217527201020857 1:-2.5657499 2:1.55795 3:2.1228299 4:-0.36429101 5:0.73035997 6:-0.96530402 7:-2.8819599 8:-1.78655 9:1.08362 10:-0.65571398 14:1 24:1 #
0.50773276925548693760958940401906 1:-2.8943501 2:1.53114 3:1.98932 4:-0.37369999 5:0.901887 6:-1.19169 7:-2.8446 8:-1.53364 9:1.21427 10:-0.96080601 14:1 24:1 #
0.52765238426464389220882367226295 1:-2.3050201 2:1.55795 3:1.4552701 4:0.233216 5:1.27925 6:-0.76713198 7:-2.17221 8:-1.0784 9:1.05749 10:-0.82185298 14:1 24:1 #
-0.87046996355394401501115453356761 1:-2.56933 2:1.69198 3:2.52336 4:-0.19491901 5:0.86758101 6:-0.82677603 7:-2.8446 8:-2.7476001 9:0.40423301 10:-1.0597301 14:1 24:1 #
-0.86713657168899449523280509311007 1:-3.33724 2:1.7187901 3:0.52069402 4:-0.95238799 5:-0.41886801 6:-1.43797 7:-1.01419 8:-0.72433001 9:0.48262301 10:-0.916251 14:1 31:1 #
-0.8683081473006956096938324662915 1:-0.84063101 2:-1.15852 3:0.92122799 4:-0.063185103 5:0.91903901 6:-1.0319999 7:-0.304445 8:-1.78655 9:-0.77162302 10:-0.69196302 13:1 47:1 #
1.0864416223247417292441241443157 1:-0.85134703 2:1.31668 3:0.253672 4:-1.26761 5:-0.79622602 6:-0.78701299 7:-1.46246 8:0.33788601 9:1.42331 10:-0.42689499 13:1 34:1 #
0.93762601523339461628836488671368 1:-2.5764699 2:1.47753 3:2.25634 4:0.14382499 5:0.93619198 6:-0.849222 7:-3.14344 8:-1.48306 9:1.44944 10:-0.83695698 14:1 24:1 #
1.0299396507627189834011005586945 1:-2.35145 2:1.4596601 3:2.1228299 4:-0.13846201 5:0.66175002 6:-1.06792 7:-3.0313799 8:-1.28073 9:1.5017 10:-0.70933199 14:1 24:1 #
-0.9273188610672123965983359994425 1:-2.6693299 2:1.37923 3:2.52336 4:-0.32194799 5:0.83327597 6:-0.83383 7:-3.62906 8:-1.28073 9:1.86752 10:-0.588503 14:1 24:1 #
-0.85815116717861505968301116809016 1:0.188013 2:1.36136 3:0.253672 4:-0.98532099 5:-0.50463098 6:-0.0045855399 7:-1.4251 8:0.23672201 9:1.34492 10:-0.38158399 13:1 34:1 #
-1.9774344326221957590661304493551 1:-1.3228101 2:1.3703001 3:0.12016 4:-1.12646 5:-0.64185202 6:-0.64976799 7:-1.2756799 8:0.28730401 9:1.26653 10:-0.84677398 13:1 47:1 #
1.0807653477432803690305718191667 1:-2.7800601 2:1.56688 3:1.3217601 4:-0.063185103 5:1.60515 6:-1.2077301 7:-2.0975001 8:-1.0784 9:1.0052299 10:-0.96684802 14:1 24:1 #
1.1301066890066950865190165131935 1:-1.30138 2:1.3703001 3:0.78771698 4:-1.12646 5:-0.69331002 6:-0.52599001 7:-1.91072 8:-0.066767797 9:1.5017 10:-0.641366 13:1 34:1 #
1.0308399798932066371293103657081 1:-2.00857 2:-0.631311 3:-0.146862 4:-0.63716799 5:-0.12727299 6:-0.97492403 7:1.00299 8:-0.31967601 9:-0.95453399 10:-0.45332599 14:1 20:1 #
-0.97471587338810106171393954355153 1:-1.57283 2:-0.58663201 3:-0.0133511 4:-0.50543398 5:-0.17873099 6:-1.35203 7:1.0403399 8:-0.269095 9:-0.98066401 10:-0.1943 14:1 20:1 #
-1.9098455891515260240964835247723 1:-1.91214 2:-0.36323801 3:-0.0133511 4:-0.95238799 5:-0.487479 6:-1.01661 7:1.15241 8:0.13555899 9:-0.87614298 10:-0.37478799 14:1 20:1 #
-1.4262302347350501730005589706707 1:-1.94428 2:-0.72960401 3:0.52069402 4:-0.98532099 5:-0.315952 6:-0.94798797 7:1.00299 8:-1.02782 9:-1.3987499 10:-0.45106101 14:1 20:1 #
2.0971648023337037258784221194219 1:-1.39424 2:1.38817 3:0.253672 4:-1.12646 5:-0.62470001 6:-0.73185802 7:-1.38775 8:0.186141 9:1.26653 10:-0.95854098 13:1 47:1 #
0.87584708781181885850486423805705 1:-2.47646 2:1.4149801 3:2.3898499 4:-0.50543398 5:0.93619198 6:-0.62988597 7:-3.4049301 8:-1.28073 9:1.71074 10:-0.938151 14:1 24:1 #
1.0392702960328408234857988645672 1:-1.2192301 2:1.38817 3:0.52069402 4:-0.95238799 5:-0.47032601 6:-0.57857901 7:-1.57452 8:0.084977202 9:1.37105 10:-0.74256003 13:1 47:1 #
-0.86694435949083714643137454913813 1:-0.744196 2:1.37923 3:0.38718301 4:-1.0700099 5:-0.69331002 6:-0.0065095401 7:-1.5371701 8:0.13555899 9:1.34492 10:-1.0786099 13:1 47:1 #
-0.89038003032948198622875679575372 1:-0.67276198 2:1.22733 3:1.1882499 4:-0.84417802 5:-0.384563 6:-0.49135801 7:-2.3963399 8:0.23672201 9:1.94591 10:-0.61191398 13:1 47:1 #
-0.86273075669890930683436636172701 1:-0.294164 2:1.46859 3:1.05474 4:-0.67010099 5:-0.17873099 6:-0.52021801 7:-2.0601399 8:-0.522003 9:1.31879 10:-0.566603 13:1 47:1 #
0.50543931850907575231701684970176 1:-1.81927 2:-0.37217399 3:-0.146862 4:-0.75949198 5:-0.52178401 6:-1.18977 7:1.11505 8:0.13555899 9:-0.823883 10:-0.42916 14:1 20:1 #
0.77858642996237925615332642337307 1:-1.81213 2:-0.434724 3:-0.146862 4:-0.95238799 5:-0.65900499 6:-1.2212 7:1.11505 8:0.034395501 9:-0.87614298 10:-0.467675 14:1 20:1 #
1.2425544397581624878057482419536 1:-2.0157199 2:-0.82789701 3:0.52069402 4:-0.84417802 5:-0.161578 6:-1.02623 7:0.77885699 8:-1.12898 9:-1.29423 10:-0.389891 14:1 20:1 #
-0.89953778667808814706319253673428 1:-1.9299901 2:-0.58663201 3:-0.81441897 4:-0.420748 5:0.59313899 6:-0.76969701 7:0.74150199 8:0.23672201 9:-0.35354099 10:-0.82940501 14:1 20:1 #
-0.96672654437587279829813269316219 1:-1.4621 2:1.4596601 3:0.78771698 4:-1.12646 5:-0.55608898 6:-0.76648998 7:-1.72394 8:-0.269095 9:1.26653 10:-0.121803 13:1 27:1 #
-0.96948909108010794533072385092964 1:-0.88349199 2:1.3703001 3:0.65420598 4:-0.50543398 5:-0.075814798 6:-0.39900601 7:-1.72394 8:0.084977202 9:1.44944 10:-0.53564101 13:1 27:1 #
1.3422800511805126344455629805452 1:-2.00857 2:-0.300688 3:0.253672 4:-1.0700099 5:-0.57324201 6:-1.15321 7:1.26448 8:0.13555899 9:-1.03292 10:-0.43067101 14:1 20:1 #
0.70539646328646998796330080949701 1:-2.0050001 2:-0.57769603 3:0.52069402 4:-0.86770201 5:-0.50463098 6:-1.1179399 7:1.18976 8:-0.72433001 9:-1.42488 10:-0.38536 14:1 20:1 #
0.10757291650186048825865725575568 1:-2.04072 2:-0.52408201 3:0.65420598 4:-0.98532099 5:-0.50463098 6:-1.09293 7:1.3018301 8:-0.77491099 9:-1.60779 10:-0.36195001 14:1 20:1 #
-0.86677119656414691739598765707342 1:-3.31581 2:-0.631311 3:0.52069402 4:-0.86770201 5:-0.52178401 6:-1.20837 7:1.15241 8:-0.87607503 9:-1.4771399 10:-1.0469 14:1 20:1 #
-0.86533034525012519910802666345262 1:-2.2978799 2:-0.40791699 3:0.253672 4:-0.56189102 5:-0.29879901 6:-0.760077 7:1.22712 8:-0.11735 9:-1.11131 10:-0.74633503 14:1 17:1 #
-0.86720032945044356331720791786211 1:-1.0013601 2:-1.23894 3:0.92122799 4:0.43081599 5:-0.62470001 6:-0.65297401 7:-0.56593198 8:-1.6348 9:-0.484191 10:0.57824802 13:1 24:1 #
0.89043496252561871173725194239523 1:-0.84063101 2:1.3971 3:0.65420598 4:-0.68421501 5:-0.41886801 6:-0.442617 7:-1.79866 8:-0.066767797 9:1.39718 10:-0.31286299 13:1 27:1 #
1.0445315972662825299011046809028 1:-1.51925 2:1.3703001 3:0.78771698 4:-1.12646 5:-0.64185202 6:-0.47468299 7:-1.91072 8:-0.016186099 9:1.5017 10:-0.30757701 13:1 27:1 #
1.0242744177215441503392412414541 1:-1.37638 2:1.44178 3:0.65420598 4:-1.12646 5:-0.64185202 6:-0.40092999 7:-1.7613 8:-0.218513 9:1.29266 10:-0.52280301 13:1 27:1 #
-0.86675175857814379387633607620955 1:-3.08008 2:1.53114 3:0.65420598 4:0.073253401 5:0.73035997 6:-1.25711 7:-1.5371701 8:-0.370258 9:1.03136 10:-1.35803 14:1 19:1 #
-0.76139581466906280926565386835136 1:-3.0729301 2:1.01287 3:1.05474 4:-0.84417802 5:-0.19588301 6:-1.1763 7:-1.98543 8:0.944866 9:1.99817 10:-0.89737099 14:1 20:1 #
-0.86916355125777988721580413766787 1:-2.13358 2:-1.37298 3:-0.0133511 4:-0.067889899 5:-0.41886801 6:-0.60038501 7:-0.453866 8:-0.522003 9:0.169062 10:-1.1496 14:1 24:1 #
0.51333898260690824510987795292749 1:-1.1835099 2:1.25413 3:1.1882499 4:-0.82065398 5:-0.213036 6:-0.590765 7:-2.32163 8:0.13555899 9:1.86752 10:-0.75011098 13:1 47:1 #
0.96416671890599492389384295165655 1:-2.01214 2:-0.65811801 3:-0.54739702 4:-0.420748 5:0.40446001 6:-0.86525601 7:0.816212 8:-0.066767797 9:-0.614842 10:-0.55754101 14:1 20:1 #
0.9615681598850965849933913887071 1:-2.5228901 2:1.29881 3:2.3898499 4:-0.251376 5:1.0048 6:-0.97364098 7:-3.5543499 8:-0.77491099 9:2.07656 10:-0.65420401 14:1 24:1 #
-0.87801442516867167498162416450214 1:-1.63355 2:-1.3283 3:-0.81441897 4:-0.44427201 5:-0.29879901 6:-1.18015 7:-0.080313802 8:0.034395501 9:0.221322 10:-0.38460499 14:1 20:1 #
-0.86664850958385930557170695465175 1:-2.2193 2:-0.970869 3:-0.54739702 4:-0.16669001 5:0.078559197 6:-1.14937 7:0.44266 8:-0.269095 9:-0.37967101 10:-1.0197099 14:1 18:1 #
-0.86709625099972065243036922765896 1:-2.2550199 2:1.2809401 3:2.25634 4:-0.63716799 5:-0.144425 6:-1.00699 7:-3.4049301 8:-0.57258499 9:2.10269 10:-1.00536 14:1 20:1 #
1.1053000579998992769503729505232 1:-3.3443799 2:1.45072 3:1.5887901 4:-1.0700099 5:-0.53893697 6:-1.33407 7:-2.5457599 8:-0.82549298 9:1.44944 10:-1.23116 14:1 24:1 #
1.1354452041603062539820712117944 1:-2.6193299 2:1.28988 3:2.25634 4:0.073253401 5:-1.15643 6:-0.89155 7:-3.517 8:-0.72433001 9:2.10269 10:-0.81581199 14:1 24:1 #
0.69694177960133629756711570735206 1:-2.8657801 2:1.45072 3:1.7223001 4:-0.68421501 5:0.112864 6:-0.82485199 7:-2.65783 8:-0.92665702 9:1.47557 10:-0.97213399 14:1 24:1 #
-0.86776183496713532594668549791095 1:-1.5513999 2:0.61969399 3:1.3217601 4:-1.0700099 5:-0.53893697 6:-0.431714 7:-1.16362 8:1.55185 9:1.52783 10:-0.32041499 13:1 16:1 #
-0.86637588123049280586229770051432 1:-1.21566 2:-0.68492502 3:-0.81441897 4:-1.12646 5:-0.81337899 6:-0.90886599 7:0.70414603 8:0.13555899 9:-0.37967101 10:-0.25924501 13:1 47:1 #
-0.86801030522755218132857635282562 1:-0.77991301 2:1.07542 3:-0.146862 4:-1.26761 5:-0.79622602 6:-0.42209399 7:-1.05155 8:0.944866 9:1.44944 10:-0.68365598 13:1 37:1 #
0.80689731735036718252018772545853 1:-1.21566 2:-1.06023 3:-0.0133511 4:-0.44427201 5:-0.67615801 6:-0.26625001 7:0.25588301 8:-0.82549298 9:-0.56258202 10:0.119854 13:1 24:1 #
1.1367014359174170134991754821385 1:-0.62633002 2:-0.765347 3:1.05474 4:-0.129052 5:1.10772 6:-0.755588 7:0.96563298 8:-1.6348 9:-1.7907 10:-1.10807 13:1 47:1 #
0.67770076471125217931756878897431 1:-2.01929 2:-1.06023 3:1.05474 4:-0.95238799 5:-0.436021 6:-1.0801001 7:0.069107197 8:-1.88771 9:-1.16357 10:-0.97817498 13:1 24:1 #
-1.7935820016996482095805731660221 1:-1.59069 2:-0.85470498 3:0.78771698 4:-1.12646 5:-0.64185202 6:-1.01982 7:0.70414603 8:-1.48306 9:-1.45101 10:-0.477492 13:1 24:1 #
-0.86706831175234011510610798723064 1:-0.451318 2:-0.80109 3:0.52069402 4:-0.50543398 5:0.47307 6:-0.53625101 7:0.816212 8:-1.1795599 9:-1.37262 10:-0.41858801 13:1 47:1 #
-0.87657520881196615558650364619098 1:-1.25852 2:-0.96193397 3:0.92122799 4:-1.12646 5:-0.62470001 6:-0.67926902 7:0.40530401 8:-1.68538 9:-1.29423 10:-0.80221897 13:1 47:1 #
0.75703025069793350443347890177392 1:-2.17644 2:0.95925301 3:1.3217601 4:-0.41133901 5:0.57598603 6:-0.73763001 7:-2.13485 8:0.99544799 9:2.10269 10:-1.2372 14:1 24:1 #
1.053216378152004528701013441605 1:-1.62283 2:-1.16746 3:-0.54739702 4:-0.84417802 5:-0.59039497 6:-1.2212 7:0.106462 8:-0.218513 9:-0.066109203 10:-0.40952599 14:1 20:1 #
0.77551301089438950953081075567752 1:-1.8657 2:1.2362601 3:1.98932 4:0.035615101 5:1.86244 6:-1.0319999 7:-3.2555101 8:-0.269095 9:2.1810801 10:-0.59076899 14:1 24:1 #
-0.87076226504768849956406029377831 1:-1.62283 2:-0.78321898 3:0.52069402 4:0.426112 5:1.63945 6:-0.98710901 7:0.89092302 8:-1.12898 9:-1.37262 10:-0.45181599 14:1 24:1 #
-0.86697103787573048805370490299538 1:-3.1586499 2:1.79921 3:1.3217601 4:-0.36429101 5:0.35300201 6:-1.3148299 7:-1.38775 8:-1.73596 9:0.064541399 10:-1.32329 14:1 19:1 #
-0.87280048688271372192559738323325 1:-2.59076 2:-0.595568 3:1.85581 4:-1.12646 5:-0.59039497 6:-0.73763001 7:1.33919 8:-2.0394499 9:-2.5746 10:-1.12695 14:1 18:1 #
1.1198230685950085749880145158386 1:-1.35495 2:-0.86364001 3:0.92122799 4:-1.26761 5:-0.79622602 6:-1.04996 7:0.70414603 8:-1.6348 9:-1.5294 10:-0.46238801 13:1 24:1 #
1.0693217859387851298436089564348 1:-1.87642 2:-0.94406199 3:0.78771698 4:-1.12646 5:-0.55608898 6:-0.999295 7:0.44266 8:-1.6348 9:-1.3203599 10:-0.43369201 13:1 24:1 #
0.55378855114135094872551690059481 1:-1.31209 2:-0.86364001 3:0.92122799 4:-0.98532099 5:-0.91629499 6:-1.08716 7:0.66679102 8:-1.5842201 9:-1.50327 10:-0.496371 13:1 24:1 #
-0.86692407593106945995486967149191 1:-0.73348099 2:-0.57769603 3:1.05474 4:-1.26761 5:-0.79622602 6:-0.31755701 7:1.33919 8:-1.28073 9:-1.94748 10:-0.38536 13:1 24:1 #
-0.86780333514709895315064613896539 1:-2.93364 2:-1.33724 3:0.65420598 4:-1.12646 5:-0.72761601 6:-0.88321298 7:-0.67799801 8:-1.12898 9:-0.0399791 10:-1.01744 14:1 28:1 #
-0.86750212429255524337889937669388 1:-3.33724 2:-0.836833 3:1.4552701 4:0.0120913 5:0.30154401 6:-1.2693 7:0.74150199 8:-2.14062 9:-1.97361 10:-1.35954 14:1 19:1 #
1.0389903115374266029391492338618 1:-1.44067 2:-0.84576899 3:0.78771698 4:-0.95238799 5:-0.45317301 6:-1.31419 7:0.74150199 8:-1.53364 9:-1.50327 10:-0.27963501 13:1 24:1 #
0.90319525951626900006630194184254 1:-1.4585299 2:-0.836833 3:0.52069402 4:-0.98532099 5:-0.55608898 6:-1.33279 7:0.74150199 8:-1.23015 9:-1.3203599 10:-0.28945199 13:1 24:1 #
0.6911680873561876214949961649836 1:-1.73355 2:-0.91725498 3:0.52069402 4:-1.12646 5:-0.79622602 6:-1.12371 7:0.55472499 8:-1.33131 9:-1.1897 10:-0.58397198 13:1 24:1 #
-1.0437850469875842307487801008392 1:-1.98 2:-0.77428299 3:0.253672 4:-1.12646 5:-0.76192099 6:-1.15257 7:0.853567 8:-0.82549298 9:-1.13744 10:-1.05067 13:1 24:1 #
-0.94990635942741385999710246323957 1:-1.40139 2:-0.95299798 3:0.38718301 4:-0.82065398 5:-0.384563 6:-0.51829398 7:0.48001501 8:-1.1795599 9:-1.03292 10:-0.47598201 13:1 24:1 #
-0.92449336797244408003848548105452 1:-1.58354 2:-0.69386101 3:0.38718301 4:-0.067889899 5:-0.436021 6:-1.2058001 7:1.0403399 8:-0.82549298 9:-1.29423 10:-0.52204698 13:1 18:1 #
1.1371901353156472769256879473687 1:-0.93349499 2:-1.01555 3:1.05474 4:-0.95238799 5:-0.144425 6:-0.66066998 7:0.218528 8:-1.83713 9:-1.2681 10:-1.01744 13:1 47:1 #
0.92702006746765885925043448878569 1:-1.7014101 2:-0.836833 3:0.92122799 4:-0.86770201 5:-0.19588301 6:-0.76969701 7:0.77885699 8:-1.5842201 9:-1.58166 10:-0.85734701 13:1 24:1 #
1.0748607076432348250705217651557 1:-1.47996 2:-0.81002599 3:0.65420598 4:-0.95238799 5:-0.60754699 6:-0.62603801 7:0.816212 8:-1.28073 9:-1.42488 10:-0.99403399 13:1 24:1 #
-0.87881098660955159207475162475021 1:-0.61204398 2:-0.99767703 3:1.5887901 4:-0.56189102 5:-0.024356799 6:-0.67093199 7:0.14381801 8:-2.4441099 9:-1.63392 10:-0.672328 13:1 47:1 #
-0.73247719052228088543188277981244 1:-0.97635502 2:-0.89044797 3:1.5887901 4:-0.98532099 5:-0.41886801 6:-0.63565803 7:0.55472499 8:-2.3935299 9:-1.94748 10:-0.647407 13:1 47:1 #
-0.86712892052741497028733874685713 1:-0.369169 2:-0.84576899 3:0.92122799 4:-1.0700099 5:-0.74476802 6:-1.09165 7:0.74150199 8:-1.68538 9:-1.60779 10:-1.34368 13:1 47:1 #
0.77577745903603745336596375636873 1:-2.05143 2:-0.81002599 3:0.52069402 4:-1.0700099 5:-0.72761601 6:-1.08459 7:0.816212 8:-1.12898 9:-1.3203599 10:-1.00914 13:1 24:1 #
1.1772079204054812784363548416877 1:-1.47639 2:-0.82789701 3:0.52069402 4:-0.19491901 5:-0.76192099 6:-1.19683 7:0.77885699 8:-1.0784 9:-1.2681 10:-0.556786 13:1 18:1 #
0.85483999210347849651014939809102 1:-1.98357 2:-0.86364001 3:0.12016 4:-1.0700099 5:-0.74476802 6:-0.74083698 7:0.66679102 8:-0.77491099 9:-0.92840302 10:-0.80675 13:1 24:1 #
-0.86671052326142139499154382065171 1:-1.40496 2:-0.72066802 3:1.05474 4:-0.56189102 5:0.0099485395 6:-0.97620702 7:1.0777 8:-1.5842201 9:-1.86909 10:-0.713108 13:1 25:1 #
-0.87716192100832257594333896122407 1:-1.64069 2:-0.61343902 3:0.78771698 4:-1.12646 5:-0.86483699 6:-1.0583 7:1.18976 8:-0.977238 9:-1.63392 10:-0.81430203 13:1 25:1 #
-0.86692296553732595132402138915495 1:-1.75498 2:-0.72066802 3:1.1882499 4:-0.98532099 5:-0.65900499 6:-0.60294998 7:1.0777 8:-1.68538 9:-1.94748 10:-0.72518998 13:1 17:1 #
0.99322633208749133704174028025591 1:-0.75491101 2:-0.99767703 3:1.5887901 4:-0.50543398 5:0.49022299 6:-0.71838999 7:0.14381801 8:-2.4946899 9:-1.66005 10:-1.07786 13:1 47:1 #
0.84359071390024475967095440864796 1:-1.55854 2:-1.0423599 3:0.253672 4:-1.12646 5:-0.67615801 6:-0.74853301 7:0.25588301 8:-1.02782 9:-0.74549299 10:-0.225262 13:1 24:1 #
0.58245511549145523311210581596242 1:-1.20851 2:-1.00661 3:0.253672 4:-0.703035 5:-0.436021 6:-1.11089 7:0.330594 8:-1.0784 9:-0.823883 10:-0.53715098 13:1 24:1 #
-0.86517213256455316461313032050384 1:-0.48703501 2:-0.89938301 3:0.253672 4:-0.50543398 5:-0.19588301 6:-0.62860298 7:0.62943602 8:-1.02782 9:-1.03292 10:-0.48428899 13:1 24:1 #
-0.98418821203781514661557139334036 1:-0.89063501 2:-0.96193397 3:0.12016 4:0.063843802 5:-0.84768403 6:-0.978131 7:0.44266 8:-0.87607503 9:-0.77162302 10:-1.31876 13:1 24:1 #
-0.86694108334852892916444488946581 1:-1.3621 2:-0.91725498 3:0.38718301 4:0.52961701 5:-0.55608898 6:-0.81010097 7:0.55472499 8:-1.0784 9:-1.03292 10:-0.59303403 13:1 24:1 #
0.74241426729094883718573782971362 1:-1.47639 2:-0.72066802 3:0.52069402 4:-1.0700099 5:-0.65900499 6:-0.58371001 7:1.00299 8:-1.02782 9:-1.42488 10:-0.99856502 13:1 25:1 #
0.73709080583153885335434551961953 1:-1.43353 2:-0.64024699 3:0.52069402 4:-0.95238799 5:-0.69331002 6:-0.52983803 7:1.15241 8:-0.92665702 9:-1.4771399 10:-1.01744 13:1 25:1 #
1.0551975796747241620465729283751 1:-2.5764699 2:-0.470467 3:1.85581 4:-1.0700099 5:-0.52178401 6:-1.0025001 7:1.52596 8:-1.5842201 9:-2.4700799 10:-0.69875902 14:1 18:1 #
-0.86691700184583198041110563281109 1:-1.15851 2:-0.461532 3:0.52069402 4:-0.067889899 5:-0.230189 6:-0.37399399 7:1.3018301 8:-0.42084 9:-1.3987499 10:-1.08692 13:1 25:1 #
-0.86742674983935930121958790550707 1:-1.30495 2:-0.80109 3:0.78771698 4:-0.44427201 5:0.044253901 6:0.210261 7:0.853567 8:-1.3818901 9:-1.50327 10:-0.93513 13:1 25:1 #
-0.86869433137810081468899170431541 1:-1.26209 2:-0.99767703 3:2.25634 4:-0.41133901 5:0.55883402 6:-1.04547 7:-0.080313802 8:-3.40516 9:-2.1565199 10:-0.90265697 13:1 47:1 #
1.0398160455789242639923486422049 1:-0.84777498 2:-0.92619097 3:-0.146862 4:0.308492 5:-0.88199002 6:-1.01276 7:0.55472499 8:-0.57258499 9:-0.66710198 10:-1.26439 13:1 24:1 #
0.99016702338487883050532900597318 1:-0.894207 2:-0.81896198 3:-0.0133511 4:0.38376901 5:-1.03636 6:-1.02495 7:0.74150199 8:-0.67374802 9:-0.92840302 10:-1.3089401 13:1 24:1 #
0.40632475039120852233764935590443 1:-0.92992401 2:-1.10491 3:-0.54739702 4:-0.37369999 5:-0.315952 6:-0.075773597 7:0.218528 8:-0.269095 9:-0.22289 10:-0.0160778 13:1 46:1 #
-1.9309543625297234115123501396738 1:-0.82277298 2:-0.970869 3:-0.54739702 4:0.34142601 5:0.19862799 6:-0.0020202 7:0.44266 8:-0.31967601 9:-0.405801 10:0.081340298 13:1 46:1 #
-0.80280637171122881667884030321147 1:0.23801699 2:-1.06023 3:-0.68090802 4:-0.32194799 5:-0.60754699 6:-0.209171 7:0.293239 8:-0.218513 9:-0.22289 10:-0.31286299 13:1 46:1 #
-0.86341082701644766839166322824894 1:0.0058575599 2:-1.31936 3:-0.413885 4:-0.75949198 5:-0.40171501 6:-0.177746 7:-0.19238 8:-0.269095 9:0.116802 10:0.41815001 13:1 46:1 #
1.032401642954236864468953172036 1:-0.95135403 2:-1.29256 3:-0.68090802 4:-0.86770201 5:-0.77907401 6:-0.18736599 7:-0.042958502 8:-0.066767797 9:0.142932 10:0.48913699 13:1 25:1 #
1.1109832022875421042584775932482 1:-2.9622099 2:1.03967 3:1.5887901 4:-0.16669001 5:0.044253901 6:-1.2539001 7:-2.62047 8:0.69195801 9:2.25947 10:-0.89208502 14:1 24:1 #
1.1345305104227527692728472175077 1:-2.70505 2:1.7456 3:0.52069402 4:0.28496799 5:0.59313899 6:-1.18015 7:-1.01419 8:-0.87607503 9:0.37810299 10:-1.36332 14:1 24:1 #
-3.4082360379412866002724058489548 1:-2.05143 2:-0.595568 3:1.85581 4:-0.98532099 5:-0.55608898 6:-1.03777 7:1.33919 8:-1.98887 9:-2.5223401 10:-0.660245 13:1 18:1 #
-0.86676361175161142913481171490275 1:-2.6371901 2:-0.34536701 3:1.7223001 4:-0.86770201 5:-0.213036 6:-0.85435301 7:1.56332 8:-0.977238 9:-2.1565199 10:-0.53412998 14:1 17:1 #
-0.76431712687216846191518015984911 1:-0.494178 2:-1.14958 3:-0.28037399 4:-0.251376 5:-0.161578 6:-0.442617 7:0.106462 8:-0.471421 9:-0.22289 10:0.471012 13:1 40:1 #
1.7216394218585366893137234001188 1:-0.869205 2:-0.93512601 3:-0.54739702 4:0.120301 5:0.28439099 6:-0.048837598 7:0.48001501 8:-0.218513 9:-0.405801 10:0.078319602 13:1 46:1 #
0.93094291621967351080257913054083 1:-0.84777498 2:-1.12278 3:-0.54739702 4:0.17205399 5:0.078559197 6:-0.0283149 7:0.181173 8:-0.31967601 9:-0.19676 10:0.084361002 13:1 46:1 #
0.2603528779913472646079242167616 1:-0.88349199 2:-0.872576 3:-0.68090802 4:-0.00672783 5:0.19862799 6:-0.058457602 7:0.55472499 8:-0.11735 9:-0.405801 10:0.076053999 13:1 46:1 #
-0.72227588848291168766024838987505 1:0.0415744 2:-0.970869 3:-0.68090802 4:0.035615101 5:0.38730699 6:-0.45672601 7:0.40530401 8:-0.11735 9:-0.27515 10:0.60392398 13:1 46:1 #
-0.7278960798582099211984086650773 1:0.0522894 2:-0.86364001 3:-0.94793099 4:0.073253401 5:0.43876499 6:-0.44774699 7:0.51736999 8:0.13555899 9:-0.22289 10:0.61072099 13:1 46:1 #
-0.86743402420343229675125940048019 1:-0.42274401 2:-1.23001 3:-0.146862 4:0.83072197 5:0.130017 6:0.60724699 7:-0.117669 8:-0.62316602 9:-0.1445 10:-0.51525098 13:1 46:1 #
3.1501513454221634624730086216005 1:-2.0692899 2:-0.58663201 3:1.85581 4:-0.98532099 5:-0.50463098 6:-1.14231 7:1.3765399 8:-2.0394499 9:-2.6007299 10:-0.76068401 13:1 18:1 #
0.57428574380436614443823373221676 1:-2.12644 2:-0.57769603 3:1.85581 4:-1.0700099 5:-0.55608898 6:-1.20324 7:1.3765399 8:-1.93829 9:-2.5223401 10:-0.82940501 13:1 18:1 #
1.7509249719045332227551625692286 1:-2.0657201 2:-0.52408201 3:1.5887901 4:-1.0700099 5:-0.64185202 6:-1.10576 7:1.45125 8:-1.48306 9:-2.3132999 10:-0.72217 13:1 18:1 #
-2.2936113896212946272612498432864 1:-1.99429 2:-0.56876099 3:1.3217601 4:-0.98532099 5:-0.59039497 6:-1.06792 7:1.3765399 8:-1.48306 9:-2.1826501 10:-0.65420401 13:1 18:1 #
-0.85231490648583618785494309122441 1:-1.74784 2:-0.390046 3:1.4552701 4:-0.95238799 5:-0.50463098 6:-0.95311803 7:1.52596 8:-0.977238 9:-2.07813 10:-0.92908901 13:1 18:1 #
-0.86748192277618962897633991815383 1:-1.7121201 2:-0.54195303 3:1.05474 4:-0.75949198 5:-0.19588301 6:-1.2160701 7:1.3765399 8:-1.1795599 9:-1.94748 10:-0.82638401 13:1 18:1 #
0.52956439439112124034636508440599 1:-1.45139 2:-0.94406199 3:0.78771698 4:-0.63716799 5:-0.058662102 6:-0.63116902 7:0.44266 8:-1.53364 9:-1.2681 10:-0.33023199 13:1 24:1 #
1.1327047852955378637318517576205 1:-2.6871901 2:-1.3908499 3:1.85581 4:-0.63716799 5:0.164322 6:-0.590765 7:-1.72394 8:-2.4441099 9:-0.17062999 10:-1.17981 14:1 24:1 #
1.1207988497097929325718723703176 1:-1.99786 2:-0.80109 3:-1.21495 4:-0.105528 5:0.47307 6:-0.83126497 7:0.48001501 8:0.33788601 9:-0.0399791 10:-0.62097597 14:1 20:1 #
-0.86220798584495428329432797909249 1:-2.3907399 2:-0.84576899 3:-0.81441897 4:0.120301 5:0.095711797 6:-1.12628 7:0.55472499 8:-0.016186099 9:-0.35354099 10:-1.14054 14:1 20:1 #
-0.86933579011015460480393812758848 1:-1.56568 2:-0.62237501 3:-1.34846 4:-0.420748 5:-0.144425 6:-1.29238 7:0.48001501 8:0.489631 9:0.038411301 10:-1.25079 14:1 20:1 #
-0.87155824639232704065250345593086 1:-2.3264501 2:-1.14958 3:-0.54739702 4:0.623712 5:0.64459699 6:-0.80753601 7:0.14381801 8:-0.218513 9:-0.118369 10:-1.1934 14:1 20:1 #
2.0401332535082876695753384410636 1:-2.01929 2:-0.62237501 3:1.1882499 4:-1.12646 5:-0.69331002 6:-1.09934 7:1.26448 8:-1.48306 9:-2.052 10:-0.65420401 13:1 18:1 #
1.4183307957929438547495237799012 1:-2.0264299 2:-0.559825 3:0.78771698 4:-0.84417802 5:-0.161578 6:-1.17117 7:1.3018301 8:-0.92665702 9:-1.68618 10:-0.78409398 13:1 18:1 #
0.86767038313446120945116035727551 1:-3.11937 2:-1.05129 3:1.98932 4:-0.86770201 5:-0.17873099 6:-1.4110301 7:-0.229735 8:-3.05109 9:-1.76457 10:-1.0597301 14:1 24:1 #
-1.1495713001649472406739960206323 1:-1.75498 2:-0.51514602 3:0.78771698 4:-0.86770201 5:-0.40171501 6:-1.21799 7:1.33919 8:-0.82549298 9:-1.68618 10:-0.83469099 13:1 18:1 #
-0.92951793195789456092370528494939 1:-3.1586499 2:-1.09597 3:1.85581 4:-1.12646 5:-0.93344802 6:-1.22697 7:-0.34180099 8:-2.7981801 9:-1.4771399 10:-0.969868 14:1 24:1 #
-0.84755759940822050779729579517152 1:-1.5764 2:-0.29175201 3:0.78771698 4:-0.36429101 5:0.40446001 6:-1.11089 7:1.3765399 8:-0.11735 9:-1.37262 10:-0.83393598 13:1 18:1 #
0.75485221495615140163693013164448 1:-2.19787 2:1.38817 3:2.3898499 4:-0.95238799 5:-0.281647 6:-1.0769 7:-3.517 8:-1.23015 9:1.8152601 10:-0.96533698 14:1 24:1 #
0.67943882766895202784951379726408 1:-2.8764901 2:1.4954 3:2.9238999 4:-0.50543398 5:0.901887 6:-1.1660399 7:-3.81584 8:-2.24178 9:1.39718 10:-0.89963698 14:1 24:1 #
0.94140215065857302256802086048992 1:-2.1085801 2:-1.01555 3:-1.08144 4:-1.12646 5:-0.91629499 6:-1.04419 7:0.330594 8:0.186141 9:-0.0399791 10:-0.72141498 13:1 24:1 #
-0.87016574202802099424758353052312 1:-3.2836599 2:1.44178 3:2.79039 4:-0.27019501 5:1.24494 6:-1.35716 7:-3.7784801 8:-1.83713 9:1.60622 10:-1.12392 14:1 24:1 #
-0.86703850428109863202053020359017 1:-0.77991301 2:-0.836833 3:0.92122799 4:-0.063185103 5:0.0271012 6:0.32954901 7:0.74150199 8:-1.68538 9:-1.63392 10:-0.53715098 13:1 24:1 #
-0.86704727939718173601590933685657 1:-1.25495 2:-0.58663201 3:2.3898499 4:-0.86770201 5:-0.144425 6:-0.60294998 7:1.3765399 8:-2.64643 9:-3.07107 10:-1.28025 13:1 18:1 #
1.0880575793004358953197652226663 1:-3.1050799 2:-1.14065 3:1.85581 4:-1.12646 5:-0.53893697 6:-1.23531 7:-0.60328698 8:-2.7981801 9:-1.29423 10:-1.24551 14:1 24:1 #
0.9804886218617564486166315873561 1:-2.9514999 2:-1.06916 3:1.4552701 4:-1.26761 5:-0.79622602 6:-1.29944 7:-0.117669 8:-2.4441099 9:-1.3987499 10:-0.84224302 14:1 24:1 #
0.9679932246157995079371971769433 1:-2.7443399 2:-1.09597 3:1.4552701 4:-1.12646 5:-0.98490602 6:-1.20837 7:-0.229735 8:-2.4441099 9:-1.29423 10:-1.06578 14:1 24:1 #
-0.86762462460307887557320327687194 1:0.055861101 2:-0.23813801 3:-0.146862 4:-0.19491901 5:0.181475 6:0.0704505 7:1.0777 8:0.43904901 9:-0.66710198 10:-0.15880699 13:1 46:1 #
1.0470378553286534550892383776954 1:-2.5479 2:1.70986 3:1.7223001 4:0.204987 5:0.31869599 6:-0.92874801 7:-1.98543 8:-1.88771 9:0.430363 10:-0.885288 14:1 24:1 #
-0.70779930541324198589592242569779 1:-0.79062802 2:-0.65811801 3:0.253672 4:-0.98532099 5:-0.55608898 6:-0.25534701 7:1.0403399 8:-0.67374802 9:-1.21583 10:-1.25457 13:1 45:1 #
-0.78920673707566191268369948375039 1:-0.172727 2:-1.2568099 3:-0.413885 4:0.56725502 5:-0.075814798 6:-0.139907 7:-0.080313802 8:-0.370258 9:-0.013849 10:-0.055346999 13:1 45:1 #
0.867522914815512025121790884441 1:-1.27995 2:-1.0781 3:0.12016 4:-0.27019501 5:-0.79622602 6:-0.495206 7:0.181173 8:-0.87607503 9:-0.56258202 10:-0.69875902 13:1 24:1 #
0.79854024761876718496722560303169 1:-2.19787 2:-1.1317101 3:1.3217601 4:-0.279605 5:0.86758101 6:-0.89604002 7:-0.34180099 8:-2.24178 9:-1.08518 10:-0.81581199 14:1 24:1 #
-0.87122127087764067443487192576868 1:-1.73712 2:1.81709 3:1.3217601 4:0.14382499 5:1.10772 6:-1.04162 7:-1.31304 8:-1.78655 9:-0.013849 10:-0.55149901 14:1 24:1 #
-0.86821163168080850436325590635533 1:-0.53346699 2:-1.2210701 3:2.1228299 4:-0.32194799 5:0.55883402 6:-0.86974502 7:-1.08891 8:-3.05109 9:-1.05905 10:-0.69120699 13:1 47:1 #
-0.86688639659057220576698910008417 1:-0.88349199 2:-0.56876099 3:0.38718301 4:-1.12646 5:-0.62470001 6:-0.25534701 7:1.18976 8:-0.62316602 9:-1.37262 10:-1.35048 13:1 47:1 #
1.1320806056954724194696382255643 1:-2.7729101 2:1.2362601 3:1.3217601 4:-0.16669001 5:1.34786 6:-1.12628 7:-2.5457599 8:0.084977202 9:1.94591 10:-0.87320602 14:1 24:1 #
1.1397935487014141386907795094885 1:-2.5014601 2:1.72773 3:2.25634 4:-0.27019501 5:0.850429 6:-0.94798797 7:-2.3589799 8:-2.54527 9:0.24745201 10:-0.63305902 14:1 24:1 #
0.94347527327534685959165017266059 1:-2.9800701 2:1.81709 3:0.92122799 4:-0.75949198 5:-0.436021 6:-1.34369 7:-1.05155 8:-1.3818901 9:0.064541399 10:-0.92908901 14:1 24:1 #
-0.88287516528130760562476098129991 1:-2.21573 2:1.73666 3:1.98932 4:-0.56189102 5:0.91903901 6:-0.64912599 7:-2.17221 8:-2.2923601 9:0.24745201 10:-0.67081797 14:1 24:1 #
-0.90550384092977109773414667870384 1:-2.4514599 2:1.78134 3:0.92122799 4:-0.95238799 5:-0.57324201 6:-1.26609 7:-1.12626 8:-1.23015 9:0.221322 10:-1.15564 14:1 24:1 #
-0.87362743448233182164130994351581 1:-1.15137 2:-1.05129 3:0.253672 4:0.37906399 5:-0.95060003 6:-0.43556201 7:0.218528 8:-0.977238 9:-0.66710198 10:-0.20260701 13:1 24:1 #
1.101416923441762341084881882125 1:-1.4478199 2:-1.06916 3:-1.34846 4:-1.0700099 5:-0.83053201 6:0.25900301 7:0.293239 8:0.33788601 9:0.116802 10:-0.82865 13:1 24:1 #
0.51172445175901370983950755544356 1:-1.72284 2:0.81628102 3:0.65420598 4:-0.50543398 5:0.181475 6:-0.63886499 7:-1.31304 8:1.4001 9:1.7368701 10:-1.0484101 14:1 24:1 #
0.40004646917547292961359062246629 1:-1.82999 2:-0.74747598 3:0.52069402 4:0.83072197 5:1.02196 6:-1.03906 7:0.96563298 8:-1.0784 9:-1.42488 10:-0.422364 14:1 24:1 #
-0.89126947087069074981968697102275 1:-2.9514999 2:1.34349 3:0.65420598 4:0.308492 5:1.31355 6:-1.26096 7:-1.83601 8:0.084977202 9:1.52783 10:-1.01895 14:1 24:1 #
-0.89989369959934628617759244662011 1:-2.44432 2:1.72773 3:2.52336 4:-0.75949198 5:-0.092967398 6:-1.40911 7:-2.5831201 8:-2.7981801 9:0.19519199 10:-0.89963698 14:1 24:1 #
-0.88310850679511787575393100269139 1:-2.3907399 2:-0.94406199 3:1.1882499 4:0.289673 5:0.62744403 6:-1.33279 7:0.40530401 8:-2.0394499 9:-1.60779 10:-0.325701 14:1 24:1 #
0.80248029448669888630263358209049 1:-3.08008 2:1.36136 3:1.1882499 4:-0.95238799 5:-0.213036 6:-1.08459 7:-2.3589799 8:-0.269095 9:1.65848 10:-0.85432601 14:1 24:1 #
1.1297303693835065718786836441723 1:-0.91206503 2:-0.970869 3:-0.68090802 4:-0.547777 5:-0.84768403 6:-0.214302 7:0.40530401 8:-0.11735 9:-0.27515 10:0.520854 13:1 46:1 #
0.93127561290310345576415329560405 1:-1.9192801 2:-1.06916 3:0.38718301 4:-0.37369999 5:0.55883402 6:-1.09806 7:0.181173 8:-1.0784 9:-0.71936202 10:-1.0997601 14:1 24:1 #
-0.86760049034855357685813714851975 1:-0.312022 2:-0.38111001 3:-1.21495 4:0.063843802 5:-0.77907401 6:-0.86397302 7:0.66679102 8:0.54021198 9:-0.118369 10:0.48611599 13:1 46:1 #
-0.87399086677181803128888759601978 1:-2.3478799 2:1.66518 3:2.3898499 4:0.14853001 5:2.23979 6:-0.87230998 7:-2.6951799 8:-2.3935299 9:0.561014 10:-0.54394799 14:1 24:1 #
-0.868007871002070663379868165066 1:-3.75155 2:-1.24788 3:1.85581 4:-1.26761 5:-0.79622602 6:-1.46875 7:-1.05155 8:-2.7476001 9:-0.85001302 10:-1.1073101 14:1 15:1 #
1.1405747206697236517669580280199 1:-2.7622001 2:1.3971 3:0.78771698 4:-0.16669001 5:1.39931 6:-1.15321 7:-1.91072 8:-0.16793101 9:1.44944 10:-0.90492302 14:1 24:1 #
0.80543940337708108678782537026564 1:-2.0050001 2:-0.99767703 3:1.05474 4:0.37906399 5:0.37015399 6:-1.15257 7:0.25588301 8:-1.88771 9:-1.34649 10:-0.51525098 14:1 24:1 #
0.60893667656773975416228950052755 1:-2.4193201 2:1.75453 3:2.3898499 4:-0.86770201 5:0.0099485395 6:-0.918486 7:-2.3589799 8:-2.7981801 9:0.064541399 10:-0.597565 14:1 24:1 #
-0.86839838315910611310499689352582 1:-0.54775298 2:-1.14065 3:0.253672 4:-1.12646 5:-0.55608898 6:-0.79727399 7:-0.0056032902 8:-0.977238 9:-0.484191 10:-0.76521498 13:1 42:1 #
-0.86802858353229994659017165758996 1:-0.57632703 2:-1.16746 3:0.12016 4:-0.86770201 5:-0.72761601 6:-1.06792 7:-0.042958502 8:-0.92665702 9:-0.405801 10:-0.73576301 13:1 47:1 #
-0.68177165703843323196764458771213 1:-0.504893 2:-0.56876099 3:-0.94793099 4:-0.95238799 5:-0.67615801 6:-0.658746 7:0.74150199 8:0.28730401 9:-0.35354099 10:0.79347402 13:1 37:1 #
1.1334915903310804896619856663165 1:-2.68362 2:1.6741101 3:2.25634 4:-0.129052 5:1.82813 6:-1.1179399 7:-2.65783 8:-2.3935299 9:0.53488398 10:-0.84677398 14:1 24:1 #
1.0565101619331345172980718416511 1:-2.19787 2:-1.06023 3:1.7223001 4:-0.56189102 5:0.47307 6:-1.05317 7:-0.19238 8:-2.7476001 9:-1.55553 10:-0.85961199 14:1 24:1 #
1.1271405129589058269345969165443 1:-2.40503 2:-1.29256 3:1.5887901 4:-0.67010099 5:0.25008601 6:-0.9249 7:-1.12626 8:-2.3429401 9:-0.536452 10:-0.60436201 14:1 24:1 #
-0.87255941971489714426013506454183 1:-2.71577 2:-1.0423599 3:1.5887901 4:-0.547777 5:0.35300201 6:-0.86653799 7:-0.0056032902 8:-2.4441099 9:-1.50327 10:-0.28718701 14:1 24:1 #
-0.79540270729164730401095084744156 1:-2.12644 2:-0.75641102 3:-0.68090802 4:-0.56189102 5:-0.57324201 6:-1.27507 7:0.70414603 8:-0.066767797 9:-0.484191 10:-0.96231699 13:1 16:1 #
-0.79194141621867697455883217116934 1:-2.11215 2:-0.88151199 3:-0.413885 4:-0.420748 5:-0.65900499 6:-1.26609 7:0.59208101 8:-0.370258 9:-0.58871198 10:-0.96684802 13:1 16:1 #
1.134048790669339279446603541146 1:-1.82284 2:1.2362601 3:1.1882499 4:0.17205399 5:2.2569499 6:-1.04162 7:-2.28427 8:0.23672201 9:1.86752 10:-0.58246201 14:1 24:1 #
1.0587134138724250131957660414628 1:-1.24066 2:-1.06916 3:-0.146862 4:0.17205399 5:1.1248699 6:-0.32781801 7:0.25588301 8:-0.62316602 9:-0.45806101 10:-0.87698102 13:1 24:1 #
1.0961561625997429114676151584717 1:-1.84785 2:-1.00661 3:-0.68090802 4:0.289673 5:0.901887 6:-1.06407 7:0.36794901 8:-0.11735 9:-0.22289 10:-0.98648202 14:1 20:1 #
-0.86803212144406716177513771981467 1:-2.0335701 2:1.03074 3:1.3217601 4:0.73662698 5:2.3083999 6:-1.28276 7:-2.3589799 8:0.79312098 9:2.1549499 10:-0.89586103 14:1 24:1 #
-0.87455025856496804159689872903982 1:-2.0442901 2:-1.12278 3:-0.68090802 4:0.651941 5:1.69091 6:-0.542665 7:0.218528 8:-0.16793101 9:-0.118369 10:-0.950234 14:1 20:1 #
-0.86757148703967346126120219196309 1:-1.84785 2:1.4149801 3:0.92122799 4:0.75544602 5:3.20034 6:-0.80112201 7:-1.9480799 8:-0.269095 9:1.42331 10:-0.90567797 14:1 24:1 #
0.67268839173939598552465213288087 1:-1.77284 2:-0.89938301 3:-0.68090802 4:-0.98532099 5:-0.77907401 6:-1.4110301 7:0.51736999 8:-0.11735 9:-0.37967101 10:-0.62022102 13:1 16:1 #
0.93083765287640307661831684526987 1:-1.75498 2:-0.92619097 3:-0.413885 4:-0.98532099 5:-0.69331002 6:-1.42129 7:0.51736999 8:-0.31967601 9:-0.484191 10:-0.61568999 13:1 16:1 #
0.96227820402416730516392817662563 1:-1.72998 2:-0.98874098 3:-0.81441897 4:-0.82065398 5:-0.57324201 6:-1.40911 7:0.40530401 8:-0.016186099 9:-0.19676 10:-0.63305902 13:1 16:1 #
-0.8731723335640610983432452485431 1:-1.38353 2:-0.82789701 3:-1.08144 4:-0.32194799 5:0.130017 6:-0.70556402 7:0.51736999 8:0.186141 9:-0.19676 10:-0.55980599 13:1 16:1 #
-0.86995780654576393420285285174032 1:-1.1835099 2:-1.37298 3:-0.68090802 4:0.25203499 5:0.696055 6:-0.55677402 7:-0.15502401 8:0.034395501 9:0.27358201 10:-0.190524 13:1 24:1 #
-0.86696232664080419283436640398577 1:-0.21915901 2:-1.00661 3:0.253672 4:0.57195997 5:0.91903901 6:0.33724499 7:0.330594 8:-1.02782 9:-0.79775298 10:-1.31876 13:1 24:1 #
1.045899649856851132412316474074 1:-1.97286 2:-1.0781 3:-0.413885 4:0.233216 5:1.55369 6:-0.94542199 7:0.25588301 8:-0.42084 9:-0.327411 10:-0.76899099 14:1 20:1 #
1.1220681906614131673194378890912 1:-2.1942999 2:-1.36404 3:-0.0133511 4:-0.16669001 5:-0.12727299 6:-0.79278499 7:-0.453866 8:-0.57258499 9:0.142932 10:-0.44955 14:1 24:1 #
1.1043188082166777164161430846434 1:-2.63362 2:1.64731 3:0.92122799 4:0.0026817201 5:0.93619198 6:-1.11217 7:-1.57452 8:-0.977238 9:0.71779501 10:-1.40183 14:1 24:1 #
-0.88648700832109217362386743843672 1:-2.2550199 2:-1.31043 3:-0.68090802 4:-0.251376 5:0.112864 6:-1.19426 7:-0.080313802 8:-0.066767797 9:0.169062 10:-1.03934 14:1 24:1 #
-0.86647629136850312647766259033233 1:-1.40853 2:-0.095165797 3:-0.146862 4:-1.12646 5:-0.69331002 6:-0.87102801 7:0.96563298 8:0.69195801 9:-0.405801 10:-0.264532 13:1 16:1 #
-0.87110276987032886353290450642817 1:-2.0692899 2:-0.80109 3:-0.146862 4:-1.26761 5:-0.79622602 6:-1.0801001 7:0.74150199 8:-0.522003 9:-0.85001302 10:-0.83695698 14:1 16:1 #
1.1340124694107927005859437485924 1:-1.5764 2:-0.461532 3:-0.81441897 4:-0.129052 5:0.061406501 6:-1.0172499 7:0.816212 8:0.33788601 9:-0.35354099 10:-0.78636003 13:1 16:1 #
1.1222079627507925980722802705714 1:-0.81205797 2:-1.3908499 3:-0.413885 4:0.129711 5:0.67890197 6:-0.14632 7:-0.34180099 8:-0.218513 9:0.27358201 10:0.181779 13:1 24:1 #
1.0462171925648922066187651580549 1:-2.5121801 2:-1.2568099 3:2.25634 4:-0.32194799 5:-0.11012 6:-1.12371 7:-1.38775 8:-3.2534101 9:-0.98066401 10:-0.76446003 14:1 24:1 #
-0.75886535774675945020817380282097 1:-1.89785 2:-0.21133099 3:-0.413885 4:0.14382499 5:0.696055 6:-0.91079003 7:0.96563298 8:0.54021198 9:-0.484191 10:-0.49410599 13:1 16:1 #
-0.76899254510604775347815120767336 1:-1.4478199 2:-0.068358503 3:-0.0133511 4:-0.16669001 5:0.19862799 6:-0.87936503 7:0.96563298 8:0.74253899 9:-0.37967101 10:-0.57113397 13:1 16:1 #
-0.76420809766771635729298850492341 1:-1.46925 2:-0.175588 3:0.12016 4:-0.067889899 5:0.181475 6:-0.89347398 7:1.11505 8:0.489631 9:-0.66710198 10:-0.59001398 13:1 16:1 #
1.060202352915519341536310093943 1:-2.1407199 2:-1.23001 3:-0.54739702 4:-0.68421501 5:0.14717001 6:-0.80176401 7:-0.0056032902 8:-0.269095 9:-0.013849 10:-0.809771 14:1 24:1 #
1.1071780145148080176653593298397 1:-1.9871401 2:-1.35511 3:-0.54739702 4:-0.16669001 5:0.33584899 6:-0.590765 7:-0.19238 8:-0.11735 9:0.221322 10:-1.08692 14:1 24:1 #
1.1339070769108221536924929750967 1:-2.3336 2:-1.37298 3:-0.94793099 4:-0.36429101 5:0.33584899 6:-0.86782098 7:-0.080313802 8:0.13555899 9:0.29971299 10:-0.53715098 14:1 24:1 #
-0.86505863647620562240092567662941 1:-1.81927 2:0.065677799 3:-1.08144 4:0.14382499 5:-0.62470001 6:-0.9249 7:0.51736999 8:0.944866 9:0.169062 10:-0.57793099 13:1 16:1 #
-0.86501293281238156307466624639346 1:-1.25852 2:0.083549298 3:-1.21495 4:-0.129052 5:-0.74476802 6:-0.563829 7:0.44266 8:0.89428401 9:0.24745201 10:-0.73123199 13:1 16:1 #
-0.86850721775913330979790316632716 1:-1.6014 2:-0.300688 3:-0.68090802 4:-0.067889899 5:0.164322 6:-1.3295799 7:0.89092302 8:0.489631 9:-0.37967101 10:-1.14054 13:1 18:1 #
0.57350750381096127217261937403237 1:-2.55147 2:-0.765347 3:-0.146862 4:-0.98532099 5:-0.55608898 6:-0.66900802 7:0.816212 8:-0.471421 9:-0.87614298 10:-1.04388 14:1 16:1 #
0.84246166304603109509230307594407 1:-2.5836101 2:-0.68492502 3:-0.28037399 4:-1.12646 5:-0.71046299 6:-0.66580099 7:0.89092302 8:-0.31967601 9:-0.85001302 10:-1.03708 14:1 16:1 #
1.082174924510656888188009361329 1:-2.2050099 2:1.6741101 3:2.6568799 4:-0.86770201 5:-0.264494 6:-0.90309399 7:-2.95667 8:-2.7476001 9:0.48262301 10:-0.79315698 14:1 24:1 #
-0.86814349755513386952543442021124 1:-2.7407701 2:-0.434724 3:-0.413885 4:-1.12646 5:-0.79622602 6:-1.4110301 7:1.00299 8:0.13555899 9:-0.693232 10:-1.26212 14:1 16:1 #
-0.87462343077794624246479315843317 1:-2.3871701 2:-0.702797 3:0.253672 4:-0.75949198 5:0.49022299 6:-0.67991 7:1.00299 8:-0.72433001 9:-1.21583 10:-1.099 14:1 16:1 #
-0.86808708293730751925920685607707 1:-1.5621099 2:-0.765347 3:-0.54739702 4:-1.26761 5:-0.79622602 6:-0.88577801 7:0.70414603 8:-0.11735 9:-0.51032102 10:-1.12695 13:1 27:1 #
0.70251912884771450240606327497517 1:-2.15501 2:1.70986 3:2.1228299 4:0.53902602 5:1.87959 6:-0.82420999 7:-2.32163 8:-2.3429401 9:0.351973 10:-0.77427697 14:1 24:1 #
0.90530771270372234482692874735221 1:-2.0050001 2:-0.80109 3:0.253672 4:-1.26761 5:-0.79622602 6:-1.19618 7:0.816212 8:-0.87607503 9:-1.11131 10:-0.47598201 14:1 20:1 #
0.77517515021432814581459069813718 1:-3.01579 2:1.45072 3:0.12016 4:-0.86770201 5:-0.487479 6:-0.88770199 7:-1.2009701 8:0.13555899 9:1.10975 10:-0.93513 14:1 24:1 #
-0.86922330663777103154643555171788 1:-2.0585799 2:1.70986 3:2.1228299 4:0.651941 5:2.51424 6:-0.67606199 7:-2.3963399 8:-2.3935299 9:0.351973 10:-1.22361 14:1 24:1 #
-0.84453599439392723624564496276435 1:-1.1049401 2:-0.74747598 3:-1.21495 4:-1.12646 5:-0.77907401 6:-1.46875 7:0.51736999 8:0.33788601 9:-0.118369 10:-0.86565399 13:1 31:1 #
-0.86665029483186661884985824144678 1:-2.32288 2:-1.1763901 3:-0.146862 4:0.120301 5:2.2741001 6:-0.89860499 7:-0.0056032902 8:-0.57258499 9:-0.22289 10:-1.21983 14:1 24:1 #
1.0745553108894183580446224368643 1:-2.3764601 2:-0.872576 3:0.253672 4:-0.50543398 5:0.0099485395 6:-0.71838999 7:0.66679102 8:-0.977238 9:-1.05905 10:-1.01895 14:1 16:1 #
1.1073340212343516508752827576245 1:-2.34074 2:-0.61343902 3:-0.146862 4:-0.41133901 5:0.181475 6:-0.74147803 7:1.00299 8:-0.31967601 9:-0.95453399 10:-0.99705499 14:1 16:1 #
1.0510658729627910812354230074561 1:-2.0550001 2:1.59369 3:-0.146862 4:-1.26761 5:-0.79622602 6:-1.15386 7:-0.86477399 8:-0.066767797 9:0.770055 10:-1.1186399 14:1 24:1 #
-0.86768805690767758509451823556446 1:-1.91571 2:-0.48833901 3:0.253672 4:0.50138801 5:-0.230189 6:-0.95632499 7:1.22712 8:-0.370258 9:-1.24196 10:-0.85432601 14:1 16:1 #
-0.81939250183382239534068958164426 1:-0.34416699 2:-1.2568099 3:-0.0133511 4:0.623712 5:0.67890197 6:-0.55228502 7:-0.19238 8:-0.62316602 9:-0.092239402 10:0.61374098 13:1 47:1 #
-0.86806132211499542616905955583206 1:-0.079862803 2:-1.02448 3:1.05474 4:-0.84417802 5:-0.71046299 6:-0.70363998 7:0.14381801 8:-1.93829 9:-1.2681 10:-0.49788201 13:1 38:1 #
0.89864612524119313885506699079997 1:-1.51925 2:-0.98874098 3:-1.08144 4:-1.12646 5:-0.83053201 6:-1.40333 7:0.36794901 8:0.186141 9:-0.066109203 10:-0.43444699 13:1 31:1 #
0.69111699420069672150646056252299 1:-1.75498 2:-0.765347 3:-1.21495 4:-1.12646 5:-0.81337899 6:-1.4463 7:0.48001501 8:0.33788601 9:-0.066109203 10:-0.52129197 13:1 31:1 #
0.44564018533252380827036631671945 1:-2.2978799 2:1.79028 3:1.05474 4:0.25674 5:1.43362 6:-0.92554098 7:-1.2756799 8:-1.48306 9:0.169062 10:-0.58246201 14:1 24:1 #
-0.80120888039180027107022397103719 1:-0.89063501 2:-0.93512601 3:-1.08144 4:-1.12646 5:-0.79622602 6:-1.12371 7:0.40530401 8:0.186141 9:-0.092239402 10:0.190841 13:1 31:1 #
-0.8071422938397734281323891991633 1:-0.77276897 2:-1.14065 3:-0.94793099 4:-1.26761 5:-0.79622602 6:-0.813308 7:0.218528 8:0.084977202 9:0.0122812 10:0.185555 13:1 31:1 #
-0.86711992840832663453909390227636 1:-1.8728499 2:0.80734497 3:0.65420598 4:-0.86770201 5:-0.092967398 6:-1.17502 7:-1.31304 8:1.4001 9:1.71074 10:-0.74482501 13:1 18:1 #
0.86048739585955436037778554236866 1:-2.2121601 2:1.42391 3:1.05474 4:-1.0700099 5:-0.53893697 6:-0.81779701 7:-2.0975001 8:-0.370258 9:1.44944 10:-0.388381 14:1 24:1 #
1.1308325957894433955175372830126 1:-2.4086001 2:1.30775 3:2.79039 4:-0.56189102 5:0.49022299 6:-0.93644398 7:-4.0773301 8:-1.1795599 9:2.1810801 10:-0.96684802 14:1 24:1 #
1.1281014351770011217013234272599 1:-1.7692699 2:-1.16746 3:0.12016 4:-0.129052 5:1.05626 6:-1.13397 7:-0.042958502 8:-0.87607503 9:-0.37967101 10:-0.92908901 13:1 24:1 #
-0.86743827479832613658317086446914 1:-2.06215 2:1.26307 3:3.1909201 4:-0.36429101 5:0.88473397 6:-1.31675 7:-4.5629401 8:-1.33131 9:2.3378601 10:-0.76596999 14:1 24:1 #
-0.86675334636983214497973904144601 1:-2.9300699 2:1.18265 3:3.32443 4:-0.84417802 5:0.26723799 6:-0.59268898 7:-4.63765 8:-0.977238 9:2.57303 10:-0.85130501 14:1 24:1 #
-0.86073385322775941563833157488261 1:-0.63704598 2:1.77241 3:-0.28037399 4:-1.26761 5:-0.79622602 6:-0.59589499 7:-0.453866 8:-0.218513 9:0.37810299 10:0.238417 13:1 34:1 #
0.72171473558962417893525298495661 1:-1.4478199 2:-1.0870301 3:-0.94793099 4:-1.26761 5:-0.79622602 6:-0.690813 7:0.25588301 8:0.084977202 9:-0.013849 10:0.28977001 13:1 31:1 #
0.67547851142896120357761446939548 1:-1.49782 2:-1.12278 3:-0.81441897 4:-1.12646 5:-0.79622602 6:-0.74468499 7:0.218528 8:-0.016186099 9:-0.0399791 10:0.217272 13:1 31:1 #
1.0490705558136597108642718012561 1:-2.0978601 2:1.21839 3:1.4552701 4:-0.00672783 5:0.953345 6:-0.77610999 7:-2.5831201 8:0.13555899 9:2.0243001 10:-1.31876 14:1 24:1 #
-0.86780242656496087150230778206605 1:-2.9907899 2:-0.23813801 3:0.65420598 4:-1.12646 5:-0.67615801 6:-0.76648998 7:1.3018301 8:0.13555899 9:-1.13744 10:-0.43369201 14:1 31:1 #
-0.87040107048886661278430665333872 1:-0.84063101 2:1.72773 3:0.78771698 4:-0.86770201 5:-0.41886801 6:-0.50354302 7:-1.2756799 8:-1.0784 9:0.430363 10:-0.54017198 13:1 24:1 #
-0.86693769283525123903189069096697 1:-0.71562302 2:-0.98874098 3:-0.413885 4:1.0095 5:-0.213036 6:-1.44951 7:0.40530401 8:-0.370258 9:-0.43193099 10:-0.928334 13:1 31:1 #
0.47440155209969664396041366671852 1:-1.9192801 2:1.72773 3:-0.0133511 4:0.83072197 5:0.54168099 6:-0.92233402 7:-0.71535301 8:-0.42084 9:0.48262301 10:-0.43897799 14:1 24:1 #
1.1087539233006420413829573590192 1:-0.90135002 2:-1.15852 3:1.3217601 4:-0.467796 5:0.76466602 6:-0.71454197 7:-0.37915599 8:-2.14062 9:-0.95453399 10:-0.92229199 13:1 47:1 #
0.87686088578874255006212479202077 1:-1.61569 2:1.0218 3:0.38718301 4:-0.063185103 5:0.59313899 6:-1.16476 7:-1.4251 8:1.04603 9:1.71074 10:-1.3089401 14:1 24:1 #
-0.8682037741209285286458907648921 1:-1.52639 2:1.73666 3:-0.54739702 4:0.96245599 5:-0.024356799 6:-0.90950799 7:-0.37915599 8:0.034395501 9:0.430363 10:-0.53412998 14:1 24:1 #
-0.8671178040316519508579062858189 1:-0.729909 2:-1.2210701 3:1.4552701 4:-0.251376 5:0.164322 6:-0.60936302 7:-0.67799801 8:-2.1912 9:-0.77162302 10:0.027722601 13:1 47:1 #
-0.86708781842531990058375868102303 1:-0.2013 2:-1.21213 3:1.1882499 4:-0.50543398 5:0.14717001 6:-0.0514029 7:-0.52857703 8:-1.88771 9:-0.66710198 10:-0.0206088 13:1 47:1 #
1.1191500229107385067095492559019 1:-1.42996 2:1.7634701 3:0.78771698 4:-0.56189102 5:-0.11012 6:-0.68504101 7:-1.16362 8:-1.1795599 9:0.29971299 10:-0.56433702 13:1 24:1 #
0.98722495928689446564874288014835 1:-2.19787 2:1.37923 3:-0.81441897 4:-1.26761 5:-0.79622602 6:-0.92105198 7:-0.49122199 8:0.59079403 9:0.848445 10:-0.36270499 14:1 24:1 #
0.52303860403780144672225560498191 1:-2.00143 2:1.7634701 3:1.05474 4:-1.0700099 5:-0.60754699 6:-0.62796199 7:-1.2756799 8:-1.33131 9:0.27358201 10:-1.19189 14:1 24:1 #
-0.92096857384288566272800835577073 1:-2.3585999 2:1.79028 3:0.92122799 4:-0.95238799 5:-0.67615801 6:-0.67349702 7:-1.12626 8:-1.28073 9:0.19519199 10:-0.78560501 14:1 24:1 #
-0.86758539993482475249919616544503 1:-1.57283 2:1.50433 3:-0.28037399 4:0.186168 5:1.7595201 6:-0.93900901 7:-0.90212899 8:0.13555899 9:0.92683601 10:-0.397443 14:1 24:1 #
-0.86768616654757080297599713958334 1:-0.69062102 2:-1.0423599 3:1.1882499 4:-0.251376 5:1.2106301 6:-0.66708398 7:0.106462 8:-1.98887 9:-1.24196 10:-0.83242601 13:1 27:1 #
0.8896503655282741451770789353759 1:-0.89063501 2:-1.0781 3:-0.68090802 4:0.75544602 5:-0.24734101 6:0.0300465 7:0.25588301 8:-0.16793101 9:-0.17062999 10:-0.249428 13:1 46:1 #
1.0767703222396589612941397717805 1:-2.28002 2:-0.970869 3:0.92122799 4:-0.37369999 5:-0.69331002 6:-1.31419 7:0.36794901 8:-1.68538 9:-1.2681 10:-0.67836899 14:1 24:1 #
1.1220980107194806763004635286052 1:-1.93357 2:1.11116 3:1.1882499 4:-0.129052 5:1.1248699 6:-0.75879401 7:-2.2469201 8:0.64137602 9:2.0504301 10:-0.44048801 14:1 24:1 #
-0.95092825712712814034688335596002 1:-0.70133603 2:-1.1763901 3:-0.81441897 4:1.19769 5:0.78181797 6:0.136508 7:0.14381801 8:0.034395501 9:0.038411301 10:-0.060633302 13:1 46:1 #
-0.82999177597803874828485959369573 1:-0.70133603 2:-0.91725498 3:-0.68090802 4:1.0095 5:-0.230189 6:0.15895499 7:0.51736999 8:-0.16793101 9:-0.37967101 10:0.048867598 13:1 24:1 #
-0.8684044504052869095644950903079 1:-0.094149597 2:-0.71173298 3:-1.61549 4:0.88247502 5:0.044253901 6:-0.58755797 7:0.36794901 8:0.59079403 9:0.19519199 10:-0.57113397 13:1 46:1 #
0.91762499357626103879681522812461 1:-2.1800101 2:1.77241 3:0.65420598 4:-0.67010099 5:-0.384563 6:-0.50226098 7:-1.01419 8:-1.02782 9:0.27358201 10:-1.0597301 14:1 24:1 #
0.6528815046027094393110701275873 1:-2.06215 2:1.78134 3:0.52069402 4:-1.26761 5:-0.79622602 6:-0.67221397 7:-0.939484 8:-0.92665702 9:0.27358201 10:-0.91776103 14:1 24:1 #
0.95975042628781226383694047399331 1:-1.8264199 2:1.7634701 3:0.78771698 4:-0.95238799 5:-0.45317301 6:-1.10127 7:-1.12626 8:-1.12898 9:0.29971299 10:-0.563582 14:1 24:1 #
-0.86678568208267070538397547352361 1:-1.16208 2:-1.0781 3:1.85581 4:0.063843802 5:2.0854199 6:-0.97107601 7:-0.304445 8:-2.7981801 9:-1.50327 10:-0.41858801 13:1 47:1 #
-0.86840943925768121491870488171116 1:-0.087006196 2:1.4954 3:-0.0133511 4:-1.12646 5:-0.64185202 6:-1.03136 7:-1.05155 8:0.084977202 9:0.979096 10:0.092667997 13:1 38:1 #
-0.86673776271331293141741980434745 1:0.55232501 2:-1.05129 3:0.38718301 4:-0.467796 5:-0.17873099 6:-0.54074103 7:0.218528 8:-1.1795599 9:-0.79775298 10:-1.33084 11:1 36:1 #
0.95800068748194566747855560606695 1:-0.87277699 2:-1.06916 3:-0.81441897 4:0.96245599 5:0.86758101 6:0.0576239 7:0.293239 8:-0.11735 9:-0.1445 10:-0.31739399 13:1 46:1 #
0.86519893615095444516782663413323 1:-0.81920099 2:-1.10491 3:-0.68090802 4:0.72721702 5:1.0391099 6:0.126247 7:0.218528 8:-0.11735 9:-0.092239402 10:-0.38536 13:1 46:1 #
1.061919285080031194468119792873 1:-1.9299901 2:1.7456 3:1.4552701 4:-0.37369999 5:0.76466602 6:-0.97364098 7:-1.64923 8:-1.68538 9:0.29971299 10:-0.707066 14:1 24:1 #
-0.86939692615652863771913416712778 1:-2.01214 2:1.68305 3:1.4552701 4:-0.50543398 5:0.59313899 6:-1.34369 7:-1.8733701 8:-1.53364 9:0.561014 10:-1.37313 14:1 24:1 #
-0.86695014417616533819455071352422 1:-0.25844699 2:-0.836833 3:-0.146862 4:0.72721702 5:1.39931 6:-0.55484998 7:0.66679102 8:-0.471421 9:-0.74549299 10:-0.27208301 13:1 46:1 #
-0.86320889121335686589020497194724 1:-0.094149597 2:-1.23001 3:-0.28037399 4:1.55996 5:1.57084 6:0.37572601 7:-0.080313802 8:-0.471421 9:-0.092239402 10:-0.525823 13:1 46:1 #
0.91193718493363851163024946799851 1:-2.2835901 2:-1.05129 3:2.1228299 4:-0.37369999 5:0.98764998 6:-1.09934 7:-0.34180099 8:-3.3039999 9:-1.86909 10:-0.79768801 14:1 24:1 #
1.0581025065752922564854543452384 1:-1.70855 2:-0.559825 3:0.253672 4:-1.12646 5:-1.0878201 6:-1.08523 7:1.18976 8:-0.522003 9:-1.2681 10:-0.85583597 13:1 25:1 #
0.74692224221521619220709453657037 1:-2.3371699 2:-1.35511 3:2.25634 4:-0.50543398 5:-0.19588301 6:-1.08716 7:-1.79866 8:-2.9499199 9:-0.43193099 10:-1.04237 14:1 24:1 #
-0.81087546810209087944087968935492 1:-0.101293 2:-1.3461699 3:0.12016 4:-1.12646 5:-0.72761601 6:-0.15850601 7:-0.453866 8:-0.67374802 9:0.090671502 10:0.106261 11:1 43:1 #
-0.86841663089659926200170048105065 1:0.023716001 2:-0.184523 3:0.38718301 4:0.51550198 5:1.26209 6:-0.017412201 7:1.18976 8:0.33788601 9:-0.87614298 10:-0.39064601 13:1 48:1 #
-0.86831462607219189742124854092253 1:-0.69419199 2:0.44991499 3:1.98932 4:-0.67010099 5:0.30154401 6:0.21859901 7:-0.86477399 8:1.4001 9:1.0052299 10:-0.72518998 13:1 18:1 #
1.0956762660660923636157804139657 1:-2.7514801 2:1.7187901 3:1.4552701 4:-0.420748 5:0.37015399 6:-1.16668 7:-1.72394 8:-1.6348 9:0.37810299 10:-1.33689 14:1 24:1 #
1.0212854246539346814159898713115 1:-1.5621099 2:-1.3014899 3:1.4552701 4:-0.84417802 5:-0.41886801 6:-0.39131001 7:-1.01419 8:-2.09004 9:-0.43193099 10:-0.74256003 13:1 24:1 #
0.81050051266882339184860484238015 1:-1.72998 2:-0.55088902 3:-1.34846 4:-0.27019501 5:-0.264494 6:-1.1282001 7:0.48001501 8:0.54021198 9:0.038411301 10:-0.482023 14:1 20:1 #
-0.84856554377907356112586967356037 1:0.11658 2:-0.398981 3:-0.68090802 4:-0.16669001 5:-0.24734101 6:-0.89860499 7:0.89092302 8:0.33788601 9:-0.45806101 10:0.384922 11:1 43:1 #
-0.86390992979906167104076075702324 1:-0.51203698 2:0.45885101 3:1.1882499 4:-0.95238799 5:-0.45317301 6:-0.66066998 7:-0.52857703 8:1.55185 9:1.0052299 10:0.598638 13:1 18:1 #
-0.86648974549271817746642909696675 1:1.8167 2:-0.336431 3:1.05474 4:0.0120913 5:0.97049701 6:-0.500337 7:1.45125 8:-0.42084 9:-1.60779 10:-0.30606601 12:1 53:1 #
1.1136560917836295647731503777322 1:-0.52632302 2:-0.78321898 3:1.1882499 4:0.186168 5:1.81098 6:-0.77226198 7:0.89092302 8:-1.83713 9:-1.89522 10:-1.11033 13:1 47:1 #
1.0815156853297476224895490304334 1:-2.9372101 2:-1.38191 3:0.78771698 4:-0.56189102 5:-0.230189 6:-1.3417701 7:-0.97684002 8:-1.33131 9:0.064541399 10:-0.96080601 14:1 24:1 #
1.1307158088082329694401551023475 1:-1.93714 2:0.91457403 3:-0.68090802 4:-1.12646 5:-0.69331002 6:-0.64976799 7:-0.52857703 8:1.14719 9:1.13588 10:-0.94268203 14:1 24:1 #
-0.86746187061410429119945320053375 1:0.170155 2:-0.95299798 3:1.05474 4:0.94363701 5:2.58285 6:-0.86974502 7:0.40530401 8:-1.88771 9:-1.45101 10:-0.77050102 13:1 47:1 #
-0.86665921969471715335942008096026 1:0.73448098 2:-1.14065 3:0.65420598 4:-1.12646 5:-0.74476802 6:0.19807599 7:-0.117669 8:-1.48306 9:-0.71936202 10:0.58126903 11:1 37:1 #
-0.69189717853687482396196628542384 1:0.65233201 2:-0.104102 3:-0.146862 4:0.56725502 5:0.37015399 6:-1.37255 7:1.00299 8:0.69195801 9:-0.45806101 10:-0.176176 13:1 37:1 #
0.48505353386641514301658162366948 1:-1.17994 2:-0.872576 3:0.253672 4:-0.82065398 5:-0.45317301 6:-0.106558 7:0.66679102 8:-1.02782 9:-1.08518 10:0.139489 13:1 24:1 #
0.49355686685025873527976614241197 1:-1.54782 2:-1.2657501 3:0.253672 4:-0.129052 5:-0.19588301 6:-0.62154901 7:-0.34180099 8:-0.87607503 9:-0.1445 10:-0.72518998 13:1 24:1 #
1.1331731948320320491063739609672 1:-1.57283 2:-1.05129 3:-1.48198 4:-0.19491901 5:0.078559197 6:-1.03072 7:0.25588301 8:0.489631 9:0.19519199 10:-0.775787 13:1 16:1 #
-0.84904410038907296431887061771704 1:-1.2192301 2:-1.3461699 3:-1.48198 4:0.28496799 5:0.33584899 6:-0.70556402 7:0.14381801 8:0.54021198 9:0.32584301 10:-0.48579901 13:1 25:1 #
-0.85754524489688810362508775142487 1:-0.90135002 2:-0.354303 3:0.65420598 4:-0.41133901 5:0.47307 6:-0.022542899 7:1.3765399 8:-0.269095 9:-1.3987499 10:0.303363 13:1 24:1 #
-0.86726044667311530389497420401312 1:-0.437031 2:-0.91725498 3:0.38718301 4:-1.12646 5:-0.62470001 6:0.11342 7:0.55472499 8:-1.02782 9:-1.00679 10:0.135713 13:1 34:1 #
1.1327238313712415518352827348281 1:-2.6907599 2:-1.1763901 3:3.59146 4:-0.547777 5:1.17633 6:-1.2058001 7:-1.7613 8:-5.2261 9:-2.1303899 10:-1.28176 14:1 24:1 #
0.98467782599158770739933288496104 1:-1.63355 2:-0.461532 3:-0.68090802 4:-0.37369999 5:-0.24734101 6:-0.83062398 7:0.89092302 8:0.28730401 9:-0.484191 10:-0.77050102 13:1 18:1 #
0.81787447177517191843065802459023 1:-2.50861 2:-0.48833901 3:0.52069402 4:-0.75949198 5:-0.144425 6:-0.55484998 7:1.3018301 8:-0.522003 9:-1.42488 10:-1.17075 14:1 16:1 #
-0.86720494443546436436065505404258 1:-1.25852 2:-0.40791699 3:-0.146862 4:-0.36429101 5:-0.00720412 6:-0.52534902 7:1.15241 8:0.084977202 9:-0.902273 10:-0.707066 13:1 18:1 #
-0.86665193541584906178343317151302 1:-1.52997 2:-0.74747598 3:-0.68090802 4:0.073253401 5:0.42161199 6:-0.86204898 7:0.70414603 8:-0.016186099 9:-0.45806101 10:-0.49259499 13:1 18:1 #
-0.86737061716301666614015175582608 1:-1.25852 2:-0.47940299 3:-0.146862 4:-0.13846201 5:-0.67615801 6:-1.19683 7:1.11505 8:-0.066767797 9:-0.92840302 10:-0.61191398 13:1 18:1 #
1.1679227039251671715902602954884 1:-0.99778599 2:-0.425789 3:0.38718301 4:-0.27019501 5:-0.213036 6:-0.0526856 7:1.3018301 8:-0.269095 9:-1.24196 10:0.13646799 13:1 24:1 #
1.113462092751802412493589145015 1:-2.00143 2:-0.72960401 3:0.52069402 4:-1.12646 5:-0.74476802 6:-1.08331 7:1.00299 8:-1.0784 9:-1.42488 10:-0.62022102 13:1 18:1 #
1.0878661833232641242830140981823 1:-1.93357 2:1.08435 3:1.1882499 4:0.57195997 5:1.74237 6:-0.87230998 7:-2.2469201 8:0.69195801 9:2.0504301 10:-1.2915699 14:1 24:1 #
-0.9290339719862099610026007212582 1:-0.99064201 2:-0.32749501 3:0.65420598 4:0.035615101 5:0.0271012 6:0.033894502 7:1.3765399 8:-0.16793101 9:-1.34649 10:0.23615199 13:1 24:1 #
-0.87156196252787587752663966966793 1:-1.49782 2:-0.60450399 3:-0.0133511 4:-0.75949198 5:-0.281647 6:-0.51572901 7:1.0403399 8:-0.370258 9:-1.03292 10:-0.25849 13:1 24:1 #
-0.87258131456697030081670618528733 1:-1.6656899 2:-0.390046 3:-0.413885 4:-0.98532099 5:-1.07067 6:-0.74404401 7:1.00299 8:0.23672201 9:-0.64097202 10:-0.32796699 13:1 18:1 #
0.86011812993558611761812926488346 1:-1.93714 2:-0.60450399 3:-0.0133511 4:-0.50543398 5:-0.45317301 6:-1.1282001 7:1.0403399 8:-0.370258 9:-1.03292 10:-0.72368002 13:1 18:1 #
0.93933038512675670617113610205706 1:-1.61212 2:1.20052 3:-0.0133511 4:-1.12646 5:-0.76192099 6:-0.93900901 7:-1.23833 8:0.69195801 9:1.44944 10:-0.229038 13:1 47:1 #
0.77490387210031563824941258644685 1:-2.6871901 2:1.81709 3:2.52336 4:-0.86770201 5:-0.40171501 6:-1.19683 7:-2.2469201 8:-3.1522501 9:-0.27515 10:-1.11562 14:1 24:1 #
-0.92072717197320641524527218280127 1:-1.66212 2:-0.461532 3:-0.0133511 4:-1.26761 5:-0.79622602 6:-0.813308 7:1.15241 8:-0.11735 9:-0.98066401 10:-1.04237 13:1 18:1 #
-0.86816970608226495809134348746738 1:-0.42274401 2:-0.14878 3:1.05474 4:-0.63716799 5:-0.17873099 6:0.153183 7:1.26448 8:0.186141 9:-1.16357 10:-0.60209602 13:1 24:1 #
-0.86816970622304878713038078785758 1:-3.45153 2:-1.2568099 3:3.7249701 4:-0.86770201 5:0.43876499 6:-1.43797 7:-2.3963399 8:-5.2261 9:-1.68618 10:-1.21908 14:1 24:1 #
0.98969320598364440844108003147994 1:-1.77641 2:-0.29175201 3:-0.81441897 4:-1.26761 5:-0.79622602 6:-0.70363998 7:0.816212 8:0.54021198 9:-0.30127999 10:-0.225262 13:1 18:1 #
0.6268116582403029379833014900214 1:-1.2228 2:-0.71173298 3:-0.28037399 4:-0.75949198 5:-0.41886801 6:-0.154016 7:0.816212 8:-0.269095 9:-0.74549299 10:0.16818599 13:1 24:1 #
1.1267044510718595695664134836989 1:-1.75498 2:-0.470467 3:-0.68090802 4:-1.26761 5:-0.79622602 6:-0.53561002 7:0.89092302 8:0.23672201 9:-0.536452 10:-0.92153698 13:1 18:1 #
-0.94038620284678320349058822102961 1:-1.6085401 2:0.0478063 3:-0.54739702 4:-1.0700099 5:-0.72761601 6:-0.92297602 7:0.66679102 8:0.99544799 9:0.0122812 10:-0.340049 13:1 18:1 #
-0.86763846041142156373382476886036 1:-1.08708 2:0.056742001 3:-0.54739702 4:-1.12646 5:-0.77907401 6:-0.36437401 7:0.66679102 8:0.99544799 9:0.038411301 10:-1.25155 13:1 18:1 #
-0.86669226761076301190911408411921 1:-0.39059901 2:-0.23813801 3:-0.146862 4:-0.547777 5:-0.487479 6:-0.791502 7:1.0777 8:0.43904901 9:-0.64097202 10:-0.15880699 13:1 24:1 #
1.1162665029994069954000224242918 1:-1.8728499 2:-0.32749501 3:0.253672 4:-1.12646 5:-0.93344802 6:-1.14808 7:1.22712 8:0.084977202 9:-1.00679 10:-1.02877 13:1 18:1 #
1.1242007182553153121773448219756 1:-1.52282 2:-0.38111001 3:0.12016 4:-0.95238799 5:-0.74476802 6:-0.73185802 7:1.22712 8:-0.016186099 9:-1.00679 10:-0.50618899 13:1 18:1 #
0.99418038825092536203698045937927 1:-1.60497 2:-0.16665199 3:0.38718301 4:-1.26761 5:-0.79622602 6:-1.08523 7:1.18976 8:0.38846701 9:-0.85001302 10:-0.82940501 13:1 18:1 #
-0.86611715604455752348656005779048 1:-1.4585299 2:-0.14878 3:0.78771698 4:-0.703035 5:-0.29879901 6:-0.781241 7:1.26448 8:0.28730401 9:-1.05905 10:-0.161072 13:1 18:1 #
0.97869952199177268070684476697352 1:-1.55854 2:0.092485003 3:-0.94793099 4:-0.98532099 5:-0.89914203 6:-0.74596798 7:0.51736999 8:0.99544799 9:0.19519199 10:-0.489575 13:1 18:1 #
-0.87931151212553937401850134847336 1:-1.35495 2:0.029934799 3:0.65420598 4:-0.98532099 5:-1.12213 6:-0.62988597 7:0.89092302 8:0.84370297 9:-0.43193099 10:-0.76143903 13:1 18:1 #
-0.76204802174552577209709625094547 1:-0.81563002 2:-0.059422798 3:0.92122799 4:-0.98532099 5:-0.55608898 6:-0.611929 7:1.11505 8:0.54021198 9:-0.85001302 10:-0.42160901 13:1 18:1 #
0.76397206538943640552474789728876 1:-2.00857 2:-0.095165797 3:-0.81441897 4:-1.12646 5:-0.83053201 6:-0.92874801 7:0.70414603 8:0.79312098 9:-0.066109203 10:-0.61191398 13:1 18:1 #
0.56665907453824759798521881748457 1:-1.99786 2:0.038870499 3:-0.94793099 4:-1.26761 5:-0.79622602 6:-0.91079003 7:0.59208101 8:0.944866 9:0.116802 10:-0.61191398 13:1 18:1 #
-0.86747057413807293624330441161874 1:-1.34424 2:0.476722 3:-0.81441897 4:-0.50543398 5:-0.17873099 6:-0.69915003 7:0.069107197 8:1.24836 9:0.69166398 10:-0.64967299 13:1 18:1 #
-0.86816712738555101847026662653661 1:-0.84063101 2:-0.27388099 3:0.65420598 4:-0.84417802 5:-0.436021 6:-0.073208302 7:1.33919 8:-0.016186099 9:-1.24196 10:-0.98648202 13:1 18:1 #
-0.88296698311659527202976960325032 1:-1.17637 2:0.36949301 3:-0.68090802 4:-0.98532099 5:-0.83053201 6:-0.764566 7:0.218528 8:1.24836 9:0.561014 10:-0.88377798 13:1 31:1 #
1.0722960782270023472051434509922 1:-1.6549799 2:0.226521 3:-0.0133511 4:-1.26761 5:-0.79622602 6:-0.74789202 7:0.44266 8:1.24836 9:0.27358201 10:-0.49863699 13:1 18:1 #
1.0371674364996132933214312288328 1:-1.98357 2:1.05755 3:2.1228299 4:-0.13846201 5:0.88473397 6:-0.717749 7:-3.14344 8:0.43904901 9:2.41625 10:-0.466919 14:1 24:1 #
1.0773215511991462989271894912235 1:-1.75141 2:-1.23001 3:1.4552701 4:-0.56189102 5:0.38730699 6:-0.88064802 7:-0.71535301 8:-2.1912 9:-0.71936202 10:-0.61417902 13:1 24:1 #
-0.89617201722202288749485887819901 1:-1.42996 2:0.24439301 3:0.253672 4:-1.26761 5:-0.79622602 6:-0.66323602 7:0.40530401 8:1.2989399 9:0.29971299 10:-1.17528 13:1 18:1 #
-1.025233658947904080704915941169 1:-1.46925 2:-1.23001 3:1.85581 4:-0.67010099 5:0.42161199 6:-0.89988798 7:-0.939484 8:-2.6970201 9:-0.92840302 10:-0.43369201 13:1 24:1 #
-0.89521632459303823736718186410144 1:-1.64783 2:0.38736501 3:-0.0133511 4:-0.63716799 5:-0.64185202 6:-0.840244 7:0.106462 8:1.4001 9:0.66553402 10:-0.775787 13:1 18:1 #
0.7537856374937310643957744105137 1:-1.4585299 2:0.378429 3:-0.94793099 4:-1.26761 5:-0.79622602 6:-0.58948201 7:0.218528 8:1.14719 9:0.53488398 10:-0.49259499 13:1 31:1 #
1.1405891710676221428855114936596 1:-1.79427 2:0.029934799 3:0.65420598 4:-1.26761 5:-0.79622602 6:-0.63437599 7:0.92827803 8:0.79312098 9:-0.484191 10:-1.01744 13:1 18:1 #
0.50542941692225129557414220471401 1:-1.51925 2:0.53927302 3:-0.94793099 4:-1.12646 5:-0.72761601 6:-0.75879401 7:0.031752001 8:1.19777 9:0.71779501 10:-0.42160901 13:1 31:1 #
-0.89282225138358883853584302414674 1:-1.25495 2:0.896703 3:-1.61549 4:-1.26761 5:-0.79622602 6:-0.14760301 7:0.069107197 8:0.84370297 9:0.53488398 10:-0.60738301 13:1 31:1 #
-0.86750105180745262778430060279788 1:-1.87999 2:0.1461 3:1.7223001 4:-1.26761 5:-0.79622602 6:-1.08139 7:0.48001501 8:0.84370297 9:-0.37967101 10:-0.69422799 13:1 18:1 #
-0.66170361209881289887846378405811 1:-1.81213 2:0.1461 3:-0.0133511 4:-0.420748 5:-1.77393 6:-0.75815302 7:0.59208101 8:1.14719 9:0.090671502 10:-0.38007399 13:1 18:1 #
0.93841663535488661906924789946061 1:-1.7907 2:-1.23001 3:1.85581 4:-0.68421501 5:0.095711797 6:-0.85820103 7:-1.01419 8:-2.7981801 9:-0.95453399 10:-0.64665198 13:1 24:1 #
1.1139998045851853269994080619654 1:-1.7121201 2:-1.1763901 3:1.7223001 4:-0.50543398 5:0.47307 6:-0.87230998 7:-0.640643 8:-2.59585 9:-1.08518 10:-0.64665198 13:1 24:1 #
0.86243534400269239448277858173242 1:-1.8049901 2:-1.27469 3:1.7223001 4:-0.703035 5:0.130017 6:-0.86204898 7:-1.08891 8:-2.54527 9:-0.693232 10:-0.63003802 13:1 24:1 #
