SVM-light Version V6.02
2 # kernel type
3 # kernel parameter -d 
1 # kernel parameter -g 
1 # kernel parameter -s 
1 # kernel parameter -r 
empty# kernel parameter -u 
54 # highest feature index 
10000 # number of training documents 
5934 # number of support vectors plus 1 
0.57412583 # threshold b, each following line is a SV (starting with alpha*y)
-0.049206743901388710904498680065444 1:0.430888 2:0.235457 3:0.12016 4:-0.36429101 5:-0.333105 6:-0.210454 7:0.40530401 8:1.2989399 9:0.29971299 10:-1.46376 13:1 45:1 #
-0.14177728897207081404374662270129 1:1.51668 2:-0.908319 3:-1.34846 4:1.66817 5:0.164322 6:-0.42978999 7:0.36794901 8:0.33788601 9:0.0122812 10:0.31846601 13:1 52:1 #
-1 1:-2.2335899 2:-1.3461699 3:1.3217601 4:-0.13846201 5:0.747513 6:-0.61064601 7:-1.12626 8:-1.88771 9:-0.22289 10:-1.08692 14:1 24:1 #
-1 1:-0.544182 2:-0.78321898 3:1.3217601 4:-0.129052 5:1.34786 6:-0.55036098 7:0.92827803 8:-1.93829 9:-1.97361 10:-0.64514202 13:1 47:1 #
0.077589436571088174487975663851103 1:-2.13358 2:1.10223 3:1.05474 4:-0.84417802 5:-0.436021 6:-1.3064899 7:-2.2095599 8:0.64137602 9:2.0243001 10:-1.0559601 13:1 24:1 #
0.18390945148399973074759827795788 1:-2.1192901 2:-1.23894 3:2.6568799 4:-1.12646 5:-0.47032601 6:-1.20324 7:-1.49981 8:-3.7086501 9:-1.21583 10:-1.01065 14:1 24:1 #
0.010349783919604177082063323211969 1:-3.1979401 2:-1.27469 3:1.1882499 4:0.035615101 5:0.850429 6:-1.11089 7:-0.79006398 8:-1.88771 9:-0.45806101 10:-0.994789 14:1 24:1 #
1 1:-2.4586 2:0.36949301 3:1.05474 4:-1.12646 5:-0.67615801 6:-0.47596601 7:-0.15502401 8:1.45068 9:0.69166398 10:-0.68894202 14:1 31:1 #
-0.35169310747059651101054100763577 1:1.4381 2:-0.56876099 3:-0.68090802 4:2.22334 5:2.9259 6:-0.46955299 7:0.816212 8:0.186141 9:-0.484191 10:-0.42689499 12:1 54:1 #
0.82621777976048527136754273669794 1:-1.23709 2:0.83415198 3:0.65420598 4:-1.26761 5:-0.79622602 6:-0.60743898 7:-1.38775 8:1.34952 9:1.763 10:-0.64665198 13:1 34:1 #
-1 1:-2.3585999 2:1.58476 3:1.1882499 4:-0.75949198 5:-0.092967398 6:-1.06279 7:-1.8733701 8:-0.977238 9:0.92683601 10:-1.099 14:1 24:1 #
-1 1:-2.6979101 2:1.52221 3:0.92122799 4:-0.67010099 5:-0.315952 6:-0.749174 7:-1.79866 8:-0.62316602 9:1.10975 10:-0.63456899 14:1 24:1 #
-1 1:-2.6693299 2:0.235457 3:1.05474 4:-1.26761 5:-0.79622602 6:-0.548437 7:0.293239 8:1.24836 9:0.169062 10:-0.80675 14:1 31:1 #
0.98326334409732263353021153307054 1:-1.99429 2:-1.33724 3:1.1882499 4:-0.16669001 5:0.747513 6:-0.59781897 7:-1.01419 8:-1.73596 9:-0.19676 10:-1.19038 14:1 24:1 #
-0.27494292572970335797322150028776 1:0.48803499 2:-0.139845 3:-0.28037399 4:1.5552599 5:-1.6881599 6:2.2913899 7:0.96563298 8:0.64137602 9:-0.43193099 10:-0.36270499 11:1 43:1 #
-0.16441117758291001749171300616581 1:0.0094292397 2:0.16397101 3:-0.94793099 4:-0.98532099 5:-0.62470001 6:1.4865201 7:0.44266 8:1.04603 9:0.27358201 10:2.7191801 11:1 26:1 #
-1 1:-2.3585999 2:-1.3014899 3:1.05474 4:-0.32194799 5:0.26723799 6:-0.65682203 7:-0.82741898 8:-1.73596 9:-0.327411 10:-0.73425299 14:1 24:1 #
-1 1:-2.5479 2:-1.18533 3:1.3217601 4:0.204987 5:1.09057 6:-0.67478001 7:-0.49122199 8:-2.09004 9:-0.823883 10:-0.94721299 14:1 24:1 #
-1 1:-2.3193099 2:-1.16746 3:0.78771698 4:-0.420748 5:0.33584899 6:-0.64591998 7:-0.229735 8:-1.48306 9:-0.64097202 10:-1.0997601 14:1 24:1 #
0.068030021542979976501008820832794 1:-3.0265 2:1.58476 3:0.92122799 4:-0.82065398 5:-0.041509401 6:-1.06407 7:-1.72394 8:-0.82549298 9:0.90070599 10:-0.82185298 14:1 24:1 #
-0.23924606626728198155440452410403 1:1.28809 2:0.74479502 3:-0.94793099 4:-1.12646 5:-0.81337899 6:1.41982 7:-0.19238 8:1.14719 9:0.87457502 10:1.0154999 13:1 49:1 #
0.54690911362881244883737963391468 1:-1.7907 2:1.47753 3:0.12016 4:-1.26761 5:-0.79622602 6:-0.99801201 7:-1.12626 8:0.034395501 9:1.03136 10:-0.99856502 13:1 18:1 #
-1 1:-1.8728499 2:1.45072 3:1.05474 4:-0.68421501 5:0.30154401 6:-0.89988798 7:-2.02279 8:-0.42084 9:1.37105 10:-0.52053702 14:1 24:1 #
-1 1:-2.92292 2:-0.96193397 3:2.1228299 4:-1.0700099 5:-0.52178401 6:-0.71454197 7:0.106462 8:-3.1522501 9:-2.1565199 10:-0.74482501 14:1 24:1 #
-1 1:-3.09079 2:-0.86364001 3:2.1228299 4:-0.86770201 5:-0.333105 6:-1.3982 7:0.55472499 8:-3.05109 9:-2.4700799 10:-1.099 14:1 24:1 #
1 1:-0.62633002 2:-0.765347 3:1.05474 4:-0.129052 5:1.10772 6:-0.755588 7:0.96563298 8:-1.6348 9:-1.7907 10:-1.10807 13:1 47:1 #
0.65752469976681360286363542400068 1:-2.3907399 2:-1.11384 3:1.05474 4:-0.467796 5:0.31869599 6:-0.908225 7:-0.117669 8:-1.83713 9:-0.98066401 10:-0.58472699 14:1 24:1 #
0.69148914126146432401753827434732 1:-0.52632302 2:-0.78321898 3:1.1882499 4:0.186168 5:1.81098 6:-0.77226198 7:0.89092302 8:-1.83713 9:-1.89522 10:-1.11033 13:1 47:1 #
-1 1:-2.80863 2:1.7456 3:0.92122799 4:-0.27019501 5:-0.59039497 6:-1.13782 7:-1.2756799 8:-1.1795599 9:0.37810299 10:-0.97893101 14:1 24:1 #
-1 1:-2.8764901 2:0.56607997 3:0.92122799 4:-1.12646 5:-0.67615801 6:-0.74083698 7:-0.75270802 8:1.55185 9:1.29266 10:-0.75313199 14:1 31:1 #
-1 1:-2.99436 2:1.42391 3:0.52069402 4:-0.86770201 5:-0.230189 6:-1.2641701 7:-1.6118799 8:-0.066767797 9:1.29266 10:-1.12997 14:1 24:1 #
1 1:-3.0443599 2:-0.88151199 3:1.98932 4:-1.12646 5:-0.59039497 6:-1.17502 7:0.48001501 8:-2.8993399 9:-2.2871699 10:-0.89963698 14:1 24:1 #
0.57417185963783268221050093416125 1:-3.0729301 2:-0.89044797 3:2.25634 4:-0.703035 5:-0.436021 6:-1.35203 7:0.40530401 8:-3.3039999 9:-2.5223401 10:-1.1428 14:1 24:1 #
0.33910264197585598955342334193119 1:-3.1229401 2:-0.86364001 3:1.7223001 4:-0.84417802 5:-0.17873099 6:-1.40911 7:0.59208101 8:-2.54527 9:-2.1565199 10:-1.11033 14:1 24:1 #
-1 1:-3.2836599 2:-0.93512601 3:1.98932 4:-0.86770201 5:-0.11012 6:-1.23787 7:0.293239 8:-2.8993399 9:-2.1303899 10:-0.97213399 14:1 24:1 #
-1 1:-2.71577 2:-1.0423599 3:1.5887901 4:-0.547777 5:0.35300201 6:-0.86653799 7:-0.0056032902 8:-2.4441099 9:-1.50327 10:-0.28718701 14:1 24:1 #
-1 1:-3.06936 2:-1.0870301 3:2.52336 4:-0.56189102 5:0.164322 6:-1.32573 7:-0.67799801 8:-3.7592299 9:-1.94748 10:-1.19718 14:1 24:1 #
0.61186652520040774039244979576324 1:-2.7622001 2:-1.18533 3:0.78771698 4:0.14382499 5:0.55883402 6:-1.21863 7:-0.304445 8:-1.5842201 9:-0.64097202 10:-1.3127199 14:1 16:1 #
0.48872258628889170273268405253475 1:-2.9407799 2:1.26307 3:0.52069402 4:-0.56189102 5:-0.60754699 6:-1.3687 7:-1.64923 8:0.43904901 9:1.58009 10:-0.96458203 14:1 24:1 #
0.74939397446047795181556239185738 1:-3.17294 2:1.40604 3:0.78771698 4:-1.0700099 5:-0.59039497 6:-1.15321 7:-1.83601 8:-0.11735 9:1.39718 10:-0.950234 14:1 24:1 #
-1 1:-3.1908 2:1.36136 3:0.92122799 4:-1.0700099 5:-0.76192099 6:-1.00378 7:-2.02279 8:-0.066767797 9:1.55396 10:-0.97364402 14:1 24:1 #
-1 1:-2.0335701 2:1.13797 3:0.38718301 4:-0.547777 5:-0.041509401 6:-1.3982 7:-1.57452 8:0.74253899 9:1.68461 10:-0.98648202 14:1 24:1 #
-1 1:-3.5408199 2:1.4596601 3:1.4552701 4:-0.82065398 5:0.130017 6:-1.4110301 7:-2.47105 8:-0.82549298 9:1.39718 10:-1.12392 14:1 24:1 #
0.3063955199067422974223973142216 1:-2.7372 2:-0.93512601 3:3.05741 4:-0.84417802 5:0.71320802 6:-1.09165 7:-0.117669 8:-4.46737 9:-2.9665501 10:-0.80221897 14:1 24:1 #
0.054368331174044937093015050777467 1:-2.9300699 2:-1.0870301 3:2.25634 4:0.035615101 5:0.59313899 6:-1.00763 7:-0.49122199 8:-3.3545799 9:-1.73844 10:-0.82940501 14:1 24:1 #
0.87778076189681297769595857971581 1:-3.2586601 2:-1.12278 3:2.6568799 4:-0.86770201 5:0.112864 6:-1.4110301 7:-0.86477399 8:-3.91098 9:-1.86909 10:-1.1775399 14:1 24:1 #
-1 1:-2.44432 2:-1.06916 3:2.52336 4:-0.37369999 5:1.15918 6:-1.04483 7:-0.56593198 8:-3.8098099 9:-2.0258701 10:-1.15036 14:1 24:1 #
-1 1:-2.36217 2:-1.14958 3:3.1909201 4:-0.95238799 5:0.21578 6:-0.59461302 7:-1.31304 8:-4.5179601 9:-1.99974 10:-0.72594601 14:1 24:1 #
-1 1:-1.90856 2:-1.3014899 3:2.1228299 4:-0.467796 5:0.095711797 6:-1.11089 7:-1.46246 8:-2.9499199 9:-0.71936202 10:-0.65269297 14:1 24:1 #
0.83953666401098414606707365237526 1:-1.85856 2:1.26307 3:0.65420598 4:-0.56189102 5:0.25008601 6:-1.11089 7:-1.83601 8:0.33788601 9:1.65848 10:-1.16546 14:1 24:1 #
0.74586675644359345938028127420694 1:-1.92285 2:1.20052 3:0.12016 4:-0.68421501 5:-0.058662102 6:-1.08139 7:-1.2756799 8:0.69195801 9:1.47557 10:-1.11562 14:1 24:1 #
0.3544178134138754598936316142499 1:-3.5836799 2:1.4149801 3:1.05474 4:-1.12646 5:-0.487479 6:-1.27635 7:-2.0601399 8:-0.31967601 9:1.44944 10:-0.99252403 14:1 15:1 #
-1 1:-1.5764 2:1.33455 3:0.65420598 4:-0.44427201 5:0.061406501 6:-1.12628 7:-1.7613 8:0.13555899 9:1.52783 10:-1.01518 14:1 24:1 #
-1 1:-1.70498 2:0.97712398 3:1.05474 4:-0.56189102 5:0.044253901 6:-1.28276 7:-1.98543 8:1.04603 9:2.0243001 10:-1.47282 14:1 24:1 #
-1 1:-1.83713 2:0.95925301 3:0.65420598 4:-0.50543398 5:-0.264494 6:-1.33407 7:-1.64923 8:1.09661 9:1.86752 10:-0.91776103 14:1 24:1 #
0.35175273369746812290870252581954 1:-1.62283 2:-1.16746 3:-0.54739702 4:-0.84417802 5:-0.59039497 6:-1.2212 7:0.106462 8:-0.218513 9:-0.066109203 10:-0.40952599 14:1 20:1 #
0.77571482678780878661228825876606 1:-1.87999 2:-1.2568099 3:2.1228299 4:-0.67010099 5:0.37015399 6:-0.876158 7:-1.23833 8:-3.00051 9:-0.87614298 10:-0.97817498 14:1 24:1 #
1 1:-2.4621799 2:0.64650202 3:0.92122799 4:-1.26761 5:-0.79622602 6:-0.61898297 7:-1.01419 8:1.55185 9:1.5017 10:-1.09447 14:1 31:1 #
-1 1:-2.2621601 2:1.42391 3:0.12016 4:-1.12646 5:-0.57324201 6:-1.11089 7:-1.2009701 8:0.186141 9:1.16201 10:-1.2221 14:1 24:1 #
-1 1:-2.3764601 2:-1.33724 3:1.5887901 4:-0.75949198 5:0.061406501 6:-0.706846 7:-1.2756799 8:-2.1912 9:-0.327411 10:-1.06427 14:1 24:1 #
-1 1:-2.00857 2:1.272 3:-0.413885 4:-1.12646 5:-0.71046299 6:-0.81458998 7:-0.90212899 8:0.64137602 9:1.18814 10:-0.710087 14:1 24:1 #
1 1:-1.77284 2:0.87883103 3:1.05474 4:-0.32194799 5:0.0271012 6:-1.15321 7:-1.83601 8:1.24836 9:1.99817 10:-1.2424901 14:1 24:1 #
0.12843672768272046402771024986578 1:-1.82999 2:0.95031703 3:0.78771698 4:-0.50543398 5:-0.24734101 6:-1.17823 7:-1.72394 8:1.09661 9:1.91978 10:-1.2591 14:1 24:1 #
0.37601563785971475750713466368325 1:-1.8049901 2:1.30775 3:-0.28037399 4:-0.82065398 5:-0.52178401 6:-0.77610999 7:-0.97684002 8:0.54021198 9:1.21427 10:-1.3127199 14:1 24:1 #
-1 1:-1.6549799 2:0.79840899 3:0.92122799 4:-0.32194799 5:0.28439099 6:-1.2212 7:-1.4251 8:1.4001 9:1.78913 10:-1.39428 14:1 24:1 #
-1 1:-1.6656899 2:1.05755 3:1.3217601 4:-0.420748 5:0.33584899 6:-0.67221397 7:-2.32163 8:0.74253899 9:2.1288199 10:-0.97213399 14:1 24:1 #
-1 1:-2.2228701 2:1.01287 3:1.1882499 4:0.38376901 5:0.66175002 6:-1.29944 7:-2.2095599 8:0.89428401 9:2.10269 10:-1.01895 14:1 24:1 #
0.0078492409821824173782323086356882 1:-1.73712 2:1.53114 3:0.253672 4:-0.24196699 5:-0.436021 6:-1.10704 7:-1.23833 8:-0.16793101 9:0.979096 10:-0.49863699 14:1 24:1 #
0.15504587419866153186198687308206 1:-1.8407 2:-0.79215401 3:-0.146862 4:-0.36429101 5:0.181475 6:-0.99480498 7:0.77885699 8:-0.522003 9:-0.85001302 10:-0.90492302 13:1 24:1 #
0.2317425708410004170367813003395 1:-2.05143 2:1.37923 3:-0.0133511 4:-1.26761 5:-0.79622602 6:-0.66002899 7:-1.2009701 8:0.33788601 9:1.21427 10:-0.93437499 14:1 24:1 #
-1 1:-1.8657 2:1.05755 3:-0.54739702 4:-1.12646 5:-0.72761601 6:-1.34369 7:-0.71535301 8:0.99544799 9:1.21427 10:-1.42751 14:1 24:1 #
-1 1:-2.4228899 2:-1.2657501 3:1.85581 4:0.651941 5:1.3307 6:-0.97877198 7:-1.16362 8:-2.7476001 9:-0.79775298 10:-0.72594601 14:1 24:1 #
-1 1:-2.8479199 2:1.70986 3:0.52069402 4:-0.279605 5:0.88473397 6:-1.17117 7:-1.12626 8:-0.82549298 9:0.50875401 10:-1.16546 14:1 24:1 #
0.4658895402075154956733626931964 1:-2.6264701 2:-1.36404 3:1.3217601 4:-0.67010099 5:-0.19588301 6:-0.563829 7:-1.16362 8:-1.78655 9:-0.118369 10:-1.19189 14:1 24:1 #
0.36476346287594707540336003148695 1:-2.74791 2:-1.14958 3:0.78771698 4:-0.98532099 5:-0.35025701 6:-0.64720201 7:-0.19238 8:-1.6348 9:-0.77162302 10:-1.12166 14:1 24:1 #
0.53377978928562253013723193362239 1:-3.05865 2:1.3703001 3:-0.68090802 4:-1.0700099 5:-0.79622602 6:-0.85627699 7:-0.640643 8:0.54021198 9:0.95296597 10:-0.97893101 14:1 24:1 #
-1 1:-2.7193401 2:-1.3283 3:1.1882499 4:-0.98532099 5:-0.69331002 6:-0.87230998 7:-0.97684002 8:-1.73596 9:-0.22289 10:-1.2221 14:1 24:1 #
-1 1:-2.0335701 2:-1.29256 3:1.05474 4:-1.12646 5:-0.60754699 6:-0.93516099 7:-0.82741898 8:-1.73596 9:-0.35354099 10:-1.0786099 14:1 24:1 #
-1 1:-2.3693099 2:-1.28362 3:0.92122799 4:-0.68421501 5:-0.11012 6:-1.37255 7:-0.67799801 8:-1.53364 9:-0.327411 10:-0.73576301 14:1 24:1 #
-0.16901741775630096942251157088322 1:-0.062004399 2:1.2362601 3:-1.48198 4:0.45434001 5:-0.47032601 6:0.98178601 7:-0.042958502 8:0.74253899 9:0.58714402 10:2.03197 11:1 37:1 #
0.41657454776840274757176985076512 1:-2.70505 2:1.7456 3:0.52069402 4:0.28496799 5:0.59313899 6:-1.18015 7:-1.01419 8:-0.87607503 9:0.37810299 10:-1.36332 14:1 24:1 #
0.018221152209225079110499478929341 1:-2.93364 2:1.75453 3:0.65420598 4:-0.41133901 5:-0.12727299 6:-1.28789 7:-1.05155 8:-0.977238 9:0.351973 10:-1.22285 14:1 24:1 #
-1 1:-2.4693201 2:1.7634701 3:0.12016 4:0.59077901 5:0.25008601 6:-1.3148299 7:-0.71535301 8:-0.522003 9:0.37810299 10:-0.27510399 14:1 24:1 #
-1 1:-2.2693 2:1.05755 3:0.38718301 4:0.50138801 5:-0.88199002 6:-1.12628 7:-1.4251 8:0.944866 9:1.68461 10:-0.94721299 14:1 24:1 #
-1 1:-2.4514599 2:1.78134 3:0.92122799 4:-0.95238799 5:-0.57324201 6:-1.26609 7:-1.12626 8:-1.23015 9:0.221322 10:-1.15564 14:1 24:1 #
0.49851727433319426019409092987189 1:-1.99429 2:-1.37298 3:1.1882499 4:-0.86770201 5:-0.41886801 6:-1.07305 7:-1.12626 8:-1.68538 9:-0.0399791 10:-0.58472699 14:1 24:1 #
0.50288522533918544876740952531691 1:-1.23709 2:-0.836833 3:-1.08144 4:-1.0700099 5:-0.76192099 6:-0.156582 7:0.48001501 8:0.23672201 9:-0.118369 10:0.52311999 13:1 38:1 #
0.67830981915309129792746034581796 1:-2.0335701 2:-1.2568099 3:0.92122799 4:-1.26761 5:-0.79622602 6:-0.79919797 7:-0.60328698 8:-1.6348 9:-0.43193099 10:-0.89737099 14:1 24:1 #
-0.45156293916626577544803922137362 1:-0.451318 2:-0.80109 3:0.52069402 4:-0.50543398 5:0.47307 6:-0.53625101 7:0.816212 8:-1.1795599 9:-1.37262 10:-0.41858801 13:1 47:1 #
-1 1:-1.44425 2:-1.21213 3:1.1882499 4:-0.63716799 5:-0.40171501 6:-0.90501797 7:-0.56593198 8:-1.98887 9:-0.693232 10:-0.72594601 13:1 24:1 #
-0.69298042055617015133606173549197 1:0.170155 2:-0.95299798 3:1.05474 4:0.94363701 5:2.58285 6:-0.86974502 7:0.40530401 8:-1.88771 9:-1.45101 10:-0.77050102 13:1 47:1 #
0.05469182669565734317140837106308 1:-1.94785 2:1.1469001 3:1.4552701 4:0.035615101 5:0.62744403 6:-0.50674999 7:-2.5831201 8:0.38846701 9:2.1288199 10:-1.13752 14:1 24:1 #
1 1:-3.3443799 2:1.45072 3:1.5887901 4:-1.0700099 5:-0.53893697 6:-1.33407 7:-2.5457599 8:-0.82549298 9:1.44944 10:-1.23116 14:1 24:1 #
0.1886119653686533226277788344305 1:-3.00507 2:1.7187901 3:1.1882499 4:-0.053775601 5:-0.40171501 6:-1.21799 7:-1.49981 8:-1.3818901 9:0.430363 10:-0.89661598 14:1 24:1 #
-1 1:-3.01579 2:1.45072 3:1.7223001 4:-0.86770201 5:-0.264494 6:-1.31419 7:-2.65783 8:-0.92665702 9:1.47557 10:-1.07257 14:1 24:1 #
-1 1:-3.31938 2:1.30775 3:1.98932 4:-1.12646 5:-0.47032601 6:-1.45272 7:-3.0687301 8:-0.522003 9:1.94591 10:-0.99629998 14:1 24:1 #
-1 1:-2.6693299 2:1.2809401 3:1.1882499 4:-0.16669001 5:0.747513 6:-1.02495 7:-2.3963399 8:-0.016186099 9:1.84139 10:-1.20926 14:1 24:1 #
0.38145422698782394110850191282225 1:-1.5406801 2:-1.2032 3:1.3217601 4:-0.63716799 5:-0.64185202 6:-1.13718 7:-0.60328698 8:-2.14062 9:-0.79775298 10:-0.49259499 13:1 24:1 #
0.27695462180711766242424687334278 1:-2.3836 2:-0.425789 3:1.05474 4:-1.12646 5:-0.64185202 6:-0.77098 7:1.45125 8:-0.77491099 9:-1.81683 10:-0.62097597 14:1 18:1 #
0.080046881175451181644753262389713 1:-1.52997 2:-0.89938301 3:0.253672 4:-1.12646 5:-0.74476802 6:-1.2693 7:0.62943602 8:-1.02782 9:-1.03292 10:-0.28114501 13:1 24:1 #
-1 1:-1.39424 2:-1.3461699 3:1.5887901 4:-0.37369999 5:-0.41886801 6:-1.21863 7:-1.2756799 8:-2.14062 9:-0.30127999 10:-0.30002499 13:1 24:1 #
-1 1:-1.46925 2:-1.23001 3:1.85581 4:-0.67010099 5:0.42161199 6:-0.89988798 7:-0.939484 8:-2.6970201 9:-0.92840302 10:-0.43369201 13:1 24:1 #
-1 1:-2.0264299 2:-0.96193397 3:1.05474 4:-0.56189102 5:-0.024356799 6:-1.15321 7:0.40530401 8:-1.83713 9:-1.42488 10:-1.02424 13:1 24:1 #
0.54439416104694893228099772386486 1:-1.02993 2:-0.98874098 3:-0.146862 4:-0.86770201 5:-0.487479 6:-0.196986 7:0.40530401 8:-0.67374802 9:-0.614842 10:-0.066674702 13:1 24:1 #
-0.17271594949620566739056926053308 1:-0.072719499 2:1.18265 3:-1.61549 4:-0.68421501 5:-0.67615801 6:1.14404 7:0.031752001 8:0.79312098 9:0.561014 10:2.2630501 11:1 43:1 #
1 1:-2.1300099 2:1.31668 3:1.7223001 4:-0.82065398 5:0.061406501 6:-0.80176401 7:-2.8446 8:-0.370258 9:1.8936501 10:-0.349112 14:1 24:1 #
-1 1:-2.35145 2:1.3256201 3:1.7223001 4:-0.56189102 5:0.30154401 6:-0.95183599 7:-2.8819599 8:-0.42084 9:1.86752 10:-1.25155 14:1 24:1 #
-1 1:-2.6800499 2:1.38817 3:2.25634 4:-0.95238799 5:-0.161578 6:-1.13975 7:-3.3675799 8:-1.12898 9:1.8152601 10:-0.46994001 14:1 24:1 #
-1 1:-2.0692899 2:1.45072 3:1.4552701 4:-1.12646 5:-0.50463098 6:-0.83511299 7:-2.4336901 8:-0.72433001 9:1.44944 10:-0.58472699 14:1 24:1 #
0.40925188173757887089010409908951 1:-1.2299401 2:-1.24788 3:1.05474 4:-0.27019501 5:0.35300201 6:-1.26096 7:-0.640643 8:-1.83713 9:-0.536452 10:-0.48126799 13:1 24:1 #
0.62826943332317120027852297425852 1:-1.47639 2:-1.3283 3:1.7223001 4:-0.547777 5:-0.00720412 6:-0.44903001 7:-1.2756799 8:-2.3429401 9:-0.405801 10:-0.72065902 13:1 24:1 #
0.71513243618371247212195385145606 1:-1.7121201 2:-1.1763901 3:1.7223001 4:-0.50543398 5:0.47307 6:-0.87230998 7:-0.640643 8:-2.59585 9:-1.08518 10:-0.64665198 13:1 24:1 #
-1 1:-1.61926 2:-1.24788 3:1.5887901 4:-0.13846201 5:0.59313899 6:-0.548437 7:-0.86477399 8:-2.2923601 9:-0.693232 10:-1.15564 13:1 24:1 #
-1 1:-1.54425 2:-1.12278 3:1.7223001 4:-0.37369999 5:-0.00720412 6:-0.54074103 7:-0.453866 8:-2.64643 9:-1.29423 10:-1.14885 13:1 24:1 #
-1 1:-1.29424 2:-1.31043 3:1.98932 4:-0.420748 5:-0.00720412 6:-0.499695 7:-1.4251 8:-2.7476001 9:-0.58871198 10:-0.35439801 13:1 24:1 #
0.93606460584609951780521441833116 1:-2.12287 2:1.40604 3:1.4552701 4:-0.75949198 5:0.232933 6:-0.93900901 7:-2.5084 8:-0.57258499 9:1.58009 10:-0.90492302 14:1 24:1 #
0.18024369084773875226979100716562 1:-2.08358 2:1.31668 3:1.3217601 4:-0.68421501 5:0.25008601 6:-0.79278499 7:-2.47105 8:-0.16793101 9:1.78913 10:-0.352887 14:1 24:1 #
1 1:-1.9871401 2:1.40604 3:1.85581 4:-0.98532099 5:-0.29879901 6:-1.09614 7:-2.99402 8:-0.92665702 9:1.65848 10:-0.55300999 14:1 24:1 #
-1 1:-1.9871401 2:1.42391 3:1.7223001 4:-0.75949198 5:0.25008601 6:-0.82677603 7:-2.6951799 8:-0.82549298 9:1.55396 10:-0.61191398 14:1 24:1 #
-1 1:-1.92285 2:1.3703001 3:1.7223001 4:-0.98532099 5:-0.50463098 6:-1.00378 7:-2.7698901 8:-0.62316602 9:1.7368701 10:-0.37403199 14:1 24:1 #
-1 1:-2.2335899 2:1.18265 3:1.7223001 4:-0.95238799 5:-0.213036 6:-1.24813 7:-2.8819599 8:0.13555899 9:2.1810801 10:-0.275859 14:1 24:1 #
0.98587432321400758628016092188773 1:-1.40139 2:-1.2210701 3:2.1228299 4:-0.50543398 5:0.35300201 6:-0.33359 7:-1.08891 8:-3.05109 9:-1.05905 10:-0.82336402 13:1 24:1 #
0.24408693385683652432582846358855 1:-1.24423 2:-0.89044797 3:1.1882499 4:-0.27019501 5:0.78181797 6:-0.62603801 7:0.59208101 8:-1.93829 9:-1.66005 10:-0.167869 13:1 24:1 #
0.040020343343848574502175097222789 1:-1.7692699 2:-1.11384 3:1.98932 4:-0.36429101 5:0.59313899 6:-1.02623 7:-0.52857703 8:-3.00051 9:-1.4771399 10:-0.87698102 13:1 24:1 #
-1 1:-1.6085401 2:-1.10491 3:2.1228299 4:-0.82065398 5:-0.058662102 6:-1.13718 7:-0.56593198 8:-3.2534101 9:-1.63392 10:-0.531865 13:1 24:1 #
-1 1:-1.18708 2:-1.38191 3:1.1882499 4:-0.56189102 5:0.095711797 6:-0.40541899 7:-1.2009701 8:-1.68538 9:-0.013849 10:-0.45559201 13:1 24:1 #
-1 1:-1.7907 2:-0.89044797 3:2.1228299 4:-0.67010099 5:0.14717001 6:-1.08716 7:0.40530401 8:-3.10167 9:-2.39169 10:-0.97213399 13:1 24:1 #
0.14214054470779141636782583191234 1:-1.8728499 2:1.38817 3:1.3217601 4:-0.86770201 5:-0.72761601 6:-0.99480498 7:-2.47105 8:-0.471421 9:1.63235 10:-0.68365598 14:1 24:1 #
-0.32808277451445333472435095245601 1:0.58446997 2:-0.92619097 3:-0.146862 4:2.1480601 5:3.5434 6:-0.13028701 7:0.51736999 8:-0.62316602 9:-0.71936202 10:0.57145101 13:1 38:1 #
0.35576598486617994065994707852951 1:-2.17644 2:1.36136 3:1.4552701 4:-0.95238799 5:-0.264494 6:-0.81010097 7:-2.5831201 8:-0.42084 9:1.71074 10:-0.36874601 14:1 24:1 #
-1 1:-1.8157001 2:1.42391 3:1.4552701 4:-0.82065398 5:-0.29879901 6:-1.01982 7:-2.4336901 8:-0.62316602 9:1.5017 10:-0.42689499 13:1 24:1 #
-1 1:-1.5049599 2:1.38817 3:0.253672 4:-0.279605 5:0.112864 6:-1.26096 7:-1.38775 8:0.186141 9:1.26653 10:-0.93286502 14:1 24:1 #
-1 1:-1.75141 2:1.22733 3:0.92122799 4:-0.420748 5:0.62744403 6:-0.999295 7:-2.0975001 8:0.33788601 9:1.8152601 10:-0.33023199 14:1 24:1 #
0.75914396940130501878485347333481 1:-1.8407 2:-1.05129 3:2.25634 4:-0.63716799 5:-0.058662102 6:-0.78893697 7:-0.34180099 8:-3.3545799 9:-1.89522 10:-0.77276701 13:1 24:1 #
1 1:-1.83713 2:-0.85470498 3:2.25634 4:-0.63716799 5:0.30154401 6:-1.0583 7:0.55472499 8:-3.2028301 9:-2.5746 10:-0.96458203 13:1 24:1 #
0.45569628107492260449262744259613 1:-0.92992401 2:-0.51514602 3:-0.94793099 4:-0.32194799 5:-0.88199002 6:-0.25534701 7:0.74150199 8:0.33788601 9:-0.327411 10:0.498954 13:1 16:1 #
-1 1:-1.59426 2:-0.97980499 3:2.3898499 4:0.129711 5:1.0048 6:-0.59589499 7:-0.080313802 8:-3.6074901 9:-2.3132999 10:-1.10429 13:1 24:1 #
-1 1:-1.57997 2:-1.28362 3:1.5887901 4:-0.95238799 5:-0.436021 6:-0.87936503 7:-1.05155 8:-2.24178 9:-0.536452 10:-0.51751602 13:1 47:1 #
-1 1:-3.0729301 2:1.01287 3:1.05474 4:-0.84417802 5:-0.19588301 6:-1.1763 7:-1.98543 8:0.944866 9:1.99817 10:-0.89737099 14:1 20:1 #
0.84644400087200166726830730112852 1:-1.83356 2:1.09329 3:0.78771698 4:0.308492 5:0.55883402 6:-1.0583 7:-1.8733701 8:0.79312098 9:1.8936501 10:-0.49259499 14:1 24:1 #
0.38701487885003782452031373395585 1:-1.64783 2:1.45072 3:1.3217601 4:-0.98532099 5:-0.333105 6:-0.67991 7:-2.32163 8:-0.67374802 9:1.42331 10:-0.14823399 13:1 24:1 #
0.83859427725632840200375994754722 1:-3.3943901 2:-1.35511 3:3.1909201 4:0.449635 5:1.91389 6:-1.28789 7:-2.5457599 8:-4.1638799 9:-0.77162302 10:-0.80675 14:1 19:1 #
-1 1:-2.2228701 2:0.99499601 3:0.65420598 4:0.78837901 5:0.49022299 6:-1.34369 7:-1.64923 8:1.04603 9:1.84139 10:-1.0114 14:1 24:1 #
-1 1:-2.91221 2:1.20945 3:-0.28037399 4:0.81660801 5:0.83327597 6:-1.19683 7:-1.01419 8:0.74253899 9:1.31879 10:-0.84224302 14:1 24:1 #
-1 1:-2.01214 2:1.68305 3:1.4552701 4:-0.50543398 5:0.59313899 6:-1.34369 7:-1.8733701 8:-1.53364 9:0.561014 10:-1.37313 14:1 24:1 #
0.36111778784948239673369130287028 1:-1.43353 2:-1.28362 3:1.1882499 4:-0.279605 5:0.62744403 6:-0.17967001 7:-0.82741898 8:-1.78655 9:-0.37967101 10:-0.96684802 13:1 24:1 #
1 1:-1.93714 2:0.91457403 3:-0.68090802 4:-1.12646 5:-0.69331002 6:-0.64976799 7:-0.52857703 8:1.14719 9:1.13588 10:-0.94268203 14:1 24:1 #
0.32823662894597915862249237761716 1:-1.41924 2:-1.31936 3:1.1882499 4:-0.420748 5:0.26723799 6:-0.429149 7:-0.939484 8:-1.83713 9:-0.30127999 10:-0.73576301 13:1 24:1 #
-1 1:-1.07279 2:-1.1763901 3:0.78771698 4:-0.13846201 5:0.81612301 6:-0.350265 7:-0.26708999 8:-1.53364 9:-0.64097202 10:-0.38460499 13:1 24:1 #
-0.67467207184455846302739701059181 1:-0.60847199 2:-1.14958 3:1.05474 4:-0.251376 5:0.112864 6:0.397531 7:-0.26708999 8:-1.88771 9:-0.87614298 10:-1.0333 13:1 24:1 #
-1 1:-0.73348099 2:-1.19426 3:0.65420598 4:-0.84417802 5:-0.57324201 6:-0.531762 7:-0.26708999 8:-1.33131 9:-0.51032102 10:-0.45332599 13:1 24:1 #
0.69005656347013932805367630862747 1:-1.9192801 2:1.72773 3:-0.0133511 4:0.83072197 5:0.54168099 6:-0.92233402 7:-0.71535301 8:-0.42084 9:0.48262301 10:-0.43897799 14:1 24:1 #
0.92541560946885914606951928362832 1:-2.64433 2:-1.00661 3:2.79039 4:-0.420748 5:1.3307 6:-1.11089 7:-0.34180099 8:-4.0627198 9:-2.4439499 10:-0.82940501 14:1 24:1 #
1 1:-1.90142 2:1.16478 3:0.38718301 4:0.45434001 5:-1.1735801 6:-0.87230998 7:-1.57452 8:0.69195801 9:1.68461 10:-1.40485 14:1 24:1 #
-1 1:-1.52639 2:1.73666 3:-0.54739702 4:0.96245599 5:-0.024356799 6:-0.90950799 7:-0.37915599 8:0.034395501 9:0.430363 10:-0.53412998 14:1 24:1 #
-1 1:-2.2228701 2:-1.11384 3:1.5887901 4:-0.75949198 5:0.45591801 6:-0.44005099 7:-0.34180099 8:-2.4946899 9:-1.2681 10:-0.87924701 14:1 24:1 #
-1 1:-3.33724 2:1.7187901 3:0.52069402 4:-0.95238799 5:-0.41886801 6:-1.43797 7:-1.01419 8:-0.72433001 9:0.48262301 10:-0.916251 14:1 31:1 #
0.36284767746612867078681574639631 1:-2.0692899 2:0.226521 3:-0.54739702 4:-1.26761 5:-0.79622602 6:-1.10255 7:0.40530401 8:1.19777 9:0.351973 10:-0.69951397 13:1 28:1 #
0.39730294490099454796094846642518 1:-1.3335201 2:-1.09597 3:0.78771698 4:-0.27019501 5:0.67890197 6:-0.351547 7:-0.0056032902 8:-1.5842201 9:-0.87614298 10:-0.82638401 13:1 24:1 #
1 1:-0.87277699 2:-1.09597 3:0.65420598 4:0.035615101 5:0.38730699 6:-0.13798299 7:0.031752001 8:-1.3818901 9:-0.79775298 10:0.227845 13:1 24:1 #
-1 1:-1.41924 2:-1.1317101 3:0.12016 4:0.45434001 5:1.24494 6:-0.84537399 7:0.031752001 8:-0.87607503 9:-0.45806101 10:-0.67685902 13:1 24:1 #
-0.74398490991850030340515331772622 1:-0.53703803 2:-1.0781 3:0.12016 4:0.426112 5:0.044253901 6:-0.36373299 7:0.181173 8:-0.87607503 9:-0.56258202 10:-0.59303403 13:1 24:1 #
-0.84833353704662084471266325635952 1:-1.34067 2:-1.1763901 3:0.52069402 4:-0.32194799 5:0.33584899 6:0.051851898 7:-0.19238 8:-1.33131 9:-0.56258202 10:-1.05067 13:1 25:1 #
0.51498885077300693424717792368028 1:-1.7407 2:-1.35511 3:0.38718301 4:-0.37369999 5:-0.41886801 6:-0.87230998 7:-0.60328698 8:-0.87607503 9:0.064541399 10:-1.3127199 14:1 20:1 #
0.19090368931704548849381808395265 1:-2.0871501 2:-1.06023 3:1.4552701 4:-0.37369999 5:1.0048 6:-1.02495 7:-0.080313802 8:-2.3935299 9:-1.3987499 10:-0.90567797 14:1 24:1 #
0.77093110591604607773064117282047 1:-1.96571 2:-0.765347 3:1.05474 4:0.81660801 5:0.50737602 6:-1.10127 7:0.96563298 8:-1.6348 9:-1.7907 10:-0.50241297 14:1 24:1 #
-1 1:-2.2228701 2:-0.908319 3:1.4552701 4:0.063843802 5:0.91903901 6:-0.71069402 7:0.48001501 8:-2.3429401 9:-1.86909 10:-0.75615299 14:1 24:1 #
-1 1:-2.3907399 2:-0.94406199 3:1.1882499 4:0.289673 5:0.62744403 6:-1.33279 7:0.40530401 8:-2.0394499 9:-1.60779 10:-0.325701 14:1 24:1 #
-1 1:-1.87642 2:-0.88151199 3:1.85581 4:-0.13846201 5:0.62744403 6:-1.08331 7:0.55472499 8:-2.6970201 9:-2.1826501 10:-0.55225497 14:1 24:1 #
0.80804320228531378855763023238978 1:-2.7729101 2:1.2362601 3:1.3217601 4:-0.16669001 5:1.34786 6:-1.12628 7:-2.5457599 8:0.084977202 9:1.94591 10:-0.87320602 14:1 24:1 #
1 1:-2.84077 2:1.36136 3:2.6568799 4:-0.84417802 5:0.21578 6:-1.10255 7:-3.7784801 8:-1.28073 9:1.94591 10:-0.81581199 14:1 24:1 #
-0.17514955806989693232189608806948 1:-0.65490401 2:-0.34536701 3:-0.81441897 4:1.33413 5:-0.50463098 6:-0.45223701 7:0.816212 8:0.489631 9:-0.30127999 10:-0.81279099 11:1 26:1 #
-1 1:-2.9157801 2:1.28988 3:2.52336 4:-0.56189102 5:0.42161199 6:-0.66002899 7:-3.7037699 8:-0.82549298 9:2.1549499 10:-1.0559601 14:1 24:1 #
-1 1:-2.83006 2:1.4149801 3:2.79039 4:-0.75949198 5:0.747513 6:-1.35331 7:-3.96526 8:-1.78655 9:1.763 10:-0.99856502 14:1 24:1 #
-1 1:-3.21223 2:1.33455 3:3.05741 4:-0.95238799 5:0.112864 6:-1.4257801 7:-4.2641001 8:-1.53364 9:2.07656 10:-0.99781001 14:1 24:1 #
1 1:-2.24787 2:-0.94406199 3:1.3217601 4:-0.13846201 5:0.62744403 6:-0.86204898 7:0.36794901 8:-2.1912 9:-1.66005 10:-0.85961199 14:1 24:1 #
-0.014918866913018084124908924081865 1:0.31302199 2:1.75453 3:0.12016 4:1.58819 5:0.095711797 6:1.08889 7:-0.71535301 8:-0.522003 9:0.40423301 10:0.305628 11:1 43:1 #
-1 1:-2.0871501 2:-0.908319 3:0.65420598 4:-0.251376 5:-0.213036 6:-0.90950799 7:0.55472499 8:-1.43247 9:-1.29423 10:-0.92908901 14:1 24:1 #
-1 1:-1.62283 2:-0.78321898 3:0.52069402 4:0.426112 5:1.63945 6:-0.98710901 7:0.89092302 8:-1.12898 9:-1.37262 10:-0.45181599 14:1 24:1 #
-1 1:-2.2943101 2:-0.93512601 3:0.52069402 4:-0.50543398 5:0.26723799 6:-1.06407 7:0.51736999 8:-1.23015 9:-1.08518 10:-1.0197099 14:1 24:1 #
1 1:-3.0014999 2:1.4596601 3:2.79039 4:-0.67010099 5:0.43876499 6:-1.20324 7:-3.7411301 8:-1.93829 9:1.52783 10:-0.94419199 14:1 24:1 #
1 1:-1.24066 2:-1.06916 3:-0.146862 4:0.17205399 5:1.1248699 6:-0.32781801 7:0.25588301 8:-0.62316602 9:-0.45806101 10:-0.87698102 13:1 24:1 #
0.70981816563956867671691952637048 1:-2.8764901 2:1.4954 3:2.9238999 4:-0.50543398 5:0.901887 6:-1.1660399 7:-3.81584 8:-2.24178 9:1.39718 10:-0.89963698 14:1 24:1 #
-1 1:-2.8371999 2:1.48646 3:2.79039 4:-0.82065398 5:0.19862799 6:-0.75686997 7:-3.7784801 8:-2.14062 9:1.42331 10:-0.68667603 14:1 24:1 #
0.4658599808506980743949554835126 1:-2.2764499 2:-0.970869 3:0.52069402 4:-0.32194799 5:0.28439099 6:-0.75045699 7:0.40530401 8:-1.23015 9:-1.00679 10:-0.99252403 14:1 24:1 #
-1 1:-3.2836599 2:1.44178 3:2.79039 4:-0.27019501 5:1.24494 6:-1.35716 7:-3.7784801 8:-1.83713 9:1.60622 10:-1.12392 14:1 24:1 #
0.48684332889217746265231312463584 1:-1.71927 2:-0.91725498 3:0.52069402 4:-0.56189102 5:0.061406501 6:-0.93516099 7:0.55472499 8:-1.23015 9:-1.13744 10:-1.0559601 14:1 24:1 #
0.63052587856385322595542675117031 1:-0.62275898 2:-0.631311 3:0.38718301 4:0.233216 5:0.747513 6:-0.83254802 7:1.11505 8:-0.67374802 9:-1.3203599 10:-1.19189 13:1 38:1 #
-1 1:-2.12644 2:1.30775 3:1.1882499 4:0.73662698 5:1.31355 6:-1.2135 7:-2.3589799 8:-0.066767797 9:1.78913 10:-0.113496 14:1 24:1 #
-1 1:-2.9514999 2:1.34349 3:0.65420598 4:0.308492 5:1.31355 6:-1.26096 7:-1.83601 8:0.084977202 9:1.52783 10:-1.01895 14:1 24:1 #
-1 1:-1.88713 2:1.22733 3:1.3217601 4:-0.129052 5:1.79383 6:-1.3064899 7:-2.5084 8:0.13555899 9:1.9720401 10:-0.19279 14:1 24:1 #
0.52597101395209078233961008663755 1:-2.8157699 2:-0.908319 3:2.9238999 4:-1.0700099 5:-0.67615801 6:-1.24941 7:0.14381801 8:-4.1132998 9:-2.91429 10:-0.78409398 14:1 24:1 #
-0.16098773552017051069462638679397 1:1.58097 2:-0.91725498 3:0.52069402 4:-0.37369999 5:-0.67615801 6:0.59826797 7:0.55472499 8:-1.28073 9:-1.16357 10:0.224824 11:1 51:1 #
-1 1:-1.69784 2:-0.54195303 3:0.12016 4:-0.95238799 5:-0.59039497 6:-1.14552 7:1.15241 8:-0.370258 9:-1.16357 10:-1.2153 14:1 24:1 #
-1 1:-1.90499 2:-0.48833901 3:0.253672 4:-1.12646 5:-0.76192099 6:-0.90630102 7:1.22712 8:-0.31967601 9:-1.1897 10:-1.03028 14:1 24:1 #
-1 1:-2.24073 2:-1.02448 3:0.65420598 4:-0.467796 5:0.71320802 6:-0.62988597 7:0.25588301 8:-1.43247 9:-1.00679 10:-0.603607 14:1 16:1 #
0.5757257015237399189189204662398 1:-2.7622001 2:1.3971 3:0.78771698 4:-0.16669001 5:1.39931 6:-1.15321 7:-1.91072 8:-0.16793101 9:1.44944 10:-0.90492302 14:1 24:1 #
0.79964278050848691670182688540081 1:-1.85142 2:1.3971 3:0.78771698 4:-0.420748 5:0.28439099 6:-1.08716 7:-1.91072 8:-0.16793101 9:1.44944 10:-1.14885 14:1 24:1 #
0.82748570206309535191024906453094 1:-2.4836099 2:1.30775 3:1.85581 4:-0.13846201 5:2.2054901 6:-1.03842 7:-3.0313799 8:-0.522003 9:1.94591 10:-0.73953903 14:1 24:1 #
-1 1:-2.37288 2:1.54008 3:2.6568799 4:-0.84417802 5:0.21578 6:-0.64976799 7:-3.4049301 8:-2.14062 9:1.18814 10:-0.81279099 14:1 24:1 #
-1 1:-2.6693299 2:1.37923 3:2.52336 4:-0.32194799 5:0.83327597 6:-0.83383 7:-3.62906 8:-1.28073 9:1.86752 10:-0.588503 14:1 24:1 #
-1 1:-2.68362 2:1.3971 3:1.85581 4:-0.067889899 5:1.48508 6:-0.520859 7:-2.8819599 8:-0.82549298 9:1.65848 10:-0.85583597 14:1 24:1 #
-1 1:-1.96214 2:1.272 3:2.1228299 4:-0.00672783 5:1.2964 6:-1.3000799 7:-3.2555101 8:-0.471421 9:2.10269 10:-0.803729 14:1 24:1 #
1 1:-1.9764301 2:-0.88151199 3:-0.28037399 4:-1.26761 5:-0.79622602 6:-1.23402 7:0.59208101 8:-0.42084 9:-0.614842 10:-1.20699 14:1 24:1 #
1 1:-1.9299901 2:1.7456 3:1.4552701 4:-0.37369999 5:0.76466602 6:-0.97364098 7:-1.64923 8:-1.68538 9:0.29971299 10:-0.707066 14:1 24:1 #
1 1:-1.84785 2:1.05755 3:0.52069402 4:0.83072197 5:0.14717001 6:-0.91079003 7:-1.6118799 8:0.944866 9:1.78913 10:-1.3089401 14:1 24:1 #
-1 1:-1.73712 2:1.81709 3:1.3217601 4:0.14382499 5:1.10772 6:-1.04162 7:-1.31304 8:-1.78655 9:-0.013849 10:-0.55149901 14:1 24:1 #
-1 1:-2.21573 2:1.73666 3:1.98932 4:-0.56189102 5:0.91903901 6:-0.64912599 7:-2.17221 8:-2.2923601 9:0.24745201 10:-0.67081797 14:1 24:1 #
-1 1:-2.3336 2:1.30775 3:2.1228299 4:0.14382499 5:-0.89914203 6:-1.16668 7:-3.2555101 8:-0.62316602 9:1.99817 10:-1.00536 14:1 24:1 #
-0.1183032997418480142259866738641 1:-0.047717702 2:-0.229202 3:0.52069402 4:-0.41133901 5:0.044253901 6:0.96831799 7:1.26448 8:0.186141 9:-1.03292 10:2.4435401 11:1 44:1 #
0.83094257160072260148808709345758 1:-2.47646 2:1.4149801 3:2.3898499 4:-0.50543398 5:0.93619198 6:-0.62988597 7:-3.4049301 8:-1.28073 9:1.71074 10:-0.938151 14:1 24:1 #
1 1:-2.4121699 2:1.3703001 3:2.1228299 4:-0.105528 5:1.58799 6:-0.70620501 7:-3.2555101 8:-0.92665702 9:1.84139 10:-0.87244999 14:1 24:1 #
-1 1:-2.5978999 2:1.35243 3:2.1228299 4:0.129711 5:1.89674 6:-0.531762 7:-3.2555101 8:-0.82549298 9:1.8936501 10:-0.82638401 14:1 24:1 #
-1 1:-2.49789 2:1.52221 3:2.1228299 4:-0.24196699 5:0.901887 6:-1.0422601 7:-2.99402 8:-1.6348 9:1.2404 10:-1.04161 14:1 24:1 #
-1 1:-2.6157601 2:1.47753 3:2.1228299 4:-0.13846201 5:1.81098 6:-0.563829 7:-2.99402 8:-1.3818901 9:1.42331 10:-0.82185298 14:1 24:1 #
1 1:-2.6193299 2:1.28988 3:2.25634 4:0.073253401 5:-1.15643 6:-0.89155 7:-3.517 8:-0.72433001 9:2.10269 10:-0.81581199 14:1 24:1 #
1 1:-2.5014601 2:1.72773 3:2.25634 4:-0.27019501 5:0.850429 6:-0.94798797 7:-2.3589799 8:-2.54527 9:0.24745201 10:-0.63305902 14:1 24:1 #
0.29820211179526756595237202418502 1:-2.0550001 2:1.7187901 3:2.3898499 4:-0.63716799 5:0.37015399 6:-0.93900901 7:-2.47105 8:-2.59585 9:0.27358201 10:-0.75011098 14:1 24:1 #
-1 1:-2.56933 2:1.69198 3:2.52336 4:-0.19491901 5:0.86758101 6:-0.82677603 7:-2.8446 8:-2.7476001 9:0.40423301 10:-1.0597301 14:1 24:1 #
-1 1:-2.44432 2:1.72773 3:2.52336 4:-0.75949198 5:-0.092967398 6:-1.40911 7:-2.5831201 8:-2.7981801 9:0.19519199 10:-0.89963698 14:1 24:1 #
-1 1:-2.55147 2:1.77241 3:2.6568799 4:-0.251376 5:1.3821599 6:-1.10576 7:-2.5831201 8:-3.3039999 9:-0.118369 10:-1.31423 14:1 24:1 #
0.64054572104641016583315149546252 1:-1.99429 2:1.3971 3:1.85581 4:-0.24196699 5:0.83327597 6:-1.0108401 7:-2.95667 8:-0.87607503 9:1.71074 10:-0.60662699 14:1 24:1 #
-0.0066900927850126312018685936777729 1:-0.63347399 2:-1.0781 3:-0.0133511 4:0.651941 5:0.61029202 6:-0.111047 7:0.218528 8:-0.72433001 9:-0.484191 10:0.227845 11:1 43:1 #
0.83122723686178012769687484251335 1:-2.46575 2:1.55795 3:2.1228299 4:0.14382499 5:1.4679199 6:-0.81843799 7:-2.8446 8:-1.73596 9:1.08362 10:-0.83242601 14:1 24:1 #
-1 1:-2.5657499 2:1.57582 3:1.4552701 4:0.063843802 5:1.69091 6:-0.71390098 7:-2.13485 8:-1.1795599 9:0.979096 10:-0.65495902 14:1 24:1 #
-1 1:-1.9764301 2:1.4149801 3:1.5887901 4:-0.50543398 5:0.73035997 6:-1.27314 7:-2.5457599 8:-0.67374802 9:1.55396 10:-0.92908901 14:1 24:1 #
-1 1:-2.3478799 2:1.66518 3:2.3898499 4:0.14853001 5:2.23979 6:-0.87230998 7:-2.6951799 8:-2.3935299 9:0.561014 10:-0.54394799 14:1 24:1 #
0.40877868031082004174336930191203 1:-1.8657 2:1.2362601 3:1.98932 4:0.035615101 5:1.86244 6:-1.0319999 7:-3.2555101 8:-0.269095 9:2.1810801 10:-0.59076899 14:1 24:1 #
0.13172859843715631344984728912095 1:-2.12644 2:0.88776702 3:0.65420598 4:-0.36429101 5:0.97049701 6:-0.53368598 7:-1.46246 8:1.24836 9:1.78913 10:-0.85432601 14:1 16:1 #
0.40665940173913311950215643264528 1:-2.2050099 2:1.6741101 3:2.6568799 4:-0.86770201 5:-0.264494 6:-0.90309399 7:-2.95667 8:-2.7476001 9:0.48262301 10:-0.79315698 14:1 24:1 #
-1 1:-2.13358 2:-1.37298 3:-0.0133511 4:-0.067889899 5:-0.41886801 6:-0.60038501 7:-0.453866 8:-0.522003 9:0.169062 10:-1.1496 14:1 24:1 #
-1 1:-0.80134302 2:1.40604 3:0.65420598 4:-1.26761 5:-0.79622602 6:-0.68504101 7:-1.68659 8:-0.016186099 9:1.34492 10:-0.36648101 13:1 34:1 #
-1 1:-1.96928 2:-0.85470498 3:-0.146862 4:-0.50543398 5:-0.24734101 6:-0.806894 7:0.66679102 8:-0.57258499 9:-0.77162302 10:-0.87018502 14:1 20:1 #
0.29317335781936881833331653979258 1:-2.2978799 2:1.79028 3:1.05474 4:0.25674 5:1.43362 6:-0.92554098 7:-1.2756799 8:-1.48306 9:0.169062 10:-0.58246201 14:1 24:1 #
-0.071643097899491081648193357978016 1:0.96306902 2:-1.0423599 3:-0.146862 4:0.14382499 5:-0.79622602 6:-0.230335 7:0.293239 8:-0.57258499 9:-0.484191 10:-0.77050102 13:1 45:1 #
0.19709077481914205609569989974261 1:-1.74427 2:1.55795 3:1.4552701 4:0.43081599 5:1.27925 6:-1.02495 7:-2.2095599 8:-1.12898 9:1.03136 10:-1.12695 14:1 24:1 #
-1 1:-2.4836099 2:1.7456 3:1.85581 4:-0.279605 5:0.47307 6:-0.76777297 7:-1.9480799 8:-2.14062 9:0.221322 10:-1.2689199 14:1 24:1 #
-1 1:-2.00857 2:1.26307 3:1.98932 4:0.43081599 5:1.9482 6:-1.00827 7:-3.1808 8:-0.370258 9:2.10269 10:-1.26212 14:1 24:1 #
-1 1:-1.57283 2:1.50433 3:-0.28037399 4:0.186168 5:1.7595201 6:-0.93900901 7:-0.90212899 8:0.13555899 9:0.92683601 10:-0.397443 14:1 24:1 #
1 1:-2.00857 2:-0.631311 3:-0.146862 4:-0.63716799 5:-0.12727299 6:-0.97492403 7:1.00299 8:-0.31967601 9:-0.95453399 10:-0.45332599 14:1 20:1 #
0.17221634049133918709095780741336 1:-1.30138 2:1.3703001 3:0.78771698 4:-1.12646 5:-0.69331002 6:-0.52599001 7:-1.91072 8:-0.066767797 9:1.5017 10:-0.641366 13:1 34:1 #
1 1:-1.64069 2:-0.765347 3:-0.146862 4:-0.95238799 5:-0.57324201 6:-1.2160701 7:0.816212 8:-0.522003 9:-0.902273 10:-0.52053702 14:1 20:1 #
-1 1:-1.57283 2:-0.58663201 3:-0.0133511 4:-0.50543398 5:-0.17873099 6:-1.35203 7:1.0403399 8:-0.269095 9:-0.98066401 10:-0.1943 14:1 20:1 #
-1 1:-1.91214 2:-0.36323801 3:-0.0133511 4:-0.95238799 5:-0.487479 6:-1.01661 7:1.15241 8:0.13555899 9:-0.87614298 10:-0.37478799 14:1 20:1 #
-1 1:-1.96928 2:-0.765347 3:-0.146862 4:-0.56189102 5:-0.24734101 6:-0.82549298 7:0.816212 8:-0.522003 9:-0.902273 10:-0.853571 14:1 20:1 #
0.20359849436730304006459846277721 1:-2.5871799 2:1.7456 3:1.7223001 4:-0.63716799 5:0.26723799 6:-0.50674999 7:-1.91072 8:-2.09004 9:0.221322 10:-1.2372 14:1 24:1 #
1 1:-2.6371901 2:1.79921 3:1.85581 4:-0.63716799 5:0.33584899 6:-0.548437 7:-1.72394 8:-2.2923601 9:-0.0399791 10:-1.21153 14:1 24:1 #
-0.18401210716063873262804406749638 1:0.39517099 2:1.69198 3:0.12016 4:1.82813 5:0.26723799 6:1.03951 7:-0.86477399 8:-0.42084 9:0.561014 10:0.38416699 11:1 43:1 #
-1 1:-3.1586499 2:1.79921 3:1.3217601 4:-0.36429101 5:0.35300201 6:-1.3148299 7:-1.38775 8:-1.73596 9:0.064541399 10:-1.32329 14:1 19:1 #
-0.81808258235483499731799383880571 1:-1.0013601 2:-1.23894 3:0.92122799 4:0.43081599 5:-0.62470001 6:-0.65297401 7:-0.56593198 8:-1.6348 9:-0.484191 10:0.57824802 13:1 24:1 #
-0.62150724515145827631101838051109 1:-0.844203 2:0.70905203 3:0.92122799 4:-0.98532099 5:-0.86483699 6:-1.00699 7:-1.23833 8:1.50126 9:1.65848 10:-1.03934 13:1 17:1 #
0.36923927386251798044014549304848 1:-1.72641 2:-0.23813801 3:0.12016 4:-0.84417802 5:-0.72761601 6:-1.19169 7:1.15241 8:0.33788601 9:-0.79775298 10:-0.45634699 14:1 20:1 #
0.30869946039843715324124673315964 1:-1.78356 2:-0.48833901 3:-0.146862 4:-0.56189102 5:-0.35025701 6:-1.1660399 7:1.11505 8:-0.066767797 9:-0.902273 10:-0.43067101 14:1 20:1 #
0.099054650696020804523378444628179 1:-2.0478599 2:-1.12278 3:2.1228299 4:-0.129052 5:1.19348 6:-0.999295 7:-0.640643 8:-3.2028301 9:-1.5294 10:-0.925313 14:1 24:1 #
-1 1:-1.6085401 2:-0.71173298 3:-0.28037399 4:-0.84417802 5:-0.384563 6:-1.32573 7:0.816212 8:-0.269095 9:-0.74549299 10:-1.15564 14:1 20:1 #
-1 1:-1.94428 2:-0.72960401 3:0.52069402 4:-0.98532099 5:-0.315952 6:-0.94798797 7:1.00299 8:-1.02782 9:-1.3987499 10:-0.45106101 14:1 20:1 #
-1 1:-2.0692899 2:-0.80109 3:-0.146862 4:-1.26761 5:-0.79622602 6:-1.0801001 7:0.74150199 8:-0.522003 9:-0.85001302 10:-0.83695698 14:1 16:1 #
0.83577032859341271464614919750602 1:-1.96571 2:1.3256201 3:-0.54739702 4:-0.00672783 5:1.6566 6:-0.63694102 7:-0.75270802 8:0.59079403 9:1.05749 10:-0.94796801 14:1 24:1 #
0.45600264461721212727596252989315 1:-1.15494 2:-1.33724 3:1.4552701 4:-0.56189102 5:-0.29879901 6:-0.41055 7:-1.23833 8:-2.09004 9:-0.27515 10:0.58126903 13:1 24:1 #
0.59680780024960733420869019028032 1:-1.27995 2:-0.69386101 3:1.1882499 4:-0.86770201 5:-0.76192099 6:-0.234824 7:1.11505 8:-1.5842201 9:-1.94748 10:0.023946701 13:1 18:1 #
-1 1:-3.3550999 2:-0.81002599 3:1.85581 4:-1.26761 5:-0.79622602 6:-1.3295799 7:0.77885699 8:-2.59585 9:-2.3394301 10:-0.95174402 14:1 15:1 #
-1 1:-1.4263901 2:1.03967 3:-0.413885 4:0.43081599 5:1.48508 6:-0.78829598 7:-0.82741898 8:0.99544799 9:1.31879 10:-1.01895 14:1 20:1 #
-1 1:-2.6586201 2:1.50433 3:0.92122799 4:-1.26761 5:-0.79622602 6:-1.2455699 7:-1.83601 8:-0.522003 9:1.16201 10:-0.55754101 14:1 30:1 #
0.1258758395728528101109588988038 1:-1.06208 2:1.50433 3:0.52069402 4:-1.0700099 5:-0.62470001 6:-0.171974 7:-1.5371701 8:-0.31967601 9:1.10975 10:0.29958701 13:1 24:1 #
0.82550675604195711265731461026007 1:-2.1443 2:1.29881 3:1.1882499 4:-1.12646 5:-0.53893697 6:-0.93067199 7:-2.3589799 8:-0.016186099 9:1.78913 10:-0.33098701 14:1 24:1 #
0.70871782148877948692700101673836 1:-2.05143 2:-0.81896198 3:1.1882499 4:-0.56189102 5:0.55883402 6:-0.76392502 7:0.816212 8:-1.88771 9:-1.84296 10:-0.58246201 14:1 20:1 #
-1 1:-1.79427 2:-0.73853999 3:1.1882499 4:-0.129052 5:0.45591801 6:-1.12371 7:1.00299 8:-1.68538 9:-1.89522 10:-0.41632199 14:1 19:1 #
-0.85549099718392995761462316295365 1:-3.31581 2:-0.631311 3:0.52069402 4:-0.86770201 5:-0.52178401 6:-1.20837 7:1.15241 8:-0.87607503 9:-1.4771399 10:-1.0469 14:1 20:1 #
-1 1:-1.59069 2:-0.85470498 3:0.78771698 4:-1.12646 5:-0.64185202 6:-1.01982 7:0.70414603 8:-1.48306 9:-1.45101 10:-0.477492 13:1 24:1 #
1 1:-1.43353 2:1.10223 3:-0.54739702 4:0.449635 5:1.45077 6:-0.79342598 7:-0.67799801 8:0.944866 9:1.16201 10:-1.04161 14:1 20:1 #
0.37283564165125210321249937805987 1:-1.45139 2:1.03967 3:-0.146862 4:0.308492 5:1.36501 6:-0.77482802 7:-0.97684002 8:1.04603 9:1.42331 10:-1.0401 14:1 20:1 #
0.09806569262997434643924776764834 1:-2.0478599 2:-0.60450399 3:-0.413885 4:-0.56189102 5:-0.075814798 6:-1.08139 7:0.89092302 8:-0.066767797 9:-0.693232 10:-0.46994001 14:1 15:1 #
-1 1:-1.46925 2:0.548208 3:-0.54739702 4:0.28496799 5:0.45591801 6:-0.74596798 7:-0.117669 8:1.34952 9:0.87457502 10:-0.92757797 14:1 20:1 #
-1 1:-1.35853 2:1.0218 3:-0.54739702 4:0.14853001 5:0.112864 6:-1.19169 7:-0.71535301 8:1.04603 9:1.2404 10:-0.84601903 14:1 20:1 #
-1 1:-2.0371499 2:1.64731 3:-0.28037399 4:1.0095 5:1.72521 6:-0.51380497 7:-0.71535301 8:-0.11735 9:0.639404 10:-0.96684802 14:1 20:1 #
0.30956701756895566024496702084434 1:-1.28352 2:-0.88151199 3:0.65420598 4:-1.26761 5:-0.79622602 6:-1.03842 7:0.62943602 8:-1.33131 9:-1.29423 10:-0.489575 13:1 24:1 #
0.56987548500122242600696154113393 1:-1.35495 2:-0.86364001 3:0.92122799 4:-1.26761 5:-0.79622602 6:-1.04996 7:0.70414603 8:-1.6348 9:-1.5294 10:-0.46238801 13:1 24:1 #
-0.3591857974690832455699762704171 1:0.59875703 2:1.6294301 3:-0.81441897 4:0.89188403 5:-1.79108 6:-0.70363998 7:-0.37915599 8:0.23672201 9:0.58714402 10:-0.67685902 12:1 37:1 #
-1 1:-1.40139 2:-0.95299798 3:0.38718301 4:-0.82065398 5:-0.384563 6:-0.51829398 7:0.48001501 8:-1.1795599 9:-1.03292 10:-0.47598201 13:1 24:1 #
-1 1:-0.73348099 2:-0.57769603 3:1.05474 4:-1.26761 5:-0.79622602 6:-0.31755701 7:1.33919 8:-1.28073 9:-1.94748 10:-0.38536 13:1 24:1 #
-1 1:-1.98 2:-0.77428299 3:0.253672 4:-1.12646 5:-0.76192099 6:-1.15257 7:0.853567 8:-0.82549298 9:-1.13744 10:-1.05067 13:1 24:1 #
0.23784015715260270473763171139581 1:-0.57989901 2:-1.31936 3:0.38718301 4:-0.36429101 5:-0.95060003 6:-0.68375802 7:-0.56593198 8:-1.02782 9:-0.066109203 10:0.0450917 13:1 27:1 #
1 1:-1.8264199 2:-1.0423599 3:-0.54739702 4:-0.68421501 5:0.078559197 6:-1.30906 7:0.330594 8:-0.31967601 9:-0.327411 10:-1.16093 14:1 20:1 #
-0.3010357494761909391556287118874 1:0.0451461 2:-1.3908499 3:-0.68090802 4:-0.27019501 5:-0.230189 6:2.35745 7:-0.229735 8:-0.066767797 9:0.29971299 10:1.46332 11:1 38:1 #
-1 1:-1.74427 2:-1.24788 3:-1.08144 4:-0.56189102 5:0.095711797 6:-1.3712699 7:0.106462 8:0.186141 9:0.169062 10:-1.2424901 14:1 20:1 #
-1 1:-1.63355 2:-1.3283 3:-0.81441897 4:-0.44427201 5:-0.29879901 6:-1.18015 7:-0.080313802 8:0.034395501 9:0.221322 10:-0.38460499 14:1 20:1 #
-1 1:-1.9299901 2:-0.58663201 3:-0.81441897 4:-0.420748 5:0.59313899 6:-0.76969701 7:0.74150199 8:0.23672201 9:-0.35354099 10:-0.82940501 14:1 20:1 #
0.62780828129832022543865832631127 1:-2.34431 2:1.07542 3:2.1228299 4:-0.84417802 5:-0.161578 6:-0.56767702 7:-3.2555101 8:0.33788601 9:2.44238 10:-0.981951 14:1 15:1 #
0.3571097918158770423424641649035 1:-1.23352 2:-0.97980499 3:-0.0133511 4:-1.0700099 5:-0.55608898 6:-1.04996 7:0.44266 8:-0.77491099 9:-0.71936202 10:-0.48353299 13:1 24:1 #
0.54333219644177732643441913751303 1:-2.05143 2:-0.81002599 3:0.52069402 4:-1.0700099 5:-0.72761601 6:-1.08459 7:0.816212 8:-1.12898 9:-1.3203599 10:-1.00914 13:1 24:1 #
-1 1:-1.49782 2:-0.60450399 3:-0.0133511 4:-0.75949198 5:-0.281647 6:-0.51572901 7:1.0403399 8:-0.370258 9:-1.03292 10:-0.25849 13:1 24:1 #
-1 1:-1.64069 2:-0.61343902 3:0.78771698 4:-1.12646 5:-0.86483699 6:-1.0583 7:1.18976 8:-0.977238 9:-1.63392 10:-0.81430203 13:1 25:1 #
-1 1:-2.3871701 2:-0.71173298 3:0.38718301 4:-0.98532099 5:-0.47032601 6:-0.76969701 7:0.96563298 8:-0.82549298 9:-1.29423 10:-0.93588501 14:1 17:1 #
0.5401352426211571966518931731116 1:-1.90499 2:-0.20239501 3:0.38718301 4:0.129711 5:0.61029202 6:-1.04996 7:1.22712 8:0.28730401 9:-0.95453399 10:-0.44426399 14:1 15:1 #
1 1:-2.18716 2:-1.06023 3:-1.21495 4:-0.27019501 5:0.28439099 6:-0.70363998 7:0.293239 8:0.28730401 9:0.064541399 10:-1.21153 14:1 20:1 #
0.69515611184335857064553465534118 1:-1.54425 2:-1.03342 3:-1.34846 4:-0.279605 5:-0.041509401 6:-1.43797 7:0.293239 8:0.38846701 9:0.116802 10:-0.167869 14:1 20:1 #
-1 1:-2.3907399 2:-0.84576899 3:-0.81441897 4:0.120301 5:0.095711797 6:-1.12628 7:0.55472499 8:-0.016186099 9:-0.35354099 10:-1.14054 14:1 20:1 #
-1 1:-2.0478599 2:-0.89044797 3:-0.68090802 4:-0.067889899 5:-0.161578 6:-0.62475502 7:0.51736999 8:-0.066767797 9:-0.327411 10:-1.0559601 14:1 20:1 #
-1 1:-1.56568 2:-0.62237501 3:-1.34846 4:-0.420748 5:-0.144425 6:-1.29238 7:0.48001501 8:0.489631 9:0.038411301 10:-1.25079 14:1 20:1 #
0.30258037419778044396778682312288 1:-2.2978799 2:1.01287 3:1.7223001 4:-0.420748 5:0.232933 6:-0.37527701 7:-2.6951799 8:0.74253899 9:2.3117299 10:-0.74784601 14:1 16:1 #
-0.18941356488637431376709230335109 1:0.355883 2:0.896703 3:-1.08144 4:-0.98532099 5:-0.74476802 6:0.30325499 7:-0.229735 8:1.04603 9:0.87457502 10:-0.232059 13:1 34:1 #
0.51747367786625930730082245645463 1:-1.30495 2:-0.32749501 3:-0.28037399 4:-1.26761 5:-0.79622602 6:-0.37976599 7:1.0777 8:0.28730401 9:-0.66710198 10:0.68850398 13:1 31:1 #
-1 1:-1.08708 2:-0.72960401 3:-0.0133511 4:-0.56189102 5:-0.24734101 6:0.026198501 7:0.89092302 8:-0.522003 9:-0.95453399 10:-0.67081797 13:1 24:1 #
-1 1:-1.02279 2:-0.92619097 3:-0.146862 4:-0.279605 5:-0.86483699 6:-0.32140499 7:0.55472499 8:-0.57258499 9:-0.66710198 10:-0.340049 13:1 24:1 #
-0.11742545407022016157316812723366 1:-0.96564001 2:-0.79215401 3:-0.0133511 4:-0.703035 5:-0.144425 6:0.191021 7:0.77885699 8:-0.62316602 9:-0.95453399 10:-0.78409398 13:1 24:1 #
1 1:-1.43353 2:-0.64024699 3:0.52069402 4:-0.95238799 5:-0.69331002 6:-0.52983803 7:1.15241 8:-0.92665702 9:-1.4771399 10:-1.01744 13:1 25:1 #
0.22964341091029832897518758727529 1:-1.47639 2:-0.72066802 3:0.52069402 4:-1.0700099 5:-0.65900499 6:-0.58371001 7:1.00299 8:-1.02782 9:-1.42488 10:-0.99856502 13:1 25:1 #
0.53248656317050502284615731696249 1:-2.4121699 2:-0.62237501 3:0.52069402 4:-0.56189102 5:-0.50463098 6:-1.36742 7:1.15241 8:-0.77491099 9:-1.42488 10:-0.77276701 14:1 17:1 #
-0.88754777688191288653740684821969 1:-1.15851 2:-0.461532 3:0.52069402 4:-0.067889899 5:-0.230189 6:-0.37399399 7:1.3018301 8:-0.42084 9:-1.3987499 10:-1.08692 13:1 25:1 #
-0.90588798166848294446396039347746 1:-1.13351 2:-0.55088902 3:0.253672 4:-0.86770201 5:-0.29879901 6:-0.064870901 7:1.18976 8:-0.471421 9:-1.24196 10:0.32224199 13:1 25:1 #
-1 1:-1.30495 2:-0.80109 3:0.78771698 4:-0.44427201 5:0.044253901 6:0.210261 7:0.853567 8:-1.3818901 9:-1.50327 10:-0.93513 13:1 25:1 #
0.14700461690851893137299555291975 1:-1.76213 2:1.3971 3:1.05474 4:-0.13846201 5:0.71320802 6:-1.09293 7:-2.0975001 8:-0.269095 9:1.5017 10:-1.1775399 14:1 24:1 #
-0.40643600920803774068090774562734 1:-0.74062401 2:-0.79215401 3:1.5887901 4:-0.420748 5:0.97049701 6:-0.69850898 7:0.853567 8:-2.3429401 9:-2.23491 10:-0.83771199 13:1 27:1 #
0.91161971004183561806399893612252 1:-1.74427 2:-1.18533 3:1.05474 4:-0.50543398 5:-0.058662102 6:-0.91079003 7:-0.416511 8:-1.78655 9:-0.71936202 10:-0.67459399 13:1 18:1 #
-1 1:-0.89063501 2:-0.96193397 3:0.12016 4:0.063843802 5:-0.84768403 6:-0.978131 7:0.44266 8:-0.87607503 9:-0.77162302 10:-1.31876 13:1 24:1 #
-1 1:-1.15137 2:-1.05129 3:0.253672 4:0.37906399 5:-0.95060003 6:-0.43556201 7:0.218528 8:-0.977238 9:-0.66710198 10:-0.20260701 13:1 24:1 #
-1 1:-1.3621 2:-0.91725498 3:0.38718301 4:0.52961701 5:-0.55608898 6:-0.81010097 7:0.55472499 8:-1.0784 9:-1.03292 10:-0.59303403 13:1 24:1 #
0.3292930815800903521228804038401 1:-3.52654 2:-0.84576899 3:1.5887901 4:-0.86770201 5:-0.59039497 6:-1.33407 7:0.70414603 8:-2.2923601 9:-2.052 10:-1.0786099 14:1 15:1 #
-0.075803655698784153105229677294119 1:-0.037002601 2:-0.51514602 3:-0.94793099 4:-0.16669001 5:-0.52178401 6:-0.181594 7:0.74150199 8:0.33788601 9:-0.327411 10:0.31846601 13:1 45:1 #
0.57911419419470111513703614036785 1:-1.1978 2:-0.62237501 3:0.52069402 4:0.035615101 5:-0.57324201 6:-0.36437401 7:1.15241 8:-0.77491099 9:-1.42488 10:-0.055346999 13:1 25:1 #
-1 1:-1.02993 2:-1.1763901 3:-0.54739702 4:-1.0700099 5:-0.69331002 6:-0.53496897 7:0.106462 8:-0.269095 9:-0.066109203 10:-0.467675 13:1 24:1 #
-0.97271046426241969395931619146722 1:-0.62633002 2:-0.69386101 3:0.253672 4:-0.86770201 5:-1.05352 6:-0.29062 7:1.00299 8:-0.77491099 9:-1.2681 10:-0.29247299 13:1 27:1 #
-1 1:-1.48353 2:-1.3908499 3:0.12016 4:-0.68421501 5:-0.52178401 6:-0.23289999 7:-0.56593198 8:-0.62316602 9:0.19519199 10:0.039805502 13:1 24:1 #
1 1:-0.894207 2:-0.81896198 3:-0.0133511 4:0.38376901 5:-1.03636 6:-1.02495 7:0.74150199 8:-0.67374802 9:-0.92840302 10:-1.3089401 13:1 24:1 #
1 1:-0.84777498 2:-0.92619097 3:-0.146862 4:0.308492 5:-0.88199002 6:-1.01276 7:0.55472499 8:-0.57258499 9:-0.66710198 10:-1.26439 13:1 24:1 #
1 1:-1.25852 2:-1.14958 3:-0.0133511 4:0.88247502 5:-0.230189 6:-0.56254601 7:0.031752001 8:-0.77491099 9:-0.37967101 10:-0.165603 13:1 24:1 #
-1 1:-1.41567 2:-1.10491 3:-0.28037399 4:0.43552101 5:-1.32796 6:-0.72929299 7:0.181173 8:-0.522003 9:-0.35354099 10:-0.62399697 13:1 18:1 #
-1 1:-1.1835099 2:-1.37298 3:-0.68090802 4:0.25203499 5:0.696055 6:-0.55677402 7:-0.15502401 8:0.034395501 9:0.27358201 10:-0.190524 13:1 24:1 #
-1 1:-3.1586499 2:-1.09597 3:1.85581 4:-1.12646 5:-0.93344802 6:-1.22697 7:-0.34180099 8:-2.7981801 9:-1.4771399 10:-0.969868 14:1 24:1 #
0.018528488948500454469581200100947 1:-1.61569 2:-1.1763901 3:-1.08144 4:-1.0700099 5:-0.81337899 6:-1.32573 7:0.181173 8:0.186141 9:0.116802 10:-0.357418 13:1 24:1 #
0.40672123776500279657142300493433 1:-0.729909 2:-1.35511 3:-0.28037399 4:0.56725502 5:0.232933 6:-0.29575101 7:-0.304445 8:-0.370258 9:0.169062 10:0.199148 13:1 24:1 #
0.14579428826692267251452506116038 1:-1.08708 2:-1.3283 3:-0.0133511 4:-0.56189102 5:-0.17873099 6:-0.22969399 7:-0.37915599 8:-0.57258499 9:0.064541399 10:0.231621 13:1 24:1 #
-1 1:-0.669191 2:-1.23001 3:-0.54739702 4:-1.12646 5:-0.76192099 6:-0.54522997 7:-0.0056032902 8:-0.269095 9:-0.013849 10:-0.249428 13:1 24:1 #
-1 1:-1.30138 2:-1.31936 3:0.38718301 4:-0.75949198 5:-0.29879901 6:-0.47275901 7:-0.52857703 8:-0.977238 9:-0.0399791 10:-0.51222998 13:1 24:1 #
-1 1:-1.1478 2:-1.14958 3:-0.0133511 4:-0.67010099 5:-0.86483699 6:-0.611929 7:0.031752001 8:-0.77491099 9:-0.37967101 10:0.0080879601 13:1 25:1 #
1 1:-0.95849699 2:-0.51514602 3:0.253672 4:-1.12646 5:-0.67615801 6:-0.64976799 7:1.18976 8:-0.370258 9:-1.21583 10:-0.489575 13:1 27:1 #
0.86194445978100764360618768478162 1:-2.9514999 2:-1.06916 3:1.4552701 4:-1.26761 5:-0.79622602 6:-1.29944 7:-0.117669 8:-2.4441099 9:-1.3987499 10:-0.84224302 14:1 24:1 #
1 1:-1.72641 2:1.30775 3:-0.81441897 4:0.204987 5:-0.075814798 6:-1.05445 7:-0.49122199 8:0.69195801 9:0.90070599 10:-0.54696798 14:1 20:1 #
-1 1:-1.52639 2:1.26307 3:-0.94793099 4:0.308492 5:0.044253901 6:-1.39179 7:-0.416511 8:0.74253899 9:0.87457502 10:-0.072716199 14:1 20:1 #
-1 1:-1.69784 2:1.46859 3:-0.413885 4:-0.279605 5:0.095711797 6:-1.10127 7:-0.79006398 8:0.28730401 9:0.92683601 10:-0.40650499 14:1 20:1 #
-1 1:-1.52997 2:1.60263 3:-1.21495 4:-0.24196699 5:-0.40171501 6:-1.01405 7:-0.117669 8:0.489631 9:0.53488398 10:-0.72518998 14:1 20:1 #
0.96174542245625027625521852314705 1:-1.30852 2:-1.19426 3:-0.146862 4:-0.82065398 5:-0.65900499 6:-0.31435001 7:-0.0056032902 8:-0.522003 9:-0.17062999 10:0.037539899 13:1 25:1 #
0.48939945389369693407033423682151 1:-1.59426 2:-1.33724 3:0.52069402 4:-0.82065398 5:-0.40171501 6:-0.52599001 7:-0.640643 8:-1.02782 9:-0.013849 10:-0.78409398 13:1 24:1 #
0.95526792735461518724093821219867 1:-1.19066 2:-1.0423599 3:-0.146862 4:-0.41133901 5:-0.69331002 6:-0.77098 7:0.293239 8:-0.67374802 9:-0.536452 10:-0.22677299 13:1 25:1 #
-1 1:-1.36924 2:-1.11384 3:-0.413885 4:-0.84417802 5:-0.69331002 6:0.33724499 7:0.181173 8:-0.370258 9:-0.24902 10:0.41059801 13:1 25:1 #
-0.52281154729518031221147111864411 1:-1.27281 2:-0.98874098 3:-0.28037399 4:-0.16669001 5:0.164322 6:-0.89475697 7:0.40530401 8:-0.471421 9:-0.51032102 10:-0.52204698 13:1 25:1 #
-1 1:-1.4371001 2:-0.86364001 3:-0.413885 4:-0.467796 5:0.095711797 6:-0.460574 7:0.59208101 8:-0.31967601 9:-0.58871198 10:-0.19883101 13:1 25:1 #
0.29550339031274502898938294492837 1:-1.73712 2:1.40604 3:-0.68090802 4:-0.19491901 5:-0.29879901 6:-1.11089 7:-0.56593198 8:0.54021198 9:0.90070599 10:-0.50165802 14:1 20:1 #
0.80239308161503986038809443925857 1:-1.72284 2:1.30775 3:-1.34846 4:-0.105528 5:-0.230189 6:-1.10255 7:-0.19238 8:0.74253899 9:0.69166398 10:-0.51298499 14:1 20:1 #
0.1155628929557339368283663816328 1:-1.72998 2:1.68305 3:-0.81441897 4:0.063843802 5:-0.092967398 6:-1.08139 7:-0.26708999 8:0.23672201 9:0.50875401 10:-0.531865 14:1 20:1 #
-1 1:-1.36924 2:1.70986 3:-1.08144 4:0.14382499 5:0.061406501 6:-1.16027 7:-0.15502401 8:0.33788601 9:0.45649299 10:-0.86716402 14:1 20:1 #
-0.57623040358378674330452895446797 1:-0.74062401 2:-0.37217399 3:0.78771698 4:-0.98532099 5:-0.86483699 6:-0.86204898 7:1.4139 8:-0.370258 9:-1.50327 10:-1.10807 13:1 27:1 #
-0.36811138734627002477850510331336 1:-0.86206198 2:-0.64918202 3:0.12016 4:-1.26761 5:-0.79622602 6:-0.071284302 7:1.0403399 8:-0.57258499 9:-1.1897 10:-1.29308 13:1 27:1 #
1 1:-1.23352 2:-0.34536701 3:-0.28037399 4:-0.82065398 5:-0.55608898 6:-0.15850601 7:1.0403399 8:0.28730401 9:-0.66710198 10:0.171207 13:1 25:1 #
0.08763767402941180506559248897247 1:-2.0050001 2:-0.836833 3:-0.54739702 4:-0.27019501 5:0.43876499 6:-0.84858102 7:0.62943602 8:-0.269095 9:-0.56258202 10:-0.58925802 14:1 20:1 #
1 1:-1.79427 2:-1.35511 3:-0.81441897 4:0.43552101 5:-0.69331002 6:-0.85435301 7:-0.080313802 8:0.084977202 9:0.27358201 10:-0.778808 14:1 20:1 #
-1 1:-1.3621 2:-0.559825 3:-0.28037399 4:-1.0700099 5:-0.65900499 6:0.0082411403 7:1.00299 8:-0.066767797 9:-0.823883 10:0.384922 13:1 25:1 #
-1 1:-1.02636 2:-0.54195303 3:-0.81441897 4:-1.26761 5:-0.79622602 6:-0.54074103 7:0.77885699 8:0.28730401 9:-0.37967101 10:-0.38460499 13:1 25:1 #
-0.48378951126045771635730829984823 1:-0.73348099 2:-0.60450399 3:-0.81441897 4:-0.75949198 5:-0.71046299 6:-0.85050499 7:0.77885699 8:0.186141 9:-0.43193099 10:0.25276601 13:1 25:1 #
1 1:-2.06215 2:1.8081501 3:2.6568799 4:0.0120913 5:1.1248699 6:-1.00763 7:-2.3589799 8:-3.3039999 9:-0.30127999 10:-1.0114 14:1 24:1 #
0.77982212654353733061185494079837 1:-0.67276198 2:-1.3283 3:-0.68090802 4:0.69428402 5:1.34786 6:-0.25534701 7:-0.117669 8:-0.066767797 9:0.19519199 10:0.0450917 13:1 24:1 #
-0.11969065809499546126914992782986 1:0.034430999 2:1.56688 3:-1.61549 4:0.308492 5:-0.487479 6:1.64877 7:0.031752001 8:0.64137602 9:0.45649299 10:0.256542 11:1 37:1 #
-1 1:-2.28002 2:1.01287 3:2.3898499 4:-0.41133901 5:1.15918 6:-1.29944 7:-3.3675799 8:0.43904901 9:2.5207701 10:-0.420854 14:1 24:1 #
-0.81160681389408317887301791415666 1:-2.77648 2:-0.64918202 3:1.5887901 4:-0.00672783 5:-0.45317301 6:-1.10576 7:1.22712 8:-1.98887 9:-2.39169 10:-1.0114 14:1 20:1 #
-1 1:-0.88706303 2:-1.31936 3:0.78771698 4:0.14382499 5:1.0391099 6:-0.441975 7:-0.75270802 8:-1.43247 9:-0.17062999 10:0.47176799 13:1 24:1 #
1 1:-1.34781 2:-0.60450399 3:-0.94793099 4:-1.12646 5:-0.72761601 6:-0.26111901 7:0.70414603 8:0.23672201 9:-0.35354099 10:0.065481499 13:1 25:1 #
1 1:-1.34781 2:-0.702797 3:-0.68090802 4:-0.82065398 5:-0.72761601 6:-0.91079003 7:0.74150199 8:0.034395501 9:-0.45806101 10:-0.383095 13:1 25:1 #
1 1:-1.3621 2:-0.58663201 3:-1.08144 4:-0.95238799 5:-0.79622602 6:-0.92874801 7:0.62943602 8:0.38846701 9:-0.17062999 10:-0.40575001 13:1 25:1 #
-1 1:-1.32638 2:-0.37217399 3:-1.21495 4:-0.75949198 5:-0.45317301 6:-0.89347398 7:0.59208101 8:0.59079403 9:-0.0399791 10:-0.61191398 13:1 25:1 #
1 1:-0.92277998 2:-1.38191 3:1.1882499 4:-0.129052 5:0.83327597 6:-0.399647 7:-1.2009701 8:-1.73596 9:-0.0399791 10:0.48309499 13:1 24:1 #
-0.55578872724028693941278334023082 1:-0.95135403 2:-0.65811801 3:-0.94793099 4:-0.50543398 5:-0.62470001 6:-1.35716 7:0.66679102 8:0.23672201 9:-0.27515 10:-0.67685902 13:1 25:1 #
1 1:-2.99793 2:1.78134 3:1.4552701 4:0.308492 5:0.164322 6:-1.25647 7:-1.6118799 8:-1.88771 9:0.116802 10:-0.76748002 14:1 19:1 #
-0.71999994654524268611339721246623 1:-1.36567 2:-0.264945 3:-1.08144 4:-0.86770201 5:-0.79622602 6:0.39817199 7:0.70414603 8:0.64137602 9:-0.118369 10:0.267869 13:1 25:1 #
-1 1:-1.35495 2:-0.872576 3:-1.08144 4:-0.37369999 5:-0.384563 6:-0.90886599 7:0.44266 8:0.23672201 9:-0.118369 10:0.181024 13:1 25:1 #
-0.53785130078904508366122172446921 1:-1.34067 2:-0.71173298 3:-1.08144 4:-0.86770201 5:-0.72761601 6:0.44049999 7:0.59208101 8:0.28730401 9:-0.17062999 10:0.40606701 13:1 25:1 #
1 1:-1.97286 2:0.42310801 3:-0.28037399 4:0.035615101 5:0.28439099 6:-0.89347398 7:0.069107197 8:1.34952 9:0.71779501 10:-0.37025699 14:1 20:1 #
-0.026560409165894877797642337213802 1:-0.829916 2:-0.64918202 3:-0.413885 4:-0.84417802 5:-0.84768403 6:-0.73763001 7:0.853567 8:-0.11735 9:-0.693232 10:-0.90265697 13:1 45:1 #
0.14604699715189611852750317666505 1:-1.17637 2:-0.53301799 3:-0.94793099 4:0.34142601 5:1.10772 6:-0.54074103 7:0.74150199 8:0.28730401 9:-0.35354099 10:-0.102923 13:1 16:1 #
0.75078122277877668011569767259061 1:-0.92635202 2:-1.36404 3:1.3217601 4:-0.053775601 5:0.850429 6:-0.418246 7:-1.16362 8:-1.78655 9:-0.118369 10:0.48838201 13:1 24:1 #
-1 1:-1.98 2:0.217586 3:0.12016 4:-0.24196699 5:0.25008601 6:-0.918486 7:0.44266 8:1.24836 9:0.24745201 10:-0.32947701 14:1 20:1 #
-1 1:-1.93714 2:0.12822799 3:-0.146862 4:0.14382499 5:0.45591801 6:-0.85178798 7:0.62943602 8:1.09661 9:0.064541399 10:-0.40952599 14:1 20:1 #
-1 1:-2.3871701 2:-0.702797 3:0.253672 4:-0.75949198 5:0.49022299 6:-0.67991 7:1.00299 8:-0.72433001 9:-1.21583 10:-1.099 14:1 16:1 #
1 1:-0.94778198 2:-1.0870301 3:-0.68090802 4:-0.95238799 5:-0.84768403 6:-0.173898 7:0.25588301 8:-0.11735 9:-0.1445 10:0.49215701 13:1 25:1 #
1 1:-0.95135403 2:-1.29256 3:-0.68090802 4:-0.86770201 5:-0.77907401 6:-0.18736599 7:-0.042958502 8:-0.066767797 9:0.142932 10:0.48913699 13:1 25:1 #
1 1:-1.0692199 2:-0.79215401 3:-0.28037399 4:-0.251376 5:-0.60754699 6:-0.33166599 7:0.74150199 8:-0.31967601 9:-0.693232 10:-0.098392203 13:1 25:1 #
0.61360454713975909335488267970504 1:-3.5943999 2:1.66518 3:2.1228299 4:0.0026817201 5:0.953345 6:-1.35203 7:-2.47105 8:-2.09004 9:0.61327398 10:-0.863388 14:1 19:1 #
-0.26355031332595274529140283448214 1:1.14165 2:-0.48833901 3:0.12016 4:-0.27019501 5:-0.64185202 6:0.71050203 7:1.15241 8:-0.218513 9:-1.08518 10:-0.55225497 13:1 48:1 #
-0.77780015241155509020387626151205 1:-0.76562601 2:-1.3283 3:-0.81441897 4:-0.95238799 5:-0.69331002 6:-0.80497003 7:-0.080313802 8:0.034395501 9:0.221322 10:0.131937 13:1 25:1 #
0.39026740922514568943313406634843 1:-2.3764601 2:-0.872576 3:0.253672 4:-0.50543398 5:0.0099485395 6:-0.71838999 7:0.66679102 8:-0.977238 9:-1.05905 10:-1.01895 14:1 16:1 #
1 1:-1.7657 2:0.181843 3:-0.28037399 4:-0.279605 5:-0.264494 6:-1.12051 7:0.51736999 8:1.14719 9:0.24745201 10:-0.452571 14:1 20:1 #
0.80047922699900408982642829869292 1:-2.6800499 2:-0.78321898 3:0.52069402 4:-0.36429101 5:1.07341 6:-1.2622401 7:0.89092302 8:-1.1795599 9:-1.3987499 10:-1.1496 14:1 16:1 #
-1 1:-1.74784 2:-0.631311 3:0.78771698 4:0.063843802 5:0.62744403 6:-1.02623 7:1.18976 8:-1.12898 9:-1.68618 10:-1.28176 14:1 16:1 #
-1 1:-1.91571 2:-0.48833901 3:0.253672 4:0.50138801 5:-0.230189 6:-0.95632499 7:1.22712 8:-0.370258 9:-1.24196 10:-0.85432601 14:1 16:1 #
-1 1:-2.11215 2:-0.88151199 3:-0.413885 4:-0.420748 5:-0.65900499 6:-1.26609 7:0.59208101 8:-0.370258 9:-0.58871198 10:-0.96684802 13:1 16:1 #
0.78126797266772318728556001588004 1:-1.47282 2:-0.425789 3:-1.48198 4:-1.26761 5:-0.79622602 6:-1.04483 7:0.48001501 8:0.64137602 9:0.090671502 10:-0.67459399 13:1 25:1 #
1 1:-1.42996 2:-1.24788 3:-1.48198 4:-1.12646 5:-0.79622602 6:-0.66323602 7:0.181173 8:0.43904901 9:0.27358201 10:0.358491 13:1 25:1 #
0.33206300284343986950474914010556 1:-1.39424 2:1.61156 3:0.253672 4:-0.50543398 5:0.078559197 6:-0.67926902 7:-1.05155 8:-0.31967601 9:0.770055 10:-0.53941703 13:1 16:1 #
-1 1:-2.2550199 2:-0.64918202 3:-1.34846 4:-1.12646 5:-0.77907401 6:-1.3148299 7:0.48001501 8:0.489631 9:0.0122812 10:-1.0597301 13:1 24:1 #
-1 1:-0.75848299 2:-0.96193397 3:-0.413885 4:-0.82065398 5:-0.50463098 6:0.0133718 7:0.44266 8:-0.42084 9:-0.51032102 10:0.227845 13:1 46:1 #
-0.69271944052988432272144336820929 1:-1.12637 2:-0.104102 3:0.65420598 4:-0.56189102 5:-1.2593499 6:0.235273 7:1.15241 8:0.489631 9:-0.85001302 10:-0.087064497 13:1 25:1 #
0.39663996374858700999510574547458 1:-1.75498 2:-0.92619097 3:-0.413885 4:-0.98532099 5:-0.69331002 6:-1.42129 7:0.51736999 8:-0.31967601 9:-0.484191 10:-0.61568999 13:1 16:1 #
-0.017055901323613339298779223440761 1:0.70233601 2:-0.64024699 3:0.65420598 4:-0.95238799 5:-0.50463098 6:-0.0674363 7:1.15241 8:-0.977238 9:-1.5294 10:0.50348502 11:1 43:1 #
0.94276901355765585499568715022178 1:-1.77284 2:-0.89938301 3:-0.68090802 4:-0.98532099 5:-0.77907401 6:-1.4110301 7:0.51736999 8:-0.11735 9:-0.37967101 10:-0.62022102 13:1 16:1 #
-1 1:-2.12644 2:-0.75641102 3:-0.68090802 4:-0.56189102 5:-0.57324201 6:-1.27507 7:0.70414603 8:-0.066767797 9:-0.484191 10:-0.96231699 13:1 16:1 #
-0.75099548343224553637043072740198 1:-1.40853 2:-0.095165797 3:-0.146862 4:-1.12646 5:-0.69331002 6:-0.87102801 7:0.96563298 8:0.69195801 9:-0.405801 10:-0.264532 13:1 16:1 #
-1 1:-1.6656899 2:-0.390046 3:-0.413885 4:-0.98532099 5:-1.07067 6:-0.74404401 7:1.00299 8:0.23672201 9:-0.64097202 10:-0.32796699 13:1 18:1 #
0.65708688804322890053555283884634 1:-1.36567 2:-0.86364001 3:2.1228299 4:-0.86770201 5:-0.230189 6:0.31159201 7:0.55472499 8:-3.05109 9:-2.4700799 10:-0.81430203 13:1 24:1 #
0.90570172865163600661730924912263 1:-0.91206503 2:-0.970869 3:-0.68090802 4:-0.547777 5:-0.84768403 6:-0.214302 7:0.40530401 8:-0.11735 9:-0.27515 10:0.520854 13:1 46:1 #
0.35223450556040075687391777137236 1:-0.85134703 2:-0.184523 3:0.38718301 4:0.28496799 5:-0.62470001 6:-0.214302 7:1.18976 8:0.38846701 9:-0.85001302 10:0.48611599 13:1 18:1 #
-1 1:-0.82277298 2:-0.970869 3:-0.54739702 4:0.34142601 5:0.19862799 6:-0.0020202 7:0.44266 8:-0.31967601 9:-0.405801 10:0.081340298 13:1 46:1 #
-0.30820718600871316317224568592792 1:0.0058575599 2:-1.31936 3:-0.413885 4:-0.75949198 5:-0.40171501 6:-0.177746 7:-0.19238 8:-0.269095 9:0.116802 10:0.41815001 13:1 46:1 #
-0.21529787652311965784335257012572 1:0.109436 2:0.94138098 3:1.3217601 4:0.035615101 5:0.52452803 6:1.83412 7:-2.13485 8:1.04603 9:2.1288199 10:-0.45785701 11:1 43:1 #
0.49234448922349804966813735518372 1:-1.9407099 2:-0.40791699 3:-0.0133511 4:-0.129052 5:0.232933 6:-1.00763 7:1.18976 8:-0.016186099 9:-0.95453399 10:-0.52959901 14:1 16:1 #
0.42564547114331796606734314991627 1:-1.75498 2:-0.470467 3:-0.68090802 4:-1.26761 5:-0.79622602 6:-0.53561002 7:0.89092302 8:0.23672201 9:-0.536452 10:-0.92153698 13:1 18:1 #
1 1:-1.52282 2:-0.38111001 3:0.12016 4:-0.95238799 5:-0.74476802 6:-0.73185802 7:1.22712 8:-0.016186099 9:-1.00679 10:-0.50618899 13:1 18:1 #
-1 1:-1.66212 2:-0.461532 3:-0.0133511 4:-1.26761 5:-0.79622602 6:-0.813308 7:1.15241 8:-0.11735 9:-0.98066401 10:-1.04237 13:1 18:1 #
-1 1:-1.6085401 2:0.0478063 3:-0.54739702 4:-1.0700099 5:-0.72761601 6:-0.92297602 7:0.66679102 8:0.99544799 9:0.0122812 10:-0.340049 13:1 18:1 #
-1 1:-1.4585299 2:-0.14878 3:0.78771698 4:-0.703035 5:-0.29879901 6:-0.781241 7:1.26448 8:0.28730401 9:-1.05905 10:-0.161072 13:1 18:1 #
-0.25877227651476342185077328394982 1:1.10236 2:-0.872576 3:-0.0133511 4:-0.56189102 5:-0.86483699 6:0.877249 7:0.66679102 8:-0.72433001 9:-0.87614298 10:1.45426 11:1 52:1 #
1 1:-0.86206198 2:-0.69386101 3:-0.54739702 4:0.25674 5:0.30154401 6:-0.0154882 7:0.77885699 8:-0.066767797 9:-0.58871198 10:0.122875 13:1 46:1 #
0.9618325670139525884749787110195 1:-0.704907 2:1.51327 3:1.4552701 4:0.78837901 5:2.68576 6:-0.81010097 7:-2.28427 8:-0.92665702 9:1.2404 10:-0.90492302 13:1 47:1 #
0.050394713168812339809665701295671 1:-1.60497 2:-0.16665199 3:0.38718301 4:-1.26761 5:-0.79622602 6:-1.08523 7:1.18976 8:0.38846701 9:-0.85001302 10:-0.82940501 13:1 18:1 #
-0.066411734686921963799477452994324 1:0.0415744 2:-0.970869 3:-0.68090802 4:0.035615101 5:0.38730699 6:-0.45672601 7:0.40530401 8:-0.11735 9:-0.27515 10:0.60392398 13:1 46:1 #
-0.13679477179224477922936387130903 1:0.059432801 2:-0.29175201 3:-0.81441897 4:-0.067889899 5:0.181475 6:-0.44069299 7:0.816212 8:0.54021198 9:-0.30127999 10:0.55332702 13:1 46:1 #
-0.047138255670376404127264180488055 1:0.92020899 2:-1.0423599 3:0.253672 4:0.99068499 5:1.89674 6:-0.450313 7:0.25588301 8:-1.02782 9:-0.74549299 10:0.14779601 13:1 46:1 #
0.50653782099005328909413492510794 1:-1.6549799 2:0.226521 3:-0.0133511 4:-1.26761 5:-0.79622602 6:-0.74789202 7:0.44266 8:1.24836 9:0.27358201 10:-0.49863699 13:1 18:1 #
-1 1:-1.42996 2:0.24439301 3:0.253672 4:-1.26761 5:-0.79622602 6:-0.66323602 7:0.40530401 8:1.2989399 9:0.29971299 10:-1.17528 13:1 18:1 #
-1 1:-1.64783 2:0.38736501 3:-0.0133511 4:-0.63716799 5:-0.64185202 6:-0.840244 7:0.106462 8:1.4001 9:0.66553402 10:-0.775787 13:1 18:1 #
-1 1:-1.35495 2:0.029934799 3:0.65420598 4:-0.98532099 5:-1.12213 6:-0.62988597 7:0.89092302 8:0.84370297 9:-0.43193099 10:-0.76143903 13:1 18:1 #
1 1:-1.5764 2:-0.461532 3:-0.81441897 4:-0.129052 5:0.061406501 6:-1.0172499 7:0.816212 8:0.33788601 9:-0.35354099 10:-0.78636003 13:1 16:1 #
0.11600837771803133857684287022494 1:-2.33002 2:-0.60450399 3:1.1882499 4:-0.279605 5:0.232933 6:-0.82036197 7:1.3018301 8:-1.43247 9:-2.052 10:-0.90567797 14:1 16:1 #
1 1:-2.68362 2:1.6741101 3:2.25634 4:-0.129052 5:1.82813 6:-1.1179399 7:-2.65783 8:-2.3935299 9:0.53488398 10:-0.84677398 14:1 24:1 #
-1 1:-1.38353 2:-0.82789701 3:-1.08144 4:-0.32194799 5:0.130017 6:-0.70556402 7:0.51736999 8:0.186141 9:-0.19676 10:-0.55980599 13:1 16:1 #
-1 1:-1.89785 2:-0.21133099 3:-0.413885 4:0.14382499 5:0.696055 6:-0.91079003 7:0.96563298 8:0.54021198 9:-0.484191 10:-0.49410599 13:1 16:1 #
-0.056621606587174175273524667773017 1:-1.91571 2:-0.175588 3:-0.0133511 4:0.063843802 5:0.61029202 6:-0.93002999 7:1.0403399 8:0.54021198 9:-0.58871198 10:-0.51222998 13:1 16:1 #
0.85746118472008236999215569085209 1:-1.83713 2:0.25332901 3:-0.146862 4:-1.26761 5:-0.79622602 6:-0.74596798 7:0.40530401 8:1.2989399 9:0.351973 10:-0.98648202 13:1 18:1 #
0.78327039826515199028023062055581 1:-1.5406801 2:0.440979 3:-0.146862 4:-1.12646 5:-0.79622602 6:-0.764566 7:-0.0056032902 8:1.4001 9:0.770055 10:-0.461633 13:1 18:1 #
0.71643610945071889428703570956714 1:-1.61926 2:0.378429 3:0.253672 4:-1.12646 5:-0.64185202 6:-0.755588 7:0.069107197 8:1.45068 9:0.66553402 10:-0.42689499 13:1 18:1 #
-1 1:-1.3799599 2:0.583951 3:-0.0133511 4:-0.75949198 5:-0.264494 6:-0.66836601 7:-0.37915599 8:1.50126 9:1.08362 10:-0.60436201 13:1 18:1 #
-0.91707991581002457071036815250409 1:-0.85134703 2:0.306943 3:0.65420598 4:-0.95238799 5:-0.487479 6:-1.03777 7:0.181173 8:1.4001 9:0.45649299 10:0.0851162 13:1 18:1 #
-1 1:-1.25852 2:-0.47940299 3:-0.146862 4:-0.13846201 5:-0.67615801 6:-1.19683 7:1.11505 8:-0.066767797 9:-0.92840302 10:-0.61191398 13:1 18:1 #
-0.19381735370645875038420058444899 1:1.39881 2:0.155035 3:-0.81441897 4:-0.251376 5:-0.29879901 6:-0.36437401 7:0.48001501 8:1.04603 9:0.24745201 10:0.88334 11:1 54:1 #
-0.10332980889705853377869004816603 1:-0.17629801 2:0.512465 3:0.78771698 4:-0.703035 5:0.14717001 6:-0.80497003 7:-0.52857703 8:1.55185 9:1.13588 10:-1.16546 13:1 47:1 #
0.52306115203539216285122392946505 1:-1.5406801 2:-0.88151199 3:-0.81441897 4:0.063843802 5:0.57598603 6:-1.2135 7:0.51736999 8:-0.016186099 9:-0.27515 10:-0.72217 13:1 16:1 #
-1 1:-1.5621099 2:-0.765347 3:-0.54739702 4:-1.26761 5:-0.79622602 6:-0.88577801 7:0.70414603 8:-0.11735 9:-0.51032102 10:-1.12695 13:1 27:1 #
-0.93859560705909361733034756980487 1:-1.21566 2:-0.68492502 3:-0.81441897 4:-1.12646 5:-0.81337899 6:-0.90886599 7:0.70414603 8:0.13555899 9:-0.37967101 10:-0.25924501 13:1 47:1 #
-1 1:-1.19066 2:-1.23001 3:-0.54739702 4:-1.12646 5:-0.74476802 6:-1.11089 7:0.031752001 8:-0.16793101 9:0.0122812 10:-0.51222998 13:1 47:1 #
1 1:-1.6014 2:0.17290699 3:1.05474 4:-1.26761 5:-0.79622602 6:-0.094372302 7:0.51736999 8:1.09661 9:-0.092239402 10:-0.85734701 13:1 18:1 #
1 1:-0.79062802 2:-0.57769603 3:-0.0133511 4:0.308492 5:-0.84768403 6:-1.02495 7:1.0777 8:-0.269095 9:-1.00679 10:-1.2002 13:1 18:1 #
1 1:-1.16565 2:-0.184523 3:-0.0133511 4:0.035615101 5:-0.19588301 6:-1.19169 7:1.0777 8:0.489631 9:-0.66710198 10:-1.28025 13:1 18:1 #
-1 1:-1.50854 2:0.20864999 3:1.4552701 4:-0.95238799 5:-0.35025701 6:-0.127722 7:0.330594 8:1.14719 9:0.0122812 10:-0.79542202 13:1 18:1 #
-1 1:-1.6014 2:-0.300688 3:-0.68090802 4:-0.067889899 5:0.164322 6:-1.3295799 7:0.89092302 8:0.489631 9:-0.37967101 10:-1.14054 13:1 18:1 #
-0.92425960350774205576129816108732 1:-1.34781 2:0.29800701 3:1.4552701 4:-1.26761 5:-0.79622602 6:-0.67221397 7:-0.0056032902 8:1.2989399 9:0.351973 10:-0.79013598 13:1 18:1 #
1 1:-1.5764 2:-1.2568099 3:-0.413885 4:-1.26761 5:-0.79622602 6:-0.90501797 7:-0.080313802 8:-0.31967601 9:0.0122812 10:-0.269063 13:1 47:1 #
0.46936204413266030543994133950036 1:-1.45139 2:-0.15771601 3:-0.146862 4:-1.12646 5:-0.72761601 6:-0.64591998 7:1.00299 8:0.59079403 9:-0.484191 10:-0.50014699 13:1 31:1 #
0.93180344705411166650321774795884 1:-1.77284 2:-0.34536701 3:-1.61549 4:-1.26761 5:-0.79622602 6:-1.4802999 7:0.40530401 8:0.69195801 9:0.19519199 10:-0.54470301 13:1 24:1 #
-1 1:-0.92277998 2:-0.78321898 3:-1.34846 4:-1.26761 5:-0.79622602 6:-0.078338899 7:0.44266 8:0.38846701 9:-0.013849 10:-1.02877 13:1 24:1 #
-1 1:-1.95857 2:0.378429 3:0.12016 4:-1.12646 5:-0.67615801 6:-0.749816 7:0.069107197 8:1.45068 9:0.66553402 10:-0.73425299 13:1 30:1 #
-1 1:-1.75498 2:-0.51514602 3:0.78771698 4:-0.86770201 5:-0.40171501 6:-1.21799 7:1.33919 8:-0.82549298 9:-1.68618 10:-0.83469099 13:1 18:1 #
1 1:-1.51925 2:0.35162199 3:0.78771698 4:-0.86770201 5:-0.69331002 6:-0.77098 7:-0.0056032902 8:1.45068 9:0.61327398 10:-0.50165802 13:1 18:1 #
1 1:-1.63355 2:-0.461532 3:-0.68090802 4:-0.37369999 5:-0.24734101 6:-0.83062398 7:0.89092302 8:0.28730401 9:-0.484191 10:-0.77050102 13:1 18:1 #
1 1:-1.25852 2:-0.041551199 3:0.92122799 4:-1.12646 5:-0.72761601 6:-0.32845899 7:1.0777 8:0.59079403 9:-0.77162302 10:0.63488603 13:1 18:1 #
-1 1:-1.06208 2:0.020998999 3:0.52069402 4:-0.98532099 5:-0.60754699 6:-0.19377901 7:0.92827803 8:0.84370297 9:-0.43193099 10:0.35622501 13:1 18:1 #
-1 1:-1.25852 2:-0.40791699 3:-0.146862 4:-0.36429101 5:-0.00720412 6:-0.52534902 7:1.15241 8:0.084977202 9:-0.902273 10:-0.707066 13:1 18:1 #
-1 1:-1.15851 2:-0.264945 3:-0.146862 4:-1.0700099 5:-0.69331002 6:-0.0103575 7:1.0777 8:0.38846701 9:-0.66710198 10:0.36528701 13:1 18:1 #
1 1:-2.0264299 2:-0.559825 3:0.78771698 4:-0.84417802 5:-0.161578 6:-1.17117 7:1.3018301 8:-0.92665702 9:-1.68618 10:-0.78409398 13:1 18:1 #
0.7162409738551167581732670441852 1:-1.75855 2:0.44991499 3:0.12016 4:-1.26761 5:-0.79622602 6:-0.55677402 7:-0.080313802 8:1.50126 9:0.848445 10:-0.67459399 13:1 30:1 #
0.25022450021074427173317644701456 1:-1.91214 2:0.342686 3:-0.28037399 4:-1.26761 5:-0.79622602 6:-0.79535002 7:0.218528 8:1.34952 9:0.561014 10:-0.62399697 13:1 30:1 #
-1 1:-1.7121201 2:-0.54195303 3:1.05474 4:-0.75949198 5:-0.19588301 6:-1.2160701 7:1.3765399 8:-1.1795599 9:-1.94748 10:-0.82638401 13:1 18:1 #
-1 1:-1.08708 2:0.056742001 3:-0.54739702 4:-1.12646 5:-0.77907401 6:-0.36437401 7:0.66679102 8:0.99544799 9:0.038411301 10:-1.25155 13:1 18:1 #
-1 1:-1.17637 2:0.36949301 3:-0.68090802 4:-0.98532099 5:-0.83053201 6:-0.764566 7:0.218528 8:1.24836 9:0.561014 10:-0.88377798 13:1 31:1 #
1 1:-1.15851 2:-0.34536701 3:-0.413885 4:-1.12646 5:-0.74476802 6:-0.0033028701 7:1.00299 8:0.33788601 9:-0.58871198 10:0.38416699 13:1 18:1 #
0.47695773650411721344966053948156 1:-0.86563301 2:-0.21133099 3:-0.146862 4:0.14382499 5:-0.69331002 6:-0.23289999 7:1.0777 8:0.489631 9:-0.58871198 10:0.51405799 13:1 18:1 #
0.40299200861292905351263016200392 1:-1.25852 2:0.190778 3:0.78771698 4:-1.26761 5:-0.79622602 6:-0.28420699 7:0.48001501 8:1.19777 9:0.038411301 10:0.595617 13:1 18:1 #
-1 1:-0.98349899 2:-0.059422798 3:-0.28037399 4:0.308492 5:0.061406501 6:-0.070001602 7:0.89092302 8:0.79312098 9:-0.27515 10:0.32677299 13:1 18:1 #
-0.33734607662318588650052220145881 1:-0.73705298 2:0.101421 3:0.253672 4:0.073253401 5:-0.40171501 6:-0.023825601 7:0.74150199 8:1.04603 9:-0.118369 10:0.25805199 13:1 18:1 #
-1 1:-1.16923 2:-0.229202 3:-0.413885 4:0.14382499 5:0.45591801 6:-0.44582301 7:0.96563298 8:0.54021198 9:-0.45806101 10:0.358491 13:1 18:1 #
0.28405887028846932285119919470162 1:-1.76213 2:-0.068358503 3:0.12016 4:-1.12646 5:-0.95060003 6:-1.08523 7:0.96563298 8:0.74253899 9:-0.45806101 10:-0.63305902 13:1 31:1 #
0.27580575492472270138222256719018 1:-1.48353 2:-1.19426 3:0.65420598 4:-0.82065398 5:-0.50463098 6:0.074939899 7:-0.26708999 8:-1.33131 9:-0.51032102 10:-0.96684802 13:1 24:1 #
1 1:-2.01929 2:-0.62237501 3:1.1882499 4:-1.12646 5:-0.69331002 6:-1.09934 7:1.26448 8:-1.48306 9:-2.052 10:-0.65420401 13:1 18:1 #
-1 1:-1.99429 2:-0.56876099 3:1.3217601 4:-0.98532099 5:-0.59039497 6:-1.06792 7:1.3765399 8:-1.48306 9:-2.1826501 10:-0.65420401 13:1 18:1 #
-1 1:-1.25495 2:0.896703 3:-1.61549 4:-1.26761 5:-0.79622602 6:-0.14760301 7:0.069107197 8:0.84370297 9:0.53488398 10:-0.60738301 13:1 31:1 #
-1 1:-2.05143 2:-0.595568 3:1.85581 4:-0.98532099 5:-0.55608898 6:-1.03777 7:1.33919 8:-1.98887 9:-2.5223401 10:-0.660245 13:1 18:1 #
1 1:-1.0120699 2:-0.184523 3:-0.81441897 4:0.0026817201 5:0.78181797 6:-0.375918 7:0.77885699 8:0.69195801 9:-0.17062999 10:0.49064699 13:1 18:1 #
0.89336356576275055552116555190878 1:-0.96564001 2:-0.077294298 3:0.12016 4:0.14853001 5:0.98764998 6:-0.30537099 7:1.00299 8:0.69195801 9:-0.484191 10:0.56314403 13:1 18:1 #
0.77557625684369901897241561528062 1:-0.95135403 2:-0.0058082398 3:0.38718301 4:0.17205399 5:1.05626 6:-0.28997901 7:0.96563298 8:0.79312098 9:-0.43193099 10:0.58428901 13:1 18:1 #
-1 1:-2.03 2:0.33375001 3:0.253672 4:-0.68421501 5:-0.436021 6:-0.81458998 7:0.14381801 8:1.4001 9:0.561014 10:-0.23432399 13:1 16:1 #
-1 1:-0.63347399 2:-0.264945 3:0.78771698 4:0.50138801 5:1.53654 6:-0.0270322 7:1.3765399 8:-0.066767797 9:-1.34649 10:0.169696 13:1 18:1 #
-1 1:-0.70133603 2:-1.1763901 3:-0.81441897 4:1.19769 5:0.78181797 6:0.136508 7:0.14381801 8:0.034395501 9:0.038411301 10:-0.060633302 13:1 46:1 #
1 1:-2.0657201 2:-0.52408201 3:1.5887901 4:-1.0700099 5:-0.64185202 6:-1.10576 7:1.45125 8:-1.48306 9:-2.3132999 10:-0.72217 13:1 18:1 #
1 1:-2.0692899 2:-0.58663201 3:1.85581 4:-0.98532099 5:-0.50463098 6:-1.14231 7:1.3765399 8:-2.0394499 9:-2.6007299 10:-0.76068401 13:1 18:1 #
0.41134615354510584150915519785485 1:-2.12644 2:-0.57769603 3:1.85581 4:-1.0700099 5:-0.55608898 6:-1.20324 7:1.3765399 8:-1.93829 9:-2.5223401 10:-0.82940501 13:1 18:1 #
-1 1:-2.59076 2:-0.595568 3:1.85581 4:-1.12646 5:-0.59039497 6:-0.73763001 7:1.33919 8:-2.0394499 9:-2.5746 10:-1.12695 14:1 18:1 #
-0.81738944379319833366537295660237 1:-1.25495 2:-0.58663201 3:2.3898499 4:-0.86770201 5:-0.144425 6:-0.60294998 7:1.3765399 8:-2.64643 9:-3.07107 10:-1.28025 13:1 18:1 #
-1 1:-1.75498 2:-0.72066802 3:1.1882499 4:-0.98532099 5:-0.65900499 6:-0.60294998 7:1.0777 8:-1.68538 9:-1.94748 10:-0.72518998 13:1 17:1 #
1 1:-0.87277699 2:-1.06916 3:-0.81441897 4:0.96245599 5:0.86758101 6:0.0576239 7:0.293239 8:-0.11735 9:-0.1445 10:-0.31739399 13:1 46:1 #
0.37068211216292024090535051072948 1:-2.1942999 2:-1.36404 3:-0.0133511 4:-0.16669001 5:-0.12727299 6:-0.79278499 7:-0.453866 8:-0.57258499 9:0.142932 10:-0.44955 14:1 24:1 #
1 1:-1.70498 2:0.28013599 3:0.253672 4:-1.12646 5:-0.65900499 6:-0.83511299 7:0.293239 8:1.34952 9:0.40423301 10:-0.54923397 13:1 16:1 #
-0.75962631408111214170730818295851 1:-1.37281 2:0.235457 3:1.05474 4:-0.98532099 5:-1.07067 6:-0.43812701 7:0.330594 8:1.24836 9:0.169062 10:-0.38460499 13:1 16:1 #
-0.44991574796196509566925669787452 1:-0.25844699 2:-0.836833 3:-0.146862 4:0.72721702 5:1.39931 6:-0.55484998 7:0.66679102 8:-0.471421 9:-0.74549299 10:-0.27208301 13:1 46:1 #
-1 1:-2.2550199 2:-1.31043 3:-0.68090802 4:-0.251376 5:0.112864 6:-1.19426 7:-0.080313802 8:-0.066767797 9:0.169062 10:-1.03934 14:1 24:1 #
0.55554080623055268617349611304235 1:-2.5764699 2:-0.470467 3:1.85581 4:-1.0700099 5:-0.52178401 6:-1.0025001 7:1.52596 8:-1.5842201 9:-2.4700799 10:-0.69875902 14:1 18:1 #
1 1:-2.5729001 2:-0.38111001 3:2.25634 4:-0.95238799 5:-0.17873099 6:-1.04483 7:1.56332 8:-1.53364 9:-2.6268599 10:-0.74784601 14:1 18:1 #
1 1:-1.955 2:-0.31856 3:1.1882499 4:-0.44427201 5:0.21578 6:-1.46426 7:1.48861 8:-0.522003 9:-1.76457 10:-1.26212 13:1 18:1 #
-0.9871987333079909054944778290519 1:-2.6371901 2:-0.34536701 3:1.7223001 4:-0.86770201 5:-0.213036 6:-0.85435301 7:1.56332 8:-0.977238 9:-2.1565199 10:-0.53412998 14:1 17:1 #
-0.77705763116333348428099725424545 1:-1.41924 2:-0.28281701 3:1.05474 4:0.14853001 5:1.36501 6:-1.31098 7:1.45125 8:-0.269095 9:-1.5294 10:-1.2689199 13:1 18:1 #
-1 1:-1.74784 2:-0.390046 3:1.4552701 4:-0.95238799 5:-0.50463098 6:-0.95311803 7:1.52596 8:-0.977238 9:-2.07813 10:-0.92908901 13:1 18:1 #
0.328858861632008891984213505566 1:-1.9871401 2:-1.35511 3:-0.54739702 4:-0.16669001 5:0.33584899 6:-0.590765 7:-0.19238 8:-0.11735 9:0.221322 10:-1.08692 14:1 24:1 #
0.42880942539308369854111901986471 1:-2.3336 2:-1.37298 3:-0.94793099 4:-0.36429101 5:0.33584899 6:-0.86782098 7:-0.080313802 8:0.13555899 9:0.29971299 10:-0.53715098 14:1 24:1 #
0.1453868107055015790329832725547 1:-1.75855 2:-1.19426 3:-0.68090802 4:0.308492 5:0.14717001 6:-1.23915 7:0.106462 8:-0.11735 9:0.0122812 10:-0.68667603 14:1 24:1 #
-0.28799379104591155131842583614343 1:-1.99429 2:-1.14065 3:-0.81441897 4:-0.067889899 5:0.901887 6:-1.2622401 7:0.181173 8:-0.016186099 9:-0.0399791 10:-1.2424901 14:1 18:1 #
-0.99219276115208054900307388379588 1:-1.37638 2:-1.00661 3:-0.68090802 4:0.308492 5:-0.72761601 6:0.207055 7:0.36794901 8:-0.16793101 9:-0.27515 10:0.57522702 13:1 25:1 #
-0.69485534233280810134658622700954 1:-0.93706697 2:-1.05129 3:-0.146862 4:0.69898802 5:0.43876499 6:-1.2141401 7:0.25588301 8:-0.67374802 9:-0.51032102 10:-1.35199 13:1 24:1 #
1 1:-1.40139 2:-0.300688 3:0.52069402 4:0.52961701 5:1.1248699 6:-1.04419 7:1.33919 8:-0.066767797 9:-1.24196 10:-0.69347298 13:1 18:1 #
1 1:-0.954925 2:-0.72960401 3:0.92122799 4:-1.12646 5:-0.55608898 6:-0.63630003 7:1.0403399 8:-1.48306 9:-1.76457 10:-0.49259499 13:1 27:1 #
1 1:-1.46568 2:0.1461 3:1.7223001 4:-1.26761 5:-0.79622602 6:0.163444 7:0.51736999 8:0.84370297 9:-0.37967101 10:-0.838467 13:1 18:1 #
-0.78095140272908969425458280966268 1:-0.57989901 2:-0.89044797 3:1.05474 4:-1.12646 5:-0.50463098 6:0.0082411403 7:0.59208101 8:-1.78655 9:-1.58166 10:-0.0568574 13:1 27:1 #
-0.71801298600279650496958083749632 1:-1.01564 2:-0.470467 3:1.1882499 4:-0.84417802 5:-0.24734101 6:-0.73314101 7:1.45125 8:-1.02782 9:-1.99974 10:-0.704045 13:1 27:1 #
-1 1:-1.25852 2:-0.96193397 3:0.92122799 4:-1.12646 5:-0.62470001 6:-0.67926902 7:0.40530401 8:-1.68538 9:-1.29423 10:-0.80221897 13:1 47:1 #
1 1:-0.74062401 2:-0.86364001 3:-0.81441897 4:-1.12646 5:-0.71046299 6:-0.93516099 7:0.55472499 8:-0.016186099 9:-0.327411 10:-0.371012 13:1 37:1 #
0.055662439867649071700839158438612 1:-2.9622099 2:1.4954 3:2.79039 4:-0.82065398 5:0.181475 6:-1.15899 7:-3.7784801 8:-2.1912 9:1.39718 10:-0.88302302 14:1 24:1 #
0.64985226018865305253058295420487 1:-1.4478199 2:-1.06916 3:-1.34846 4:-1.0700099 5:-0.83053201 6:0.25900301 7:0.293239 8:0.33788601 9:0.116802 10:-0.82865 13:1 24:1 #
-1 1:-0.451318 2:-0.62237501 3:-1.08144 4:-1.26761 5:-0.79622602 6:-0.78444803 7:0.62943602 8:0.33788601 9:-0.22289 10:-0.472206 13:1 37:1 #
-0.9000320645883886916394089894311 1:-0.62275898 2:-0.86364001 3:-1.08144 4:-1.26761 5:-0.79622602 6:-0.196344 7:0.44266 8:0.23672201 9:-0.092239402 10:-0.016832899 13:1 37:1 #
-0.7312681665618783188875795531203 1:-0.444175 2:-0.89044797 3:-1.21495 4:-1.26761 5:-0.79622602 6:-1.12243 7:0.44266 8:0.23672201 9:-0.066109203 10:-1.1058 13:1 37:1 #
1 1:-0.93349499 2:-1.01555 3:1.05474 4:-0.95238799 5:-0.144425 6:-0.66066998 7:0.218528 8:-1.83713 9:-1.2681 10:-1.01744 13:1 47:1 #
0.24649847153129636478929853637965 1:-1.31209 2:-1.14065 3:1.05474 4:-0.98532099 5:-0.384563 6:-0.86525601 7:-0.26708999 8:-1.93829 9:-0.902273 10:-0.75313199 13:1 47:1 #
0.79364834274010309655977835063823 1:-1.2478 2:-1.09597 3:1.4552701 4:-1.12646 5:-0.57324201 6:-0.80176401 7:-0.19238 8:-2.2923601 9:-1.24196 10:-0.82865 13:1 47:1 #
-1 1:-0.61204398 2:-0.99767703 3:1.5887901 4:-0.56189102 5:-0.024356799 6:-0.67093199 7:0.14381801 8:-2.4441099 9:-1.63392 10:-0.672328 13:1 47:1 #
-1 1:-0.97635502 2:-0.89044797 3:1.5887901 4:-0.98532099 5:-0.41886801 6:-0.63565803 7:0.55472499 8:-2.3935299 9:-1.94748 10:-0.647407 13:1 47:1 #
-1 1:-0.84063101 2:-1.15852 3:0.92122799 4:-0.063185103 5:0.91903901 6:-1.0319999 7:-0.304445 8:-1.78655 9:-0.77162302 10:-0.69196302 13:1 47:1 #
1 1:-0.87277699 2:-0.79215401 3:-1.08144 4:-1.12646 5:-0.74476802 6:-0.78316498 7:0.55472499 8:0.23672201 9:-0.19676 10:-0.49259499 13:1 37:1 #
1 1:-0.72276598 2:-0.47940299 3:-0.81441897 4:-1.12646 5:-0.76192099 6:-0.96530402 7:0.816212 8:0.33788601 9:-0.37967101 10:-0.36270499 13:1 37:1 #
1 1:-0.79777098 2:-0.220266 3:-0.68090802 4:0.308492 5:-0.36741 6:-0.167484 7:0.853567 8:0.59079403 9:-0.30127999 10:0.42796701 13:1 18:1 #
-0.36714792400900247981709867417521 1:0.113008 2:-0.354303 3:-0.146862 4:-1.26761 5:-0.79622602 6:-0.89988798 7:1.11505 8:0.186141 9:-0.79775298 10:-0.40197399 13:1 37:1 #
-0.48709427695299717386845372857351 1:-0.60132903 2:-0.56876099 3:-0.81441897 4:-1.0700099 5:-0.71046299 6:-0.0251082 7:0.77885699 8:0.186141 9:-0.43193099 10:-0.47069499 13:1 37:1 #
0.43076412510439904268721988955804 1:-1.68712 2:1.6294301 3:-0.0133511 4:0.88717902 5:0.49022299 6:-1.20324 7:-0.82741898 8:-0.16793101 9:0.69166398 10:-0.73576301 14:1 20:1 #
0.87177778471018851913498792782775 1:-0.75491101 2:-0.99767703 3:1.5887901 4:-0.50543398 5:0.49022299 6:-0.71838999 7:0.14381801 8:-2.4946899 9:-1.66005 10:-1.07786 13:1 47:1 #
1 1:-0.97278398 2:-1.02448 3:1.85581 4:-0.67010099 5:0.42161199 6:-0.73185802 7:-0.080313802 8:-2.8993399 9:-1.7907 10:-0.90718901 13:1 47:1 #
0.63206695527597311912160193969612 1:-0.90135002 2:-1.15852 3:1.3217601 4:-0.467796 5:0.76466602 6:-0.71454197 7:-0.37915599 8:-2.14062 9:-0.95453399 10:-0.92229199 13:1 47:1 #
-1 1:-1.26209 2:-0.99767703 3:2.25634 4:-0.41133901 5:0.55883402 6:-1.04547 7:-0.080313802 8:-3.40516 9:-2.1565199 10:-0.90265697 13:1 47:1 #
-1 1:-0.53346699 2:-1.2210701 3:2.1228299 4:-0.32194799 5:0.55883402 6:-0.86974502 7:-1.08891 8:-3.05109 9:-1.05905 10:-0.69120699 13:1 47:1 #
-0.505128573712549266971905126411 1:-0.729909 2:-1.2210701 3:1.4552701 4:-0.251376 5:0.164322 6:-0.60936302 7:-0.67799801 8:-2.1912 9:-0.77162302 10:0.027722601 13:1 47:1 #
0.66341120639545769765987870414392 1:-1.07636 2:-0.67598999 3:0.52069402 4:-0.467796 5:-0.144425 6:-0.29510999 7:1.0777 8:-0.92665702 9:-1.45101 10:0.0020465299 13:1 18:1 #
1 1:-2.5228901 2:1.15584 3:1.1882499 4:-0.95238799 5:-0.50463098 6:-0.58371001 7:-2.2469201 8:0.489631 9:1.9720401 10:-1.02273 14:1 20:1 #
1 1:-2.6264701 2:-1.19426 3:1.7223001 4:0.72721702 5:2.1883399 6:-1.19426 7:-0.71535301 8:-2.54527 9:-0.98066401 10:-1.35199 14:1 24:1 #
-0.82164477171550165390812026089407 1:-2.1300099 2:-1.28362 3:1.5887901 4:0.204987 5:2.80583 6:-0.770338 7:-1.01419 8:-2.2923601 9:-0.56258202 10:-0.55527502 14:1 24:1 #
-0.56948648835612925012128471280448 1:-0.69062102 2:-1.0423599 3:1.1882499 4:-0.251376 5:1.2106301 6:-0.66708398 7:0.106462 8:-1.98887 9:-1.24196 10:-0.83242601 13:1 27:1 #
-0.96369297999530911802423815970542 1:-0.854918 2:0.020998999 3:1.3217601 4:-1.0700099 5:-0.50463098 6:-0.029597601 7:0.96563298 8:0.64137602 9:-0.74549299 10:-1.04388 13:1 18:1 #
0.85044725114476382721306890744017 1:-1.7907 2:-0.64024699 3:0.52069402 4:0.92952198 5:1.2106301 6:-1.01982 7:1.15241 8:-0.92665702 9:-1.4771399 10:-0.40575001 14:1 24:1 #
1 1:-1.82284 2:1.2362601 3:1.1882499 4:0.17205399 5:2.2569499 6:-1.04162 7:-2.28427 8:0.23672201 9:1.86752 10:-0.58246201 14:1 24:1 #
-0.16007906374899136259237764079444 1:1.02022 2:0.16397101 3:0.38718301 4:1.36707 5:0.130017 6:2.33885 7:0.59208101 8:1.19777 9:0.064541399 10:0.82066 11:1 43:1 #
-1 1:-1.77284 2:1.28988 3:1.4552701 4:0.186168 5:2.34271 6:-1.38538 7:-2.65783 8:-0.16793101 9:1.8936501 10:-0.24565201 14:1 24:1 #
0.78409229736641750108105952676851 1:-3.7872701 2:1.78134 3:1.05474 4:-0.547777 5:-0.058662102 6:-1.4277101 7:-1.2756799 8:-1.43247 9:0.221322 10:-0.87698102 14:1 19:1 #
-1 1:-2.0335701 2:1.03074 3:1.3217601 4:0.73662698 5:2.3083999 6:-1.28276 7:-2.3589799 8:0.79312098 9:2.1549499 10:-0.89586103 14:1 24:1 #
-1 1:-1.84785 2:1.4149801 3:0.92122799 4:0.75544602 5:3.20034 6:-0.80112201 7:-1.9480799 8:-0.269095 9:1.42331 10:-0.90567797 14:1 24:1 #
-0.10643907340678097905861676508721 1:0.79877102 2:1.03967 3:-0.413885 4:-0.053775601 5:-1.31081 6:0.57517999 7:-0.82741898 8:0.99544799 9:1.31879 10:-0.55905098 11:1 43:1 #
1 1:-1.28352 2:-0.55088902 3:0.92122799 4:-0.95238799 5:-1.07067 6:-0.026390901 7:1.33919 8:-0.977238 9:-1.76457 10:-0.95174402 13:1 24:1 #
-1 1:-3.08008 2:1.53114 3:0.65420598 4:0.073253401 5:0.73035997 6:-1.25711 7:-1.5371701 8:-0.370258 9:1.03136 10:-1.35803 14:1 19:1 #
-1 1:-1.8728499 2:-0.61343902 3:1.85581 4:-0.32194799 5:0.0271012 6:-1.02046 7:1.3018301 8:-2.0394499 9:-2.5223401 10:-0.99781001 14:1 15:1 #
-1 1:-1.1049401 2:-0.74747598 3:-1.21495 4:-1.12646 5:-0.77907401 6:-1.46875 7:0.51736999 8:0.33788601 9:-0.118369 10:-0.86565399 13:1 31:1 #
0.35660105356025073586323514973628 1:-2.1407199 2:1.4149801 3:1.5887901 4:0.73662698 5:2.05111 6:-0.81202501 7:-2.5457599 8:-0.67374802 9:1.55396 10:-0.74104899 14:1 24:1 #
-0.01886025136193504245230023741442 1:0.72376603 2:-0.56876099 3:0.253672 4:-0.44427201 5:-0.84768403 6:0.050569199 7:1.15241 8:-0.471421 9:-1.24196 10:0.452133 11:1 44:1 #
0.41059519999066634854401058873918 1:-2.2335899 2:1.18265 3:1.98932 4:0.34142601 5:1.22779 6:-0.98390299 7:-3.2181499 8:-0.066767797 9:2.2855999 10:-0.64665198 14:1 24:1 #
-1 1:-0.69062102 2:-0.67598999 3:0.65420598 4:-0.703035 5:-0.76192099 6:0.45525101 7:1.0777 8:-1.02782 9:-1.50327 10:-0.95098901 13:1 24:1 #
-0.7456262745361806887345323957561 1:-2.1728699 2:1.59369 3:1.1882499 4:-0.105528 5:1.8452801 6:-0.63822401 7:-1.8733701 8:-1.02782 9:0.90070599 10:-0.81958801 14:1 16:1 #
-0.66515648122175929923827197853825 1:-1.30495 2:0.432044 3:0.253672 4:-0.703035 5:-0.84768403 6:-0.036010899 7:-0.080313802 8:1.50126 9:0.79618502 10:0.030743301 13:1 25:1 #
1 1:-1.51925 2:-0.98874098 3:-1.08144 4:-1.12646 5:-0.83053201 6:-1.40333 7:0.36794901 8:0.186141 9:-0.066109203 10:-0.43444699 13:1 31:1 #
0.22766427877650158295708138211921 1:-1.88713 2:1.01287 3:0.92122799 4:0.713103 5:1.96535 6:-0.89155 7:-1.8733701 8:0.944866 9:1.9720401 10:-1.29006 14:1 24:1 #
-0.032109200829077665095834248631945 1:0.291592 2:-0.29175201 3:-0.54739702 4:-1.26761 5:-0.79622602 6:0.65791202 7:0.92827803 8:0.489631 9:-0.43193099 10:0.38869801 13:1 37:1 #
-0.69111388692956887691565270870342 1:-0.89063501 2:-0.93512601 3:-1.08144 4:-1.12646 5:-0.79622602 6:-1.12371 7:0.40530401 8:0.186141 9:-0.092239402 10:0.190841 13:1 31:1 #
-1 1:-0.77276897 2:-1.14065 3:-0.94793099 4:-1.26761 5:-0.79622602 6:-0.813308 7:0.218528 8:0.084977202 9:0.0122812 10:0.185555 13:1 31:1 #
-0.1292263215262852982245789235094 1:-1.1478 2:-0.79215401 3:-0.54739702 4:-0.98532099 5:-1.07067 6:-0.755588 7:0.70414603 8:-0.218513 9:-0.58871198 10:-0.93513 11:1 37:1 #
1 1:-1.31924 2:-0.69386101 3:0.253672 4:-0.75949198 5:-0.65900499 6:0.38406301 7:1.00299 8:-0.77491099 9:-1.2681 10:-0.707066 13:1 24:1 #
0.56293469990976496841739162846352 1:-1.31567 2:-0.82789701 3:0.38718301 4:-0.86770201 5:-0.65900499 6:0.40971601 7:0.77885699 8:-1.0784 9:-1.21583 10:-0.657224 13:1 24:1 #
0.61049065790322476487972380709834 1:-2.12287 2:-0.81002599 3:1.1882499 4:-0.84417802 5:-0.12727299 6:-0.89155 7:0.816212 8:-1.83713 9:-1.84296 10:-0.47598201 14:1 19:1 #
-1 1:-0.994214 2:-0.51514602 3:0.253672 4:-0.86770201 5:-0.59039497 6:0.0512105 7:1.22712 8:-0.42084 9:-1.2681 10:-0.97893101 13:1 24:1 #
-1 1:-0.99064201 2:-0.32749501 3:0.65420598 4:0.035615101 5:0.0271012 6:0.033894502 7:1.3765399 8:-0.16793101 9:-1.34649 10:0.23615199 13:1 24:1 #
-0.31243566142443895961022803930973 1:-0.90135002 2:-0.354303 3:0.65420598 4:-0.41133901 5:0.47307 6:-0.022542899 7:1.3765399 8:-0.269095 9:-1.3987499 10:0.303363 13:1 24:1 #
0.54940863343237400506779977149563 1:-1.04065 2:-0.89044797 3:-0.94793099 4:-1.26761 5:-0.79622602 6:-0.22584599 7:0.48001501 8:0.084977202 9:-0.22289 10:-0.169379 13:1 31:1 #
1 1:-1.02636 2:-0.836833 3:-0.68090802 4:-1.26761 5:-0.79622602 6:-0.214302 7:0.59208101 8:-0.11735 9:-0.45806101 10:-0.165603 13:1 31:1 #
0.43270890005254514232291285225074 1:-1.50139 2:-0.61343902 3:0.12016 4:-1.26761 5:-0.79622602 6:-0.43427899 7:1.0777 8:-0.471421 9:-1.16357 10:-0.357418 13:1 34:1 #
-1 1:-0.69776398 2:-0.74747598 3:-0.413885 4:-1.12646 5:-0.84768403 6:-0.44903001 7:0.77885699 8:-0.269095 9:-0.693232 10:0.322997 13:1 31:1 #
-1 1:-0.61561501 2:-0.667054 3:-0.68090802 4:-1.26761 5:-0.79622602 6:-0.52534902 7:0.77885699 8:0.034395501 9:-0.51032102 10:-0.207138 13:1 31:1 #
-1 1:-0.93706697 2:1.54901 3:1.4552701 4:-0.84417802 5:0.0271012 6:-0.49456501 7:-2.2095599 8:-1.0784 9:1.08362 10:-0.54847902 13:1 47:1 #
1 1:-0.99778599 2:-0.425789 3:0.38718301 4:-0.27019501 5:-0.213036 6:-0.0526856 7:1.3018301 8:-0.269095 9:-1.24196 10:0.13646799 13:1 24:1 #
1 1:-0.92277998 2:-0.49727499 3:-0.28037399 4:0.035615101 5:0.095711797 6:-0.0270322 7:1.0403399 8:-0.016186099 9:-0.823883 10:0.139489 13:1 24:1 #
0.75260372369310890583449236146407 1:-1.34781 2:-0.139845 3:0.78771698 4:-1.0700099 5:-0.98490602 6:-0.11233 7:1.22712 8:0.33788601 9:-1.00679 10:-1.0401 13:1 24:1 #
-1 1:-0.67276198 2:-0.74747598 3:-0.54739702 4:0.59077901 5:-0.092967398 6:0.208979 7:0.70414603 8:-0.11735 9:-0.536452 10:0.066991903 13:1 24:1 #
-0.85607499294566913317083844958688 1:-0.72633803 2:-0.24707399 3:0.12016 4:0.120301 5:0.55883402 6:-0.336155 7:1.18976 8:0.28730401 9:-0.85001302 10:0.188576 13:1 24:1 #
-0.39655273614261610237718969074194 1:-0.90135002 2:-0.20239501 3:0.253672 4:0.035615101 5:0.54168099 6:0.13009501 7:1.18976 8:0.33788601 9:-0.85001302 10:0.19008601 13:1 24:1 #
1 1:-1.20494 2:-0.71173298 3:-0.28037399 4:-1.26761 5:-0.79622602 6:-0.101427 7:0.853567 8:-0.31967601 9:-0.823883 10:0.44307101 13:1 31:1 #
0.90827976297998924692933542246465 1:-1.27995 2:1.4596601 3:1.05474 4:-0.98532099 5:-0.264494 6:-0.73185802 7:-1.98543 8:-0.471421 9:1.31879 10:-0.420854 13:1 47:1 #
-1 1:-0.67276198 2:1.22733 3:1.1882499 4:-0.84417802 5:-0.384563 6:-0.49135801 7:-2.3963399 8:0.23672201 9:1.94591 10:-0.61191398 13:1 47:1 #
-1 1:-1.4621 2:1.4596601 3:0.78771698 4:-1.12646 5:-0.55608898 6:-0.76648998 7:-1.72394 8:-0.269095 9:1.26653 10:-0.121803 13:1 27:1 #
-1 1:-1.3228101 2:1.3703001 3:0.12016 4:-1.12646 5:-0.64185202 6:-0.64976799 7:-1.2756799 8:0.28730401 9:1.26653 10:-0.84677398 13:1 47:1 #
0.43090623898923813284156381087087 1:-0.69419199 2:-1.06023 3:-0.94793099 4:0.651941 5:0.40446001 6:-0.28420699 7:0.293239 8:0.034395501 9:-0.092239402 10:0.173472 13:1 24:1 #
0.83733611041641631267395950999344 1:-2.37288 2:1.66518 3:0.78771698 4:-1.12646 5:-0.74476802 6:-0.78637201 7:-1.4251 8:-0.92665702 9:0.639404 10:-1.2689199 14:1 30:1 #
0.55318160070532496064288352499716 1:-0.93706697 2:-0.34536701 3:-0.413885 4:-0.16669001 5:0.0271012 6:-0.0526856 7:0.96563298 8:0.33788601 9:-0.56258202 10:0.115323 13:1 24:1 #
1 1:-0.50132197 2:-1.31043 3:-0.0133511 4:-0.41133901 5:-0.59039497 6:-0.64784402 7:-0.34180099 8:-0.62316602 9:0.0122812 10:0.048867598 13:1 45:1 #
0.18998274535011905328474313137121 1:-1.5978301 2:0.235457 3:-0.81441897 4:-1.12646 5:-0.88199002 6:-0.33872101 7:0.40530401 8:1.09661 9:0.351973 10:-1.1428 13:1 24:1 #
0.56611362101266804458532533317339 1:-0.77991301 2:1.3971 3:0.52069402 4:0.53902602 5:-0.00720412 6:-0.309861 7:-1.6118799 8:0.034395501 9:1.34492 10:0.273911 13:1 24:1 #
0.80032057818443813612674375690403 1:-3.20151 2:1.22733 3:1.3217601 4:0.63312203 5:-0.79622602 6:-1.2455699 7:-2.4336901 8:0.186141 9:1.94591 10:-0.74256003 14:1 19:1 #
-1 1:-2.76934 2:-1.2657501 3:2.3898499 4:-0.105528 5:1.48508 6:-1.2212 7:-1.46246 8:-3.3545799 9:-0.98066401 10:-1.2591 14:1 24:1 #
-0.31678768094978182467968963464955 1:-0.229874 2:-1.2568099 3:0.12016 4:-1.12646 5:-0.67615801 6:-0.320122 7:-0.229735 8:-0.72433001 9:-0.118369 10:-0.489575 13:1 45:1 #
-0.016790474495538977584008222265766 1:-0.2013 2:-1.38191 3:-0.28037399 4:-0.279605 5:-0.12727299 6:-0.223922 7:-0.34180099 8:-0.269095 9:0.24745201 10:-0.79013598 13:1 45:1 #
1 1:-1.39424 2:1.38817 3:0.253672 4:-1.12646 5:-0.62470001 6:-0.73185802 7:-1.38775 8:0.186141 9:1.26653 10:-0.95854098 13:1 47:1 #
0.94830708576663791387062474314007 1:-1.51925 2:1.3703001 3:0.78771698 4:-1.12646 5:-0.64185202 6:-0.47468299 7:-1.91072 8:-0.016186099 9:1.5017 10:-0.30757701 13:1 27:1 #
-0.075900952624181228234334639637382 1:0.29873601 2:-0.49727499 3:-0.68090802 4:1.12712 5:-1.12213 6:-0.75238103 7:0.89092302 8:0.186141 9:-0.536452 10:-0.464654 11:1 43:1 #
-1 1:-0.88349199 2:1.3703001 3:0.65420598 4:-0.50543398 5:-0.075814798 6:-0.39900601 7:-1.72394 8:0.084977202 9:1.44944 10:-0.53564101 13:1 27:1 #
-1 1:-1.42996 2:-0.461532 3:-0.81441897 4:-1.26761 5:-0.79622602 6:0.318005 7:0.816212 8:0.33788601 9:-0.35354099 10:0.33206001 13:1 34:1 #
-1 1:-0.68347698 2:1.47753 3:0.78771698 4:-1.12646 5:-0.53893697 6:-0.59717798 7:-1.72394 8:-0.31967601 9:1.21427 10:-0.30002499 13:1 38:1 #
0.47853366701043292819051089281857 1:-1.16565 2:-1.14065 3:0.253672 4:-0.063185103 5:-0.487479 6:-0.291262 7:-0.0056032902 8:-0.92665702 9:-0.45806101 10:0.116834 13:1 16:1 #
0.45499709992243220213481436076108 1:-2.8657801 2:-1.27469 3:2.52336 4:-0.420748 5:1.51938 6:-1.30906 7:-1.57452 8:-3.45574 9:-1.00679 10:-1.35954 14:1 24:1 #
0.02872572971437106770231650898495 1:-2.24073 2:-0.40791699 3:0.12016 4:-1.26761 5:-0.79622602 6:-1.3148299 7:1.18976 8:-0.066767797 9:-1.03292 10:-1.25079 13:1 17:1 #
-1 1:-2.7550499 2:-1.2032 3:2.9238999 4:-0.00672783 5:1.10772 6:-1.29495 7:-1.46246 8:-4.1132998 9:-1.5294 10:-0.99629998 14:1 24:1 #
-1 1:-2.2514501 2:-1.3908499 3:1.98932 4:0.426112 5:1.3307 6:-0.74532598 7:-1.7613 8:-2.54527 9:-0.19676 10:-1.37993 14:1 24:1 #
-0.12979041374649324946943806935451 1:0.516608 2:-1.2657501 3:0.12016 4:0.28496799 5:-0.384563 6:-0.53625101 7:-0.26708999 8:-0.77491099 9:-0.1445 10:0.67415601 13:1 45:1 #
1 1:-1.52997 2:-0.56876099 3:-1.08144 4:-1.12646 5:-0.79622602 6:0.111496 7:0.66679102 8:0.38846701 9:-0.19676 10:0.330549 13:1 34:1 #
0.31778379439025133956775448496046 1:-1.5406801 2:-0.56876099 3:-1.21495 4:-1.12646 5:-0.83053201 6:0.092897199 7:0.62943602 8:0.38846701 9:-0.1445 10:0.308649 13:1 34:1 #
1 1:-0.84063101 2:1.3971 3:0.65420598 4:-0.68421501 5:-0.41886801 6:-0.442617 7:-1.79866 8:-0.066767797 9:1.39718 10:-0.31286299 13:1 27:1 #
-0.69660918443681441036829937729635 1:-1.1978 2:0.029934799 3:-0.94793099 4:-1.0700099 5:-0.96775299 6:0.77463502 7:0.59208101 8:0.944866 9:0.090671502 10:0.59108597 13:1 34:1 #
-1 1:-0.56918401 2:-1.02448 3:-1.34846 4:-0.703035 5:-0.62470001 6:-0.58306903 7:0.293239 8:0.33788601 9:0.090671502 10:0.35093901 13:1 34:1 #
-0.9207111609201420465709020390932 1:-2.8443501 2:-1.16746 3:1.98932 4:1.13183 5:2.68576 6:-1.15321 7:-0.79006398 8:-3.05109 9:-1.29423 10:-1.20548 14:1 19:1 #
1 1:-2.3264501 2:-1.2032 3:3.05741 4:-0.053775601 5:0.57598603 6:-1.14424 7:-1.6118799 8:-4.41679 9:-1.66005 10:-1.1775399 14:1 24:1 #
0.61724191433832031883355284662684 1:-1.1835099 2:1.25413 3:1.1882499 4:-0.82065398 5:-0.213036 6:-0.590765 7:-2.32163 8:0.13555899 9:1.86752 10:-0.75011098 13:1 47:1 #
0.91391187274498764114838422756293 1:-1.13708 2:1.21839 3:1.7223001 4:-0.68421501 5:-0.024356799 6:-0.60294998 7:-2.95667 8:-0.066767797 9:2.1288199 10:-0.75766301 13:1 47:1 #
-1 1:-0.72276598 2:1.26307 3:1.85581 4:-0.98532099 5:-0.41886801 6:-0.69786799 7:-2.99402 8:-0.269095 9:2.0504301 10:-0.41103601 13:1 27:1 #
-0.70960101051049351283950272772927 1:-0.42274401 2:1.38817 3:1.5887901 4:-0.86770201 5:-0.384563 6:-0.89988798 7:-2.62047 8:-0.57258499 9:1.65848 10:-0.53412998 13:1 47:1 #
-0.74236293758507743145713675403385 1:-0.744196 2:1.37923 3:0.38718301 4:-1.0700099 5:-0.69331002 6:-0.0065095401 7:-1.5371701 8:0.13555899 9:1.34492 10:-1.0786099 13:1 47:1 #
0.88408355449682241022912876360351 1:-0.81205797 2:-1.0423599 3:-1.08144 4:-1.12646 5:-0.74476802 6:-0.83383 7:0.293239 8:0.186141 9:-0.013849 10:-0.420854 13:1 34:1 #
1 1:-0.81205797 2:-1.14958 3:-1.21495 4:-1.12646 5:-0.83053201 6:-0.84409201 7:0.218528 8:0.23672201 9:0.116802 10:-0.41103601 13:1 34:1 #
-0.060440780577774730342177633701795 1:0.330881 2:-0.60450399 3:0.92122799 4:-0.27019501 5:0.232933 6:0.54696202 7:1.26448 8:-1.12898 9:-1.7907 10:-0.87698102 13:1 47:1 #
-0.40130637026935073174982449017989 1:-1.27995 2:-0.44365999 3:-0.94793099 4:-0.36429101 5:-0.24734101 6:-0.55484998 7:0.74150199 8:0.43904901 9:-0.27515 10:-0.420854 13:1 25:1 #
0.2014594347437081989227181111346 1:-1.75855 2:-0.36323801 3:-1.34846 4:-1.26761 5:-0.79622602 6:-0.946064 7:0.55472499 8:0.64137602 9:0.038411301 10:-0.95098901 13:1 31:1 #
-0.60706688229070582263346977924812 1:0.070147902 2:-1.3908499 3:-1.21495 4:-1.12646 5:-0.74476802 6:-0.82934099 7:-0.0056032902 8:0.33788601 9:0.351973 10:-0.44577399 13:1 34:1 #
-0.2794610503377895627252769372717 1:-0.969212 2:-1.15852 3:-1.08144 4:-1.26761 5:-0.79622602 6:-0.45223701 7:0.181173 8:0.186141 9:0.090671502 10:-0.46087801 11:1 34:1 #
-0.19267134534007432367097578662651 1:-1.23709 2:-1.0781 3:-0.81441897 4:-0.98532099 5:-0.77907401 6:-1.1217901 7:0.25588301 8:0.034395501 9:-0.066109203 10:-0.43067101 11:1 34:1 #
0.12022140241615794642449088769354 1:-1.20137 2:1.3256201 3:2.6568799 4:-0.95238799 5:-0.144425 6:-0.500337 7:-3.9279001 8:-1.1795599 9:2.10269 10:-0.59907597 13:1 27:1 #
0.96720711726421570997302978867083 1:-0.96564001 2:1.22733 3:1.7223001 4:-0.703035 5:-0.281647 6:-0.49135801 7:-2.8446 8:-0.016186099 9:2.07656 10:-0.27888 13:1 27:1 #
0.61946134644848049877197126988904 1:-1.27995 2:1.35243 3:1.98932 4:-1.0700099 5:-0.50463098 6:-0.47211799 7:-3.14344 8:-0.77491099 9:1.86752 10:-0.58246201 13:1 27:1 #
-1 1:-0.93349499 2:1.1201 3:2.25634 4:-0.703035 5:0.044253901 6:-0.418246 7:-3.33022 8:0.13555899 9:2.41625 10:-0.53412998 13:1 27:1 #
-0.72520393470470834174079755030107 1:-0.55846798 2:0.95031703 3:1.85581 4:-0.68421501 5:-0.161578 6:-0.29959899 7:-2.62047 8:0.89428401 9:2.3117299 10:-0.26226601 13:1 27:1 #
