SVM-light Version V6.02
2 # kernel type
3 # kernel parameter -d 
0.1 # kernel parameter -g 
1 # kernel parameter -s 
1 # kernel parameter -r 
empty# kernel parameter -u 
54 # highest feature index 
10000 # number of training documents 
1588 # number of support vectors plus 1 
0.78880971 # threshold b, each following line is a SV (starting with alpha*y)
0.54396091127077572657810833334224 1:-2.36217 2:1.1915801 3:2.3898499 4:0.063843802 5:1.89674 6:-0.99865299 7:-3.5543499 8:-0.269095 9:2.3378601 10:-0.62701702 14:1 24:1 #
-1 1:-2.2550199 2:0.932446 3:-0.413885 4:0.43081599 5:-2.70017 6:-1.48799 7:-0.71535301 8:1.14719 9:1.29266 10:-1.1186399 14:1 16:1 #
-1 1:-2.2335899 2:-1.3461699 3:1.3217601 4:-0.13846201 5:0.747513 6:-0.61064601 7:-1.12626 8:-1.88771 9:-0.22289 10:-1.08692 14:1 24:1 #
-1 1:-0.544182 2:-0.78321898 3:1.3217601 4:-0.129052 5:1.34786 6:-0.55036098 7:0.92827803 8:-1.93829 9:-1.97361 10:-0.64514202 13:1 47:1 #
1 1:-1.53354 2:0.119292 3:1.7223001 4:-1.26761 5:-0.79622602 6:0.14163899 7:0.62943602 8:0.79312098 9:-0.51032102 10:-0.860367 13:1 24:1 #
0.02827712279293819602754567199554 1:-1.95857 2:0.49459401 3:1.1882499 4:-1.26761 5:-0.79622602 6:-0.54587102 7:-0.640643 8:1.55185 9:1.10975 10:-1.06276 13:1 30:1 #
1 1:-3.3443799 2:1.45072 3:1.5887901 4:-1.0700099 5:-0.53893697 6:-1.33407 7:-2.5457599 8:-0.82549298 9:1.44944 10:-1.23116 14:1 24:1 #
0.59535418758867753030727953955648 1:-2.4586 2:0.36949301 3:1.05474 4:-1.12646 5:-0.67615801 6:-0.47596601 7:-0.15502401 8:1.45068 9:0.69166398 10:-0.68894202 14:1 31:1 #
0.58627762494926072278644824109506 1:-2.01214 2:-0.98874098 3:-0.146862 4:-0.63716799 5:0.49022299 6:-1.29238 7:0.40530401 8:-0.57258499 9:-0.56258202 10:-1.0786099 14:1 20:1 #
0.041163897869768810433566130768668 1:-3.20151 2:1.59369 3:3.1909201 4:0.70839798 5:-0.79622602 6:-1.25711 7:-3.81584 8:-3.10167 9:0.848445 10:-0.74784601 14:1 19:1 #
-1 1:-2.8764901 2:0.56607997 3:0.92122799 4:-1.12646 5:-0.67615801 6:-0.74083698 7:-0.75270802 8:1.55185 9:1.29266 10:-0.75313199 14:1 31:1 #
-1 1:-2.2621601 2:1.42391 3:0.12016 4:-1.12646 5:-0.57324201 6:-1.11089 7:-1.2009701 8:0.186141 9:1.16201 10:-1.2221 14:1 24:1 #
-1 1:-2.6979101 2:1.52221 3:0.92122799 4:-0.67010099 5:-0.315952 6:-0.749174 7:-1.79866 8:-0.62316602 9:1.10975 10:-0.63456899 14:1 24:1 #
1 1:-0.62633002 2:-0.765347 3:1.05474 4:-0.129052 5:1.10772 6:-0.755588 7:0.96563298 8:-1.6348 9:-1.7907 10:-1.10807 13:1 47:1 #
1 1:-0.52632302 2:-0.78321898 3:1.1882499 4:0.186168 5:1.81098 6:-0.77226198 7:0.89092302 8:-1.83713 9:-1.89522 10:-1.11033 13:1 47:1 #
1 1:-0.48703501 2:-0.89044797 3:1.05474 4:0.308492 5:2.1883399 6:-0.76969701 7:0.59208101 8:-1.73596 9:-1.55553 10:-1.099 13:1 47:1 #
-1 1:-3.06936 2:-1.0870301 3:2.52336 4:-0.56189102 5:0.164322 6:-1.32573 7:-0.67799801 8:-3.7592299 9:-1.94748 10:-1.19718 14:1 24:1 #
-1 1:-2.92292 2:-0.96193397 3:2.1228299 4:-1.0700099 5:-0.52178401 6:-0.71454197 7:0.106462 8:-3.1522501 9:-2.1565199 10:-0.74482501 14:1 24:1 #
-1 1:-3.09079 2:-0.86364001 3:2.1228299 4:-0.86770201 5:-0.333105 6:-1.3982 7:0.55472499 8:-3.05109 9:-2.4700799 10:-1.099 14:1 24:1 #
1 1:-0.86563301 2:-1.18533 3:-0.28037399 4:0.56725502 5:-0.12727299 6:0.0313292 7:-0.0056032902 8:-0.471421 9:-0.17062999 10:-0.203362 13:1 46:1 #
1 1:-3.52654 2:1.43285 3:0.12016 4:-0.75949198 5:-0.41886801 6:-1.21286 7:-1.2756799 8:0.084977202 9:1.16201 10:-1.01895 14:1 24:1 #
1 1:-3.4658201 2:1.38817 3:0.78771698 4:-0.56189102 5:-0.12727299 6:-1.18977 7:-1.91072 8:-0.11735 9:1.44944 10:-1.00763 14:1 24:1 #
-1 1:-2.99436 2:1.42391 3:0.52069402 4:-0.86770201 5:-0.230189 6:-1.2641701 7:-1.6118799 8:-0.066767797 9:1.29266 10:-1.12997 14:1 24:1 #
-1 1:-2.00857 2:1.272 3:-0.413885 4:-1.12646 5:-0.71046299 6:-0.81458998 7:-0.90212899 8:0.64137602 9:1.18814 10:-0.710087 14:1 24:1 #
-1 1:-3.1908 2:1.36136 3:0.92122799 4:-1.0700099 5:-0.76192099 6:-1.00378 7:-2.02279 8:-0.066767797 9:1.55396 10:-0.97364402 14:1 24:1 #
-0.023132504548507459851691692165332 1:-0.76205403 2:1.03074 3:3.4579401 4:1.23063 5:3.71492 6:-0.912714 7:-4.63765 8:-0.31967601 9:2.7820699 10:-0.179952 13:1 42:1 #
1 1:-3.0014999 2:1.4596601 3:2.79039 4:-0.67010099 5:0.43876499 6:-1.20324 7:-3.7411301 8:-1.93829 9:1.52783 10:-0.94419199 14:1 24:1 #
1 1:-1.27995 2:-0.74747598 3:2.1228299 4:-0.67010099 5:-0.264494 6:-0.124515 7:0.96563298 8:-2.8487599 9:-2.73138 10:-1.0008301 13:1 24:1 #
-1 1:-3.2836599 2:-0.93512601 3:1.98932 4:-0.86770201 5:-0.11012 6:-1.23787 7:0.293239 8:-2.8993399 9:-2.1303899 10:-0.97213399 14:1 24:1 #
-1 1:-1.6085401 2:-1.10491 3:2.1228299 4:-0.82065398 5:-0.058662102 6:-1.13718 7:-0.56593198 8:-3.2534101 9:-1.63392 10:-0.531865 13:1 24:1 #
-1 1:-1.7907 2:-0.89044797 3:2.1228299 4:-0.67010099 5:0.14717001 6:-1.08716 7:0.40530401 8:-3.10167 9:-2.39169 10:-0.97213399 13:1 24:1 #
1 1:-1.68355 2:1.70092 3:0.92122799 4:-0.63716799 5:0.181475 6:-0.75045699 7:-1.46246 8:-1.12898 9:0.50875401 10:-1.20095 14:1 24:1 #
0.96092784968886169050250600776053 1:-3.2158 2:1.29881 3:-0.146862 4:-0.37369999 5:0.25008601 6:-1.23402 7:-1.05155 8:0.54021198 9:1.2404 10:-1.02877 14:1 24:1 #
-1 1:-2.0335701 2:1.13797 3:0.38718301 4:-0.547777 5:-0.041509401 6:-1.3982 7:-1.57452 8:0.74253899 9:1.68461 10:-0.98648202 14:1 24:1 #
-1 1:-1.83713 2:0.95925301 3:0.65420598 4:-0.50543398 5:-0.264494 6:-1.33407 7:-1.64923 8:1.09661 9:1.86752 10:-0.91776103 14:1 24:1 #
-1 1:-2.2693 2:1.05755 3:0.38718301 4:0.50138801 5:-0.88199002 6:-1.12628 7:-1.4251 8:0.944866 9:1.68461 10:-0.94721299 14:1 24:1 #
-0.43458424494398673054718074126868 1:-1.26923 2:0.53033698 3:0.52069402 4:0.14382499 5:2.2054901 6:-0.325894 7:-0.453866 8:1.55185 9:1.10975 10:-1.11033 13:1 18:1 #
1 1:-2.6479001 2:-0.20239501 3:1.3217601 4:-0.98532099 5:-0.384563 6:-0.55228502 7:1.4139 8:-0.218513 9:-1.58166 10:-1.12695 14:1 16:1 #
1 1:-0.92635202 2:-1.2032 3:1.3217601 4:-0.75949198 5:0.28439099 6:-0.66580099 7:-0.56593198 8:-2.09004 9:-0.77162302 10:-0.98874801 13:1 47:1 #
1 1:-1.96214 2:1.07542 3:-0.413885 4:-0.44427201 5:-0.161578 6:-1.11217 7:-0.79006398 8:0.944866 9:1.26653 10:-0.47824699 14:1 25:1 #
-1 1:-3.1586499 2:-1.09597 3:1.85581 4:-1.12646 5:-0.93344802 6:-1.22697 7:-0.34180099 8:-2.7981801 9:-1.4771399 10:-0.969868 14:1 24:1 #
-1 1:-1.87642 2:-0.88151199 3:1.85581 4:-0.13846201 5:0.62744403 6:-1.08331 7:0.55472499 8:-2.6970201 9:-2.1826501 10:-0.55225497 14:1 24:1 #
0.85036813760768859005167996656382 1:-2.4621799 2:-0.86364001 3:0.38718301 4:-0.86770201 5:-0.74476802 6:-1.40911 7:0.70414603 8:-1.0784 9:-1.16357 10:-0.775787 14:1 17:1 #
0.26543473487074092931337077061471 1:-1.31209 2:-0.86364001 3:1.4552701 4:-0.56189102 5:0.164322 6:-1.2693 7:0.66679102 8:-2.2923601 9:-1.99974 10:-0.29851499 13:1 24:1 #
1 1:-1.83356 2:1.4149801 3:1.3217601 4:0.651941 5:-0.59039497 6:-0.99416399 7:-2.28427 8:-0.471421 9:1.5017 10:-0.61568999 14:1 24:1 #
-1 1:-1.5764 2:1.33455 3:0.65420598 4:-0.44427201 5:0.061406501 6:-1.12628 7:-1.7613 8:0.13555899 9:1.52783 10:-1.01518 14:1 24:1 #
-1 1:-1.70498 2:0.97712398 3:1.05474 4:-0.56189102 5:0.044253901 6:-1.28276 7:-1.98543 8:1.04603 9:2.0243001 10:-1.47282 14:1 24:1 #
1 1:-2.0907199 2:-0.95299798 3:1.98932 4:-0.67010099 5:0.37015399 6:-0.74468499 7:0.181173 8:-3.00051 9:-2.10426 10:-0.59303403 14:1 24:1 #
0.48427075117835916007180685483036 1:-1.64783 2:-0.57769603 3:-0.68090802 4:-1.26761 5:-0.79622602 6:-1.23531 7:0.853567 8:0.13555899 9:-0.536452 10:-0.36346 14:1 20:1 #
0.038890900252376556234246152143896 1:-2.7729101 2:-1.23894 3:2.25634 4:-1.12646 5:-0.62470001 6:-0.49328199 7:-1.2009701 8:-3.1522501 9:-1.03292 10:-1.33235 14:1 28:1 #
1 1:-1.67998 2:1.04861 3:0.92122799 4:-0.32194799 5:0.28439099 6:-1.18721 7:-1.91072 8:0.89428401 9:1.94591 10:-1.31423 14:1 24:1 #
-1 1:-3.06936 2:-0.89938301 3:1.98932 4:-0.467796 5:0.37015399 6:-1.11089 7:0.44266 8:-2.8993399 9:-2.26104 10:-0.94721299 14:1 20:1 #
-1 1:-2.44432 2:-1.06916 3:2.52336 4:-0.37369999 5:1.15918 6:-1.04483 7:-0.56593198 8:-3.8098099 9:-2.0258701 10:-1.15036 14:1 24:1 #
-1 1:-2.2228701 2:-0.908319 3:1.4552701 4:0.063843802 5:0.91903901 6:-0.71069402 7:0.48001501 8:-2.3429401 9:-1.86909 10:-0.75615299 14:1 24:1 #
1 1:-1.69784 2:0.968189 3:1.05474 4:-0.16669001 5:0.38730699 6:-1.15386 7:-1.98543 8:1.04603 9:2.0243001 10:-1.2689199 14:1 24:1 #
-0.36957488654207787392991235719819 1:-1.4121 2:1.66518 3:0.12016 4:-0.98532099 5:-0.57324201 6:-0.87102801 7:-0.90212899 8:-0.31967601 9:0.639404 10:-1.10807 11:1 43:1 #
-0.84975082187790262899795834528049 1:-1.34781 2:-0.94406199 3:0.12016 4:0.34142601 5:-0.161578 6:-1.08139 7:0.51736999 8:-0.82549298 9:-0.79775298 10:-1.0008301 11:1 34:1 #
-1 1:-1.6656899 2:1.05755 3:1.3217601 4:-0.420748 5:0.33584899 6:-0.67221397 7:-2.32163 8:0.74253899 9:2.1288199 10:-0.97213399 14:1 24:1 #
-1 1:-2.6693299 2:1.2809401 3:1.1882499 4:-0.16669001 5:0.747513 6:-1.02495 7:-2.3963399 8:-0.016186099 9:1.84139 10:-1.20926 14:1 24:1 #
0.3536592829589157993552817060845 1:-2.0585799 2:-1.33724 3:2.6568799 4:0.0026817201 5:1.14202 6:-1.0025001 7:-2.0601399 8:-3.6074901 9:-0.71936202 10:-0.98874801 14:1 24:1 #
-0.15600902047707934650055960901227 1:-0.40845799 2:-0.80109 3:1.4552701 4:-0.75949198 5:-0.041509401 6:-0.29446799 7:0.853567 8:-2.09004 9:-2.0258701 10:-0.485044 13:1 47:1 #
0.48752781776644543709764434424869 1:-1.78713 2:0.97712398 3:1.05474 4:-0.37369999 5:-0.041509401 6:-1.17117 7:-2.02279 8:0.99544799 9:2.0504301 10:-1.26439 14:1 24:1 #
-1 1:-2.2228701 2:-1.11384 3:1.5887901 4:-0.75949198 5:0.45591801 6:-0.44005099 7:-0.34180099 8:-2.4946899 9:-1.2681 10:-0.87924701 14:1 24:1 #
-1 1:-2.71577 2:-1.0423599 3:1.5887901 4:-0.547777 5:0.35300201 6:-0.86653799 7:-0.0056032902 8:-2.4441099 9:-1.50327 10:-0.28718701 14:1 24:1 #
-1 1:-1.90856 2:-1.3014899 3:2.1228299 4:-0.467796 5:0.095711797 6:-1.11089 7:-1.46246 8:-2.9499199 9:-0.71936202 10:-0.65269297 14:1 24:1 #
0.099929396818438931404671166092157 1:-1.05136 2:-1.12278 3:1.85581 4:-0.86770201 5:-0.092967398 6:-0.72608602 7:-0.52857703 8:-2.8993399 9:-1.3987499 10:-0.91776103 13:1 47:1 #
1 1:-1.64783 2:1.54901 3:0.65420598 4:-0.95238799 5:-0.45317301 6:-1.31804 7:-1.49981 8:-0.471421 9:0.979096 10:-0.30908701 14:1 24:1 #
0.024531517758732447609393290122171 1:-2.35145 2:-0.970869 3:2.25634 4:-0.56189102 5:0.66175002 6:-1.10704 7:0.069107197 8:-3.2534101 9:-2.1826501 10:-0.73576301 14:1 24:1 #
0.37739728951207046625526686511876 1:-1.97286 2:-1.3283 3:1.1882499 4:-1.12646 5:-0.55608898 6:-0.68888903 7:-0.97684002 8:-1.73596 9:-0.22289 10:-0.90265697 14:1 24:1 #
-1 1:-2.2228701 2:1.01287 3:1.1882499 4:0.38376901 5:0.66175002 6:-1.29944 7:-2.2095599 8:0.89428401 9:2.10269 10:-1.01895 14:1 24:1 #
-1 1:-2.35145 2:1.3256201 3:1.7223001 4:-0.56189102 5:0.30154401 6:-0.95183599 7:-2.8819599 8:-0.42084 9:1.86752 10:-1.25155 14:1 24:1 #
-1 1:-1.75141 2:1.22733 3:0.92122799 4:-0.420748 5:0.62744403 6:-0.999295 7:-2.0975001 8:0.33788601 9:1.8152601 10:-0.33023199 14:1 24:1 #
0.24745822078142998279304265452083 1:-3.0657899 2:-1.38191 3:2.25634 4:0.83072197 5:-0.161578 6:-1.23787 7:-1.9480799 8:-2.9499199 9:-0.327411 10:-0.72518998 14:1 19:1 #
1 1:-2.0585799 2:0.33375001 3:0.38718301 4:-0.82065398 5:-0.281647 6:-1.46426 7:0.14381801 8:1.4001 9:0.561014 10:-1.3822 13:1 16:1 #
1 1:-0.84777498 2:-0.58663201 3:-0.68090802 4:0.0026817201 5:-0.60754699 6:-0.205964 7:0.853567 8:0.084977202 9:-0.56258202 10:0.48309499 13:1 16:1 #
-1 1:-2.76934 2:-1.2657501 3:2.3898499 4:-0.105528 5:1.48508 6:-1.2212 7:-1.46246 8:-3.3545799 9:-0.98066401 10:-1.2591 14:1 24:1 #
-1 1:-2.4228899 2:-1.2657501 3:1.85581 4:0.651941 5:1.3307 6:-0.97877198 7:-1.16362 8:-2.7476001 9:-0.79775298 10:-0.72594601 14:1 24:1 #
-1 1:-2.5479 2:-1.18533 3:1.3217601 4:0.204987 5:1.09057 6:-0.67478001 7:-0.49122199 8:-2.09004 9:-0.823883 10:-0.94721299 14:1 24:1 #
0.022789664199651227249887597281486 1:-0.99064201 2:-1.38191 3:-0.0133511 4:-0.75949198 5:-0.333105 6:-0.227128 7:-0.49122199 8:-0.522003 9:0.19519199 10:0.367553 13:1 16:1 #
-0.029072582130770883296344564428182 1:-0.64776099 2:0.056742001 3:-1.61549 4:0.99068499 5:1.10772 6:0.32698399 7:0.330594 8:0.79312098 9:0.29971299 10:3.4683199 11:1 26:1 #
1 1:-2.22644 2:1.59369 3:1.3217601 4:-1.0700099 5:-0.50463098 6:-0.67991 7:-2.0601399 8:-1.1795599 9:0.92683601 10:-1.33235 14:1 30:1 #
-1 1:-1.6549799 2:0.79840899 3:0.92122799 4:-0.32194799 5:0.28439099 6:-1.2212 7:-1.4251 8:1.4001 9:1.78913 10:-1.39428 14:1 24:1 #
0.23157220966638783488100727936398 1:-1.36924 2:-0.81896198 3:-0.68090802 4:0.92952198 5:1.3307 6:-1.09806 7:0.62943602 8:-0.11735 9:-0.45806101 10:-0.63003802 13:1 16:1 #
0.88502664602965985807259130524471 1:-1.9871401 2:-1.21213 3:2.25634 4:0.0120913 5:1.48508 6:-0.98197901 7:-1.08891 8:-3.2534101 9:-1.1897 10:-0.92153698 14:1 24:1 #
-1 1:-2.7550499 2:-1.2032 3:2.9238999 4:-0.00672783 5:1.10772 6:-1.29495 7:-1.46246 8:-4.1132998 9:-1.5294 10:-0.99629998 14:1 24:1 #
-1 1:-0.66204703 2:-1.0781 3:1.5887901 4:0.81660801 5:2.6686101 6:-0.65746403 7:-0.229735 8:-2.59585 9:-1.42488 10:-0.88302302 13:1 47:1 #
0.51440464375724026524494547629729 1:-2.4836099 2:1.30775 3:1.85581 4:-0.13846201 5:2.2054901 6:-1.03842 7:-3.0313799 8:-0.522003 9:1.94591 10:-0.73953903 14:1 24:1 #
0.86462669514962631200916121088085 1:-2.4836099 2:-0.27388099 3:-0.54739702 4:-0.56189102 5:0.095711797 6:-0.51701099 7:0.89092302 8:0.489631 9:-0.405801 10:-1.21153 14:1 24:1 #
1 1:-1.62283 2:-1.3283 3:0.52069402 4:0.14382499 5:0.52452803 6:-1.05317 7:-0.640643 8:-1.12898 9:-0.066109203 10:-1.17981 14:1 24:1 #
-1 1:-1.4478199 2:1.28988 3:0.12016 4:-0.279605 5:0.232933 6:-1.30265 7:-1.31304 8:0.489631 9:1.39718 10:-0.87018502 14:1 24:1 #
-1 1:-2.2228701 2:0.99499601 3:0.65420598 4:0.78837901 5:0.49022299 6:-1.34369 7:-1.64923 8:1.04603 9:1.84139 10:-1.0114 14:1 24:1 #
-1 1:-1.5049599 2:1.38817 3:0.253672 4:-0.279605 5:0.112864 6:-1.26096 7:-1.38775 8:0.186141 9:1.26653 10:-0.93286502 14:1 24:1 #
1 1:-1.50854 2:-1.01555 3:2.9238999 4:0.063843802 5:1.48508 6:-0.84280902 7:-0.416511 8:-4.2650499 9:-2.4962101 10:-0.74104899 13:1 18:1 #
0.11407310816820190324527573011437 1:-1.61212 2:-1.06916 3:2.52336 4:-0.129052 5:0.98764998 6:-0.83190602 7:-0.52857703 8:-3.7592299 9:-2.0258701 10:-0.74784601 13:1 18:1 #
1 1:-1.96928 2:-1.23894 3:2.79039 4:0.14382499 5:1.57084 6:-0.99480498 7:-1.57452 8:-3.91098 9:-1.29423 10:-0.96231699 14:1 24:1 #
-1 1:-2.36217 2:-1.14958 3:3.1909201 4:-0.95238799 5:0.21578 6:-0.59461302 7:-1.31304 8:-4.5179601 9:-1.99974 10:-0.72594601 14:1 24:1 #
-1 1:-1.59426 2:-0.97980499 3:2.3898499 4:0.129711 5:1.0048 6:-0.59589499 7:-0.080313802 8:-3.6074901 9:-2.3132999 10:-1.10429 13:1 24:1 #
-1 1:-1.26209 2:-0.99767703 3:2.25634 4:-0.41133901 5:0.55883402 6:-1.04547 7:-0.080313802 8:-3.40516 9:-2.1565199 10:-0.90265697 13:1 47:1 #
1 1:-1.1835099 2:-1.06916 3:-0.0133511 4:-0.56189102 5:-0.315952 6:-1.12949 7:0.218528 8:-0.82549298 9:-0.536452 10:-0.55980599 13:1 24:1 #
1 1:-2.04072 2:1.58476 3:1.05474 4:0.76955998 5:2.23979 6:-0.86204898 7:-1.83601 8:-0.92665702 9:0.92683601 10:-0.74104899 14:1 24:1 #
-1 1:-1.8728499 2:1.45072 3:1.05474 4:-0.68421501 5:0.30154401 6:-0.89988798 7:-2.02279 8:-0.42084 9:1.37105 10:-0.52053702 14:1 24:1 #
-1 1:-1.77641 2:1.44178 3:0.38718301 4:-0.067889899 5:0.37015399 6:-1.2539001 7:-1.4251 8:-0.016186099 9:1.18814 10:-0.460123 13:1 24:1 #
-1 1:-2.4693201 2:1.7634701 3:0.12016 4:0.59077901 5:0.25008601 6:-1.3148299 7:-0.71535301 8:-0.522003 9:0.37810299 10:-0.27510399 14:1 24:1 #
1 1:-1.36567 2:-0.86364001 3:2.1228299 4:-0.86770201 5:-0.230189 6:0.31159201 7:0.55472499 8:-3.05109 9:-2.4700799 10:-0.81430203 13:1 24:1 #
1 1:-1.21566 2:-0.86364001 3:0.92122799 4:-0.56189102 5:-0.52178401 6:-0.074490897 7:0.66679102 8:-1.5842201 9:-1.50327 10:-0.96684802 13:1 24:1 #
-0.13985749882923018128089154288318 1:-0.52632302 2:-1.23894 3:1.98932 4:1.13183 5:1.6737601 6:-0.84858102 7:-1.05155 8:-2.7981801 9:-0.92840302 10:0.171207 13:1 27:1 #
1 1:-0.94778198 2:1.63837 3:1.05474 4:0.70839798 5:2.3598599 6:-0.89347398 7:-1.72394 8:-1.0784 9:0.74392498 10:-1.01744 13:1 47:1 #
-1 1:-1.54425 2:-1.12278 3:1.7223001 4:-0.37369999 5:-0.00720412 6:-0.54074103 7:-0.453866 8:-2.64643 9:-1.29423 10:-1.14885 13:1 24:1 #
-1 1:-0.979927 2:-0.872576 3:1.5887901 4:-1.12646 5:-0.74476802 6:-0.463781 7:0.59208101 8:-2.3935299 9:-2.052 10:-0.60209602 13:1 47:1 #
-1 1:-0.619187 2:-0.68492502 3:1.4552701 4:-0.75949198 5:-0.67615801 6:0.51297098 7:1.15241 8:-1.93829 9:-2.26104 10:-0.94796801 13:1 24:1 #
-0.23923131323368998502054694199614 1:-0.36559799 2:1.61156 3:-1.08144 4:0.063843802 5:0.52452803 6:1.04207 7:-0.19238 8:0.43904901 9:0.561014 10:2.76071 11:1 43:1 #
1 1:-2.6871901 2:1.43285 3:2.3898499 4:-0.420748 5:1.39931 6:-1.09614 7:-3.3675799 8:-1.3818901 9:1.63235 10:-0.81279099 14:1 24:1 #
0.61291841653692469282788124473882 1:-0.52275199 2:1.53114 3:0.78771698 4:-0.98532099 5:-0.487479 6:-0.50931501 7:-1.68659 8:-0.522003 9:1.08362 10:-0.143703 13:1 27:1 #
-1 1:-1.57283 2:1.50433 3:-0.28037399 4:0.186168 5:1.7595201 6:-0.93900901 7:-0.90212899 8:0.13555899 9:0.92683601 10:-0.397443 14:1 24:1 #
-1 1:-1.18708 2:-1.37298 3:0.253672 4:1.24474 5:3.38902 6:-1.09934 7:-0.60328698 8:-0.77491099 9:0.142932 10:-0.73425299 14:1 24:1 #
-1 1:-2.0371499 2:1.64731 3:-0.28037399 4:1.0095 5:1.72521 6:-0.51380497 7:-0.71535301 8:-0.11735 9:0.639404 10:-0.96684802 14:1 20:1 #
0.27520578196490980138477766558935 1:-0.74062401 2:-1.09597 3:1.98932 4:-0.32194799 5:0.97049701 6:-0.69850898 7:-0.416511 8:-3.05109 9:-1.60779 10:-1.04388 13:1 47:1 #
1 1:-0.75491101 2:-0.99767703 3:1.5887901 4:-0.50543398 5:0.49022299 6:-0.71838999 7:0.14381801 8:-2.4946899 9:-1.66005 10:-1.07786 13:1 47:1 #
-1 1:-1.16208 2:-1.0781 3:1.85581 4:0.063843802 5:2.0854199 6:-0.97107601 7:-0.304445 8:-2.7981801 9:-1.50327 10:-0.41858801 13:1 47:1 #
1 1:-1.98357 2:1.05755 3:2.1228299 4:-0.13846201 5:0.88473397 6:-0.717749 7:-3.14344 8:0.43904901 9:2.41625 10:-0.466919 14:1 24:1 #
-1 1:-1.46925 2:-1.23001 3:1.85581 4:-0.67010099 5:0.42161199 6:-0.89988798 7:-0.939484 8:-2.6970201 9:-0.92840302 10:-0.43369201 13:1 24:1 #
-1 1:-0.53346699 2:-1.2210701 3:2.1228299 4:-0.32194799 5:0.55883402 6:-0.86974502 7:-1.08891 8:-3.05109 9:-1.05905 10:-0.69120699 13:1 47:1 #
-1 1:-0.61204398 2:-0.99767703 3:1.5887901 4:-0.56189102 5:-0.024356799 6:-0.67093199 7:0.14381801 8:-2.4441099 9:-1.63392 10:-0.672328 13:1 47:1 #
1 1:-1.66212 2:1.50433 3:0.92122799 4:-0.82065398 5:-0.436021 6:-1.26609 7:-1.83601 8:-0.522003 9:1.16201 10:-0.371012 14:1 24:1 #
1 1:-2.84077 2:1.36136 3:2.6568799 4:-0.84417802 5:0.21578 6:-1.10255 7:-3.7784801 8:-1.28073 9:1.94591 10:-0.81581199 14:1 24:1 #
1 1:-0.97278398 2:-1.02448 3:1.85581 4:-0.67010099 5:0.42161199 6:-0.73185802 7:-0.080313802 8:-2.8993399 9:-1.7907 10:-0.90718901 13:1 47:1 #
-1 1:-1.4263901 2:1.03967 3:-0.413885 4:0.43081599 5:1.48508 6:-0.78829598 7:-0.82741898 8:0.99544799 9:1.31879 10:-1.01895 14:1 20:1 #
-1 1:-2.91221 2:1.20945 3:-0.28037399 4:0.81660801 5:0.83327597 6:-1.19683 7:-1.01419 8:0.74253899 9:1.31879 10:-0.84224302 14:1 24:1 #
0.41377778036095486102752261103888 1:-1.07279 2:-0.82789701 3:0.52069402 4:-0.63716799 5:-0.281647 6:-0.092448302 7:0.77885699 8:-1.12898 9:-1.29423 10:0.38643199 13:1 24:1 #
1 1:-1.0799299 2:-1.31043 3:1.7223001 4:-0.467796 5:0.112864 6:-0.38104901 7:-1.2009701 8:-2.3935299 9:-0.51032102 10:0.548796 13:1 24:1 #
1 1:-0.99064201 2:-1.3014899 3:1.7223001 4:-0.13846201 5:0.64459699 6:-0.44838899 7:-1.16362 8:-2.3429401 9:-0.51032102 10:0.52160901 13:1 24:1 #
1 1:-1.67283 2:1.51327 3:0.78771698 4:-0.75949198 5:-0.213036 6:-1.23979 7:-1.68659 8:-0.471421 9:1.10975 10:-0.40121901 14:1 24:1 #
-1 1:-1.44425 2:-1.21213 3:1.1882499 4:-0.63716799 5:-0.40171501 6:-0.90501797 7:-0.56593198 8:-1.98887 9:-0.693232 10:-0.72594601 13:1 24:1 #
-1 1:-1.07279 2:-1.1763901 3:0.78771698 4:-0.13846201 5:0.81612301 6:-0.350265 7:-0.26708999 8:-1.53364 9:-0.64097202 10:-0.38460499 13:1 24:1 #
-1 1:-0.729909 2:-1.2210701 3:1.4552701 4:-0.251376 5:0.164322 6:-0.60936302 7:-0.67799801 8:-2.1912 9:-0.77162302 10:0.027722601 13:1 47:1 #
1 1:-1.79784 2:0.24439301 3:1.4552701 4:0.25674 5:2.39417 6:-0.76969701 7:0.181173 8:1.19777 9:0.142932 10:-1.07786 14:1 16:1 #
-0.018717968029320235234802538570875 1:2.23102 2:-0.390046 3:1.5887901 4:2.7737899 5:5.4644899 6:0.21475101 7:1.52596 8:-1.0784 9:-2.1826501 10:-0.78409398 11:1 54:1 #
0.0076551682725989333988536600372754 1:-1.99429 2:-1.33724 3:1.1882499 4:-0.16669001 5:0.747513 6:-0.59781897 7:-1.01419 8:-1.73596 9:-0.19676 10:-1.19038 14:1 24:1 #
-1 1:-1.46925 2:0.548208 3:-0.54739702 4:0.28496799 5:0.45591801 6:-0.74596798 7:-0.117669 8:1.34952 9:0.87457502 10:-0.92757797 14:1 20:1 #
-1 1:-1.27281 2:1.10223 3:-1.08144 4:0.14382499 5:1.19348 6:-1.0025001 7:-0.304445 8:0.89428401 9:0.87457502 10:-0.713108 14:1 25:1 #
-1 1:-1.3371 2:0.92351002 3:0.52069402 4:0.73662698 5:1.34786 6:0.00118647 7:-1.38775 8:1.19777 9:1.7368701 10:-1.17075 13:1 16:1 #
0.52389158302677030221161658118945 1:-2.0978601 2:0.70905203 3:2.6568799 4:-0.56189102 5:1.02196 6:-0.568959 7:-2.5831201 8:1.14719 9:2.07656 10:-0.92380202 14:1 15:1 #
1 1:-1.6085401 2:-1.37298 3:0.38718301 4:0.28496799 5:0.59313899 6:-1.06407 7:-0.67799801 8:-0.87607503 9:0.090671502 10:-1.18736 14:1 24:1 #
0.0037965866649642444896617377025905 1:-1.42996 2:-1.05129 3:1.98932 4:-0.36429101 5:-1.48233 6:-0.93516099 7:-0.19238 8:-2.9499199 9:-1.73844 10:-0.628528 13:1 24:1 #
-1 1:-1.29424 2:-1.31043 3:1.98932 4:-0.420748 5:-0.00720412 6:-0.499695 7:-1.4251 8:-2.7476001 9:-0.58871198 10:-0.35439801 13:1 24:1 #
-1 1:-1.61926 2:-1.24788 3:1.5887901 4:-0.13846201 5:0.59313899 6:-0.548437 7:-0.86477399 8:-2.2923601 9:-0.693232 10:-1.15564 13:1 24:1 #
-1 1:-1.57997 2:-1.28362 3:1.5887901 4:-0.95238799 5:-0.436021 6:-0.87936503 7:-1.05155 8:-2.24178 9:-0.536452 10:-0.51751602 13:1 47:1 #
1 1:-1.35138 2:0.92351002 3:-0.146862 4:0.99068499 5:0.112864 6:-1.05317 7:-0.90212899 8:1.19777 9:1.42331 10:-0.58246201 13:1 16:1 #
1 1:-1.35138 2:0.87883103 3:-0.94793099 4:0.84954101 5:0.112864 6:-1.06407 7:-0.304445 8:1.09661 9:0.95296597 10:-0.566603 13:1 16:1 #
0.41598664767426285493456816766411 1:-3.1408 2:-1.19426 3:2.6568799 4:-0.86770201 5:-0.84768403 6:-1.45272 7:-1.2756799 8:-3.8603899 9:-1.50327 10:-0.96231699 14:1 24:1 #
-1 1:-1.4585299 2:1.4596601 3:-0.54739702 4:0.88717902 5:-0.161578 6:-0.90950799 7:-0.67799801 8:0.38846701 9:0.90070599 10:-0.76446003 13:1 16:1 #
-1 1:-1.34424 2:0.69117999 3:-0.68090802 4:1.16947 5:1.14202 6:-1.05637 7:-0.26708999 8:1.2989399 9:1.0052299 10:-0.91776103 13:1 16:1 #
-1 1:-1.8728499 2:0.80734497 3:0.65420598 4:-0.86770201 5:-0.092967398 6:-1.17502 7:-1.31304 8:1.4001 9:1.71074 10:-0.74482501 13:1 18:1 #
0.1021974439091316438910084229974 1:-2.24787 2:-1.27469 3:3.1909201 4:-0.16669001 5:-0.64185202 6:-1.13397 7:-2.0601399 8:-4.36621 9:-1.2681 10:-1.17528 14:1 24:1 #
-0.47078770175030082434375344746513 1:-0.42274401 2:-0.75641102 3:2.79039 4:-0.98532099 5:-0.213036 6:-0.39002699 7:0.816212 8:-3.6074901 9:-3.17559 10:-0.59303403 13:1 47:1 #
-1 1:-2.3764601 2:-1.33724 3:1.5887901 4:-0.75949198 5:0.061406501 6:-0.706846 7:-1.2756799 8:-2.1912 9:-0.327411 10:-1.06427 14:1 24:1 #
-1 1:-2.3585999 2:-1.3014899 3:1.05474 4:-0.32194799 5:0.26723799 6:-0.65682203 7:-0.82741898 8:-1.73596 9:-0.327411 10:-0.73425299 14:1 24:1 #
-1 1:-1.39424 2:-1.3461699 3:1.5887901 4:-0.37369999 5:-0.41886801 6:-1.21863 7:-1.2756799 8:-2.14062 9:-0.30127999 10:-0.30002499 13:1 24:1 #
0.41826913606383087085305305663496 1:-3.32652 2:1.59369 3:1.3217601 4:-0.98532099 5:-0.281647 6:-1.31675 7:-2.0601399 8:-1.1795599 9:0.92683601 10:-1.10807 14:1 24:1 #
0.010737113335306358585796715487959 1:-0.354882 2:1.7187901 3:0.52069402 4:-0.105528 5:0.31869599 6:-0.39515799 7:-1.08891 8:-0.82549298 9:0.45649299 10:-0.213935 13:1 27:1 #
1 1:-1.19066 2:1.3256201 3:0.253672 4:0.477864 5:1.36501 6:-0.30473 7:-1.4251 8:0.33788601 9:1.39718 10:-0.91474003 13:1 16:1 #
1 1:-1.1835099 2:1.2809401 3:1.7223001 4:-0.82065398 5:-0.041509401 6:-0.632451 7:-2.8446 8:-0.269095 9:1.9720401 10:-0.800708 13:1 47:1 #
-1 1:-1.35853 2:0.92351002 3:0.65420598 4:1.02832 5:0.62744403 6:-1.04162 7:-1.49981 8:1.19777 9:1.8152601 10:-0.597565 13:1 16:1 #
-1 1:-0.68704897 2:1.40604 3:0.52069402 4:0.92481798 5:1.09057 6:-0.44582301 7:-1.57452 8:0.034395501 9:1.31879 10:-0.0538367 13:1 25:1 #
-1 1:-0.30130699 2:1.3703001 3:-0.28037399 4:0.0120913 5:1.05626 6:-0.19762699 7:-0.97684002 8:0.43904901 9:1.13588 10:-0.86716402 13:1 45:1 #
0.19197566265964871590199436468538 1:-2.9479201 2:1.4954 3:2.6568799 4:-0.56189102 5:0.71320802 6:-1.19618 7:-3.517 8:-1.98887 9:1.37105 10:-0.94041598 14:1 24:1 #
1 1:-3.03722 2:-1.21213 3:2.25634 4:0.426112 5:0.078559197 6:-0.98903298 7:-1.12626 8:-3.3545799 9:-1.24196 10:-0.88226801 14:1 24:1 #
0.17347322639195519866639472184033 1:-1.1156501 2:0.53927302 3:-1.34846 4:-1.26761 5:-0.79622602 6:-0.21558399 7:0.14381801 8:0.99544799 9:0.58714402 10:0.308649 13:1 31:1 #
-1 1:-2.0335701 2:-1.29256 3:1.05474 4:-1.12646 5:-0.60754699 6:-0.93516099 7:-0.82741898 8:-1.73596 9:-0.35354099 10:-1.0786099 14:1 24:1 #
-1 1:-2.3693099 2:-1.28362 3:0.92122799 4:-0.68421501 5:-0.11012 6:-1.37255 7:-0.67799801 8:-1.53364 9:-0.327411 10:-0.73576301 14:1 24:1 #
1 1:-0.29773599 2:1.52221 3:-0.28037399 4:-0.105528 5:0.59313899 6:-0.46121499 7:-0.82741898 8:0.13555899 9:0.87457502 10:-0.079512797 13:1 45:1 #
1 1:-0.31559399 2:1.54008 3:-0.28037399 4:-0.129052 5:0.50737602 6:-0.450313 7:-0.75270802 8:0.13555899 9:0.82231498 10:-0.101413 13:1 45:1 #
1 1:-1.17637 2:1.17371 3:0.253672 4:0.0026817201 5:1.1248699 6:-0.764566 7:-1.38775 8:0.69195801 9:1.55396 10:-0.21771 13:1 45:1 #
0.054412940957311195511181267647771 1:-3.6015401 2:-1.06023 3:0.253672 4:-1.12646 5:-0.64185202 6:-1.29559 7:0.218528 8:-1.0784 9:-0.693232 10:-1.06049 14:1 15:1 #
-1 1:-0.87992001 2:1.10223 3:0.38718301 4:-0.37369999 5:-0.00720412 6:-0.31435001 7:-1.49981 8:0.84370297 9:1.68461 10:-1.15036 13:1 45:1 #
1 1:-2.08358 2:-1.35511 3:1.05474 4:-0.251376 5:-0.50463098 6:-0.73763001 7:-1.01419 8:-1.5842201 9:-0.092239402 10:-1.33084 14:1 24:1 #
1 1:-0.729909 2:-1.14065 3:1.98932 4:-0.129052 5:1.34786 6:-0.67606199 7:-0.640643 8:-3.00051 9:-1.3987499 10:-1.00763 13:1 47:1 #
-1 1:-0.58346999 2:1.54901 3:0.12016 4:-0.84417802 5:-0.436021 6:-0.0065095401 7:-1.05155 8:-0.11735 9:0.90070599 10:-0.52053702 13:1 45:1 #
-1 1:-0.80848598 2:1.1469001 3:-0.94793099 4:-0.063185103 5:0.33584899 6:-0.93516099 7:-0.453866 8:0.84370297 9:0.95296597 10:-0.0228744 13:1 45:1 #
1 1:-2.0478599 2:-0.45259601 3:0.65420598 4:-0.84417802 5:0.044253901 6:-1.40911 7:1.3765399 8:-0.522003 9:-1.50327 10:-1.30064 13:1 17:1 #
0.066719243732662275592204537133512 1:-1.26209 2:-1.31043 3:1.05474 4:-0.98532099 5:-0.79622602 6:-0.33487299 7:-0.86477399 8:-1.73596 9:-0.30127999 10:0.63262099 13:1 31:1 #
-1 1:-2.7193401 2:-1.3283 3:1.1882499 4:-0.98532099 5:-0.69331002 6:-0.87230998 7:-0.97684002 8:-1.73596 9:-0.22289 10:-1.2221 14:1 24:1 #
-1 1:-2.3193099 2:-1.16746 3:0.78771698 4:-0.420748 5:0.33584899 6:-0.64591998 7:-0.229735 8:-1.48306 9:-0.64097202 10:-1.0997601 14:1 24:1 #
-1 1:-2.0264299 2:-0.96193397 3:1.05474 4:-0.56189102 5:-0.024356799 6:-1.15321 7:0.40530401 8:-1.83713 9:-1.42488 10:-1.02424 13:1 24:1 #
1 1:-0.38345599 2:1.3256201 3:-0.54739702 4:0.204987 5:0.181475 6:-0.365015 7:-0.75270802 8:0.59079403 9:1.05749 10:-0.306822 13:1 27:1 #
1 1:-0.71562302 2:1.37923 3:-0.28037399 4:-1.26761 5:-0.79622602 6:-0.95183599 7:-0.97684002 8:0.38846701 9:1.10975 10:-0.33098701 13:1 37:1 #
1 1:-0.53703803 2:1.56688 3:-0.0133511 4:-0.75949198 5:-0.76192099 6:-0.62988597 7:-0.97684002 8:-0.066767797 9:0.848445 10:-0.0107915 13:1 27:1 #
1 1:-1.92285 2:-0.34536701 3:-0.28037399 4:-0.75949198 5:-0.76192099 6:-1.4802999 7:1.0403399 8:0.28730401 9:-0.64097202 10:-1.23947 13:1 18:1 #
-0.23290073520616361157919982360909 1:-0.95849699 2:0.59288698 3:2.1228299 4:0.37906399 5:0.696055 6:-0.209812 7:-1.64923 8:1.4001 9:1.60622 10:-0.27057299 13:1 24:1 #
-1 1:-0.88349199 2:1.3703001 3:0.65420598 4:-0.50543398 5:-0.075814798 6:-0.39900601 7:-1.72394 8:0.084977202 9:1.44944 10:-0.53564101 13:1 27:1 #
-1 1:-0.451318 2:1.6294301 3:0.12016 4:-0.98532099 5:-0.64185202 6:-0.510598 7:-0.939484 8:-0.269095 9:0.71779501 10:0.46044001 13:1 34:1 #
0.038959185112388716731857130071148 1:-1.77284 2:0.61969399 3:0.65420598 4:-1.26761 5:-0.79622602 6:-0.58178598 7:-0.75270802 8:1.55185 9:1.34492 10:-0.66477603 13:1 30:1 #
0.36553534339805276998092153917241 1:-2.0442901 2:0.98606002 3:1.5887901 4:-0.703035 5:-0.213036 6:-1.4257801 7:-2.47105 8:0.84370297 9:2.23334 10:-1.42373 13:1 16:1 #
-1 1:-2.2943101 2:-0.93512601 3:0.52069402 4:-0.50543398 5:0.26723799 6:-1.06407 7:0.51736999 8:-1.23015 9:-1.08518 10:-1.0197099 14:1 24:1 #
-1 1:-2.0871501 2:-0.908319 3:0.65420598 4:-0.251376 5:-0.213036 6:-0.90950799 7:0.55472499 8:-1.43247 9:-1.29423 10:-0.92908901 14:1 24:1 #
-1 1:-1.69784 2:-0.54195303 3:0.12016 4:-0.95238799 5:-0.59039497 6:-1.14552 7:1.15241 8:-0.370258 9:-1.16357 10:-1.2153 14:1 24:1 #
0.74824018672801995144538977910997 1:-0.64776099 2:1.47753 3:0.92122799 4:-1.26761 5:-0.79622602 6:-0.54074103 7:-1.9480799 8:-0.471421 9:1.26653 10:-0.14823399 13:1 27:1 #
1 1:-1.34067 2:-0.85470498 3:1.05474 4:-0.82065398 5:-0.384563 6:0.33275601 7:0.70414603 8:-1.73596 9:-1.66005 10:-0.78560501 13:1 24:1 #
0.56510603881049714658502125530504 1:-0.65490401 2:1.3703001 3:-0.68090802 4:0.75544602 5:1.24494 6:-0.323329 7:-0.67799801 8:0.54021198 9:0.979096 10:0.00129136 13:1 24:1 #
-1 1:-1.4621 2:1.4596601 3:0.78771698 4:-1.12646 5:-0.55608898 6:-0.76648998 7:-1.72394 8:-0.269095 9:1.26653 10:-0.121803 13:1 27:1 #
-1 1:-0.83705997 2:1.22733 3:0.52069402 4:0.186168 5:0.19862799 6:-0.94927001 7:-1.64923 8:0.489631 9:1.63235 10:-0.068185098 13:1 27:1 #
-1 1:-0.68347698 2:1.47753 3:0.78771698 4:-1.12646 5:-0.53893697 6:-0.59717798 7:-1.72394 8:-0.31967601 9:1.21427 10:-0.30002499 13:1 38:1 #
0.013861774235083626494180464305828 1:-1.96571 2:-1.2210701 3:2.25634 4:-0.86770201 5:-0.041509401 6:-0.849222 7:-1.16362 8:-3.2028301 9:-1.13744 10:-0.94721299 14:1 24:1 #
1 1:-1.09065 2:0.00312751 3:-1.21495 4:-0.75949198 5:-0.24734101 6:-0.247651 7:0.48001501 8:0.84370297 9:0.19519199 10:0.069257401 13:1 18:1 #
1 1:-2.05143 2:-0.81896198 3:1.1882499 4:-0.56189102 5:0.55883402 6:-0.76392502 7:0.816212 8:-1.88771 9:-1.84296 10:-0.58246201 14:1 20:1 #
1 1:-0.57989901 2:1.54008 3:0.92122799 4:-1.0700099 5:-0.76192099 6:-0.51188099 7:-1.72394 8:-0.57258499 9:1.05749 10:-0.160317 13:1 27:1 #
-1 1:-2.3871701 2:-0.702797 3:0.253672 4:-0.75949198 5:0.49022299 6:-0.67991 7:1.00299 8:-0.72433001 9:-1.21583 10:-1.099 14:1 16:1 #
-1 1:-2.3907399 2:-0.94406199 3:1.1882499 4:0.289673 5:0.62744403 6:-1.33279 7:0.40530401 8:-2.0394499 9:-1.60779 10:-0.325701 14:1 24:1 #
-1 1:-2.24073 2:-1.02448 3:0.65420598 4:-0.467796 5:0.71320802 6:-0.62988597 7:0.25588301 8:-1.43247 9:-1.00679 10:-0.603607 14:1 16:1 #
1 1:-1.27995 2:0.94138098 3:0.92122799 4:-0.279605 5:0.62744403 6:-0.83383 7:-1.83601 8:1.09661 9:1.9720401 10:-0.18825801 13:1 47:1 #
1 1:-2.99436 2:1.2362601 3:0.78771698 4:-0.75949198 5:-0.11012 6:-1.3840899 7:-1.9480799 8:0.38846701 9:1.7368701 10:-0.91776103 14:1 24:1 #
1 1:-1.02993 2:0.75373101 3:1.7223001 4:-1.0700099 5:-0.60754699 6:-0.55164301 7:-2.02279 8:1.34952 9:2.0243001 10:-0.47598201 13:1 18:1 #
-1 1:-0.67276198 2:1.22733 3:1.1882499 4:-0.84417802 5:-0.384563 6:-0.49135801 7:-2.3963399 8:0.23672201 9:1.94591 10:-0.61191398 13:1 47:1 #
-1 1:-0.69776398 2:0.83415198 3:1.1882499 4:-1.0700099 5:-0.53893697 6:-0.022542899 7:-1.83601 8:1.2989399 9:1.99817 10:-0.92380202 13:1 27:1 #
-1 1:-1.5513999 2:0.61969399 3:1.3217601 4:-1.0700099 5:-0.53893697 6:-0.431714 7:-1.16362 8:1.55185 9:1.52783 10:-0.32041499 13:1 16:1 #
-0.55232299673687546004430259927176 1:-2.67291 2:-0.0236797 3:2.79039 4:-0.84417802 5:-0.264494 6:-0.48302099 7:0.92827803 8:-0.269095 9:-1.63392 10:-1.42751 14:1 17:1 #
-1 1:-0.67633402 2:1.4954 3:-0.94793099 4:-0.75949198 5:-0.50463098 6:-0.96851099 7:-0.416511 8:0.489631 9:0.74392498 10:0.076053999 13:1 25:1 #
0.074936677297965756383568702858611 1:-1.96571 2:-0.765347 3:1.05474 4:0.81660801 5:0.50737602 6:-1.10127 7:0.96563298 8:-1.6348 9:-1.7907 10:-0.50241297 14:1 24:1 #
-1 1:-1.74784 2:-0.631311 3:0.78771698 4:0.063843802 5:0.62744403 6:-1.02623 7:1.18976 8:-1.12898 9:-1.68618 10:-1.28176 14:1 16:1 #
-1 1:-1.79427 2:-0.73853999 3:1.1882499 4:-0.129052 5:0.45591801 6:-1.12371 7:1.00299 8:-1.68538 9:-1.89522 10:-0.41632199 14:1 19:1 #
-1 1:-1.8728499 2:-0.61343902 3:1.85581 4:-0.32194799 5:0.0271012 6:-1.02046 7:1.3018301 8:-2.0394499 9:-2.5223401 10:-0.99781001 14:1 15:1 #
0.26796591766748112384277646924602 1:-1.4478199 2:1.3703001 3:0.78771698 4:-1.12646 5:-0.53893697 6:-0.95183599 7:-1.91072 8:-0.016186099 9:1.5017 10:-0.70631099 13:1 38:1 #
1 1:-1.1835099 2:1.25413 3:1.1882499 4:-0.82065398 5:-0.213036 6:-0.590765 7:-2.32163 8:0.13555899 9:1.86752 10:-0.75011098 13:1 47:1 #
1 1:-1.2299401 2:1.29881 3:1.1882499 4:-0.95238799 5:-0.35025701 6:-0.62026602 7:-2.32163 8:-0.016186099 9:1.763 10:-0.79315698 13:1 47:1 #
-1 1:-1.3228101 2:1.3703001 3:0.12016 4:-1.12646 5:-0.64185202 6:-0.64976799 7:-1.2756799 8:0.28730401 9:1.26653 10:-0.84677398 13:1 47:1 #
-1 1:-2.23002 2:1.1201 3:1.7223001 4:-0.86770201 5:-0.29879901 6:-1.2622401 7:-2.80725 8:0.38846701 9:2.23334 10:-0.29473901 14:1 24:1 #
-1 1:-0.72276598 2:1.26307 3:1.85581 4:-0.98532099 5:-0.41886801 6:-0.69786799 7:-2.99402 8:-0.269095 9:2.0504301 10:-0.41103601 13:1 27:1 #
0.49156459174150479718434780807002 1:-0.65133202 2:-1.38191 3:0.253672 4:0.035615101 5:-1.29365 6:-0.73763001 7:-0.60328698 8:-0.72433001 9:0.169062 10:0.102485 13:1 27:1 #
1 1:-1.25852 2:1.18265 3:-1.48198 4:-1.12646 5:-0.79622602 6:-0.60936302 7:-0.042958502 8:0.79312098 9:0.61327398 10:-0.69875902 13:1 34:1 #
0.62545008847428507081644966092426 1:-1.81927 2:1.06648 3:0.38718301 4:0.99538898 5:2.29125 6:-0.92233402 7:-1.49981 8:0.944866 9:1.71074 10:-1.1934 14:1 24:1 #
-1 1:-0.74062401 2:-0.79215401 3:1.5887901 4:-0.420748 5:0.97049701 6:-0.69850898 7:0.853567 8:-2.3429401 9:-2.23491 10:-0.83771199 13:1 27:1 #
-1 1:-2.3157401 2:-0.68492502 3:1.7223001 4:-0.98532099 5:-0.436021 6:-0.67798603 7:1.15241 8:-2.14062 9:-2.41782 10:-0.841488 14:1 17:1 #
1 1:-1.9871401 2:1.40604 3:1.85581 4:-0.98532099 5:-0.29879901 6:-1.09614 7:-2.99402 8:-0.92665702 9:1.65848 10:-0.55300999 14:1 24:1 #
0.74869206804211396732995353886508 1:-1.2228 2:1.3256201 3:0.92122799 4:-0.95238799 5:-0.50463098 6:-1.04483 7:-2.0601399 8:0.034395501 9:1.63235 10:-0.496371 13:1 24:1 #
1 1:-2.03 2:1.47753 3:1.7223001 4:-0.98532099 5:-0.36741 6:-1.0769 7:-2.6951799 8:-1.0784 9:1.39718 10:-0.57340002 14:1 24:1 #
-1 1:-1.8157001 2:1.42391 3:1.4552701 4:-0.82065398 5:-0.29879901 6:-1.01982 7:-2.4336901 8:-0.62316602 9:1.5017 10:-0.42689499 13:1 24:1 #
-1 1:-2.0692899 2:1.45072 3:1.4552701 4:-1.12646 5:-0.50463098 6:-0.83511299 7:-2.4336901 8:-0.72433001 9:1.44944 10:-0.58472699 14:1 24:1 #
-1 1:-1.9871401 2:1.42391 3:1.7223001 4:-0.75949198 5:0.25008601 6:-0.82677603 7:-2.6951799 8:-0.82549298 9:1.55396 10:-0.61191398 14:1 24:1 #
1 1:-0.954925 2:-0.72960401 3:0.92122799 4:-1.12646 5:-0.55608898 6:-0.63630003 7:1.0403399 8:-1.48306 9:-1.76457 10:-0.49259499 13:1 27:1 #
0.15391057800109805842048160684499 1:-1.7121201 2:1.73666 3:-0.0133511 4:-0.86770201 5:-0.62470001 6:-1.30265 7:-0.67799801 8:-0.370258 9:0.430363 10:-0.59907597 14:1 25:1 #
-0.6687718297722782256897744446178 1:0.26659 2:-0.68492502 3:-1.749 4:0.89188403 5:1.3307 6:-0.24252 7:0.293239 8:0.64137602 9:0.24745201 10:0.39398399 13:1 46:1 #
-1 1:-1.59069 2:-0.85470498 3:0.78771698 4:-1.12646 5:-0.64185202 6:-1.01982 7:0.70414603 8:-1.48306 9:-1.45101 10:-0.477492 13:1 24:1 #
-1 1:-1.99429 2:-0.56876099 3:1.3217601 4:-0.98532099 5:-0.59039497 6:-1.06792 7:1.3765399 8:-1.48306 9:-2.1826501 10:-0.65420401 13:1 18:1 #
-1 1:-1.7121201 2:-0.54195303 3:1.05474 4:-0.75949198 5:-0.19588301 6:-1.2160701 7:1.3765399 8:-1.1795599 9:-1.94748 10:-0.82638401 13:1 18:1 #
0.4543919418424016143376320542302 1:-1.05493 2:1.56688 3:1.5887901 4:-1.0700099 5:-0.487479 6:-0.133494 7:-2.28427 8:-1.23015 9:1.03136 10:0.319222 13:1 24:1 #
0.47958952155797895944289166436647 1:-1.4942501 2:1.54901 3:-0.81441897 4:0.0026817201 5:1.14202 6:-1.11217 7:-0.453866 8:0.33788601 9:0.69166398 10:-1.2689199 14:1 20:1 #
1 1:-1.69784 2:1.50433 3:0.92122799 4:-0.86770201 5:-0.40171501 6:-1.24941 7:-1.91072 8:-0.57258499 9:1.18814 10:-0.39064601 14:1 24:1 #
-1 1:-1.92285 2:1.3703001 3:1.7223001 4:-0.98532099 5:-0.50463098 6:-1.00378 7:-2.7698901 8:-0.62316602 9:1.7368701 10:-0.37403199 14:1 24:1 #
-1 1:-2.3585999 2:1.58476 3:1.1882499 4:-0.75949198 5:-0.092967398 6:-1.06279 7:-1.8733701 8:-0.977238 9:0.92683601 10:-1.099 14:1 24:1 #
-1 1:-1.9764301 2:1.4149801 3:1.5887901 4:-0.50543398 5:0.73035997 6:-1.27314 7:-2.5457599 8:-0.67374802 9:1.55396 10:-0.92908901 14:1 24:1 #
1 1:-1.20494 2:-1.01555 3:-0.413885 4:0.43081599 5:-0.487479 6:-0.323329 7:0.36794901 8:-0.42084 9:-0.405801 10:-0.89359498 13:1 16:1 #
0.80481486740425078885152743168874 1:-1.27995 2:-0.69386101 3:1.1882499 4:-0.86770201 5:-0.76192099 6:-0.234824 7:1.11505 8:-1.5842201 9:-1.94748 10:0.023946701 13:1 18:1 #
-1 1:-1.3621 2:-0.72960401 3:1.1882499 4:-0.82065398 5:-0.47032601 6:-0.65682203 7:1.0403399 8:-1.73596 9:-1.99974 10:-1.2221 13:1 18:1 #
-1 1:-1.58354 2:-0.69386101 3:0.38718301 4:-0.067889899 5:-0.436021 6:-1.2058001 7:1.0403399 8:-0.82549298 9:-1.29423 10:-0.52204698 13:1 18:1 #
0.34698729834229852242444280818745 1:-3.01579 2:1.4596601 3:1.85581 4:-0.63716799 5:0.47307 6:-1.19683 7:-2.7698901 8:-1.0784 9:1.47557 10:-0.981951 14:1 24:1 #
1 1:-1.6549799 2:0.94138098 3:0.78771698 4:-0.053775601 5:0.59313899 6:-1.14424 7:-1.68659 8:1.14719 9:1.8936501 10:-1.26816 14:1 24:1 #
1 1:-0.86206198 2:-0.50621003 3:-0.413885 4:0.56725502 5:-1.0878201 6:-1.04996 7:1.00299 8:0.034395501 9:-0.74549299 10:-1.2689199 13:1 18:1 #
1 1:-1.43353 2:-0.64024699 3:0.52069402 4:-0.95238799 5:-0.69331002 6:-0.52983803 7:1.15241 8:-0.92665702 9:-1.4771399 10:-1.01744 13:1 25:1 #
-1 1:-3.01579 2:1.45072 3:1.7223001 4:-0.86770201 5:-0.264494 6:-1.31419 7:-2.65783 8:-0.92665702 9:1.47557 10:-1.07257 14:1 24:1 #
-1 1:-2.49789 2:1.52221 3:2.1228299 4:-0.24196699 5:0.901887 6:-1.0422601 7:-2.99402 8:-1.6348 9:1.2404 10:-1.04161 14:1 24:1 #
-1 1:-3.5408199 2:1.4596601 3:1.4552701 4:-0.82065398 5:0.130017 6:-1.4110301 7:-2.47105 8:-0.82549298 9:1.39718 10:-1.12392 14:1 24:1 #
-1 1:-0.644189 2:-1.06916 3:0.12016 4:-0.703035 5:-0.281647 6:-0.595254 7:0.218528 8:-0.92665702 9:-0.614842 10:0.184045 13:1 47:1 #
-0.063003237770102901715851828612358 1:-0.29059201 2:0.63756597 3:-0.54739702 4:-1.26761 5:-0.79622602 6:-0.63437599 7:-0.26708999 8:1.34952 9:1.0052299 10:0.57296199 13:1 27:1 #
1 1:-1.39424 2:-0.31856 3:0.52069402 4:-0.98532099 5:-1.0020601 6:0.330832 7:1.33919 8:-0.066767797 9:-1.21583 10:-0.704045 13:1 18:1 #
-1 1:-1.75498 2:-0.51514602 3:0.78771698 4:-0.86770201 5:-0.40171501 6:-1.21799 7:1.33919 8:-0.82549298 9:-1.68618 10:-0.83469099 13:1 18:1 #
-1 1:-1.74784 2:-0.390046 3:1.4552701 4:-0.95238799 5:-0.50463098 6:-0.95311803 7:1.52596 8:-0.977238 9:-2.07813 10:-0.92908901 13:1 18:1 #
-1 1:-1.4585299 2:-0.14878 3:0.78771698 4:-0.703035 5:-0.29879901 6:-0.781241 7:1.26448 8:0.28730401 9:-1.05905 10:-0.161072 13:1 18:1 #
0.61670399166500966536830219411058 1:-2.29074 2:-0.74747598 3:1.05474 4:0.129711 5:0.55883402 6:-1.27571 7:1.00299 8:-1.6348 9:-1.84296 10:-0.88604403 14:1 17:1 #
1 1:-2.95507 2:1.51327 3:1.5887901 4:-0.37369999 5:0.798971 6:-1.22953 7:-2.3963399 8:-1.02782 9:1.2404 10:-1.01065 14:1 24:1 #
0.31014906262134300796162733604433 1:-1.53711 2:-0.184523 3:-1.61549 4:-0.24196699 5:-0.50463098 6:-1.45272 7:0.40530401 8:0.74253899 9:0.221322 10:-0.14823399 14:1 20:1 #
-1 1:-2.68362 2:1.3971 3:1.85581 4:-0.067889899 5:1.48508 6:-0.520859 7:-2.8819599 8:-0.82549298 9:1.65848 10:-0.85583597 14:1 24:1 #
-1 1:-2.5657499 2:1.57582 3:1.4552701 4:0.063843802 5:1.69091 6:-0.71390098 7:-2.13485 8:-1.1795599 9:0.979096 10:-0.65495902 14:1 24:1 #
1 1:-1.955 2:-0.31856 3:1.1882499 4:-0.44427201 5:0.21578 6:-1.46426 7:1.48861 8:-0.522003 9:-1.76457 10:-1.26212 13:1 18:1 #
1 1:-2.0264299 2:-0.184523 3:0.92122799 4:-0.63716799 5:-0.12727299 6:-1.46426 7:1.3018301 8:0.13555899 9:-1.1897 10:-1.29308 13:1 18:1 #
1 1:-1.1978 2:-1.06916 3:0.52069402 4:-0.56189102 5:-0.384563 6:-1.1359 7:0.14381801 8:-1.23015 9:-0.79775298 10:-0.56207198 13:1 24:1 #
-1 1:-1.66212 2:-0.461532 3:-0.0133511 4:-1.26761 5:-0.79622602 6:-0.813308 7:1.15241 8:-0.11735 9:-0.98066401 10:-1.04237 13:1 18:1 #
-1 1:-3.2158 2:-0.24707399 3:1.05474 4:-1.26761 5:-0.79622602 6:-0.96786898 7:1.4139 8:-0.16793101 9:-1.45101 10:-1.32329 14:1 15:1 #
-1 1:-3.5193901 2:-0.27388099 3:1.05474 4:-0.86770201 5:-0.436021 6:-1.4277101 7:1.4139 8:-0.218513 9:-1.4771399 10:-1.20095 14:1 15:1 #
1 1:-2.7372 2:1.48646 3:2.52336 4:-0.44427201 5:1.26209 6:-1.11473 7:-3.517 8:-1.88771 9:1.42331 10:-0.83469099 14:1 24:1 #
1 1:-0.65133202 2:1.42391 3:1.5887901 4:0.70839798 5:2.9430499 6:-0.76713198 7:-2.62047 8:-0.77491099 9:1.55396 10:-0.860367 13:1 47:1 #
0.14353415597597982134026040057506 1:-1.95857 2:1.47753 3:1.85581 4:0.14382499 5:2.0168099 6:-0.97364098 7:-2.80725 8:-1.1795599 9:1.39718 10:-0.66477603 14:1 24:1 #
-1 1:-2.6157601 2:1.47753 3:2.1228299 4:-0.13846201 5:1.81098 6:-0.563829 7:-2.99402 8:-1.3818901 9:1.42331 10:-0.82185298 14:1 24:1 #
-1 1:-1.96214 2:1.272 3:2.1228299 4:-0.00672783 5:1.2964 6:-1.3000799 7:-3.2555101 8:-0.471421 9:2.10269 10:-0.803729 14:1 24:1 #
-1 1:-2.00857 2:1.26307 3:1.98932 4:0.43081599 5:1.9482 6:-1.00827 7:-3.1808 8:-0.370258 9:2.10269 10:-1.26212 14:1 24:1 #
1 1:-2.7800601 2:1.56688 3:1.3217601 4:-0.063185103 5:1.60515 6:-1.2077301 7:-2.0975001 8:-1.0784 9:1.0052299 10:-0.96684802 14:1 24:1 #
-0.18902784609216519151608792981278 1:-0.087006196 2:0.932446 3:3.1909201 4:0.72721702 5:3.4061699 6:-0.15594 7:-4.0773301 8:0.23672201 9:2.70368 10:-0.51902699 13:1 27:1 #
1 1:-0.38702801 2:1.69198 3:0.38718301 4:-0.24196699 5:0.164322 6:-0.41055 7:-1.01419 8:-0.57258499 9:0.561014 10:-0.210159 13:1 27:1 #
-1 1:-2.0800099 2:-0.354303 3:0.38718301 4:-0.27019501 5:-0.230189 6:-1.16027 7:1.3018301 8:-0.066767797 9:-1.1897 10:-1.01065 14:1 15:1 #
-1 1:-1.90499 2:-0.48833901 3:0.253672 4:-1.12646 5:-0.76192099 6:-0.90630102 7:1.22712 8:-0.31967601 9:-1.1897 10:-1.03028 14:1 24:1 #
1 1:-1.89785 2:1.25413 3:2.25634 4:0.0120913 5:1.89674 6:-1.01533 7:-3.4049301 8:-0.471421 9:2.1549499 10:-0.61191398 14:1 24:1 #
-1 1:-2.18716 2:1.4596601 3:-0.54739702 4:1.0095 5:3.8692999 6:-0.55677402 7:-0.71535301 8:0.38846701 9:0.90070599 10:-0.70933199 14:1 16:1 #
-1 1:-3.0657899 2:-0.631311 3:0.38718301 4:-1.26761 5:-0.79622602 6:-0.62796199 7:1.11505 8:-0.67374802 9:-1.3203599 10:-0.83771199 14:1 15:1 #
-1 1:-2.9907899 2:-0.23813801 3:0.65420598 4:-1.12646 5:-0.67615801 6:-0.76648998 7:1.3018301 8:0.13555899 9:-1.13744 10:-0.43369201 14:1 31:1 #
1 1:-2.7943399 2:-1.10491 3:3.85848 4:-0.82065398 5:0.28439099 6:-1.18721 7:-1.46246 8:-5.5801702 9:-2.6791201 10:-1.2424901 14:1 24:1 #
1 1:-2.7372 2:-1.11384 3:3.9919901 4:-0.68421501 5:0.953345 6:-1.19683 7:-1.64923 8:-5.7319198 9:-2.6529901 10:-1.26212 14:1 24:1 #
1 1:-0.994214 2:1.07542 3:2.25634 4:-0.32194799 5:0.66175002 6:-0.59461302 7:-3.3675799 8:0.28730401 9:2.4685099 10:-0.72594601 13:1 27:1 #
1 1:-2.1478701 2:-0.23813801 3:1.1882499 4:-0.75949198 5:-0.35025701 6:-1.25711 7:1.4139 8:-0.218513 9:-1.5294 10:-0.531865 14:1 15:1 #
-1 1:-2.28002 2:1.01287 3:2.3898499 4:-0.41133901 5:1.15918 6:-1.29944 7:-3.3675799 8:0.43904901 9:2.5207701 10:-0.420854 14:1 24:1 #
-1 1:-2.6693299 2:1.37923 3:2.52336 4:-0.32194799 5:0.83327597 6:-0.83383 7:-3.62906 8:-1.28073 9:1.86752 10:-0.588503 14:1 24:1 #
-1 1:-2.8943501 2:-1.14958 3:3.4579401 4:0.120301 5:0.88473397 6:-1.23531 7:-1.49981 8:-4.9731898 9:-2.1826501 10:-1.20926 14:1 24:1 #
1 1:-2.47646 2:-0.398981 3:-0.0133511 4:-0.68421501 5:0.0099485395 6:-0.57665497 7:1.15241 8:0.034395501 9:-0.92840302 10:-1.1586601 14:1 16:1 #
1 1:-2.5014601 2:-0.229202 3:0.38718301 4:-0.703035 5:-0.315952 6:-0.59589499 7:1.26448 8:0.23672201 9:-0.98066401 10:-1.13752 14:1 16:1 #
-0.028612473266564464324801519978791 1:-0.56561202 2:-1.3908499 3:-1.8825099 4:0.83072197 5:0.71320802 6:0.477698 7:0.218528 8:0.74253899 9:0.351973 10:3.3210599 11:1 26:1 #
-1 1:-2.0692899 2:-0.80109 3:-0.146862 4:-1.26761 5:-0.79622602 6:-1.0801001 7:0.74150199 8:-0.522003 9:-0.85001302 10:-0.83695698 14:1 16:1 #
-1 1:-1.91571 2:-0.48833901 3:0.253672 4:0.50138801 5:-0.230189 6:-0.95632499 7:1.22712 8:-0.370258 9:-1.24196 10:-0.85432601 14:1 16:1 #
-1 1:-2.7407701 2:-0.434724 3:-0.413885 4:-1.12646 5:-0.79622602 6:-1.4110301 7:1.00299 8:0.13555899 9:-0.693232 10:-1.26212 14:1 16:1 #
1 1:-2.5443201 2:1.17371 3:2.79039 4:-0.32194799 5:1.02196 6:-0.98197901 7:-4.0399699 8:-0.522003 9:2.4946401 10:-0.67685902 14:1 24:1 #
1 1:-1.25852 2:-0.041551199 3:0.92122799 4:-1.12646 5:-0.72761601 6:-0.32845899 7:1.0777 8:0.59079403 9:-0.77162302 10:0.63488603 13:1 18:1 #
0.82510296883989897587241557630477 1:-1.84785 2:1.05755 3:0.52069402 4:0.83072197 5:0.14717001 6:-0.91079003 7:-1.6118799 8:0.944866 9:1.78913 10:-1.3089401 14:1 24:1 #
-1 1:-2.5978999 2:1.35243 3:2.1228299 4:0.129711 5:1.89674 6:-0.531762 7:-3.2555101 8:-0.82549298 9:1.8936501 10:-0.82638401 14:1 24:1 #
-1 1:-2.9157801 2:1.28988 3:2.52336 4:-0.56189102 5:0.42161199 6:-0.66002899 7:-3.7037699 8:-0.82549298 9:2.1549499 10:-1.0559601 14:1 24:1 #
1 1:-0.894207 2:-0.81896198 3:-0.0133511 4:0.38376901 5:-1.03636 6:-1.02495 7:0.74150199 8:-0.67374802 9:-0.92840302 10:-1.3089401 13:1 24:1 #
-1 1:-0.34416699 2:1.6741101 3:0.65420598 4:-0.105528 5:-0.487479 6:-0.39515799 7:-1.2009701 8:-0.77491099 9:0.61327398 10:0.345653 13:1 47:1 #
1 1:-0.84777498 2:-0.92619097 3:-0.146862 4:0.308492 5:-0.88199002 6:-1.01276 7:0.55472499 8:-0.57258499 9:-0.66710198 10:-1.26439 13:1 24:1 #
1 1:-2.8371999 2:1.54901 3:2.52336 4:-0.37369999 5:1.09057 6:-1.16027 7:-3.3675799 8:-2.1912 9:1.13588 10:-0.89586103 14:1 24:1 #
-1 1:-1.49782 2:-0.60450399 3:-0.0133511 4:-0.75949198 5:-0.281647 6:-0.51572901 7:1.0403399 8:-0.370258 9:-1.03292 10:-0.25849 13:1 24:1 #
-1 1:-1.98 2:-0.77428299 3:0.253672 4:-1.12646 5:-0.76192099 6:-1.15257 7:0.853567 8:-0.82549298 9:-1.13744 10:-1.05067 13:1 24:1 #
-1 1:-1.40139 2:-0.95299798 3:0.38718301 4:-0.82065398 5:-0.384563 6:-0.51829398 7:0.48001501 8:-1.1795599 9:-1.03292 10:-0.47598201 13:1 24:1 #
0.6401482634617150502265303657623 1:-3.20509 2:1.82602 3:2.1228299 4:0.14382499 5:2.85729 6:-1.33279 7:-1.8733701 8:-2.64643 9:-0.19676 10:-0.85734701 14:1 19:1 #
0.14716014643152047769447676728305 1:-2.7443399 2:1.82602 3:1.5887901 4:-1.12646 5:-0.60754699 6:-0.46121499 7:-1.49981 8:-2.09004 9:-0.066109203 10:-1.36709 14:1 28:1 #
0.3746726123105383332578810495761 1:-1.98 2:1.81709 3:2.6568799 4:-0.75949198 5:-0.35025701 6:-0.999295 7:-2.28427 8:-3.2534101 9:-0.30127999 10:-0.69498301 13:1 24:1 #
-1 1:-2.6800499 2:1.38817 3:2.25634 4:-0.95238799 5:-0.161578 6:-1.13975 7:-3.3675799 8:-1.12898 9:1.8152601 10:-0.46994001 14:1 24:1 #
-1 1:-2.83006 2:1.4149801 3:2.79039 4:-0.75949198 5:0.747513 6:-1.35331 7:-3.96526 8:-1.78655 9:1.763 10:-0.99856502 14:1 24:1 #
-0.47562491731312778187046319544606 1:-0.80491501 2:-0.82789701 3:-0.81441897 4:1.42823 5:1.50223 6:-0.58627498 7:0.55472499 8:0.034395501 9:-0.30127999 10:0.48989201 11:1 26:1 #
1 1:-1.22637 2:-1.21213 3:0.38718301 4:-1.26761 5:-0.79622602 6:-0.63630003 7:-0.229735 8:-1.0784 9:-0.35354099 10:-0.70933199 13:1 47:1 #
-1 1:-0.89063501 2:-0.96193397 3:0.12016 4:0.063843802 5:-0.84768403 6:-0.978131 7:0.44266 8:-0.87607503 9:-0.77162302 10:-1.31876 13:1 24:1 #
-1 1:-1.3621 2:-0.91725498 3:0.38718301 4:0.52961701 5:-0.55608898 6:-0.81010097 7:0.55472499 8:-1.0784 9:-1.03292 10:-0.59303403 13:1 24:1 #
0.6553877717770517641326932789525 1:-1.89071 2:0.932446 3:0.52069402 4:0.073253401 5:1.3307 6:-0.792144 7:-1.46246 8:1.19777 9:1.763 10:-0.44955 14:1 20:1 #
1 1:-2.7300501 2:1.4149801 3:2.9238999 4:-1.12646 5:-0.55608898 6:-1.09934 7:-4.0026102 8:-1.83713 9:1.763 10:-1.10807 14:1 24:1 #
-1 1:-2.37288 2:1.54008 3:2.6568799 4:-0.84417802 5:0.21578 6:-0.64976799 7:-3.4049301 8:-2.14062 9:1.18814 10:-0.81279099 14:1 24:1 #
-1 1:-2.8371999 2:1.48646 3:2.79039 4:-0.82065398 5:0.19862799 6:-0.75686997 7:-3.7784801 8:-2.14062 9:1.42331 10:-0.68667603 14:1 24:1 #
-1 1:-2.44432 2:1.72773 3:2.52336 4:-0.75949198 5:-0.092967398 6:-1.40911 7:-2.5831201 8:-2.7981801 9:0.19519199 10:-0.89963698 14:1 24:1 #
1 1:-2.2657299 2:-0.434724 3:0.65420598 4:-0.703035 5:-0.075814798 6:-0.73185802 7:1.3765399 8:-0.522003 9:-1.50327 10:-0.67836899 14:1 18:1 #
0.40226337060988515137438525925972 1:-2.23716 2:1.58476 3:-1.61549 4:-0.32194799 5:1.05626 6:-0.85307002 7:0.069107197 8:0.64137602 9:0.45649299 10:-1.01744 14:1 19:1 #
0.69056803062254434877331732423045 1:-3.1336501 2:-0.559825 3:1.5887901 4:-0.56189102 5:-0.24734101 6:-1.37255 7:1.4139 8:-1.68538 9:-2.3655601 10:-1.14885 14:1 24:1 #
-1 1:-1.41567 2:-1.10491 3:-0.28037399 4:0.43552101 5:-1.32796 6:-0.72929299 7:0.181173 8:-0.522003 9:-0.35354099 10:-0.62399697 13:1 18:1 #
-1 1:-1.15137 2:-1.05129 3:0.253672 4:0.37906399 5:-0.95060003 6:-0.43556201 7:0.218528 8:-0.977238 9:-0.66710198 10:-0.20260701 13:1 24:1 #
-1 1:-1.02279 2:-0.92619097 3:-0.146862 4:-0.279605 5:-0.86483699 6:-0.32140499 7:0.55472499 8:-0.57258499 9:-0.66710198 10:-0.340049 13:1 24:1 #
-0.041814884868183632704585761530325 1:-1.3621 2:-0.80109 3:-0.54739702 4:0.43552101 5:0.095711797 6:-0.92874801 7:0.66679102 8:-0.218513 9:-0.56258202 10:1.26697 11:1 43:1 #
1 1:-2.87292 2:1.4954 3:3.05741 4:-0.56189102 5:0.798971 6:-1.15257 7:-3.96526 8:-2.3935299 9:1.39718 10:-0.88000202 14:1 24:1 #
1 1:-1.53354 2:0.99499601 3:0.52069402 4:-0.063185103 5:0.97049701 6:-0.722238 7:-1.57452 8:1.04603 9:1.8152601 10:-1.05067 14:1 20:1 #
-1 1:-3.2836599 2:1.44178 3:2.79039 4:-0.27019501 5:1.24494 6:-1.35716 7:-3.7784801 8:-1.83713 9:1.60622 10:-1.12392 14:1 24:1 #
-1 1:-2.56933 2:1.69198 3:2.52336 4:-0.19491901 5:0.86758101 6:-0.82677603 7:-2.8446 8:-2.7476001 9:0.40423301 10:-1.0597301 14:1 24:1 #
-1 1:-3.21223 2:1.33455 3:3.05741 4:-0.95238799 5:0.112864 6:-1.4257801 7:-4.2641001 8:-1.53364 9:2.07656 10:-0.99781001 14:1 24:1 #
1 1:-1.0085 2:-0.61343902 3:-0.0133511 4:-0.16669001 5:-0.264494 6:-0.035369601 7:1.0403399 8:-0.370258 9:-1.00679 10:0.159124 13:1 24:1 #
1 1:-0.79777098 2:-0.390046 3:-0.81441897 4:0.14853001 5:-0.36741 6:-0.171974 7:0.816212 8:0.43904901 9:-0.327411 10:0.43551901 13:1 18:1 #
1 1:-2.8764901 2:1.4954 3:2.9238999 4:-0.50543398 5:0.901887 6:-1.1660399 7:-3.81584 8:-2.24178 9:1.39718 10:-0.89963698 14:1 24:1 #
-1 1:-1.02993 2:-1.1763901 3:-0.54739702 4:-1.0700099 5:-0.69331002 6:-0.53496897 7:0.106462 8:-0.269095 9:-0.066109203 10:-0.467675 13:1 24:1 #
-1 1:-1.16923 2:-0.229202 3:-0.413885 4:0.14382499 5:0.45591801 6:-0.44582301 7:0.96563298 8:0.54021198 9:-0.45806101 10:0.358491 13:1 18:1 #
-1 1:-0.247732 2:1.43285 3:1.4552701 4:-0.82065398 5:-0.00720412 6:-0.99095702 7:-2.4336901 8:-0.67374802 9:1.47557 10:-0.32192501 13:1 38:1 #
1 1:-1.2763799 2:-1.12278 3:-0.146862 4:0.308492 5:-0.384563 6:-0.48109701 7:0.14381801 8:-0.62316602 9:-0.35354099 10:-0.105189 13:1 25:1 #
0.81495995514093810818678775831359 1:-1.69069 2:0.50353003 3:0.38718301 4:1.36707 5:3.20034 6:-0.88770199 7:-0.304445 8:1.55185 9:1.0052299 10:-0.98874801 14:1 16:1 #
0.062677190404725857675316547101829 1:-1.71569 2:0.101421 3:-0.0133511 4:1.19769 5:3.0802701 6:-0.91335601 7:0.70414603 8:1.04603 9:-0.0399791 10:-1.00612 14:1 16:1 #
1 1:-2.06215 2:1.8081501 3:2.6568799 4:0.0120913 5:1.1248699 6:-1.00763 7:-2.3589799 8:-3.3039999 9:-0.30127999 10:-1.0114 14:1 24:1 #
0.51420046261432883483166733640246 1:-1.35853 2:0.083549298 3:0.65420598 4:-1.26761 5:-0.79622602 6:-0.52983803 7:0.77885699 8:0.99544799 9:-0.24902 10:0.52916098 13:1 31:1 #
-1 1:-2.55147 2:1.77241 3:2.6568799 4:-0.251376 5:1.3821599 6:-1.10576 7:-2.5831201 8:-3.3039999 9:-0.118369 10:-1.31423 14:1 24:1 #
-1 1:-2.21573 2:1.73666 3:1.98932 4:-0.56189102 5:0.91903901 6:-0.64912599 7:-2.17221 8:-2.2923601 9:0.24745201 10:-0.67081797 14:1 24:1 #
-1 1:-2.4836099 2:1.7456 3:1.85581 4:-0.279605 5:0.47307 6:-0.76777297 7:-1.9480799 8:-2.14062 9:0.221322 10:-1.2689199 14:1 24:1 #
1 1:-0.92635202 2:-0.62237501 3:-0.413885 4:-0.467796 5:0.078559197 6:-0.095655002 7:0.89092302 8:-0.066767797 9:-0.66710198 10:0.069257401 13:1 24:1 #
0.44167118506131147759319333090389 1:-2.04072 2:-1.2032 3:2.3898499 4:-1.0700099 5:-0.40171501 6:-0.82228601 7:-1.12626 8:-3.3545799 9:-1.2681 10:-0.916251 14:1 24:1 #
0.10790554443273983609152821827593 1:-1.36924 2:-0.77428299 3:2.3898499 4:-0.86770201 5:-0.69331002 6:-0.135418 7:0.816212 8:-3.2028301 9:-2.88816 10:-1.02877 13:1 24:1 #
-1 1:-1.08351 2:-0.89044797 3:-0.0133511 4:-0.37369999 5:-0.230189 6:-0.0026615399 7:0.59208101 8:-0.62316602 9:-0.77162302 10:-0.67459399 13:1 24:1 #
1 1:-0.90849298 2:-0.765347 3:-1.08144 4:-0.251376 5:0.078559197 6:-0.077697597 7:0.55472499 8:0.23672201 9:-0.19676 10:0.071523003 13:1 46:1 #
-0.40453780090398155921960210434918 1:-0.75491101 2:1.34349 3:-0.413885 4:-0.98532099 5:-0.40171501 6:0.035818499 7:-0.86477399 8:0.54021198 9:1.08362 10:-1.34368 13:1 47:1 #
-1 1:-1.15851 2:-0.264945 3:-0.146862 4:-1.0700099 5:-0.69331002 6:-0.0103575 7:1.0777 8:0.38846701 9:-0.66710198 10:0.36528701 13:1 18:1 #
-1 1:-0.67276198 2:-0.74747598 3:-0.54739702 4:0.59077901 5:-0.092967398 6:0.208979 7:0.70414603 8:-0.11735 9:-0.536452 10:0.066991903 13:1 24:1 #
-1 1:-1.3621 2:-0.559825 3:-0.28037399 4:-1.0700099 5:-0.65900499 6:0.0082411403 7:1.00299 8:-0.066767797 9:-0.823883 10:0.384922 13:1 25:1 #
0.31503450676118549544924007932423 1:-2.5943301 2:-0.82789701 3:2.25634 4:-0.86770201 5:-0.91629499 6:-0.91079003 7:0.66679102 8:-3.1522501 9:-2.6529901 10:-0.75313199 14:1 19:1 #
1 1:-2.68362 2:1.6741101 3:2.25634 4:-0.129052 5:1.82813 6:-1.1179399 7:-2.65783 8:-2.3935299 9:0.53488398 10:-0.84677398 14:1 24:1 #
-1 1:-2.4728899 2:1.60263 3:2.6568799 4:0.035615101 5:1.79383 6:-0.78893697 7:-3.2555101 8:-2.54527 9:0.848445 10:-0.60134101 14:1 24:1 #
1 1:-1.0692199 2:-0.79215401 3:-0.28037399 4:-0.251376 5:-0.60754699 6:-0.33166599 7:0.74150199 8:-0.31967601 9:-0.693232 10:-0.098392203 13:1 25:1 #
1 1:-1.1978 2:-0.51514602 3:-0.0133511 4:0.14382499 5:-0.79622602 6:-0.37976599 7:1.11505 8:-0.218513 9:-1.03292 10:-0.077247202 13:1 25:1 #
-1 1:-1.13351 2:-0.55088902 3:0.253672 4:-0.86770201 5:-0.29879901 6:-0.064870901 7:1.18976 8:-0.471421 9:-1.24196 10:0.32224199 13:1 25:1 #
1 1:-2.6479001 2:1.54008 3:2.6568799 4:-0.19491901 5:1.87959 6:-1.10576 7:-3.47964 8:-2.1912 9:1.18814 10:-0.82865 14:1 24:1 #
-1 1:-0.35845399 2:1.03074 3:0.52069402 4:0.651941 5:2.85729 6:-0.81010097 7:-1.57452 8:0.99544799 9:1.78913 10:-0.167869 13:1 47:1 #
-1 1:-2.0335701 2:1.03074 3:1.3217601 4:0.73662698 5:2.3083999 6:-1.28276 7:-2.3589799 8:0.79312098 9:2.1549499 10:-0.89586103 14:1 24:1 #
-1 1:-1.77284 2:1.28988 3:1.4552701 4:0.186168 5:2.34271 6:-1.38538 7:-2.65783 8:-0.16793101 9:1.8936501 10:-0.24565201 14:1 24:1 #
1 1:-3.17294 2:-0.559825 3:1.85581 4:-1.12646 5:-0.67615801 6:-1.18015 7:1.4139 8:-1.98887 9:-2.6268599 10:-1.04916 14:1 17:1 #
1 1:-2.0871501 2:-0.51514602 3:2.25634 4:-0.84417802 5:-0.161578 6:-1.27507 7:1.48861 8:-2.14062 9:-2.86203 10:-1.20095 13:1 17:1 #
0.93210300721071337459733285868424 1:-2.0800099 2:-0.52408201 3:1.98932 4:-0.84417802 5:-0.12727299 6:-1.28212 7:1.48861 8:-1.88771 9:-2.6529901 10:-1.19189 13:1 17:1 #
-1 1:-3.08008 2:-0.48833901 3:2.25634 4:-0.98532099 5:-0.36741 6:-1.06856 7:1.52596 8:-2.14062 9:-2.88816 10:-1.46376 14:1 17:1 #
-1 1:-2.9300699 2:-0.48833901 3:2.3898499 4:-0.75949198 5:0.25008601 6:-1.0570101 7:1.52596 8:-2.1912 9:-2.9404199 10:-1.46376 14:1 17:1 #
-1 1:-3.20509 2:-0.461532 3:2.6568799 4:-0.98532099 5:-0.230189 6:-1.3295799 7:1.52596 8:-2.4441099 9:-3.20172 10:-1.20095 14:1 17:1 #
1 1:-1.98357 2:-1.31043 3:2.52336 4:0.14382499 5:1.50223 6:-1.00571 7:-1.83601 8:-3.45574 9:-0.79775298 10:-0.98421699 14:1 24:1 #
1 1:-2.13358 2:-0.95299798 3:2.1228299 4:-0.75949198 5:0.28439099 6:-0.72608602 7:0.14381801 8:-3.2028301 9:-2.23491 10:-0.603607 14:1 24:1 #
-1 1:-2.12644 2:1.30775 3:1.1882499 4:0.73662698 5:1.31355 6:-1.2135 7:-2.3589799 8:-0.066767797 9:1.78913 10:-0.113496 14:1 24:1 #
-1 1:-1.88713 2:1.22733 3:1.3217601 4:-0.129052 5:1.79383 6:-1.3064899 7:-2.5084 8:0.13555899 9:1.9720401 10:-0.19279 14:1 24:1 #
-1 1:-2.9514999 2:1.34349 3:0.65420598 4:0.308492 5:1.31355 6:-1.26096 7:-1.83601 8:0.084977202 9:1.52783 10:-1.01895 14:1 24:1 #
0.55129335795064227099260278919246 1:-3.16223 2:-0.872576 3:2.52336 4:0.43081599 5:-0.62470001 6:-1.2641701 7:0.36794901 8:-3.6074901 9:-2.7575099 10:-0.79315698 14:1 15:1 #
0.88023206490918959321589909450267 1:-1.5513999 2:-1.06023 3:-1.61549 4:-0.41133901 5:-0.57324201 6:-1.4257801 7:0.25588301 8:0.54021198 9:0.221322 10:-0.178441 14:1 20:1 #
0.099624477308623046734048500638892 1:-3.6122601 2:-0.872576 3:1.98932 4:-0.19491901 5:0.86758101 6:-1.3687 7:0.51736999 8:-2.7981801 9:-2.26104 10:-0.92153698 14:1 15:1 #
0.31415786737219225654982324158482 1:-1.61569 2:1.0218 3:0.38718301 4:-0.063185103 5:0.59313899 6:-1.16476 7:-1.4251 8:1.04603 9:1.71074 10:-1.3089401 14:1 24:1 #
-1 1:-3.3550999 2:-0.81002599 3:1.85581 4:-1.26761 5:-0.79622602 6:-1.3295799 7:0.77885699 8:-2.59585 9:-2.3394301 10:-0.95174402 14:1 15:1 #
-1 1:-2.05143 2:-0.595568 3:1.85581 4:-0.98532099 5:-0.55608898 6:-1.03777 7:1.33919 8:-1.98887 9:-2.5223401 10:-0.660245 13:1 18:1 #
-1 1:-3.33724 2:-0.836833 3:1.4552701 4:0.0120913 5:0.30154401 6:-1.2693 7:0.74150199 8:-2.14062 9:-1.97361 10:-1.35954 14:1 19:1 #
0.43078042876250710602192839360214 1:-0.77991301 2:1.3971 3:0.52069402 4:0.53902602 5:-0.00720412 6:-0.309861 7:-1.6118799 8:0.034395501 9:1.34492 10:0.273911 13:1 24:1 #
1 1:-1.82284 2:1.2362601 3:1.1882499 4:0.17205399 5:2.2569499 6:-1.04162 7:-2.28427 8:0.23672201 9:1.86752 10:-0.58246201 14:1 24:1 #
0.60995520575732475876407079340424 1:-3.6336901 2:-1.38191 3:3.59146 4:-0.68421501 5:0.696055 6:-1.43027 7:-3.0313799 8:-4.5685401 9:-0.71936202 10:-0.82260901 14:1 19:1 #
1 1:-2.5764699 2:-0.470467 3:1.85581 4:-1.0700099 5:-0.52178401 6:-1.0025001 7:1.52596 8:-1.5842201 9:-2.4700799 10:-0.69875902 14:1 18:1 #
-1 1:-2.1728699 2:1.59369 3:1.1882499 4:-0.105528 5:1.8452801 6:-0.63822401 7:-1.8733701 8:-1.02782 9:0.90070599 10:-0.81958801 14:1 16:1 #
1 1:-3.5086801 2:-0.60450399 3:1.05474 4:-1.0700099 5:-0.64185202 6:-1.33279 7:1.26448 8:-1.23015 9:-1.86909 10:-1.10958 14:1 15:1 #
0.45925975085134723707724901942129 1:-3.0407901 2:-0.58663201 3:1.7223001 4:-0.86770201 5:-0.57324201 6:-1.20837 7:1.3765399 8:-1.83713 9:-2.4439499 10:-0.94041598 14:1 15:1 #
-1 1:-0.58346999 2:1.38817 3:0.92122799 4:0.50138801 5:1.4679199 6:-0.64271301 7:-2.02279 8:-0.16793101 9:1.5017 10:-0.566603 13:1 38:1 #
0.82478288198140270459646217204863 1:-1.25495 2:-0.74747598 3:1.5887901 4:-0.68421501 5:-0.55608898 6:-0.092448302 7:1.00299 8:-2.09004 9:-2.2087801 10:-0.98874801 13:1 24:1 #
0.17036735701476560245204439070221 1:-2.07286 2:-1.23894 3:2.3898499 4:-1.12646 5:-0.45317301 6:-1.18977 7:-1.31304 8:-3.40516 9:-1.13744 10:-1.04237 14:1 24:1 #
-1 1:-3.6015401 2:-0.65811801 3:1.05474 4:-0.56189102 5:0.0271012 6:-1.4110301 7:1.18976 8:-1.48306 9:-1.92135 10:-0.94721299 14:1 17:1 #
-1 1:-2.85149 2:0.0120633 3:2.25634 4:-0.98532099 5:-0.36741 6:-1.31675 7:0.89092302 8:0.13555899 9:-1.2681 10:-1.11562 14:1 15:1 #
0.85841223454857340513513008772861 1:-0.769198 2:1.47753 3:1.1882499 4:0.61430299 5:2.3770199 6:-0.81779701 7:-2.13485 8:-0.62316602 9:1.31879 10:-0.928334 13:1 47:1 #
1 1:-0.704907 2:1.51327 3:1.4552701 4:0.78837901 5:2.68576 6:-0.81010097 7:-2.28427 8:-0.92665702 9:1.2404 10:-0.90492302 13:1 47:1 #
0.2762136002574762105865602279664 1:-1.99429 2:1.35243 3:1.1882499 4:0.81660801 5:2.29125 6:-0.91463798 7:-2.3589799 8:-0.269095 9:1.65848 10:-0.70253497 14:1 24:1 #
0.24528948206071107818182497339876 1:-2.5264699 2:-0.220266 3:0.38718301 4:-0.75949198 5:-0.436021 6:-0.61449403 7:1.22712 8:0.23672201 9:-0.98066401 10:-1.11562 14:1 16:1 #
-1 1:-1.84785 2:1.4149801 3:0.92122799 4:0.75544602 5:3.20034 6:-0.80112201 7:-1.9480799 8:-0.269095 9:1.42331 10:-0.90567797 14:1 24:1 #
-1 1:0.113008 2:1.47753 3:1.5887901 4:0.75544602 5:3.0631199 6:-1.02046 7:-2.5084 8:-0.977238 9:1.34492 10:-0.52129197 13:1 47:1 #
-1 1:-0.037002601 2:1.50433 3:0.78771698 4:0.83072197 5:2.4970801 6:-1.16668 7:-1.7613 8:-0.471421 9:1.16201 10:-0.531865 13:1 47:1 #
1 1:-2.4121699 2:-0.62237501 3:0.52069402 4:-0.56189102 5:-0.50463098 6:-1.36742 7:1.15241 8:-0.77491099 9:-1.42488 10:-0.77276701 14:1 17:1 #
0.88837758825786528049661683326121 1:-2.6193299 2:-0.30962399 3:1.4552701 4:-0.95238799 5:-0.24734101 6:-0.53368598 7:1.52596 8:-0.62316602 9:-1.86909 10:-1.1412899 14:1 16:1 #
1 1:-2.4800301 2:-0.086230002 3:0.38718301 4:-0.36429101 5:-0.12727299 6:-1.3417701 7:1.0777 8:0.59079403 9:-0.66710198 10:-0.95476502 14:1 17:1 #
-1 1:-2.2978799 2:-0.40791699 3:0.253672 4:-0.56189102 5:-0.29879901 6:-0.760077 7:1.22712 8:-0.11735 9:-1.11131 10:-0.74633503 14:1 17:1 #
-1 1:-2.31217 2:-0.470467 3:-0.0133511 4:-0.56189102 5:-0.161578 6:-1.45272 7:1.15241 8:-0.11735 9:-1.03292 10:-1.31423 14:1 25:1 #
1 1:-0.57632703 2:1.09329 3:1.5887901 4:0.623712 5:3.14889 6:-0.64656103 7:-2.7325399 8:0.489631 9:2.23334 10:-0.72518998 13:1 27:1 #
1 1:-0.52632302 2:1.28988 3:1.7223001 4:0.78837901 5:3.5434 6:-0.69850898 7:-2.9193101 8:-0.370258 9:1.9720401 10:-0.77050102 13:1 47:1 #
-1 1:-0.0262876 2:1.21839 3:1.5887901 4:0.99538898 5:1.89674 6:-0.17518 7:-2.7698901 8:0.084977202 9:2.07656 10:-0.64967299 13:1 47:1 #
-0.76221404793730962445863497123355 1:-0.39774299 2:0.86096001 3:2.79039 4:0.426112 5:2.6171501 6:-0.27458701 7:-3.33022 8:0.74253899 9:2.4946401 10:-0.36270499 13:1 27:1 #
-1 1:0.17372701 2:1.12903 3:1.85581 4:0.61430299 5:2.8229799 6:0.062754497 7:-2.99402 8:0.23672201 9:2.2855999 10:-0.40650499 13:1 47:1 #
-0.23557662813669749679590381674643 1:-0.57275498 2:-0.71173298 3:2.3898499 4:-0.13846201 5:-2.94031 6:-1.3064899 7:1.0403399 8:-3.00051 9:-2.9404199 10:0.0450917 11:1 44:1 #
0.58105358792567329828671063296497 1:-2.0050001 2:-0.908319 3:1.7223001 4:-0.56189102 5:0.14717001 6:-1.10704 7:0.44266 8:-2.59585 9:-2.0258701 10:-1.15036 14:1 17:1 #
1 1:-0.544182 2:1.2452 3:1.5887901 4:0.69898802 5:3.37187 6:-0.67285597 7:-2.7698901 8:-0.016186099 9:2.0243001 10:-0.74784601 13:1 47:1 #
-1 1:-2.3871701 2:-0.71173298 3:0.38718301 4:-0.98532099 5:-0.47032601 6:-0.76969701 7:0.96563298 8:-0.82549298 9:-1.29423 10:-0.93588501 14:1 17:1 #
-1 1:-1.94428 2:-0.72960401 3:0.52069402 4:-0.98532099 5:-0.315952 6:-0.94798797 7:1.00299 8:-1.02782 9:-1.3987499 10:-0.45106101 14:1 20:1 #
-1 1:-2.83006 2:-0.47940299 3:0.12016 4:-0.37369999 5:-0.230189 6:-0.637582 7:1.18976 8:-0.218513 9:-1.11131 10:-1.25079 14:1 17:1 #
1 1:-0.46560499 2:1.2362601 3:0.78771698 4:0.129711 5:2.3083999 6:-0.40221301 7:-1.8733701 8:0.38846701 9:1.7368701 10:-0.371012 13:1 18:1 #
1 1:-0.62990201 2:1.06648 3:1.5887901 4:0.50138801 5:2.7886801 6:-0.63822401 7:-2.6951799 8:0.59079403 9:2.25947 10:-0.72368002 13:1 27:1 #
1 1:-0.29773599 2:1.35243 3:-0.0133511 4:0.204987 5:0.59313899 6:-0.35282999 7:-1.16362 8:0.38846701 9:1.2404 10:-0.24187601 13:1 48:1 #
-1 1:-0.53703803 2:1.13797 3:1.5887901 4:0.43081599 5:1.96535 6:-0.78444803 7:-2.65783 8:0.38846701 9:2.1549499 10:-0.352887 13:1 42:1 #
-1 1:-1.27995 2:0.78053802 3:1.4552701 4:0.56725502 5:2.2054901 6:-0.127722 7:-1.83601 8:1.34952 9:1.9720401 10:-1.25457 13:1 18:1 #
-1 1:-0.30130699 2:1.4596601 3:0.65420598 4:0.426112 5:1.9482 6:-0.68504101 7:-1.68659 8:-0.218513 9:1.2404 10:0.34036699 13:1 47:1 #
1 1:-2.06215 2:-0.50621003 3:0.78771698 4:-0.63716799 5:0.164322 6:-0.82036197 7:1.33919 8:-0.72433001 9:-1.60779 10:-0.54696798 14:1 20:1 #
1 1:-2.04072 2:-0.54195303 3:0.92122799 4:-0.56189102 5:0.26723799 6:-0.88064802 7:1.33919 8:-0.92665702 9:-1.73844 10:-0.525823 14:1 20:1 #
0.28468157111070468978653025260428 1:-1.90142 2:-0.354303 3:0.78771698 4:0.14382499 5:0.67890197 6:-1.09934 7:1.3765399 8:-0.31967601 9:-1.45101 10:-0.43369201 14:1 15:1 #
-1 1:-1.57283 2:-0.58663201 3:-0.0133511 4:-0.50543398 5:-0.17873099 6:-1.35203 7:1.0403399 8:-0.269095 9:-0.98066401 10:-0.1943 14:1 20:1 #
-1 1:-1.96928 2:-0.765347 3:-0.146862 4:-0.56189102 5:-0.24734101 6:-0.82549298 7:0.816212 8:-0.522003 9:-0.902273 10:-0.853571 14:1 20:1 #
-1 1:-1.91214 2:-0.36323801 3:-0.0133511 4:-0.95238799 5:-0.487479 6:-1.01661 7:1.15241 8:0.13555899 9:-0.87614298 10:-0.37478799 14:1 20:1 #
0.16347463013818563926093929694616 1:-3.2407999 2:0.932446 3:1.3217601 4:0.59077901 5:1.43362 6:-1.23146 7:-2.0601399 8:1.09661 9:2.10269 10:-0.77125603 14:1 15:1 #
0.70147863975081481413553774473257 1:-2.00143 2:0.57501602 3:1.98932 4:-0.36429101 5:1.4164701 6:-0.70363998 7:-1.4251 8:1.45068 9:1.5017 10:-1.08994 14:1 15:1 #
-0.2571603878516009467070091432106 1:-1.35495 2:-0.44365999 3:3.32443 4:-0.95238799 5:-0.092967398 6:-0.470835 7:1.45125 8:-3.05109 9:-3.7243299 10:-0.38082901 13:1 27:1 #
-1 1:-2.98364 2:0.82521701 3:1.7223001 4:-0.44427201 5:1.22779 6:-1.29238 7:-2.2469201 8:1.19777 9:2.1549499 10:-1.3353699 14:1 19:1 #
-1 1:-3.05865 2:0.61075902 3:1.5887901 4:-0.32194799 5:0.57598603 6:-1.19683 7:-1.35039 8:1.50126 9:1.58009 10:-1.15564 14:1 15:1 #
-1 1:-3.10865 2:0.94138098 3:1.85581 4:-0.67010099 5:0.33584899 6:-1.3840899 7:-2.6951799 8:0.89428401 9:2.3378601 10:-1.07408 14:1 24:1 #
1 1:-0.57989901 2:1.51327 3:1.85581 4:-0.067889899 5:-0.264494 6:-0.368222 7:-2.62047 8:-1.28073 9:1.2404 10:-0.357418 13:1 27:1 #
0.63525965853723564968902337568579 1:-1.05493 2:1.42391 3:1.05474 4:-1.12646 5:-0.53893697 6:-0.66131198 7:-2.13485 8:-0.42084 9:1.44944 10:-0.97364402 13:1 34:1 #
-0.17688864256027664323411840996414 1:-0.412029 2:1.70986 3:-0.68090802 4:-0.063185103 5:0.81612301 6:0.32698399 7:-0.304445 8:0.13555899 9:0.48262301 10:0.66886902 11:1 26:1 #
-1 1:-2.12644 2:-0.75641102 3:-0.68090802 4:-0.56189102 5:-0.57324201 6:-1.27507 7:0.70414603 8:-0.066767797 9:-0.484191 10:-0.96231699 13:1 16:1 #
-1 1:-2.11215 2:-0.88151199 3:-0.413885 4:-0.420748 5:-0.65900499 6:-1.26609 7:0.59208101 8:-0.370258 9:-0.58871198 10:-0.96684802 13:1 16:1 #
-1 1:-1.43353 2:-0.130909 3:-0.146862 4:-0.32194799 5:-0.89914203 6:-0.71646601 7:1.00299 8:0.64137602 9:-0.45806101 10:-0.46389899 13:1 16:1 #
1 1:-3.5515399 2:0.67330903 3:2.3898499 4:-0.703035 5:-0.058662102 6:-1.33407 7:-2.17221 8:1.2989399 9:1.91978 10:-0.89737099 14:1 15:1 #
-0.093329392685317438815850721312017 1:-1.06565 2:-0.354303 3:1.4552701 4:-1.0700099 5:-0.487479 6:-0.18672401 7:1.52596 8:-0.82549298 9:-1.99974 10:2.0576401 11:1 44:1 #
0.86372170304357609449397159551154 1:-2.4728899 2:1.22733 3:2.9238999 4:-0.19491901 5:-0.47032601 6:-0.91463798 7:-4.2267499 8:-0.87607503 9:2.41625 10:-0.77050102 14:1 24:1 #
-1 1:-2.5943301 2:0.50353003 3:1.98932 4:-0.84417802 5:-0.00720412 6:-0.86782098 7:-1.12626 8:1.45068 9:1.2404 10:-1.07786 14:1 15:1 #
-1 1:-3.0729301 2:1.01287 3:1.05474 4:-0.84417802 5:-0.19588301 6:-1.1763 7:-1.98543 8:0.944866 9:1.99817 10:-0.89737099 14:1 20:1 #
-1 1:-2.1443 2:0.968189 3:1.85581 4:-0.37369999 5:0.55883402 6:-1.18464 7:-2.7325399 8:0.79312098 9:2.3378601 10:-0.112741 14:1 18:1 #
1 1:-0.544182 2:-0.667054 3:0.78771698 4:0.52961701 5:1.1248699 6:-0.84858102 7:1.11505 8:-1.12898 9:-1.60779 10:-1.18736 13:1 38:1 #
0.83165022791690690340260516677517 1:-1.72284 2:-1.29256 3:-0.28037399 4:-0.703035 5:-0.436021 6:-1.35203 7:-0.19238 8:-0.471421 9:0.038411301 10:-0.62701702 14:1 25:1 #
-1 1:-1.45496 2:-0.78321898 3:0.253672 4:0.308492 5:-0.384563 6:-1.17053 7:0.853567 8:-0.87607503 9:-1.13744 10:-0.55754101 13:1 16:1 #
-1 1:-1.38353 2:-0.82789701 3:-1.08144 4:-0.32194799 5:0.130017 6:-0.70556402 7:0.51736999 8:0.186141 9:-0.19676 10:-0.55980599 13:1 16:1 #
-1 1:-1.44425 2:-0.85470498 3:-0.68090802 4:0.17205399 5:0.095711797 6:-0.87230998 7:0.59208101 8:-0.11735 9:-0.43193099 10:-0.39895299 13:1 25:1 #
1 1:-2.9622099 2:1.03967 3:1.5887901 4:-0.16669001 5:0.044253901 6:-1.2539001 7:-2.62047 8:0.69195801 9:2.25947 10:-0.89208502 14:1 24:1 #
1 1:-1.72998 2:0.896703 3:1.1882499 4:-0.19491901 5:0.232933 6:-1.14552 7:-1.98543 8:1.19777 9:2.0504301 10:-1.24551 14:1 24:1 #
1 1:-1.67998 2:0.90563798 3:1.1882499 4:-0.067889899 5:0.47307 6:-1.13718 7:-1.9480799 8:1.14719 9:2.0243001 10:-1.24626 14:1 24:1 #
-1 1:-2.2335899 2:1.18265 3:1.7223001 4:-0.95238799 5:-0.213036 6:-1.24813 7:-2.8819599 8:0.13555899 9:2.1810801 10:-0.275859 14:1 24:1 #
-1 1:-2.3336 2:1.30775 3:2.1228299 4:0.14382499 5:-0.89914203 6:-1.16668 7:-3.2555101 8:-0.62316602 9:1.99817 10:-1.00536 14:1 24:1 #
1 1:-0.79062802 2:-0.57769603 3:-0.0133511 4:0.308492 5:-0.84768403 6:-1.02495 7:1.0777 8:-0.269095 9:-1.00679 10:-1.2002 13:1 18:1 #
1 1:-0.76205403 2:-0.56876099 3:-0.413885 4:0.14853001 5:-0.72761601 6:-1.00378 7:0.96563298 8:-0.066767797 9:-0.74549299 10:-1.17528 13:1 25:1 #
-1 1:-1.25852 2:-0.47940299 3:-0.146862 4:-0.13846201 5:-0.67615801 6:-1.19683 7:1.11505 8:-0.066767797 9:-0.92840302 10:-0.61191398 13:1 18:1 #
-1 1:-0.93349499 2:-0.79215401 3:-0.28037399 4:0.308492 5:-0.35025701 6:-1.2622401 7:0.74150199 8:-0.31967601 9:-0.693232 10:-0.57793099 13:1 25:1 #
-0.49756147936317374202985774900299 1:-0.67276198 2:-0.702797 3:-0.68090802 4:0.70839798 5:-0.69331002 6:-1.06279 7:0.74150199 8:0.034395501 9:-0.45806101 10:-1.08541 13:1 25:1 #
-1 1:-0.437031 2:-1.0870301 3:0.52069402 4:0.035615101 5:0.42161199 6:-0.00137887 7:0.069107197 8:-1.33131 9:-0.77162302 10:-1.13752 13:1 24:1 #
0.31809485556685873630655692068103 1:-2.5550399 2:1.21839 3:2.79039 4:-0.063185103 5:-0.84768403 6:-0.90309399 7:-4.1146798 8:-0.77491099 9:2.39012 10:-0.79315698 14:1 24:1 #
1 1:-0.76205403 2:-0.54195303 3:-0.146862 4:0.289673 5:-0.77907401 6:-1.02302 7:1.0403399 8:-0.11735 9:-0.85001302 10:-1.1775399 13:1 25:1 #
-1 1:-3.31938 2:1.30775 3:1.98932 4:-1.12646 5:-0.47032601 6:-1.45272 7:-3.0687301 8:-0.522003 9:1.94591 10:-0.99629998 14:1 24:1 #
-1 1:-2.2550199 2:1.2809401 3:2.25634 4:-0.63716799 5:-0.144425 6:-1.00699 7:-3.4049301 8:-0.57258499 9:2.10269 10:-1.00536 14:1 20:1 #
-1 1:-2.9300699 2:1.18265 3:3.32443 4:-0.84417802 5:0.26723799 6:-0.59268898 7:-4.63765 8:-0.977238 9:2.57303 10:-0.85130501 14:1 24:1 #
0.094234150743679384598650017323962 1:-2.07286 2:1.8081501 3:2.6568799 4:0.063843802 5:-0.17873099 6:-1.04804 7:-2.3589799 8:-3.3039999 9:-0.30127999 10:-1.07786 14:1 24:1 #
1 1:-1.23352 2:-0.34536701 3:-0.28037399 4:-0.82065398 5:-0.55608898 6:-0.15850601 7:1.0403399 8:0.28730401 9:-0.66710198 10:0.171207 13:1 25:1 #
-1 1:-1.4371001 2:-0.86364001 3:-0.413885 4:-0.467796 5:0.095711797 6:-0.460574 7:0.59208101 8:-0.31967601 9:-0.58871198 10:-0.19883101 13:1 25:1 #
-1 1:-1.13708 2:-0.300688 3:0.12016 4:-0.50543398 5:-0.50463098 6:-0.298958 7:1.18976 8:0.186141 9:-0.902273 10:-0.98874801 13:1 25:1 #
-1 1:-1.6656899 2:-0.390046 3:-0.413885 4:-0.98532099 5:-1.07067 6:-0.74404401 7:1.00299 8:0.23672201 9:-0.64097202 10:-0.32796699 13:1 18:1 #
-1 1:-1.25852 2:-0.40791699 3:-0.146862 4:-0.36429101 5:-0.00720412 6:-0.52534902 7:1.15241 8:0.084977202 9:-0.902273 10:-0.707066 13:1 18:1 #
0.19577213829157225077892690023873 1:-1.81213 2:-0.23813801 3:0.52069402 4:-1.12646 5:-0.91629499 6:-0.27651101 7:1.26448 8:0.186141 9:-1.05905 10:-1.28629 13:1 30:1 #
1 1:-2.3764601 2:1.22733 3:2.9238999 4:-0.420748 5:0.64459699 6:-0.94157398 7:-4.1893902 8:-0.87607503 9:2.39012 10:-0.93588501 14:1 20:1 #
-1 1:-2.06215 2:1.26307 3:3.1909201 4:-0.36429101 5:0.88473397 6:-1.31675 7:-4.5629401 8:-1.33131 9:2.3378601 10:-0.76596999 14:1 24:1 #
-1 1:-3.04793 2:1.20052 3:2.79039 4:-0.067889899 5:2.58285 6:-1.3295799 7:-4.0026102 8:-0.57258499 9:2.41625 10:-1.29308 14:1 24:1 #
1 1:-3.3801 2:-1.11384 3:0.253672 4:-0.84417802 5:-0.315952 6:-1.3687 7:0.069107197 8:-1.02782 9:-0.58871198 10:-1.20548 14:1 24:1 #
-1 1:-1.06208 2:0.020998999 3:0.52069402 4:-0.98532099 5:-0.60754699 6:-0.19377901 7:0.92827803 8:0.84370297 9:-0.43193099 10:0.35622501 13:1 18:1 #
-1 1:-1.35495 2:0.029934799 3:0.65420598 4:-0.98532099 5:-1.12213 6:-0.62988597 7:0.89092302 8:0.84370297 9:-0.43193099 10:-0.76143903 13:1 18:1 #
-1 1:-0.81563002 2:-0.059422798 3:0.92122799 4:-0.98532099 5:-0.55608898 6:-0.611929 7:1.11505 8:0.54021198 9:-0.85001302 10:-0.42160901 13:1 18:1 #
1 1:-2.46575 2:1.1469001 3:2.6568799 4:-0.19491901 5:1.57084 6:-0.999295 7:-3.9279001 8:-0.31967601 9:2.4946401 10:-0.67459399 14:1 24:1 #
1 1:-2.5371799 2:1.20945 3:2.52336 4:-0.279605 5:1.8452801 6:-1.03585 7:-3.7411301 8:-0.471421 9:2.3378601 10:-0.74256003 14:1 24:1 #
0.2390738080200323634194603528158 1:-2.4086001 2:1.30775 3:2.79039 4:-0.56189102 5:0.49022299 6:-0.93644398 7:-4.0773301 8:-1.1795599 9:2.1810801 10:-0.96684802 14:1 24:1 #
-1 1:-3.1443701 2:1.12903 3:2.6568799 4:-0.703035 5:0.52452803 6:-1.35203 7:-3.81584 8:-0.16793101 9:2.5207701 10:-1.39957 14:1 19:1 #
1 1:-1.6014 2:0.17290699 3:1.05474 4:-1.26761 5:-0.79622602 6:-0.094372302 7:0.51736999 8:1.09661 9:-0.092239402 10:-0.85734701 13:1 18:1 #
1 1:-1.46568 2:0.1461 3:1.7223001 4:-1.26761 5:-0.79622602 6:0.163444 7:0.51736999 8:0.84370297 9:-0.37967101 10:-0.838467 13:1 18:1 #
1 1:-1.95143 2:-0.36323801 3:2.3898499 4:-1.26761 5:-0.79622602 6:-1.17502 7:1.56332 8:-1.68538 9:-2.7836399 10:-1.07786 13:1 18:1 #
-1 1:-0.28344899 2:0.74479502 3:-0.413885 4:-0.27019501 5:0.50737602 6:-0.52599001 7:-0.453866 8:1.2989399 9:1.13588 10:-0.087819703 13:1 48:1 #
-1 1:-0.094149597 2:1.60263 3:0.12016 4:1.16947 5:1.51938 6:0.55145103 7:-0.97684002 8:-0.218513 9:0.770055 10:-0.96684802 13:1 24:1 #
0.14265865895016291431396382449748 1:-3.6194 2:1.26307 3:2.3898499 4:-0.251376 5:0.73035997 6:-1.39179 7:-3.66642 8:-0.67374802 9:2.2072101 10:-0.885288 14:1 19:1 #
0.43156518576837221701225644210353 1:-3.4158199 2:-1.18533 3:1.3217601 4:-0.82065398 5:-0.19588301 6:-1.23915 7:-0.52857703 8:-2.1912 9:-0.87614298 10:-1.0786099 14:1 24:1 #
1 1:-3.5301099 2:1.18265 3:2.1228299 4:-0.105528 5:1.2964 6:-1.37255 7:-3.2555101 8:-0.066767797 9:2.2855999 10:-0.87244999 14:1 19:1 #
1 1:-0.81920099 2:-1.10491 3:-0.68090802 4:0.72721702 5:1.0391099 6:0.126247 7:0.218528 8:-0.11735 9:-0.092239402 10:-0.38536 13:1 46:1 #
-1 1:-3.2729499 2:0.84308797 3:2.6568799 4:-0.98532099 5:-0.092967398 6:-1.39179 7:-3.14344 8:0.84370297 9:2.44238 10:-1.37313 14:1 19:1 #
-1 1:-2.01214 2:1.68305 3:1.4552701 4:-0.50543398 5:0.59313899 6:-1.34369 7:-1.8733701 8:-1.53364 9:0.561014 10:-1.37313 14:1 24:1 #
1 1:-1.0120699 2:-0.184523 3:-0.81441897 4:0.0026817201 5:0.78181797 6:-0.375918 7:0.77885699 8:0.69195801 9:-0.17062999 10:0.49064699 13:1 18:1 #
-1 1:-2.12644 2:-0.60450399 3:1.4552701 4:-0.00672783 5:2.22264 6:-0.93002999 7:1.3018301 8:-1.6348 9:-2.2087801 10:-0.531865 14:1 15:1 #
-1 1:-3.0943601 2:1.1915801 3:3.1909201 4:-0.105528 5:2.5999999 6:-1.30906 7:-4.5255899 8:-0.92665702 9:2.5207701 10:-1.21153 14:1 24:1 #
1 1:-0.294164 2:1.81709 3:-0.28037399 4:0.14853001 5:0.61029202 6:-0.37527701 7:-0.37915599 8:-0.269095 9:0.27358201 10:-0.197321 13:1 45:1 #
1 1:-0.394171 2:1.70092 3:0.12016 4:-0.547777 5:0.130017 6:-0.498413 7:-0.79006398 8:-0.370258 9:0.53488398 10:-0.090840399 13:1 45:1 #
-1 1:-0.82277298 2:-0.970869 3:-0.54739702 4:0.34142601 5:0.19862799 6:-0.0020202 7:0.44266 8:-0.31967601 9:-0.405801 10:0.081340298 13:1 46:1 #
-1 1:-0.98349899 2:-0.059422798 3:-0.28037399 4:0.308492 5:0.061406501 6:-0.070001602 7:0.89092302 8:0.79312098 9:-0.27515 10:0.32677299 13:1 18:1 #
-1 1:-0.51918 2:1.78134 3:-0.413885 4:-0.82065398 5:-0.53893697 6:-0.78316498 7:-0.416511 8:-0.16793101 9:0.351973 10:0.64847898 13:1 45:1 #
0.5381330293624526639462146704318 1:-1.45139 2:-0.15771601 3:-0.146862 4:-1.12646 5:-0.72761601 6:-0.64591998 7:1.00299 8:0.59079403 9:-0.484191 10:-0.50014699 13:1 31:1 #
-0.0047119370311822488667230501846461 1:-1.31209 2:1.56688 3:1.85581 4:-1.0700099 5:-0.40171501 6:-0.64078897 7:-2.62047 8:-1.5842201 9:1.05749 10:3.5128701 11:1 43:1 #
0.96320448994574159318204920054995 1:-2.6371901 2:1.79921 3:1.85581 4:-0.63716799 5:0.33584899 6:-0.548437 7:-1.72394 8:-2.2923601 9:-0.0399791 10:-1.21153 14:1 24:1 #
-1 1:-2.3478799 2:1.66518 3:2.3898499 4:0.14853001 5:2.23979 6:-0.87230998 7:-2.6951799 8:-2.3935299 9:0.561014 10:-0.54394799 14:1 24:1 #
-1 1:-1.73712 2:1.81709 3:1.3217601 4:0.14382499 5:1.10772 6:-1.04162 7:-1.31304 8:-1.78655 9:-0.013849 10:-0.55149901 14:1 24:1 #
-1 1:-2.0585799 2:1.70986 3:2.1228299 4:0.651941 5:2.51424 6:-0.67606199 7:-2.3963399 8:-2.3935299 9:0.351973 10:-1.22361 14:1 24:1 #
1 1:-2.2442999 2:-0.47940299 3:0.92122799 4:0.43081599 5:0.78181797 6:-1.23531 7:1.4139 8:-0.82549298 9:-1.76457 10:-0.87018502 14:1 17:1 #
-1 1:-1.98357 2:-0.41685301 3:0.38718301 4:-0.129052 5:0.50737602 6:-1.25647 7:1.3018301 8:-0.218513 9:-1.21583 10:-0.92757797 13:1 17:1 #
-1 1:-2.3264501 2:-0.229202 3:1.7223001 4:-0.24196699 5:1.10772 6:-1.02623 7:1.45125 8:-0.471421 9:-1.84296 10:-0.32041499 14:1 17:1 #
-1 1:-1.67998 2:-0.30962399 3:0.78771698 4:-0.13846201 5:-0.384563 6:-1.2135 7:1.4139 8:-0.218513 9:-1.3987499 10:-0.76596999 13:1 18:1 #
1 1:-2.0335701 2:1.6741101 3:1.3217601 4:0.84954101 5:2.3255601 6:-0.86525601 7:-1.72394 8:-1.33131 9:0.58714402 10:-0.72594601 14:1 24:1 #
1 1:-2.1407199 2:1.68305 3:1.98932 4:0.63312203 5:1.99966 6:-0.82677603 7:-2.32163 8:-2.09004 9:0.50875401 10:-0.75841802 14:1 24:1 #
1 1:-2.15501 2:1.70986 3:2.1228299 4:0.53902602 5:1.87959 6:-0.82420999 7:-2.32163 8:-2.3429401 9:0.351973 10:-0.77427697 14:1 24:1 #
-1 1:-2.12287 2:1.68305 3:1.4552701 4:0.28496799 5:2.9945099 6:-0.840244 7:-1.8733701 8:-1.5842201 9:0.53488398 10:-0.51072001 14:1 24:1 #
-1 1:-2.8479199 2:1.70986 3:0.52069402 4:-0.279605 5:0.88473397 6:-1.17117 7:-1.12626 8:-0.82549298 9:0.50875401 10:-1.16546 14:1 24:1 #
-1 1:-3.1586499 2:1.79921 3:1.3217601 4:-0.36429101 5:0.35300201 6:-1.3148299 7:-1.38775 8:-1.73596 9:0.064541399 10:-1.32329 14:1 19:1 #
1 1:-2.2121601 2:-0.15771601 3:1.1882499 4:-1.12646 5:-0.65900499 6:-1.35331 7:1.33919 8:0.084977202 9:-1.29423 10:-1.2689199 13:1 17:1 #
1 1:-2.0228601 2:0.20864999 3:0.253672 4:-0.95238799 5:-0.57324201 6:-1.3000799 7:0.48001501 8:1.24836 9:0.19519199 10:-1.2221 13:1 17:1 #
1 1:-2.0550001 2:0.181843 3:-0.0133511 4:-0.86770201 5:-0.40171501 6:-1.32573 7:0.51736999 8:1.19777 9:0.19519199 10:-1.25079 13:1 17:1 #
-1 1:-1.57997 2:0.101421 3:0.253672 4:-1.26761 5:-0.79622602 6:-0.760077 7:0.74150199 8:1.04603 9:-0.118369 10:-0.40650499 13:1 17:1 #
-1 1:-0.81563002 2:0.065677799 3:0.253672 4:-1.12646 5:-0.86483699 6:-0.94798797 7:0.77885699 8:0.99544799 9:-0.19676 10:-1.04237 13:1 17:1 #
-1 1:-1.5621099 2:-0.765347 3:-0.54739702 4:-1.26761 5:-0.79622602 6:-0.88577801 7:0.70414603 8:-0.11735 9:-0.51032102 10:-1.12695 13:1 27:1 #
1 1:-3.7337 2:1.81709 3:0.65420598 4:-0.420748 5:0.28439099 6:-1.40911 7:-0.86477399 8:-1.0784 9:0.142932 10:-0.92908901 14:1 19:1 #
0.77466008970424005131150124725536 1:-2.5371799 2:1.64731 3:0.78771698 4:-0.32194799 5:1.91389 6:-1.18015 7:-1.46246 8:-0.87607503 9:0.69166398 10:-1.27118 14:1 20:1 #
1 1:-2.0371499 2:1.78134 3:1.1882499 4:-0.36429101 5:0.54168099 6:-0.61898297 7:-1.38775 8:-1.5842201 9:0.169062 10:-1.22285 14:1 24:1 #
-1 1:-3.08008 2:1.53114 3:0.65420598 4:0.073253401 5:0.73035997 6:-1.25711 7:-1.5371701 8:-0.370258 9:1.03136 10:-1.35803 14:1 19:1 #
1 1:-1.2299401 2:-0.50621003 3:-0.413885 4:0.129711 5:-0.86483699 6:-0.37527701 7:1.00299 8:0.034395501 9:-0.74549299 10:-0.050060801 13:1 25:1 #
-1 1:-2.80863 2:1.7456 3:0.92122799 4:-0.27019501 5:-0.59039497 6:-1.13782 7:-1.2756799 8:-1.1795599 9:0.37810299 10:-0.97893101 14:1 24:1 #
0.3001528975702434376415794758941 1:-1.29781 2:-0.908319 3:-0.54739702 4:-1.26761 5:-0.79622602 6:-0.56575298 7:0.51736999 8:-0.269095 9:-0.45806101 10:-0.69196302 13:1 34:1 #
1 1:-1.04065 2:-0.89044797 3:-0.94793099 4:-1.26761 5:-0.79622602 6:-0.22584599 7:0.48001501 8:0.084977202 9:-0.22289 10:-0.169379 13:1 31:1 #
1 1:-1.02636 2:-0.836833 3:-0.68090802 4:-1.26761 5:-0.79622602 6:-0.214302 7:0.59208101 8:-0.11735 9:-0.45806101 10:-0.165603 13:1 31:1 #
1 1:-2.0335701 2:0.48565799 3:-0.0133511 4:-0.68421501 5:-0.144425 6:-1.48799 7:-0.117669 8:1.45068 9:0.87457502 10:-1.41391 13:1 16:1 #
0.63232158593998322171358950072317 1:-3.20151 2:1.22733 3:1.3217601 4:0.63312203 5:-0.79622602 6:-1.2455699 7:-2.4336901 8:0.186141 9:1.94591 10:-0.74256003 14:1 19:1 #
-1 1:-1.37638 2:-1.00661 3:-0.68090802 4:0.308492 5:-0.72761601 6:0.207055 7:0.36794901 8:-0.16793101 9:-0.27515 10:0.57522702 13:1 25:1 #
-1 1:-0.69776398 2:-0.74747598 3:-0.413885 4:-1.12646 5:-0.84768403 6:-0.44903001 7:0.77885699 8:-0.269095 9:-0.693232 10:0.322997 13:1 31:1 #
-1 1:-1.34424 2:-0.82789701 3:-0.94793099 4:-0.56189102 5:-0.57324201 6:0.30838501 7:0.51736999 8:0.13555899 9:-0.22289 10:0.44684699 13:1 25:1 #
-1 1:-0.61561501 2:-0.667054 3:-0.68090802 4:-1.26761 5:-0.79622602 6:-0.52534902 7:0.77885699 8:0.034395501 9:-0.51032102 10:-0.207138 13:1 31:1 #
0.066166488165217529626715986523777 1:-2.39431 2:1.51327 3:2.52336 4:-0.75949198 5:0.55883402 6:-0.92233402 7:-3.4422901 8:-2.0394499 9:1.29266 10:-1.02877 14:1 24:1 #
0.39770243368063862288153131885338 1:-1.74784 2:0.467787 3:-0.28037399 4:0.96245599 5:1.15918 6:-0.96530402 7:-0.042958502 8:1.4001 9:0.79618502 10:-0.51222998 14:1 20:1 #
0.049780906088595783254291404773539 1:-2.00857 2:1.64731 3:-1.21495 4:-0.68421501 5:-0.64185202 6:-1.50723 7:-0.080313802 8:0.489631 9:0.50875401 10:-1.43128 13:1 16:1 #
1 1:-0.50132197 2:-1.31043 3:-0.0133511 4:-0.41133901 5:-0.59039497 6:-0.64784402 7:-0.34180099 8:-0.62316602 9:0.0122812 10:0.048867598 13:1 45:1 #
-1 1:-2.3585999 2:1.79028 3:0.92122799 4:-0.95238799 5:-0.67615801 6:-0.67349702 7:-1.12626 8:-1.28073 9:0.19519199 10:-0.78560501 14:1 24:1 #
-1 1:-2.4514599 2:1.78134 3:0.92122799 4:-0.95238799 5:-0.57324201 6:-1.26609 7:-1.12626 8:-1.23015 9:0.221322 10:-1.15564 14:1 24:1 #
-1 1:-3.33724 2:1.7187901 3:0.52069402 4:-0.95238799 5:-0.41886801 6:-1.43797 7:-1.01419 8:-0.72433001 9:0.48262301 10:-0.916251 14:1 31:1 #
1 1:-0.94778198 2:-1.0870301 3:-0.68090802 4:-0.95238799 5:-0.84768403 6:-0.173898 7:0.25588301 8:-0.11735 9:-0.1445 10:0.49215701 13:1 25:1 #
1 1:-0.95135403 2:-1.29256 3:-0.68090802 4:-0.86770201 5:-0.77907401 6:-0.18736599 7:-0.042958502 8:-0.066767797 9:0.142932 10:0.48913699 13:1 25:1 #
0.41198645402241229618311990634538 1:-2.18716 2:-0.21133099 3:1.1882499 4:-0.82065398 5:-0.53893697 6:-1.24941 7:1.4139 8:-0.11735 9:-1.50327 10:-0.51222998 14:1 15:1 #
-1 1:-0.77276897 2:-1.14065 3:-0.94793099 4:-1.26761 5:-0.79622602 6:-0.813308 7:0.218528 8:0.084977202 9:0.0122812 10:0.185555 13:1 31:1 #
-1 1:-0.89063501 2:-0.93512601 3:-1.08144 4:-1.12646 5:-0.79622602 6:-1.12371 7:0.40530401 8:0.186141 9:-0.092239402 10:0.190841 13:1 31:1 #
-1 1:-0.52632302 2:-1.36404 3:-0.28037399 4:-0.95238799 5:-0.65900499 6:-0.42530099 7:-0.304445 8:-0.31967601 9:0.19519199 10:-0.207893 13:1 31:1 #
-0.1510507512932125484539369608683 1:0.170155 2:-0.95299798 3:1.05474 4:0.94363701 5:2.58285 6:-0.86974502 7:0.40530401 8:-1.88771 9:-1.45101 10:-0.77050102 13:1 47:1 #
0.5891430503124971407302723491739 1:-2.2335899 2:1.6294301 3:1.1882499 4:-1.12646 5:-0.55608898 6:-1.17117 7:-1.7613 8:-1.0784 9:0.79618502 10:-0.98648202 14:1 31:1 #
-0.61849032327542863285430030373391 1:-0.67276198 2:0.092485003 3:0.92122799 4:-1.12646 5:-0.79622602 6:-0.70363998 7:0.77885699 8:0.944866 9:-0.327411 10:0.075298898 13:1 27:1 #
-1 1:-2.6586201 2:1.50433 3:0.92122799 4:-1.26761 5:-0.79622602 6:-1.2455699 7:-1.83601 8:-0.522003 9:1.16201 10:-0.55754101 14:1 30:1 #
-1 1:-3.4979601 2:1.47753 3:-0.54739702 4:-0.547777 5:0.73035997 6:-1.4110301 7:-0.67799801 8:0.33788601 9:0.87457502 10:-1.07937 14:1 15:1 #
-1 1:-2.68362 2:1.64731 3:0.52069402 4:-1.26761 5:-0.79622602 6:-1.23146 7:-1.2009701 8:-0.57258499 9:0.69166398 10:-0.575665 14:1 30:1 #
0.12879857066113317709543650835258 1:-1.1978 2:1.20052 3:0.65420598 4:-0.13846201 5:1.02196 6:-0.760077 7:-1.7613 8:0.54021198 9:1.71074 10:-0.249428 13:1 47:1 #
-0.49262451057502770757068333296047 1:-0.60847199 2:1.7187901 3:1.5887901 4:0.17205399 5:1.51938 6:-0.18287601 7:-1.8733701 8:-1.73596 9:0.40423301 10:0.444581 11:1 43:1 #
1 1:-1.51925 2:0.190778 3:-1.21495 4:-1.26761 5:-0.79622602 6:-1.4277101 7:0.36794901 8:0.99544799 9:0.32584301 10:-0.420854 13:1 31:1 #
-1 1:-1.1049401 2:-0.74747598 3:-1.21495 4:-1.12646 5:-0.77907401 6:-1.46875 7:0.51736999 8:0.33788601 9:-0.118369 10:-0.86565399 13:1 31:1 #
-1 1:-1.35495 2:-0.872576 3:-1.08144 4:-0.37369999 5:-0.384563 6:-0.90886599 7:0.44266 8:0.23672201 9:-0.118369 10:0.181024 13:1 25:1 #
1 1:-3.7872701 2:1.272 3:0.92122799 4:-1.26761 5:-0.79622602 6:-1.42129 7:-2.0975001 8:0.186141 9:1.7368701 10:-0.91096401 14:1 19:1 #
0.48322815540783725651863278471865 1:-3.8194201 2:1.47753 3:0.253672 4:-1.26761 5:-0.79622602 6:-1.4110301 7:-1.23833 8:-0.016186099 9:1.08362 10:-0.92380202 14:1 19:1 #
-0.31216746988623572667265193558706 1:-1.38353 2:-1.01555 3:-0.94793099 4:0.186168 5:-0.00720412 6:-0.97107601 7:0.36794901 8:0.034395501 9:-0.1445 10:1.2246799 11:1 43:1 #
-1 1:-3.0014999 2:1.2809401 3:-0.28037399 4:-1.12646 5:-0.65900499 6:-0.79535002 7:-0.939484 8:0.64137602 9:1.21427 10:-0.48126799 14:1 31:1 #
-1 1:-3.11937 2:0.87883103 3:1.05474 4:-0.95238799 5:-0.41886801 6:-1.18015 7:-1.83601 8:1.24836 9:1.99817 10:-0.92757797 14:1 20:1 #
-1 1:-3.75155 2:-1.24788 3:1.85581 4:-1.26761 5:-0.79622602 6:-1.46875 7:-1.05155 8:-2.7476001 9:-0.85001302 10:-1.1073101 14:1 15:1 #
1 1:-0.72276598 2:-0.47940299 3:-0.81441897 4:-1.12646 5:-0.76192099 6:-0.96530402 7:0.816212 8:0.33788601 9:-0.37967101 10:-0.36270499 13:1 37:1 #
1 1:-0.74062401 2:-0.86364001 3:-0.81441897 4:-1.12646 5:-0.71046299 6:-0.93516099 7:0.55472499 8:-0.016186099 9:-0.327411 10:-0.371012 13:1 37:1 #
1 1:-0.87277699 2:-0.79215401 3:-1.08144 4:-1.12646 5:-0.74476802 6:-0.78316498 7:0.55472499 8:0.23672201 9:-0.19676 10:-0.49259499 13:1 37:1 #
-1 1:-0.62275898 2:-0.86364001 3:-1.08144 4:-1.26761 5:-0.79622602 6:-0.196344 7:0.44266 8:0.23672201 9:-0.092239402 10:-0.016832899 13:1 37:1 #
-1 1:-0.60132903 2:-0.56876099 3:-0.81441897 4:-1.0700099 5:-0.71046299 6:-0.0251082 7:0.77885699 8:0.186141 9:-0.43193099 10:-0.47069499 13:1 37:1 #
-1 1:-0.504893 2:-0.56876099 3:-0.94793099 4:-0.95238799 5:-0.67615801 6:-0.658746 7:0.74150199 8:0.28730401 9:-0.35354099 10:0.79347402 13:1 37:1 #
1 1:-1.81213 2:0.79840899 3:0.253672 4:-0.16669001 5:-0.76192099 6:-0.88898498 7:-1.01419 8:1.4001 9:1.52783 10:-1.46376 14:1 20:1 #
0.87278162746628074053489854122745 1:-2.64433 2:-1.00661 3:2.79039 4:-0.420748 5:1.3307 6:-1.11089 7:-0.34180099 8:-4.0627198 9:-2.4439499 10:-0.82940501 14:1 24:1 #
1 1:-1.02993 2:-0.98874098 3:-0.146862 4:-0.86770201 5:-0.487479 6:-0.196986 7:0.40530401 8:-0.67374802 9:-0.614842 10:-0.066674702 13:1 24:1 #
-1 1:-2.5336101 2:0.476722 3:1.5887901 4:-0.36429101 5:-0.59039497 6:-1.26609 7:-0.79006398 8:1.50126 9:1.10975 10:-1.07786 14:1 15:1 #
-1 1:-1.9299901 2:0.968189 3:-0.54739702 4:-1.12646 5:-0.72761601 6:-1.2693 7:-0.60328698 8:1.09661 9:1.16201 10:-1.3029 14:1 24:1 #
-1 1:-1.8657 2:1.05755 3:-0.54739702 4:-1.12646 5:-0.72761601 6:-1.34369 7:-0.71535301 8:0.99544799 9:1.21427 10:-1.42751 14:1 24:1 #
1 1:-0.90135002 2:-0.57769603 3:-0.54739702 4:0.035615101 5:0.164322 6:-0.034728199 7:0.89092302 8:0.034395501 9:-0.614842 10:0.119099 13:1 46:1 #
1.2466250670639666964234493207186e-07 1:-1.76213 2:-0.93512601 3:0.52069402 4:1.36707 5:1.2964 6:-0.98710901 7:0.51736999 8:-1.23015 9:-1.08518 10:-0.41632199 14:1 20:1 #
-0.17419072912696276222987989967805 1:0.30945101 2:1.70092 3:2.79039 4:-0.067889899 5:0.31869599 6:-1.4110301 7:-2.95667 8:-3.05109 9:0.32584301 10:-0.49184 13:1 38:1 #
-1 1:-0.75848299 2:-0.96193397 3:-0.413885 4:-0.82065398 5:-0.50463098 6:0.0133718 7:0.44266 8:-0.42084 9:-0.51032102 10:0.227845 13:1 46:1 #
-1 1:-1.36924 2:-1.11384 3:-0.413885 4:-0.84417802 5:-0.69331002 6:0.33724499 7:0.181173 8:-0.370258 9:-0.24902 10:0.41059801 13:1 25:1 #
0.9051358914147158429841510951519 1:-3.3943901 2:-1.1317101 3:1.3217601 4:-0.053775601 5:0.35300201 6:-1.14167 7:-0.26708999 8:-2.14062 9:-1.05905 10:-0.95703 14:1 24:1 #
-1 1:-0.75491101 2:-0.91725498 3:-0.413885 4:-0.82065398 5:-0.487479 6:0.067243896 7:0.55472499 8:-0.42084 9:-0.56258202 10:0.166675 13:1 25:1 #
0.76877167984259142663461261690827 1:-1.67998 2:0.342686 3:0.52069402 4:-1.0700099 5:-0.67615801 6:-0.946064 7:0.069107197 8:1.45068 9:0.58714402 10:-0.578686 13:1 31:1 #
0.32769552178350885851543239368766 1:-1.7121201 2:1.75453 3:-0.54739702 4:-1.26761 5:-0.79622602 6:-1.31098 7:-0.34180099 8:-0.016186099 9:0.40423301 10:-0.306822 14:1 30:1 #
1 1:-1.8049901 2:1.3703001 3:-1.08144 4:-0.44427201 5:-0.62470001 6:-1.3712699 7:-0.34180099 8:0.64137602 9:0.79618502 10:-0.64967299 14:1 24:1 #
-1 1:-1.52997 2:1.60263 3:-1.21495 4:-0.24196699 5:-0.40171501 6:-1.01405 7:-0.117669 8:0.489631 9:0.53488398 10:-0.72518998 14:1 20:1 #
-1 1:-1.36924 2:1.70986 3:-1.08144 4:0.14382499 5:0.061406501 6:-1.16027 7:-0.15502401 8:0.33788601 9:0.45649299 10:-0.86716402 14:1 20:1 #
1 1:-1.30138 2:-0.78321898 3:0.38718301 4:-0.75949198 5:-0.59039497 6:0.40651 7:0.853567 8:-0.977238 9:-1.24196 10:-0.67836899 13:1 25:1 #
1 1:-1.31567 2:-0.68492502 3:0.12016 4:-0.63716799 5:-0.64185202 6:0.37572601 7:1.00299 8:-0.62316602 9:-1.16357 10:-0.728966 13:1 25:1 #
0.73956668586388363273442791978596 1:-1.46568 2:-1.09597 3:1.05474 4:-0.75949198 5:-0.57324201 6:0.192945 7:-0.117669 8:-1.93829 9:-1.03292 10:-0.92757797 13:1 25:1 #
-1 1:-1.08708 2:-0.72960401 3:-0.0133511 4:-0.56189102 5:-0.24734101 6:0.026198501 7:0.89092302 8:-0.522003 9:-0.95453399 10:-0.67081797 13:1 24:1 #
-1 1:-1.30495 2:-0.80109 3:0.78771698 4:-0.44427201 5:0.044253901 6:0.210261 7:0.853567 8:-1.3818901 9:-1.50327 10:-0.93513 13:1 25:1 #
-1 1:-1.15851 2:-0.461532 3:0.52069402 4:-0.067889899 5:-0.230189 6:-0.37399399 7:1.3018301 8:-0.42084 9:-1.3987499 10:-1.08692 13:1 25:1 #
-1 1:-1.64069 2:-0.61343902 3:0.78771698 4:-1.12646 5:-0.86483699 6:-1.0583 7:1.18976 8:-0.977238 9:-1.63392 10:-0.81430203 13:1 25:1 #
0.90445597143896849789967973265448 1:-3.41224 2:1.13797 3:-1.08144 4:0.0026817201 5:0.61029202 6:-1.27635 7:-0.37915599 8:0.84370297 9:0.90070599 10:-0.83695698 14:1 15:1 #
0.79239456925404549991753810900263 1:-3.0943601 2:1.28988 3:1.4552701 4:-0.703035 5:0.130017 6:-1.2141401 7:-2.62047 8:-0.16793101 9:1.86752 10:-1.01518 14:1 24:1 #
0.96130821984036851635124776294106 1:-1.8264199 2:0.92351002 3:-0.28037399 4:-0.50543398 5:-0.81337899 6:-0.89988798 7:-0.79006398 8:1.19777 9:1.34492 10:-1.39428 14:1 20:1 #
-1 1:-1.69784 2:1.46859 3:-0.413885 4:-0.279605 5:0.095711797 6:-1.10127 7:-0.79006398 8:0.28730401 9:0.92683601 10:-0.40650499 14:1 20:1 #
-1 1:-3.1336501 2:0.63756597 3:-0.28037399 4:-0.56189102 5:-0.384563 6:-1.0422601 7:-0.37915599 8:1.4001 9:1.08362 10:-0.82185298 14:1 16:1 #
-1 1:-2.42646 2:0.548208 3:-0.54739702 4:-0.703035 5:-0.487479 6:-1.34369 7:-0.117669 8:1.34952 9:0.87457502 10:-1.2424901 14:1 24:1 #
-1 1:-2.6407599 2:1.0218 3:-0.94793099 4:0.035615101 5:-0.40171501 6:-1.4802999 7:-0.34180099 8:0.944866 9:0.95296597 10:-1.25457 14:1 16:1 #
1 1:-0.71205097 2:-0.61343902 3:0.92122799 4:-0.27019501 5:0.31869599 6:-0.77610999 7:1.22712 8:-1.12898 9:-1.76457 10:-1.1435601 13:1 38:1 #
1 1:-1.28352 2:-0.55088902 3:0.92122799 4:-0.95238799 5:-1.07067 6:-0.026390901 7:1.33919 8:-0.977238 9:-1.76457 10:-0.95174402 13:1 24:1 #
1 1:-1.26566 2:-0.80109 3:1.05474 4:-0.36429101 5:0.38730699 6:-1.23146 7:0.853567 8:-1.68538 9:-1.76457 10:-0.27510399 13:1 24:1 #
-1 1:-1.32638 2:-0.95299798 3:1.5887901 4:-0.68421501 5:-0.264494 6:0.270547 7:0.330594 8:-2.4441099 9:-1.81683 10:-0.863388 13:1 25:1 #
-1 1:-0.77991301 2:-0.836833 3:0.92122799 4:-0.063185103 5:0.0271012 6:0.32954901 7:0.74150199 8:-1.68538 9:-1.63392 10:-0.53715098 13:1 24:1 #
-1 1:-1.75498 2:-0.72066802 3:1.1882499 4:-0.98532099 5:-0.65900499 6:-0.60294998 7:1.0777 8:-1.68538 9:-1.94748 10:-0.72518998 13:1 17:1 #
0.30112828414460590664702976937406 1:-1.955 2:1.17371 3:-0.146862 4:-0.50543398 5:-0.092967398 6:-1.09934 7:-1.12626 8:0.79312098 9:1.42331 10:-0.45559201 14:1 25:1 #
1 1:-1.09065 2:-0.73853999 3:-0.0133511 4:-1.0700099 5:-0.71046299 6:-0.17325599 7:0.89092302 8:-0.522003 9:-0.98066401 10:-0.000219002 13:1 24:1 #
-1 1:-1.35853 2:1.0218 3:-0.54739702 4:0.14853001 5:0.112864 6:-1.19169 7:-0.71535301 8:1.04603 9:1.2404 10:-0.84601903 14:1 20:1 #
-1 1:-1.52639 2:1.26307 3:-0.94793099 4:0.308492 5:0.044253901 6:-1.39179 7:-0.416511 8:0.74253899 9:0.87457502 10:-0.072716199 14:1 20:1 #
-1 1:-1.52639 2:1.73666 3:-0.54739702 4:0.96245599 5:-0.024356799 6:-0.90950799 7:-0.37915599 8:0.034395501 9:0.430363 10:-0.53412998 14:1 24:1 #
1 1:-1.1978 2:-0.62237501 3:1.85581 4:-0.27019501 5:-0.76192099 6:-0.31691501 7:1.3018301 8:-2.14062 9:-2.5746 10:0.0111087 13:1 25:1 #
1 1:-1.1478 2:-0.71173298 3:1.05474 4:-0.16669001 5:-0.333105 6:-0.33743799 7:1.0777 8:-1.5842201 9:-1.89522 10:-0.0379779 13:1 25:1 #
1 1:-1.19423 2:-0.75641102 3:1.4552701 4:-0.36429101 5:0.14717001 6:-0.120026 7:0.96563298 8:-2.09004 9:-2.1565199 10:-0.96533698 13:1 24:1 #
0.068237228693258877854077582014725 1:-1.17637 2:1.44178 3:-0.28037399 4:-0.63716799 5:-0.281647 6:-1.09934 7:-0.90212899 8:0.33788601 9:1.0052299 10:-0.53110999 13:1 24:1 #
-1 1:-1.40496 2:-0.72066802 3:1.05474 4:-0.56189102 5:0.0099485395 6:-0.97620702 7:1.0777 8:-1.5842201 9:-1.86909 10:-0.713108 13:1 25:1 #
-1 1:-1.1727999 2:-0.595568 3:1.85581 4:-0.98532099 5:-0.47032601 6:-0.60743898 7:1.33919 8:-2.09004 9:-2.6007299 10:-0.42160901 13:1 17:1 #
-1 1:-1.01564 2:-0.470467 3:1.1882499 4:-0.84417802 5:-0.24734101 6:-0.73314101 7:1.45125 8:-1.02782 9:-1.99974 10:-0.704045 13:1 27:1 #
1 1:-1.9192801 2:1.66518 3:-1.61549 4:1.19769 5:0.54168099 6:-0.97492403 7:0.14381801 8:0.64137602 9:0.40423301 10:-0.50845402 14:1 20:1 #
0.34842081401918267857809041743167 1:-0.92277998 2:-0.64918202 3:-1.34846 4:0.289673 5:-0.40171501 6:-0.037934899 7:0.48001501 8:0.489631 9:0.0122812 10:-0.18070699 13:1 46:1 #
-1 1:-1.81927 2:1.78134 3:-1.48198 4:-0.279605 5:-0.487479 6:-0.91463798 7:0.106462 8:0.54021198 9:0.37810299 10:-0.613424 13:1 16:1 #
-1 1:-1.93714 2:0.12822799 3:-0.146862 4:0.14382499 5:0.45591801 6:-0.85178798 7:0.62943602 8:1.09661 9:0.064541399 10:-0.40952599 14:1 20:1 #
-0.24463674912029392816137374211394 1:-0.89777797 2:1.55795 3:-0.81441897 4:0.14382499 5:0.55883402 6:-0.75686997 7:-0.37915599 8:0.38846701 9:0.66553402 10:0.00280171 11:1 26:1 #
1 1:-1.15494 2:-0.48833901 3:1.7223001 4:-0.68421501 5:-0.333105 6:-0.25278199 7:1.48861 8:-1.53364 9:-2.41782 10:0.090402402 13:1 18:1 #
-0.23685736328263559680173955257487 1:-0.51203698 2:0.2712 3:-1.08144 4:1.81402 5:-0.041509401 6:-0.154016 7:0.330594 8:1.09661 9:0.40423301 10:-0.135396 13:1 31:1 #
0.52063851335365551875611345167272 1:-1.8657 2:1.81709 3:0.78771698 4:0.14382499 5:1.10772 6:-0.54074103 7:-0.939484 8:-1.1795599 9:0.116802 10:-1.2002 14:1 24:1 #
-1 1:-2.6407599 2:-0.121973 3:1.7223001 4:-0.68421501 5:0.38730699 6:-0.55228502 7:1.3018301 8:-0.066767797 9:-1.50327 10:-1.35199 14:1 17:1 #
-1 1:-0.97635502 2:-0.89044797 3:1.5887901 4:-0.98532099 5:-0.41886801 6:-0.63565803 7:0.55472499 8:-2.3935299 9:-1.94748 10:-0.647407 13:1 47:1 #
-1 1:-0.58704197 2:-0.64024699 3:1.4552701 4:-0.467796 5:-0.19588301 6:0.128812 7:1.26448 8:-1.78655 9:-2.23491 10:-0.81581199 13:1 24:1 #
0.30441766571834705246146768331528 1:-1.6656899 2:1.77241 3:0.65420598 4:0.308492 5:0.31869599 6:-1.0319999 7:-1.05155 8:-1.02782 9:0.29971299 10:-1.1435601 14:1 24:1 #
0.15318271071931061078075231307594 1:-2.00857 2:-0.0236797 3:-1.61549 4:-0.75949198 5:-0.69331002 6:-1.50723 7:0.36794901 8:0.79312098 9:0.27358201 10:-1.40485 13:1 16:1 #
-1 1:-1.95857 2:0.378429 3:0.12016 4:-1.12646 5:-0.67615801 6:-0.749816 7:0.069107197 8:1.45068 9:0.66553402 10:-0.73425299 13:1 30:1 #
-1 1:-1.17637 2:0.36949301 3:-0.68090802 4:-0.98532099 5:-0.83053201 6:-0.764566 7:0.218528 8:1.24836 9:0.561014 10:-0.88377798 13:1 31:1 #
1 1:-1.24423 2:-0.68492502 3:1.4552701 4:-0.36429101 5:0.30154401 6:-0.174539 7:1.15241 8:-1.88771 9:-2.23491 10:-0.97817498 13:1 24:1 #
-1 1:-2.2550199 2:-0.64918202 3:-1.34846 4:-1.12646 5:-0.77907401 6:-1.3148299 7:0.48001501 8:0.489631 9:0.0122812 10:-1.0597301 13:1 24:1 #
-1 1:-2.7014799 2:-0.631311 3:-1.48198 4:-1.26761 5:-0.79622602 6:-0.58050299 7:0.40530401 8:0.54021198 9:0.116802 10:-0.90114701 14:1 31:1 #
-1 1:-1.6085401 2:0.0478063 3:-0.54739702 4:-1.0700099 5:-0.72761601 6:-0.92297602 7:0.66679102 8:0.99544799 9:0.0122812 10:-0.340049 13:1 18:1 #
1 1:-0.93349499 2:-1.01555 3:1.05474 4:-0.95238799 5:-0.144425 6:-0.66066998 7:0.218528 8:-1.83713 9:-1.2681 10:-1.01744 13:1 47:1 #
1 1:-2.41574 2:0.20864999 3:3.32443 4:-1.12646 5:-0.36741 6:-0.43876901 7:-0.26708999 8:0.33788601 9:-0.51032102 10:-0.82260901 14:1 15:1 #
1 1:-1.2478 2:-1.09597 3:1.4552701 4:-1.12646 5:-0.57324201 6:-0.80176401 7:-0.19238 8:-2.2923601 9:-1.24196 10:-0.82865 13:1 47:1 #
1 1:-2.0550001 2:1.7187901 3:2.3898499 4:-0.63716799 5:0.37015399 6:-0.93900901 7:-2.47105 8:-2.59585 9:0.27358201 10:-0.75011098 14:1 24:1 #
-1 1:-0.57632703 2:-1.12278 3:1.98932 4:-0.279605 5:0.40446001 6:-0.86204898 7:-0.52857703 8:-2.9499199 9:-1.45101 10:0.072278097 13:1 38:1 #
-1 1:-1.25852 2:-0.96193397 3:0.92122799 4:-1.12646 5:-0.62470001 6:-0.67926902 7:0.40530401 8:-1.68538 9:-1.29423 10:-0.80221897 13:1 47:1 #
-0.7986442702548935956841091865499 1:-0.59061402 2:-1.2032 3:0.78771698 4:0.25674 5:-0.041509401 6:-0.89347398 7:-0.34180099 8:-1.48306 9:-0.536452 10:-0.89963698 13:1 45:1 #
0.30408040373071437700858155039896 1:-1.8264199 2:1.70092 3:-0.28037399 4:0.56725502 5:2.2569499 6:-0.94927001 7:-0.60328698 8:-0.16793101 9:0.53488398 10:-0.81958801 14:1 20:1 #
1 1:-2.2228701 2:-0.23813801 3:-1.48198 4:-0.547777 5:0.130017 6:-0.75879401 7:0.48001501 8:0.69195801 9:0.116802 10:-0.71461803 14:1 25:1 #
1 1:-3.11222 2:1.29881 3:1.7223001 4:-0.75949198 5:0.044253901 6:-1.2212 7:-2.8446 8:-0.31967601 9:1.91978 10:-1.03028 14:1 24:1 #
-1 1:-1.56568 2:-0.62237501 3:-1.34846 4:-0.420748 5:-0.144425 6:-1.29238 7:0.48001501 8:0.489631 9:0.038411301 10:-1.25079 14:1 20:1 #
-1 1:-1.81927 2:0.065677799 3:-1.08144 4:0.14382499 5:-0.62470001 6:-0.9249 7:0.51736999 8:0.944866 9:0.169062 10:-0.57793099 13:1 16:1 #
-1 1:-2.2728801 2:0.110357 3:-0.68090802 4:-0.36429101 5:0.0271012 6:-1.11089 7:0.59208101 8:1.04603 9:0.142932 10:-0.92757797 14:1 18:1 #
-1 1:-1.06208 2:0.119292 3:0.12016 4:0.43081599 5:-0.72761601 6:-0.39131001 7:0.66679102 8:1.09661 9:-0.013849 10:0.319222 13:1 16:1 #
0.32420215235872124059923748973233 1:-2.10501 2:0.99499601 3:1.85581 4:-0.420748 5:0.30154401 6:-0.70171601 7:-2.7698901 8:0.74253899 9:2.3378601 10:-0.424629 14:1 24:1 #
1 1:-0.92992401 2:-0.264945 3:-0.81441897 4:-0.27019501 5:0.061406501 6:-0.070001602 7:0.853567 8:0.54021198 9:-0.30127999 10:0.092667997 13:1 24:1 #
-1 1:-0.419173 2:-1.01555 3:1.85581 4:-1.12646 5:-0.64185202 6:-1.23915 7:-0.0056032902 8:-2.7981801 9:-1.76457 10:-1.28629 13:1 37:1 #
-1 1:-1.18708 2:-1.38191 3:1.1882499 4:-0.56189102 5:0.095711797 6:-0.40541899 7:-1.2009701 8:-1.68538 9:-0.013849 10:-0.45559201 13:1 24:1 #
0.022250001558797638523401474230923 1:-2.0335701 2:-0.032615501 3:-0.28037399 4:-0.75949198 5:-0.53893697 6:-1.33535 7:0.853567 8:0.84370297 9:-0.22289 10:-1.26212 13:1 17:1 #
-1 1:-1.25495 2:-0.58663201 3:2.3898499 4:-0.86770201 5:-0.144425 6:-0.60294998 7:1.3765399 8:-2.64643 9:-3.07107 10:-1.28025 13:1 18:1 #
-1 1:-2.59076 2:-0.595568 3:1.85581 4:-1.12646 5:-0.59039497 6:-0.73763001 7:1.33919 8:-2.0394499 9:-2.5746 10:-1.12695 14:1 18:1 #
-1 1:-2.6371901 2:-0.77428299 3:2.25634 4:0.69428402 5:1.55369 6:-1.20837 7:0.853567 8:-3.10167 9:-2.7836399 10:-1.01065 14:1 24:1 #
