SVM-light Version V6.02
2 # kernel type
3 # kernel parameter -d 
0.1 # kernel parameter -g 
1 # kernel parameter -s 
1 # kernel parameter -r 
empty# kernel parameter -u 
54 # highest feature index 
10000 # number of training documents 
2371 # number of support vectors plus 1 
0.57273105 # threshold b, each following line is a SV (starting with alpha*y)
0.10000000000000000555111512312578 1:-1.76213 2:-0.559825 3:-0.28037399 4:-1.12646 5:-1.07067 6:-1.11089 7:1.00299 8:-0.11735 9:-0.85001302 10:-0.89737099 13:1 25:1 #
0.10000000000000000555111512312578 1:-1.7907 2:-0.64024699 3:0.52069402 4:0.92952198 5:1.2106301 6:-1.01982 7:1.15241 8:-0.92665702 9:-1.4771399 10:-0.40575001 14:1 24:1 #
-0.10000000000000000555111512312578 1:-2.2335899 2:-1.3461699 3:1.3217601 4:-0.13846201 5:0.747513 6:-0.61064601 7:-1.12626 8:-1.88771 9:-0.22289 10:-1.08692 14:1 24:1 #
-0.10000000000000000555111512312578 1:-0.544182 2:-0.78321898 3:1.3217601 4:-0.129052 5:1.34786 6:-0.55036098 7:0.92827803 8:-1.93829 9:-1.97361 10:-0.64514202 13:1 47:1 #
0.10000000000000000555111512312578 1:-1.7407 2:-1.35511 3:0.38718301 4:-0.37369999 5:-0.41886801 6:-0.87230998 7:-0.60328698 8:-0.87607503 9:0.064541399 10:-1.3127199 14:1 20:1 #
0.10000000000000000555111512312578 1:-1.83356 2:-0.61343902 3:0.65420598 4:-0.129052 5:0.71320802 6:-1.06279 7:1.18976 8:-0.92665702 9:-1.58166 10:-0.45106101 14:1 20:1 #
0.10000000000000000555111512312578 1:-0.894207 2:-1.19426 3:-0.413885 4:-0.129052 5:-0.281647 6:-0.037293602 7:0.031752001 8:-0.370258 9:-0.118369 10:-0.019853599 13:1 46:1 #
0.10000000000000000555111512312578 1:-3.41224 2:1.79028 3:0.12016 4:-1.26761 5:-0.79622602 6:-1.35716 7:-0.60328698 8:-0.522003 9:0.29971299 10:-1.1435601 14:1 24:1 #
0.10000000000000000555111512312578 1:-1.86213 2:1.75453 3:-0.413885 4:-0.84417802 5:-0.65900499 6:-1.31098 7:-0.453866 8:-0.11735 9:0.430363 10:-0.58472699 14:1 25:1 #
0.10000000000000000555111512312578 1:-1.23709 2:0.83415198 3:0.65420598 4:-1.26761 5:-0.79622602 6:-0.60743898 7:-1.38775 8:1.34952 9:1.763 10:-0.64665198 13:1 34:1 #
-0.10000000000000000555111512312578 1:-2.8764901 2:0.56607997 3:0.92122799 4:-1.12646 5:-0.67615801 6:-0.74083698 7:-0.75270802 8:1.55185 9:1.29266 10:-0.75313199 14:1 31:1 #
-0.10000000000000000555111512312578 1:-2.2621601 2:1.42391 3:0.12016 4:-1.12646 5:-0.57324201 6:-1.11089 7:-1.2009701 8:0.186141 9:1.16201 10:-1.2221 14:1 24:1 #
-0.10000000000000000555111512312578 1:-1.83713 2:0.95925301 3:0.65420598 4:-0.50543398 5:-0.264494 6:-1.33407 7:-1.64923 8:1.09661 9:1.86752 10:-0.91776103 14:1 24:1 #
0.10000000000000000555111512312578 1:-0.62633002 2:-0.765347 3:1.05474 4:-0.129052 5:1.10772 6:-0.755588 7:0.96563298 8:-1.6348 9:-1.7907 10:-1.10807 13:1 47:1 #
0.10000000000000000555111512312578 1:-0.52632302 2:-0.78321898 3:1.1882499 4:0.186168 5:1.81098 6:-0.77226198 7:0.89092302 8:-1.83713 9:-1.89522 10:-1.11033 13:1 47:1 #
0.10000000000000000555111512312578 1:-0.48703501 2:-0.89044797 3:1.05474 4:0.308492 5:2.1883399 6:-0.76969701 7:0.59208101 8:-1.73596 9:-1.55553 10:-1.099 13:1 47:1 #
-0.10000000000000000555111512312578 1:-0.46917599 2:-0.32749501 3:0.12016 4:-1.0700099 5:-0.57324201 6:-0.64271301 7:1.22712 8:0.084977202 9:-1.00679 10:0.44609201 13:1 45:1 #
-0.10000000000000000555111512312578 1:-1.7907 2:-0.89044797 3:2.1228299 4:-0.67010099 5:0.14717001 6:-1.08716 7:0.40530401 8:-3.10167 9:-2.39169 10:-0.97213399 13:1 24:1 #
-0.10000000000000000555111512312578 1:-1.26209 2:-0.99767703 3:2.25634 4:-0.41133901 5:0.55883402 6:-1.04547 7:-0.080313802 8:-3.40516 9:-2.1565199 10:-0.90265697 13:1 47:1 #
0.10000000000000000555111512312578 1:-3.06936 2:-0.98874098 3:-1.749 4:-1.12646 5:-0.93344802 6:-0.840244 7:0.25588301 8:0.64137602 9:0.29971299 10:-1.0008301 14:1 28:1 #
0.070681053604165572368245307188772 1:-1.79427 2:1.30775 3:0.78771698 4:0.063843802 5:-0.67615801 6:-0.91079003 7:-1.9480799 8:0.13555899 9:1.63235 10:-1.43128 14:1 24:1 #
0.10000000000000000555111512312578 1:-1.34424 2:1.25413 3:1.3217601 4:-0.98532099 5:-0.384563 6:-0.73185802 7:-2.4336901 8:0.084977202 9:1.8936501 10:-0.94796801 13:1 47:1 #
-0.10000000000000000555111512312578 1:-2.0335701 2:1.13797 3:0.38718301 4:-0.547777 5:-0.041509401 6:-1.3982 7:-1.57452 8:0.74253899 9:1.68461 10:-0.98648202 14:1 24:1 #
-0.10000000000000000555111512312578 1:-2.99436 2:1.42391 3:0.52069402 4:-0.86770201 5:-0.230189 6:-1.2641701 7:-1.6118799 8:-0.066767797 9:1.29266 10:-1.12997 14:1 24:1 #
-0.10000000000000000555111512312578 1:-2.00857 2:1.272 3:-0.413885 4:-1.12646 5:-0.71046299 6:-0.81458998 7:-0.90212899 8:0.64137602 9:1.18814 10:-0.710087 14:1 24:1 #
0.10000000000000000555111512312578 1:-0.97278398 2:-1.02448 3:1.85581 4:-0.67010099 5:0.42161199 6:-0.73185802 7:-0.080313802 8:-2.8993399 9:-1.7907 10:-0.90718901 13:1 47:1 #
0.10000000000000000555111512312578 1:-0.74062401 2:-1.09597 3:1.98932 4:-0.32194799 5:0.97049701 6:-0.69850898 7:-0.416511 8:-3.05109 9:-1.60779 10:-1.04388 13:1 47:1 #
0.10000000000000000555111512312578 1:-1.61212 2:-1.06916 3:2.52336 4:-0.129052 5:0.98764998 6:-0.83190602 7:-0.52857703 8:-3.7592299 9:-2.0258701 10:-0.74784601 13:1 18:1 #
-0.10000000000000000555111512312578 1:-0.53346699 2:-1.2210701 3:2.1228299 4:-0.32194799 5:0.55883402 6:-0.86974502 7:-1.08891 8:-3.05109 9:-1.05905 10:-0.69120699 13:1 47:1 #
-0.10000000000000000555111512312578 1:-0.61204398 2:-0.99767703 3:1.5887901 4:-0.56189102 5:-0.024356799 6:-0.67093199 7:0.14381801 8:-2.4441099 9:-1.63392 10:-0.672328 13:1 47:1 #
-0.10000000000000000555111512312578 1:-0.394171 2:-0.99767703 3:1.85581 4:-0.129052 5:-0.17873099 6:-0.80817699 7:0.031752001 8:-2.9499199 9:-1.92135 10:-1.01518 13:1 47:1 #
0.10000000000000000555111512312578 1:-1.64069 2:-1.3461699 3:-0.146862 4:-0.82065398 5:-0.50463098 6:-1.37255 7:-0.34180099 8:-0.471421 9:0.142932 10:-0.225262 14:1 19:1 #
0.10000000000000000555111512312578 1:-1.16565 2:-1.2568099 3:-0.94793099 4:0.96245599 5:0.81612301 6:-0.50674999 7:0.069107197 8:0.084977202 9:0.142932 10:-0.066674702 13:1 16:1 #
0.10000000000000000555111512312578 1:-1.8835599 2:0.1461 3:-0.0133511 4:-1.26761 5:-0.79622602 6:-0.37463501 7:0.59208101 8:1.14719 9:0.090671502 10:-1.35803 13:1 30:1 #
-0.10000000000000000555111512312578 1:-1.9299901 2:0.968189 3:-0.54739702 4:-1.12646 5:-0.72761601 6:-1.2693 7:-0.60328698 8:1.09661 9:1.16201 10:-1.3029 14:1 24:1 #
-0.10000000000000000555111512312578 1:-1.8657 2:1.05755 3:-0.54739702 4:-1.12646 5:-0.72761601 6:-1.34369 7:-0.71535301 8:0.99544799 9:1.21427 10:-1.42751 14:1 24:1 #
-0.10000000000000000555111512312578 1:-2.42646 2:0.548208 3:-0.54739702 4:-0.703035 5:-0.487479 6:-1.34369 7:-0.117669 8:1.34952 9:0.87457502 10:-1.2424901 14:1 24:1 #
0.10000000000000000555111512312578 1:-0.96564001 2:-1.11384 3:1.5887901 4:-0.98532099 5:-0.11012 6:-0.65810502 7:-0.34180099 8:-2.54527 9:-1.29423 10:-0.994789 13:1 47:1 #
0.10000000000000000555111512312578 1:-1.2478 2:-1.09597 3:1.4552701 4:-1.12646 5:-0.57324201 6:-0.80176401 7:-0.19238 8:-2.2923601 9:-1.24196 10:-0.82865 13:1 47:1 #
0.10000000000000000555111512312578 1:-1.05136 2:-1.12278 3:1.85581 4:-0.86770201 5:-0.092967398 6:-0.72608602 7:-0.52857703 8:-2.8993399 9:-1.3987499 10:-0.91776103 13:1 47:1 #
-0.10000000000000000555111512312578 1:-1.6085401 2:-1.10491 3:2.1228299 4:-0.82065398 5:-0.058662102 6:-1.13718 7:-0.56593198 8:-3.2534101 9:-1.63392 10:-0.531865 13:1 24:1 #
-0.10000000000000000555111512312578 1:-1.57997 2:-1.28362 3:1.5887901 4:-0.95238799 5:-0.436021 6:-0.87936503 7:-1.05155 8:-2.24178 9:-0.536452 10:-0.51751602 13:1 47:1 #
-0.10000000000000000555111512312578 1:-1.54425 2:-1.12278 3:1.7223001 4:-0.37369999 5:-0.00720412 6:-0.54074103 7:-0.453866 8:-2.64643 9:-1.29423 10:-1.14885 13:1 24:1 #
0.097221549190184344824139373031358 1:-1.80141 2:0.78053802 3:-1.749 4:-1.26761 5:-0.79622602 6:-0.97043502 7:0.14381801 8:0.79312098 9:0.45649299 10:-0.981951 13:1 18:1 #
0.10000000000000000555111512312578 1:-1.1049401 2:-0.702797 3:-0.81441897 4:-1.12646 5:-0.77907401 6:-0.182235 7:0.66679102 8:0.13555899 9:-0.35354099 10:-0.000219002 13:1 24:1 #
0.10000000000000000555111512312578 1:-1.86928 2:0.99499601 3:-0.28037399 4:-0.19491901 5:-1.01921 6:-0.86525601 7:-0.86477399 8:1.09661 9:1.37105 10:-1.42751 14:1 24:1 #
-0.10000000000000000555111512312578 1:-1.3228101 2:1.3703001 3:0.12016 4:-1.12646 5:-0.64185202 6:-0.64976799 7:-1.2756799 8:0.28730401 9:1.26653 10:-0.84677398 13:1 47:1 #
0.10000000000000000555111512312578 1:-0.99064201 2:-1.3014899 3:1.7223001 4:-0.13846201 5:0.64459699 6:-0.44838899 7:-1.16362 8:-2.3429401 9:-0.51032102 10:0.52160901 13:1 24:1 #
-0.10000000000000000555111512312578 1:-1.5049599 2:1.38817 3:0.253672 4:-0.279605 5:0.112864 6:-1.26096 7:-1.38775 8:0.186141 9:1.26653 10:-0.93286502 14:1 24:1 #
-0.10000000000000000555111512312578 1:-1.4478199 2:1.28988 3:0.12016 4:-0.279605 5:0.232933 6:-1.30265 7:-1.31304 8:0.489631 9:1.39718 10:-0.87018502 14:1 24:1 #
0.10000000000000000555111512312578 1:-1.04422 2:-1.33724 3:1.7223001 4:-0.279605 5:0.42161199 6:-0.441975 7:-1.38775 8:-2.3935299 9:-0.35354099 10:0.54351002 13:1 24:1 #
0.10000000000000000555111512312578 1:-1.03707 2:-1.3461699 3:1.85581 4:-0.279605 5:0.42161199 6:-0.424018 7:-1.46246 8:-2.4946899 9:-0.37967101 10:0.53746802 13:1 24:1 #
-0.10000000000000000555111512312578 1:-2.6979101 2:1.52221 3:0.92122799 4:-0.67010099 5:-0.315952 6:-0.749174 7:-1.79866 8:-0.62316602 9:1.10975 10:-0.63456899 14:1 24:1 #
-0.10000000000000000555111512312578 1:-2.3585999 2:1.79028 3:0.92122799 4:-0.95238799 5:-0.67615801 6:-0.67349702 7:-1.12626 8:-1.28073 9:0.19519199 10:-0.78560501 14:1 24:1 #
-0.10000000000000000555111512312578 1:-2.2693 2:1.05755 3:0.38718301 4:0.50138801 5:-0.88199002 6:-1.12628 7:-1.4251 8:0.944866 9:1.68461 10:-0.94721299 14:1 24:1 #
0.057062853170356434007182144796388 1:-1.42996 2:-1.05129 3:1.98932 4:-0.36429101 5:-1.48233 6:-0.93516099 7:-0.19238 8:-2.9499199 9:-1.73844 10:-0.628528 13:1 24:1 #
0.10000000000000000555111512312578 1:-1.57283 2:-1.05129 3:2.3898499 4:-0.053775601 5:-2.1684401 6:-0.88064802 7:-0.37915599 8:-3.50632 9:-1.97361 10:-0.68441099 13:1 24:1 #
0.10000000000000000555111512312578 1:-1.31924 2:-0.65811801 3:2.1228299 4:-0.82065398 5:-0.84768403 6:-0.110406 7:1.22712 8:-2.59585 9:-2.8359001 10:-1.0114 13:1 24:1 #
-0.10000000000000000555111512312578 1:-1.46925 2:-1.23001 3:1.85581 4:-0.67010099 5:0.42161199 6:-0.89988798 7:-0.939484 8:-2.6970201 9:-0.92840302 10:-0.43369201 13:1 24:1 #
-0.10000000000000000555111512312578 1:-1.29424 2:-1.31043 3:1.98932 4:-0.420748 5:-0.00720412 6:-0.499695 7:-1.4251 8:-2.7476001 9:-0.58871198 10:-0.35439801 13:1 24:1 #
-0.10000000000000000555111512312578 1:-0.97635502 2:-0.89044797 3:1.5887901 4:-0.98532099 5:-0.41886801 6:-0.63565803 7:0.55472499 8:-2.3935299 9:-1.94748 10:-0.647407 13:1 47:1 #
-0.10000000000000000555111512312578 1:-0.233445 2:1.37923 3:-1.34846 4:-0.16669001 5:0.37015399 6:-0.918486 7:-0.117669 8:0.69195801 9:0.61327398 10:-0.29096299 13:1 25:1 #
0.10000000000000000555111512312578 1:-1.09422 2:-0.57769603 3:-0.68090802 4:0.43081599 5:-0.17873099 6:-0.35988501 7:0.853567 8:0.13555899 9:-0.536452 10:0.13269199 13:1 16:1 #
0.10000000000000000555111512312578 1:-0.919209 2:-1.24788 3:-0.146862 4:-0.24196699 5:-0.264494 6:-0.077056304 7:-0.15502401 8:-0.522003 9:-0.066109203 10:0.0171501 13:1 46:1 #
-0.10000000000000000555111512312578 1:-2.92292 2:-0.96193397 3:2.1228299 4:-1.0700099 5:-0.52178401 6:-0.71454197 7:0.106462 8:-3.1522501 9:-2.1565199 10:-0.74482501 14:1 24:1 #
-0.10000000000000000555111512312578 1:-2.36217 2:-1.14958 3:3.1909201 4:-0.95238799 5:0.21578 6:-0.59461302 7:-1.31304 8:-4.5179601 9:-1.99974 10:-0.72594601 14:1 24:1 #
-0.10000000000000000555111512312578 1:-3.09079 2:-0.86364001 3:2.1228299 4:-0.86770201 5:-0.333105 6:-1.3982 7:0.55472499 8:-3.05109 9:-2.4700799 10:-1.099 14:1 24:1 #
-0.0064913698193127524968537578331507 1:-0.229874 2:-1.2568099 3:0.12016 4:-1.12646 5:-0.67615801 6:-0.320122 7:-0.229735 8:-0.72433001 9:-0.118369 10:-0.489575 13:1 45:1 #
0.10000000000000000555111512312578 1:-2.10144 2:1.7634701 3:1.1882499 4:-1.26761 5:-0.79622602 6:-0.61449403 7:-1.38775 8:-1.43247 9:0.27358201 10:-1.18736 14:1 24:1 #
0.10000000000000000555111512312578 1:-3.0550799 2:-0.702797 3:2.3898499 4:-0.420748 5:0.095711797 6:-1.35331 7:1.0403399 8:-3.05109 9:-3.01881 10:-1.1586601 14:1 24:1 #
-0.10000000000000000555111512312578 1:-2.4514599 2:1.78134 3:0.92122799 4:-0.95238799 5:-0.57324201 6:-1.26609 7:-1.12626 8:-1.23015 9:0.221322 10:-1.15564 14:1 24:1 #
-0.10000000000000000555111512312578 1:-2.80863 2:1.7456 3:0.92122799 4:-0.27019501 5:-0.59039497 6:-1.13782 7:-1.2756799 8:-1.1795599 9:0.37810299 10:-0.97893101 14:1 24:1 #
-0.10000000000000000555111512312578 1:-2.3585999 2:1.58476 3:1.1882499 4:-0.75949198 5:-0.092967398 6:-1.06279 7:-1.8733701 8:-0.977238 9:0.92683601 10:-1.099 14:1 24:1 #
0.10000000000000000555111512312578 1:-2.8157699 2:-0.908319 3:2.9238999 4:-1.0700099 5:-0.67615801 6:-1.24941 7:0.14381801 8:-4.1132998 9:-2.91429 10:-0.78409398 14:1 24:1 #
0.10000000000000000555111512312578 1:-3.64797 2:-1.29256 3:3.4579401 4:-0.703035 5:0.62744403 6:-1.43027 7:-2.3589799 8:-4.6697001 9:-1.2681 10:-0.81581199 14:1 19:1 #
0.10000000000000000555111512312578 1:-1.90142 2:-0.86364001 3:2.6568799 4:-0.75949198 5:-0.96775299 6:-1.09614 7:0.40530401 8:-3.7592299 9:-2.88816 10:-0.99856502 13:1 24:1 #
-0.10000000000000000555111512312578 1:-3.06936 2:-1.0870301 3:2.52336 4:-0.56189102 5:0.164322 6:-1.32573 7:-0.67799801 8:-3.7592299 9:-1.94748 10:-1.19718 14:1 24:1 #
0.020286052586785500995159026160763 1:-1.9299901 2:1.12903 3:0.38718301 4:0.52961701 5:-0.35025701 6:-0.85307002 7:-1.49981 8:0.79312098 9:1.65848 10:-1.40183 14:1 24:1 #
-0.10000000000000000555111512312578 1:-3.2836599 2:-0.93512601 3:1.98932 4:-0.86770201 5:-0.11012 6:-1.23787 7:0.293239 8:-2.8993399 9:-2.1303899 10:-0.97213399 14:1 24:1 #
-0.10000000000000000555111512312578 1:-2.44432 2:-1.06916 3:2.52336 4:-0.37369999 5:1.15918 6:-1.04483 7:-0.56593198 8:-3.8098099 9:-2.0258701 10:-1.15036 14:1 24:1 #
0.10000000000000000555111512312578 1:-1.45139 2:1.03967 3:-0.146862 4:0.308492 5:1.36501 6:-0.77482802 7:-0.97684002 8:1.04603 9:1.42331 10:-1.0401 14:1 20:1 #
0.10000000000000000555111512312578 1:-3.3979599 2:1.63837 3:1.05474 4:-1.26761 5:-0.79622602 6:-1.29944 7:-1.64923 8:-1.02782 9:0.71779501 10:-1.17075 14:1 24:1 #
-0.10000000000000000555111512312578 1:-2.6371901 2:-0.77428299 3:2.25634 4:0.69428402 5:1.55369 6:-1.20837 7:0.853567 8:-3.10167 9:-2.7836399 10:-1.01065 14:1 24:1 #
-0.10000000000000000555111512312578 1:-1.16208 2:-1.0781 3:1.85581 4:0.063843802 5:2.0854199 6:-0.97107601 7:-0.304445 8:-2.7981801 9:-1.50327 10:-0.41858801 13:1 47:1 #
-0.10000000000000000555111512312578 1:-2.1514399 2:-0.58663201 3:2.1228299 4:0.063843802 5:1.89674 6:-0.51765299 7:1.3765399 8:-2.3429401 9:-2.8359001 10:-1.35803 14:1 24:1 #
0.10000000000000000555111512312578 1:-1.96928 2:-0.92619097 3:-0.146862 4:-1.26761 5:-0.79622602 6:-1.2507 7:0.51736999 8:-0.62316602 9:-0.71936202 10:-1.22285 14:1 24:1 #
0.10000000000000000555111512312578 1:-0.79777098 2:-0.390046 3:-0.81441897 4:0.14853001 5:-0.36741 6:-0.171974 7:0.816212 8:0.43904901 9:-0.327411 10:0.43551901 13:1 18:1 #
0.10000000000000000555111512312578 1:-0.79777098 2:-0.220266 3:-0.68090802 4:0.308492 5:-0.36741 6:-0.167484 7:0.853567 8:0.59079403 9:-0.30127999 10:0.42796701 13:1 18:1 #
-0.10000000000000000555111512312578 1:-1.8728499 2:1.45072 3:1.05474 4:-0.68421501 5:0.30154401 6:-0.89988798 7:-2.02279 8:-0.42084 9:1.37105 10:-0.52053702 14:1 24:1 #
0.10000000000000000555111512312578 1:-1.8728499 2:1.45072 3:3.1909201 4:-0.63716799 5:0.19862799 6:-1.0319999 7:-4.2267499 8:-2.2923601 9:1.60622 10:-0.75615299 13:1 24:1 #
-0.10000000000000000555111512312578 1:-1.30852 2:0.038870499 3:-0.0133511 4:-0.13846201 5:-0.213036 6:-0.54074103 7:0.77885699 8:0.944866 9:-0.17062999 10:0.249745 13:1 18:1 #
-0.10000000000000000555111512312578 1:-1.5764 2:1.33455 3:0.65420598 4:-0.44427201 5:0.061406501 6:-1.12628 7:-1.7613 8:0.13555899 9:1.52783 10:-1.01518 14:1 24:1 #
0.043558666644050066107940466508808 1:-1.74784 2:0.467787 3:-0.28037399 4:0.96245599 5:1.15918 6:-0.96530402 7:-0.042958502 8:1.4001 9:0.79618502 10:-0.51222998 14:1 20:1 #
0.10000000000000000555111512312578 1:-1.89071 2:1.7634701 3:-0.0133511 4:-0.27019501 5:-0.91629499 6:-0.82677603 7:-0.640643 8:-0.471421 9:0.351973 10:-1.41391 14:1 24:1 #
-0.10000000000000000555111512312578 1:-0.98349899 2:-0.059422798 3:-0.28037399 4:0.308492 5:0.061406501 6:-0.070001602 7:0.89092302 8:0.79312098 9:-0.27515 10:0.32677299 13:1 18:1 #
-0.10000000000000000555111512312578 1:-1.16923 2:-0.229202 3:-0.413885 4:0.14382499 5:0.45591801 6:-0.44582301 7:0.96563298 8:0.54021198 9:-0.45806101 10:0.358491 13:1 18:1 #
-0.10000000000000000555111512312578 1:-0.73705298 2:0.101421 3:0.253672 4:0.073253401 5:-0.40171501 6:-0.023825601 7:0.74150199 8:1.04603 9:-0.118369 10:0.25805199 13:1 18:1 #
-0.031611704851622395018306832525923 1:-0.094149597 2:1.1469001 3:-0.54739702 4:-1.12646 5:-0.71046299 6:0.27182901 7:-0.79006398 8:0.84370297 9:1.21427 10:0.0390503 13:1 36:1 #
0.10000000000000000555111512312578 1:-1.69784 2:-0.40791699 3:-0.413885 4:-1.0700099 5:-0.65900499 6:-1.20324 7:1.00299 8:0.23672201 9:-0.64097202 10:-0.51298499 14:1 20:1 #
0.10000000000000000555111512312578 1:-3.8015599 2:1.79921 3:1.05474 4:-0.703035 5:-0.041509401 6:-1.44951 7:-1.16362 8:-1.43247 9:0.142932 10:-0.969868 14:1 16:1 #
-0.10000000000000000555111512312578 1:-3.06936 2:-0.89938301 3:1.98932 4:-0.467796 5:0.37015399 6:-1.11089 7:0.44266 8:-2.8993399 9:-2.26104 10:-0.94721299 14:1 20:1 #
-0.10000000000000000555111512312578 1:-2.7550499 2:-1.2032 3:2.9238999 4:-0.00672783 5:1.10772 6:-1.29495 7:-1.46246 8:-4.1132998 9:-1.5294 10:-0.99629998 14:1 24:1 #
-0.10000000000000000555111512312578 1:-2.71577 2:-1.0423599 3:1.5887901 4:-0.547777 5:0.35300201 6:-0.86653799 7:-0.0056032902 8:-2.4441099 9:-1.50327 10:-0.28718701 14:1 24:1 #
0.10000000000000000555111512312578 1:-0.96564001 2:-0.077294298 3:0.12016 4:0.14853001 5:0.98764998 6:-0.30537099 7:1.00299 8:0.69195801 9:-0.484191 10:0.56314403 13:1 18:1 #
0.10000000000000000555111512312578 1:-0.95135403 2:-0.0058082398 3:0.38718301 4:0.17205399 5:1.05626 6:-0.28997901 7:0.96563298 8:0.79312098 9:-0.43193099 10:0.58428901 13:1 18:1 #
0.10000000000000000555111512312578 1:-1.0120699 2:-0.184523 3:-0.81441897 4:0.0026817201 5:0.78181797 6:-0.375918 7:0.77885699 8:0.69195801 9:-0.17062999 10:0.49064699 13:1 18:1 #
-0.10000000000000000555111512312578 1:-0.63347399 2:-0.264945 3:0.78771698 4:0.50138801 5:1.53654 6:-0.0270322 7:1.3765399 8:-0.066767797 9:-1.34649 10:0.169696 13:1 18:1 #
-0.10000000000000000555111512312578 1:-1.54782 2:-0.64918202 3:-0.146862 4:0.035615101 5:0.81612301 6:-0.88064802 7:0.96563298 8:-0.31967601 9:-0.902273 10:-0.485044 13:1 18:1 #
-0.10000000000000000555111512312578 1:-0.88706303 2:-1.31936 3:0.78771698 4:0.14382499 5:1.0391099 6:-0.441975 7:-0.75270802 8:-1.43247 9:-0.17062999 10:0.47176799 13:1 24:1 #
-0.066620364050030189684292736274074 1:-0.80491501 2:0.1461 3:-1.61549 4:-1.12646 5:-0.79622602 6:-0.091807 7:0.293239 8:0.79312098 9:0.351973 10:-0.43067101 11:1 34:1 #
0.10000000000000000555111512312578 1:-3.6194 2:1.26307 3:2.3898499 4:-0.251376 5:0.73035997 6:-1.39179 7:-3.66642 8:-0.67374802 9:2.2072101 10:-0.885288 14:1 19:1 #
0.051578197413750526134634810659918 1:-1.2299401 2:-1.24788 3:1.05474 4:-0.27019501 5:0.35300201 6:-1.26096 7:-0.640643 8:-1.83713 9:-0.536452 10:-0.48126799 13:1 24:1 #
-0.10000000000000000555111512312578 1:-1.70498 2:0.97712398 3:1.05474 4:-0.56189102 5:0.044253901 6:-1.28276 7:-1.98543 8:1.04603 9:2.0243001 10:-1.47282 14:1 24:1 #
0.10000000000000000555111512312578 1:-1.07636 2:-0.67598999 3:0.52069402 4:-0.467796 5:-0.144425 6:-0.29510999 7:1.0777 8:-0.92665702 9:-1.45101 10:0.0020465299 13:1 18:1 #
-0.10000000000000000555111512312578 1:-1.6656899 2:1.05755 3:1.3217601 4:-0.420748 5:0.33584899 6:-0.67221397 7:-2.32163 8:0.74253899 9:2.1288199 10:-0.97213399 14:1 24:1 #
-0.10000000000000000555111512312578 1:-1.6549799 2:0.79840899 3:0.92122799 4:-0.32194799 5:0.28439099 6:-1.2212 7:-1.4251 8:1.4001 9:1.78913 10:-1.39428 14:1 24:1 #
0.10000000000000000555111512312578 1:-1.1478 2:-0.61343902 3:0.65420598 4:-0.053775601 5:0.59313899 6:-0.143755 7:1.22712 8:-0.977238 9:-1.60779 10:-0.92757797 13:1 18:1 #
0.10000000000000000555111512312578 1:-1.06565 2:-0.872576 3:0.52069402 4:-0.44427201 5:-0.161578 6:-0.298958 7:0.66679102 8:-1.1795599 9:-1.1897 10:-0.0243847 13:1 18:1 #
-0.10000000000000000555111512312578 1:-3.1908 2:1.36136 3:0.92122799 4:-1.0700099 5:-0.76192099 6:-1.00378 7:-2.02279 8:-0.066767797 9:1.55396 10:-0.97364402 14:1 24:1 #
-0.10000000000000000555111512312578 1:-2.0692899 2:1.45072 3:1.4552701 4:-1.12646 5:-0.50463098 6:-0.83511299 7:-2.4336901 8:-0.72433001 9:1.44944 10:-0.58472699 14:1 24:1 #
-0.10000000000000000555111512312578 1:-3.0014999 2:1.2809401 3:-0.28037399 4:-1.12646 5:-0.65900499 6:-0.79535002 7:-0.939484 8:0.64137602 9:1.21427 10:-0.48126799 14:1 31:1 #
0.10000000000000000555111512312578 1:-0.59418499 2:-1.23001 3:1.4552701 4:0.120301 5:1.99966 6:-0.71261799 7:-0.75270802 8:-2.2923601 9:-0.77162302 10:-1.03934 13:1 47:1 #
0.10000000000000000555111512312578 1:-0.64776099 2:-1.2568099 3:1.7223001 4:0.063843802 5:1.74237 6:-0.69337797 7:-1.05155 8:-2.54527 9:-0.71936202 10:-1.01895 13:1 47:1 #
0.10000000000000000555111512312578 1:-0.55132502 2:-1.15852 3:1.3217601 4:0.186168 5:2.0854199 6:-0.73185802 7:-0.37915599 8:-2.09004 9:-0.92840302 10:-1.0597301 13:1 47:1 #
-0.10000000000000000555111512312578 1:-0.84063101 2:-1.15852 3:0.92122799 4:-0.063185103 5:0.91903901 6:-1.0319999 7:-0.304445 8:-1.78655 9:-0.77162302 10:-0.69196302 13:1 47:1 #
-0.10000000000000000555111512312578 1:-0.69062102 2:-1.0423599 3:1.1882499 4:-0.251376 5:1.2106301 6:-0.66708398 7:0.106462 8:-1.98887 9:-1.24196 10:-0.83242601 13:1 27:1 #
-0.10000000000000000555111512312578 1:-0.6049 2:-1.27469 3:1.3217601 4:0.83072197 5:2.39417 6:-0.690813 7:-0.82741898 8:-1.98887 9:-0.484191 10:-0.96458203 13:1 47:1 #
0.10000000000000000555111512312578 1:-1.88713 2:0.79840899 3:1.5887901 4:-1.0700099 5:-0.45317301 6:-0.62283099 7:-2.02279 8:1.2989399 9:2.07656 10:-0.97893101 14:1 24:1 #
0.10000000000000000555111512312578 1:-1.2192301 2:-1.16746 3:0.253672 4:-1.26761 5:-0.79622602 6:-0.68119299 7:-0.080313802 8:-1.02782 9:-0.45806101 10:-0.53412998 13:1 34:1 #
0.10000000000000000555111512312578 1:-3.60869 2:0.76266599 3:2.25634 4:-0.98532099 5:-0.333105 6:-1.35331 7:-2.4336901 8:1.19777 9:2.1549499 10:-0.91776103 14:1 15:1 #
-0.10000000000000000555111512312578 1:-1.3621 2:-0.72960401 3:1.1882499 4:-0.82065398 5:-0.47032601 6:-0.65682203 7:1.0403399 8:-1.73596 9:-1.99974 10:-1.2221 13:1 18:1 #
-0.10000000000000000555111512312578 1:-1.25495 2:-0.58663201 3:2.3898499 4:-0.86770201 5:-0.144425 6:-0.60294998 7:1.3765399 8:-2.64643 9:-3.07107 10:-1.28025 13:1 18:1 #
-0.10000000000000000555111512312578 1:-1.99429 2:-0.56876099 3:1.3217601 4:-0.98532099 5:-0.59039497 6:-1.06792 7:1.3765399 8:-1.48306 9:-2.1826501 10:-0.65420401 13:1 18:1 #
0.10000000000000000555111512312578 1:-0.97278398 2:1.272 3:2.25634 4:-0.27019501 5:1.24494 6:-0.67991 7:-3.517 8:-0.62316602 9:2.1549499 10:-0.82487398 13:1 47:1 #
0.0084545799448886831822802534475159 1:-3.7051201 2:-1.35511 3:0.12016 4:-1.12646 5:-0.76192099 6:-1.33279 7:-0.453866 8:-0.62316602 9:0.116802 10:-0.98270601 14:1 15:1 #
0.062060654250980624990763345749656 1:-2.0335701 2:0.25332901 3:0.12016 4:-0.703035 5:-0.161578 6:-1.46426 7:0.40530401 8:1.2989399 9:0.32584301 10:-1.35048 13:1 16:1 #
-0.10000000000000000555111512312578 1:-1.77641 2:1.44178 3:0.38718301 4:-0.067889899 5:0.37015399 6:-1.2539001 7:-1.4251 8:-0.016186099 9:1.18814 10:-0.460123 13:1 24:1 #
-0.10000000000000000555111512312578 1:-1.6264 2:0.49459401 3:-0.146862 4:-0.82065398 5:-0.17873099 6:-0.99480498 7:-0.117669 8:1.45068 9:0.90070599 10:-0.82940501 13:1 16:1 #
-0.10000000000000000555111512312578 1:-1.75141 2:1.22733 3:0.92122799 4:-0.420748 5:0.62744403 6:-0.999295 7:-2.0975001 8:0.33788601 9:1.8152601 10:-0.33023199 14:1 24:1 #
0.10000000000000000555111512312578 1:-2.0692899 2:-0.58663201 3:1.85581 4:-0.98532099 5:-0.50463098 6:-1.14231 7:1.3765399 8:-2.0394499 9:-2.6007299 10:-0.76068401 13:1 18:1 #
-0.079152579644666376523787221231032 1:-0.029859301 2:1.70986 3:0.52069402 4:-0.24196699 5:-0.24734101 6:0.245535 7:-1.08891 8:-0.77491099 9:0.50875401 10:-0.516761 13:1 47:1 #
0.10000000000000000555111512312578 1:-1.95143 2:-0.36323801 3:2.3898499 4:-1.26761 5:-0.79622602 6:-1.17502 7:1.56332 8:-1.68538 9:-2.7836399 10:-1.07786 13:1 18:1 #
-0.10000000000000000555111512312578 1:-2.05143 2:-0.595568 3:1.85581 4:-0.98532099 5:-0.55608898 6:-1.03777 7:1.33919 8:-1.98887 9:-2.5223401 10:-0.660245 13:1 18:1 #
-0.10000000000000000555111512312578 1:-1.74784 2:-0.390046 3:1.4552701 4:-0.95238799 5:-0.50463098 6:-0.95311803 7:1.52596 8:-0.977238 9:-2.07813 10:-0.92908901 13:1 18:1 #
-0.10000000000000000555111512312578 1:-1.7121201 2:-0.54195303 3:1.05474 4:-0.75949198 5:-0.19588301 6:-1.2160701 7:1.3765399 8:-1.1795599 9:-1.94748 10:-0.82638401 13:1 18:1 #
0.10000000000000000555111512312578 1:-1.20494 2:-0.71173298 3:-0.28037399 4:-1.26761 5:-0.79622602 6:-0.101427 7:0.853567 8:-0.31967601 9:-0.823883 10:0.44307101 13:1 31:1 #
0.10000000000000000555111512312578 1:-1.97286 2:0.81628102 3:1.7223001 4:-1.0700099 5:-0.52178401 6:-0.63501698 7:-2.17221 8:1.24836 9:2.1288199 10:-0.96684802 14:1 24:1 #
0.10000000000000000555111512312578 1:-2.36217 2:1.1915801 3:2.3898499 4:0.063843802 5:1.89674 6:-0.99865299 7:-3.5543499 8:-0.269095 9:2.3378601 10:-0.62701702 14:1 24:1 #
-0.10000000000000000555111512312578 1:-2.2228701 2:1.01287 3:1.1882499 4:0.38376901 5:0.66175002 6:-1.29944 7:-2.2095599 8:0.89428401 9:2.10269 10:-1.01895 14:1 24:1 #
-0.10000000000000000555111512312578 1:-2.12644 2:1.30775 3:1.1882499 4:0.73662698 5:1.31355 6:-1.2135 7:-2.3589799 8:-0.066767797 9:1.78913 10:-0.113496 14:1 24:1 #
-0.10000000000000000555111512312578 1:-2.2228701 2:0.99499601 3:0.65420598 4:0.78837901 5:0.49022299 6:-1.34369 7:-1.64923 8:1.04603 9:1.84139 10:-1.0114 14:1 24:1 #
0.10000000000000000555111512312578 1:-1.9299901 2:-0.67598999 3:0.78771698 4:1.0095 5:0.67890197 6:-1.08331 7:1.11505 8:-1.1795599 9:-1.68618 10:-0.50165802 14:1 24:1 #
0.10000000000000000555111512312578 1:-1.89428 2:-0.68492502 3:0.65420598 4:1.08008 5:0.798971 6:-1.06407 7:1.0777 8:-1.0784 9:-1.55553 10:-0.485044 14:1 24:1 #
-0.084758979345480420231062623770413 1:-0.32988101 2:-1.0781 3:0.12016 4:0.938932 5:0.42161199 6:-0.25278199 7:0.181173 8:-0.87607503 9:-0.56258202 10:-0.52204698 13:1 25:1 #
-0.10000000000000000555111512312578 1:-1.75498 2:-0.51514602 3:0.78771698 4:-0.86770201 5:-0.40171501 6:-1.21799 7:1.33919 8:-0.82549298 9:-1.68618 10:-0.83469099 13:1 18:1 #
-0.10000000000000000555111512312578 1:-2.59076 2:-0.595568 3:1.85581 4:-1.12646 5:-0.59039497 6:-0.73763001 7:1.33919 8:-2.0394499 9:-2.5746 10:-1.12695 14:1 18:1 #
-0.10000000000000000555111512312578 1:-1.58354 2:-0.69386101 3:0.38718301 4:-0.067889899 5:-0.436021 6:-1.2058001 7:1.0403399 8:-0.82549298 9:-1.29423 10:-0.52204698 13:1 18:1 #
0.10000000000000000555111512312578 1:-2.05143 2:0.62862998 3:1.7223001 4:-0.44427201 5:1.24494 6:-0.58755797 7:-1.5371701 8:1.45068 9:1.68461 10:-0.93588501 14:1 15:1 #
0.10000000000000000555111512312578 1:-0.80491501 2:1.36136 3:0.78771698 4:0.43081599 5:1.31355 6:-0.302165 7:-1.83601 8:0.034395501 9:1.5017 10:0.295811 13:1 24:1 #
0.063535323962922593543645177760482 1:-3.3836701 2:1.81709 3:2.6568799 4:0.28496799 5:1.96535 6:-1.3148299 7:-2.3589799 8:-3.3545799 9:-0.35354099 10:-0.81581199 14:1 19:1 #
-0.10000000000000000555111512312578 1:-2.35145 2:1.3256201 3:1.7223001 4:-0.56189102 5:0.30154401 6:-0.95183599 7:-2.8819599 8:-0.42084 9:1.86752 10:-1.25155 14:1 24:1 #
-0.10000000000000000555111512312578 1:-2.2335899 2:1.18265 3:1.7223001 4:-0.95238799 5:-0.213036 6:-1.24813 7:-2.8819599 8:0.13555899 9:2.1810801 10:-0.275859 14:1 24:1 #
-0.10000000000000000555111512312578 1:-2.23002 2:1.1201 3:1.7223001 4:-0.86770201 5:-0.29879901 6:-1.2622401 7:-2.80725 8:0.38846701 9:2.23334 10:-0.29473901 14:1 24:1 #
0.032978788089306577957504629239338 1:-1.48711 2:-0.89044797 3:1.4552701 4:-0.67010099 5:-0.12727299 6:-0.331025 7:0.55472499 8:-2.2923601 9:-1.89522 10:-1.02877 13:1 18:1 #
0.10000000000000000555111512312578 1:-2.2764499 2:-0.54195303 3:1.5887901 4:-0.13846201 5:0.49022299 6:-0.82420999 7:1.4139 8:-1.53364 9:-2.3132999 10:-0.90492302 14:1 16:1 #
0.086369371397022734471171645509457 1:-2.0264299 2:-0.61343902 3:1.05474 4:-0.86770201 5:-0.281647 6:-1.0570101 7:1.26448 8:-1.33131 9:-1.94748 10:-0.34231499 14:1 20:1 #
-0.10000000000000000555111512312578 1:-1.94428 2:-0.72960401 3:0.52069402 4:-0.98532099 5:-0.315952 6:-0.94798797 7:1.00299 8:-1.02782 9:-1.3987499 10:-0.45106101 14:1 20:1 #
-0.10000000000000000555111512312578 1:-2.2943101 2:-0.93512601 3:0.52069402 4:-0.50543398 5:0.26723799 6:-1.06407 7:0.51736999 8:-1.23015 9:-1.08518 10:-1.0197099 14:1 24:1 #
-0.10000000000000000555111512312578 1:-3.31581 2:-0.631311 3:0.52069402 4:-0.86770201 5:-0.52178401 6:-1.20837 7:1.15241 8:-0.87607503 9:-1.4771399 10:-1.0469 14:1 20:1 #
0.10000000000000000555111512312578 1:-1.70498 2:0.217586 3:-1.8825099 4:1.02832 5:1.36501 6:-0.95632499 7:0.25588301 8:0.74253899 9:0.37810299 10:-0.46087801 14:1 20:1 #
0.10000000000000000555111512312578 1:-1.94785 2:0.69117999 3:0.65420598 4:-1.26761 5:-0.79622602 6:-0.45929101 7:-1.01419 8:1.50126 9:1.52783 10:-1.19038 13:1 30:1 #
0.066316009665987329935177285733516 1:-1.0085 2:1.75453 3:0.52069402 4:-1.0700099 5:-0.62470001 6:-0.18736599 7:-0.939484 8:-0.77491099 9:0.37810299 10:0.431743 13:1 24:1 #
-0.10000000000000000555111512312578 1:-0.67276198 2:1.22733 3:1.1882499 4:-0.84417802 5:-0.384563 6:-0.49135801 7:-2.3963399 8:0.23672201 9:1.94591 10:-0.61191398 13:1 47:1 #
-0.10000000000000000555111512312578 1:-0.42274401 2:1.38817 3:1.5887901 4:-0.86770201 5:-0.384563 6:-0.89988798 7:-2.62047 8:-0.57258499 9:1.65848 10:-0.53412998 13:1 47:1 #
-0.10000000000000000555111512312578 1:-0.294164 2:1.46859 3:1.05474 4:-0.67010099 5:-0.17873099 6:-0.52021801 7:-2.0601399 8:-0.522003 9:1.31879 10:-0.566603 13:1 47:1 #
-0.10000000000000000555111512312578 1:0.163012 2:-0.96193397 3:1.7223001 4:-0.16669001 5:-0.84768403 6:-0.918486 7:0.218528 8:-2.7476001 9:-1.92135 10:0.099464603 13:1 38:1 #
0.10000000000000000555111512312578 1:-1.85142 2:-0.81002599 3:0.253672 4:-0.82065398 5:-0.12727299 6:-1.29944 7:0.816212 8:-0.87607503 9:-1.13744 10:-1.18056 14:1 24:1 #
0.10000000000000000555111512312578 1:-3.1872301 2:1.45072 3:1.98932 4:0.28496799 5:2.9430499 6:-1.3148299 7:-2.99402 8:-1.1795599 9:1.52783 10:-0.83242601 14:1 19:1 #
-0.10000000000000000555111512312578 1:-1.90499 2:-0.48833901 3:0.253672 4:-1.12646 5:-0.76192099 6:-0.90630102 7:1.22712 8:-0.31967601 9:-1.1897 10:-1.03028 14:1 24:1 #
0.10000000000000000555111512312578 1:-1.1835099 2:1.2809401 3:1.7223001 4:-0.82065398 5:-0.041509401 6:-0.632451 7:-2.8446 8:-0.269095 9:1.9720401 10:-0.800708 13:1 47:1 #
-0.10000000000000000555111512312578 1:-3.1586499 2:-1.09597 3:1.85581 4:-1.12646 5:-0.93344802 6:-1.22697 7:-0.34180099 8:-2.7981801 9:-1.4771399 10:-0.969868 14:1 24:1 #
0.10000000000000000555111512312578 1:-0.96206897 2:-0.28281701 3:-0.413885 4:0.69428402 5:-1.32796 6:-1.06792 7:0.96563298 8:0.43904901 9:-0.484191 10:-1.37993 13:1 18:1 #
-0.10000000000000000555111512312578 1:-1.69784 2:-0.54195303 3:0.12016 4:-0.95238799 5:-0.59039497 6:-1.14552 7:1.15241 8:-0.370258 9:-1.16357 10:-1.2153 14:1 24:1 #
-0.10000000000000000555111512312578 1:-2.0871501 2:-0.908319 3:0.65420598 4:-0.251376 5:-0.213036 6:-0.90950799 7:0.55472499 8:-1.43247 9:-1.29423 10:-0.92908901 14:1 24:1 #
0.10000000000000000555111512312578 1:-0.42631599 2:1.69198 3:0.38718301 4:-0.703035 5:-0.024356799 6:-0.50290197 7:-1.01419 8:-0.57258499 9:0.561014 10:-0.108965 13:1 27:1 #
0.10000000000000000555111512312578 1:-0.38702801 2:1.69198 3:0.38718301 4:-0.24196699 5:0.164322 6:-0.41055 7:-1.01419 8:-0.57258499 9:0.561014 10:-0.210159 13:1 27:1 #
-0.10000000000000000555111512312578 1:-2.2550199 2:-1.31043 3:-0.68090802 4:-0.251376 5:0.112864 6:-1.19426 7:-0.080313802 8:-0.066767797 9:0.169062 10:-1.03934 14:1 24:1 #
-0.10000000000000000555111512312578 1:-2.13358 2:-1.37298 3:-0.0133511 4:-0.067889899 5:-0.41886801 6:-0.60038501 7:-0.453866 8:-0.522003 9:0.169062 10:-1.1496 14:1 24:1 #
-0.10000000000000000555111512312578 1:-1.67641 2:-0.434724 3:-0.146862 4:-0.84417802 5:-0.487479 6:-1.17117 7:1.0777 8:0.034395501 9:-0.85001302 10:-1.23041 14:1 24:1 #
0.10000000000000000555111512312578 1:-2.6371901 2:-1.35511 3:3.05741 4:-0.95238799 5:-0.315952 6:-0.98454398 7:-2.4336901 8:-4.0121398 9:-0.71936202 10:-0.67459399 14:1 24:1 #
-0.051026495855031689385938875602733 1:-0.81920099 2:-1.14065 3:0.38718301 4:1.16006 5:1.51938 6:-0.54074103 7:-0.042958502 8:-1.12898 9:-0.56258202 10:0.113813 11:1 44:1 #
0.10000000000000000555111512312578 1:-2.7943399 2:-1.37298 3:2.1228299 4:-1.0700099 5:-0.55608898 6:-0.52534902 7:-1.7613 8:-2.6970201 9:-0.327411 10:-1.29308 14:1 24:1 #
-0.10000000000000000555111512312578 1:-2.3693099 2:-1.28362 3:0.92122799 4:-0.68421501 5:-0.11012 6:-1.37255 7:-0.67799801 8:-1.53364 9:-0.327411 10:-0.73576301 14:1 24:1 #
-0.10000000000000000555111512312578 1:-2.3193099 2:-1.16746 3:0.78771698 4:-0.420748 5:0.33584899 6:-0.64591998 7:-0.229735 8:-1.48306 9:-0.64097202 10:-1.0997601 14:1 24:1 #
0.09147763670436453997680814609339 1:-1.0013601 2:1.52221 3:1.4552701 4:0.28496799 5:1.9482 6:-0.86076599 7:-2.2469201 8:-0.977238 9:1.18814 10:-1.01895 13:1 47:1 #
0.09760692354724531671905651819543 1:-0.82634503 2:1.36136 3:0.78771698 4:0.289673 5:1.2106301 6:-0.29575101 7:-1.9480799 8:-0.016186099 9:1.52783 10:0.31846601 13:1 24:1 #
-0.10000000000000000555111512312578 1:-2.76934 2:-1.2657501 3:2.3898499 4:-0.105528 5:1.48508 6:-1.2212 7:-1.46246 8:-3.3545799 9:-0.98066401 10:-1.2591 14:1 24:1 #
-0.10000000000000000555111512312578 1:-2.8943501 2:-1.14958 3:3.4579401 4:0.120301 5:0.88473397 6:-1.23531 7:-1.49981 8:-4.9731898 9:-2.1826501 10:-1.20926 14:1 24:1 #
-0.10000000000000000555111512312578 1:-3.45153 2:-1.2568099 3:3.7249701 4:-0.86770201 5:0.43876499 6:-1.43797 7:-2.3963399 8:-5.2261 9:-1.68618 10:-1.21908 14:1 24:1 #
0.10000000000000000555111512312578 1:-1.5764 2:-0.56876099 3:-0.94793099 4:-0.86770201 5:-0.65900499 6:-1.30265 7:0.74150199 8:0.28730401 9:-0.35354099 10:-0.308332 14:1 20:1 #
0.10000000000000000555111512312578 1:-3.2300899 2:1.38817 3:2.1228299 4:0.651941 5:2.63431 6:-1.2641701 7:-3.2555101 8:-1.02782 9:1.763 10:-0.73576301 14:1 19:1 #
0.10000000000000000555111512312578 1:-0.92635202 2:1.52221 3:1.98932 4:0.289673 5:1.6223 6:-0.82934099 7:-2.7698901 8:-1.43247 9:1.2404 10:-0.97364402 13:1 47:1 #
-0.10000000000000000555111512312578 1:-0.93706697 2:1.54901 3:1.4552701 4:-0.84417802 5:0.0271012 6:-0.49456501 7:-2.2095599 8:-1.0784 9:1.08362 10:-0.54847902 13:1 47:1 #
0.10000000000000000555111512312578 1:-0.72276598 2:1.36136 3:1.1882499 4:-0.067889899 5:1.51938 6:-0.442617 7:-2.32163 8:-0.269095 9:1.63235 10:-0.467675 13:1 27:1 #
-0.10000000000000000555111512312578 1:-0.88349199 2:1.3703001 3:0.65420598 4:-0.50543398 5:-0.075814798 6:-0.39900601 7:-1.72394 8:0.084977202 9:1.44944 10:-0.53564101 13:1 27:1 #
-0.10000000000000000555111512312578 1:-1.8157001 2:1.42391 3:1.4552701 4:-0.82065398 5:-0.29879901 6:-1.01982 7:-2.4336901 8:-0.62316602 9:1.5017 10:-0.42689499 13:1 24:1 #
-0.10000000000000000555111512312578 1:-0.66204703 2:-0.398981 3:-0.0133511 4:-0.56189102 5:0.181475 6:-0.68055201 7:1.15241 8:0.034395501 9:-0.902273 10:-0.33778399 13:1 25:1 #
0.10000000000000000555111512312578 1:-0.55489701 2:1.63837 3:1.05474 4:-0.68421501 5:-0.144425 6:-0.44454101 7:-1.64923 8:-1.02782 9:0.71779501 10:-0.237345 13:1 27:1 #
-0.10000000000000000555111512312578 1:-1.4621 2:1.4596601 3:0.78771698 4:-1.12646 5:-0.55608898 6:-0.76648998 7:-1.72394 8:-0.269095 9:1.26653 10:-0.121803 13:1 27:1 #
-0.10000000000000000555111512312578 1:-0.93349499 2:1.1201 3:2.25634 4:-0.703035 5:0.044253901 6:-0.418246 7:-3.33022 8:0.13555899 9:2.41625 10:-0.53412998 13:1 27:1 #
-0.10000000000000000555111512312578 1:-0.954925 2:1.33455 3:2.25634 4:-0.129052 5:0.97049701 6:-0.86204898 7:-3.3675799 8:-0.82549298 9:1.9720401 10:-0.69951397 13:1 38:1 #
0.10000000000000000555111512312578 1:-2.6907599 2:-1.1763901 3:3.59146 4:-0.547777 5:1.17633 6:-1.2058001 7:-1.7613 8:-5.2261 9:-2.1303899 10:-1.28176 14:1 24:1 #
0.10000000000000000555111512312578 1:-2.5550399 2:1.21839 3:2.79039 4:-0.063185103 5:-0.84768403 6:-0.90309399 7:-4.1146798 8:-0.77491099 9:2.39012 10:-0.79315698 14:1 24:1 #
0.10000000000000000555111512312578 1:-2.7372 2:-1.11384 3:3.9919901 4:-0.68421501 5:0.953345 6:-1.19683 7:-1.64923 8:-5.7319198 9:-2.6529901 10:-1.26212 14:1 24:1 #
-0.10000000000000000555111512312578 1:-1.90856 2:-1.3014899 3:2.1228299 4:-0.467796 5:0.095711797 6:-1.11089 7:-1.46246 8:-2.9499199 9:-0.71936202 10:-0.65269297 14:1 24:1 #
-0.10000000000000000555111512312578 1:-2.2228701 2:-1.11384 3:1.5887901 4:-0.75949198 5:0.45591801 6:-0.44005099 7:-0.34180099 8:-2.4946899 9:-1.2681 10:-0.87924701 14:1 24:1 #
-0.10000000000000000555111512312578 1:-2.3907399 2:-0.94406199 3:1.1882499 4:0.289673 5:0.62744403 6:-1.33279 7:0.40530401 8:-2.0394499 9:-1.60779 10:-0.325701 14:1 24:1 #
0.10000000000000000555111512312578 1:-0.96564001 2:1.22733 3:1.7223001 4:-0.703035 5:-0.281647 6:-0.49135801 7:-2.8446 8:-0.016186099 9:2.07656 10:-0.27888 13:1 27:1 #
0.10000000000000000555111512312578 1:-1.16208 2:-1.14958 3:-0.146862 4:-0.420748 5:-0.213036 6:-1.14808 7:0.069107197 8:-0.57258499 9:-0.30127999 10:-0.58246201 13:1 24:1 #
0.10000000000000000555111512312578 1:-0.56561202 2:1.58476 3:1.4552701 4:-0.36429101 5:-0.19588301 6:-0.39131001 7:-2.13485 8:-1.23015 9:0.95296597 10:-0.308332 13:1 27:1 #
-0.10000000000000000555111512312578 1:-0.72276598 2:1.26307 3:1.85581 4:-0.98532099 5:-0.41886801 6:-0.69786799 7:-2.99402 8:-0.269095 9:2.0504301 10:-0.41103601 13:1 27:1 #
0.10000000000000000555111512312578 1:-1.29781 2:-0.81896198 3:1.5887901 4:-0.36429101 5:0.52452803 6:-0.63630003 7:0.77885699 8:-2.3935299 9:-2.1826501 10:-0.158051 13:1 24:1 #
-0.10000000000000000555111512312578 1:-0.69776398 2:0.83415198 3:1.1882499 4:-1.0700099 5:-0.53893697 6:-0.022542899 7:-1.83601 8:1.2989399 9:1.99817 10:-0.92380202 13:1 27:1 #
-0.10000000000000000555111512312578 1:-0.75133902 2:0.71798801 3:2.1228299 4:-1.12646 5:-0.79622602 6:0.220523 7:-2.13485 8:1.2989399 9:1.99817 10:-0.31210801 13:1 27:1 #
0.10000000000000000555111512312578 1:-2.0585799 2:-1.33724 3:2.6568799 4:0.0026817201 5:1.14202 6:-1.0025001 7:-2.0601399 8:-3.6074901 9:-0.71936202 10:-0.98874801 14:1 24:1 #
0.10000000000000000555111512312578 1:-1.2763799 2:-0.99767703 3:1.4552701 4:-0.37369999 5:0.38730699 6:-1.29944 7:0.14381801 8:-2.3429401 9:-1.58166 10:-0.39064601 13:1 24:1 #
-0.10000000000000000555111512312578 1:-3.05865 2:-1.02448 3:3.59146 4:-0.86770201 5:0.164322 6:-0.84537399 7:-0.82741898 8:-5.2261 9:-2.91429 10:-1.1775399 14:1 24:1 #
-0.10000000000000000555111512312578 1:-1.52997 2:-0.74747598 3:-0.68090802 4:0.073253401 5:0.42161199 6:-0.86204898 7:0.70414603 8:-0.016186099 9:-0.45806101 10:-0.49259499 13:1 18:1 #
-0.10000000000000000555111512312578 1:-1.51568 2:-0.54195303 3:-0.146862 4:-0.00672783 5:0.49022299 6:-0.83767802 7:1.0777 8:-0.16793101 9:-0.95453399 10:-0.477492 13:1 18:1 #
0.10000000000000000555111512312578 1:-1.96928 2:-1.23894 3:2.79039 4:0.14382499 5:1.57084 6:-0.99480498 7:-1.57452 8:-3.91098 9:-1.29423 10:-0.96231699 14:1 24:1 #
0.052151302444467931285210227088101 1:-1.71927 2:-1.05129 3:2.3898499 4:-0.36429101 5:0.52452803 6:-0.79535002 7:-0.34180099 8:-3.50632 9:-1.99974 10:-0.78409398 13:1 18:1 #
0.0092012153023772937782132075312802 1:-2.7336199 2:-1.35511 3:2.25634 4:-0.067889899 5:1.72521 6:-1.1282001 7:-1.7613 8:-2.8993399 9:-0.43193099 10:-0.863388 14:1 24:1 #
-0.10000000000000000555111512312578 1:-2.4228899 2:-1.2657501 3:1.85581 4:0.651941 5:1.3307 6:-0.97877198 7:-1.16362 8:-2.7476001 9:-0.79775298 10:-0.72594601 14:1 24:1 #
-0.10000000000000000555111512312578 1:-2.2514501 2:-1.3908499 3:1.98932 4:0.426112 5:1.3307 6:-0.74532598 7:-1.7613 8:-2.54527 9:-0.19676 10:-1.37993 14:1 24:1 #
-0.10000000000000000555111512312578 1:-2.5479 2:-1.18533 3:1.3217601 4:0.204987 5:1.09057 6:-0.67478001 7:-0.49122199 8:-2.09004 9:-0.823883 10:-0.94721299 14:1 24:1 #
0.10000000000000000555111512312578 1:-1.02993 2:0.75373101 3:1.7223001 4:-1.0700099 5:-0.60754699 6:-0.55164301 7:-2.02279 8:1.34952 9:2.0243001 10:-0.47598201 13:1 18:1 #
0.10000000000000000555111512312578 1:-1.03707 2:1.1469001 3:1.7223001 4:-0.56189102 5:-0.264494 6:-0.48751 7:-2.8819599 8:0.28730401 9:2.23334 10:-0.28945199 13:1 27:1 #
0.10000000000000000555111512312578 1:-1.21209 2:0.583951 3:0.92122799 4:-1.26761 5:-0.79622602 6:-0.18736599 7:-0.86477399 8:1.55185 9:1.37105 10:0.078319602 13:1 31:1 #
-0.10000000000000000555111512312578 1:-1.40853 2:0.67330903 3:1.98932 4:-0.98532099 5:-0.35025701 6:-0.73185802 7:-1.83601 8:1.4001 9:1.84139 10:-1.0997601 13:1 18:1 #
-0.10000000000000000555111512312578 1:-1.52639 2:0.87883103 3:1.98932 4:-0.75949198 5:0.044253901 6:-0.918486 7:-2.5831201 8:1.04603 9:2.2855999 10:-0.39668801 13:1 42:1 #
-0.10000000000000000555111512312578 1:-1.1835099 2:0.76266599 3:1.5887901 4:-1.12646 5:-0.59039497 6:0.106365 7:-1.91072 8:1.34952 9:1.99817 10:-0.039488301 13:1 25:1 #
0.10000000000000000555111512312578 1:-1.16565 2:-0.184523 3:-0.0133511 4:0.035615101 5:-0.19588301 6:-1.19169 7:1.0777 8:0.489631 9:-0.66710198 10:-1.28025 13:1 18:1 #
0.10000000000000000555111512312578 1:-1.3871 2:-0.32749501 3:-0.413885 4:0.63312203 5:1.24494 6:-1.08523 7:1.00299 8:0.38846701 9:-0.56258202 10:-0.67836899 13:1 18:1 #
0.089593369932939384558956419368769 1:-1.93357 2:-0.16665199 3:-0.413885 4:1.70111 5:1.1248699 6:-1.0319999 7:0.92827803 8:0.64137602 9:-0.35354099 10:-0.62097597 14:1 20:1 #
-0.10000000000000000555111512312578 1:-1.6014 2:-0.300688 3:-0.68090802 4:-0.067889899 5:0.164322 6:-1.3295799 7:0.89092302 8:0.489631 9:-0.37967101 10:-1.14054 13:1 18:1 #
0.10000000000000000555111512312578 1:-1.35495 2:0.77160197 3:2.79039 4:-1.26761 5:-0.79622602 6:0.29620001 7:-2.95667 8:0.99544799 9:2.2855999 10:-0.69120699 13:1 18:1 #
-0.10000000000000000555111512312578 1:-1.25852 2:-0.40791699 3:-0.146862 4:-0.36429101 5:-0.00720412 6:-0.52534902 7:1.15241 8:0.084977202 9:-0.902273 10:-0.707066 13:1 18:1 #
-0.10000000000000000555111512312578 1:-1.25852 2:-0.47940299 3:-0.146862 4:-0.13846201 5:-0.67615801 6:-1.19683 7:1.11505 8:-0.066767797 9:-0.92840302 10:-0.61191398 13:1 18:1 #
0.10000000000000000555111512312578 1:-1.52282 2:0.83415198 3:1.5887901 4:-0.86770201 5:-0.53893697 6:-0.91976899 7:-2.2095599 8:1.19777 9:2.1288199 10:-0.207893 13:1 47:1 #
0.10000000000000000555111512312578 1:-1.45496 2:0.73585898 3:1.7223001 4:-1.26761 5:-0.79622602 6:0.28593901 7:-1.91072 8:1.4001 9:1.94591 10:-0.75766301 13:1 18:1 #
-0.10000000000000000555111512312578 1:-1.59069 2:-0.85470498 3:0.78771698 4:-1.12646 5:-0.64185202 6:-1.01982 7:0.70414603 8:-1.48306 9:-1.45101 10:-0.477492 13:1 24:1 #
-0.10000000000000000555111512312578 1:-2.0264299 2:-0.96193397 3:1.05474 4:-0.56189102 5:-0.024356799 6:-1.15321 7:0.40530401 8:-1.83713 9:-1.42488 10:-1.02424 13:1 24:1 #
-0.10000000000000000555111512312578 1:-1.40139 2:-0.95299798 3:0.38718301 4:-0.82065398 5:-0.384563 6:-0.51829398 7:0.48001501 8:-1.1795599 9:-1.03292 10:-0.47598201 13:1 24:1 #
0.10000000000000000555111512312578 1:-1.67998 2:0.90563798 3:1.1882499 4:-0.067889899 5:0.47307 6:-1.13718 7:-1.9480799 8:1.14719 9:2.0243001 10:-1.24626 14:1 24:1 #
0.10000000000000000555111512312578 1:-1.72998 2:0.896703 3:1.1882499 4:-0.19491901 5:0.232933 6:-1.14552 7:-1.98543 8:1.19777 9:2.0504301 10:-1.24551 14:1 24:1 #
0.10000000000000000555111512312578 1:-1.69784 2:0.968189 3:1.05474 4:-0.16669001 5:0.38730699 6:-1.15386 7:-1.98543 8:1.04603 9:2.0243001 10:-1.2689199 14:1 24:1 #
-0.10000000000000000555111512312578 1:-2.6693299 2:1.2809401 3:1.1882499 4:-0.16669001 5:0.747513 6:-1.02495 7:-2.3963399 8:-0.016186099 9:1.84139 10:-1.20926 14:1 24:1 #
-0.10000000000000000555111512312578 1:-3.10865 2:0.94138098 3:1.85581 4:-0.67010099 5:0.33584899 6:-1.3840899 7:-2.6951799 8:0.89428401 9:2.3378601 10:-1.07408 14:1 24:1 #
-0.10000000000000000555111512312578 1:-3.0729301 2:1.01287 3:1.05474 4:-0.84417802 5:-0.19588301 6:-1.1763 7:-1.98543 8:0.944866 9:1.99817 10:-0.89737099 14:1 20:1 #
0.10000000000000000555111512312578 1:-2.10501 2:-0.559825 3:1.1882499 4:-1.0700099 5:-0.59039497 6:-0.978131 7:1.3765399 8:-1.33131 9:-2.0258701 10:-0.38687 14:1 19:1 #
0.10000000000000000555111512312578 1:-1.19423 2:-0.80109 3:-0.54739702 4:0.035615101 5:1.02196 6:-0.58306903 7:0.66679102 8:-0.218513 9:-0.56258202 10:-0.136151 13:1 16:1 #
0.10000000000000000555111512312578 1:-1.53711 2:-0.54195303 3:1.5887901 4:-0.84417802 5:-0.60754699 6:-0.31435001 7:1.4139 8:-1.5842201 9:-2.3132999 10:-1.0786099 13:1 24:1 #
-0.09835337416410758204499131807097 1:-0.60847199 2:0.63756597 3:1.98932 4:-0.95238799 5:-0.213036 6:0.40394399 7:-1.68659 8:1.45068 9:1.7368701 10:-0.51222998 13:1 18:1 #
-0.10000000000000000555111512312578 1:-0.77991301 2:0.78053802 3:1.98932 4:0.43081599 5:-0.00720412 6:-0.70620501 7:-2.2469201 8:1.24836 9:2.1288199 10:-0.447285 13:1 47:1 #
-0.10000000000000000555111512312578 1:-0.394171 2:1.15584 3:1.4552701 4:-0.63716799 5:0.061406501 6:-0.0020202 7:-2.62047 8:0.33788601 9:2.1288199 10:-0.38007399 13:1 47:1 #
0.10000000000000000555111512312578 1:-1.52282 2:-0.38111001 3:0.12016 4:-0.95238799 5:-0.74476802 6:-0.73185802 7:1.22712 8:-0.016186099 9:-1.00679 10:-0.50618899 13:1 18:1 #
0.10000000000000000555111512312578 1:-1.8728499 2:-0.32749501 3:0.253672 4:-1.12646 5:-0.93344802 6:-1.14808 7:1.22712 8:0.084977202 9:-1.00679 10:-1.02877 13:1 18:1 #
0.10000000000000000555111512312578 1:-1.60497 2:-0.16665199 3:0.38718301 4:-1.26761 5:-0.79622602 6:-1.08523 7:1.18976 8:0.38846701 9:-0.85001302 10:-0.82940501 13:1 18:1 #
-0.10000000000000000555111512312578 1:-1.66212 2:-0.461532 3:-0.0133511 4:-1.26761 5:-0.79622602 6:-0.813308 7:1.15241 8:-0.11735 9:-0.98066401 10:-1.04237 13:1 18:1 #
-0.10000000000000000555111512312578 1:-1.6656899 2:-0.390046 3:-0.413885 4:-0.98532099 5:-1.07067 6:-0.74404401 7:1.00299 8:0.23672201 9:-0.64097202 10:-0.32796699 13:1 18:1 #
-0.10000000000000000555111512312578 1:-1.98 2:-0.77428299 3:0.253672 4:-1.12646 5:-0.76192099 6:-1.15257 7:0.853567 8:-0.82549298 9:-1.13744 10:-1.05067 13:1 24:1 #
0.10000000000000000555111512312578 1:-0.994214 2:1.07542 3:2.25634 4:-0.32194799 5:0.66175002 6:-0.59461302 7:-3.3675799 8:0.28730401 9:2.4685099 10:-0.72594601 13:1 27:1 #
0.10000000000000000555111512312578 1:-1.09779 2:1.17371 3:1.7223001 4:-0.420748 5:-0.230189 6:-0.48237899 7:-2.95667 8:0.13555899 9:2.2072101 10:-0.30002499 13:1 27:1 #
-0.011545834112183897199321869209143 1:0.213015 2:1.81709 3:1.1882499 4:1.55996 5:-0.89914203 6:-1.03842 7:-1.2009701 8:-1.6348 9:0.038411301 10:-0.55300999 13:1 38:1 #
-0.10000000000000000555111512312578 1:-0.96564001 2:0.92351002 3:2.6568799 4:-0.86770201 5:-0.058662102 6:-0.89347398 7:-3.3675799 8:0.64137602 9:2.5469 10:-0.41254699 13:1 27:1 #
-0.10000000000000000555111512312578 1:-0.55846798 2:0.95031703 3:1.85581 4:-0.68421501 5:-0.161578 6:-0.29959899 7:-2.62047 8:0.89428401 9:2.3117299 10:-0.26226601 13:1 27:1 #
-0.10000000000000000555111512312578 1:-0.50132197 2:0.88776702 3:2.3898499 4:-0.13846201 5:1.09057 6:0.0185025 7:-3.0687301 8:0.84370297 9:2.44238 10:-0.91323 13:1 27:1 #
0.10000000000000000555111512312578 1:-2.05143 2:1.79921 3:1.4552701 4:-1.0700099 5:-0.55608898 6:-0.59268898 7:-1.46246 8:-1.88771 9:0.038411301 10:-1.1586601 14:1 24:1 #
-0.10000000000000000555111512312578 1:-0.47274801 2:-0.72960401 3:0.38718301 4:-0.13846201 5:-0.041509401 6:-0.29639199 7:0.96563298 8:-0.92665702 9:-1.3203599 10:-0.0311813 13:1 47:1 #
0.10000000000000000555111512312578 1:-3.2158 2:1.63837 3:2.52336 4:0.57195997 5:2.80583 6:-1.27635 7:-2.9193101 8:-2.4441099 9:0.69166398 10:-0.77050102 14:1 19:1 #
-0.10000000000000000555111512312578 1:-1.41567 2:-1.10491 3:-0.28037399 4:0.43552101 5:-1.32796 6:-0.72929299 7:0.181173 8:-0.522003 9:-0.35354099 10:-0.62399697 13:1 18:1 #
-0.10000000000000000555111512312578 1:-0.73705298 2:-1.06916 3:-0.413885 4:-0.63716799 5:-1.0020601 6:-0.121308 7:0.25588301 8:-0.42084 9:-0.327411 10:-0.95098901 13:1 18:1 #
-0.10000000000000000555111512312578 1:-1.4585299 2:-0.14878 3:0.78771698 4:-0.703035 5:-0.29879901 6:-0.781241 7:1.26448 8:0.28730401 9:-1.05905 10:-0.161072 13:1 18:1 #
0.10000000000000000555111512312578 1:-2.1942999 2:0.82521701 3:2.79039 4:-0.56189102 5:0.55883402 6:-0.60166699 7:-3.1808 8:0.84370297 9:2.41625 10:-0.99252403 14:1 15:1 #
0.10000000000000000555111512312578 1:-2.0978601 2:0.70905203 3:2.6568799 4:-0.56189102 5:1.02196 6:-0.568959 7:-2.5831201 8:1.14719 9:2.07656 10:-0.92380202 14:1 15:1 #
0.048587263597824982552797479229412 1:-1.98357 2:1.05755 3:2.1228299 4:-0.13846201 5:0.88473397 6:-0.717749 7:-3.14344 8:0.43904901 9:2.41625 10:-0.466919 14:1 24:1 #
-0.10000000000000000555111512312578 1:-2.28002 2:1.01287 3:2.3898499 4:-0.41133901 5:1.15918 6:-1.29944 7:-3.3675799 8:0.43904901 9:2.5207701 10:-0.420854 14:1 24:1 #
-0.10000000000000000555111512312578 1:-2.1443 2:0.968189 3:1.85581 4:-0.37369999 5:0.55883402 6:-1.18464 7:-2.7325399 8:0.79312098 9:2.3378601 10:-0.112741 14:1 18:1 #
-0.10000000000000000555111512312578 1:-2.98364 2:0.82521701 3:1.7223001 4:-0.44427201 5:1.22779 6:-1.29238 7:-2.2469201 8:1.19777 9:2.1549499 10:-1.3353699 14:1 19:1 #
0.10000000000000000555111512312578 1:-0.85134703 2:-0.184523 3:0.38718301 4:0.28496799 5:-0.62470001 6:-0.214302 7:1.18976 8:0.38846701 9:-0.85001302 10:0.48611599 13:1 18:1 #
0.10000000000000000555111512312578 1:-0.87634802 2:-0.14878 3:0.52069402 4:0.28496799 5:-0.74476802 6:-0.22969399 7:1.18976 8:0.38846701 9:-0.902273 10:0.50575101 13:1 18:1 #
0.10000000000000000555111512312578 1:-0.88706303 2:-1.2210701 3:-0.28037399 4:0.51550198 5:-0.230189 6:0.017219801 7:-0.042958502 8:-0.471421 9:-0.118369 10:-0.204117 13:1 46:1 #
-0.10000000000000000555111512312578 1:-0.72633803 2:-0.24707399 3:0.12016 4:0.120301 5:0.55883402 6:-0.336155 7:1.18976 8:0.28730401 9:-0.85001302 10:0.188576 13:1 24:1 #
0.10000000000000000555111512312578 1:-3.5301099 2:1.18265 3:2.1228299 4:-0.105528 5:1.2964 6:-1.37255 7:-3.2555101 8:-0.066767797 9:2.2855999 10:-0.87244999 14:1 19:1 #
-0.10000000000000000555111512312578 1:-1.15851 2:-0.264945 3:-0.146862 4:-1.0700099 5:-0.69331002 6:-0.0103575 7:1.0777 8:0.38846701 9:-0.66710198 10:0.36528701 13:1 18:1 #
-0.10000000000000000555111512312578 1:-0.99064201 2:-0.32749501 3:0.65420598 4:0.035615101 5:0.0271012 6:0.033894502 7:1.3765399 8:-0.16793101 9:-1.34649 10:0.23615199 13:1 24:1 #
0.01445193966177024669228501352336 1:-2.2228701 2:-0.38111001 3:-0.146862 4:-1.26761 5:-0.79622602 6:-1.4110301 7:1.0777 8:0.186141 9:-0.77162302 10:-1.35048 13:1 17:1 #
0.056007418732505129255194731285883 1:-3.7872701 2:1.78134 3:1.05474 4:-0.547777 5:-0.058662102 6:-1.4277101 7:-1.2756799 8:-1.43247 9:0.221322 10:-0.87698102 14:1 19:1 #
-0.10000000000000000555111512312578 1:-1.67998 2:-0.30962399 3:0.78771698 4:-0.13846201 5:-0.384563 6:-1.2135 7:1.4139 8:-0.218513 9:-1.3987499 10:-0.76596999 13:1 18:1 #
-0.10000000000000000555111512312578 1:-0.82277298 2:-0.970869 3:-0.54739702 4:0.34142601 5:0.19862799 6:-0.0020202 7:0.44266 8:-0.31967601 9:-0.405801 10:0.081340298 13:1 46:1 #
-0.10000000000000000555111512312578 1:-1.80856 2:-0.220266 3:0.78771698 4:-0.279605 5:0.181475 6:-0.78316498 7:1.33919 8:0.084977202 9:-1.21583 10:-0.531865 13:1 18:1 #
0.10000000000000000555111512312578 1:-1.27995 2:0.94138098 3:0.92122799 4:-0.279605 5:0.62744403 6:-0.83383 7:-1.83601 8:1.09661 9:1.9720401 10:-0.18825801 13:1 47:1 #
0.10000000000000000555111512312578 1:-0.87992001 2:1.25413 3:1.05474 4:-0.105528 5:0.164322 6:-0.30537099 7:-2.2095599 8:0.186141 9:1.84139 10:0.12061 13:1 24:1 #
0.10000000000000000555111512312578 1:-0.783485 2:1.30775 3:1.1882499 4:0.204987 5:0.62744403 6:-0.32140499 7:-2.3589799 8:-0.066767797 9:1.78913 10:0.073788501 13:1 24:1 #
-0.10000000000000000555111512312578 1:-2.68362 2:1.3971 3:1.85581 4:-0.067889899 5:1.48508 6:-0.520859 7:-2.8819599 8:-0.82549298 9:1.65848 10:-0.85583597 14:1 24:1 #
-0.10000000000000000555111512312578 1:-1.96214 2:1.272 3:2.1228299 4:-0.00672783 5:1.2964 6:-1.3000799 7:-3.2555101 8:-0.471421 9:2.10269 10:-0.803729 14:1 24:1 #
-0.10000000000000000555111512312578 1:-2.5978999 2:1.35243 3:2.1228299 4:0.129711 5:1.89674 6:-0.531762 7:-3.2555101 8:-0.82549298 9:1.8936501 10:-0.82638401 14:1 24:1 #
0.10000000000000000555111512312578 1:-0.99778599 2:-0.425789 3:0.38718301 4:-0.27019501 5:-0.213036 6:-0.0526856 7:1.3018301 8:-0.269095 9:-1.24196 10:0.13646799 13:1 24:1 #
0.10000000000000000555111512312578 1:-1.0085 2:-0.61343902 3:-0.0133511 4:-0.16669001 5:-0.264494 6:-0.035369601 7:1.0403399 8:-0.370258 9:-1.00679 10:0.159124 13:1 24:1 #
0.10000000000000000555111512312578 1:-0.92277998 2:-0.49727499 3:-0.28037399 4:0.035615101 5:0.095711797 6:-0.0270322 7:1.0403399 8:-0.016186099 9:-0.823883 10:0.139489 13:1 24:1 #
-0.10000000000000000555111512312578 1:-0.83705997 2:1.22733 3:0.52069402 4:0.186168 5:0.19862799 6:-0.94927001 7:-1.64923 8:0.489631 9:1.63235 10:-0.068185098 13:1 27:1 #
-0.10000000000000000555111512312578 1:-0.73705298 2:0.932446 3:0.38718301 4:-0.84417802 5:-0.436021 6:-1.36742 7:-1.35039 8:1.19777 9:1.71074 10:0.226335 13:1 24:1 #
-0.10000000000000000555111512312578 1:-0.919209 2:1.6741101 3:1.05474 4:0.32731101 5:-1.15643 6:0.30133101 7:-1.6118799 8:-1.23015 9:0.61327398 10:0.358491 13:1 24:1 #
0.10000000000000000555111512312578 1:-1.955 2:-0.31856 3:1.1882499 4:-0.44427201 5:0.21578 6:-1.46426 7:1.48861 8:-0.522003 9:-1.76457 10:-1.26212 13:1 18:1 #
0.10000000000000000555111512312578 1:-2.0264299 2:-0.184523 3:0.92122799 4:-0.63716799 5:-0.12727299 6:-1.46426 7:1.3018301 8:0.13555899 9:-1.1897 10:-1.29308 13:1 18:1 #
0.10000000000000000555111512312578 1:-1.40139 2:-0.300688 3:0.52069402 4:0.52961701 5:1.1248699 6:-1.04419 7:1.33919 8:-0.066767797 9:-1.24196 10:-0.69347298 13:1 18:1 #
-0.10000000000000000555111512312578 1:-1.5764 2:-0.29175201 3:0.78771698 4:-0.36429101 5:0.40446001 6:-1.11089 7:1.3765399 8:-0.11735 9:-1.37262 10:-0.83393598 13:1 18:1 #
-0.10000000000000000555111512312578 1:-1.41924 2:-0.28281701 3:1.05474 4:0.14853001 5:1.36501 6:-1.31098 7:1.45125 8:-0.269095 9:-1.5294 10:-1.2689199 13:1 18:1 #
-0.10000000000000000555111512312578 1:-1.81213 2:-0.29175201 3:1.05474 4:0.0026817201 5:0.130017 6:-0.75109798 7:1.45125 8:-0.31967601 9:-1.58166 10:-0.52733397 13:1 18:1 #
0.10000000000000000555111512312578 1:-0.95135403 2:1.28988 3:1.98932 4:-0.13846201 5:1.4164701 6:-0.70620501 7:-3.1060901 8:-0.42084 9:2.0243001 10:-0.85130501 13:1 47:1 #
0.10000000000000000555111512312578 1:-3.30866 2:-1.24788 3:2.3898499 4:0.51550198 5:-1.31081 6:-1.25711 7:-1.38775 8:-3.40516 9:-1.05905 10:-0.79013598 14:1 19:1 #
0.10000000000000000555111512312578 1:-2.6479001 2:1.54008 3:2.6568799 4:-0.19491901 5:1.87959 6:-1.10576 7:-3.47964 8:-2.1912 9:1.18814 10:-0.82865 14:1 24:1 #
-0.10000000000000000555111512312578 1:-2.6157601 2:1.47753 3:2.1228299 4:-0.13846201 5:1.81098 6:-0.563829 7:-2.99402 8:-1.3818901 9:1.42331 10:-0.82185298 14:1 24:1 #
0.10000000000000000555111512312578 1:-1.44425 2:-0.88151199 3:1.1882499 4:-0.56189102 5:-0.024356799 6:-0.312426 7:0.59208101 8:-1.98887 9:-1.73844 10:-1.01367 13:1 18:1 #
-0.10000000000000000555111512312578 1:-2.49789 2:1.52221 3:2.1228299 4:-0.24196699 5:0.901887 6:-1.0422601 7:-2.99402 8:-1.6348 9:1.2404 10:-1.04161 14:1 24:1 #
-0.10000000000000000555111512312578 1:-2.4728899 2:1.60263 3:2.6568799 4:0.035615101 5:1.79383 6:-0.78893697 7:-3.2555101 8:-2.54527 9:0.848445 10:-0.60134101 14:1 24:1 #
0.10000000000000000555111512312578 1:-1.58354 2:-0.58663201 3:1.7223001 4:0.120301 5:1.2964 6:-0.97620702 7:1.3765399 8:-1.83713 9:-2.41782 10:-0.800708 13:1 18:1 #
0.10000000000000000555111512312578 1:-0.96564001 2:-1.0870301 3:-0.94793099 4:-0.56189102 5:-0.60754699 6:-0.098220304 7:0.25588301 8:0.084977202 9:-0.013849 10:-0.071961001 13:1 46:1 #
-0.10000000000000000555111512312578 1:-3.2836599 2:1.44178 3:2.79039 4:-0.27019501 5:1.24494 6:-1.35716 7:-3.7784801 8:-1.83713 9:1.60622 10:-1.12392 14:1 24:1 #
-0.10000000000000000555111512312578 1:-2.3478799 2:1.66518 3:2.3898499 4:0.14853001 5:2.23979 6:-0.87230998 7:-2.6951799 8:-2.3935299 9:0.561014 10:-0.54394799 14:1 24:1 #
-0.10000000000000000555111512312578 1:-2.56933 2:1.69198 3:2.52336 4:-0.19491901 5:0.86758101 6:-0.82677603 7:-2.8446 8:-2.7476001 9:0.40423301 10:-1.0597301 14:1 24:1 #
0.10000000000000000555111512312578 1:-1.21566 2:0.20864999 3:1.3217601 4:-1.12646 5:-0.59039497 6:-0.27651101 7:0.36794901 8:1.14719 9:0.0122812 10:0.58126903 13:1 18:1 #
0.10000000000000000555111512312578 1:-1.25852 2:0.190778 3:0.78771698 4:-1.26761 5:-0.79622602 6:-0.28420699 7:0.48001501 8:1.19777 9:0.038411301 10:0.595617 13:1 18:1 #
0.10000000000000000555111512312578 1:-1.46568 2:0.1461 3:1.7223001 4:-1.26761 5:-0.79622602 6:0.163444 7:0.51736999 8:0.84370297 9:-0.37967101 10:-0.838467 13:1 18:1 #
-0.10000000000000000555111512312578 1:-1.06208 2:0.020998999 3:0.52069402 4:-0.98532099 5:-0.60754699 6:-0.19377901 7:0.92827803 8:0.84370297 9:-0.43193099 10:0.35622501 13:1 18:1 #
-0.10000000000000000555111512312578 1:-1.15137 2:0.119292 3:1.05474 4:-0.86770201 5:-0.24734101 6:-0.216867 7:0.66679102 8:0.99544799 9:-0.24902 10:-0.340049 13:1 18:1 #
-0.10000000000000000555111512312578 1:-1.35495 2:0.029934799 3:0.65420598 4:-0.98532099 5:-1.12213 6:-0.62988597 7:0.89092302 8:0.84370297 9:-0.43193099 10:-0.76143903 13:1 18:1 #
0.10000000000000000555111512312578 1:-2.6907599 2:-1.2568099 3:1.1882499 4:0.57195997 5:1.87959 6:-1.2160701 7:-0.71535301 8:-1.93829 9:-0.536452 10:-1.3353699 14:1 24:1 #
0.060698321521494486008307944757689 1:-1.56925 2:0.24439301 3:0.12016 4:-1.26761 5:-0.79622602 6:-0.791502 7:0.40530401 8:1.2989399 9:0.32584301 10:-0.325701 13:1 31:1 #
0.10000000000000000555111512312578 1:-2.68362 2:1.6741101 3:2.25634 4:-0.129052 5:1.82813 6:-1.1179399 7:-2.65783 8:-2.3935299 9:0.53488398 10:-0.84677398 14:1 24:1 #
-0.10000000000000000555111512312578 1:-1.40496 2:-0.72066802 3:1.05474 4:-0.56189102 5:0.0099485395 6:-0.97620702 7:1.0777 8:-1.5842201 9:-1.86909 10:-0.713108 13:1 25:1 #
-0.10000000000000000555111512312578 1:-1.3621 2:-0.91725498 3:0.38718301 4:0.52961701 5:-0.55608898 6:-0.81010097 7:0.55472499 8:-1.0784 9:-1.03292 10:-0.59303403 13:1 24:1 #
-0.10000000000000000555111512312578 1:-1.75498 2:-0.72066802 3:1.1882499 4:-0.98532099 5:-0.65900499 6:-0.60294998 7:1.0777 8:-1.68538 9:-1.94748 10:-0.72518998 13:1 17:1 #
0.10000000000000000555111512312578 1:-2.15501 2:1.70986 3:2.1228299 4:0.53902602 5:1.87959 6:-0.82420999 7:-2.32163 8:-2.3429401 9:0.351973 10:-0.77427697 14:1 24:1 #
0.10000000000000000555111512312578 1:-2.06215 2:1.8081501 3:2.6568799 4:0.0120913 5:1.1248699 6:-1.00763 7:-2.3589799 8:-3.3039999 9:-0.30127999 10:-1.0114 14:1 24:1 #
-0.066233414275753202393737240072369 1:0.123723 2:0.968189 3:0.12016 4:1.5552599 5:5.3787298 6:-0.442617 7:-1.12626 8:1.14719 9:1.55396 10:-0.187503 13:1 47:1 #
-0.10000000000000000555111512312578 1:-2.55147 2:1.77241 3:2.6568799 4:-0.251376 5:1.3821599 6:-1.10576 7:-2.5831201 8:-3.3039999 9:-0.118369 10:-1.31423 14:1 24:1 #
0.10000000000000000555111512312578 1:-1.43353 2:-0.64024699 3:0.52069402 4:-0.95238799 5:-0.69331002 6:-0.52983803 7:1.15241 8:-0.92665702 9:-1.4771399 10:-1.01744 13:1 25:1 #
-0.10000000000000000555111512312578 1:-2.21573 2:1.73666 3:1.98932 4:-0.56189102 5:0.91903901 6:-0.64912599 7:-2.17221 8:-2.2923601 9:0.24745201 10:-0.67081797 14:1 24:1 #
-0.10000000000000000555111512312578 1:-2.44432 2:1.72773 3:2.52336 4:-0.75949198 5:-0.092967398 6:-1.40911 7:-2.5831201 8:-2.7981801 9:0.19519199 10:-0.89963698 14:1 24:1 #
0.10000000000000000555111512312578 1:-1.30138 2:-0.78321898 3:0.38718301 4:-0.75949198 5:-0.59039497 6:0.40651 7:0.853567 8:-0.977238 9:-1.24196 10:-0.67836899 13:1 25:1 #
0.10000000000000000555111512312578 1:-1.47639 2:-0.72066802 3:0.52069402 4:-1.0700099 5:-0.65900499 6:-0.58371001 7:1.00299 8:-1.02782 9:-1.42488 10:-0.99856502 13:1 25:1 #
-0.10000000000000000555111512312578 1:-1.73712 2:1.81709 3:1.3217601 4:0.14382499 5:1.10772 6:-1.04162 7:-1.31304 8:-1.78655 9:-0.013849 10:-0.55149901 14:1 24:1 #
-0.10000000000000000555111512312578 1:-2.5657499 2:1.57582 3:1.4552701 4:0.063843802 5:1.69091 6:-0.71390098 7:-2.13485 8:-1.1795599 9:0.979096 10:-0.65495902 14:1 24:1 #
-0.10000000000000000555111512312578 1:-2.1728699 2:1.59369 3:1.1882499 4:-0.105528 5:1.8452801 6:-0.63822401 7:-1.8733701 8:-1.02782 9:0.90070599 10:-0.81958801 14:1 16:1 #
0.10000000000000000555111512312578 1:-0.79062802 2:-0.57769603 3:-0.0133511 4:0.308492 5:-0.84768403 6:-1.02495 7:1.0777 8:-0.269095 9:-1.00679 10:-1.2002 13:1 18:1 #
0.10000000000000000555111512312578 1:-0.95849699 2:-0.51514602 3:0.253672 4:-1.12646 5:-0.67615801 6:-0.64976799 7:1.18976 8:-0.370258 9:-1.21583 10:-0.489575 13:1 27:1 #
0.10000000000000000555111512312578 1:-1.39424 2:-0.31856 3:0.52069402 4:-0.98532099 5:-1.0020601 6:0.330832 7:1.33919 8:-0.066767797 9:-1.21583 10:-0.704045 13:1 18:1 #
-0.10000000000000000555111512312578 1:-1.64069 2:-0.61343902 3:0.78771698 4:-1.12646 5:-0.86483699 6:-1.0583 7:1.18976 8:-0.977238 9:-1.63392 10:-0.81430203 13:1 25:1 #
-0.10000000000000000555111512312578 1:-0.994214 2:-0.51514602 3:0.253672 4:-0.86770201 5:-0.59039497 6:0.0512105 7:1.22712 8:-0.42084 9:-1.2681 10:-0.97893101 13:1 24:1 #
-0.10000000000000000555111512312578 1:-1.13351 2:-0.55088902 3:0.253672 4:-0.86770201 5:-0.29879901 6:-0.064870901 7:1.18976 8:-0.471421 9:-1.24196 10:0.32224199 13:1 25:1 #
0.10000000000000000555111512312578 1:-0.92992401 2:-1.10491 3:-0.54739702 4:-0.37369999 5:-0.315952 6:-0.075773597 7:0.218528 8:-0.269095 9:-0.22289 10:-0.0160778 13:1 46:1 #
0.10000000000000000555111512312578 1:-1.27995 2:-1.0781 3:0.12016 4:0.0120913 5:0.93619198 6:-0.34898201 7:0.181173 8:-0.87607503 9:-0.56258202 10:-0.84677398 13:1 24:1 #
0.10000000000000000555111512312578 1:-1.44067 2:1.1469001 3:1.5887901 4:-0.703035 5:-0.144425 6:-0.85050499 7:-2.6951799 8:0.33788601 9:2.1549499 10:-0.244142 13:1 47:1 #
-0.10000000000000000555111512312578 1:-1.5621099 2:-0.765347 3:-0.54739702 4:-1.26761 5:-0.79622602 6:-0.88577801 7:0.70414603 8:-0.11735 9:-0.51032102 10:-1.12695 13:1 27:1 #
-0.10000000000000000555111512312578 1:-2.11215 2:-0.88151199 3:-0.413885 4:-0.420748 5:-0.65900499 6:-1.26609 7:0.59208101 8:-0.370258 9:-0.58871198 10:-0.96684802 13:1 16:1 #
-0.10000000000000000555111512312578 1:-2.12644 2:-0.75641102 3:-0.68090802 4:-0.56189102 5:-0.57324201 6:-1.27507 7:0.70414603 8:-0.066767797 9:-0.484191 10:-0.96231699 13:1 16:1 #
0.10000000000000000555111512312578 1:-0.94420999 2:1.52221 3:1.4552701 4:-1.26761 5:-0.79622602 6:-0.67606199 7:-2.28427 8:-0.977238 9:1.18814 10:-1.04161 13:1 38:1 #
-0.017806867058873149939346447467869 1:-0.50846499 2:-0.95299798 3:1.05474 4:1.45646 5:3.83499 6:-0.643354 7:0.40530401 8:-1.83713 9:-1.42488 10:-0.80675 13:1 27:1 #
0.10000000000000000555111512312578 1:-1.35138 2:0.92351002 3:-0.146862 4:0.99068499 5:0.112864 6:-1.05317 7:-0.90212899 8:1.19777 9:1.42331 10:-0.58246201 13:1 16:1 #
-0.10000000000000000555111512312578 1:-2.4836099 2:1.7456 3:1.85581 4:-0.279605 5:0.47307 6:-0.76777297 7:-1.9480799 8:-2.14062 9:0.221322 10:-1.2689199 14:1 24:1 #
0.10000000000000000555111512312578 1:-1.64783 2:-0.57769603 3:-0.68090802 4:-1.26761 5:-0.79622602 6:-1.23531 7:0.853567 8:0.13555899 9:-0.536452 10:-0.36346 14:1 20:1 #
-0.10000000000000000555111512312578 1:-1.9871401 2:1.42391 3:1.7223001 4:-0.75949198 5:0.25008601 6:-0.82677603 7:-2.6951799 8:-0.82549298 9:1.55396 10:-0.61191398 14:1 24:1 #
-0.10000000000000000555111512312578 1:-2.01214 2:1.68305 3:1.4552701 4:-0.50543398 5:0.59313899 6:-1.34369 7:-1.8733701 8:-1.53364 9:0.561014 10:-1.37313 14:1 24:1 #
0.047528695143440213843888386691106 1:-1.9871401 2:0.26226401 3:-0.54739702 4:-0.82065398 5:-0.74476802 6:-1.27314 7:0.36794901 8:1.19777 9:0.40423301 10:-1.1934 13:1 17:1 #
0.10000000000000000555111512312578 1:-1.5621099 2:0.56607997 3:-0.146862 4:-1.26761 5:-0.79622602 6:0.101235 7:-0.26708999 8:1.45068 9:1.0052299 10:-0.88000202 13:1 24:1 #
-0.10000000000000000555111512312578 1:-2.5943301 2:0.50353003 3:1.98932 4:-0.84417802 5:-0.00720412 6:-0.86782098 7:-1.12626 8:1.45068 9:1.2404 10:-1.07786 14:1 15:1 #
-0.10000000000000000555111512312578 1:-1.41924 2:1.65624 3:1.4552701 4:-0.063185103 5:-0.041509401 6:-0.908225 7:-1.91072 8:-1.43247 9:0.66553402 10:-0.178441 13:1 47:1 #
-0.10000000000000000555111512312578 1:-1.3371 2:0.92351002 3:0.52069402 4:0.73662698 5:1.34786 6:0.00118647 7:-1.38775 8:1.19777 9:1.7368701 10:-1.17075 13:1 16:1 #
0.10000000000000000555111512312578 1:-1.6264 2:-1.3908499 3:-1.48198 4:-0.84417802 5:-0.62470001 6:-1.1763 7:0.106462 8:0.54021198 9:0.351973 10:-0.40575001 14:1 20:1 #
0.027222156565037628622727439164919 1:-1.60497 2:-0.50621003 3:-1.08144 4:-0.95238799 5:-0.59039497 6:-1.24813 7:0.70414603 8:0.38846701 9:-0.22289 10:-0.367991 14:1 20:1 #
0.10000000000000000555111512312578 1:-1.59069 2:-0.32749501 3:-1.08144 4:-1.12646 5:-0.72761601 6:-1.31675 7:0.70414603 8:0.59079403 9:-0.1445 10:-0.27510399 14:1 20:1 #
-0.10000000000000000555111512312578 1:-1.56568 2:-0.62237501 3:-1.34846 4:-0.420748 5:-0.144425 6:-1.29238 7:0.48001501 8:0.489631 9:0.038411301 10:-1.25079 14:1 20:1 #
0.10000000000000000555111512312578 1:-1.87999 2:0.61969399 3:1.3217601 4:-0.98532099 5:-0.41886801 6:-0.62283099 7:-1.16362 8:1.55185 9:1.52783 10:-0.97364402 14:1 24:1 #
-0.10000000000000000555111512312578 1:-1.63355 2:-1.3283 3:-0.81441897 4:-0.44427201 5:-0.29879901 6:-1.18015 7:-0.080313802 8:0.034395501 9:0.221322 10:-0.38460499 14:1 20:1 #
-0.10000000000000000555111512312578 1:-1.6085401 2:-0.71173298 3:-0.28037399 4:-0.84417802 5:-0.384563 6:-1.32573 7:0.816212 8:-0.269095 9:-0.74549299 10:-1.15564 14:1 20:1 #
-0.10000000000000000555111512312578 1:-1.08351 2:0.36949301 3:1.4552701 4:0.308492 5:-0.76192099 6:-1.2212 7:-0.26708999 8:1.4001 9:0.66553402 10:-0.92908901 13:1 17:1 #
0.10000000000000000555111512312578 1:-0.65490401 2:1.61156 3:0.78771698 4:-1.12646 5:-0.62470001 6:-0.500337 7:-1.57452 8:-0.82549298 9:0.82231498 10:-0.19807599 13:1 27:1 #
-0.10000000000000000555111512312578 1:-1.21566 2:-0.68492502 3:-0.81441897 4:-1.12646 5:-0.81337899 6:-0.90886599 7:0.70414603 8:0.13555899 9:-0.37967101 10:-0.25924501 13:1 47:1 #
-0.10000000000000000555111512312578 1:-0.89063501 2:-0.93512601 3:-1.08144 4:-1.12646 5:-0.79622602 6:-1.12371 7:0.40530401 8:0.186141 9:-0.092239402 10:0.190841 13:1 31:1 #
-0.10000000000000000555111512312578 1:-1.1049401 2:-0.74747598 3:-1.21495 4:-1.12646 5:-0.77907401 6:-1.46875 7:0.51736999 8:0.33788601 9:-0.118369 10:-0.86565399 13:1 31:1 #
0.10000000000000000555111512312578 1:-0.7942 2:1.36136 3:0.92122799 4:0.308492 5:1.36501 6:-0.31435001 7:-1.9480799 8:-0.016186099 9:1.52783 10:0.32224199 13:1 24:1 #
0.10000000000000000555111512312578 1:-0.90492201 2:-1.23001 3:-0.413885 4:0.25203499 5:-0.315952 6:-0.0084335404 7:-0.042958502 8:-0.370258 9:-0.0399791 10:-0.15880699 13:1 46:1 #
0.10000000000000000555111512312578 1:-0.62990201 2:1.6294301 3:0.78771698 4:-0.44427201 5:-0.83053201 6:-0.67478001 7:-1.49981 8:-0.82549298 9:0.74392498 10:0.0088431397 13:1 27:1 #
-0.10000000000000000555111512312578 1:-1.9764301 2:1.4149801 3:1.5887901 4:-0.50543398 5:0.73035997 6:-1.27314 7:-2.5457599 8:-0.67374802 9:1.55396 10:-0.92908901 14:1 24:1 #
-0.10000000000000000555111512312578 1:-3.01579 2:1.45072 3:1.7223001 4:-0.86770201 5:-0.264494 6:-1.31419 7:-2.65783 8:-0.92665702 9:1.47557 10:-1.07257 14:1 24:1 #
-0.10000000000000000555111512312578 1:-3.5408199 2:1.4596601 3:1.4552701 4:-0.82065398 5:0.130017 6:-1.4110301 7:-2.47105 8:-0.82549298 9:1.39718 10:-1.12392 14:1 24:1 #
0.0074507324224046909272312078087452 1:-2.05143 2:1.7456 3:1.3217601 4:-1.12646 5:-0.55608898 6:-0.63116902 7:-1.5371701 8:-1.5842201 9:0.29971299 10:-1.20095 14:1 24:1 #
0.069871021972941010913515924585226 1:-1.61212 2:1.20052 3:-0.0133511 4:-1.12646 5:-0.76192099 6:-0.93900901 7:-1.23833 8:0.69195801 9:1.44944 10:-0.229038 13:1 47:1 #
0.10000000000000000555111512312578 1:-1.94428 2:-0.908319 3:0.65420598 4:-0.50543398 5:0.43876499 6:-1.11089 7:0.59208101 8:-1.33131 9:-1.24196 10:-1.12015 14:1 17:1 #
-0.10000000000000000555111512312578 1:-2.2550199 2:-0.64918202 3:-1.34846 4:-1.12646 5:-0.77907401 6:-1.3148299 7:0.48001501 8:0.489631 9:0.0122812 10:-1.0597301 13:1 24:1 #
-0.10000000000000000555111512312578 1:-2.7014799 2:-0.631311 3:-1.48198 4:-1.26761 5:-0.79622602 6:-0.58050299 7:0.40530401 8:0.54021198 9:0.116802 10:-0.90114701 14:1 31:1 #
-0.10000000000000000555111512312578 1:-0.77276897 2:-1.14065 3:-0.94793099 4:-1.26761 5:-0.79622602 6:-0.813308 7:0.218528 8:0.084977202 9:0.0122812 10:0.185555 13:1 31:1 #
0.10000000000000000555111512312578 1:-3.7051201 2:0.90563798 3:1.5887901 4:-1.26761 5:-0.79622602 6:-1.37255 7:-2.28427 8:1.09661 9:2.1810801 10:-0.93437499 14:1 15:1 #
0.063080878798974629462215091280086 1:-3.7479801 2:0.95031703 3:1.3217601 4:-1.26761 5:-0.79622602 6:-1.39051 7:-2.17221 8:1.04603 9:2.1288199 10:-0.93286502 14:1 15:1 #
-0.07247702347590638527474737884404 1:-0.29059201 2:-0.184523 3:-0.68090802 4:-0.56189102 5:-0.83053201 6:-0.170691 7:0.853567 8:0.64137602 9:-0.27515 10:0.57145101 13:1 40:1 #
-0.10000000000000000555111512312578 1:-3.05865 2:0.61075902 3:1.5887901 4:-0.32194799 5:0.57598603 6:-1.19683 7:-1.35039 8:1.50126 9:1.58009 10:-1.15564 14:1 15:1 #
-0.10000000000000000555111512312578 1:-3.11937 2:0.87883103 3:1.05474 4:-0.95238799 5:-0.41886801 6:-1.18015 7:-1.83601 8:1.24836 9:1.99817 10:-0.92757797 14:1 20:1 #
-0.10000000000000000555111512312578 1:-2.9514999 2:1.34349 3:0.65420598 4:0.308492 5:1.31355 6:-1.26096 7:-1.83601 8:0.084977202 9:1.52783 10:-1.01895 14:1 24:1 #
0.10000000000000000555111512312578 1:-1.05136 2:-0.58663201 3:-1.749 4:-1.26761 5:-0.79622602 6:-0.231618 7:0.293239 8:0.69195801 9:0.27358201 10:-0.15200999 13:1 31:1 #
0.10000000000000000555111512312578 1:-1.09422 2:-0.121973 3:-1.48198 4:-1.26761 5:-0.79622602 6:-0.249575 7:0.40530401 8:0.74253899 9:0.221322 10:-0.113496 13:1 31:1 #
0.10000000000000000555111512312578 1:-1.0477901 2:-0.89044797 3:-1.48198 4:-1.12646 5:-0.81337899 6:-0.236748 7:0.36794901 8:0.43904901 9:0.090671502 10:-0.171645 13:1 31:1 #
-0.10000000000000000555111512312578 1:-1.25495 2:0.896703 3:-1.61549 4:-1.26761 5:-0.79622602 6:-0.14760301 7:0.069107197 8:0.84370297 9:0.53488398 10:-0.60738301 13:1 31:1 #
-0.10000000000000000555111512312578 1:-1.34067 2:-0.71173298 3:-1.08144 4:-0.86770201 5:-0.72761601 6:0.44049999 7:0.59208101 8:0.28730401 9:-0.17062999 10:0.40606701 13:1 25:1 #
-0.10000000000000000555111512312578 1:-0.56918401 2:-1.02448 3:-1.34846 4:-0.703035 5:-0.62470001 6:-0.58306903 7:0.293239 8:0.33788601 9:0.090671502 10:0.35093901 13:1 34:1 #
0.10000000000000000555111512312578 1:-1.54782 2:1.10223 3:0.65420598 4:0.186168 5:0.798971 6:-1.13975 7:-1.72394 8:0.79312098 9:1.8152601 10:-1.29308 14:1 20:1 #
0.10000000000000000555111512312578 1:-1.20137 2:-1.23894 3:0.92122799 4:-0.13846201 5:0.49022299 6:-1.2135 7:-0.52857703 8:-1.53364 9:-0.45806101 10:-0.53941703 13:1 24:1 #
0.10000000000000000555111512312578 1:-1.75141 2:0.896703 3:0.253672 4:0.623712 5:1.0048 6:-1.0339299 7:-1.2009701 8:1.24836 9:1.65848 10:-0.49863699 14:1 20:1 #
-0.10000000000000000555111512312578 1:-1.4263901 2:1.03967 3:-0.413885 4:0.43081599 5:1.48508 6:-0.78829598 7:-0.82741898 8:0.99544799 9:1.31879 10:-1.01895 14:1 20:1 #
-0.10000000000000000555111512312578 1:-1.57283 2:1.50433 3:-0.28037399 4:0.186168 5:1.7595201 6:-0.93900901 7:-0.90212899 8:0.13555899 9:0.92683601 10:-0.397443 14:1 24:1 #
-0.10000000000000000555111512312578 1:-1.88713 2:1.22733 3:1.3217601 4:-0.129052 5:1.79383 6:-1.3064899 7:-2.5084 8:0.13555899 9:1.9720401 10:-0.19279 14:1 24:1 #
0.10000000000000000555111512312578 1:-1.23352 2:-0.34536701 3:-0.28037399 4:-0.82065398 5:-0.55608898 6:-0.15850601 7:1.0403399 8:0.28730401 9:-0.66710198 10:0.171207 13:1 25:1 #
0.10000000000000000555111512312578 1:-1.17637 2:-0.300688 3:-0.146862 4:-0.27019501 5:-0.281647 6:-1.18464 7:1.11505 8:0.28730401 9:-0.71936202 10:-0.610403 13:1 24:1 #
0.10000000000000000555111512312578 1:-1.13351 2:-0.28281701 3:-0.28037399 4:-1.12646 5:-0.84768403 6:-0.162995 7:1.0403399 8:0.38846701 9:-0.64097202 10:0.0466021 13:1 24:1 #
-0.10000000000000000555111512312578 1:-1.49782 2:-0.60450399 3:-0.0133511 4:-0.75949198 5:-0.281647 6:-0.51572901 7:1.0403399 8:-0.370258 9:-1.03292 10:-0.25849 13:1 24:1 #
-0.10000000000000000555111512312578 1:-1.40853 2:-0.095165797 3:-0.146862 4:-1.12646 5:-0.69331002 6:-0.87102801 7:0.96563298 8:0.69195801 9:-0.405801 10:-0.264532 13:1 16:1 #
-0.10000000000000000555111512312578 1:-0.69776398 2:-0.74747598 3:-0.413885 4:-1.12646 5:-0.84768403 6:-0.44903001 7:0.77885699 8:-0.269095 9:-0.693232 10:0.322997 13:1 31:1 #
0.10000000000000000555111512312578 1:-1.7799799 2:0.81628102 3:-0.54739702 4:-0.75949198 5:-0.60754699 6:-0.93772602 7:-0.453866 8:1.24836 9:1.13588 10:-1.36709 14:1 16:1 #
0.10000000000000000555111512312578 1:-1.73712 2:1.03074 3:-0.54739702 4:0.70839798 5:2.97736 6:-0.98646802 7:-0.640643 8:0.99544799 9:1.18814 10:-1.23116 14:1 16:1 #
0.10000000000000000555111512312578 1:-1.75855 2:1.05755 3:-0.146862 4:0.85424602 5:2.87444 6:-0.96017301 7:-1.05155 8:0.99544799 9:1.44944 10:-1.17981 14:1 16:1 #
-0.10000000000000000555111512312578 1:-2.18716 2:1.4596601 3:-0.54739702 4:1.0095 5:3.8692999 6:-0.55677402 7:-0.71535301 8:0.38846701 9:0.90070599 10:-0.70933199 14:1 16:1 #
-0.10000000000000000555111512312578 1:-2.0371499 2:1.64731 3:-0.28037399 4:1.0095 5:1.72521 6:-0.51380497 7:-0.71535301 8:-0.11735 9:0.639404 10:-0.96684802 14:1 20:1 #
-0.10000000000000000555111512312578 1:-1.23352 2:0.52140099 3:-0.28037399 4:0.37906399 5:2.51424 6:-0.336797 7:-0.15502401 8:1.4001 9:0.90070599 10:-1.06502 13:1 18:1 #
0.10000000000000000555111512312578 1:-1.9407099 2:-0.50621003 3:0.52069402 4:1.13183 5:0.67890197 6:-1.08395 7:1.26448 8:-0.522003 9:-1.3987499 10:-0.516761 14:1 24:1 #
0.09512422996111166706434403295134 1:-1.37281 2:-0.68492502 3:0.52069402 4:-0.84417802 5:-0.86483699 6:0.34301701 7:1.0403399 8:-0.92665702 9:-1.3987499 10:-0.74256003 13:1 24:1 #
0.10000000000000000555111512312578 1:-1.40853 2:-0.86364001 3:1.05474 4:-0.44427201 5:0.0271012 6:-0.293827 7:0.70414603 8:-1.78655 9:-1.66005 10:-0.99856502 13:1 18:1 #
-0.10000000000000000555111512312578 1:-1.57283 2:-0.58663201 3:-0.0133511 4:-0.50543398 5:-0.17873099 6:-1.35203 7:1.0403399 8:-0.269095 9:-0.98066401 10:-0.1943 14:1 20:1 #
-0.10000000000000000555111512312578 1:-1.96928 2:-0.765347 3:-0.146862 4:-0.56189102 5:-0.24734101 6:-0.82549298 7:0.816212 8:-0.522003 9:-0.902273 10:-0.853571 14:1 20:1 #
-0.10000000000000000555111512312578 1:-1.96928 2:-0.85470498 3:-0.146862 4:-0.50543398 5:-0.24734101 6:-0.806894 7:0.66679102 8:-0.57258499 9:-0.77162302 10:-0.87018502 14:1 20:1 #
0.10000000000000000555111512312578 1:-0.269162 2:1.31668 3:-0.94793099 4:0.308492 5:0.73035997 6:-0.34898201 7:-0.37915599 8:0.69195801 9:0.82231498 10:-0.221486 13:1 48:1 #
0.10000000000000000555111512312578 1:-0.38345599 2:1.3256201 3:-0.54739702 4:0.204987 5:0.181475 6:-0.365015 7:-0.75270802 8:0.59079403 9:1.05749 10:-0.306822 13:1 27:1 #
0.10000000000000000555111512312578 1:-0.69062102 2:1.63837 3:-0.94793099 4:0.76955998 5:1.17633 6:-0.200192 7:-0.229735 8:0.38846701 9:0.53488398 10:0.069257401 13:1 24:1 #
-0.10000000000000000555111512312578 1:0.0451461 2:1.58476 3:-0.94793099 4:0.69428402 5:0.798971 6:-0.568959 7:-0.26708999 8:0.43904901 9:0.61327398 10:0.36906299 13:1 46:1 #
-0.10000000000000000555111512312578 1:-0.0120009 2:1.42391 3:-0.413885 4:0.426112 5:1.17633 6:-0.99416399 7:-0.79006398 8:0.38846701 9:0.979096 10:-0.143703 13:1 46:1 #
-0.10000000000000000555111512312578 1:0.22373 2:1.55795 3:-0.68090802 4:0.75544602 5:1.1248699 6:-0.418246 7:-0.52857703 8:0.28730401 9:0.71779501 10:0.31544599 13:1 46:1 #
-0.10000000000000000555111512312578 1:-0.21915901 2:-1.00661 3:0.253672 4:0.57195997 5:0.91903901 6:0.33724499 7:0.330594 8:-1.02782 9:-0.79775298 10:-1.31876 13:1 24:1 #
0.019658466514748486331232157908744 1:-1.4478199 2:1.3703001 3:0.78771698 4:-1.12646 5:-0.53893697 6:-0.95183599 7:-1.91072 8:-0.016186099 9:1.5017 10:-0.70631099 13:1 38:1 #
0.10000000000000000555111512312578 1:-1.55854 2:-1.11384 3:2.25634 4:-0.84417802 5:-1.65386 6:-0.97877198 7:-0.640643 8:-3.3039999 9:-1.63392 10:-0.516761 13:1 24:1 #
-0.10000000000000000555111512312578 1:-1.74427 2:-1.24788 3:-1.08144 4:-0.56189102 5:0.095711797 6:-1.3712699 7:0.106462 8:0.186141 9:0.169062 10:-1.2424901 14:1 20:1 #
-0.10000000000000000555111512312578 1:-2.2193 2:-0.970869 3:-0.54739702 4:-0.16669001 5:0.078559197 6:-1.14937 7:0.44266 8:-0.269095 9:-0.37967101 10:-1.0197099 14:1 18:1 #
-0.10000000000000000555111512312578 1:-2.3907399 2:-0.84576899 3:-0.81441897 4:0.120301 5:0.095711797 6:-1.12628 7:0.55472499 8:-0.016186099 9:-0.35354099 10:-1.14054 14:1 20:1 #
0.10000000000000000555111512312578 1:-0.294164 2:1.81709 3:-0.28037399 4:0.14853001 5:0.61029202 6:-0.37527701 7:-0.37915599 8:-0.269095 9:0.27358201 10:-0.197321 13:1 45:1 #
0.10000000000000000555111512312578 1:-0.32273701 2:1.73666 3:-0.413885 4:-0.13846201 5:0.47307 6:-0.44005099 7:-0.453866 8:-0.11735 9:0.45649299 10:-0.124068 13:1 45:1 #
0.10000000000000000555111512312578 1:-2.46575 2:1.1469001 3:2.6568799 4:-0.19491901 5:1.57084 6:-0.999295 7:-3.9279001 8:-0.31967601 9:2.4946401 10:-0.67459399 14:1 24:1 #
-0.10000000000000000555111512312578 1:-0.2013 2:1.58476 3:-0.146862 4:-0.105528 5:-0.12727299 6:-0.178387 7:-0.86477399 8:-0.016186099 9:0.79618502 10:-0.85961199 13:1 45:1 #
-0.10000000000000000555111512312578 1:-0.58346999 2:1.54901 3:0.12016 4:-0.84417802 5:-0.436021 6:-0.0065095401 7:-1.05155 8:-0.11735 9:0.90070599 10:-0.52053702 13:1 45:1 #
-0.10000000000000000555111512312578 1:-0.28702101 2:1.79028 3:-0.146862 4:0.51550198 5:-0.41886801 6:-0.213019 7:-0.52857703 8:-0.370258 9:0.32584301 10:-0.28416601 13:1 45:1 #
0.10000000000000000555111512312578 1:-1.92285 2:-0.229202 3:0.253672 4:0.035615101 5:0.57598603 6:-1.06856 7:1.22712 8:0.28730401 9:-0.902273 10:-0.43067101 14:1 15:1 #
0.10000000000000000555111512312578 1:-1.60497 2:-1.3908499 3:0.12016 4:-0.13846201 5:0.61029202 6:-1.02944 7:-0.56593198 8:-0.62316602 9:0.19519199 10:-1.16093 14:1 24:1 #
0.10000000000000000555111512312578 1:-1.8657 2:1.2362601 3:1.98932 4:0.035615101 5:1.86244 6:-1.0319999 7:-3.2555101 8:-0.269095 9:2.1810801 10:-0.59076899 14:1 24:1 #
-0.10000000000000000555111512312578 1:-1.91214 2:-0.36323801 3:-0.0133511 4:-0.95238799 5:-0.487479 6:-1.01661 7:1.15241 8:0.13555899 9:-0.87614298 10:-0.37478799 14:1 20:1 #
-0.10000000000000000555111512312578 1:-1.9299901 2:-0.58663201 3:-0.81441897 4:-0.420748 5:0.59313899 6:-0.76969701 7:0.74150199 8:0.23672201 9:-0.35354099 10:-0.82940501 14:1 20:1 #
-0.10000000000000000555111512312578 1:-2.0478599 2:-0.89044797 3:-0.68090802 4:-0.067889899 5:-0.161578 6:-0.62475502 7:0.51736999 8:-0.066767797 9:-0.327411 10:-1.0559601 14:1 20:1 #
0.10000000000000000555111512312578 1:-0.412029 2:1.64731 3:0.253672 4:-0.63716799 5:0.044253901 6:-0.52534902 7:-1.05155 8:-0.471421 9:0.69166398 10:-0.064409196 13:1 45:1 #
0.10000000000000000555111512312578 1:-0.394171 2:1.70092 3:0.12016 4:-0.547777 5:0.130017 6:-0.498413 7:-0.79006398 8:-0.370258 9:0.53488398 10:-0.090840399 13:1 45:1 #
0.10000000000000000555111512312578 1:-0.42274401 2:1.78134 3:-0.0133511 4:-0.56189102 5:-0.213036 6:-0.56254601 7:-0.60328698 8:-0.471421 9:0.32584301 10:-0.0160778 13:1 45:1 #
-0.10000000000000000555111512312578 1:-0.326309 2:1.72773 3:0.253672 4:-1.12646 5:-0.57324201 6:-0.72608602 7:-0.90212899 8:-0.62316602 9:0.45649299 10:0.0111087 13:1 45:1 #
-0.10000000000000000555111512312578 1:-0.51918 2:1.78134 3:-0.413885 4:-0.82065398 5:-0.53893697 6:-0.78316498 7:-0.416511 8:-0.16793101 9:0.351973 10:0.64847898 13:1 45:1 #
-0.10000000000000000555111512312578 1:-0.84063101 2:1.72773 3:0.78771698 4:-0.86770201 5:-0.41886801 6:-0.50354302 7:-1.2756799 8:-1.0784 9:0.430363 10:-0.54017198 13:1 24:1 #
0.10000000000000000555111512312578 1:-3.7337 2:1.81709 3:0.65420598 4:-0.420748 5:0.28439099 6:-1.40911 7:-0.86477399 8:-1.0784 9:0.142932 10:-0.92908901 14:1 19:1 #
0.10000000000000000555111512312578 1:-3.1979401 2:-0.73853999 3:1.7223001 4:-1.26761 5:-0.79622602 6:-1.18015 7:1.00299 8:-2.3935299 9:-2.41782 10:-1.05822 14:1 28:1 #
0.10000000000000000555111512312578 1:-1.8049901 2:-1.3908499 3:-0.0133511 4:-1.12646 5:-0.67615801 6:-1.3000799 7:-0.52857703 8:-0.57258499 9:0.221322 10:-0.56131703 14:1 25:1 #
-0.10000000000000000555111512312578 1:-2.0442901 2:-1.12278 3:-0.68090802 4:0.651941 5:1.69091 6:-0.542665 7:0.218528 8:-0.16793101 9:-0.118369 10:-0.950234 14:1 20:1 #
-0.10000000000000000555111512312578 1:-1.4371001 2:-0.041551199 3:-0.413885 4:0.186168 5:0.71320802 6:-0.813308 7:0.816212 8:0.84370297 9:-0.19676 10:-0.97364402 14:1 20:1 #
-0.10000000000000000555111512312578 1:-1.46925 2:0.548208 3:-0.54739702 4:0.28496799 5:0.45591801 6:-0.74596798 7:-0.117669 8:1.34952 9:0.87457502 10:-0.92757797 14:1 20:1 #
0.10000000000000000555111512312578 1:-0.57275498 2:1.51327 3:0.38718301 4:-0.95238799 5:-0.83053201 6:-0.605515 7:-1.31304 8:-0.16793101 9:1.03136 10:-0.054591902 13:1 27:1 #
0.10000000000000000555111512312578 1:-0.56561202 2:1.59369 3:0.38718301 4:-0.67010099 5:-0.88199002 6:-0.64463699 7:-1.23833 8:-0.42084 9:0.82231498 10:-0.0047500702 13:1 27:1 #
0.10000000000000000555111512312578 1:-0.58346999 2:1.55795 3:0.38718301 4:-0.75949198 5:-0.88199002 6:-0.632451 7:-1.31304 8:-0.370258 9:0.92683601 10:-0.0266503 13:1 27:1 #
-0.10000000000000000555111512312578 1:-0.68347698 2:1.47753 3:0.78771698 4:-1.12646 5:-0.53893697 6:-0.59717798 7:-1.72394 8:-0.31967601 9:1.21427 10:-0.30002499 13:1 38:1 #
-0.10000000000000000555111512312578 1:-0.80134302 2:1.40604 3:0.65420598 4:-1.26761 5:-0.79622602 6:-0.68504101 7:-1.68659 8:-0.016186099 9:1.34492 10:-0.36648101 13:1 34:1 #
-0.10000000000000000555111512312578 1:-0.70133603 2:1.61156 3:0.253672 4:-0.98532099 5:-0.91629499 6:0.207055 7:-1.08891 8:-0.31967601 9:0.770055 10:0.0141294 13:1 38:1 #
0.10000000000000000555111512312578 1:-1.7121201 2:-0.53301799 3:-0.413885 4:1.41882 5:1.3307 6:-1.1179399 7:0.96563298 8:0.034395501 9:-0.71936202 10:-0.73576301 14:1 20:1 #
0.10000000000000000555111512312578 1:-1.50139 2:-0.61343902 3:0.12016 4:-1.26761 5:-0.79622602 6:-0.43427899 7:1.0777 8:-0.471421 9:-1.16357 10:-0.357418 13:1 34:1 #
0.10000000000000000555111512312578 1:-1.77641 2:0.98606002 3:-0.54739702 4:1.0988899 5:2.7886801 6:-0.92297602 7:-0.67799801 8:1.09661 9:1.21427 10:-1.0997601 14:1 16:1 #
-0.10000000000000000555111512312578 1:-2.3264501 2:-1.14958 3:-0.54739702 4:0.623712 5:0.64459699 6:-0.80753601 7:0.14381801 8:-0.218513 9:-0.118369 10:-1.1934 14:1 20:1 #
-0.10000000000000000555111512312578 1:-1.62283 2:-0.78321898 3:0.52069402 4:0.426112 5:1.63945 6:-0.98710901 7:0.89092302 8:-1.12898 9:-1.37262 10:-0.45181599 14:1 24:1 #
-0.10000000000000000555111512312578 1:-1.89785 2:-0.97980499 3:0.78771698 4:0.52961701 5:1.69091 6:-1.21286 7:0.36794901 8:-1.53364 9:-1.16357 10:-0.71537298 14:1 25:1 #
0.10000000000000000555111512312578 1:-1.3228101 2:1.53114 3:0.52069402 4:-1.26761 5:-0.79622602 6:-0.83511299 7:-1.4251 8:-0.31967601 9:1.03136 10:-0.78711498 13:1 38:1 #
0.10000000000000000555111512312578 1:-0.90492201 2:1.43285 3:-0.146862 4:-1.26761 5:-0.79622602 6:-0.743402 7:-1.01419 8:0.23672201 9:1.05749 10:-0.48428899 13:1 34:1 #
0.10000000000000000555111512312578 1:-1.10851 2:1.58476 3:0.65420598 4:-1.26761 5:-0.79622602 6:-0.68504101 7:-1.4251 8:-0.522003 9:0.87457502 10:-0.95174402 13:1 34:1 #
-0.10000000000000000555111512312578 1:-1.28352 2:1.22733 3:-0.0133511 4:0.28496799 5:-0.79622602 6:-0.98646802 7:-1.23833 8:0.64137602 9:1.42331 10:-0.61191398 13:1 18:1 #
-0.10000000000000000555111512312578 1:-1.44425 2:1.63837 3:-0.28037399 4:-0.68421501 5:-0.436021 6:-0.83703703 7:-0.67799801 8:-0.066767797 9:0.639404 10:0.158369 13:1 25:1 #
-0.10000000000000000555111512312578 1:-0.451318 2:1.6294301 3:0.12016 4:-0.98532099 5:-0.64185202 6:-0.510598 7:-0.939484 8:-0.269095 9:0.71779501 10:0.46044001 13:1 34:1 #
0.10000000000000000555111512312578 1:-1.80141 2:-0.75641102 3:0.92122799 4:1.13653 5:1.15918 6:-1.02495 7:0.96563298 8:-1.43247 9:-1.66005 10:-0.43595701 14:1 24:1 #
0.10000000000000000555111512312578 1:-2.65505 2:-0.872576 3:0.78771698 4:0.120301 5:2.0339601 6:-1.27507 7:0.66679102 8:-1.43247 9:-1.3987499 10:-1.23041 14:1 16:1 #
0.10000000000000000555111512312578 1:-1.6085401 2:-1.37298 3:0.38718301 4:0.28496799 5:0.59313899 6:-1.06407 7:-0.67799801 8:-0.87607503 9:0.090671502 10:-1.18736 14:1 24:1 #
-0.10000000000000000555111512312578 1:-1.87642 2:-0.88151199 3:1.85581 4:-0.13846201 5:0.62744403 6:-1.08331 7:0.55472499 8:-2.6970201 9:-2.1826501 10:-0.55225497 14:1 24:1 #
-0.10000000000000000555111512312578 1:-2.2228701 2:-0.908319 3:1.4552701 4:0.063843802 5:0.91903901 6:-0.71069402 7:0.48001501 8:-2.3429401 9:-1.86909 10:-0.75615299 14:1 24:1 #
-0.10000000000000000555111512312578 1:-1.94428 2:-0.72066802 3:0.52069402 4:0.56725502 5:1.6223 6:-1.25711 7:1.00299 8:-1.0784 9:-1.45101 10:-0.72141498 13:1 24:1 #
0.10000000000000000555111512312578 1:-0.94778198 2:1.79028 3:-0.68090802 4:-0.84417802 5:-0.72761601 6:-0.20147499 7:-0.26708999 8:0.034395501 9:0.351973 10:0.467237 13:1 25:1 #
0.10000000000000000555111512312578 1:-0.94420999 2:1.68305 3:-0.68090802 4:-0.82065398 5:-0.57324201 6:-0.21494301 7:-0.34180099 8:0.13555899 9:0.50875401 10:0.44609201 13:1 16:1 #
0.10000000000000000555111512312578 1:-0.93706697 2:1.6205 3:-0.81441897 4:-0.75949198 5:-0.384563 6:-0.228411 7:-0.34180099 8:0.28730401 9:0.58714402 10:0.42494699 13:1 16:1 #
-0.10000000000000000555111512312578 1:-1.81927 2:1.78134 3:-1.48198 4:-0.279605 5:-0.487479 6:-0.91463798 7:0.106462 8:0.54021198 9:0.37810299 10:-0.613424 13:1 16:1 #
-0.10000000000000000555111512312578 1:-1.41924 2:1.1469001 3:-1.61549 4:0.623712 5:-0.50463098 6:-0.77098 7:0.069107197 8:0.79312098 9:0.53488398 10:-0.52129197 13:1 16:1 #
-0.10000000000000000555111512312578 1:-0.83705997 2:1.75453 3:-1.48198 4:-0.27019501 5:-0.77907401 6:-0.75686997 7:0.069107197 8:0.489631 9:0.40423301 10:0.025457099 13:1 25:1 #
0.10000000000000000555111512312578 1:-1.8157001 2:-0.24707399 3:0.52069402 4:0.37906399 5:0.83327597 6:-0.96530402 7:1.3018301 8:0.13555899 9:-1.08518 10:-0.53412998 14:1 16:1 #
0.10000000000000000555111512312578 1:-1.32995 2:-0.872576 3:1.3217601 4:-0.56189102 5:0.078559197 6:-1.2539001 7:0.62943602 8:-2.0394499 9:-1.81683 10:-0.26755199 13:1 24:1 #
0.10000000000000000555111512312578 1:-0.80491501 2:1.7456 3:1.05474 4:0.120301 5:1.31355 6:-0.37784201 7:-1.4251 8:-1.3818901 9:0.351973 10:0.406822 13:1 24:1 #
-0.10000000000000000555111512312578 1:-0.96564001 2:-0.58663201 3:2.3898499 4:-0.703035 5:-0.11012 6:-0.67349702 7:1.33919 8:-2.59585 9:-3.04494 10:-0.76143903 13:1 27:1 #
-0.10000000000000000555111512312578 1:-1.59426 2:-0.97980499 3:2.3898499 4:0.129711 5:1.0048 6:-0.59589499 7:-0.080313802 8:-3.6074901 9:-2.3132999 10:-1.10429 13:1 24:1 #
-0.10000000000000000555111512312578 1:-1.8728499 2:-0.61343902 3:1.85581 4:-0.32194799 5:0.0271012 6:-1.02046 7:1.3018301 8:-2.0394499 9:-2.5223401 10:-0.99781001 14:1 15:1 #
0.10000000000000000555111512312578 1:-2.00857 2:1.64731 3:-1.21495 4:-0.68421501 5:-0.64185202 6:-1.50723 7:-0.080313802 8:0.489631 9:0.50875401 10:-1.43128 13:1 16:1 #
0.090879474912157434673964928606438 1:-1.40139 2:-0.425789 3:-1.61549 4:-0.467796 5:0.044253901 6:-0.26496699 7:0.40530401 8:0.64137602 9:0.169062 10:-1.01367 13:1 24:1 #
0.079623692606292512108367986911617 1:-1.40139 2:-1.2210701 3:2.1228299 4:-0.50543398 5:0.35300201 6:-0.33359 7:-1.08891 8:-3.05109 9:-1.05905 10:-0.82336402 13:1 24:1 #
-0.10000000000000000555111512312578 1:-0.98349899 2:1.6741101 3:-0.0133511 4:-1.0700099 5:-0.67615801 6:-0.0052268701 7:-0.79006398 8:-0.269095 9:0.58714402 10:-0.99629998 13:1 45:1 #
-0.10000000000000000555111512312578 1:-2.03 2:0.33375001 3:0.253672 4:-0.68421501 5:-0.436021 6:-0.81458998 7:0.14381801 8:1.4001 9:0.561014 10:-0.23432399 13:1 16:1 #
-0.10000000000000000555111512312578 1:-1.36567 2:1.6294301 3:0.65420598 4:-1.12646 5:-0.64185202 6:-0.706846 7:-1.38775 8:-0.67374802 9:0.74392498 10:-0.92380202 11:1 30:1 #
0.10000000000000000555111512312578 1:-3.16223 2:-0.872576 3:2.52336 4:0.43081599 5:-0.62470001 6:-1.2641701 7:0.36794901 8:-3.6074901 9:-2.7575099 10:-0.79315698 14:1 15:1 #
0.006831913601803796254330336523708 1:-3.1265099 2:-0.91725498 3:2.52336 4:0.289673 5:-0.45317301 6:-1.2455699 7:0.181173 8:-3.7592299 9:-2.6529901 10:-0.77050102 14:1 15:1 #
0.10000000000000000555111512312578 1:-2.12287 2:-0.872576 3:1.5887901 4:0.53902602 5:1.15918 6:-1.21863 7:0.62943602 8:-2.3935299 9:-2.0258701 10:-0.82185298 14:1 17:1 #
-0.10000000000000000555111512312578 1:-3.33724 2:-0.836833 3:1.4552701 4:0.0120913 5:0.30154401 6:-1.2693 7:0.74150199 8:-2.14062 9:-1.97361 10:-1.35954 14:1 19:1 #
-0.10000000000000000555111512312578 1:-3.3550999 2:-0.81002599 3:1.85581 4:-1.26761 5:-0.79622602 6:-1.3295799 7:0.77885699 8:-2.59585 9:-2.3394301 10:-0.95174402 14:1 15:1 #
-0.10000000000000000555111512312578 1:-2.77648 2:-0.64918202 3:1.5887901 4:-0.00672783 5:-0.45317301 6:-1.10576 7:1.22712 8:-1.98887 9:-2.39169 10:-1.0114 14:1 20:1 #
0.10000000000000000555111512312578 1:-1.51925 2:0.35162199 3:0.78771698 4:-0.86770201 5:-0.69331002 6:-0.77098 7:-0.0056032902 8:1.45068 9:0.61327398 10:-0.50165802 13:1 18:1 #
0.10000000000000000555111512312578 1:-1.26923 2:0.53033698 3:0.52069402 4:-1.12646 5:-0.59039497 6:0.47577399 7:-0.453866 8:1.55185 9:1.10975 10:-0.49259499 13:1 18:1 #
0.10000000000000000555111512312578 1:-1.35495 2:0.38736501 3:1.05474 4:-1.26761 5:-0.79622602 6:0.31928799 7:-0.229735 8:1.45068 9:0.74392498 10:-0.66477603 13:1 18:1 #
-0.10000000000000000555111512312578 1:-1.34781 2:0.29800701 3:1.4552701 4:-1.26761 5:-0.79622602 6:-0.67221397 7:-0.0056032902 8:1.2989399 9:0.351973 10:-0.79013598 13:1 18:1 #
-0.10000000000000000555111512312578 1:-1.42996 2:0.24439301 3:0.253672 4:-1.26761 5:-0.79622602 6:-0.66323602 7:0.40530401 8:1.2989399 9:0.29971299 10:-1.17528 13:1 18:1 #
-0.10000000000000000555111512312578 1:-1.84785 2:0.396301 3:1.5887901 4:-0.95238799 5:-0.230189 6:-0.65297401 7:-0.453866 8:1.45068 9:0.79618502 10:-0.860367 13:1 18:1 #
0.024851296386848489156085051376976 1:-2.11572 2:-0.390046 3:0.92122799 4:-0.95238799 5:-0.40171501 6:-1.12949 7:1.4139 8:-0.522003 9:-1.60779 10:-0.46994001 14:1 15:1 #
0.10000000000000000555111512312578 1:-2.5121801 2:-0.53301799 3:1.5887901 4:-1.12646 5:-0.52178401 6:-1.17053 7:1.45125 8:-1.53364 9:-2.2871699 10:-0.95703 14:1 15:1 #
0.10000000000000000555111512312578 1:-2.9479201 2:-0.89044797 3:2.79039 4:-0.82065398 5:0.47307 6:-1.2455699 7:0.218528 8:-4.0121398 9:-2.91429 10:-1.28629 14:1 15:1 #
-0.10000000000000000555111512312578 1:-2.8443501 2:-0.470467 3:2.79039 4:-1.0700099 5:-0.40171501 6:-1.16027 7:1.48861 8:-2.54527 9:-3.7243299 10:-0.95703 14:1 15:1 #
-0.10000000000000000555111512312578 1:-2.3157401 2:-0.68492502 3:1.7223001 4:-0.98532099 5:-0.436021 6:-0.67798603 7:1.15241 8:-2.14062 9:-2.41782 10:-0.841488 14:1 17:1 #
-0.10000000000000000555111512312578 1:-3.20509 2:-0.461532 3:2.6568799 4:-0.98532099 5:-0.230189 6:-1.3295799 7:1.52596 8:-2.4441099 9:-3.20172 10:-1.20095 14:1 17:1 #
0.10000000000000000555111512312578 1:-2.2514501 2:0.306943 3:1.5887901 4:-0.82065398 5:0.42161199 6:-0.46570501 7:-0.080313802 8:1.2989399 9:0.37810299 10:-0.81958801 14:1 16:1 #
0.10000000000000000555111512312578 1:-1.80141 2:0.396301 3:1.7223001 4:-1.0700099 5:-0.50463098 6:-1.3148299 7:-0.52857703 8:1.4001 9:0.770055 10:-0.71612799 13:1 31:1 #
0.10000000000000000555111512312578 1:-1.98 2:0.056742001 3:0.12016 4:-0.56189102 5:-0.95060003 6:-1.50723 7:0.77885699 8:0.99544799 9:-0.17062999 10:-1.28629 13:1 18:1 #
-0.10000000000000000555111512312578 1:-1.95857 2:0.378429 3:0.12016 4:-1.12646 5:-0.67615801 6:-0.749816 7:0.069107197 8:1.45068 9:0.66553402 10:-0.73425299 13:1 30:1 #
-0.10000000000000000555111512312578 1:-2.6693299 2:0.235457 3:1.05474 4:-1.26761 5:-0.79622602 6:-0.548437 7:0.293239 8:1.24836 9:0.169062 10:-0.80675 14:1 31:1 #
-0.10000000000000000555111512312578 1:-1.5513999 2:0.61969399 3:1.3217601 4:-1.0700099 5:-0.53893697 6:-0.431714 7:-1.16362 8:1.55185 9:1.52783 10:-0.32041499 13:1 16:1 #
0.10000000000000000555111512312578 1:-3.17294 2:-0.559825 3:1.85581 4:-1.12646 5:-0.67615801 6:-1.18015 7:1.4139 8:-1.98887 9:-2.6268599 10:-1.04916 14:1 17:1 #
0.10000000000000000555111512312578 1:-2.09429 2:-0.667054 3:2.3898499 4:-0.84417802 5:-0.144425 6:-1.28212 7:1.18976 8:-2.8487599 9:-2.9665501 10:-1.20926 13:1 17:1 #
0.10000000000000000555111512312578 1:-2.0871501 2:-0.51514602 3:2.25634 4:-0.84417802 5:-0.161578 6:-1.27507 7:1.48861 8:-2.14062 9:-2.86203 10:-1.20095 13:1 17:1 #
-0.10000000000000000555111512312578 1:-1.1727999 2:-0.595568 3:1.85581 4:-0.98532099 5:-0.47032601 6:-0.60743898 7:1.33919 8:-2.09004 9:-2.6007299 10:-0.42160901 13:1 17:1 #
0.10000000000000000555111512312578 1:-1.99786 2:0.35162199 3:0.78771698 4:-1.12646 5:-0.89914203 6:-0.563829 7:-0.0056032902 8:1.45068 9:0.61327398 10:-1.0469 13:1 30:1 #
-0.10000000000000000555111512312578 1:-3.6015401 2:-0.65811801 3:1.05474 4:-0.56189102 5:0.0271012 6:-1.4110301 7:1.18976 8:-1.48306 9:-1.92135 10:-0.94721299 14:1 17:1 #
-0.10000000000000000555111512312578 1:-2.6371901 2:-0.34536701 3:1.7223001 4:-0.86770201 5:-0.213036 6:-0.85435301 7:1.56332 8:-0.977238 9:-2.1565199 10:-0.53412998 14:1 17:1 #
0.066278383313496391782138061898877 1:-1.75855 2:0.44991499 3:0.12016 4:-1.26761 5:-0.79622602 6:-0.55677402 7:-0.080313802 8:1.50126 9:0.848445 10:-0.67459399 13:1 30:1 #
0.10000000000000000555111512312578 1:-1.95857 2:0.49459401 3:1.1882499 4:-1.26761 5:-0.79622602 6:-0.54587102 7:-0.640643 8:1.55185 9:1.10975 10:-1.06276 13:1 30:1 #
-0.10000000000000000555111512312578 1:-3.1443701 2:1.12903 3:2.6568799 4:-0.703035 5:0.52452803 6:-1.35203 7:-3.81584 8:-0.16793101 9:2.5207701 10:-1.39957 14:1 19:1 #
-0.10000000000000000555111512312578 1:-3.75155 2:-1.24788 3:1.85581 4:-1.26761 5:-0.79622602 6:-1.46875 7:-1.05155 8:-2.7476001 9:-0.85001302 10:-1.1073101 14:1 15:1 #
-0.10000000000000000555111512312578 1:-2.3871701 2:-0.702797 3:0.253672 4:-0.75949198 5:0.49022299 6:-0.67991 7:1.00299 8:-0.72433001 9:-1.21583 10:-1.099 14:1 16:1 #
0.10000000000000000555111512312578 1:-0.31559399 2:1.54008 3:-0.28037399 4:-0.129052 5:0.50737602 6:-0.450313 7:-0.75270802 8:0.13555899 9:0.82231498 10:-0.101413 13:1 45:1 #
0.10000000000000000555111512312578 1:-0.29773599 2:1.52221 3:-0.28037399 4:-0.105528 5:0.59313899 6:-0.46121499 7:-0.82741898 8:0.13555899 9:0.87457502 10:-0.079512797 13:1 45:1 #
0.10000000000000000555111512312578 1:-1.1727999 2:1.75453 3:0.253672 4:-0.547777 5:-0.45317301 6:-0.177104 7:-0.79006398 8:-0.62316602 9:0.37810299 10:0.43854001 13:1 38:1 #
-0.10000000000000000555111512312578 1:-0.80848598 2:1.1469001 3:-0.94793099 4:-0.063185103 5:0.33584899 6:-0.93516099 7:-0.453866 8:0.84370297 9:0.95296597 10:-0.0228744 13:1 45:1 #
0.10000000000000000555111512312578 1:-2.35145 2:-0.336431 3:1.7223001 4:-0.82065398 5:0.112864 6:-0.92233402 7:1.56332 8:-0.977238 9:-2.1565199 10:-0.67836899 14:1 25:1 #
-0.10000000000000000555111512312578 1:-0.77991301 2:1.07542 3:-0.146862 4:-1.26761 5:-0.79622602 6:-0.42209399 7:-1.05155 8:0.944866 9:1.44944 10:-0.68365598 13:1 37:1 #
-0.10000000000000000555111512312578 1:-1.3799599 2:0.583951 3:-0.0133511 4:-0.75949198 5:-0.264494 6:-0.66836601 7:-0.37915599 8:1.50126 9:1.08362 10:-0.60436201 13:1 18:1 #
-0.10000000000000000555111512312578 1:-0.49775001 2:-0.40791699 3:-0.146862 4:-0.16669001 5:0.30154401 6:-0.283566 7:1.15241 8:0.084977202 9:-0.902273 10:-0.81958801 13:1 27:1 #
0.10000000000000000555111512312578 1:-1.84785 2:-1.37298 3:0.52069402 4:0.38376901 5:2.1540301 6:-0.94927001 7:-0.71535301 8:-0.977238 9:0.116802 10:-0.84677398 14:1 20:1 #
-0.10000000000000000555111512312578 1:-0.54061002 2:0.86989498 3:0.12016 4:-1.26761 5:-0.79622602 6:-0.27522799 7:-1.05155 8:1.2989399 9:1.55396 10:-0.68894202 13:1 27:1 #
-0.10000000000000000555111512312578 1:-0.704907 2:0.48565799 3:0.65420598 4:-0.703035 5:-0.84768403 6:-0.47340101 7:-0.34180099 8:1.55185 9:1.0052299 10:-0.65269297 13:1 27:1 #
-0.10000000000000000555111512312578 1:-1.64783 2:0.38736501 3:-0.0133511 4:-0.63716799 5:-0.64185202 6:-0.840244 7:0.106462 8:1.4001 9:0.66553402 10:-0.775787 13:1 18:1 #
0.096414011098102325725278660684125 1:-1.78356 2:0.77160197 3:0.78771698 4:-0.75949198 5:0.044253901 6:-0.60166699 7:-1.31304 8:1.45068 9:1.7368701 10:-1.02424 14:1 24:1 #
-0.027521610956192626984417870517063 1:-0.58704197 2:-0.82789701 3:1.85581 4:-0.19491901 5:1.36501 6:-1.34305 7:0.70414603 8:-2.64643 9:-2.3394301 10:-0.219221 11:1 43:1 #
0.052990638490658645287645356347639 1:-3.80513 2:-0.970869 3:1.05474 4:-1.0700099 5:-0.53893697 6:-1.40911 7:0.330594 8:-1.83713 9:-1.37262 10:-0.94721299 14:1 15:1 #
-0.10000000000000000555111512312578 1:-1.79427 2:-0.73853999 3:1.1882499 4:-0.129052 5:0.45591801 6:-1.12371 7:1.00299 8:-1.68538 9:-1.89522 10:-0.41632199 14:1 19:1 #
-0.10000000000000000555111512312578 1:-2.24073 2:-1.02448 3:0.65420598 4:-0.467796 5:0.71320802 6:-0.62988597 7:0.25588301 8:-1.43247 9:-1.00679 10:-0.603607 14:1 16:1 #
-0.10000000000000000555111512312578 1:-3.0657899 2:-0.631311 3:0.38718301 4:-1.26761 5:-0.79622602 6:-0.62796199 7:1.11505 8:-0.67374802 9:-1.3203599 10:-0.83771199 14:1 15:1 #
0.10000000000000000555111512312578 1:-1.5406801 2:0.440979 3:-0.146862 4:-1.12646 5:-0.79622602 6:-0.764566 7:-0.0056032902 8:1.4001 9:0.770055 10:-0.461633 13:1 18:1 #
0.10000000000000000555111512312578 1:-1.9871401 2:-1.21213 3:2.25634 4:0.0120913 5:1.48508 6:-0.98197901 7:-1.08891 8:-3.2534101 9:-1.1897 10:-0.92153698 14:1 24:1 #
0.10000000000000000555111512312578 1:-1.61926 2:0.378429 3:0.253672 4:-1.12646 5:-0.64185202 6:-0.755588 7:0.069107197 8:1.45068 9:0.66553402 10:-0.42689499 13:1 18:1 #
-0.10000000000000000555111512312578 1:-1.87999 2:0.1461 3:1.7223001 4:-1.26761 5:-0.79622602 6:-1.08139 7:0.48001501 8:0.84370297 9:-0.37967101 10:-0.69422799 13:1 18:1 #
-0.10000000000000000555111512312578 1:-1.81213 2:0.1461 3:-0.0133511 4:-0.420748 5:-1.77393 6:-0.75815302 7:0.59208101 8:1.14719 9:0.090671502 10:-0.38007399 13:1 18:1 #
-0.10000000000000000555111512312578 1:-1.8407 2:0.1461 3:0.12016 4:-0.279605 5:-2.0483699 6:-0.74468499 7:0.62943602 8:1.14719 9:0.064541399 10:-0.37025699 13:1 18:1 #
-0.038662047442793258389404087438379 1:0.184442 2:-0.765347 3:-1.08144 4:2.6844001 5:0.66175002 6:1.98419 7:0.51736999 8:0.28730401 9:-0.1445 10:3.05372 11:1 43:1 #
0.10000000000000000555111512312578 1:-3.3015201 2:1.45072 3:1.98932 4:-0.98532099 5:-0.52178401 6:-1.33407 7:-2.99402 8:-1.23015 9:1.52783 10:-1.21908 14:1 24:1 #
0.10000000000000000555111512312578 1:-0.81920099 2:-1.10491 3:-0.68090802 4:0.72721702 5:1.0391099 6:0.126247 7:0.218528 8:-0.11735 9:-0.092239402 10:-0.38536 13:1 46:1 #
-0.10000000000000000555111512312578 1:-2.37288 2:1.54008 3:2.6568799 4:-0.84417802 5:0.21578 6:-0.64976799 7:-3.4049301 8:-2.14062 9:1.18814 10:-0.81279099 14:1 24:1 #
