SVM-light Version V6.02
2 # kernel type
3 # kernel parameter -d 
1 # kernel parameter -g 
1 # kernel parameter -s 
1 # kernel parameter -r 
empty# kernel parameter -u 
54 # highest feature index 
10000 # number of training documents 
5748 # number of support vectors plus 1 
0.58327132 # threshold b, each following line is a SV (starting with alpha*y)
-0.014150389120446416058030081330799 1:0.184442 2:0.77160197 3:-0.81441897 4:2.17629 5:1.17633 6:2.28177 7:-0.26708999 8:1.19777 9:0.979096 10:3.33163 11:1 43:1 #
-0.14003865368454246342899693900108 1:-0.23701701 2:-1.21213 3:-0.68090802 4:-1.12646 5:-0.76192099 6:-0.068077601 7:0.069107197 8:-0.11735 9:0.0122812 10:0.63866198 13:1 40:1 #
-10 1:-2.2335899 2:-1.3461699 3:1.3217601 4:-0.13846201 5:0.747513 6:-0.61064601 7:-1.12626 8:-1.88771 9:-0.22289 10:-1.08692 14:1 24:1 #
-2.5684432441642259803415981878061 1:-0.544182 2:-0.78321898 3:1.3217601 4:-0.129052 5:1.34786 6:-0.55036098 7:0.92827803 8:-1.93829 9:-1.97361 10:-0.64514202 13:1 47:1 #
-0.027213751530323786187448575901726 1:0.102293 2:1.00393 3:-0.94793099 4:1.23063 5:0.49022299 6:2.03422 7:-0.416511 8:0.99544799 9:1.0052299 10:1.52222 11:1 43:1 #
0.15826504642785158005757750743214 1:-2.1192901 2:-1.23894 3:2.6568799 4:-1.12646 5:-0.47032601 6:-1.20324 7:-1.49981 8:-3.7086501 9:-1.21583 10:-1.01065 14:1 24:1 #
0.014878132427786018923687727522065 1:-2.5121801 2:-1.2568099 3:2.25634 4:-0.32194799 5:-0.11012 6:-1.12371 7:-1.38775 8:-3.2534101 9:-0.98066401 10:-0.76446003 14:1 24:1 #
3.1073932722045509713382216432365 1:-2.4586 2:0.36949301 3:1.05474 4:-1.12646 5:-0.67615801 6:-0.47596601 7:-0.15502401 8:1.45068 9:0.69166398 10:-0.68894202 14:1 31:1 #
0.63533014911250118572638712066691 1:-0.58346999 2:-1.01555 3:1.5887901 4:0.063843802 5:1.72521 6:-0.73378199 7:0.069107197 8:-2.4441099 9:-1.58166 10:-1.06955 13:1 47:1 #
0.66925689062391768846538298021187 1:-1.23709 2:0.83415198 3:0.65420598 4:-1.26761 5:-0.79622602 6:-0.60743898 7:-1.38775 8:1.34952 9:1.763 10:-0.64665198 13:1 34:1 #
-10 1:-2.3585999 2:1.58476 3:1.1882499 4:-0.75949198 5:-0.092967398 6:-1.06279 7:-1.8733701 8:-0.977238 9:0.92683601 10:-1.099 14:1 24:1 #
-10 1:-2.6979101 2:1.52221 3:0.92122799 4:-0.67010099 5:-0.315952 6:-0.749174 7:-1.79866 8:-0.62316602 9:1.10975 10:-0.63456899 14:1 24:1 #
-2.1504408405740065290956408716738 1:-2.6693299 2:0.235457 3:1.05474 4:-1.26761 5:-0.79622602 6:-0.548437 7:0.293239 8:1.24836 9:0.169062 10:-0.80675 14:1 31:1 #
5.9968728421068977496588559006341 1:-1.99429 2:-1.33724 3:1.1882499 4:-0.16669001 5:0.747513 6:-0.59781897 7:-1.01419 8:-1.73596 9:-0.19676 10:-1.19038 14:1 24:1 #
7.2557169645024242043973572435789 1:-2.30145 2:-1.3283 3:1.05474 4:-0.420748 5:0.37015399 6:-0.85371202 7:-0.939484 8:-1.68538 9:-0.22289 10:-0.86112303 14:1 24:1 #
4.2478150634276925501353616709821 1:-2.39431 2:-1.28362 3:1.3217601 4:0.25674 5:1.05626 6:-0.91079003 7:-0.90212899 8:-1.93829 9:-0.43193099 10:-0.87698102 14:1 24:1 #
-10 1:-2.3585999 2:-1.3014899 3:1.05474 4:-0.32194799 5:0.26723799 6:-0.65682203 7:-0.82741898 8:-1.73596 9:-0.327411 10:-0.73425299 14:1 24:1 #
-4.434677571539475948725339549128 1:-2.5479 2:-1.18533 3:1.3217601 4:0.204987 5:1.09057 6:-0.67478001 7:-0.49122199 8:-2.09004 9:-0.823883 10:-0.94721299 14:1 24:1 #
-3.3619967380446165172713790525449 1:-2.8764901 2:0.56607997 3:0.92122799 4:-1.12646 5:-0.67615801 6:-0.74083698 7:-0.75270802 8:1.55185 9:1.29266 10:-0.75313199 14:1 31:1 #
3.0696902348313837016746674635215 1:-2.45503 2:1.54008 3:1.05474 4:-0.68421501 5:-0.092967398 6:-0.749174 7:-1.91072 8:-0.77491099 9:1.05749 10:-0.92757797 14:1 24:1 #
1.2620144447798908871050116431434 1:-2.5014601 2:1.58476 3:0.92122799 4:-0.50543398 5:-0.11012 6:-0.72801 7:-1.72394 8:-0.82549298 9:0.90070599 10:-0.94268203 14:1 24:1 #
0.26295249033115392078840955036867 1:-2.8157699 2:1.58476 3:1.1882499 4:-0.420748 5:-0.058662102 6:-1.12564 7:-1.9480799 8:-1.02782 9:0.95296597 10:-1.32329 14:1 24:1 #
-9.7143867879891026007044274592772 1:-1.8728499 2:1.45072 3:1.05474 4:-0.68421501 5:0.30154401 6:-0.89988798 7:-2.02279 8:-0.42084 9:1.37105 10:-0.52053702 14:1 24:1 #
-4.1545588077501829360471674590372 1:-2.92292 2:-0.96193397 3:2.1228299 4:-1.0700099 5:-0.52178401 6:-0.71454197 7:0.106462 8:-3.1522501 9:-2.1565199 10:-0.74482501 14:1 24:1 #
-7.019228767138679714321369829122 1:-2.80863 2:1.7456 3:0.92122799 4:-0.27019501 5:-0.59039497 6:-1.13782 7:-1.2756799 8:-1.1795599 9:0.37810299 10:-0.97893101 14:1 24:1 #
1.7687225071668379872136256381054 1:-0.62633002 2:-0.765347 3:1.05474 4:-0.129052 5:1.10772 6:-0.755588 7:0.96563298 8:-1.6348 9:-1.7907 10:-1.10807 13:1 47:1 #
1.2344373096924954325004364363849 1:-0.52632302 2:-0.78321898 3:1.1882499 4:0.186168 5:1.81098 6:-0.77226198 7:0.89092302 8:-1.83713 9:-1.89522 10:-1.11033 13:1 47:1 #
2.6338415019076539813625004171627 1:-2.4621799 2:0.64650202 3:0.92122799 4:-1.26761 5:-0.79622602 6:-0.61898297 7:-1.01419 8:1.55185 9:1.5017 10:-1.09447 14:1 31:1 #
-8.9490057548664481146261096000671 1:-2.3693099 2:-1.28362 3:0.92122799 4:-0.68421501 5:-0.11012 6:-1.37255 7:-0.67799801 8:-1.53364 9:-0.327411 10:-0.73576301 14:1 24:1 #
-10 1:-2.3193099 2:-1.16746 3:0.78771698 4:-0.420748 5:0.33584899 6:-0.64591998 7:-0.229735 8:-1.48306 9:-0.64097202 10:-1.0997601 14:1 24:1 #
-0.26656421237358141063111816038145 1:0.616615 2:0.235457 3:0.78771698 4:-0.27019501 5:-0.333105 6:0.482187 7:0.36794901 8:1.24836 9:0.19519199 10:-0.925313 13:1 48:1 #
1.2917720424742147322660912323045 1:-3.0550799 2:1.4596601 3:0.78771698 4:-0.95238799 5:-0.40171501 6:-1.3840899 7:-1.7613 8:-0.269095 9:1.26653 10:-0.89661598 14:1 24:1 #
0.78131099996574215893474502081517 1:-2.19787 2:1.58476 3:1.1882499 4:-0.703035 5:-0.144425 6:-0.93002999 7:-1.8733701 8:-0.977238 9:0.92683601 10:-0.69271803 14:1 24:1 #
-10 1:-2.0692899 2:1.45072 3:1.4552701 4:-1.12646 5:-0.50463098 6:-0.83511299 7:-2.4336901 8:-0.72433001 9:1.44944 10:-0.58472699 14:1 24:1 #
-9.8758150152704509139311994658783 1:-1.92285 2:1.3703001 3:1.7223001 4:-0.98532099 5:-0.50463098 6:-1.00378 7:-2.7698901 8:-0.62316602 9:1.7368701 10:-0.37403199 14:1 24:1 #
8.4553224470960071101899302448146 1:-3.0443599 2:-0.88151199 3:1.98932 4:-1.12646 5:-0.59039497 6:-1.17502 7:0.48001501 8:-2.8993399 9:-2.2871699 10:-0.89963698 14:1 24:1 #
1.4563111525724372619094992842292 1:-2.3907399 2:-1.11384 3:1.05474 4:-0.467796 5:0.31869599 6:-0.908225 7:-0.117669 8:-1.83713 9:-0.98066401 10:-0.58472699 14:1 24:1 #
0.54079994842335110671882603128324 1:-2.19787 2:-1.1317101 3:1.3217601 4:-0.279605 5:0.86758101 6:-0.89604002 7:-0.34180099 8:-2.24178 9:-1.08518 10:-0.81581199 14:1 24:1 #
-10 1:-3.09079 2:-0.86364001 3:2.1228299 4:-0.86770201 5:-0.333105 6:-1.3982 7:0.55472499 8:-3.05109 9:-2.4700799 10:-1.099 14:1 24:1 #
-7.1111697201963437464655726216733 1:-3.2836599 2:-0.93512601 3:1.98932 4:-0.86770201 5:-0.11012 6:-1.23787 7:0.293239 8:-2.8993399 9:-2.1303899 10:-0.97213399 14:1 24:1 #
-1.590820564322789953948245056381 1:-2.71577 2:-1.0423599 3:1.5887901 4:-0.547777 5:0.35300201 6:-0.86653799 7:-0.0056032902 8:-2.4441099 9:-1.50327 10:-0.28718701 14:1 24:1 #
6.150806129064336325029671570519 1:-2.17644 2:1.36136 3:1.4552701 4:-0.95238799 5:-0.264494 6:-0.81010097 7:-2.5831201 8:-0.42084 9:1.71074 10:-0.36874601 14:1 24:1 #
3.2773990131088597266284523357172 1:-2.7443399 2:1.60263 3:0.78771698 4:-0.82065398 5:-0.058662102 6:-1.0255899 7:-1.57452 8:-0.72433001 9:0.87457502 10:-0.72518998 14:1 24:1 #
-0.30572629266269807368772148947755 1:1.48096 2:0.181843 3:0.65420598 4:0.073253401 5:0.095711797 6:-0.41311499 7:0.51736999 8:1.19777 9:0.064541399 10:0.811598 11:1 54:1 #
-2.4408851907150515003763757704291 1:-2.2335899 2:1.18265 3:1.7223001 4:-0.95238799 5:-0.213036 6:-1.24813 7:-2.8819599 8:0.13555899 9:2.1810801 10:-0.275859 14:1 24:1 #
1.7982541594732071033035936125088 1:-2.9907899 2:-0.93512601 3:1.98932 4:-0.44427201 5:-0.24734101 6:-1.3295799 7:0.293239 8:-2.8993399 9:-2.1303899 10:-1.17377 14:1 24:1 #
4.6380203865556470788078513578512 1:-3.0729301 2:-0.89044797 3:2.25634 4:-0.703035 5:-0.436021 6:-1.35203 7:0.40530401 8:-3.3039999 9:-2.5223401 10:-1.1428 14:1 24:1 #
-10 1:-3.06936 2:-1.0870301 3:2.52336 4:-0.56189102 5:0.164322 6:-1.32573 7:-0.67799801 8:-3.7592299 9:-1.94748 10:-1.19718 14:1 24:1 #
1.0203169074101583468916487618117 1:-2.03 2:1.47753 3:1.7223001 4:-0.98532099 5:-0.36741 6:-1.0769 7:-2.6951799 8:-1.0784 9:1.39718 10:-0.57340002 14:1 24:1 #
0.9848383064509996787094792125572 1:-2.5228901 2:1.3971 3:1.7223001 4:-0.98532099 5:-0.57324201 6:-0.491999 7:-2.7325399 8:-0.72433001 9:1.63235 10:-0.94721299 14:1 20:1 #
-10 1:-1.9871401 2:1.42391 3:1.7223001 4:-0.75949198 5:0.25008601 6:-0.82677603 7:-2.6951799 8:-0.82549298 9:1.55396 10:-0.61191398 14:1 24:1 #
-10 1:-3.01579 2:1.45072 3:1.7223001 4:-0.86770201 5:-0.264494 6:-1.31419 7:-2.65783 8:-0.92665702 9:1.47557 10:-1.07257 14:1 24:1 #
0.11633293523558560500497094380989 1:-3.09794 2:-1.10491 3:2.3898499 4:-0.63716799 5:0.0271012 6:-1.3712699 7:-0.67799801 8:-3.6074901 9:-1.81683 10:-1.12997 14:1 24:1 #
2.6424207499533940435298973170575 1:-3.1586499 2:-1.06916 3:2.52336 4:-0.63716799 5:0.35300201 6:-1.19169 7:-0.56593198 8:-3.8098099 9:-2.07813 10:-1.1073101 14:1 24:1 #
3.8167199535039983970818866509944 1:-3.2586601 2:-1.12278 3:2.6568799 4:-0.86770201 5:0.112864 6:-1.4110301 7:-0.86477399 8:-3.91098 9:-1.86909 10:-1.1775399 14:1 24:1 #
1.5546577412865398848396125686122 1:-2.3050201 2:1.4954 3:1.5887901 4:-1.12646 5:-0.52178401 6:-0.813308 7:-2.47105 8:-1.02782 9:1.29266 10:-0.74633503 14:1 24:1 #
-6.418610000671244542047588765854 1:-2.44432 2:-1.06916 3:2.52336 4:-0.37369999 5:1.15918 6:-1.04483 7:-0.56593198 8:-3.8098099 9:-2.0258701 10:-1.15036 14:1 24:1 #
2.9252568569887134053431054780958 1:-2.1300099 2:1.31668 3:1.7223001 4:-0.82065398 5:0.061406501 6:-0.80176401 7:-2.8446 8:-0.370258 9:1.8936501 10:-0.349112 14:1 24:1 #
1.8135718575048649370273778913543 1:-1.90856 2:1.40604 3:1.3217601 4:-0.32194799 5:0.43876499 6:-0.73763001 7:-2.3589799 8:-0.471421 9:1.55396 10:-0.96231699 14:1 24:1 #
-7.632416793460392590020546776941 1:-2.35145 2:1.3256201 3:1.7223001 4:-0.56189102 5:0.30154401 6:-0.95183599 7:-2.8819599 8:-0.42084 9:1.86752 10:-1.25155 14:1 24:1 #
-3.404084136545914240912225068314 1:-1.9764301 2:1.4149801 3:1.5887901 4:-0.50543398 5:0.73035997 6:-1.27314 7:-2.5457599 8:-0.67374802 9:1.55396 10:-0.92908901 14:1 24:1 #
3.6917498105202954938874881918309 1:-2.8764901 2:-1.06023 3:2.3898499 4:-0.13846201 5:0.98764998 6:-1.31419 7:-0.453866 8:-3.6580701 9:-2.0258701 10:-1.22361 14:1 24:1 #
3.1643893675702670087446222169092 1:-3.1229401 2:-0.86364001 3:1.7223001 4:-0.84417802 5:-0.17873099 6:-1.40911 7:0.59208101 8:-2.54527 9:-2.1565199 10:-1.11033 14:1 24:1 #
0.21130864846575717064247612597683 1:-2.5121801 2:1.46859 3:0.65420598 4:-0.82065398 5:-0.35025701 6:-0.54522997 7:-1.68659 8:-0.269095 9:1.2404 10:-0.98421699 14:1 20:1 #
9.4882066299393628128200361970812 1:-2.12287 2:1.40604 3:1.4552701 4:-0.75949198 5:0.232933 6:-0.93900901 7:-2.5084 8:-0.57258499 9:1.58009 10:-0.90492302 14:1 24:1 #
-6.0443865485182382002449230640195 1:-3.1586499 2:-1.09597 3:1.85581 4:-1.12646 5:-0.93344802 6:-1.22697 7:-0.34180099 8:-2.7981801 9:-1.4771399 10:-0.969868 14:1 24:1 #
4.3561620606696846991212623834144 1:-1.8728499 2:1.38817 3:1.3217601 4:-0.86770201 5:-0.72761601 6:-0.99480498 7:-2.47105 8:-0.471421 9:1.63235 10:-0.68365598 14:1 24:1 #
0.57232911132021346833909092310932 1:-0.77991301 2:1.3971 3:0.52069402 4:0.53902602 5:-0.00720412 6:-0.309861 7:-1.6118799 8:0.034395501 9:1.34492 10:0.273911 13:1 24:1 #
0.33378724146736515887567975369166 1:-1.42996 2:-0.92619097 3:1.7223001 4:-0.95238799 5:-0.53893697 6:0.296841 7:0.36794901 8:-2.64643 9:-1.97361 10:-0.81958801 13:1 24:1 #
-5.3916296518958155559175793314353 1:-3.5408199 2:1.4596601 3:1.4552701 4:-0.82065398 5:0.130017 6:-1.4110301 7:-2.47105 8:-0.82549298 9:1.39718 10:-1.12392 14:1 24:1 #
1.3312993828484882552487533757812 1:-2.9586401 2:-0.81002599 3:2.3898499 4:-0.82065398 5:-0.17873099 6:-1.18464 7:0.70414603 8:-3.2534101 9:-2.7836399 10:-0.91323 14:1 24:1 #
1.2796143035820328748286556219682 1:-2.23716 2:-1.12278 3:2.6568799 4:-0.68421501 5:0.28439099 6:-1.06792 7:-0.90212899 8:-3.8603899 9:-1.81683 10:-0.928334 14:1 24:1 #
-8.743292512963622087340809230227 1:-2.6693299 2:1.2809401 3:1.1882499 4:-0.16669001 5:0.747513 6:-1.02495 7:-2.3963399 8:-0.016186099 9:1.84139 10:-1.20926 14:1 24:1 #
-8.3258379386213015038720186566934 1:-1.5764 2:1.33455 3:0.65420598 4:-0.44427201 5:0.061406501 6:-1.12628 7:-1.7613 8:0.13555899 9:1.52783 10:-1.01518 14:1 24:1 #
5.3645533370349767210427671670914 1:-3.3443799 2:1.45072 3:1.5887901 4:-1.0700099 5:-0.53893697 6:-1.33407 7:-2.5457599 8:-0.82549298 9:1.44944 10:-1.23116 14:1 24:1 #
10 1:-1.9871401 2:1.40604 3:1.85581 4:-0.98532099 5:-0.29879901 6:-1.09614 7:-2.99402 8:-0.92665702 9:1.65848 10:-0.55300999 14:1 24:1 #
6.6742001315570833597234923217911 1:-3.2693801 2:1.3971 3:1.85581 4:-0.98532099 5:-0.384563 6:-1.29944 7:-2.95667 8:-0.87607503 9:1.71074 10:-1.07257 14:1 24:1 #
-10 1:-2.6800499 2:1.38817 3:2.25634 4:-0.95238799 5:-0.161578 6:-1.13975 7:-3.3675799 8:-1.12898 9:1.8152601 10:-0.46994001 14:1 24:1 #
-6.7966072708378648670191068958957 1:-3.31938 2:1.30775 3:1.98932 4:-1.12646 5:-0.47032601 6:-1.45272 7:-3.0687301 8:-0.522003 9:1.94591 10:-0.99629998 14:1 24:1 #
0.31069926056600727370948789030081 1:-2.59076 2:-0.97980499 3:0.78771698 4:0.57195997 5:1.05626 6:-1.10255 7:0.330594 8:-1.6348 9:-1.21583 10:-1.47282 14:1 16:1 #
4.4438586966741393524671366321854 1:-1.85856 2:1.26307 3:0.65420598 4:-0.56189102 5:0.25008601 6:-1.11089 7:-1.83601 8:0.33788601 9:1.65848 10:-1.16546 14:1 24:1 #
-4.7807891759708418533136864425614 1:-2.0335701 2:1.13797 3:0.38718301 4:-0.547777 5:-0.041509401 6:-1.3982 7:-1.57452 8:0.74253899 9:1.68461 10:-0.98648202 14:1 24:1 #
-0.98461926807383015614050236763433 1:-1.5049599 2:1.38817 3:0.253672 4:-0.279605 5:0.112864 6:-1.26096 7:-1.38775 8:0.186141 9:1.26653 10:-0.93286502 14:1 24:1 #
4.896845848881782536921036808053 1:-2.8979199 2:1.37923 3:2.1228299 4:-0.98532099 5:-0.281647 6:-1.1031899 7:-3.2181499 8:-0.977238 9:1.78913 10:-0.81581199 14:1 24:1 #
0.63904935023632125634662770607974 1:-1.79427 2:-0.765347 3:0.12016 4:-0.56189102 5:-0.62470001 6:-1.3712699 7:0.853567 8:-0.67374802 9:-1.03292 10:-0.64212102 14:1 25:1 #
-6.1811650567122162769351234601345 1:-2.9157801 2:1.28988 3:2.52336 4:-0.56189102 5:0.42161199 6:-0.66002899 7:-3.7037699 8:-0.82549298 9:2.1549499 10:-1.0559601 14:1 24:1 #
-3.6168046589197970774876012001187 1:-2.8371999 2:1.48646 3:2.79039 4:-0.82065398 5:0.19862799 6:-0.75686997 7:-3.7784801 8:-2.14062 9:1.42331 10:-0.68667603 14:1 24:1 #
2.2511994012630811567987620946951 1:-3.00507 2:1.7187901 3:1.1882499 4:-0.053775601 5:-0.40171501 6:-1.21799 7:-1.49981 8:-1.3818901 9:0.430363 10:-0.89661598 14:1 24:1 #
3.5045557315131805609098591958173 1:-2.6871901 2:-1.2657501 3:1.3217601 4:-0.75949198 5:-0.230189 6:-0.605515 7:-0.82741898 8:-1.98887 9:-0.51032102 10:-1.1586601 14:1 24:1 #
2.3572291148159907336889773432631 1:-2.2121601 2:1.42391 3:1.05474 4:-1.0700099 5:-0.53893697 6:-0.81779701 7:-2.0975001 8:-0.370258 9:1.44944 10:-0.388381 14:1 24:1 #
-10 1:-2.7193401 2:-1.3283 3:1.1882499 4:-0.98532099 5:-0.69331002 6:-0.87230998 7:-0.97684002 8:-1.73596 9:-0.22289 10:-1.2221 14:1 24:1 #
-10 1:-2.3764601 2:-1.33724 3:1.5887901 4:-0.75949198 5:0.061406501 6:-0.706846 7:-1.2756799 8:-2.1912 9:-0.327411 10:-1.06427 14:1 24:1 #
-10 1:-2.0335701 2:-1.29256 3:1.05474 4:-1.12646 5:-0.60754699 6:-0.93516099 7:-0.82741898 8:-1.73596 9:-0.35354099 10:-1.0786099 14:1 24:1 #
8.3539839656096468445412028813735 1:-2.84077 2:1.36136 3:2.6568799 4:-0.84417802 5:0.21578 6:-1.10255 7:-3.7784801 8:-1.28073 9:1.94591 10:-0.81581199 14:1 24:1 #
1.6666017311681771140285945875803 1:-2.9622099 2:1.4954 3:2.79039 4:-0.82065398 5:0.181475 6:-1.15899 7:-3.7784801 8:-2.1912 9:1.39718 10:-0.88302302 14:1 24:1 #
3.1788020831566790036504244199023 1:-2.4086001 2:1.30775 3:2.79039 4:-0.56189102 5:0.49022299 6:-0.93644398 7:-4.0773301 8:-1.1795599 9:2.1810801 10:-0.96684802 14:1 24:1 #
-6.8470840645173813854285072011407 1:-2.83006 2:1.4149801 3:2.79039 4:-0.75949198 5:0.747513 6:-1.35331 7:-3.96526 8:-1.78655 9:1.763 10:-0.99856502 14:1 24:1 #
-2.5053726613509357257214560377179 1:-3.21223 2:1.33455 3:3.05741 4:-0.95238799 5:0.112864 6:-1.4257801 7:-4.2641001 8:-1.53364 9:2.07656 10:-0.99781001 14:1 24:1 #
-1.0911866402931922337415926449466 1:-2.06215 2:1.26307 3:3.1909201 4:-0.36429101 5:0.88473397 6:-1.31675 7:-4.5629401 8:-1.33131 9:2.3378601 10:-0.76596999 14:1 24:1 #
3.6069308123109315999954560538754 1:-2.20859 2:-1.37298 3:1.1882499 4:-1.26761 5:-0.79622602 6:-0.64271301 7:-1.12626 8:-1.68538 9:-0.066109203 10:-0.916251 14:1 24:1 #
0.0508093277418730782102329612826 1:-1.70855 2:-1.3908499 3:-0.28037399 4:-1.26761 5:-0.79622602 6:-0.86782098 7:-0.34180099 8:-0.269095 9:0.24745201 10:-0.53412998 13:1 31:1 #
-7.9281490808433812134126128512435 1:-2.8479199 2:1.70986 3:0.52069402 4:-0.279605 5:0.88473397 6:-1.17117 7:-1.12626 8:-0.82549298 9:0.50875401 10:-1.16546 14:1 24:1 #
1.7700131144590076637257425318239 1:-2.6871901 2:-1.3908499 3:1.85581 4:-0.63716799 5:0.164322 6:-0.590765 7:-1.72394 8:-2.4441099 9:-0.17062999 10:-1.17981 14:1 24:1 #
1.6985168311525122852856384270126 1:-2.5978999 2:1.50433 3:0.65420598 4:-0.84417802 5:-0.57324201 6:-0.67862803 7:-1.64923 8:-0.370258 9:1.13588 10:-1.00536 14:1 24:1 #
3.5665214608157054243520178715698 1:-2.29074 2:-1.3908499 3:1.5887901 4:-0.56189102 5:0.42161199 6:-0.85178798 7:-1.46246 8:-2.0394499 9:-0.092239402 10:-0.860367 14:1 24:1 #
0.68260138952994020566933386362507 1:-1.97286 2:-1.3283 3:1.1882499 4:-1.12646 5:-0.55608898 6:-0.68888903 7:-0.97684002 8:-1.73596 9:-0.22289 10:-0.90265697 14:1 24:1 #
-10 1:-2.99436 2:1.42391 3:0.52069402 4:-0.86770201 5:-0.230189 6:-1.2641701 7:-1.6118799 8:-0.066767797 9:1.29266 10:-1.12997 14:1 24:1 #
-10 1:-3.1908 2:1.36136 3:0.92122799 4:-1.0700099 5:-0.76192099 6:-1.00378 7:-2.02279 8:-0.066767797 9:1.55396 10:-0.97364402 14:1 24:1 #
2.4336706167702613079484308400424 1:-2.9407799 2:-1.2568099 3:0.92122799 4:-1.12646 5:-0.74476802 6:-1.27314 7:-0.56593198 8:-1.5842201 9:-0.43193099 10:-1.12695 14:1 24:1 #
-0.040376576938583638720636770358396 1:-0.35845399 2:1.42391 3:1.1882499 4:-0.467796 5:0.095711797 6:1.46728 7:-2.2469201 8:-0.471421 9:1.47557 10:-1.25155 11:1 43:1 #
0.72300785537120282331358112060116 1:-3.4658201 2:1.38817 3:0.78771698 4:-0.56189102 5:-0.12727299 6:-1.18977 7:-1.91072 8:-0.11735 9:1.44944 10:-1.00763 14:1 24:1 #
2.3378868399389651777653398312395 1:-2.70505 2:1.7456 3:0.52069402 4:0.28496799 5:0.59313899 6:-1.18015 7:-1.01419 8:-0.87607503 9:0.37810299 10:-1.36332 14:1 24:1 #
10 1:-3.17294 2:1.40604 3:0.78771698 4:-1.0700099 5:-0.59039497 6:-1.15321 7:-1.83601 8:-0.11735 9:1.39718 10:-0.950234 14:1 24:1 #
3.3669323678228666452127981756348 1:-2.0157199 2:-1.28362 3:1.4552701 4:-0.86770201 5:-0.024356799 6:-0.85050499 7:-0.97684002 8:-2.1912 9:-0.536452 10:-0.93588501 14:1 24:1 #
0.33589704647756524202861783123808 1:-2.85149 2:-1.36404 3:1.5887901 4:-0.95238799 5:-0.333105 6:-0.67221397 7:-1.35039 8:-2.14062 9:-0.19676 10:-1.12997 14:1 24:1 #
4.0599362886243302028788093593903 1:-2.6264701 2:-1.36404 3:1.3217601 4:-0.67010099 5:-0.19588301 6:-0.563829 7:-1.16362 8:-1.78655 9:-0.118369 10:-1.19189 14:1 24:1 #
-5.2650862410578689321027923142537 1:-1.90856 2:-1.3014899 3:2.1228299 4:-0.467796 5:0.095711797 6:-1.11089 7:-1.46246 8:-2.9499199 9:-0.71936202 10:-0.65269297 14:1 24:1 #
1.8275400831115005129134942762903 1:-2.7729101 2:1.17371 3:2.25634 4:-0.84417802 5:-0.00720412 6:-0.73185802 7:-3.4422901 8:-0.16793101 9:2.3639901 10:-0.98874801 14:1 24:1 #
-0.078653067418947716915589296604594 1:0.67733401 2:-0.98874098 3:0.38718301 4:0.81660801 5:0.164322 6:0.56171203 7:0.36794901 8:-1.1795599 9:-0.95453399 10:0.91203701 11:1 43:1 #
4.1946624872345523726835381239653 1:-2.9800701 2:1.81709 3:0.92122799 4:-0.75949198 5:-0.436021 6:-1.34369 7:-1.05155 8:-1.3818901 9:0.064541399 10:-0.92908901 14:1 24:1 #
-10 1:-1.6656899 2:1.05755 3:1.3217601 4:-0.420748 5:0.33584899 6:-0.67221397 7:-2.32163 8:0.74253899 9:2.1288199 10:-0.97213399 14:1 24:1 #
-2.834329163823190889104353118455 1:-2.4693201 2:1.7634701 3:0.12016 4:0.59077901 5:0.25008601 6:-1.3148299 7:-0.71535301 8:-0.522003 9:0.37810299 10:-0.27510399 14:1 24:1 #
1.1220569913880737988876035160501 1:-2.2121601 2:-1.31936 3:1.98932 4:-0.75949198 5:0.31869599 6:-0.66066998 7:-1.4251 8:-2.6970201 9:-0.56258202 10:-1.2002 14:1 24:1 #
2.3098072162950096242184372385964 1:-2.40503 2:-1.29256 3:1.5887901 4:-0.67010099 5:0.25008601 6:-0.9249 7:-1.12626 8:-2.3429401 9:-0.536452 10:-0.60436201 14:1 24:1 #
1.4866191753282160803451006358955 1:-1.96214 2:-1.24788 3:0.92122799 4:-0.68421501 5:-0.264494 6:-1.08716 7:-0.52857703 8:-1.5842201 9:-0.45806101 10:-0.55980599 14:1 24:1 #
-3.4068519690932377308456580067286 1:-2.2228701 2:-1.11384 3:1.5887901 4:-0.75949198 5:0.45591801 6:-0.44005099 7:-0.34180099 8:-2.4946899 9:-1.2681 10:-0.87924701 14:1 24:1 #
-2.602274638968983033748827438103 1:-2.4228899 2:-1.2657501 3:1.85581 4:0.651941 5:1.3307 6:-0.97877198 7:-1.16362 8:-2.7476001 9:-0.79775298 10:-0.72594601 14:1 24:1 #
2.7311659531023910751912353589432 1:-2.99436 2:1.25413 3:0.52069402 4:-0.68421501 5:-0.24734101 6:-1.3712699 7:-1.64923 8:0.43904901 9:1.60622 10:-0.93286502 14:1 24:1 #
0.89367209436039729553158394992352 1:-2.9407799 2:1.26307 3:0.52069402 4:-0.56189102 5:-0.60754699 6:-1.3687 7:-1.64923 8:0.43904901 9:1.58009 10:-0.96458203 14:1 24:1 #
0.80112844562610141530001328646904 1:-2.16573 2:1.08435 3:1.3217601 4:-0.19491901 5:0.62744403 6:-0.75686997 7:-2.32163 8:0.69195801 9:2.10269 10:-1.28629 14:1 24:1 #
-3.9058445402809214286321548570413 1:-2.2228701 2:1.01287 3:1.1882499 4:0.38376901 5:0.66175002 6:-1.29944 7:-2.2095599 8:0.89428401 9:2.10269 10:-1.01895 14:1 24:1 #
-3.9104275636148106976008875790285 1:-1.75141 2:1.22733 3:0.92122799 4:-0.420748 5:0.62744403 6:-0.999295 7:-2.0975001 8:0.33788601 9:1.8152601 10:-0.33023199 14:1 24:1 #
4.3256347435980035953662081738003 1:-2.1835799 2:-1.2032 3:1.05474 4:-0.36429101 5:0.45591801 6:-0.69915003 7:-0.49122199 8:-1.88771 9:-0.693232 10:-1.26212 14:1 24:1 #
3.606492311638012981944712009863 1:-1.99429 2:1.3971 3:1.85581 4:-0.24196699 5:0.83327597 6:-1.0108401 7:-2.95667 8:-0.87607503 9:1.71074 10:-0.60662699 14:1 24:1 #
4.2239390429752967648369121889118 1:-2.44432 2:-1.24788 3:0.78771698 4:-0.36429101 5:0.43876499 6:-1.05124 7:-0.453866 8:-1.43247 9:-0.405801 10:-0.76370502 14:1 24:1 #
-7.6298341886341063400323037058115 1:-1.96214 2:1.272 3:2.1228299 4:-0.00672783 5:1.2964 6:-1.3000799 7:-3.2555101 8:-0.471421 9:2.10269 10:-0.803729 14:1 24:1 #
-10 1:-2.49789 2:1.52221 3:2.1228299 4:-0.24196699 5:0.901887 6:-1.0422601 7:-2.99402 8:-1.6348 9:1.2404 10:-1.04161 14:1 24:1 #
-7.722409226770364121250622702064 1:-2.68362 2:1.3971 3:1.85581 4:-0.067889899 5:1.48508 6:-0.520859 7:-2.8819599 8:-0.82549298 9:1.65848 10:-0.85583597 14:1 24:1 #
1.9852616381451377858269324860885 1:-1.83356 2:1.09329 3:0.78771698 4:0.308492 5:0.55883402 6:-1.0583 7:-1.8733701 8:0.79312098 9:1.8936501 10:-0.49259499 14:1 24:1 #
1.8866782164580473413195704779355 1:-1.93714 2:1.43285 3:0.12016 4:-0.56189102 5:-0.12727299 6:-1.05124 7:-1.2009701 8:0.13555899 9:1.13588 10:-1.07257 14:1 24:1 #
2.0674813555891211613868563290453 1:-2.95507 2:1.3971 3:0.52069402 4:-1.0700099 5:-0.86483699 6:-0.755588 7:-1.6118799 8:0.034395501 9:1.34492 10:-1.04237 14:1 24:1 #
-6.5318887872678246253599354531616 1:-2.2621601 2:1.42391 3:0.12016 4:-1.12646 5:-0.57324201 6:-1.11089 7:-1.2009701 8:0.186141 9:1.16201 10:-1.2221 14:1 24:1 #
-0.17923742941112008608683936472517 1:-1.4478199 2:1.28988 3:0.12016 4:-0.279605 5:0.232933 6:-1.30265 7:-1.31304 8:0.489631 9:1.39718 10:-0.87018502 14:1 24:1 #
1.4633132172541596371928562803078 1:-2.0228601 2:1.26307 3:1.85581 4:-0.27019501 5:0.901887 6:-0.99480498 7:-3.1060901 8:-0.269095 9:2.07656 10:-0.628528 14:1 24:1 #
4.3354012535960002594492834759876 1:-2.4121699 2:1.3703001 3:2.1228299 4:-0.105528 5:1.58799 6:-0.70620501 7:-3.2555101 8:-0.92665702 9:1.84139 10:-0.87244999 14:1 24:1 #
-3.851802121689106517266054652282 1:-2.5978999 2:1.35243 3:2.1228299 4:0.129711 5:1.89674 6:-0.531762 7:-3.2555101 8:-0.82549298 9:1.8936501 10:-0.82638401 14:1 24:1 #
2.195742115274157857385262104799 1:-1.92285 2:1.20052 3:0.12016 4:-0.68421501 5:-0.058662102 6:-1.08139 7:-1.2756799 8:0.69195801 9:1.47557 10:-1.11562 14:1 24:1 #
1.0816974069251326096008369859192 1:-2.4943199 2:-1.16746 3:2.6568799 4:-0.19491901 5:0.19862799 6:-1.18015 7:-1.12626 8:-3.8098099 9:-1.60779 10:-1.2002 14:1 24:1 #
-1.4763955582892811513318065408384 1:-2.2228701 2:0.99499601 3:0.65420598 4:0.78837901 5:0.49022299 6:-1.34369 7:-1.64923 8:1.04603 9:1.84139 10:-1.0114 14:1 24:1 #
-0.20302510590887432040396731736109 1:0.65233201 2:-0.47940299 3:-0.94793099 4:-0.56189102 5:-1.12213 6:0.66111898 7:0.74150199 8:0.38846701 9:-0.27515 10:2.2607901 11:1 44:1 #
-0.0061780800867785043775648468056261 1:-0.00128581 2:-0.336431 3:-0.413885 4:-0.98532099 5:-0.55608898 6:0.707295 7:1.0403399 8:0.33788601 9:-0.64097202 10:3.3731599 11:1 43:1 #
2.6113886228579175075026341801276 1:-2.39431 2:1.3256201 3:1.85581 4:-0.00672783 5:1.81098 6:-0.73314101 7:-3.0687301 8:-0.57258499 9:1.91978 10:-0.85734701 14:1 24:1 #
-8.7182562266475844836577380192466 1:-2.6693299 2:1.37923 3:2.52336 4:-0.32194799 5:0.83327597 6:-0.83383 7:-3.62906 8:-1.28073 9:1.86752 10:-0.588503 14:1 24:1 #
1.7038470483541028333007716355496 1:-1.93357 2:1.07542 3:0.52069402 4:-0.98532099 5:-0.59039497 6:-1.23146 7:-1.6118799 8:0.89428401 9:1.78913 10:-1.2689199 14:1 24:1 #
-2.0045716595643021662453975295648 1:-2.6157601 2:1.47753 3:2.1228299 4:-0.13846201 5:1.81098 6:-0.563829 7:-2.99402 8:-1.3818901 9:1.42331 10:-0.82185298 14:1 24:1 #
0.34989938320465790999591604304442 1:-1.53711 2:-1.0870301 3:-0.0133511 4:-0.13846201 5:0.93619198 6:-1.07177 7:0.181173 8:-0.77491099 9:-0.51032102 10:-1.21908 14:1 20:1 #
7.1799300029035073578143055783585 1:-1.82999 2:0.95031703 3:0.78771698 4:-0.50543398 5:-0.24734101 6:-1.17823 7:-1.72394 8:1.09661 9:1.91978 10:-1.2591 14:1 24:1 #
0.6165176005325674335466601405642 1:-2.36217 2:-1.33724 3:0.52069402 4:-0.467796 5:0.078559197 6:-0.690813 7:-0.640643 8:-1.12898 9:-0.066109203 10:-1.06276 14:1 24:1 #
-10 1:-1.70498 2:0.97712398 3:1.05474 4:-0.56189102 5:0.044253901 6:-1.28276 7:-1.98543 8:1.04603 9:2.0243001 10:-1.47282 14:1 24:1 #
-10 1:-2.2943101 2:-0.93512601 3:0.52069402 4:-0.50543398 5:0.26723799 6:-1.06407 7:0.51736999 8:-1.23015 9:-1.08518 10:-1.0197099 14:1 24:1 #
-6.6706045779592786360012723889668 1:-1.6549799 2:0.79840899 3:0.92122799 4:-0.32194799 5:0.28439099 6:-1.2212 7:-1.4251 8:1.4001 9:1.78913 10:-1.39428 14:1 24:1 #
-0.031163269757708427637465931070437 1:-0.60132903 2:-0.58663201 3:-0.413885 4:-1.26761 5:-0.79622602 6:0.033894502 7:0.92827803 8:-0.016186099 9:-0.693232 10:0.62809002 11:1 37:1 #
1.5399954305160539203001235364354 1:-2.6871901 2:1.43285 3:2.3898499 4:-0.420748 5:1.39931 6:-1.09614 7:-3.3675799 8:-1.3818901 9:1.63235 10:-0.81279099 14:1 24:1 #
5.1210037402839283515731949592009 1:-2.47646 2:1.4149801 3:2.3898499 4:-0.50543398 5:0.93619198 6:-0.62988597 7:-3.4049301 8:-1.28073 9:1.71074 10:-0.938151 14:1 24:1 #
-2.2832555465296051622203776787501 1:-2.00857 2:1.26307 3:1.98932 4:0.43081599 5:1.9482 6:-1.00827 7:-3.1808 8:-0.370258 9:2.10269 10:-1.26212 14:1 24:1 #
6.29101560902112311168821179308 1:-2.1192901 2:1.53114 3:1.4552701 4:-0.95238799 5:-0.144425 6:-0.978131 7:-2.2469201 8:-0.977238 9:1.16201 10:-0.660245 14:1 24:1 #
2.7402849245309446324370128422743 1:-1.67998 2:1.04861 3:0.92122799 4:-0.32194799 5:0.28439099 6:-1.18721 7:-1.91072 8:0.89428401 9:1.94591 10:-1.31423 14:1 24:1 #
-9.3130735171360718993582850089297 1:-1.83713 2:0.95925301 3:0.65420598 4:-0.50543398 5:-0.264494 6:-1.33407 7:-1.64923 8:1.09661 9:1.86752 10:-0.91776103 14:1 24:1 #
-2.9767381173449578568579454440624 1:-2.13358 2:-1.37298 3:-0.0133511 4:-0.067889899 5:-0.41886801 6:-0.60038501 7:-0.453866 8:-0.522003 9:0.169062 10:-1.1496 14:1 24:1 #
0.95541792544508608031605945143383 1:-2.2550199 2:1.20945 3:2.25634 4:0.25674 5:1.1248699 6:-0.99480498 7:-3.5543499 8:-0.370258 9:2.3117299 10:-0.64212102 14:1 24:1 #
2.31780909785143585111200081883 1:-2.6693299 2:1.37923 3:2.1228299 4:0.14853001 5:1.05626 6:-0.87936503 7:-3.2181499 8:-0.92665702 9:1.78913 10:-0.838467 14:1 24:1 #
0.66855345086200523851971411204431 1:-1.89785 2:1.25413 3:2.25634 4:0.0120913 5:1.89674 6:-1.01533 7:-3.4049301 8:-0.471421 9:2.1549499 10:-0.61191398 14:1 24:1 #
-2.3456723313607357184196189336944 1:-2.36217 2:-1.14958 3:3.1909201 4:-0.95238799 5:0.21578 6:-0.59461302 7:-1.31304 8:-4.5179601 9:-1.99974 10:-0.72594601 14:1 24:1 #
-1.6038732869448890649977101929835 1:-1.77284 2:1.28988 3:1.4552701 4:0.186168 5:2.34271 6:-1.38538 7:-2.65783 8:-0.16793101 9:1.8936501 10:-0.24565201 14:1 24:1 #
2.814455150538393013448512647301 1:-1.8835599 2:0.97712398 3:1.4552701 4:-0.75949198 5:0.0099485395 6:-0.59333003 7:-2.3963399 8:0.89428401 9:2.2072101 10:-1.01518 14:1 24:1 #
0.96090054747909303678454762120964 1:-2.2442999 2:-0.47940299 3:0.92122799 4:0.43081599 5:0.78181797 6:-1.23531 7:1.4139 8:-0.82549298 9:-1.76457 10:-0.87018502 14:1 17:1 #
1.9135106478716923383842640760122 1:-1.87999 2:-0.908319 3:0.65420598 4:-0.84417802 5:-0.092967398 6:-1.26609 7:0.59208101 8:-1.33131 9:-1.24196 10:-1.15564 14:1 24:1 #
-0.032726854305556975222035731576398 1:0.67733401 2:-1.09597 3:-0.54739702 4:-0.129052 5:-0.058662102 6:0.76116699 7:0.218528 8:-0.218513 9:-0.17062999 10:1.7737 11:1 43:1 #
-0.004616548134400626744733298068013 1:-0.63347399 2:-1.0781 3:-0.0133511 4:0.651941 5:0.61029202 6:-0.111047 7:0.218528 8:-0.72433001 9:-0.484191 10:0.227845 11:1 43:1 #
0.13037610968136081890378363823402 1:-2.8586299 2:1.37923 3:1.3217601 4:-1.0700099 5:-0.65900499 6:-0.690813 7:-2.47105 8:-0.42084 9:1.63235 10:-1.02877 14:1 24:1 #
-9.103642122240025003065966302529 1:-2.0871501 2:-0.908319 3:0.65420598 4:-0.251376 5:-0.213036 6:-0.90950799 7:0.55472499 8:-1.43247 9:-1.29423 10:-0.92908901 14:1 24:1 #
5.045764107620413163601824635407 1:-1.73355 2:1.1201 3:1.1882499 4:-0.36429101 5:0.21578 6:-1.18015 7:-2.32163 8:0.59079403 9:2.0504301 10:-1.29006 14:1 24:1 #
0.30884566024948262308313928770076 1:-1.2299401 2:1.18265 3:1.1882499 4:-0.13846201 5:0.86758101 6:-0.791502 7:-2.32163 8:0.38846701 9:1.9720401 10:-0.21317901 13:1 47:1 #
-0.65722140006675422441162481845822 1:-1.69784 2:-0.54195303 3:0.12016 4:-0.95238799 5:-0.59039497 6:-1.14552 7:1.15241 8:-0.370258 9:-1.16357 10:-1.2153 14:1 24:1 #
-1.727974920533750236018022405915 1:-1.90499 2:-0.48833901 3:0.253672 4:-1.12646 5:-0.76192099 6:-0.90630102 7:1.22712 8:-0.31967601 9:-1.1897 10:-1.03028 14:1 24:1 #
2.736780738122304601489531705738 1:-2.2514501 2:-0.91725498 3:0.65420598 4:-0.251376 5:0.35300201 6:-0.76969701 7:0.55472499 8:-1.3818901 9:-1.24196 10:-0.969868 14:1 24:1 #
0.84883016008708966904094950223225 1:-2.10144 2:-0.72066802 3:0.92122799 4:-0.68421501 5:0.061406501 6:-1.23531 7:1.0403399 8:-1.33131 9:-1.68618 10:-1.1496 14:1 24:1 #
2.1599136634228806030932901194319 1:-1.9192801 2:1.72773 3:-0.0133511 4:0.83072197 5:0.54168099 6:-0.92233402 7:-0.71535301 8:-0.42084 9:0.48262301 10:-0.43897799 14:1 24:1 #
-2.1053956739649573037809204834048 1:-1.52639 2:1.73666 3:-0.54739702 4:0.96245599 5:-0.024356799 6:-0.90950799 7:-0.37915599 8:0.034395501 9:0.430363 10:-0.53412998 14:1 24:1 #
-3.2560515658960311746739080263069 1:-2.3907399 2:-0.94406199 3:1.1882499 4:0.289673 5:0.62744403 6:-1.33279 7:0.40530401 8:-2.0394499 9:-1.60779 10:-0.325701 14:1 24:1 #
4.1260984480115467931682360358536 1:-1.8835599 2:0.932446 3:0.65420598 4:-0.703035 5:0.130017 6:-1.15321 7:-1.57452 8:1.19777 9:1.84139 10:-1.20095 14:1 24:1 #
6.7491026601241470572745129175019 1:-1.77284 2:0.87883103 3:1.05474 4:-0.32194799 5:0.0271012 6:-1.15321 7:-1.83601 8:1.24836 9:1.99817 10:-1.2424901 14:1 24:1 #
1.0774461529462282527447314350866 1:-2.05143 2:1.0218 3:1.7223001 4:-0.279605 5:0.55883402 6:-0.70556402 7:-2.7325399 8:0.69195801 9:2.3117299 10:-0.43746701 14:1 24:1 #
-1.8692777343182953586619987618178 1:-2.28002 2:1.01287 3:2.3898499 4:-0.41133901 5:1.15918 6:-1.29944 7:-3.3675799 8:0.43904901 9:2.5207701 10:-0.420854 14:1 24:1 #
1.6333530968545697525939885963453 1:-1.85142 2:-0.81002599 3:0.253672 4:-0.82065398 5:-0.12727299 6:-1.29944 7:0.816212 8:-0.87607503 9:-1.13744 10:-1.18056 14:1 24:1 #
8.6464212304437015887970119365491 1:-2.2764499 2:-0.970869 3:0.52069402 4:-0.32194799 5:0.28439099 6:-0.75045699 7:0.40530401 8:-1.23015 9:-1.00679 10:-0.99252403 14:1 24:1 #
3.4589307944290714758039939624723 1:-2.7836299 2:1.61156 3:0.78771698 4:-0.703035 5:-0.11012 6:-1.23915 7:-1.57452 8:-0.82549298 9:0.82231498 10:-1.18736 14:1 24:1 #
0.06532484827690855644366507704035 1:-3.7765601 2:-1.37298 3:0.92122799 4:-0.56189102 5:0.078559197 6:-1.43027 7:-1.01419 8:-1.48306 9:-0.0399791 10:-0.95174402 14:1 16:1 #
-0.24894890629760046962815067672636 1:0.79519999 2:-0.21133099 3:-0.413885 4:2.68911 5:1.6223 6:-0.87936503 7:0.96563298 8:0.54021198 9:-0.45806101 10:0.092667997 13:1 47:1 #
1.6932527234107386249206683714874 1:-2.9086399 2:-1.11384 3:0.65420598 4:-0.24196699 5:-0.00720412 6:-1.29238 7:-0.0056032902 8:-1.3818901 9:-0.74549299 10:-1.21908 14:1 24:1 #
2.929768978042918803339489386417 1:-1.67998 2:0.90563798 3:1.1882499 4:-0.067889899 5:0.47307 6:-1.13718 7:-1.9480799 8:1.14719 9:2.0243001 10:-1.24626 14:1 24:1 #
-2.4562135670534859244185099669266 1:-3.10865 2:0.94138098 3:1.85581 4:-0.67010099 5:0.33584899 6:-1.3840899 7:-2.6951799 8:0.89428401 9:2.3378601 10:-1.07408 14:1 24:1 #
-1.8472778664531914749602492520353 1:-2.4728899 2:1.60263 3:2.6568799 4:0.035615101 5:1.79383 6:-0.78893697 7:-3.2555101 8:-2.54527 9:0.848445 10:-0.60134101 14:1 24:1 #
2.6693612018402439467479325685417 1:-2.87292 2:1.4954 3:3.05741 4:-0.56189102 5:0.798971 6:-1.15257 7:-3.96526 8:-2.3935299 9:1.39718 10:-0.88000202 14:1 24:1 #
0.56895020595266565521797019755468 1:-1.9871401 2:-1.21213 3:2.25634 4:0.0120913 5:1.48508 6:-0.98197901 7:-1.08891 8:-3.2534101 9:-1.1897 10:-0.92153698 14:1 24:1 #
0.69615219959271323890703797587776 1:-1.90499 2:-1.31936 3:0.38718301 4:-0.00672783 5:-0.83053201 6:-1.00699 7:-0.52857703 8:-0.977238 9:-0.0399791 10:-0.682145 14:1 24:1 #
-10 1:-2.76934 2:-1.2657501 3:2.3898499 4:-0.105528 5:1.48508 6:-1.2212 7:-1.46246 8:-3.3545799 9:-0.98066401 10:-1.2591 14:1 24:1 #
-1.2908986293824207258751357585425 1:-3.2836599 2:1.44178 3:2.79039 4:-0.27019501 5:1.24494 6:-1.35716 7:-3.7784801 8:-1.83713 9:1.60622 10:-1.12392 14:1 24:1 #
2.4386582676726473728479049896123 1:-2.9622099 2:1.03967 3:1.5887901 4:-0.16669001 5:0.044253901 6:-1.2539001 7:-2.62047 8:0.69195801 9:2.25947 10:-0.89208502 14:1 24:1 #
2.5891193827451077780210653145332 1:-2.68362 2:1.6741101 3:2.25634 4:-0.129052 5:1.82813 6:-1.1179399 7:-2.65783 8:-2.3935299 9:0.53488398 10:-0.84677398 14:1 24:1 #
1.6698325372345199646417768235551 1:-2.6479001 2:1.54008 3:2.6568799 4:-0.19491901 5:1.87959 6:-1.10576 7:-3.47964 8:-2.1912 9:1.18814 10:-0.82865 14:1 24:1 #
-2.3215521290447660440747768006986 1:-2.3478799 2:1.66518 3:2.3898499 4:0.14853001 5:2.23979 6:-0.87230998 7:-2.6951799 8:-2.3935299 9:0.561014 10:-0.54394799 14:1 24:1 #
-1.739867877853096711504576887819 1:-2.23002 2:1.1201 3:1.7223001 4:-0.86770201 5:-0.29879901 6:-1.2622401 7:-2.80725 8:0.38846701 9:2.23334 10:-0.29473901 14:1 24:1 #
-2.6750588707300244628584096062696 1:-2.56933 2:1.69198 3:2.52336 4:-0.19491901 5:0.86758101 6:-0.82677603 7:-2.8446 8:-2.7476001 9:0.40423301 10:-1.0597301 14:1 24:1 #
3.8945442651281307888666560756974 1:-2.8657801 2:-1.27469 3:2.52336 4:-0.420748 5:1.51938 6:-1.30906 7:-1.57452 8:-3.45574 9:-1.00679 10:-1.35954 14:1 24:1 #
2.5861821777302398395192994939862 1:-2.99793 2:-1.23001 3:2.3898499 4:-0.16669001 5:1.60515 6:-1.3417701 7:-1.31304 8:-3.45574 9:-1.16357 10:-1.10807 14:1 24:1 #
3.0959524787911711918297896772856 1:-2.7550499 2:-1.28362 3:2.25634 4:0.035615101 5:1.63945 6:-1.12051 7:-1.46246 8:-3.05109 9:-0.79775298 10:-0.85734701 14:1 24:1 #
-4.2538355725062455547913486952893 1:-2.7550499 2:-1.2032 3:2.9238999 4:-0.00672783 5:1.10772 6:-1.29495 7:-1.46246 8:-4.1132998 9:-1.5294 10:-0.99629998 14:1 24:1 #
-10 1:-1.44425 2:-1.21213 3:1.1882499 4:-0.63716799 5:-0.40171501 6:-0.90501797 7:-0.56593198 8:-1.98887 9:-0.693232 10:-0.72594601 13:1 24:1 #
3.7673461830159888918956312409136 1:-2.5014601 2:1.72773 3:2.25634 4:-0.27019501 5:0.850429 6:-0.94798797 7:-2.3589799 8:-2.54527 9:0.24745201 10:-0.63305902 14:1 24:1 #
-0.18488304878151759491622385667142 1:1.22737 2:1.30775 3:0.78771698 4:-1.12646 5:-0.71046299 6:1.03438 7:-1.9480799 8:0.13555899 9:1.63235 10:-0.697249 11:1 52:1 #
3.9005169023666619310120040609036 1:-3.0014999 2:1.4596601 3:2.79039 4:-0.67010099 5:0.43876499 6:-1.20324 7:-3.7411301 8:-1.93829 9:1.52783 10:-0.94419199 14:1 24:1 #
-4.625765819321325800217437063111 1:-2.21573 2:1.73666 3:1.98932 4:-0.56189102 5:0.91903901 6:-0.64912599 7:-2.17221 8:-2.2923601 9:0.24745201 10:-0.67081797 14:1 24:1 #
-8.102055881228942268990067532286 1:-2.4836099 2:1.7456 3:1.85581 4:-0.279605 5:0.47307 6:-0.76777297 7:-1.9480799 8:-2.14062 9:0.221322 10:-1.2689199 14:1 24:1 #
-6.2257294164025100968729020678438 1:-2.37288 2:1.54008 3:2.6568799 4:-0.84417802 5:0.21578 6:-0.64976799 7:-3.4049301 8:-2.14062 9:1.18814 10:-0.81279099 14:1 24:1 #
2.7809993676977180498965935839806 1:-3.06936 2:-1.2568099 3:2.6568799 4:-0.251376 5:1.2964 6:-1.35716 7:-1.64923 8:-3.7592299 9:-1.16357 10:-1.12921 14:1 24:1 #
5.1013709020767183943689815350808 1:-1.5406801 2:-1.2032 3:1.3217601 4:-0.63716799 5:-0.64185202 6:-1.13718 7:-0.60328698 8:-2.14062 9:-0.79775298 10:-0.49259499 13:1 24:1 #
3.1380491774735106424998321017483 1:-2.7729101 2:1.2362601 3:1.3217601 4:-0.16669001 5:1.34786 6:-1.12628 7:-2.5457599 8:0.084977202 9:1.94591 10:-0.87320602 14:1 24:1 #
-1.9952922392766636594529927606345 1:-1.39424 2:-1.3461699 3:1.5887901 4:-0.37369999 5:-0.41886801 6:-1.21863 7:-1.2756799 8:-2.14062 9:-0.30127999 10:-0.30002499 13:1 24:1 #
1.5473097776295390293199716325034 1:-2.5657499 2:1.55795 3:2.1228299 4:-0.36429101 5:0.73035997 6:-0.96530402 7:-2.8819599 8:-1.78655 9:1.08362 10:-0.65571398 14:1 24:1 #
0.14926562657253086841002698292868 1:-2.8943501 2:1.53114 3:1.98932 4:-0.37369999 5:0.901887 6:-1.19169 7:-2.8446 8:-1.53364 9:1.21427 10:-0.96080601 14:1 24:1 #
-6.082487678614524995168721943628 1:-2.5657499 2:1.57582 3:1.4552701 4:0.063843802 5:1.69091 6:-0.71390098 7:-2.13485 8:-1.1795599 9:0.979096 10:-0.65495902 14:1 24:1 #
-1.6578035938264414905773946884437 1:-2.93364 2:-1.33724 3:0.65420598 4:-1.12646 5:-0.72761601 6:-0.88321298 7:-0.67799801 8:-1.12898 9:-0.0399791 10:-1.01744 14:1 28:1 #
2.0562094548769942470300975401187 1:-2.6371901 2:1.79921 3:1.85581 4:-0.63716799 5:0.33584899 6:-0.548437 7:-1.72394 8:-2.2923601 9:-0.0399791 10:-1.21153 14:1 24:1 #
3.7056624552800645489014641498215 1:-2.5871799 2:1.7456 3:1.7223001 4:-0.63716799 5:0.26723799 6:-0.50674999 7:-1.91072 8:-2.09004 9:0.221322 10:-1.2372 14:1 24:1 #
1.0889738992820068297362468001666 1:-1.47282 2:-1.23001 3:0.92122799 4:-0.703035 5:-0.19588301 6:-0.73314101 7:-0.49122199 8:-1.5842201 9:-0.51032102 10:-0.925313 13:1 24:1 #
0.83050024391765320253000481898198 1:-2.2335899 2:1.18265 3:1.98932 4:0.34142601 5:1.22779 6:-0.98390299 7:-3.2181499 8:-0.066767797 9:2.2855999 10:-0.64665198 14:1 24:1 #
-6.7254852831909701649237831588835 1:-1.30138 2:-1.31936 3:0.38718301 4:-0.75949198 5:-0.29879901 6:-0.47275901 7:-0.52857703 8:-0.977238 9:-0.0399791 10:-0.51222998 13:1 24:1 #
-0.10744473601725963718411804848074 1:-0.73348099 2:-1.19426 3:0.65420598 4:-0.84417802 5:-0.57324201 6:-0.531762 7:-0.26708999 8:-1.33131 9:-0.51032102 10:-0.45332599 13:1 24:1 #
4.1798275531090283152479969430715 1:-2.4514599 2:1.45072 3:1.5887901 4:0.0120913 5:1.53654 6:-0.791502 7:-2.5084 8:-0.77491099 9:1.44944 10:-0.85130501 14:1 24:1 #
0.63122106128952926162867242965149 1:-2.6800499 2:-1.0781 3:1.3217601 4:0.308492 5:1.9310499 6:-1.2507 7:-0.117669 8:-2.2923601 9:-1.29423 10:-1.28629 14:1 16:1 #
0.33317732155340973321244746330194 1:-1.9871401 2:1.53114 3:1.3217601 4:0.426112 5:2.0339601 6:-0.95311803 7:-2.17221 8:-0.92665702 9:1.13588 10:-0.68365598 14:1 24:1 #
-1.6945210853013934482191871211398 1:-2.12644 2:1.30775 3:1.1882499 4:0.73662698 5:1.31355 6:-1.2135 7:-2.3589799 8:-0.066767797 9:1.78913 10:-0.113496 14:1 24:1 #
-0.17886760986100613823879257324734 1:1.14165 2:0.97712398 3:-0.68090802 4:-1.12646 5:-0.69331002 6:2.3478301 7:-0.52857703 8:1.04603 9:1.10975 10:-1.15036 11:1 52:1 #
0.8173808465873503292797863650776 1:-2.6871901 2:-1.28362 3:-0.0133511 4:-1.12646 5:-0.79622602 6:-0.606157 7:-0.26708999 8:-0.67374802 9:-0.066109203 10:-1.07786 14:1 28:1 #
-0.26054072215773360632340427400777 1:0.55946898 2:-0.54195303 3:0.52069402 4:0.75544602 5:0.98764998 6:0.46423 7:1.26448 8:-0.67374802 9:-1.4771399 10:-0.87698102 13:1 47:1 #
-7.7861833696527611436977167613804 1:-1.46925 2:-1.23001 3:1.85581 4:-0.67010099 5:0.42161199 6:-0.89988798 7:-0.939484 8:-2.6970201 9:-0.92840302 10:-0.43369201 13:1 24:1 #
-6.8856828374061835873476411506999 1:-1.61926 2:-1.24788 3:1.5887901 4:-0.13846201 5:0.59313899 6:-0.548437 7:-0.86477399 8:-2.2923601 9:-0.693232 10:-1.15564 13:1 24:1 #
-3.2234244634726976208582982508233 1:-1.29424 2:-1.31043 3:1.98932 4:-0.420748 5:-0.00720412 6:-0.499695 7:-1.4251 8:-2.7476001 9:-0.58871198 10:-0.35439801 13:1 24:1 #
3.9384049731636419089397804782493 1:-2.39431 2:1.51327 3:2.52336 4:-0.75949198 5:0.55883402 6:-0.92233402 7:-3.4422901 8:-2.0394499 9:1.29266 10:-1.02877 14:1 24:1 #
1.3654133791381650731011632160516 1:-1.91571 2:1.56688 3:2.1228299 4:-0.467796 5:0.55883402 6:-1.0319999 7:-2.8819599 8:-1.83713 9:1.05749 10:-0.641366 14:1 24:1 #
2.5154102585251290058465656329645 1:-2.5764699 2:1.47753 3:2.25634 4:0.14382499 5:0.93619198 6:-0.849222 7:-3.14344 8:-1.48306 9:1.44944 10:-0.83695698 14:1 24:1 #
5.0365378428100919805388002714608 1:-1.7121201 2:-1.1763901 3:1.7223001 4:-0.50543398 5:0.47307 6:-0.87230998 7:-0.640643 8:-2.59585 9:-1.08518 10:-0.64665198 13:1 24:1 #
2.65899486587747446719731669873 1:-1.3871 2:-1.21213 3:1.3217601 4:-0.420748 5:0.42161199 6:-0.371429 7:-0.640643 8:-2.1912 9:-0.79775298 10:-0.79542202 13:1 24:1 #
-4.2407751418500154727553308475763 1:-1.54425 2:-1.12278 3:1.7223001 4:-0.37369999 5:-0.00720412 6:-0.54074103 7:-0.453866 8:-2.64643 9:-1.29423 10:-1.14885 13:1 24:1 #
-4.0381289457047522262200800469145 1:-1.18708 2:-1.38191 3:1.1882499 4:-0.56189102 5:0.095711797 6:-0.40541899 7:-1.2009701 8:-1.68538 9:-0.013849 10:-0.45559201 13:1 24:1 #
0.80850673020583641026348686864367 1:-2.7086201 2:1.57582 3:1.7223001 4:-0.13846201 5:0.57598603 6:-1.11217 7:-2.4336901 8:-1.43247 9:1.0052299 10:-1.37313 14:1 24:1 #
-0.074942974699257591808532197319437 1:-0.19772799 2:-0.970869 3:1.3217601 4:-0.467796 5:-0.161578 6:-0.44838899 7:0.293239 8:-2.09004 9:-1.5294 10:0.55332702 13:1 38:1 #
2.7751151370024125242252921452746 1:-1.77641 2:-1.29256 3:1.85581 4:-0.27019501 5:0.73035997 6:-0.99416399 7:-1.31304 8:-2.6970201 9:-0.64097202 10:-0.87698102 13:1 24:1 #
-4.9239629429483837697034687153064 1:-1.6085401 2:-1.10491 3:2.1228299 4:-0.82065398 5:-0.058662102 6:-1.13718 7:-0.56593198 8:-3.2534101 9:-1.63392 10:-0.531865 13:1 24:1 #
0.83222938601274665249007966849604 1:-2.2514501 2:1.64731 3:1.05474 4:-0.95238799 5:-0.45317301 6:-0.71646601 7:-1.6118799 8:-1.02782 9:0.71779501 10:-1.3127199 14:1 24:1 #
0.71344263866748702795916869945358 1:-2.0371499 2:-0.390046 3:1.1882499 4:-1.12646 5:-1.19074 6:-1.15899 7:1.48861 8:-0.72433001 9:-1.84296 10:-1.0786099 13:1 24:1 #
1.4952474057408400298641026893165 1:-2.9693501 2:1.47753 3:1.3217601 4:-0.68421501 5:-0.264494 6:-0.89155 7:-2.2095599 8:-0.72433001 9:1.31879 10:-0.91776103 14:1 24:1 #
-5.2548403362268745198093711223919 1:-2.3585999 2:1.79028 3:0.92122799 4:-0.95238799 5:-0.67615801 6:-0.67349702 7:-1.12626 8:-1.28073 9:0.19519199 10:-0.78560501 14:1 24:1 #
-3.9763760499942550907803706650157 1:-2.4514599 2:1.78134 3:0.92122799 4:-0.95238799 5:-0.57324201 6:-1.26609 7:-1.12626 8:-1.23015 9:0.221322 10:-1.15564 14:1 24:1 #
1.6335597202324823040697765463847 1:-1.69426 2:-1.0870301 3:1.1882499 4:-0.420748 5:-0.161578 6:-0.83383 7:-0.117669 8:-2.0394499 9:-1.13744 10:-0.75011098 13:1 24:1 #
0.038210428081327400817723827231021 1:-1.2299401 2:-1.24788 3:1.05474 4:-0.27019501 5:0.35300201 6:-1.26096 7:-0.640643 8:-1.83713 9:-0.536452 10:-0.48126799 13:1 24:1 #
-7.0648390142287933457510007428937 1:-2.0264299 2:-0.96193397 3:1.05474 4:-0.56189102 5:-0.024356799 6:-1.15321 7:0.40530401 8:-1.83713 9:-1.42488 10:-1.02424 13:1 24:1 #
-6.2363832209521889993197873991448 1:-1.07279 2:-1.1763901 3:0.78771698 4:-0.13846201 5:0.81612301 6:-0.350265 7:-0.26708999 8:-1.53364 9:-0.64097202 10:-0.38460499 13:1 24:1 #
0.81775429251182907286477075103903 1:-2.24787 2:1.63837 3:0.65420598 4:0.14382499 5:-0.384563 6:-0.81458998 7:-1.4251 8:-0.77491099 9:0.74392498 10:-0.47522601 14:1 24:1 #
0.65421145103454292346611964603653 1:-2.06215 2:1.70986 3:1.05474 4:-0.75949198 5:-0.315952 6:-1.03842 7:-1.4251 8:-1.23015 9:0.45649299 10:-0.597565 14:1 24:1 #
3.6855078360487727451300088432617 1:-1.9299901 2:1.7456 3:1.4552701 4:-0.37369999 5:0.76466602 6:-0.97364098 7:-1.64923 8:-1.68538 9:0.29971299 10:-0.707066 14:1 24:1 #
-3.9293748578493379319809264416108 1:-1.73712 2:1.81709 3:1.3217601 4:0.14382499 5:1.10772 6:-1.04162 7:-1.31304 8:-1.78655 9:-0.013849 10:-0.55149901 14:1 24:1 #
-0.06498058656831984247759237405262 1:0.84520298 2:-0.836833 3:0.65420598 4:-0.95238799 5:-0.45317301 6:-0.611929 7:0.74150199 8:-1.3818901 9:-1.3987499 10:-0.50618899 11:1 43:1 #
3.336024637067278586499696757528 1:-0.87277699 2:-1.09597 3:0.65420598 4:0.035615101 5:0.38730699 6:-0.13798299 7:0.031752001 8:-1.3818901 9:-0.79775298 10:0.227845 13:1 24:1 #
1.4506475848614170942596501845401 1:-2.2978799 2:1.79028 3:1.05474 4:0.25674 5:1.43362 6:-0.92554098 7:-1.2756799 8:-1.48306 9:0.169062 10:-0.58246201 14:1 24:1 #
0.056385303417250481894384961378819 1:-2.84077 2:-0.95299798 3:3.05741 4:-0.63716799 5:0.98764998 6:-1.23979 7:-0.19238 8:-4.41679 9:-2.86203 10:-1.30215 14:1 24:1 #
-0.12212053148830064042140719493545 1:0.263019 2:1.25413 3:0.12016 4:-0.86770201 5:-0.45317301 6:0.53605902 7:-1.31304 8:0.54021198 9:1.44944 10:-1.18736 11:1 43:1 #
-3.386489212889224109659380701487 1:-1.41924 2:-1.1317101 3:0.12016 4:0.45434001 5:1.24494 6:-0.84537399 7:0.031752001 8:-0.87607503 9:-0.45806101 10:-0.67685902 13:1 24:1 #
-0.35991022845025355536563438363373 1:-0.21915901 2:-1.00661 3:0.253672 4:0.57195997 5:0.91903901 6:0.33724499 7:0.330594 8:-1.02782 9:-0.79775298 10:-1.31876 13:1 24:1 #
-0.25766992413092681957209606480319 1:1.14165 2:0.137164 3:-0.94793099 4:3.5500801 5:1.99966 6:-0.077056304 7:0.51736999 8:1.04603 9:0.221322 10:0.233886 13:1 45:1 #
0.089474963509499350067244449746795 1:-3.0515001 2:-1.24788 3:1.5887901 4:0.0026817201 5:0.0099485395 6:-0.99608803 7:-0.939484 8:-2.4441099 9:-0.74549299 10:-0.81279099 14:1 24:1 #
-0.035713994422863569455639520811019 1:0.31302199 2:1.53114 3:-0.413885 4:1.24474 5:-0.35025701 6:1.02027 7:-0.71535301 8:0.23672201 9:0.82231498 10:1.84846 11:1 43:1 #
-0.12621961342019452634310994199041 1:-0.6049 2:-0.631311 3:2.1228299 4:-0.105528 5:1.45077 6:-1.33407 7:1.26448 8:-2.3935299 9:-2.7575099 10:-0.081778303 11:1 44:1 #
1.1863509303909858250136721835588 1:-1.83356 2:-0.80109 3:0.92122799 4:-0.129052 5:0.044253901 6:-1.13397 7:0.853567 8:-1.5842201 9:-1.68618 10:-0.710087 13:1 24:1 #
-2.2360611294671528526123438496143 1:-2.01214 2:1.68305 3:1.4552701 4:-0.50543398 5:0.59313899 6:-1.34369 7:-1.8733701 8:-1.53364 9:0.561014 10:-1.37313 14:1 24:1 #
-10 1:-1.59069 2:-0.85470498 3:0.78771698 4:-1.12646 5:-0.64185202 6:-1.01982 7:0.70414603 8:-1.48306 9:-1.45101 10:-0.477492 13:1 24:1 #
-10 1:-1.40139 2:-0.95299798 3:0.38718301 4:-0.82065398 5:-0.384563 6:-0.51829398 7:0.48001501 8:-1.1795599 9:-1.03292 10:-0.47598201 13:1 24:1 #
-1.9467141158657259580877507687546 1:-1.3621 2:-0.91725498 3:0.38718301 4:0.52961701 5:-0.55608898 6:-0.81010097 7:0.55472499 8:-1.0784 9:-1.03292 10:-0.59303403 13:1 24:1 #
3.6699241265389463961810179171152 1:-2.0585799 2:-1.3283 3:1.05474 4:-0.86770201 5:-0.41886801 6:-1.04483 7:-0.90212899 8:-1.5842201 9:-0.19676 10:-0.60134101 14:1 24:1 #
0.85769229612759045888736864071689 1:-2.05143 2:-1.33724 3:1.1882499 4:-0.95238799 5:-0.487479 6:-1.04996 7:-1.05155 8:-1.83713 9:-0.22289 10:-0.60436201 14:1 24:1 #
1.4559603571781634112625170018873 1:-2.08358 2:-1.35511 3:1.05474 4:-0.251376 5:-0.50463098 6:-0.73763001 7:-1.01419 8:-1.5842201 9:-0.092239402 10:-1.33084 14:1 24:1 #
-10 1:-2.00857 2:1.272 3:-0.413885 4:-1.12646 5:-0.71046299 6:-0.81458998 7:-0.90212899 8:0.64137602 9:1.18814 10:-0.710087 14:1 24:1 #
4.2987240565778108702943427488208 1:-1.58354 2:-0.92619097 3:0.52069402 4:-1.12646 5:-0.69331002 6:-0.69786799 7:0.51736999 8:-1.33131 9:-1.16357 10:-0.35590801 13:1 24:1 #
0.29745981360378881408479401216027 1:-1.3371 2:-0.67598999 3:0.253672 4:-0.68421501 5:-1.01921 6:-0.25855401 7:1.00299 8:-0.67374802 9:-1.1897 10:0.00053617702 13:1 25:1 #
1.354068406228359444654074650316 1:-1.28352 2:-0.88151199 3:0.65420598 4:-1.26761 5:-0.79622602 6:-1.03842 7:0.62943602 8:-1.33131 9:-1.29423 10:-0.489575 13:1 24:1 #
-10 1:-1.98 2:-0.77428299 3:0.253672 4:-1.12646 5:-0.76192099 6:-1.15257 7:0.853567 8:-0.82549298 9:-1.13744 10:-1.05067 13:1 24:1 #
-3.3567885295386599153744100476615 1:-1.25852 2:-0.96193397 3:0.92122799 4:-1.12646 5:-0.62470001 6:-0.67926902 7:0.40530401 8:-1.68538 9:-1.29423 10:-0.80221897 13:1 47:1 #
1.583901868310883420676304922381 1:-2.2978799 2:1.33455 3:-0.146862 4:-1.12646 5:-0.71046299 6:-0.74596798 7:-1.05155 8:0.489631 9:1.21427 10:-0.43142599 14:1 24:1 #
0.45413594583252642200577042785881 1:-3.2158 2:1.29881 3:-0.146862 4:-0.37369999 5:0.25008601 6:-1.23402 7:-1.05155 8:0.54021198 9:1.2404 10:-1.02877 14:1 24:1 #
-0.15181836307486148984757790003641 1:0.60947198 2:1.0218 3:0.253672 4:2.20452 5:1.31355 6:2.4523599 7:-1.31304 8:1.04603 9:1.63235 10:-0.39895299 11:1 44:1 #
2.0264548506336348410172831790987 1:-1.31924 2:-1.05129 3:0.38718301 4:-0.13846201 5:-0.98490602 6:-0.51701099 7:0.218528 8:-1.0784 9:-0.74549299 10:-0.67081797 13:1 24:1 #
0.81127646602844261103371081844671 1:-1.98357 2:-0.86364001 3:0.38718301 4:-0.98532099 5:-0.62470001 6:-0.99095702 7:0.66679102 8:-1.02782 9:-1.08518 10:-0.66855198 13:1 24:1 #
-3.0589596636589195810529417940415 1:-1.64069 2:-0.61343902 3:0.78771698 4:-1.12646 5:-0.86483699 6:-1.0583 7:1.18976 8:-0.977238 9:-1.63392 10:-0.81430203 13:1 25:1 #
2.3635715990397763164310163119808 1:-1.93714 2:0.91457403 3:-0.68090802 4:-1.12646 5:-0.69331002 6:-0.64976799 7:-0.52857703 8:1.14719 9:1.13588 10:-0.94268203 14:1 24:1 #
2.4535622001357668686694069037912 1:-2.3336 2:1.05755 3:-0.413885 4:-1.26761 5:-0.79622602 6:-0.68055201 7:-0.82741898 8:0.99544799 9:1.29266 10:-0.489575 14:1 24:1 #
2.7598449679419005953207033599028 1:-0.93349499 2:-1.01555 3:1.05474 4:-0.95238799 5:-0.144425 6:-0.66066998 7:0.218528 8:-1.83713 9:-1.2681 10:-1.01744 13:1 47:1 #
7.0811195626945080405789667565841 1:-2.05143 2:-0.81002599 3:0.52069402 4:-1.0700099 5:-0.72761601 6:-1.08459 7:0.816212 8:-1.12898 9:-1.3203599 10:-1.00914 13:1 24:1 #
-3.0235386865069311390641360048903 1:-0.61204398 2:-0.99767703 3:1.5887901 4:-0.56189102 5:-0.024356799 6:-0.67093199 7:0.14381801 8:-2.4441099 9:-1.63392 10:-0.672328 13:1 47:1 #
-1.0849735111354392724791750879376 1:-2.42646 2:0.548208 3:-0.54739702 4:-0.703035 5:-0.487479 6:-1.34369 7:-0.117669 8:1.34952 9:0.87457502 10:-1.2424901 14:1 24:1 #
-0.61106384394954238459263251570519 1:-0.451318 2:-0.80109 3:0.52069402 4:-0.50543398 5:0.47307 6:-0.53625101 7:0.816212 8:-1.1795599 9:-1.37262 10:-0.41858801 13:1 47:1 #
2.5264939414447500354299336322583 1:-1.44067 2:-0.84576899 3:0.78771698 4:-0.95238799 5:-0.45317301 6:-1.31419 7:0.74150199 8:-1.53364 9:-1.50327 10:-0.27963501 13:1 24:1 #
1.6498779636771092604874411335913 1:-1.7014101 2:-0.836833 3:0.92122799 4:-0.86770201 5:-0.19588301 6:-0.76969701 7:0.77885699 8:-1.5842201 9:-1.58166 10:-0.85734701 13:1 24:1 #
-0.068095855122626475219860253673687 1:0.59875703 2:0.083549298 3:-0.413885 4:-0.420748 5:-0.89914203 6:-0.159788 7:0.66679102 8:1.04603 9:0.038411301 10:-1.0197099 11:1 37:1 #
-1.5609059688612718641564924837439 1:-0.73348099 2:-0.57769603 3:1.05474 4:-1.26761 5:-0.79622602 6:-0.31755701 7:1.33919 8:-1.28073 9:-1.94748 10:-0.38536 13:1 24:1 #
1.038248398981526987583379195712 1:-1.70855 2:-0.559825 3:0.253672 4:-1.12646 5:-1.0878201 6:-1.08523 7:1.18976 8:-0.522003 9:-1.2681 10:-0.85583597 13:1 25:1 #
1.6701163620886774197060731239617 1:-1.43353 2:-0.64024699 3:0.52069402 4:-0.95238799 5:-0.69331002 6:-0.52983803 7:1.15241 8:-0.92665702 9:-1.4771399 10:-1.01744 13:1 25:1 #
0.81693016173012311664791695875465 1:-1.47639 2:-0.72066802 3:0.52069402 4:-1.0700099 5:-0.65900499 6:-0.58371001 7:1.00299 8:-1.02782 9:-1.42488 10:-0.99856502 13:1 25:1 #
-0.67417978640249431876441121858079 1:-1.15851 2:-0.461532 3:0.52069402 4:-0.067889899 5:-0.230189 6:-0.37399399 7:1.3018301 8:-0.42084 9:-1.3987499 10:-1.08692 13:1 25:1 #
-0.86933483994988369758516455476638 1:-1.15851 2:-0.24707399 3:0.253672 4:-0.82065398 5:-0.60754699 6:-0.30601299 7:1.18976 8:0.28730401 9:-0.87614298 10:-0.94721299 13:1 25:1 #
-1.5866836625083027279003999865381 1:-1.30495 2:-0.80109 3:0.78771698 4:-0.44427201 5:0.044253901 6:0.210261 7:0.853567 8:-1.3818901 9:-1.50327 10:-0.93513 13:1 25:1 #
3.2413420157892662842868958250619 1:-1.35495 2:-0.86364001 3:0.92122799 4:-1.26761 5:-0.79622602 6:-1.04996 7:0.70414603 8:-1.6348 9:-1.5294 10:-0.46238801 13:1 24:1 #
2.493257046887386252365104155615 1:-2.25859 2:-0.57769603 3:-0.146862 4:-1.12646 5:-1.03636 6:-1.4110301 7:1.0403399 8:-0.218513 9:-0.902273 10:-1.35954 13:1 24:1 #
0.63753839198024897516603459735052 1:-3.33724 2:1.44178 3:2.6568799 4:0.477864 5:2.11973 6:-1.28789 7:-3.66642 8:-1.68538 9:1.63235 10:-0.75011098 14:1 19:1 #
-1.4592309638322482623351561414893 1:-3.0729301 2:1.01287 3:1.05474 4:-0.84417802 5:-0.19588301 6:-1.1763 7:-1.98543 8:0.944866 9:1.99817 10:-0.89737099 14:1 20:1 #
-0.2819545503374205064339719228883 1:-0.369169 2:-0.84576899 3:0.92122799 4:-1.0700099 5:-0.74476802 6:-1.09165 7:0.74150199 8:-1.68538 9:-1.60779 10:-1.34368 13:1 47:1 #
-0.80521198810692684588730116956867 1:-2.7943399 2:-1.1763901 3:0.253672 4:-1.26761 5:-0.79622602 6:-0.470835 7:-0.117669 8:-1.02782 9:-0.405801 10:-1.3822 14:1 17:1 #
0.41220902947558013540430010834825 1:-1.8157001 2:-0.88151199 3:-0.81441897 4:-0.63716799 5:-0.67615801 6:-1.35331 7:0.51736999 8:-0.016186099 9:-0.30127999 10:-0.62399697 14:1 25:1 #
-1.9955779268073119414594884801772 1:-1.15137 2:-1.05129 3:0.253672 4:0.37906399 5:-0.95060003 6:-0.43556201 7:0.218528 8:-0.977238 9:-0.66710198 10:-0.20260701 13:1 24:1 #
-5.0052976609318653444802293961402 1:-1.02279 2:-0.92619097 3:-0.146862 4:-0.279605 5:-0.86483699 6:-0.32140499 7:0.55472499 8:-0.57258499 9:-0.66710198 10:-0.340049 13:1 24:1 #
-6.5998310399269222159546188777313 1:-0.89063501 2:-0.96193397 3:0.12016 4:0.063843802 5:-0.84768403 6:-0.978131 7:0.44266 8:-0.87607503 9:-0.77162302 10:-1.31876 13:1 24:1 #
0.13208612575348349649217993828643 1:-1.04422 2:1.7634701 3:0.38718301 4:-1.12646 5:-0.64185202 6:-0.173898 7:-0.90212899 8:-0.82549298 9:0.32584301 10:0.42494699 13:1 24:1 #
0.3698343893738502696777459277655 1:-1.80856 2:-0.69386101 3:1.4552701 4:-1.26761 5:-0.79622602 6:-0.76648998 7:1.11505 8:-1.83713 9:-2.1303899 10:-0.713108 13:1 24:1 #
0.01589467423467428447425575654961 1:-2.0157199 2:-0.61343902 3:0.65420598 4:-0.98532099 5:-0.81337899 6:-1.09934 7:1.18976 8:-0.92665702 9:-1.58166 10:-0.710087 13:1 24:1 #
-0.89161376338315179168603208381683 1:-2.1300099 2:-1.28362 3:1.5887901 4:0.204987 5:2.80583 6:-0.770338 7:-1.01419 8:-2.2923601 9:-0.56258202 10:-0.55527502 14:1 24:1 #
-0.67822366875123707430361719161738 1:0.170155 2:-0.95299798 3:1.05474 4:0.94363701 5:2.58285 6:-0.86974502 7:0.40530401 8:-1.88771 9:-1.45101 10:-0.77050102 13:1 47:1 #
4.2066196216407440999773825751618 1:-0.84777498 2:-0.92619097 3:-0.146862 4:0.308492 5:-0.88199002 6:-1.01276 7:0.55472499 8:-0.57258499 9:-0.66710198 10:-1.26439 13:1 24:1 #
2.4615255400408209141005499986932 1:-0.894207 2:-0.81896198 3:-0.0133511 4:0.38376901 5:-1.03636 6:-1.02495 7:0.74150199 8:-0.67374802 9:-0.92840302 10:-1.3089401 13:1 24:1 #
2.2716030626860339580730396846775 1:-1.75498 2:1.0218 3:0.12016 4:-0.82065398 5:-0.50463098 6:-1.01661 7:-1.2009701 8:1.04603 9:1.58009 10:-0.63607901 14:1 24:1 #
-0.787961486379335940277712779789 1:-0.93706697 2:-1.05129 3:-0.146862 4:0.69898802 5:0.43876499 6:-1.2141401 7:0.25588301 8:-0.67374802 9:-0.51032102 10:-1.35199 13:1 24:1 #
1.2271045575867691734828213157016 1:-1.17994 2:-0.872576 3:0.253672 4:-0.82065398 5:-0.45317301 6:-0.106558 7:0.66679102 8:-1.02782 9:-1.08518 10:0.139489 13:1 24:1 #
0.10917190217454088296822334314129 1:-1.16208 2:-0.75641102 3:0.65420598 4:-0.86770201 5:-0.36741 6:-0.11746 7:0.92827803 8:-1.12898 9:-1.42488 10:0.115323 13:1 24:1 #
-0.10113894674355766722939620194666 1:0.30230701 2:-0.65811801 3:-0.28037399 4:1.16006 5:-0.17873099 6:2.7448101 7:0.92827803 8:-0.218513 9:-0.823883 10:0.583534 11:1 43:1 #
-5.4321645048536328914678961155005 1:-1.49782 2:-0.60450399 3:-0.0133511 4:-0.75949198 5:-0.281647 6:-0.51572901 7:1.0403399 8:-0.370258 9:-1.03292 10:-0.25849 13:1 24:1 #
-0.37802969917222267737244578711397 1:-0.90135002 2:-0.354303 3:0.65420598 4:-0.41133901 5:0.47307 6:-0.022542899 7:1.3765399 8:-0.269095 9:-1.3987499 10:0.303363 13:1 24:1 #
-4.2190028269416703921024236478843 1:-0.99064201 2:-0.32749501 3:0.65420598 4:0.035615101 5:0.0271012 6:0.033894502 7:1.3765399 8:-0.16793101 9:-1.34649 10:0.23615199 13:1 24:1 #
2.8108186443732718906574064021697 1:-1.8407 2:-1.05129 3:2.25634 4:-0.63716799 5:-0.058662102 6:-0.78893697 7:-0.34180099 8:-3.3545799 9:-1.89522 10:-0.77276701 13:1 24:1 #
1.1567426690038973280394429821172 1:-0.75491101 2:-0.99767703 3:1.5887901 4:-0.50543398 5:0.49022299 6:-0.71838999 7:0.14381801 8:-2.4946899 9:-1.66005 10:-1.07786 13:1 47:1 #
1.6563150498661785015031000511954 1:-0.97278398 2:-1.02448 3:1.85581 4:-0.67010099 5:0.42161199 6:-0.73185802 7:-0.080313802 8:-2.8993399 9:-1.7907 10:-0.90718901 13:1 47:1 #
-1.6090045947816544735786692399415 1:-1.26209 2:-0.99767703 3:2.25634 4:-0.41133901 5:0.55883402 6:-1.04547 7:-0.080313802 8:-3.40516 9:-2.1565199 10:-0.90265697 13:1 47:1 #
-10 1:-1.7907 2:-0.89044797 3:2.1228299 4:-0.67010099 5:0.14717001 6:-1.08716 7:0.40530401 8:-3.10167 9:-2.39169 10:-0.97213399 13:1 24:1 #
-0.18733215515137485729368904685543 1:-0.394171 2:-0.99767703 3:1.85581 4:-0.129052 5:-0.17873099 6:-0.80817699 7:0.031752001 8:-2.9499199 9:-1.92135 10:-1.01518 13:1 47:1 #
1.7109432942569782198916072957218 1:-1.72284 2:-0.64918202 3:-0.0133511 4:-1.0700099 5:-0.67615801 6:-0.49905401 7:1.00299 8:-0.471421 9:-1.05905 10:-1.02877 13:1 24:1 #
1.2911820302830938622662415582454 1:-1.51925 2:-0.81002599 3:0.12016 4:-0.251376 5:-0.53893697 6:-1.18849 7:0.77885699 8:-0.82549298 9:-1.05905 10:-0.53110999 13:1 24:1 #
0.55734076537132803963459082297049 1:-1.98357 2:-0.86364001 3:0.12016 4:-1.0700099 5:-0.74476802 6:-0.74083698 7:0.66679102 8:-0.77491099 9:-0.92840302 10:-0.80675 13:1 24:1 #
-3.1794838287490425621228951058583 1:-0.994214 2:-0.51514602 3:0.253672 4:-0.86770201 5:-0.59039497 6:0.0512105 7:1.22712 8:-0.42084 9:-1.2681 10:-0.97893101 13:1 24:1 #
-7.6322649123339303400825883727521 1:-1.66212 2:-0.461532 3:-0.0133511 4:-1.26761 5:-0.79622602 6:-0.813308 7:1.15241 8:-0.11735 9:-0.98066401 10:-1.04237 13:1 18:1 #
8.1772186552892218713850525091402 1:-1.83713 2:-0.85470498 3:2.25634 4:-0.63716799 5:0.30154401 6:-1.0583 7:0.55472499 8:-3.2028301 9:-2.5746 10:-0.96458203 13:1 24:1 #
5.6354491649588425161709892563522 1:-0.99778599 2:-0.425789 3:0.38718301 4:-0.27019501 5:-0.213036 6:-0.0526856 7:1.3018301 8:-0.269095 9:-1.24196 10:0.13646799 13:1 24:1 #
2.0158360360974869607275650196243 1:-1.8264199 2:-0.86364001 3:1.85581 4:-0.547777 5:0.130017 6:-0.97877198 7:0.59208101 8:-2.64643 9:-2.2087801 10:-0.73123199 13:1 24:1 #
7.244262075985476556638786860276 1:-1.52282 2:-0.38111001 3:0.12016 4:-0.95238799 5:-0.74476802 6:-0.73185802 7:1.22712 8:-0.016186099 9:-1.00679 10:-0.50618899 13:1 18:1 #
2.8397453478415028982340118091088 1:-1.8728499 2:-0.32749501 3:0.253672 4:-1.12646 5:-0.93344802 6:-1.14808 7:1.22712 8:0.084977202 9:-1.00679 10:-1.02877 13:1 18:1 #
2.2574875850811939592688304401236 1:-1.52997 2:-0.595568 3:0.12016 4:-1.12646 5:-0.83053201 6:-0.62154901 7:1.11505 8:-0.471421 9:-1.16357 10:-0.96533698 13:1 24:1 #
-5.6079800356177580411554117745254 1:-1.6656899 2:-0.390046 3:-0.413885 4:-0.98532099 5:-1.07067 6:-0.74404401 7:1.00299 8:0.23672201 9:-0.64097202 10:-0.32796699 13:1 18:1 #
-3.0906608404668607370524568977999 1:-1.25852 2:-0.47940299 3:-0.146862 4:-0.13846201 5:-0.67615801 6:-1.19683 7:1.11505 8:-0.066767797 9:-0.92840302 10:-0.61191398 13:1 18:1 #
-2.1346482234334875904835371329682 1:-1.4585299 2:-0.14878 3:0.78771698 4:-0.703035 5:-0.29879901 6:-0.781241 7:1.26448 8:0.28730401 9:-1.05905 10:-0.161072 13:1 18:1 #
0.51978650468191867073386447373196 1:-1.94785 2:1.1469001 3:1.4552701 4:0.035615101 5:0.62744403 6:-0.50674999 7:-2.5831201 8:0.38846701 9:2.1288199 10:-1.13752 14:1 24:1 #
3.3802109087402358866825125005562 1:-1.7907 2:-1.23001 3:1.85581 4:-0.68421501 5:0.095711797 6:-0.85820103 7:-1.01419 8:-2.7981801 9:-0.95453399 10:-0.64665198 13:1 24:1 #
1.4153989767655870135598661363474 1:-1.0799299 2:-1.31043 3:1.7223001 4:-0.467796 5:0.112864 6:-0.38104901 7:-1.2009701 8:-2.3935299 9:-0.51032102 10:0.548796 13:1 24:1 #
2.3211655190865569942104684741935 1:-1.75498 2:-0.470467 3:-0.68090802 4:-1.26761 5:-0.79622602 6:-0.53561002 7:0.89092302 8:0.23672201 9:-0.536452 10:-0.92153698 13:1 18:1 #
-0.025220653034822175520002218718219 1:-0.67990601 2:-0.24707399 3:-1.48198 4:-0.251376 5:-0.69331002 6:0.275677 7:0.44266 8:0.69195801 9:0.169062 10:-0.000219002 11:1 26:1 #
-0.26161559191535671553552333534753 1:0.95949697 2:-0.40791699 3:0.92122799 4:0.75544602 5:0.095711797 6:-0.57857901 7:1.45125 8:-0.62316602 9:-1.68618 10:-0.30984199 13:1 27:1 #
-1.6908077186126575508495761823724 1:-1.25852 2:-0.40791699 3:-0.146862 4:-0.36429101 5:-0.00720412 6:-0.52534902 7:1.15241 8:0.084977202 9:-0.902273 10:-0.707066 13:1 18:1 #
-0.83990463861146114066258405728149 1:-1.52997 2:-0.74747598 3:-0.68090802 4:0.073253401 5:0.42161199 6:-0.86204898 7:0.70414603 8:-0.016186099 9:-0.45806101 10:-0.49259499 13:1 18:1 #
3.6751687134158119718563284550328 1:-3.1336501 2:1.38817 3:0.92122799 4:-0.00672783 5:0.64459699 6:-1.18977 7:-2.02279 8:-0.16793101 9:1.5017 10:-0.96684802 14:1 24:1 #
1.827855790278070102772289828863 1:-1.65855 2:-0.99767703 3:2.1228299 4:-1.12646 5:-0.59039497 6:-1.02495 7:-0.042958502 8:-3.1522501 9:-2.0258701 10:-0.438223 13:1 24:1 #
1.2261019438861002761598228971707 1:-1.5049599 2:-0.99767703 3:1.85581 4:-0.95238799 5:-0.35025701 6:-0.67991 7:0.069107197 8:-2.7981801 9:-1.81683 10:-0.96231699 13:1 24:1 #
-3.5972238197913068979971740191104 1:-2.9514999 2:1.34349 3:0.65420598 4:0.308492 5:1.31355 6:-1.26096 7:-1.83601 8:0.084977202 9:1.52783 10:-1.01895 14:1 24:1 #
-1.2986072164016870811309445343795 1:-1.59426 2:-0.97980499 3:2.3898499 4:0.129711 5:1.0048 6:-0.59589499 7:-0.080313802 8:-3.6074901 9:-2.3132999 10:-1.10429 13:1 24:1 #
-3.263784326175358518895563975093 1:-2.2550199 2:-0.64918202 3:-1.34846 4:-1.12646 5:-0.77907401 6:-1.3148299 7:0.48001501 8:0.489631 9:0.0122812 10:-1.0597301 13:1 24:1 #
2.490646315182012848765680246288 1:-1.16565 2:-0.184523 3:-0.0133511 4:0.035615101 5:-0.19588301 6:-1.19169 7:1.0777 8:0.489631 9:-0.66710198 10:-1.28025 13:1 18:1 #
3.3607850074648353277950718620559 1:-1.63355 2:-0.461532 3:-0.68090802 4:-0.37369999 5:-0.24734101 6:-0.83062398 7:0.89092302 8:0.28730401 9:-0.484191 10:-0.77050102 13:1 18:1 #
2.1033539991629410792484122794122 1:-3.2658 2:1.79921 3:1.05474 4:0.43081599 5:-1.0020601 6:-1.06471 7:-1.16362 8:-1.43247 9:0.142932 10:-0.88226801 14:1 24:1 #
-3.0900785417910916486050609819358 1:-1.6014 2:-0.300688 3:-0.68090802 4:-0.067889899 5:0.164322 6:-1.3295799 7:0.89092302 8:0.489631 9:-0.37967101 10:-1.14054 13:1 18:1 #
-4.622915690674827438044758309843 1:-1.58354 2:-0.69386101 3:0.38718301 4:-0.067889899 5:-0.436021 6:-1.2058001 7:1.0403399 8:-0.82549298 9:-1.29423 10:-0.52204698 13:1 18:1 #
-0.54776790140103914783509253538796 1:-1.08708 2:0.056742001 3:-0.54739702 4:-1.12646 5:-0.77907401 6:-0.36437401 7:0.66679102 8:0.99544799 9:0.038411301 10:-1.25155 13:1 18:1 #
2.0893445473897789277373249205993 1:-2.7443399 2:1.55795 3:0.38718301 4:-0.00672783 5:1.6223 6:-1.19426 7:-1.31304 8:-0.370258 9:0.92683601 10:-0.94721299 14:1 24:1 #
0.86133964880451552303952666989062 1:-2.21573 2:1.28988 3:0.78771698 4:0.52961701 5:1.31355 6:-0.96017301 7:-1.9480799 8:0.186141 9:1.65848 10:-0.65269297 14:1 24:1 #
0.23468067609462534006681266873784 1:-3.72298 2:-1.33724 3:1.4552701 4:-0.420748 5:0.33584899 6:-1.4110301 7:-1.2009701 8:-2.09004 9:-0.30127999 10:-0.928334 14:1 16:1 #
-1.9854535583786554475693719723495 1:-1.57283 2:1.50433 3:-0.28037399 4:0.186168 5:1.7595201 6:-0.93900901 7:-0.90212899 8:0.13555899 9:0.92683601 10:-0.397443 14:1 24:1 #
-6.4803591009529641908670782868285 1:-1.02993 2:-1.1763901 3:-0.54739702 4:-1.0700099 5:-0.69331002 6:-0.53496897 7:0.106462 8:-0.269095 9:-0.066109203 10:-0.467675 13:1 24:1 #
-2.8529294269235601078094077820424 1:-2.12644 2:-0.75641102 3:-0.68090802 4:-0.56189102 5:-0.57324201 6:-1.27507 7:0.70414603 8:-0.066767797 9:-0.484191 10:-0.96231699 13:1 16:1 #
4.2766499399597863728672564320732 1:-1.47639 2:-0.82789701 3:0.52069402 4:-0.19491901 5:-0.76192099 6:-1.19683 7:0.77885699 8:-1.0784 9:-1.2681 10:-0.556786 13:1 18:1 #
1.9072580031189809712799387853011 1:-0.79062802 2:-0.57769603 3:-0.0133511 4:0.308492 5:-0.84768403 6:-1.02495 7:1.0777 8:-0.269095 9:-1.00679 10:-1.2002 13:1 18:1 #
0.1989241198799510945693924668376 1:-1.40139 2:-0.300688 3:-0.81441897 4:0.52961701 5:1.17633 6:-1.09806 7:0.77885699 8:0.54021198 9:-0.24902 10:-0.69347298 13:1 18:1 #
-1.0686097319752072554166488771443 1:-1.41567 2:-1.10491 3:-0.28037399 4:0.43552101 5:-1.32796 6:-0.72929299 7:0.181173 8:-0.522003 9:-0.35354099 10:-0.62399697 13:1 18:1 #
-0.46515834376749126688466162704572 1:-1.20494 2:0.119292 3:-0.146862 4:0.83072197 5:0.62744403 6:-0.470835 7:0.66679102 8:1.09661 9:0.038411301 10:0.034519199 13:1 18:1 #
-7.2220174856815466668535918870475 1:-1.75498 2:-0.51514602 3:0.78771698 4:-0.86770201 5:-0.40171501 6:-1.21799 7:1.33919 8:-0.82549298 9:-1.68618 10:-0.83469099 13:1 18:1 #
-0.043198807755429856347628714274833 1:0.48089099 2:-0.595568 3:-0.0133511 4:-0.37369999 5:-0.36741 6:1.25948 7:1.0403399 8:-0.31967601 9:-1.00679 10:1.0517401 11:1 36:1 #
2.2751365934786167422032576723723 1:-1.02993 2:-1.23001 3:-0.28037399 4:-0.84417802 5:-0.79622602 6:-0.18351801 7:-0.042958502 8:-0.42084 9:-0.092239402 10:-0.084043801 13:1 24:1 #
0.40812802191776836879810730351892 1:-1.85856 2:1.40604 3:0.78771698 4:0.28496799 5:1.48508 6:-0.791502 7:-1.83601 8:-0.11735 9:1.39718 10:-0.51751602 14:1 20:1 #
-3.7445906210095509791813128686044 1:-1.48353 2:-1.3908499 3:0.12016 4:-0.68421501 5:-0.52178401 6:-0.23289999 7:-0.56593198 8:-0.62316602 9:0.19519199 10:0.039805502 13:1 24:1 #
1.0438150739651181897471587944892 1:-1.51568 2:-1.16746 3:1.3217601 4:-0.82065398 5:-0.50463098 6:0.015937099 7:-0.453866 8:-2.09004 9:-0.902273 10:-0.97213399 13:1 24:1 #
7.0808838386416610433116147760302 1:-2.0264299 2:-0.559825 3:0.78771698 4:-0.84417802 5:-0.161578 6:-1.17117 7:1.3018301 8:-0.92665702 9:-1.68618 10:-0.78409398 13:1 18:1 #
-0.27562070344011724287724973692093 1:1.08451 2:0.378429 3:0.38718301 4:0.204987 5:1.0048 6:-0.43235499 7:0.031752001 8:1.45068 9:0.69166398 10:1.63399 12:1 46:1 #
-1.0916091220157022601000562644913 1:-1.7121201 2:-0.54195303 3:1.05474 4:-0.75949198 5:-0.19588301 6:-1.2160701 7:1.3765399 8:-1.1795599 9:-1.94748 10:-0.82638401 13:1 18:1 #
-10 1:-1.99429 2:-0.56876099 3:1.3217601 4:-0.98532099 5:-0.59039497 6:-1.06792 7:1.3765399 8:-1.48306 9:-2.1826501 10:-0.65420401 13:1 18:1 #
-0.4935161850393847138285252640344 1:-1.74784 2:-0.390046 3:1.4552701 4:-0.95238799 5:-0.50463098 6:-0.95311803 7:1.52596 8:-0.977238 9:-2.07813 10:-0.92908901 13:1 18:1 #
1.0714361795224127682502057723468 1:-1.77284 2:-0.89938301 3:-0.68090802 4:-0.98532099 5:-0.77907401 6:-1.4110301 7:0.51736999 8:-0.11735 9:-0.37967101 10:-0.62022102 13:1 16:1 #
0.70747795345242270315111454692669 1:-1.72998 2:-0.98874098 3:-0.81441897 4:-0.82065398 5:-0.57324201 6:-1.40911 7:0.40530401 8:-0.016186099 9:-0.19676 10:-0.63305902 13:1 16:1 #
0.73174790365375042000550820375793 1:-1.6549799 2:-1.35511 3:-0.28037399 4:-1.12646 5:-0.69331002 6:-0.46698701 7:-0.304445 8:-0.370258 9:0.169062 10:-0.81430203 13:1 24:1 #
-3.4017108681882901599635715683689 1:-1.36924 2:-1.11384 3:-0.413885 4:-0.84417802 5:-0.69331002 6:0.33724499 7:0.181173 8:-0.370258 9:-0.24902 10:0.41059801 13:1 25:1 #
-9.3256712427308663393432652810588 1:-1.1478 2:-1.14958 3:-0.0133511 4:-0.67010099 5:-0.86483699 6:-0.611929 7:0.031752001 8:-0.77491099 9:-0.37967101 10:0.0080879601 13:1 25:1 #
-1.3360412108759707194849397637881 1:-1.5621099 2:-0.765347 3:-0.54739702 4:-1.26761 5:-0.79622602 6:-0.88577801 7:0.70414603 8:-0.11735 9:-0.51032102 10:-1.12695 13:1 27:1 #
7.2592692697115364097726342151873 1:-2.01929 2:-0.62237501 3:1.1882499 4:-1.12646 5:-0.69331002 6:-1.09934 7:1.26448 8:-1.48306 9:-2.052 10:-0.65420401 13:1 18:1 #
6.0587766428265013018972240388393 1:-2.0657201 2:-0.52408201 3:1.5887901 4:-1.0700099 5:-0.64185202 6:-1.10576 7:1.45125 8:-1.48306 9:-2.3132999 10:-0.72217 13:1 18:1 #
2.4146502693841984665823474642821 1:-2.0978601 2:-1.14065 3:0.65420598 4:-0.82065398 5:0.044253901 6:-0.82741702 7:-0.117669 8:-1.43247 9:-0.693232 10:-0.89133 14:1 24:1 #
-10 1:-2.05143 2:-0.595568 3:1.85581 4:-0.98532099 5:-0.55608898 6:-1.03777 7:1.33919 8:-1.98887 9:-2.5223401 10:-0.660245 13:1 18:1 #
6.0351546935201119126190860697534 1:-1.30852 2:-1.19426 3:-0.146862 4:-0.82065398 5:-0.65900499 6:-0.31435001 7:-0.0056032902 8:-0.522003 9:-0.17062999 10:0.037539899 13:1 25:1 #
0.31537904710752556747266339698399 1:-2.29074 2:-0.74747598 3:1.05474 4:0.129711 5:0.55883402 6:-1.27571 7:1.00299 8:-1.6348 9:-1.84296 10:-0.88604403 14:1 17:1 #
9.4234279033623433718958040117286 1:-2.0692899 2:-0.58663201 3:1.85581 4:-0.98532099 5:-0.50463098 6:-1.14231 7:1.3765399 8:-2.0394499 9:-2.6007299 10:-0.76068401 13:1 18:1 #
0.24944303080294444319164881562756 1:-1.45139 2:-0.94406199 3:0.78771698 4:-0.63716799 5:-0.058662102 6:-0.63116902 7:0.44266 8:-1.53364 9:-1.2681 10:-0.33023199 13:1 24:1 #
-0.88328699576740454801893065450713 1:-1.25495 2:-0.58663201 3:2.3898499 4:-0.86770201 5:-0.144425 6:-0.60294998 7:1.3765399 8:-2.64643 9:-3.07107 10:-1.28025 13:1 18:1 #
-1.4637306571874060256988059336436 1:-1.35495 2:-0.872576 3:-1.08144 4:-0.37369999 5:-0.384563 6:-0.90886599 7:0.44266 8:0.23672201 9:-0.118369 10:0.181024 13:1 25:1 #
-2.4125679978988445739673807111103 1:-2.59076 2:-0.595568 3:1.85581 4:-1.12646 5:-0.59039497 6:-0.73763001 7:1.33919 8:-2.0394499 9:-2.5746 10:-1.12695 14:1 18:1 #
5.7965526077182030206813578843139 1:-1.19066 2:-1.0423599 3:-0.146862 4:-0.41133901 5:-0.69331002 6:-0.77098 7:0.293239 8:-0.67374802 9:-0.536452 10:-0.22677299 13:1 25:1 #
0.31446180060474471229525761373225 1:-1.20851 2:-1.00661 3:0.253672 4:-0.703035 5:-0.436021 6:-1.11089 7:0.330594 8:-1.0784 9:-0.823883 10:-0.53715098 13:1 24:1 #
2.1822648403704905106792466540355 1:-1.23352 2:-0.97980499 3:-0.0133511 4:-1.0700099 5:-0.55608898 6:-1.04996 7:0.44266 8:-0.77491099 9:-0.71936202 10:-0.48353299 13:1 24:1 #
-2.0278421957948480347511122090509 1:-1.4371001 2:-0.86364001 3:-0.413885 4:-0.467796 5:0.095711797 6:-0.460574 7:0.59208101 8:-0.31967601 9:-0.58871198 10:-0.19883101 13:1 25:1 #
-0.64929054109262440697136753442464 1:-1.27281 2:-0.98874098 3:-0.28037399 4:-0.16669001 5:0.164322 6:-0.89475697 7:0.40530401 8:-0.471421 9:-0.51032102 10:-0.52204698 13:1 25:1 #
-1.2148918699202004845005831157323 1:-0.79777098 2:-0.89938301 3:0.253672 4:-0.56189102 5:-0.075814798 6:-0.66900802 7:0.59208101 8:-0.92665702 9:-0.95453399 10:-0.34986699 13:1 25:1 #
1.4067748372989536953525657736463 1:-2.5764699 2:-0.470467 3:1.85581 4:-1.0700099 5:-0.52178401 6:-1.0025001 7:1.52596 8:-1.5842201 9:-2.4700799 10:-0.69875902 14:1 18:1 #
-1.9818256125509365883630152893602 1:-1.3621 2:-0.72960401 3:1.1882499 4:-0.82065398 5:-0.47032601 6:-0.65682203 7:1.0403399 8:-1.73596 9:-1.99974 10:-1.2221 13:1 18:1 #
-1.0320587309856694702148161013611 1:-2.6371901 2:-0.34536701 3:1.7223001 4:-0.86770201 5:-0.213036 6:-0.85435301 7:1.56332 8:-0.977238 9:-2.1565199 10:-0.53412998 14:1 17:1 #
0.12098279353701409111199183143981 1:-1.12994 2:-0.82789701 3:0.52069402 4:-0.129052 5:-0.47032601 6:-0.341286 7:0.77885699 8:-1.0784 9:-1.2681 10:-0.064409196 13:1 25:1 #
1.5867495914984395266600358809228 1:-1.72641 2:1.47753 3:-0.68090802 4:-1.12646 5:-0.74476802 6:-1.11217 7:-0.60328698 8:0.38846701 9:0.848445 10:-0.51374 14:1 24:1 #
-0.64960059093979871658319780181046 1:-1.13351 2:-0.55088902 3:0.253672 4:-0.86770201 5:-0.29879901 6:-0.064870901 7:1.18976 8:-0.471421 9:-1.24196 10:0.32224199 13:1 25:1 #
-0.54142988502493250013714032320422 1:-0.50132197 2:-0.89938301 3:0.78771698 4:-0.32194799 5:0.21578 6:-0.601026 7:0.59208101 8:-1.53364 9:-1.37262 10:0.49064699 13:1 25:1 #
-1.8225211580921762966056576260598 1:-2.24073 2:-1.02448 3:0.65420598 4:-0.467796 5:0.71320802 6:-0.62988597 7:0.25588301 8:-1.43247 9:-1.00679 10:-0.603607 14:1 16:1 #
0.70336786296027387077600678821909 1:-1.43353 2:-0.836833 3:1.1882499 4:-0.50543398 5:-0.11012 6:-0.28869599 7:0.77885699 8:-1.93829 9:-1.84296 10:-1.01518 13:1 18:1 #
-1.2112739641018976932684836356202 1:-1.75498 2:-0.72066802 3:1.1882499 4:-0.98532099 5:-0.65900499 6:-0.60294998 7:1.0777 8:-1.68538 9:-1.94748 10:-0.72518998 13:1 17:1 #
-1.2490318520175451855180881466367 1:-0.77991301 2:-0.836833 3:0.92122799 4:-0.063185103 5:0.0271012 6:0.32954901 7:0.74150199 8:-1.68538 9:-1.63392 10:-0.53715098 13:1 24:1 #
5.0925029000499435483106935862452 1:-1.23352 2:-0.34536701 3:-0.28037399 4:-0.82065398 5:-0.55608898 6:-0.15850601 7:1.0403399 8:0.28730401 9:-0.66710198 10:0.171207 13:1 25:1 #
2.4879610343607514444386197283166 1:-1.31924 2:-0.69386101 3:0.253672 4:-0.75949198 5:-0.65900499 6:0.38406301 7:1.00299 8:-0.77491099 9:-1.2681 10:-0.707066 13:1 24:1 #
1.2106200209722424165903476023232 1:-1.96571 2:1.3256201 3:-0.54739702 4:-0.00672783 5:1.6566 6:-0.63694102 7:-0.75270802 8:0.59079403 9:1.05749 10:-0.94796801 14:1 24:1 #
-3.9243590040227580573173327138647 1:-1.3621 2:-0.559825 3:-0.28037399 4:-1.0700099 5:-0.65900499 6:0.0082411403 7:1.00299 8:-0.066767797 9:-0.823883 10:0.384922 13:1 25:1 #
-0.62985471152882577250409212865634 1:-0.75491101 2:-0.91725498 3:-0.413885 4:-0.82065398 5:-0.487479 6:0.067243896 7:0.55472499 8:-0.42084 9:-0.56258202 10:0.166675 13:1 25:1 #
-4.7714615322241531458757890504785 1:-1.02636 2:-0.54195303 3:-0.81441897 4:-1.26761 5:-0.79622602 6:-0.54074103 7:0.77885699 8:0.28730401 9:-0.37967101 10:-0.38460499 13:1 25:1 #
1.4845237899217185173483812832274 1:-1.15494 2:-0.48833901 3:1.7223001 4:-0.68421501 5:-0.333105 6:-0.25278199 7:1.48861 8:-1.53364 9:-2.41782 10:0.090402402 13:1 18:1 #
3.4083383713883987908843664627057 1:-1.27995 2:-1.0781 3:0.12016 4:-0.27019501 5:-0.79622602 6:-0.495206 7:0.181173 8:-0.87607503 9:-0.56258202 10:-0.69875902 13:1 24:1 #
-1.4600559424633801075543715342064 1:-2.68362 2:1.64731 3:0.52069402 4:-1.26761 5:-0.79622602 6:-1.23146 7:-1.2009701 8:-0.57258499 9:0.69166398 10:-0.575665 14:1 30:1 #
-0.60519570702965097552805673331022 1:-0.844203 2:0.70905203 3:0.92122799 4:-0.98532099 5:-0.86483699 6:-1.00699 7:-1.23833 8:1.50126 9:1.65848 10:-1.03934 13:1 17:1 #
-5.1323449082643461949260199617129 1:-0.80134302 2:1.40604 3:0.65420598 4:-1.26761 5:-0.79622602 6:-0.68504101 7:-1.68659 8:-0.016186099 9:1.34492 10:-0.36648101 13:1 34:1 #
4.7864166383292996442833100445569 1:-1.3621 2:-0.58663201 3:-1.08144 4:-0.95238799 5:-0.79622602 6:-0.92874801 7:0.62943602 8:0.38846701 9:-0.17062999 10:-0.40575001 13:1 25:1 #
2.544882963784035112553283397574 1:-1.34781 2:-0.60450399 3:-0.94793099 4:-1.12646 5:-0.72761601 6:-0.26111901 7:0.70414603 8:0.23672201 9:-0.35354099 10:0.065481499 13:1 25:1 #
3.4671571545842043704510615498293 1:-0.94778198 2:-1.0870301 3:-0.68090802 4:-0.95238799 5:-0.84768403 6:-0.173898 7:0.25588301 8:-0.11735 9:-0.1445 10:0.49215701 13:1 25:1 #
2.2355774185336905190979450708255 1:-0.50132197 2:-1.31043 3:-0.0133511 4:-0.41133901 5:-0.59039497 6:-0.64784402 7:-0.34180099 8:-0.62316602 9:0.0122812 10:0.048867598 13:1 45:1 #
0.43509000118812124480172087714891 1:-1.75855 2:-0.36323801 3:-1.34846 4:-1.26761 5:-0.79622602 6:-0.946064 7:0.55472499 8:0.64137602 9:0.038411301 10:-0.95098901 13:1 31:1 #
-0.028638913675332111630211784358835 1:0.60589999 2:-0.88151199 3:-0.413885 4:-0.75949198 5:-0.52178401 6:1.88222 7:0.59208101 8:-0.370258 9:-0.58871198 10:0.81914997 11:1 36:1 #
0.76254425117888002816357584379148 1:-2.4121699 2:-1.29256 3:2.1228299 4:-0.053775601 5:0.97049701 6:-0.93580198 7:-1.4251 8:-3.00051 9:-0.74549299 10:-0.92757797 14:1 24:1 #
0.32288401629460378172709056343592 1:-1.75855 2:1.4954 3:0.52069402 4:0.69898802 5:1.2106301 6:-0.96273798 7:-1.46246 8:-0.218513 9:1.10975 10:-0.397443 14:1 24:1 #
0.53899019353728383485702124744421 1:-2.5264699 2:-0.16665199 3:0.12016 4:-0.75949198 5:-0.041509401 6:-0.51380497 7:1.11505 8:0.489631 9:-0.693232 10:-1.19038 14:1 24:1 #
-3.5090809268799625364465555321658 1:-1.32638 2:-0.37217399 3:-1.21495 4:-0.75949198 5:-0.45317301 6:-0.89347398 7:0.59208101 8:0.59079403 9:-0.0399791 10:-0.61191398 13:1 25:1 #
-2.7365108844068197768706340866629 1:-0.7942 2:-1.2568099 3:-0.94793099 4:-1.0700099 5:-0.79622602 6:-0.77482802 7:0.069107197 8:0.13555899 9:0.169062 10:0.22180399 13:1 25:1 #
0.35024630372378795506449478125433 1:-2.3585999 2:0.476722 3:2.79039 4:-0.95238799 5:-0.144425 6:-0.49456501 7:-1.5371701 8:1.14719 9:1.13588 10:-0.86867398 14:1 15:1 #
1.4196300033907971460678254516097 1:-1.30138 2:1.3703001 3:0.78771698 4:-1.12646 5:-0.69331002 6:-0.52599001 7:-1.91072 8:-0.066767797 9:1.5017 10:-0.641366 13:1 34:1 #
3.6950726137626226375232363352552 1:-0.85134703 2:1.31668 3:0.253672 4:-1.26761 5:-0.79622602 6:-0.78701299 7:-1.46246 8:0.33788601 9:1.42331 10:-0.42689499 13:1 34:1 #
-5.5326367377244682899117833585478 1:-2.44432 2:1.72773 3:2.52336 4:-0.75949198 5:-0.092967398 6:-1.40911 7:-2.5831201 8:-2.7981801 9:0.19519199 10:-0.89963698 14:1 24:1 #
-1.429692945409358761921225777769 1:-1.36567 2:-0.264945 3:-1.08144 4:-0.86770201 5:-0.79622602 6:0.39817199 7:0.70414603 8:0.64137602 9:-0.118369 10:0.267869 13:1 25:1 #
0.72355282618731930899258486533654 1:-1.47282 2:-0.425789 3:-1.48198 4:-1.26761 5:-0.79622602 6:-1.04483 7:0.48001501 8:0.64137602 9:0.090671502 10:-0.67459399 13:1 25:1 #
1.0315786572331235859678599808831 1:-1.42996 2:-1.24788 3:-1.48198 4:-1.12646 5:-0.79622602 6:-0.66323602 7:0.181173 8:0.43904901 9:0.27358201 10:0.358491 13:1 25:1 #
1.0780488059602819639337667467771 1:-3.1908 2:1.73666 3:0.253672 4:-0.32194799 5:0.37015399 6:-1.2212 7:-0.82741898 8:-0.57258499 9:0.430363 10:-1.00914 14:1 24:1 #
-2.2765191353212452796128673071507 1:-1.1049401 2:-0.74747598 3:-1.21495 4:-1.12646 5:-0.77907401 6:-1.46875 7:0.51736999 8:0.33788601 9:-0.118369 10:-0.86565399 13:1 31:1 #
-0.88472119236917490248117701412411 1:-0.73348099 2:-0.60450399 3:-0.81441897 4:-0.75949198 5:-0.71046299 6:-0.85050499 7:0.77885699 8:0.186141 9:-0.43193099 10:0.25276601 13:1 25:1 #
1.932529971451272476912208730937 1:-2.2050099 2:1.6741101 3:2.6568799 4:-0.86770201 5:-0.264494 6:-0.90309399 7:-2.95667 8:-2.7476001 9:0.48262301 10:-0.79315698 14:1 24:1 #
0.074413976416604105112995171111834 1:-1.77641 2:0.24439301 3:0.38718301 4:-1.12646 5:-0.95060003 6:-1.22312 7:0.36794901 8:1.2989399 9:0.29971299 10:-0.657224 13:1 31:1 #
1.2298716125562036971530233131489 1:-2.10501 2:1.6741101 3:2.52336 4:-0.67010099 5:0.21578 6:-0.91335601 7:-2.80725 8:-2.64643 9:0.48262301 10:-0.778808 14:1 24:1 #
1.673712914038594012922089859785 1:-1.51925 2:-0.98874098 3:-1.08144 4:-1.12646 5:-0.83053201 6:-1.40333 7:0.36794901 8:0.186141 9:-0.066109203 10:-0.43444699 13:1 31:1 #
1.699485689963906587252040480962 1:-1.83713 2:0.25332901 3:-0.146862 4:-1.26761 5:-0.79622602 6:-0.74596798 7:0.40530401 8:1.2989399 9:0.351973 10:-0.98648202 13:1 18:1 #
-0.030572292002741578709201775154725 1:1.0345 2:0.60182297 3:0.12016 4:-0.16669001 5:-0.67615801 6:0.55080998 7:-0.49122199 8:1.50126 9:1.18814 10:-0.349112 13:1 37:1 #
-3.7175391422953363296244333469076 1:-1.42996 2:0.24439301 3:0.253672 4:-1.26761 5:-0.79622602 6:-0.66323602 7:0.40530401 8:1.2989399 9:0.29971299 10:-1.17528 13:1 18:1 #
-2.5479277150833947729324790998362 1:-1.64783 2:0.38736501 3:-0.0133511 4:-0.63716799 5:-0.64185202 6:-0.840244 7:0.106462 8:1.4001 9:0.66553402 10:-0.775787 13:1 18:1 #
-0.65522326871330471842469478360726 1:-0.89063501 2:-0.93512601 3:-1.08144 4:-1.12646 5:-0.79622602 6:-1.12371 7:0.40530401 8:0.186141 9:-0.092239402 10:0.190841 13:1 31:1 #
2.3228468136903592800024398457026 1:-2.2514501 2:1.55795 3:2.3898499 4:-0.84417802 5:0.044253901 6:-0.62219 7:-3.14344 8:-2.0394499 9:1.10975 10:-1.16093 14:1 24:1 #
0.29373539383749425191183490824187 1:-1.62997 2:-0.82789701 3:1.05474 4:-0.95238799 5:-0.487479 6:-0.66387701 7:0.77885699 8:-1.78655 9:-1.73844 10:-0.53412998 13:1 18:1 #
-2.0002757144472171901838919438887 1:-0.84063101 2:-1.15852 3:0.92122799 4:-0.063185103 5:0.91903901 6:-1.0319999 7:-0.304445 8:-1.78655 9:-0.77162302 10:-0.69196302 13:1 47:1 #
-1.3296524515390206744314127718098 1:-3.33724 2:1.7187901 3:0.52069402 4:-0.95238799 5:-0.41886801 6:-1.43797 7:-1.01419 8:-0.72433001 9:0.48262301 10:-0.916251 14:1 31:1 #
-0.12914719997656762262572271993122 1:-0.2013 2:-1.38191 3:-0.28037399 4:-0.279605 5:-0.12727299 6:-0.223922 7:-0.34180099 8:-0.269095 9:0.24745201 10:-0.79013598 13:1 45:1 #
3.4564731185895167797639260243159 1:-1.51925 2:0.35162199 3:0.78771698 4:-0.86770201 5:-0.69331002 6:-0.77098 7:-0.0056032902 8:1.45068 9:0.61327398 10:-0.50165802 13:1 18:1 #
0.52038160489613138892650567868259 1:-1.5406801 2:0.440979 3:-0.146862 4:-1.12646 5:-0.79622602 6:-0.764566 7:-0.0056032902 8:1.4001 9:0.770055 10:-0.461633 13:1 18:1 #
-1.4102805255083898927637164888438 1:-0.85134703 2:0.306943 3:0.65420598 4:-0.95238799 5:-0.487479 6:-1.03777 7:0.181173 8:1.4001 9:0.45649299 10:0.0851162 13:1 18:1 #
-1.3324281951758178976774615875911 1:-1.34781 2:0.29800701 3:1.4552701 4:-1.26761 5:-0.79622602 6:-0.67221397 7:-0.0056032902 8:1.2989399 9:0.351973 10:-0.79013598 13:1 18:1 #
-0.65333993255979727621252095559612 1:-1.3799599 2:0.583951 3:-0.0133511 4:-0.75949198 5:-0.264494 6:-0.66836601 7:-0.37915599 8:1.50126 9:1.08362 10:-0.60436201 13:1 18:1 #
1.2999908859792319582027175783878 1:-2.5443201 2:1.17371 3:2.79039 4:-0.32194799 5:1.02196 6:-0.98197901 7:-4.0399699 8:-0.522003 9:2.4946401 10:-0.67685902 14:1 24:1 #
0.70034180491987452210622677739593 1:-2.61219 2:1.13797 3:2.52336 4:-0.420748 5:1.31355 6:-1.03906 7:-3.66642 8:-0.11735 9:2.4685099 10:-0.74482501 14:1 24:1 #
1.8835106666678680387150279784692 1:-2.6871901 2:1.81709 3:2.52336 4:-0.86770201 5:-0.40171501 6:-1.19683 7:-2.2469201 8:-3.1522501 9:-0.27515 10:-1.11562 14:1 24:1 #
0.40732468351919670634941894604708 1:-2.22644 2:-1.28362 3:-1.08144 4:-1.12646 5:-0.81337899 6:-1.25711 7:0.069107197 8:0.23672201 9:0.221322 10:-0.400464 14:1 28:1 #
-0.76032644770725554828061376611004 1:-2.9300699 2:1.18265 3:3.32443 4:-0.84417802 5:0.26723799 6:-0.59268898 7:-4.63765 8:-0.977238 9:2.57303 10:-0.85130501 14:1 24:1 #
-1.9421147796787843198274003952974 1:-1.62283 2:-0.78321898 3:0.52069402 4:0.426112 5:1.63945 6:-0.98710901 7:0.89092302 8:-1.12898 9:-1.37262 10:-0.45181599 14:1 24:1 #
2.4047731760120449884254867356503 1:-1.6014 2:0.17290699 3:1.05474 4:-1.26761 5:-0.79622602 6:-0.094372302 7:0.51736999 8:1.09661 9:-0.092239402 10:-0.85734701 13:1 18:1 #
0.15085779173966901156589415222697 1:-0.92635202 2:-0.62237501 3:-0.413885 4:-0.467796 5:0.078559197 6:-0.095655002 7:0.89092302 8:-0.066767797 9:-0.66710198 10:0.069257401 13:1 24:1 #
1.6068098538474950842669386474881 1:-1.24066 2:-1.37298 3:0.92122799 4:-0.84417802 5:-0.64185202 6:-0.39579901 7:-1.01419 8:-1.48306 9:-0.0399791 10:0.62582397 13:1 24:1 #
-2.3989957839774564973822634783573 1:-1.50854 2:0.20864999 3:1.4552701 4:-0.95238799 5:-0.35025701 6:-0.127722 7:0.330594 8:1.14719 9:0.0122812 10:-0.79542202 13:1 18:1 #
-1.9774581866280658282164495176403 1:-1.35495 2:0.029934799 3:0.65420598 4:-0.98532099 5:-1.12213 6:-0.62988597 7:0.89092302 8:0.84370297 9:-0.43193099 10:-0.76143903 13:1 18:1 #
-0.091264234254694695525067515973205 1:0.93806702 2:-0.104102 3:-1.61549 4:-0.75949198 5:-0.77907401 6:2.1823599 7:0.36794901 8:0.74253899 9:0.24745201 10:-0.225262 11:1 36:1 #
1.2993309514735684739861198977451 1:-1.7907 2:-0.64024699 3:0.52069402 4:0.92952198 5:1.2106301 6:-1.01982 7:1.15241 8:-0.92665702 9:-1.4771399 10:-0.40575001 14:1 24:1 #
-0.11326315000759473727853787750064 1:0.41303 2:1.36136 3:-0.54739702 4:-0.98532099 5:-0.60754699 6:-0.85178798 7:-0.79006398 8:0.54021198 9:1.03136 10:-0.136151 12:1 38:1 #
-0.094179886864895076548087615719851 1:0.048717801 2:-1.16746 3:0.52069402 4:-0.84417802 5:-0.71046299 6:-0.420811 7:-0.15502401 8:-1.33131 9:-0.58871198 10:1.2246799 11:1 43:1 #
-0.89253890393821722071265867270995 1:-1.0013601 2:-1.23894 3:0.92122799 4:0.43081599 5:-0.62470001 6:-0.65297401 7:-0.56593198 8:-1.6348 9:-0.484191 10:0.57824802 13:1 24:1 #
-1.9492029416149025955462548154173 1:-0.67276198 2:-0.74747598 3:-0.54739702 4:0.59077901 5:-0.092967398 6:0.208979 7:0.70414603 8:-0.11735 9:-0.536452 10:0.066991903 13:1 24:1 #
-10 1:-1.95857 2:0.378429 3:0.12016 4:-1.12646 5:-0.67615801 6:-0.749816 7:0.069107197 8:1.45068 9:0.66553402 10:-0.73425299 13:1 30:1 #
2.7470145101428427025780365511309 1:-2.28002 2:-0.970869 3:0.92122799 4:-0.37369999 5:-0.69331002 6:-1.31419 7:0.36794901 8:-1.68538 9:-1.2681 10:-0.67836899 14:1 24:1 #
0.63623516386915390796730207512155 1:-1.08708 2:-0.89044797 3:-0.94793099 4:-1.12646 5:-0.76192099 6:-0.23289999 7:0.48001501 8:0.13555899 9:-0.19676 10:-0.090840399 13:1 24:1 #
0.34026343509350959193326957574754 1:-2.4228899 2:-0.93512601 3:0.52069402 4:-0.56189102 5:-0.213036 6:-0.69722599 7:0.51736999 8:-1.33131 9:-1.13744 10:-1.0401 14:1 16:1 #
-4.0202388316935619982928074023221 1:-2.3871701 2:-0.702797 3:0.253672 4:-0.75949198 5:0.49022299 6:-0.67991 7:1.00299 8:-0.72433001 9:-1.21583 10:-1.099 14:1 16:1 #
-1.8926031546879495959245787162217 1:-0.92277998 2:-0.78321898 3:-1.34846 4:-1.26761 5:-0.79622602 6:-0.078338899 7:0.44266 8:0.38846701 9:-0.013849 10:-1.02877 13:1 24:1 #
-6.8290971377476639148085268971045 1:-1.6085401 2:0.0478063 3:-0.54739702 4:-1.0700099 5:-0.72761601 6:-0.92297602 7:0.66679102 8:0.99544799 9:0.0122812 10:-0.340049 13:1 18:1 #
5.2587414041581670431924067088403 1:-1.75855 2:0.44991499 3:0.12016 4:-1.26761 5:-0.79622602 6:-0.55677402 7:-0.080313802 8:1.50126 9:0.848445 10:-0.67459399 13:1 30:1 #
3.3694057217936981274419849796686 1:-1.91214 2:0.342686 3:-0.28037399 4:-1.26761 5:-0.79622602 6:-0.79535002 7:0.218528 8:1.34952 9:0.561014 10:-0.62399697 13:1 30:1 #
1.2277422827760380297235087709851 1:-1.1835099 2:-0.94406199 3:-0.413885 4:0.76955998 5:-0.230189 6:-0.46762899 7:0.48001501 8:-0.31967601 9:-0.45806101 10:-0.052326299 13:1 24:1 #
-3.2905750391341404004208470723825 1:-1.1835099 2:-1.37298 3:-0.68090802 4:0.25203499 5:0.696055 6:-0.55677402 7:-0.15502401 8:0.034395501 9:0.27358201 10:-0.190524 13:1 24:1 #
-0.1811084492962545255956285927823 1:-0.25844699 2:-0.88151199 3:0.12016 4:1.0988899 5:0.901887 6:-0.75686997 7:0.62943602 8:-0.82549298 9:-0.902273 10:-0.26679701 13:1 24:1 #
-1.7632555714625648413118597090943 1:-2.03 2:0.33375001 3:0.253672 4:-0.68421501 5:-0.436021 6:-0.81458998 7:0.14381801 8:1.4001 9:0.561014 10:-0.23432399 13:1 16:1 #
3.3255658250990096647115024097729 1:-1.55854 2:0.092485003 3:-0.94793099 4:-0.98532099 5:-0.89914203 6:-0.74596798 7:0.51736999 8:0.99544799 9:0.19519199 10:-0.489575 13:1 18:1 #
1.1527374092985633868835293469601 1:-2.34074 2:-0.61343902 3:-0.146862 4:-0.41133901 5:0.181475 6:-0.74147803 7:1.00299 8:-0.31967601 9:-0.95453399 10:-0.99705499 14:1 16:1 #
0.99614232508147471101267456106143 1:-1.77641 2:-0.29175201 3:-0.81441897 4:-1.26761 5:-0.79622602 6:-0.70363998 7:0.816212 8:0.54021198 9:-0.30127999 10:-0.225262 13:1 18:1 #
-1.6485683293584088016103805784951 1:-1.91571 2:-0.48833901 3:0.253672 4:0.50138801 5:-0.230189 6:-0.95632499 7:1.22712 8:-0.370258 9:-1.24196 10:-0.85432601 14:1 16:1 #
-2.8284059776449441692136588244466 1:-2.0692899 2:-0.80109 3:-0.146862 4:-1.26761 5:-0.79622602 6:-1.0801001 7:0.74150199 8:-0.522003 9:-0.85001302 10:-0.83695698 14:1 16:1 #
2.5576564103376555614488552237162 1:-1.99786 2:0.35162199 3:0.78771698 4:-1.12646 5:-0.89914203 6:-0.563829 7:-0.0056032902 8:1.45068 9:0.61327398 10:-1.0469 13:1 30:1 #
3.1045711623449370186733631271636 1:-1.70498 2:0.28013599 3:0.253672 4:-1.12646 5:-0.65900499 6:-0.83511299 7:0.293239 8:1.34952 9:0.40423301 10:-0.54923397 13:1 16:1 #
1.0433358349231882655772096768487 1:-0.81205797 2:-1.3908499 3:-0.413885 4:0.129711 5:0.67890197 6:-0.14632 7:-0.34180099 8:-0.218513 9:0.27358201 10:0.181779 13:1 24:1 #
-1.2665612230201130916640295254183 1:-1.37281 2:0.235457 3:1.05474 4:-0.98532099 5:-1.07067 6:-0.43812701 7:0.330594 8:1.24836 9:0.169062 10:-0.38460499 13:1 16:1 #
-1.061104394975048048621601992636 1:-1.11922 2:0.119292 3:-0.0133511 4:-1.0700099 5:-0.69331002 6:-0.791502 7:0.66679102 8:1.09661 9:0.0122812 10:-0.97364402 13:1 16:1 #
-2.0811690544145213799254179320997 1:-1.6264 2:0.49459401 3:-0.146862 4:-0.82065398 5:-0.17873099 6:-0.99480498 7:-0.117669 8:1.45068 9:0.90070599 10:-0.82940501 13:1 16:1 #
1.6463189153531025965548906242475 1:-1.30138 2:-1.23001 3:-0.94793099 4:-0.98532099 5:-0.96775299 6:-0.069360301 7:0.106462 8:0.13555899 9:0.142932 10:-0.99629998 13:1 24:1 #
1.5490248440905238780374020279851 1:-2.6800499 2:-0.78321898 3:0.52069402 4:-0.36429101 5:1.07341 6:-1.2622401 7:0.89092302 8:-1.1795599 9:-1.3987499 10:-1.1496 14:1 16:1 #
0.82456217564696054900252875086153 1:-2.7514801 2:-0.98874098 3:0.78771698 4:-0.50543398 5:0.81612301 6:-1.29238 7:0.330594 8:-1.5842201 9:-1.1897 10:-1.11033 14:1 24:1 #
-3.5864393818175246408941347908694 1:-2.2228701 2:-0.908319 3:1.4552701 4:0.063843802 5:0.91903901 6:-0.71069402 7:0.48001501 8:-2.3429401 9:-1.86909 10:-0.75615299 14:1 24:1 #
-0.8764730118010150006213621054485 1:-2.2193 2:-0.970869 3:-0.54739702 4:-0.16669001 5:0.078559197 6:-1.14937 7:0.44266 8:-0.269095 9:-0.37967101 10:-1.0197099 14:1 18:1 #
-1.5727802231778971187026172628975 1:-1.74784 2:-0.631311 3:0.78771698 4:0.063843802 5:0.62744403 6:-1.02623 7:1.18976 8:-1.12898 9:-1.68618 10:-1.28176 14:1 16:1 #
0.66786202562179231012606805961695 1:-2.0335701 2:0.48565799 3:-0.0133511 4:-0.68421501 5:-0.144425 6:-1.48799 7:-0.117669 8:1.45068 9:0.87457502 10:-1.41391 13:1 16:1 #
0.67332113402894200326898044295376 1:-2.03 2:0.55714399 3:-0.413885 4:-0.67010099 5:-0.144425 6:-1.50723 7:-0.15502401 8:1.4001 9:0.92683601 10:-1.45016 13:1 16:1 #
1.4709335427838809984280032949755 1:-2.1300099 2:0.181843 3:-0.0133511 4:-1.26761 5:-0.79622602 6:-1.11473 7:0.51736999 8:1.19777 9:0.19519199 10:-0.74482501 13:1 30:1 #
-5.2059273864289661304383116657846 1:-1.42996 2:-0.461532 3:-0.81441897 4:-1.26761 5:-0.79622602 6:0.318005 7:0.816212 8:0.33788601 9:-0.35354099 10:0.33206001 13:1 34:1 #
-1.3675068096546116880318777475622 1:-1.57997 2:-1.28362 3:1.5887901 4:-0.95238799 5:-0.436021 6:-0.87936503 7:-1.05155 8:-2.24178 9:-0.536452 10:-0.51751602 13:1 47:1 #
-6.2606606904233546018190281756688 1:-1.69784 2:1.46859 3:-0.413885 4:-0.279605 5:0.095711797 6:-1.10127 7:-0.79006398 8:0.28730401 9:0.92683601 10:-0.40650499 14:1 20:1 #
2.6843525193214743396197263791692 1:-2.5836101 2:-0.68492502 3:-0.28037399 4:-1.12646 5:-0.71046299 6:-0.66580099 7:0.89092302 8:-0.31967601 9:-0.85001302 10:-1.03708 14:1 16:1 #
0.23624932695300024376727776598273 1:-1.90499 2:1.8081501 3:0.38718301 4:-0.129052 5:-0.436021 6:-1.00635 7:-0.71535301 8:-0.82549298 9:0.19519199 10:-0.68667603 14:1 24:1 #
2.1436497737062767399152107827831 1:-1.9871401 2:-1.35511 3:-0.54739702 4:-0.16669001 5:0.33584899 6:-0.590765 7:-0.19238 8:-0.11735 9:0.221322 10:-1.08692 14:1 24:1 #
-5.5318493126783003788204950978979 1:-2.2550199 2:-1.31043 3:-0.68090802 4:-0.251376 5:0.112864 6:-1.19426 7:-0.080313802 8:-0.066767797 9:0.169062 10:-1.03934 14:1 24:1 #
-1.2093986117685600056859129836084 1:-2.7407701 2:-0.434724 3:-0.413885 4:-1.12646 5:-0.79622602 6:-1.4110301 7:1.00299 8:0.13555899 9:-0.693232 10:-1.26212 14:1 16:1 #
5.0535663460770940957900165813044 1:-1.52997 2:-0.56876099 3:-1.08144 4:-1.12646 5:-0.79622602 6:0.111496 7:0.66679102 8:0.38846701 9:-0.19676 10:0.330549 13:1 34:1 #
3.5240768495182650532626666972646 1:-1.73712 2:1.40604 3:-0.68090802 4:-0.19491901 5:-0.29879901 6:-1.11089 7:-0.56593198 8:0.54021198 9:0.90070599 10:-0.50165802 14:1 20:1 #
-8.2119247764363798580689035588875 1:-1.52997 2:1.60263 3:-1.21495 4:-0.24196699 5:-0.40171501 6:-1.01405 7:-0.117669 8:0.489631 9:0.53488398 10:-0.72518998 14:1 20:1 #
-3.2455098566315014885219625284662 1:-1.52639 2:1.26307 3:-0.94793099 4:0.308492 5:0.044253901 6:-1.39179 7:-0.416511 8:0.74253899 9:0.87457502 10:-0.072716199 14:1 20:1 #
-1.138573085197229772802529623732 1:-1.36924 2:1.70986 3:-1.08144 4:0.14382499 5:0.061406501 6:-1.16027 7:-0.15502401 8:0.33788601 9:0.45649299 10:-0.86716402 14:1 20:1 #
1.4429822011975090845226077362895 1:-2.3336 2:-1.37298 3:-0.94793099 4:-0.36429101 5:0.33584899 6:-0.86782098 7:-0.080313802 8:0.13555899 9:0.29971299 10:-0.53715098 14:1 24:1 #
1.2652273675064873437179358006688 1:-2.24073 2:-1.38191 3:-0.413885 4:-0.63716799 5:-0.59039497 6:-1.34369 7:-0.26708999 8:-0.16793101 9:0.24745201 10:-0.52129197 14:1 24:1 #
1.4056888185827958182017027866095 1:-1.75855 2:-1.19426 3:-0.68090802 4:0.308492 5:0.14717001 6:-1.23915 7:0.106462 8:-0.11735 9:0.0122812 10:-0.68667603 14:1 24:1 #
-0.73592452034312660913428771891631 1:-1.96928 2:-0.85470498 3:-0.146862 4:-0.50543398 5:-0.24734101 6:-0.806894 7:0.66679102 8:-0.57258499 9:-0.77162302 10:-0.87018502 14:1 20:1 #
2.4739782398367391458293695905013 1:-1.72998 2:1.68305 3:-0.81441897 4:0.063843802 5:-0.092967398 6:-1.08139 7:-0.26708999 8:0.23672201 9:0.50875401 10:-0.531865 14:1 20:1 #
3.5881334009819987329592549940571 1:-1.72284 2:1.30775 3:-1.34846 4:-0.105528 5:-0.230189 6:-1.10255 7:-0.19238 8:0.74253899 9:0.69166398 10:-0.51298499 14:1 20:1 #
1.0773813245896972645709865901154 1:-1.55497 2:1.70986 3:-1.21495 4:-0.420748 5:-0.092967398 6:-1.4110301 7:-0.080313802 8:0.38846701 9:0.45649299 10:-0.19883101 14:1 20:1 #
-0.29704938547710957319480939986533 1:-0.47274801 2:-0.58663201 3:-1.48198 4:-1.26761 5:-0.79622602 6:-0.72095603 7:0.48001501 8:0.54021198 9:0.064541399 10:0.37737 13:1 34:1 #
-1.278864669821045074726839629875 1:-0.56918401 2:-1.02448 3:-1.34846 4:-0.703035 5:-0.62470001 6:-0.58306903 7:0.293239 8:0.33788601 9:0.090671502 10:0.35093901 13:1 34:1 #
0.4172760971720798073292257868161 1:-2.00857 2:-0.631311 3:-0.146862 4:-0.63716799 5:-0.12727299 6:-0.97492403 7:1.00299 8:-0.31967601 9:-0.95453399 10:-0.45332599 14:1 20:1 #
4.3980984198168773247061835718341 1:-1.64069 2:-0.765347 3:-0.146862 4:-0.95238799 5:-0.57324201 6:-1.2160701 7:0.816212 8:-0.522003 9:-0.902273 10:-0.52053702 14:1 20:1 #
5.0475413442746432934882250265218 1:-2.00143 2:-0.69386101 3:0.253672 4:-0.68421501 5:-0.092967398 6:-0.99416399 7:1.00299 8:-0.67374802 9:-1.1897 10:-0.43746701 14:1 20:1 #
-10 1:-1.57283 2:-0.58663201 3:-0.0133511 4:-0.50543398 5:-0.17873099 6:-1.35203 7:1.0403399 8:-0.269095 9:-0.98066401 10:-0.1943 14:1 20:1 #
-10 1:-1.91214 2:-0.36323801 3:-0.0133511 4:-0.95238799 5:-0.487479 6:-1.01661 7:1.15241 8:0.13555899 9:-0.87614298 10:-0.37478799 14:1 20:1 #
-10 1:-1.94428 2:-0.72960401 3:0.52069402 4:-0.98532099 5:-0.315952 6:-0.94798797 7:1.00299 8:-1.02782 9:-1.3987499 10:-0.45106101 14:1 20:1 #
-0.018145414587495318353704831793038 1:0.430888 2:-1.2657501 3:-1.34846 4:-1.12646 5:-0.76192099 6:0.64444399 7:0.14381801 8:0.38846701 9:0.27358201 10:-0.62475199 11:1 37:1 #
2.018004160718223083392786065815 1:-0.81205797 2:-1.14958 3:-1.21495 4:-1.12646 5:-0.83053201 6:-0.84409201 7:0.218528 8:0.23672201 9:0.116802 10:-0.41103601 13:1 34:1 #
0.43911209240693865885063473797345 1:-2.2193 2:1.00393 3:-0.413885 4:-1.12646 5:-0.83053201 6:-1.29238 7:-0.79006398 8:1.09661 9:1.31879 10:-1.0114 13:1 24:1 #
-1.6658124260625244428268842966645 1:-1.35853 2:1.0218 3:-0.54739702 4:0.14853001 5:0.112864 6:-1.19169 7:-0.71535301 8:1.04603 9:1.2404 10:-0.84601903 14:1 20:1 #
-10 1:-1.4263901 2:1.03967 3:-0.413885 4:0.43081599 5:1.48508 6:-0.78829598 7:-0.82741898 8:0.99544799 9:1.31879 10:-1.01895 14:1 20:1 #
-2.5766264725691430115261937316973 1:-1.46925 2:0.548208 3:-0.54739702 4:0.28496799 5:0.45591801 6:-0.74596798 7:-0.117669 8:1.34952 9:0.87457502 10:-0.92757797 14:1 20:1 #
1.0260682145162343115174508056953 1:-2.2728801 2:-0.631311 3:0.38718301 4:-0.19491901 5:-0.65900499 6:-1.29559 7:1.11505 8:-0.72433001 9:-1.37262 10:-0.68441099 14:1 17:1 #
4.3511597606824228279265298624523 1:-1.45139 2:1.03967 3:-0.146862 4:0.308492 5:1.36501 6:-0.77482802 7:-0.97684002 8:1.04603 9:1.42331 10:-1.0401 14:1 20:1 #
2.3998599711548966872953769779997 1:-1.78713 2:-0.41685301 3:-0.0133511 4:-0.68421501 5:-0.36741 6:-1.18464 7:1.18976 8:-0.016186099 9:-0.98066401 10:-0.42387399 14:1 20:1 #
-0.61825698602444911777809011255158 1:0.070147902 2:-1.3908499 3:-1.21495 4:-1.12646 5:-0.74476802 6:-0.82934099 7:-0.0056032902 8:0.33788601 9:0.351973 10:-0.44577399 13:1 34:1 #
-0.2839166498622275325303121462639 1:-0.969212 2:-1.15852 3:-1.08144 4:-1.26761 5:-0.79622602 6:-0.45223701 7:0.181173 8:0.186141 9:0.090671502 10:-0.46087801 11:1 34:1 #
-0.20119352784692903779451000900735 1:-1.23709 2:-1.0781 3:-0.81441897 4:-0.98532099 5:-0.77907401 6:-1.1217901 7:0.25588301 8:0.034395501 9:-0.066109203 10:-0.43067101 11:1 34:1 #
3.8741349721322140275958645361243 1:-2.00857 2:-0.300688 3:0.253672 4:-1.0700099 5:-0.57324201 6:-1.15321 7:1.26448 8:0.13555899 9:-1.03292 10:-0.43067101 14:1 20:1 #
1.4978750262771978185583066078834 1:-1.7657 2:-0.24707399 3:-0.146862 4:-0.95238799 5:-0.57324201 6:-1.2135 7:1.0777 8:0.38846701 9:-0.66710198 10:-0.47069499 14:1 20:1 #
6.8838041386152211131843614566606 1:-1.43353 2:1.10223 3:-0.54739702 4:0.449635 5:1.45077 6:-0.79342598 7:-0.67799801 8:0.944866 9:1.16201 10:-1.04161 14:1 20:1 #
-3.0470752666110558770640182046918 1:-1.6085401 2:-0.71173298 3:-0.28037399 4:-0.84417802 5:-0.384563 6:-1.32573 7:0.816212 8:-0.269095 9:-0.74549299 10:-1.15564 14:1 20:1 #
-5.6724446507482610968509106896818 1:-1.96928 2:-0.765347 3:-0.146862 4:-0.56189102 5:-0.24734101 6:-0.82549298 7:0.816212 8:-0.522003 9:-0.902273 10:-0.853571 14:1 20:1 #
-1.6978737360002245093681949583697 1:-2.2978799 2:-0.40791699 3:0.253672 4:-0.56189102 5:-0.29879901 6:-0.760077 7:1.22712 8:-0.11735 9:-1.11131 10:-0.74633503 14:1 17:1 #
1.4276649692995566631736892304616 1:-2.0264299 2:-0.61343902 3:1.05474 4:-0.86770201 5:-0.281647 6:-1.0570101 7:1.26448 8:-1.33131 9:-1.94748 10:-0.34231499 14:1 20:1 #
