SVM-light Version V6.02
2 # kernel type
3 # kernel parameter -d 
0.1 # kernel parameter -g 
1 # kernel parameter -s 
1 # kernel parameter -r 
empty# kernel parameter -u 
54 # highest feature index 
10000 # number of training documents 
1322 # number of support vectors plus 1 
1.5794842 # threshold b, each following line is a SV (starting with alpha*y)
10 1:-2.1192901 2:-0.16665199 3:0.78771698 4:-0.56189102 5:-0.17873099 6:-1.2141401 7:1.3018301 8:0.23672201 9:-1.11131 10:-0.48881999 14:1 15:1 #
-10 1:-2.65148 2:-1.37298 3:-0.146862 4:0.43081599 5:1.91389 6:-1.19426 7:-0.37915599 8:-0.42084 9:0.19519199 10:-1.22285 14:1 16:1 #
-10 1:-2.2335899 2:-1.3461699 3:1.3217601 4:-0.13846201 5:0.747513 6:-0.61064601 7:-1.12626 8:-1.88771 9:-0.22289 10:-1.08692 14:1 24:1 #
-10 1:-0.544182 2:-0.78321898 3:1.3217601 4:-0.129052 5:1.34786 6:-0.55036098 7:0.92827803 8:-1.93829 9:-1.97361 10:-0.64514202 13:1 47:1 #
1.764864466859712877067067893222 1:-2.1907301 2:0.78947401 3:1.5887901 4:-0.56189102 5:0.66175002 6:-0.521501 7:-1.98543 8:1.2989399 9:2.0243001 10:-0.860367 14:1 16:1 #
0.58674282419015133527295802196022 1:-0.75848299 2:-0.69386101 3:1.3217601 4:-0.467796 5:0.095711797 6:-0.75686997 7:1.11505 8:-1.78655 9:-2.10426 10:-1.12695 13:1 38:1 #
10 1:-0.97278398 2:-0.74747598 3:1.1882499 4:-0.67010099 5:-0.144425 6:-0.12195 7:1.00299 8:-1.73596 9:-1.89522 10:0.045846902 13:1 24:1 #
10 1:-2.4586 2:0.36949301 3:1.05474 4:-1.12646 5:-0.67615801 6:-0.47596601 7:-0.15502401 8:1.45068 9:0.69166398 10:-0.68894202 14:1 31:1 #
6.5158730822077073341347386303823 1:-2.2442999 2:-0.47940299 3:0.92122799 4:0.43081599 5:0.78181797 6:-1.23531 7:1.4139 8:-0.82549298 9:-1.76457 10:-0.87018502 14:1 17:1 #
-3.0354060413432510934228503174381 1:-2.1514399 2:-0.58663201 3:2.1228299 4:0.063843802 5:1.89674 6:-0.51765299 7:1.3765399 8:-2.3429401 9:-2.8359001 10:-1.35803 14:1 24:1 #
-10 1:-2.8764901 2:0.56607997 3:0.92122799 4:-1.12646 5:-0.67615801 6:-0.74083698 7:-0.75270802 8:1.55185 9:1.29266 10:-0.75313199 14:1 31:1 #
-10 1:-2.2621601 2:1.42391 3:0.12016 4:-1.12646 5:-0.57324201 6:-1.11089 7:-1.2009701 8:0.186141 9:1.16201 10:-1.2221 14:1 24:1 #
-10 1:-2.6979101 2:1.52221 3:0.92122799 4:-0.67010099 5:-0.315952 6:-0.749174 7:-1.79866 8:-0.62316602 9:1.10975 10:-0.63456899 14:1 24:1 #
7.7016584118730779806583086610772 1:-1.2763799 2:-0.99767703 3:1.4552701 4:-0.37369999 5:0.38730699 6:-1.29944 7:0.14381801 8:-2.3429401 9:-1.58166 10:-0.39064601 13:1 24:1 #
0.95881169665920729094921171054011 1:-2.5657499 2:-1.21213 3:-0.0133511 4:0.28496799 5:1.17633 6:-1.08331 7:-0.117669 8:-0.72433001 9:-0.22289 10:-1.44488 14:1 16:1 #
10 1:-0.854918 2:-1.2210701 3:0.253672 4:-0.75949198 5:-0.36741 6:-0.73698902 7:-0.229735 8:-1.02782 9:-0.30127999 10:-1.10958 13:1 38:1 #
-10 1:-2.01214 2:1.68305 3:1.4552701 4:-0.50543398 5:0.59313899 6:-1.34369 7:-1.8733701 8:-1.53364 9:0.561014 10:-1.37313 14:1 24:1 #
-10 1:-0.96564001 2:-0.79215401 3:-0.0133511 4:-0.703035 5:-0.144425 6:0.191021 7:0.77885699 8:-0.62316602 9:-0.95453399 10:-0.78409398 13:1 24:1 #
3.4675551805382349712658651696984 1:-1.53711 2:1.7634701 3:-0.146862 4:-0.98532099 5:-0.67615801 6:0.097386599 7:-0.60328698 8:-0.370258 9:0.37810299 10:-0.925313 13:1 24:1 #
10 1:-0.92992401 2:-0.264945 3:-0.81441897 4:-0.27019501 5:0.061406501 6:-0.070001602 7:0.853567 8:0.54021198 9:-0.30127999 10:0.092667997 13:1 24:1 #
-10 1:-2.00857 2:1.272 3:-0.413885 4:-1.12646 5:-0.71046299 6:-0.81458998 7:-0.90212899 8:0.64137602 9:1.18814 10:-0.710087 14:1 24:1 #
-10 1:-2.04072 2:-0.032615501 3:1.5887901 4:-0.95238799 5:-0.315952 6:-1.23531 7:1.0777 8:0.33788601 9:-1.08518 10:-0.54696798 14:1 18:1 #
-10 1:-1.73712 2:1.81709 3:1.3217601 4:0.14382499 5:1.10772 6:-1.04162 7:-1.31304 8:-1.78655 9:-0.013849 10:-0.55149901 14:1 24:1 #
-10 1:-2.55147 2:1.77241 3:2.6568799 4:-0.251376 5:1.3821599 6:-1.10576 7:-2.5831201 8:-3.3039999 9:-0.118369 10:-1.31423 14:1 24:1 #
-10 1:-2.44432 2:1.72773 3:2.52336 4:-0.75949198 5:-0.092967398 6:-1.40911 7:-2.5831201 8:-2.7981801 9:0.19519199 10:-0.89963698 14:1 24:1 #
1.273547275858319949293218087405 1:-1.30852 2:-0.77428299 3:-0.0133511 4:0.073253401 5:0.31869599 6:-1.12243 7:0.816212 8:-0.62316602 9:-0.95453399 10:-0.37403199 13:1 16:1 #
1.7142261587607035000502264665556 1:-1.72998 2:0.94138098 3:-1.08144 4:-0.68421501 5:-0.384563 6:-1.00378 7:-0.26708999 8:0.99544799 9:0.90070599 10:-0.64287603 14:1 24:1 #
-10 1:-2.42646 2:0.548208 3:-0.54739702 4:-0.703035 5:-0.487479 6:-1.34369 7:-0.117669 8:1.34952 9:0.87457502 10:-1.2424901 14:1 24:1 #
10 1:-1.86213 2:-0.60450399 3:-1.08144 4:0.32731101 5:0.747513 6:-0.690813 7:0.66679102 8:0.28730401 9:-0.24902 10:-0.95174402 14:1 20:1 #
-10 1:-2.21573 2:1.73666 3:1.98932 4:-0.56189102 5:0.91903901 6:-0.64912599 7:-2.17221 8:-2.2923601 9:0.24745201 10:-0.67081797 14:1 24:1 #
-10 1:-2.36217 2:-1.14958 3:3.1909201 4:-0.95238799 5:0.21578 6:-0.59461302 7:-1.31304 8:-4.5179601 9:-1.99974 10:-0.72594601 14:1 24:1 #
-10 1:-1.2192301 2:1.77241 3:-0.28037399 4:0.623712 5:-0.59039497 6:0.288504 7:-0.453866 8:-0.269095 9:0.351973 10:0.51254702 13:1 24:1 #
10 1:-1.27995 2:0.94138098 3:0.92122799 4:-0.279605 5:0.62744403 6:-0.83383 7:-1.83601 8:1.09661 9:1.9720401 10:-0.18825801 13:1 47:1 #
9.6737413353137018390270895906724 1:-0.62633002 2:-0.765347 3:1.05474 4:-0.129052 5:1.10772 6:-0.755588 7:0.96563298 8:-1.6348 9:-1.7907 10:-1.10807 13:1 47:1 #
10 1:-1.28352 2:-1.16746 3:-0.28037399 4:0.51550198 5:-0.35025701 6:-0.521501 7:0.069107197 8:-0.42084 9:-0.19676 10:-0.140682 13:1 25:1 #
-10 1:-1.41924 2:-1.1317101 3:0.12016 4:0.45434001 5:1.24494 6:-0.84537399 7:0.031752001 8:-0.87607503 9:-0.45806101 10:-0.67685902 13:1 24:1 #
5.6793393814877175529431951872539 1:-1.09779 2:1.17371 3:1.7223001 4:-0.420748 5:-0.230189 6:-0.48237899 7:-2.95667 8:0.13555899 9:2.2072101 10:-0.30002499 13:1 27:1 #
-10 1:-3.0014999 2:1.2809401 3:-0.28037399 4:-1.12646 5:-0.65900499 6:-0.79535002 7:-0.939484 8:0.64137602 9:1.21427 10:-0.48126799 14:1 31:1 #
7.5805430449309687546133318392094 1:-2.6871901 2:-1.3908499 3:1.85581 4:-0.63716799 5:0.164322 6:-0.590765 7:-1.72394 8:-2.4441099 9:-0.17062999 10:-1.17981 14:1 24:1 #
10 1:-3.2693801 2:1.3971 3:1.85581 4:-0.98532099 5:-0.384563 6:-1.29944 7:-2.95667 8:-0.87607503 9:1.71074 10:-1.07257 14:1 24:1 #
-10 1:-2.56933 2:1.69198 3:2.52336 4:-0.19491901 5:0.86758101 6:-0.82677603 7:-2.8446 8:-2.7476001 9:0.40423301 10:-1.0597301 14:1 24:1 #
-10 1:-1.90856 2:-1.3014899 3:2.1228299 4:-0.467796 5:0.095711797 6:-1.11089 7:-1.46246 8:-2.9499199 9:-0.71936202 10:-0.65269297 14:1 24:1 #
-10 1:-2.3478799 2:1.66518 3:2.3898499 4:0.14853001 5:2.23979 6:-0.87230998 7:-2.6951799 8:-2.3935299 9:0.561014 10:-0.54394799 14:1 24:1 #
-10 1:-2.76934 2:-1.2657501 3:2.3898499 4:-0.105528 5:1.48508 6:-1.2212 7:-1.46246 8:-3.3545799 9:-0.98066401 10:-1.2591 14:1 24:1 #
10 1:-2.90149 2:1.16478 3:-0.413885 4:-0.75949198 5:-0.41886801 6:-1.36101 7:-0.86477399 8:0.84370297 9:1.2404 10:-0.99629998 14:1 24:1 #
2.0733764395932015034418327559251 1:-3.7658401 2:-1.36404 3:0.92122799 4:-0.56189102 5:0.130017 6:-1.43027 7:-0.939484 8:-1.43247 9:-0.0399791 10:-0.950234 14:1 16:1 #
4.0701680799868791282847269030754 1:-1.5513999 2:-1.06023 3:-1.61549 4:-0.41133901 5:-0.57324201 6:-1.4257801 7:0.25588301 8:0.54021198 9:0.221322 10:-0.178441 14:1 20:1 #
-10 1:-0.67276198 2:-0.74747598 3:-0.54739702 4:0.59077901 5:-0.092967398 6:0.208979 7:0.70414603 8:-0.11735 9:-0.536452 10:0.066991903 13:1 24:1 #
-10 1:-0.70133603 2:-0.91725498 3:-0.68090802 4:1.0095 5:-0.230189 6:0.15895499 7:0.51736999 8:-0.16793101 9:-0.37967101 10:0.048867598 13:1 24:1 #
-10 1:-1.25852 2:0.083549298 3:-1.21495 4:-0.129052 5:-0.74476802 6:-0.563829 7:0.44266 8:0.89428401 9:0.24745201 10:-0.73123199 13:1 16:1 #
8.2816360093252860963275452377275 1:-1.96928 2:-1.23894 3:2.79039 4:0.14382499 5:1.57084 6:-0.99480498 7:-1.57452 8:-3.91098 9:-1.29423 10:-0.96231699 14:1 24:1 #
-10 1:-2.7550499 2:-1.2032 3:2.9238999 4:-0.00672783 5:1.10772 6:-1.29495 7:-1.46246 8:-4.1132998 9:-1.5294 10:-0.99629998 14:1 24:1 #
-10 1:-2.4228899 2:-1.2657501 3:1.85581 4:0.651941 5:1.3307 6:-0.97877198 7:-1.16362 8:-2.7476001 9:-0.79775298 10:-0.72594601 14:1 24:1 #
10 1:-1.0085 2:-0.61343902 3:-0.0133511 4:-0.16669001 5:-0.264494 6:-0.035369601 7:1.0403399 8:-0.370258 9:-1.00679 10:0.159124 13:1 24:1 #
-3.695155305162186820666647690814 1:-0.64776099 2:-1.37298 3:0.65420598 4:-0.41133901 5:0.42161199 6:-0.542023 7:-0.82741898 8:-1.1795599 9:0.038411301 10:-0.80675 13:1 45:1 #
-10 1:-1.5049599 2:1.38817 3:0.253672 4:-0.279605 5:0.112864 6:-1.26096 7:-1.38775 8:0.186141 9:1.26653 10:-0.93286502 14:1 24:1 #
-10 1:-2.0335701 2:1.13797 3:0.38718301 4:-0.547777 5:-0.041509401 6:-1.3982 7:-1.57452 8:0.74253899 9:1.68461 10:-0.98648202 14:1 24:1 #
6.9196053410291629148787251324393 1:-2.2943101 2:-0.836833 3:-0.0133511 4:0.0026817201 5:1.24494 6:-0.90437698 7:0.70414603 8:-0.62316602 9:-0.87614298 10:-0.87320602 14:1 20:1 #
7.1957333450040561473315392504446 1:-1.68355 2:1.70092 3:0.92122799 4:-0.63716799 5:0.181475 6:-0.75045699 7:-1.46246 8:-1.12898 9:0.50875401 10:-1.20095 14:1 24:1 #
2.4918345480632959620947985968087 1:-1.25138 2:0.217586 3:1.4552701 4:-1.12646 5:-0.79622602 6:-0.18351801 7:0.293239 8:1.09661 9:0.0122812 10:0.137224 13:1 31:1 #
-10 1:-3.06936 2:-1.0870301 3:2.52336 4:-0.56189102 5:0.164322 6:-1.32573 7:-0.67799801 8:-3.7592299 9:-1.94748 10:-1.19718 14:1 24:1 #
-10 1:-1.59426 2:-0.97980499 3:2.3898499 4:0.129711 5:1.0048 6:-0.59589499 7:-0.080313802 8:-3.6074901 9:-2.3132999 10:-1.10429 13:1 24:1 #
-10 1:-0.92277998 2:-0.75641102 3:-0.0133511 4:-0.37369999 5:0.078559197 6:-0.25406399 7:0.853567 8:-0.62316602 9:-1.00679 10:-0.79315698 13:1 24:1 #
10 1:-2.4586 2:1.7634701 3:1.3217601 4:-0.67010099 5:0.49022299 6:-1.01661 7:-1.46246 8:-1.5842201 9:0.221322 10:-1.02877 14:1 24:1 #
-10 1:-1.9299901 2:0.968189 3:-0.54739702 4:-1.12646 5:-0.72761601 6:-1.2693 7:-0.60328698 8:1.09661 9:1.16201 10:-1.3029 14:1 24:1 #
10 1:-2.6479001 2:1.54008 3:2.6568799 4:-0.19491901 5:1.87959 6:-1.10576 7:-3.47964 8:-2.1912 9:1.18814 10:-0.82865 14:1 24:1 #
5.7985910099676036821847446844913 1:-2.86935 2:-1.09597 3:3.59146 4:-0.84417802 5:0.31869599 6:-1.20324 7:-1.2756799 8:-5.1755199 9:-2.5223401 10:-1.25155 14:1 24:1 #
-10 1:-2.44432 2:-1.06916 3:2.52336 4:-0.37369999 5:1.15918 6:-1.04483 7:-0.56593198 8:-3.8098099 9:-2.0258701 10:-1.15036 14:1 24:1 #
-10 1:-2.4728899 2:1.60263 3:2.6568799 4:0.035615101 5:1.79383 6:-0.78893697 7:-3.2555101 8:-2.54527 9:0.848445 10:-0.60134101 14:1 24:1 #
-10 1:-2.0585799 2:1.70986 3:2.1228299 4:0.651941 5:2.51424 6:-0.67606199 7:-2.3963399 8:-2.3935299 9:0.351973 10:-1.22361 14:1 24:1 #
-0.70979173884927049265058940363815 1:-0.80491501 2:-0.82789701 3:-0.81441897 4:1.42823 5:1.50223 6:-0.58627498 7:0.55472499 8:0.034395501 9:-0.30127999 10:0.48989201 11:1 26:1 #
10 1:-1.60497 2:-1.3908499 3:0.12016 4:-0.13846201 5:0.61029202 6:-1.02944 7:-0.56593198 8:-0.62316602 9:0.19519199 10:-1.16093 14:1 24:1 #
-10 1:-1.83713 2:0.95925301 3:0.65420598 4:-0.50543398 5:-0.264494 6:-1.33407 7:-1.64923 8:1.09661 9:1.86752 10:-0.91776103 14:1 24:1 #
-10 1:-1.6549799 2:0.79840899 3:0.92122799 4:-0.32194799 5:0.28439099 6:-1.2212 7:-1.4251 8:1.4001 9:1.78913 10:-1.39428 14:1 24:1 #
1.5035835017932903667770005995408 1:-3.1586499 2:-1.14958 3:2.1228299 4:-1.12646 5:-0.53893697 6:-1.24813 7:-0.71535301 8:-3.10167 9:-1.3987499 10:-1.24626 14:1 15:1 #
-1.0309518328296665146126542822458 1:-0.669191 2:-0.23813801 3:-0.28037399 4:-0.84417802 5:-0.89914203 6:-0.16235401 7:1.0403399 8:0.489631 9:-0.56258202 10:-0.72518998 13:1 24:1 #
0.92575952287221441316944492427865 1:-2.6371901 2:-1.35511 3:3.05741 4:-0.95238799 5:-0.315952 6:-0.98454398 7:-2.4336901 8:-4.0121398 9:-0.71936202 10:-0.67459399 14:1 24:1 #
1.8702669787801946554850474058185 1:-1.61569 2:1.0218 3:0.38718301 4:-0.063185103 5:0.59313899 6:-1.16476 7:-1.4251 8:1.04603 9:1.71074 10:-1.3089401 14:1 24:1 #
5.918261314069811263038900506217 1:-2.64433 2:-1.00661 3:2.79039 4:-0.420748 5:1.3307 6:-1.11089 7:-0.34180099 8:-4.0627198 9:-2.4439499 10:-0.82940501 14:1 24:1 #
-3.2054760024374582272344014199916 1:-1.16208 2:-0.970869 3:-0.68090802 4:0.38376901 5:2.2569499 6:-0.86204898 7:0.40530401 8:-0.16793101 9:-0.30127999 10:-0.707066 13:1 17:1 #
-0.30046494681892077505125371317263 1:-0.979927 2:-0.38111001 3:0.253672 4:0.43081599 5:-1.0878201 6:-0.69915003 7:1.26448 8:-0.11735 9:-1.16357 10:-0.60964799 11:1 37:1 #
2.1426879651022954220707106287591 1:-3.0086401 2:-1.18533 3:2.25634 4:0.28496799 5:0.21578 6:-0.96786898 7:-0.97684002 8:-3.3545799 9:-1.37262 10:-0.85734701 14:1 24:1 #
-10 1:-2.71577 2:-1.0423599 3:1.5887901 4:-0.547777 5:0.35300201 6:-0.86653799 7:-0.0056032902 8:-2.4441099 9:-1.50327 10:-0.28718701 14:1 24:1 #
3.3508452925030978164500083948951 1:-1.67998 2:1.04861 3:0.92122799 4:-0.32194799 5:0.28439099 6:-1.18721 7:-1.91072 8:0.89428401 9:1.94591 10:-1.31423 14:1 24:1 #
10 1:-2.9300699 2:-1.0870301 3:2.25634 4:0.035615101 5:0.59313899 6:-1.00763 7:-0.49122199 8:-3.3545799 9:-1.73844 10:-0.82940501 14:1 24:1 #
-10 1:-1.6656899 2:1.05755 3:1.3217601 4:-0.420748 5:0.33584899 6:-0.67221397 7:-2.32163 8:0.74253899 9:2.1288199 10:-0.97213399 14:1 24:1 #
-10 1:-2.2228701 2:0.99499601 3:0.65420598 4:0.78837901 5:0.49022299 6:-1.34369 7:-1.64923 8:1.04603 9:1.84139 10:-1.0114 14:1 24:1 #
10 1:-1.68355 2:-1.0870301 3:2.25634 4:-0.251376 5:0.64459699 6:-0.84409201 7:-0.49122199 8:-3.40516 9:-1.7907 10:-0.72065902 13:1 24:1 #
5.4874357456901314833430660655722 1:-1.50854 2:-1.01555 3:2.9238999 4:0.063843802 5:1.48508 6:-0.84280902 7:-0.416511 8:-4.2650499 9:-2.4962101 10:-0.74104899 13:1 18:1 #
-10 1:-1.26209 2:-0.99767703 3:2.25634 4:-0.41133901 5:0.55883402 6:-1.04547 7:-0.080313802 8:-3.40516 9:-2.1565199 10:-0.90265697 13:1 47:1 #
-10 1:-1.6085401 2:-1.10491 3:2.1228299 4:-0.82065398 5:-0.058662102 6:-1.13718 7:-0.56593198 8:-3.2534101 9:-1.63392 10:-0.531865 13:1 24:1 #
-10 1:-1.7907 2:-0.89044797 3:2.1228299 4:-0.67010099 5:0.14717001 6:-1.08716 7:0.40530401 8:-3.10167 9:-2.39169 10:-0.97213399 13:1 24:1 #
-10 1:-1.87642 2:-0.88151199 3:1.85581 4:-0.13846201 5:0.62744403 6:-1.08331 7:0.55472499 8:-2.6970201 9:-2.1826501 10:-0.55225497 14:1 24:1 #
10 1:-1.83356 2:1.4149801 3:1.3217601 4:0.651941 5:-0.59039497 6:-0.99416399 7:-2.28427 8:-0.471421 9:1.5017 10:-0.61568999 14:1 24:1 #
8.8054445479985794520416675368324 1:-2.5729001 2:-0.38111001 3:2.25634 4:-0.95238799 5:-0.17873099 6:-1.04483 7:1.56332 8:-1.53364 9:-2.6268599 10:-0.74784601 14:1 18:1 #
10 1:-1.3371 2:0.190778 3:0.12016 4:-1.12646 5:-0.79622602 6:-0.450313 7:0.51736999 8:1.19777 9:0.169062 10:0.62582397 13:1 18:1 #
-10 1:-2.35145 2:1.3256201 3:1.7223001 4:-0.56189102 5:0.30154401 6:-0.95183599 7:-2.8819599 8:-0.42084 9:1.86752 10:-1.25155 14:1 24:1 #
-10 1:-1.9871401 2:1.42391 3:1.7223001 4:-0.75949198 5:0.25008601 6:-0.82677603 7:-2.6951799 8:-0.82549298 9:1.55396 10:-0.61191398 14:1 24:1 #
10 1:-2.13358 2:-0.95299798 3:2.1228299 4:-0.75949198 5:0.28439099 6:-0.72608602 7:0.14381801 8:-3.2028301 9:-2.23491 10:-0.603607 14:1 24:1 #
-10 1:-1.44425 2:1.63837 3:-0.28037399 4:-0.68421501 5:-0.436021 6:-0.83703703 7:-0.67799801 8:-0.066767797 9:0.639404 10:0.158369 13:1 25:1 #
-10 1:-2.92292 2:-0.96193397 3:2.1228299 4:-1.0700099 5:-0.52178401 6:-0.71454197 7:0.106462 8:-3.1522501 9:-2.1565199 10:-0.74482501 14:1 24:1 #
-10 1:-3.09079 2:-0.86364001 3:2.1228299 4:-0.86770201 5:-0.333105 6:-1.3982 7:0.55472499 8:-3.05109 9:-2.4700799 10:-1.099 14:1 24:1 #
10 1:-2.9622099 2:1.03967 3:1.5887901 4:-0.16669001 5:0.044253901 6:-1.2539001 7:-2.62047 8:0.69195801 9:2.25947 10:-0.89208502 14:1 24:1 #
0.22082697083640745461252663517371 1:-0.92277998 2:-0.64918202 3:-1.34846 4:0.289673 5:-0.40171501 6:-0.037934899 7:0.48001501 8:0.489631 9:0.0122812 10:-0.18070699 13:1 46:1 #
-0.96754199183434330677755497163162 1:-1.84785 2:0.396301 3:1.5887901 4:-0.95238799 5:-0.230189 6:-0.65297401 7:-0.453866 8:1.45068 9:0.79618502 10:-0.860367 13:1 18:1 #
-10 1:-2.6693299 2:1.2809401 3:1.1882499 4:-0.16669001 5:0.747513 6:-1.02495 7:-2.3963399 8:-0.016186099 9:1.84139 10:-1.20926 14:1 24:1 #
10 1:-1.67998 2:0.90563798 3:1.1882499 4:-0.067889899 5:0.47307 6:-1.13718 7:-1.9480799 8:1.14719 9:2.0243001 10:-1.24626 14:1 24:1 #
5.9370254933982620215715542144608 1:-2.12287 2:-0.872576 3:1.5887901 4:0.53902602 5:1.15918 6:-1.21863 7:0.62943602 8:-2.3935299 9:-2.0258701 10:-0.82185298 14:1 17:1 #
-3.4470466491734494951515443972312 1:-0.73705298 2:0.932446 3:0.38718301 4:-0.84417802 5:-0.436021 6:-1.36742 7:-1.35039 8:1.19777 9:1.71074 10:0.226335 13:1 24:1 #
-10 1:-2.2228701 2:1.01287 3:1.1882499 4:0.38376901 5:0.66175002 6:-1.29944 7:-2.2095599 8:0.89428401 9:2.10269 10:-1.01895 14:1 24:1 #
1.9717399054466564489729307751986 1:-1.94428 2:-0.908319 3:0.65420598 4:-0.50543398 5:0.43876499 6:-1.11089 7:0.59208101 8:-1.33131 9:-1.24196 10:-1.12015 14:1 17:1 #
-10 1:-2.2228701 2:-1.11384 3:1.5887901 4:-0.75949198 5:0.45591801 6:-0.44005099 7:-0.34180099 8:-2.4946899 9:-1.2681 10:-0.87924701 14:1 24:1 #
-10 1:-2.3907399 2:-0.94406199 3:1.1882499 4:0.289673 5:0.62744403 6:-1.33279 7:0.40530401 8:-2.0394499 9:-1.60779 10:-0.325701 14:1 24:1 #
-4.2498757492805490088016995287035 1:-0.61204398 2:-1.3283 3:0.65420598 4:-0.56189102 5:-0.092967398 6:0.110855 7:-0.71535301 8:-1.28073 9:-0.092239402 10:-1.00763 13:1 38:1 #
-10 1:-1.70498 2:0.97712398 3:1.05474 4:-0.56189102 5:0.044253901 6:-1.28276 7:-1.98543 8:1.04603 9:2.0243001 10:-1.47282 14:1 24:1 #
10 1:-1.96928 2:-0.92619097 3:-0.146862 4:-1.26761 5:-0.79622602 6:-1.2507 7:0.51736999 8:-0.62316602 9:-0.71936202 10:-1.22285 14:1 24:1 #
4.9330775920300542480845251702704 1:-2.08358 2:-1.35511 3:1.05474 4:-0.251376 5:-0.50463098 6:-0.73763001 7:-1.01419 8:-1.5842201 9:-0.092239402 10:-1.33084 14:1 24:1 #
10 1:-2.24787 2:-0.94406199 3:1.3217601 4:-0.13846201 5:0.62744403 6:-0.86204898 7:0.36794901 8:-2.1912 9:-1.66005 10:-0.85961199 14:1 24:1 #
-10 1:-2.2228701 2:-0.908319 3:1.4552701 4:0.063843802 5:0.91903901 6:-0.71069402 7:0.48001501 8:-2.3429401 9:-1.86909 10:-0.75615299 14:1 24:1 #
3.7009198714283502162913919164566 1:-1.43353 2:-0.64024699 3:0.52069402 4:-0.95238799 5:-0.69331002 6:-0.52983803 7:1.15241 8:-0.92665702 9:-1.4771399 10:-1.01744 13:1 25:1 #
-1.2148154925844556473180091415998 1:-0.53346699 2:1.66518 3:-1.749 4:-1.26761 5:-0.79622602 6:-0.62026602 7:0.181173 8:0.69195801 9:0.37810299 10:-0.89661598 13:1 37:1 #
-10 1:-1.54425 2:-1.12278 3:1.7223001 4:-0.37369999 5:-0.00720412 6:-0.54074103 7:-0.453866 8:-2.64643 9:-1.29423 10:-1.14885 13:1 24:1 #
7.0334260076875594336343056056648 1:-2.7514801 2:-0.92619097 3:1.85581 4:-0.56189102 5:0.25008601 6:-0.98775101 7:0.36794901 8:-2.7476001 9:-2.07813 10:-0.82940501 14:1 19:1 #
0.76663450172770430945945463463431 1:-1.57283 2:-1.05129 3:-1.48198 4:-0.19491901 5:0.078559197 6:-1.03072 7:0.25588301 8:0.489631 9:0.19519199 10:-0.775787 13:1 16:1 #
-10 1:-2.23002 2:1.1201 3:1.7223001 4:-0.86770201 5:-0.29879901 6:-1.2622401 7:-2.80725 8:0.38846701 9:2.23334 10:-0.29473901 14:1 24:1 #
1.0981577511095856891643052222207 1:-2.6907599 2:1.79028 3:2.25634 4:-0.68421501 5:0.164322 6:-0.57601398 7:-2.0975001 8:-2.7476001 9:-0.092239402 10:-1.20095 14:1 24:1 #
-10 1:-0.97635502 2:-0.89044797 3:1.5887901 4:-0.98532099 5:-0.41886801 6:-0.63565803 7:0.55472499 8:-2.3935299 9:-1.94748 10:-0.647407 13:1 47:1 #
9.7734450096227121207448362838477 1:-0.85134703 2:1.31668 3:0.253672 4:-1.26761 5:-0.79622602 6:-0.78701299 7:-1.46246 8:0.33788601 9:1.42331 10:-0.42689499 13:1 34:1 #
-10 1:-2.28002 2:1.01287 3:2.3898499 4:-0.41133901 5:1.15918 6:-1.29944 7:-3.3675799 8:0.43904901 9:2.5207701 10:-0.420854 14:1 24:1 #
-10 1:-1.96214 2:1.272 3:2.1228299 4:-0.00672783 5:1.2964 6:-1.3000799 7:-3.2555101 8:-0.471421 9:2.10269 10:-0.803729 14:1 24:1 #
-10 1:-3.10865 2:0.94138098 3:1.85581 4:-0.67010099 5:0.33584899 6:-1.3840899 7:-2.6951799 8:0.89428401 9:2.3378601 10:-1.07408 14:1 24:1 #
-1.1241668120788008700117188709555 1:-0.451318 2:-0.91725498 3:0.52069402 4:-0.50543398 5:-0.144425 6:-0.58627498 7:0.55472499 8:-1.28073 9:-1.16357 10:0.64319301 13:1 38:1 #
10 1:-0.90135002 2:-0.57769603 3:-0.54739702 4:0.035615101 5:0.164322 6:-0.034728199 7:0.89092302 8:0.034395501 9:-0.614842 10:0.119099 13:1 46:1 #
-10 1:-3.06936 2:-0.89938301 3:1.98932 4:-0.467796 5:0.37015399 6:-1.11089 7:0.44266 8:-2.8993399 9:-2.26104 10:-0.94721299 14:1 20:1 #
1.2252107159294409743921505651088 1:-3.0229299 2:1.13797 3:1.7223001 4:0.035615101 5:-0.24734101 6:-1.23146 7:-2.8446 8:0.28730401 9:2.2072101 10:-0.92380202 14:1 24:1 #
-10 1:-1.81927 2:0.065677799 3:-1.08144 4:0.14382499 5:-0.62470001 6:-0.9249 7:0.51736999 8:0.944866 9:0.169062 10:-0.57793099 13:1 16:1 #
5.267631357265912583898170851171 1:-1.75498 2:0.33375001 3:-0.0133511 4:1.2024 5:0.98764998 6:-1.0025001 7:0.218528 8:1.34952 9:0.53488398 10:-0.53262001 14:1 20:1 #
0.20963498536133151617377734510228 1:-2.7372 2:-1.11384 3:3.9919901 4:-0.68421501 5:0.953345 6:-1.19683 7:-1.64923 8:-5.7319198 9:-2.6529901 10:-1.26212 14:1 24:1 #
-10 1:-1.8728499 2:1.45072 3:1.05474 4:-0.68421501 5:0.30154401 6:-0.89988798 7:-2.02279 8:-0.42084 9:1.37105 10:-0.52053702 14:1 24:1 #
3.3857945524557027106027362606255 1:-3.88728 2:-1.06023 3:0.65420598 4:-0.703035 5:-0.29879901 6:-1.44951 7:0.14381801 8:-1.43247 9:-0.92840302 10:-0.92229199 14:1 16:1 #
-10 1:-1.5764 2:1.33455 3:0.65420598 4:-0.44427201 5:0.061406501 6:-1.12628 7:-1.7613 8:0.13555899 9:1.52783 10:-1.01518 14:1 24:1 #
-6.0316018204164132399114350846503 1:-0.95135403 2:-0.65811801 3:-0.94793099 4:-0.50543398 5:-0.62470001 6:-1.35716 7:0.66679102 8:0.23672201 9:-0.27515 10:-0.67685902 13:1 25:1 #
-10 1:-2.1478701 2:-1.09597 3:-0.54739702 4:0.75544602 5:2.6686101 6:-0.68375802 7:0.218528 8:-0.269095 9:-0.19676 10:-1.02273 14:1 20:1 #
0.8687740676102343462261501372268 1:-3.7694099 2:-0.93512601 3:1.5887901 4:-0.95238799 5:-0.281647 6:-1.40333 7:0.36794901 8:-2.4441099 9:-1.84296 10:-0.95854098 14:1 15:1 #
10 1:-1.73355 2:1.1201 3:1.1882499 4:-0.36429101 5:0.21578 6:-1.18015 7:-2.32163 8:0.59079403 9:2.0504301 10:-1.29006 14:1 24:1 #
0.10184751313938400496539316009148 1:-2.44789 2:0.92351002 3:1.98932 4:-0.95238799 5:-0.092967398 6:-0.67991 7:-2.6951799 8:0.944866 9:2.3378601 10:-1.12921 14:1 16:1 #
10 1:-1.5406801 2:0.440979 3:-0.146862 4:-1.12646 5:-0.79622602 6:-0.764566 7:-0.0056032902 8:1.4001 9:0.770055 10:-0.461633 13:1 18:1 #
-10 1:-1.21566 2:-0.68492502 3:-0.81441897 4:-1.12646 5:-0.81337899 6:-0.90886599 7:0.70414603 8:0.13555899 9:-0.37967101 10:-0.25924501 13:1 47:1 #
-10 1:-1.75141 2:1.22733 3:0.92122799 4:-0.420748 5:0.62744403 6:-0.999295 7:-2.0975001 8:0.33788601 9:1.8152601 10:-0.33023199 14:1 24:1 #
10 1:-1.27995 2:-1.0781 3:0.12016 4:0.0120913 5:0.93619198 6:-0.34898201 7:0.181173 8:-0.87607503 9:-0.56258202 10:-0.84677398 13:1 24:1 #
9.7212929352046053566027694614604 1:-1.7907 2:-0.95299798 3:-0.68090802 4:1.08008 5:2.4284699 6:-0.92105198 7:0.44266 8:-0.16793101 9:-0.35354099 10:-0.72065902 14:1 20:1 #
3.468156249849510874838642848772 1:-3.0443599 2:-0.88151199 3:1.98932 4:-1.12646 5:-0.59039497 6:-1.17502 7:0.48001501 8:-2.8993399 9:-2.2871699 10:-0.89963698 14:1 24:1 #
-10 1:-3.1586499 2:-1.09597 3:1.85581 4:-1.12646 5:-0.93344802 6:-1.22697 7:-0.34180099 8:-2.7981801 9:-1.4771399 10:-0.969868 14:1 24:1 #
10 1:-0.92277998 2:1.56688 3:-0.68090802 4:-1.26761 5:-0.79622602 6:-0.73057598 7:-0.453866 8:0.33788601 9:0.69166398 10:-0.489575 13:1 37:1 #
2.5854203934983601698149868752807 1:-1.56568 2:1.7456 3:1.3217601 4:-0.95238799 5:-0.88199002 6:-0.734424 7:-1.6118799 8:-1.6348 9:0.29971299 10:-0.169379 13:1 24:1 #
8.9942920767547569482758262893185 1:-1.8835599 2:0.932446 3:0.65420598 4:-0.703035 5:0.130017 6:-1.15321 7:-1.57452 8:1.19777 9:1.84139 10:-1.20095 14:1 24:1 #
-10 1:-2.0692899 2:1.45072 3:1.4552701 4:-1.12646 5:-0.50463098 6:-0.83511299 7:-2.4336901 8:-0.72433001 9:1.44944 10:-0.58472699 14:1 24:1 #
5.3723774457558306494320277124643 1:-3.0515001 2:-1.10491 3:1.4552701 4:0.43081599 5:-0.092967398 6:-1.27314 7:-0.26708999 8:-2.2923601 9:-1.1897 10:-0.791646 14:1 19:1 #
10 1:-0.84777498 2:-0.92619097 3:-0.146862 4:0.308492 5:-0.88199002 6:-1.01276 7:0.55472499 8:-0.57258499 9:-0.66710198 10:-1.26439 13:1 24:1 #
-10 1:-3.1908 2:1.36136 3:0.92122799 4:-1.0700099 5:-0.76192099 6:-1.00378 7:-2.02279 8:-0.066767797 9:1.55396 10:-0.97364402 14:1 24:1 #
-3.814525675051143593918823171407 1:-2.2514501 2:0.583951 3:1.7223001 4:-0.279605 5:0.88473397 6:-0.90501797 7:-1.35039 8:1.50126 9:1.52783 10:-1.13752 14:1 20:1 #
7.2469327354732939738823915831745 1:-3.2586601 2:-1.12278 3:2.6568799 4:-0.86770201 5:0.112864 6:-1.4110301 7:-0.86477399 8:-3.91098 9:-1.86909 10:-1.1775399 14:1 24:1 #
4.8013978680806310705975192831829 1:-1.8728499 2:0.181843 3:-0.146862 4:-0.84417802 5:-0.77907401 6:-1.19875 7:0.51736999 8:1.19777 9:0.19519199 10:-0.447285 14:1 20:1 #
-0.58891295735443716097279320820235 1:-0.51560801 2:-1.28362 3:-0.0133511 4:1.51291 5:0.696055 6:0.456534 7:-0.26708999 8:-0.62316602 9:-0.0399791 10:-0.400464 13:1 46:1 #
4.5807395575787168695569562260062 1:-1.63712 2:-0.64918202 3:1.3217601 4:-0.00672783 5:1.0391099 6:-0.98967499 7:1.22712 8:-1.6348 9:-2.07813 10:-0.778808 13:1 24:1 #
10 1:-0.94778198 2:1.79028 3:-0.68090802 4:-0.84417802 5:-0.72761601 6:-0.20147499 7:-0.26708999 8:0.034395501 9:0.351973 10:0.467237 13:1 25:1 #
-10 1:-2.2943101 2:-0.93512601 3:0.52069402 4:-0.50543398 5:0.26723799 6:-1.06407 7:0.51736999 8:-1.23015 9:-1.08518 10:-1.0197099 14:1 24:1 #
0.27979063961898797963101515051676 1:-2.4086001 2:-1.0423599 3:1.5887901 4:-0.98532099 5:-0.264494 6:-0.82677603 7:-0.080313802 8:-2.59585 9:-1.55553 10:-0.87698102 14:1 24:1 #
-0.3151499287858796627403989987215 1:-0.00128581 2:1.0218 3:-1.34846 4:0.289673 5:1.50223 6:0.024915799 7:-0.080313802 8:0.89428401 9:0.71779501 10:-0.0311813 13:1 46:1 #
-4.8636969577096937911164786783047 1:-2.85149 2:0.0120633 3:2.25634 4:-0.98532099 5:-0.36741 6:-1.31675 7:0.89092302 8:0.13555899 9:-1.2681 10:-1.11562 14:1 15:1 #
1.7874164674591668244829634204507 1:-3.1157899 2:-0.55088902 3:2.1228299 4:-0.56189102 5:-0.161578 6:-1.37255 7:1.45125 8:-2.24178 9:-2.8359001 10:-1.1435601 14:1 24:1 #
8.5466260340900692682453154702671 1:-2.6764801 2:-1.14065 3:1.3217601 4:0.713103 5:1.9482 6:-1.19683 7:-0.37915599 8:-2.1912 9:-1.03292 10:-1.35803 14:1 24:1 #
-10 1:-3.2836599 2:-0.93512601 3:1.98932 4:-0.86770201 5:-0.11012 6:-1.23787 7:0.293239 8:-2.8993399 9:-2.1303899 10:-0.97213399 14:1 24:1 #
-2.9093923102691774396078017161926 1:-2.9300699 2:-0.48833901 3:2.3898499 4:-0.75949198 5:0.25008601 6:-1.0570101 7:1.52596 8:-2.1912 9:-2.9404199 10:-1.46376 14:1 17:1 #
9.4409455346134194542173645459116 1:-2.7622001 2:1.3971 3:0.78771698 4:-0.16669001 5:1.39931 6:-1.15321 7:-1.91072 8:-0.16793101 9:1.44944 10:-0.90492302 14:1 24:1 #
8.4111379561721548725472530350089 1:-3.1336501 2:1.38817 3:0.92122799 4:-0.00672783 5:0.64459699 6:-1.18977 7:-2.02279 8:-0.16793101 9:1.5017 10:-0.96684802 14:1 24:1 #
-10 1:-2.9514999 2:1.34349 3:0.65420598 4:0.308492 5:1.31355 6:-1.26096 7:-1.83601 8:0.084977202 9:1.52783 10:-1.01895 14:1 24:1 #
6.655637994127737044891546247527 1:-1.30138 2:-1.23001 3:-0.94793099 4:-0.98532099 5:-0.96775299 6:-0.069360301 7:0.106462 8:0.13555899 9:0.142932 10:-0.99629998 13:1 24:1 #
-10 1:-2.44432 2:0.38736501 3:-0.28037399 4:-0.84417802 5:-0.57324201 6:-1.3295799 7:0.106462 8:1.34952 9:0.66553402 10:-1.23116 14:1 24:1 #
-10 1:-2.0442901 2:-1.12278 3:-0.68090802 4:0.651941 5:1.69091 6:-0.542665 7:0.218528 8:-0.16793101 9:-0.118369 10:-0.950234 14:1 20:1 #
2.1872626662835905619886034401134 1:-1.82999 2:0.25332901 3:-0.68090802 4:-1.12646 5:-0.77907401 6:-0.32781801 7:0.36794901 8:1.19777 9:0.37810299 10:-1.36709 13:1 16:1 #
-10 1:-3.3550999 2:-0.81002599 3:1.85581 4:-1.26761 5:-0.79622602 6:-1.3295799 7:0.77885699 8:-2.59585 9:-2.3394301 10:-0.95174402 14:1 15:1 #
10 1:-1.9871401 2:1.40604 3:1.85581 4:-0.98532099 5:-0.29879901 6:-1.09614 7:-2.99402 8:-0.92665702 9:1.65848 10:-0.55300999 14:1 24:1 #
10 1:-1.66212 2:0.092485003 3:1.5887901 4:-1.26761 5:-0.79622602 6:-0.115536 7:0.70414603 8:0.74253899 9:-0.56258202 10:-0.86565399 13:1 18:1 #
10 1:-3.17294 2:-0.559825 3:1.85581 4:-1.12646 5:-0.67615801 6:-1.18015 7:1.4139 8:-1.98887 9:-2.6268599 10:-1.04916 14:1 17:1 #
9.7352784279836157566023757681251 1:-2.4728899 2:1.22733 3:2.9238999 4:-0.19491901 5:-0.47032601 6:-0.91463798 7:-4.2267499 8:-0.87607503 9:2.41625 10:-0.77050102 14:1 24:1 #
1.7054735992125937826813242281787 1:-1.2192301 2:0.36949301 3:0.52069402 4:-1.26761 5:-0.79622602 6:-0.178387 7:0.031752001 8:1.45068 9:0.66553402 10:0.12891699 13:1 31:1 #
0.98304131933841887303060502745211 1:-2.0764301 2:-0.34536701 3:0.12016 4:0.50138801 5:0.19862799 6:-1.18015 7:1.22712 8:0.084977202 9:-0.98066401 10:-0.597565 14:1 17:1 #
-10 1:-2.3157401 2:-0.68492502 3:1.7223001 4:-0.98532099 5:-0.436021 6:-0.67798603 7:1.15241 8:-2.14062 9:-2.41782 10:-0.841488 14:1 17:1 #
-10 1:-2.59076 2:-0.595568 3:1.85581 4:-1.12646 5:-0.59039497 6:-0.73763001 7:1.33919 8:-2.0394499 9:-2.5746 10:-1.12695 14:1 18:1 #
8.3593735781033267073780734790489 1:-2.5871799 2:1.7456 3:1.7223001 4:-0.63716799 5:0.26723799 6:-0.50674999 7:-1.91072 8:-2.09004 9:0.221322 10:-1.2372 14:1 24:1 #
1.9186823016838516764437372330576 1:-2.76577 2:-0.65811801 3:1.7223001 4:-1.12646 5:-0.436021 6:-0.64912599 7:1.22712 8:-2.0394499 9:-2.41782 10:-1.09372 14:1 16:1 #
4.1849488385196256245990298339166 1:-3.1979401 2:-0.73853999 3:1.7223001 4:-1.26761 5:-0.79622602 6:-1.18015 7:1.00299 8:-2.3935299 9:-2.41782 10:-1.05822 14:1 28:1 #
3.5324196443803574929631849954603 1:-2.7300501 2:-0.68492502 3:1.85581 4:-0.68421501 5:-1.31081 6:-0.94927001 7:1.15241 8:-2.3935299 9:-2.6007299 10:-0.79768801 14:1 19:1 #
10 1:-2.6764801 2:-0.75641102 3:2.6568799 4:-1.12646 5:-0.47032601 6:-1.2135 7:0.816212 8:-3.5569 9:-3.1494601 10:-0.78636003 14:1 15:1 #
0.75921874744448292204879180644639 1:-2.90149 2:-1.31043 3:1.05474 4:-1.12646 5:-0.57324201 6:-0.69915003 7:-0.86477399 8:-1.73596 9:-0.30127999 10:-1.10958 14:1 24:1 #
-10 1:-1.08351 2:-0.89044797 3:-0.0133511 4:-0.37369999 5:-0.230189 6:-0.0026615399 7:0.59208101 8:-0.62316602 9:-0.77162302 10:-0.67459399 13:1 24:1 #
-10 1:-3.01579 2:1.45072 3:1.7223001 4:-0.86770201 5:-0.264494 6:-1.31419 7:-2.65783 8:-0.92665702 9:1.47557 10:-1.07257 14:1 24:1 #
10 1:-1.64783 2:1.54901 3:0.65420598 4:-0.95238799 5:-0.45317301 6:-1.31804 7:-1.49981 8:-0.471421 9:0.979096 10:-0.30908701 14:1 24:1 #
5.1511593352700657533205230720341 1:-2.4514599 2:-0.27388099 3:0.78771698 4:-0.41133901 5:-0.35025701 6:-0.63950598 7:1.3765399 8:-0.11735 9:-1.34649 10:-1.1073101 14:1 16:1 #
10 1:-1.0477901 2:0.52140099 3:-1.61549 4:-1.26761 5:-0.79622602 6:-0.24252 7:0.181173 8:0.84370297 9:0.45649299 10:-0.154275 13:1 31:1 #
10 1:-3.31581 2:-1.03342 3:2.25634 4:-0.56189102 5:-0.041509401 6:-1.19683 7:-0.229735 8:-3.3545799 9:-1.97361 10:-1.07786 14:1 24:1 #
4.1494779312013925220981036545709 1:-1.17637 2:1.44178 3:-0.28037399 4:-0.63716799 5:-0.281647 6:-1.09934 7:-0.90212899 8:0.33788601 9:1.0052299 10:-0.53110999 13:1 24:1 #
10 1:-3.1050799 2:-1.14065 3:1.85581 4:-1.12646 5:-0.53893697 6:-1.23531 7:-0.60328698 8:-2.7981801 9:-1.29423 10:-1.24551 14:1 24:1 #
-10 1:-3.75155 2:-1.24788 3:1.85581 4:-1.26761 5:-0.79622602 6:-1.46875 7:-1.05155 8:-2.7476001 9:-0.85001302 10:-1.1073101 14:1 15:1 #
7.2014409626323647728440846549347 1:-1.2228 2:1.70986 3:0.253672 4:-0.98532099 5:-0.69331002 6:-0.235466 7:-0.90212899 8:-0.57258499 9:0.50875401 10:0.51632297 13:1 38:1 #
8.1281112608465857505279927863739 1:-2.9514999 2:-1.06916 3:1.4552701 4:-1.26761 5:-0.79622602 6:-1.29944 7:-0.117669 8:-2.4441099 9:-1.3987499 10:-0.84224302 14:1 24:1 #
-10 1:-2.5978999 2:1.35243 3:2.1228299 4:0.129711 5:1.89674 6:-0.531762 7:-3.2555101 8:-0.82549298 9:1.8936501 10:-0.82638401 14:1 24:1 #
10 1:-3.09079 2:-1.2032 3:1.4552701 4:0.43081599 5:3.4061699 6:-1.29238 7:-0.67799801 8:-2.2923601 9:-0.85001302 10:-0.81430203 14:1 19:1 #
-10 1:-3.33724 2:-0.836833 3:1.4552701 4:0.0120913 5:0.30154401 6:-1.2693 7:0.74150199 8:-2.14062 9:-1.97361 10:-1.35954 14:1 19:1 #
9.261372058424022668532415991649 1:-0.59418499 2:-1.23001 3:1.4552701 4:0.120301 5:1.99966 6:-0.71261799 7:-0.75270802 8:-2.2923601 9:-0.77162302 10:-1.03934 13:1 47:1 #
8.9390694975459492610525558120571 1:-0.94420999 2:1.42391 3:-1.749 4:-0.68421501 5:-0.71046299 6:-0.228411 7:0.14381801 8:0.69195801 9:0.430363 10:0.45364299 13:1 16:1 #
-10 1:-0.30130699 2:1.3703001 3:-0.28037399 4:0.0120913 5:1.05626 6:-0.19762699 7:-0.97684002 8:0.43904901 9:1.13588 10:-0.86716402 13:1 45:1 #
10 1:-2.4836099 2:1.30775 3:1.85581 4:-0.13846201 5:2.2054901 6:-1.03842 7:-3.0313799 8:-0.522003 9:1.94591 10:-0.73953903 14:1 24:1 #
10 1:-2.05143 2:-0.81896198 3:1.1882499 4:-0.56189102 5:0.55883402 6:-0.76392502 7:0.816212 8:-1.88771 9:-1.84296 10:-0.58246201 14:1 20:1 #
1.5695001655479312585583784311893 1:-2.0264299 2:-0.61343902 3:1.05474 4:-0.86770201 5:-0.281647 6:-1.0570101 7:1.26448 8:-1.33131 9:-1.94748 10:-0.34231499 14:1 20:1 #
-10 1:-2.6693299 2:0.235457 3:1.05474 4:-1.26761 5:-0.79622602 6:-0.548437 7:0.293239 8:1.24836 9:0.169062 10:-0.80675 14:1 31:1 #
-10 1:-2.68362 2:1.3971 3:1.85581 4:-0.067889899 5:1.48508 6:-0.520859 7:-2.8819599 8:-0.82549298 9:1.65848 10:-0.85583597 14:1 24:1 #
-10 1:-2.00857 2:1.26307 3:1.98932 4:0.43081599 5:1.9482 6:-1.00827 7:-3.1808 8:-0.370258 9:2.10269 10:-1.26212 14:1 24:1 #
-10 1:-1.9299901 2:-0.58663201 3:-0.81441897 4:-0.420748 5:0.59313899 6:-0.76969701 7:0.74150199 8:0.23672201 9:-0.35354099 10:-0.82940501 14:1 20:1 #
-2.4736542980633156041392339830054 1:-0.094149597 2:1.60263 3:0.12016 4:1.16947 5:1.51938 6:0.55145103 7:-0.97684002 8:-0.218513 9:0.770055 10:-0.96684802 13:1 24:1 #
3.8404046376649292326987961132545 1:-1.98357 2:1.25413 3:0.38718301 4:-0.68421501 5:0.232933 6:-0.93644398 7:-1.57452 8:0.489631 9:1.55396 10:-0.27510399 14:1 20:1 #
4.6135337423305475823553933878429 1:-1.71927 2:0.56607997 3:-0.94793099 4:0.84954101 5:2.7715299 6:-0.806894 7:-0.0056032902 8:1.19777 9:0.74392498 10:-1.01895 14:1 24:1 #
-10 1:-2.6693299 2:1.37923 3:2.52336 4:-0.32194799 5:0.83327597 6:-0.83383 7:-3.62906 8:-1.28073 9:1.86752 10:-0.588503 14:1 24:1 #
-10 1:-2.9157801 2:1.28988 3:2.52336 4:-0.56189102 5:0.42161199 6:-0.66002899 7:-3.7037699 8:-0.82549298 9:2.1549499 10:-1.0559601 14:1 24:1 #
10 1:-2.6907599 2:-1.1763901 3:3.59146 4:-0.547777 5:1.17633 6:-1.2058001 7:-1.7613 8:-5.2261 9:-2.1303899 10:-1.28176 14:1 24:1 #
-10 1:-3.05865 2:-1.02448 3:3.59146 4:-0.86770201 5:0.164322 6:-0.84537399 7:-0.82741898 8:-5.2261 9:-2.91429 10:-1.1775399 14:1 24:1 #
2.1932608588186166542755017871968 1:-1.20137 2:1.73666 3:4.39252 4:-0.50543398 5:0.45591801 6:-0.40221301 7:-4.4135199 8:-5.4284301 9:-0.35354099 10:-0.39064601 13:1 27:1 #
3.2712200462709803971961264323909 1:-0.94063902 2:1.1469001 3:4.39252 4:-0.50543398 5:1.55369 6:-0.36437401 7:-5.9077301 8:-1.73596 9:2.75594 10:-0.43067101 13:1 27:1 #
-10 1:-2.49789 2:1.52221 3:2.1228299 4:-0.24196699 5:0.901887 6:-1.0422601 7:-2.99402 8:-1.6348 9:1.2404 10:-1.04161 14:1 24:1 #
10 1:-1.2299401 2:-1.24788 3:1.05474 4:-0.27019501 5:0.35300201 6:-1.26096 7:-0.640643 8:-1.83713 9:-0.536452 10:-0.48126799 13:1 24:1 #
-10 1:-2.8943501 2:-1.14958 3:3.4579401 4:0.120301 5:0.88473397 6:-1.23531 7:-1.49981 8:-4.9731898 9:-2.1826501 10:-1.20926 14:1 24:1 #
9.6040713636469092762126820161939 1:-1.0477901 2:-0.89044797 3:-1.48198 4:-1.12646 5:-0.81337899 6:-0.236748 7:0.36794901 8:0.43904901 9:0.090671502 10:-0.171645 13:1 31:1 #
0.50888200752807510873765295400517 1:-2.6871901 2:1.43285 3:2.3898499 4:-0.420748 5:1.39931 6:-1.09614 7:-3.3675799 8:-1.3818901 9:1.63235 10:-0.81279099 14:1 24:1 #
0.47000494537291004348844580817968 1:-1.72998 2:-0.50621003 3:-0.68090802 4:-1.12646 5:-0.74476802 6:-1.2212 7:0.853567 8:0.23672201 9:-0.45806101 10:-0.51072001 14:1 20:1 #
10 1:-2.5264699 2:-0.16665199 3:0.12016 4:-0.75949198 5:-0.041509401 6:-0.51380497 7:1.11505 8:0.489631 9:-0.693232 10:-1.19038 14:1 24:1 #
8.6547491208041193999633833300322 1:-0.57989901 2:-1.31936 3:0.38718301 4:-0.36429101 5:-0.95060003 6:-0.68375802 7:-0.56593198 8:-1.02782 9:-0.066109203 10:0.0450917 13:1 27:1 #
1.0627244459842923873793552047573 1:-3.06936 2:-1.2568099 3:2.6568799 4:-0.251376 5:1.2964 6:-1.35716 7:-1.64923 8:-3.7592299 9:-1.16357 10:-1.12921 14:1 24:1 #
-10 1:-2.6586201 2:1.50433 3:0.92122799 4:-1.26761 5:-0.79622602 6:-1.2455699 7:-1.83601 8:-0.522003 9:1.16201 10:-0.55754101 14:1 30:1 #
10 1:-2.97293 2:-1.2032 3:2.52336 4:0.14853001 5:0.38730699 6:-0.98390299 7:-1.2009701 8:-3.6074901 9:-1.37262 10:-0.83242601 14:1 24:1 #
-10 1:-0.62633002 2:1.20052 3:-1.21495 4:-1.26761 5:-0.79622602 6:-0.19441999 7:-0.229735 8:0.79312098 9:0.770055 10:-0.032691699 13:1 37:1 #
-10 1:-2.0692899 2:-0.80109 3:-0.146862 4:-1.26761 5:-0.79622602 6:-1.0801001 7:0.74150199 8:-0.522003 9:-0.85001302 10:-0.83695698 14:1 16:1 #
10 1:-2.84077 2:1.36136 3:2.6568799 4:-0.84417802 5:0.21578 6:-1.10255 7:-3.7784801 8:-1.28073 9:1.94591 10:-0.81581199 14:1 24:1 #
-10 1:-2.83006 2:1.4149801 3:2.79039 4:-0.75949198 5:0.747513 6:-1.35331 7:-3.96526 8:-1.78655 9:1.763 10:-0.99856502 14:1 24:1 #
2.8525415319378799594574047659989 1:-3.01579 2:1.4596601 3:1.85581 4:-0.63716799 5:0.47307 6:-1.19683 7:-2.7698901 8:-1.0784 9:1.47557 10:-0.981951 14:1 24:1 #
5.7207042628005320139550349267665 1:-2.28002 2:-0.72960401 3:0.253672 4:-0.37369999 5:0.19862799 6:-0.82228601 7:0.92827803 8:-0.82549298 9:-1.24196 10:-0.87924701 14:1 19:1 #
10 1:-3.11222 2:1.29881 3:1.7223001 4:-0.75949198 5:0.044253901 6:-1.2212 7:-2.8446 8:-0.31967601 9:1.91978 10:-1.03028 14:1 24:1 #
-10 1:-2.5479 2:-1.18533 3:1.3217601 4:0.204987 5:1.09057 6:-0.67478001 7:-0.49122199 8:-2.09004 9:-0.823883 10:-0.94721299 14:1 24:1 #
-10 1:-2.6800499 2:1.38817 3:2.25634 4:-0.95238799 5:-0.161578 6:-1.13975 7:-3.3675799 8:-1.12898 9:1.8152601 10:-0.46994001 14:1 24:1 #
-10 1:-3.31938 2:1.30775 3:1.98932 4:-1.12646 5:-0.47032601 6:-1.45272 7:-3.0687301 8:-0.522003 9:1.94591 10:-0.99629998 14:1 24:1 #
10 1:-2.6264701 2:-1.19426 3:1.7223001 4:0.72721702 5:2.1883399 6:-1.19426 7:-0.71535301 8:-2.54527 9:-0.98066401 10:-1.35199 14:1 24:1 #
10 1:-1.80141 2:-0.75641102 3:0.92122799 4:1.13653 5:1.15918 6:-1.02495 7:0.96563298 8:-1.43247 9:-1.66005 10:-0.43595701 14:1 24:1 #
10 1:-3.0550799 2:-0.702797 3:2.3898499 4:-0.420748 5:0.095711797 6:-1.35331 7:1.0403399 8:-3.05109 9:-3.01881 10:-1.1586601 14:1 24:1 #
-10 1:-2.8443501 2:-1.16746 3:1.98932 4:1.13183 5:2.68576 6:-1.15321 7:-0.79006398 8:-3.05109 9:-1.29423 10:-1.20548 14:1 19:1 #
10 1:-2.8979199 2:1.37923 3:2.1228299 4:-0.98532099 5:-0.281647 6:-1.1031899 7:-3.2181499 8:-0.977238 9:1.78913 10:-0.81581199 14:1 24:1 #
2.1425255103425229208369273692369 1:-1.4263901 2:-1.21213 3:2.1228299 4:-0.547777 5:0.232933 6:-0.35282999 7:-1.08891 8:-3.1522501 9:-1.13744 10:-0.803729 13:1 24:1 #
-10 1:-2.3336 2:1.30775 3:2.1228299 4:0.14382499 5:-0.89914203 6:-1.16668 7:-3.2555101 8:-0.62316602 9:1.99817 10:-1.00536 14:1 24:1 #
2.6786649789689902512179742188891 1:-3.15151 2:-0.85470498 3:3.1909201 4:-0.98532099 5:-0.024356799 6:-1.27571 7:0.25588301 8:-4.46737 9:-3.7243299 10:-1.26816 14:1 15:1 #
10 1:-2.72648 2:1.12903 3:1.85581 4:-0.703035 5:0.54168099 6:-1.06279 7:-2.95667 8:0.28730401 9:2.25947 10:-0.77050102 14:1 24:1 #
3.7507400427524704156212465022691 1:-0.77276897 2:-1.27469 3:0.12016 4:0.37906399 5:1.4679199 6:-0.42017001 7:-0.304445 8:-0.77491099 9:-0.118369 10:0.394739 13:1 24:1 #
-10 1:-3.5408199 2:1.4596601 3:1.4552701 4:-0.82065398 5:0.130017 6:-1.4110301 7:-2.47105 8:-0.82549298 9:1.39718 10:-1.12392 14:1 24:1 #
10 1:-1.98357 2:-1.31043 3:2.52336 4:0.14382499 5:1.50223 6:-1.00571 7:-1.83601 8:-3.45574 9:-0.79775298 10:-0.98421699 14:1 24:1 #
-10 1:-1.89785 2:-0.97980499 3:0.78771698 4:0.52961701 5:1.69091 6:-1.21286 7:0.36794901 8:-1.53364 9:-1.16357 10:-0.71537298 14:1 25:1 #
-10 1:-2.2514501 2:-1.3908499 3:1.98932 4:0.426112 5:1.3307 6:-0.74532598 7:-1.7613 8:-2.54527 9:-0.19676 10:-1.37993 14:1 24:1 #
2.3926432601810194711333679151721 1:-2.7336199 2:-1.28362 3:-0.54739702 4:0.063843802 5:0.901887 6:-1.20645 7:-0.080313802 8:-0.16793101 9:0.090671502 10:-0.95854098 14:1 24:1 #
7.5039776559518234222423416213132 1:-1.96214 2:1.07542 3:-0.413885 4:-0.44427201 5:-0.161578 6:-1.11217 7:-0.79006398 8:0.944866 9:1.26653 10:-0.47824699 14:1 25:1 #
10 1:-2.31217 2:-0.184523 3:-0.54739702 4:-0.68421501 5:0.30154401 6:-0.912714 7:0.89092302 8:0.64137602 9:-0.30127999 10:-0.70102501 14:1 25:1 #
-0.19141318753898106663768885482568 1:-0.54775298 2:-1.14065 3:0.253672 4:-1.12646 5:-0.55608898 6:-0.79727399 7:-0.0056032902 8:-0.977238 9:-0.484191 10:-0.76521498 13:1 42:1 #
-10 1:-0.56918401 2:-1.02448 3:-1.34846 4:-0.703035 5:-0.62470001 6:-0.58306903 7:0.293239 8:0.33788601 9:0.090671502 10:0.35093901 13:1 34:1 #
0.72134314941335464510530073312111 1:-2.6871901 2:-0.79215401 3:2.3898499 4:-0.95238799 5:-0.36741 6:-1.07305 7:0.74150199 8:-3.2534101 9:-2.8359001 10:-0.78031898 14:1 18:1 #
-0.098618029294249481830902936962957 1:0.44517499 2:1.18265 3:1.05474 4:1.84225 5:3.8864501 6:-0.293827 7:-2.13485 8:0.43904901 9:1.8936501 10:-0.969868 13:1 27:1 #
-2.5785517941083577753147437761072 1:-2.2728801 2:0.110357 3:-0.68090802 4:-0.36429101 5:0.0271012 6:-1.11089 7:0.59208101 8:1.04603 9:0.142932 10:-0.92757797 14:1 18:1 #
7.5327869689481072867920374847017 1:-2.53004 2:-0.27388099 3:0.65420598 4:-0.75949198 5:-0.12727299 6:-0.53432697 7:1.33919 8:0.034395501 9:-1.1897 10:-1.18056 14:1 24:1 #
-10 1:-1.59069 2:-0.85470498 3:0.78771698 4:-1.12646 5:-0.64185202 6:-1.01982 7:0.70414603 8:-1.48306 9:-1.45101 10:-0.477492 13:1 24:1 #
-1.0818363361598795080453783157282 1:-0.17986999 2:1.56688 3:0.12016 4:0.43081599 5:1.17633 6:-0.149527 7:-1.05155 8:-0.11735 9:0.87457502 10:-0.572644 13:1 47:1 #
4.2321187557044597227218218904454 1:-1.30138 2:-1.0423599 3:1.4552701 4:-1.12646 5:-0.86483699 6:-1.02046 7:0.031752001 8:-2.2923601 9:-1.3987499 10:-0.50769901 13:1 24:1 #
-3.7576962628519678943916915159207 1:-1.40853 2:0.49459401 3:1.5887901 4:-0.98532099 5:-0.62470001 6:-0.66259402 7:-0.90212899 8:1.50126 9:1.18814 10:-1.20548 13:1 18:1 #
5.2511422111880694529872926068492 1:-2.47646 2:-0.398981 3:-0.0133511 4:-0.68421501 5:0.0099485395 6:-0.57665497 7:1.15241 8:0.034395501 9:-0.92840302 10:-1.1586601 14:1 16:1 #
3.5527178515369914890698055387475 1:-3.6443999 2:-1.3461699 3:3.59146 4:-0.703035 5:0.64459699 6:-1.43027 7:-2.8819599 8:-4.7708602 9:-0.98066401 10:-0.80675 14:1 19:1 #
-3.8859669588332645950856658600969 1:-2.12644 2:-0.60450399 3:1.4552701 4:-0.00672783 5:2.22264 6:-0.93002999 7:1.3018301 8:-1.6348 9:-2.2087801 10:-0.531865 14:1 15:1 #
-10 1:-1.46925 2:-1.23001 3:1.85581 4:-0.67010099 5:0.42161199 6:-0.89988798 7:-0.939484 8:-2.6970201 9:-0.92840302 10:-0.43369201 13:1 24:1 #
-10 1:-1.44425 2:-1.21213 3:1.1882499 4:-0.63716799 5:-0.40171501 6:-0.90501797 7:-0.56593198 8:-1.98887 9:-0.693232 10:-0.72594601 13:1 24:1 #
10 1:-0.74062401 2:-0.86364001 3:-0.81441897 4:-1.12646 5:-0.71046299 6:-0.93516099 7:0.55472499 8:-0.016186099 9:-0.327411 10:-0.371012 13:1 37:1 #
-10 1:-2.3871701 2:-0.702797 3:0.253672 4:-0.75949198 5:0.49022299 6:-0.67991 7:1.00299 8:-0.72433001 9:-1.21583 10:-1.099 14:1 16:1 #
-0.64816748339688889934961935068714 1:-0.97635502 2:-0.69386101 3:0.52069402 4:0.120301 5:-0.71046299 6:-0.71838999 7:1.0403399 8:-0.92665702 9:-1.37262 10:1.24658 11:1 26:1 #
10 1:-1.21209 2:-1.06023 3:1.98932 4:-0.98532099 5:-0.264494 6:-0.80497003 7:-0.26708999 8:-3.00051 9:-1.71231 10:-0.82487398 13:1 47:1 #
-10 1:-1.32638 2:-0.95299798 3:1.5887901 4:-0.68421501 5:-0.264494 6:0.270547 7:0.330594 8:-2.4441099 9:-1.81683 10:-0.863388 13:1 25:1 #
-10 1:-2.0264299 2:-0.96193397 3:1.05474 4:-0.56189102 5:-0.024356799 6:-1.15321 7:0.40530401 8:-1.83713 9:-1.42488 10:-1.02424 13:1 24:1 #
4.3212177274200591625685774488375 1:-1.06565 2:1.61156 3:2.1228299 4:-0.420748 5:0.061406501 6:-0.25663 7:-2.65783 8:-1.88771 9:0.848445 10:0.427212 13:1 38:1 #
0.71064516296505830794671965122689 1:-2.39431 2:1.51327 3:2.52336 4:-0.75949198 5:0.55883402 6:-0.92233402 7:-3.4422901 8:-2.0394499 9:1.29266 10:-1.02877 14:1 24:1 #
-8.0607464410813953747947380179539 1:-0.70133603 2:1.61156 3:0.253672 4:-0.98532099 5:-0.91629499 6:0.207055 7:-1.08891 8:-0.31967601 9:0.770055 10:0.0141294 13:1 38:1 #
3.0736098761200030260454241215484 1:-0.96206897 2:-0.28281701 3:-0.413885 4:0.69428402 5:-1.32796 6:-1.06792 7:0.96563298 8:0.43904901 9:-0.484191 10:-1.37993 13:1 18:1 #
8.7340255946220892724340956192464 1:-2.23716 2:-1.19426 3:0.253672 4:-0.56189102 5:0.66175002 6:-0.83575398 7:-0.19238 8:-1.02782 9:-0.37967101 10:-0.713108 14:1 25:1 #
0.54891195847319185219248538487591 1:-3.10865 2:1.79028 3:0.92122799 4:-1.12646 5:-0.71046299 6:-1.35716 7:-1.12626 8:-1.33131 9:0.169062 10:-1.1496 14:1 24:1 #
-2.3469699227444431599565177748445 1:-0.92635202 2:-0.96193397 3:0.65420598 4:-0.98532099 5:-0.95060003 6:-1.4110301 7:0.40530401 8:-1.48306 9:-1.1897 10:-0.44577399 11:1 37:1 #
1.6405844720905840006253129104152 1:-3.7979901 2:-1.21213 3:1.5887901 4:-0.703035 5:-0.161578 6:-1.42129 7:-0.71535301 8:-2.3935299 9:-0.87614298 10:-0.93588501 14:1 15:1 #
-10 1:-2.0871501 2:-0.908319 3:0.65420598 4:-0.251376 5:-0.213036 6:-0.90950799 7:0.55472499 8:-1.43247 9:-1.29423 10:-0.92908901 14:1 24:1 #
10 1:-2.0871501 2:-0.51514602 3:2.25634 4:-0.84417802 5:-0.161578 6:-1.27507 7:1.48861 8:-2.14062 9:-2.86203 10:-1.20095 13:1 17:1 #
5.9547980433307552416977159737144 1:-2.56218 2:1.8081501 3:3.32443 4:-0.86770201 5:-0.24734101 6:-0.96273798 7:-2.9193101 8:-4.1132998 9:-0.45806101 10:-0.64967299 14:1 24:1 #
0.24247663011457021298156178090721 1:-1.8835599 2:-1.19426 3:2.3898499 4:-0.63716799 5:0.044253901 6:-1.06856 7:-1.16362 8:-3.5569 9:-1.34649 10:-0.91474003 13:1 24:1 #
10 1:-1.29066 2:-1.14065 3:-0.28037399 4:0.56725502 5:-0.35025701 6:-0.54074103 7:0.106462 8:-0.522003 9:-0.24902 10:-0.161827 13:1 25:1 #
-10 1:-2.3264501 2:0.235457 3:0.92122799 4:-0.50543398 5:0.130017 6:-0.89860499 7:0.330594 8:1.24836 9:0.19519199 10:-1.2372 14:1 20:1 #
-7.9302486152926796592055325163528 1:-2.08358 2:0.83415198 3:1.3217601 4:1.07067 5:-0.52178401 6:-1.33535 7:-1.83601 8:1.2989399 9:1.99817 10:-0.92908901 14:1 24:1 #
-10 1:-1.40139 2:-0.95299798 3:0.38718301 4:-0.82065398 5:-0.384563 6:-0.51829398 7:0.48001501 8:-1.1795599 9:-1.03292 10:-0.47598201 13:1 24:1 #
-10 1:-1.75498 2:-0.72066802 3:1.1882499 4:-0.98532099 5:-0.65900499 6:-0.60294998 7:1.0777 8:-1.68538 9:-1.94748 10:-0.72518998 13:1 17:1 #
-10 1:-0.73348099 2:-0.57769603 3:1.05474 4:-1.26761 5:-0.79622602 6:-0.31755701 7:1.33919 8:-1.28073 9:-1.94748 10:-0.38536 13:1 24:1 #
6.8465908859583857193342737446073 1:-1.67641 2:-1.28362 3:-0.81441897 4:-0.279605 5:-0.36741 6:-1.3417701 7:-0.0056032902 8:0.034395501 9:0.169062 10:-0.63305902 13:1 31:1 #
0.64714713583260352613990562531399 1:-1.50139 2:1.65624 3:1.7223001 4:-0.56189102 5:-1.82539 6:-0.94670498 7:-2.2469201 8:-1.78655 9:0.639404 10:-0.60285199 13:1 24:1 #
-10 1:-1.64069 2:-0.61343902 3:0.78771698 4:-1.12646 5:-0.86483699 6:-1.0583 7:1.18976 8:-0.977238 9:-1.63392 10:-0.81430203 13:1 25:1 #
-10 1:-1.98 2:-0.77428299 3:0.253672 4:-1.12646 5:-0.76192099 6:-1.15257 7:0.853567 8:-0.82549298 9:-1.13744 10:-1.05067 13:1 24:1 #
-10 1:-1.40496 2:-0.72066802 3:1.05474 4:-0.56189102 5:0.0099485395 6:-0.97620702 7:1.0777 8:-1.5842201 9:-1.86909 10:-0.713108 13:1 25:1 #
4.3055483565696377468157152179629 1:-1.1727999 2:1.75453 3:0.253672 4:-0.547777 5:-0.45317301 6:-0.177104 7:-0.79006398 8:-0.62316602 9:0.37810299 10:0.43854001 13:1 38:1 #
-10 1:-1.05493 2:-0.60450399 3:0.38718301 4:-0.63716799 5:-0.67615801 6:0.73679698 7:1.15241 8:-0.62316602 9:-1.3203599 10:0.219538 13:1 25:1 #
-10 1:-1.49782 2:-0.60450399 3:-0.0133511 4:-0.75949198 5:-0.281647 6:-0.51572901 7:1.0403399 8:-0.370258 9:-1.03292 10:-0.25849 13:1 24:1 #
10 1:-2.61219 2:1.13797 3:2.52336 4:-0.420748 5:1.31355 6:-1.03906 7:-3.66642 8:-0.11735 9:2.4685099 10:-0.74482501 14:1 24:1 #
8.3356152573870900823749252595007 1:-1.3621 2:-0.68492502 3:0.38718301 4:-0.50543398 5:0.061406501 6:-1.19875 7:1.0403399 8:-0.87607503 9:-1.37262 10:-0.32343501 13:1 24:1 #
-10 1:-1.91571 2:-0.175588 3:-0.0133511 4:0.063843802 5:0.61029202 6:-0.93002999 7:1.0403399 8:0.54021198 9:-0.58871198 10:-0.51222998 13:1 16:1 #
3.8854424962800018228392673336202 1:-3.2265201 2:1.81709 3:3.05741 4:0.56725502 5:2.7200699 6:-1.27635 7:-2.6951799 8:-3.91098 9:-0.484191 10:-0.77050102 14:1 19:1 #
-10 1:-0.994214 2:-0.51514602 3:0.253672 4:-0.86770201 5:-0.59039497 6:0.0512105 7:1.22712 8:-0.42084 9:-1.2681 10:-0.97893101 13:1 24:1 #
10 1:-2.87292 2:1.4954 3:3.05741 4:-0.56189102 5:0.798971 6:-1.15257 7:-3.96526 8:-2.3935299 9:1.39718 10:-0.88000202 14:1 24:1 #
-10 1:-0.61204398 2:-0.99767703 3:1.5887901 4:-0.56189102 5:-0.024356799 6:-0.67093199 7:0.14381801 8:-2.4441099 9:-1.63392 10:-0.672328 13:1 47:1 #
0.63044342538280417898022278677672 1:-1.75855 2:1.66518 3:0.78771698 4:-0.16669001 5:-0.93344802 6:-1.1179399 7:-1.35039 8:-0.82549298 9:0.66553402 10:-0.45106101 14:1 24:1 #
-10 1:-1.75498 2:-0.51514602 3:0.78771698 4:-0.86770201 5:-0.40171501 6:-1.21799 7:1.33919 8:-0.82549298 9:-1.68618 10:-0.83469099 13:1 18:1 #
-10 1:-1.58354 2:-0.69386101 3:0.38718301 4:-0.067889899 5:-0.436021 6:-1.2058001 7:1.0403399 8:-0.82549298 9:-1.29423 10:-0.52204698 13:1 18:1 #
10 1:-1.83356 2:1.09329 3:0.78771698 4:0.308492 5:0.55883402 6:-1.0583 7:-1.8733701 8:0.79312098 9:1.8936501 10:-0.49259499 14:1 24:1 #
-8.6917391106350248008993730763905 1:-1.4121 2:-0.425789 3:0.78771698 4:0.99538898 5:-1.39657 6:-0.98903298 7:1.4139 8:-0.57258499 9:-1.60779 10:-0.62701702 13:1 16:1 #
0.21497531733378671958689665189013 1:-3.0657899 2:-1.38191 3:2.25634 4:0.83072197 5:-0.161578 6:-1.23787 7:-1.9480799 8:-2.9499199 9:-0.327411 10:-0.72518998 14:1 19:1 #
10 1:-2.7443399 2:1.55795 3:0.38718301 4:-0.00672783 5:1.6223 6:-1.19426 7:-1.31304 8:-0.370258 9:0.92683601 10:-0.94721299 14:1 24:1 #
-10 1:-1.3621 2:-0.91725498 3:0.38718301 4:0.52961701 5:-0.55608898 6:-0.81010097 7:0.55472499 8:-1.0784 9:-1.03292 10:-0.59303403 13:1 24:1 #
-10 1:-0.92277998 2:-0.78321898 3:-1.34846 4:-1.26761 5:-0.79622602 6:-0.078338899 7:0.44266 8:0.38846701 9:-0.013849 10:-1.02877 13:1 24:1 #
-10 1:-2.2193 2:-0.970869 3:-0.54739702 4:-0.16669001 5:0.078559197 6:-1.14937 7:0.44266 8:-0.269095 9:-0.37967101 10:-1.0197099 14:1 18:1 #
0.76026225400815206079130348371109 1:-1.7657 2:1.66518 3:-1.48198 4:-0.82065398 5:-1.03636 6:-0.81010097 7:0.031752001 8:0.59079403 9:0.430363 10:-0.42689499 13:1 18:1 #
10 1:-1.31924 2:-0.69386101 3:0.253672 4:-0.75949198 5:-0.65900499 6:0.38406301 7:1.00299 8:-0.77491099 9:-1.2681 10:-0.707066 13:1 24:1 #
2.9188744354655931090292142471299 1:-1.36924 2:1.48646 3:-0.28037399 4:-0.32194799 5:0.19862799 6:-0.27522799 7:-0.82741898 8:0.23672201 9:0.92683601 10:-0.98270601 13:1 18:1 #
-10 1:-1.02279 2:-0.92619097 3:-0.146862 4:-0.279605 5:-0.86483699 6:-0.32140499 7:0.55472499 8:-0.57258499 9:-0.66710198 10:-0.340049 13:1 24:1 #
-1.2159891674218670232221484184265 1:-0.172727 2:0.83415198 3:2.1228299 4:0.25203499 5:2.6686101 6:-0.0135642 7:-2.62047 8:1.09661 9:2.2855999 10:-0.73123199 13:1 27:1 #
10 1:-1.17637 2:-0.300688 3:-0.146862 4:-0.27019501 5:-0.281647 6:-1.18464 7:1.11505 8:0.28730401 9:-0.71936202 10:-0.610403 13:1 24:1 #
8.9199970373876169560389826074243 1:-3.0193601 2:-1.0870301 3:-1.21495 4:-1.12646 5:-0.89914203 6:-1.17951 7:0.25588301 8:0.23672201 9:0.064541399 10:-1.20926 14:1 24:1 #
9.5497702538367672531194330076687 1:-2.47646 2:1.4149801 3:2.3898499 4:-0.50543398 5:0.93619198 6:-0.62988597 7:-3.4049301 8:-1.28073 9:1.71074 10:-0.938151 14:1 24:1 #
-5.9642127492005565514432419149671 1:-0.79777098 2:-0.89938301 3:0.253672 4:-0.56189102 5:-0.075814798 6:-0.66900802 7:0.59208101 8:-0.92665702 9:-0.95453399 10:-0.34986699 13:1 25:1 #
-1.2117548854878179565019991059671 1:0.163012 2:0.99499601 3:2.1228299 4:1.23063 5:4.6068602 6:-0.113612 7:-3.1060901 8:0.59079403 9:2.44238 10:-0.466919 13:1 27:1 #
-10 1:-2.37288 2:1.54008 3:2.6568799 4:-0.84417802 5:0.21578 6:-0.64976799 7:-3.4049301 8:-2.14062 9:1.18814 10:-0.81279099 14:1 24:1 #
7.6241368122642123594800978025887 1:-1.54782 2:1.10223 3:0.65420598 4:0.186168 5:0.798971 6:-1.13975 7:-1.72394 8:0.79312098 9:1.8152601 10:-1.29308 14:1 20:1 #
1.7428101533651383370226994884433 1:-3.1550801 2:1.47753 3:2.52336 4:-0.86770201 5:-0.041509401 6:-1.2507 7:-3.4422901 8:-1.73596 9:1.47557 10:-1.07786 14:1 24:1 #
4.6333307294745260662693908670917 1:-1.98357 2:0.226521 3:-0.146862 4:-0.63716799 5:-0.96775299 6:-1.48799 7:0.44266 8:1.24836 9:0.29971299 10:-1.3029 13:1 16:1 #
-10 1:-1.90499 2:-0.48833901 3:0.253672 4:-1.12646 5:-0.76192099 6:-0.90630102 7:1.22712 8:-0.31967601 9:-1.1897 10:-1.03028 14:1 24:1 #
3.1757964664931321863150515127927 1:-2.51932 2:1.4954 3:1.5887901 4:-0.86770201 5:0.19862799 6:-1.04419 7:-2.5084 8:-1.02782 9:1.31879 10:-1.0597301 14:1 24:1 #
0.53463546246253956795158046588767 1:-1.40139 2:-0.425789 3:-1.61549 4:-0.467796 5:0.044253901 6:-0.26496699 7:0.40530401 8:0.64137602 9:0.169062 10:-1.01367 13:1 24:1 #
-6.3265163127176800017537061648909 1:-2.65148 2:-0.34536701 3:-1.61549 4:0.651941 5:2.5999999 6:-1.12243 7:0.40530401 8:0.69195801 9:0.19519199 10:-1.2915699 14:1 19:1 #
-10 1:-0.72633803 2:-0.24707399 3:0.12016 4:0.120301 5:0.55883402 6:-0.336155 7:1.18976 8:0.28730401 9:-0.85001302 10:0.188576 13:1 24:1 #
10 1:-0.92635202 2:-0.62237501 3:-0.413885 4:-0.467796 5:0.078559197 6:-0.095655002 7:0.89092302 8:-0.066767797 9:-0.66710198 10:0.069257401 13:1 24:1 #
-10 1:-0.82277298 2:-0.970869 3:-0.54739702 4:0.34142601 5:0.19862799 6:-0.0020202 7:0.44266 8:-0.31967601 9:-0.405801 10:0.081340298 13:1 46:1 #
10 1:-0.93706697 2:-0.34536701 3:-0.413885 4:-0.16669001 5:0.0271012 6:-0.0526856 7:0.96563298 8:0.33788601 9:-0.56258202 10:0.115323 13:1 24:1 #
4.0545072499416798805782491399441 1:-1.84785 2:1.05755 3:0.52069402 4:0.83072197 5:0.14717001 6:-0.91079003 7:-1.6118799 8:0.944866 9:1.78913 10:-1.3089401 14:1 24:1 #
6.5617954321212774715377236134373 1:-0.844203 2:-1.28362 3:-0.54739702 4:0.96245599 5:-0.024356799 6:0.071091898 7:-0.080313802 8:-0.16793101 9:0.090671502 10:-0.271328 13:1 46:1 #
-10 1:-1.1835099 2:-1.37298 3:-0.68090802 4:0.25203499 5:0.696055 6:-0.55677402 7:-0.15502401 8:0.034395501 9:0.27358201 10:-0.190524 13:1 24:1 #
-10 1:-0.70133603 2:-1.1763901 3:-0.81441897 4:1.19769 5:0.78181797 6:0.136508 7:0.14381801 8:0.034395501 9:0.038411301 10:-0.060633302 13:1 46:1 #
10 1:-3.0014999 2:1.4596601 3:2.79039 4:-0.67010099 5:0.43876499 6:-1.20324 7:-3.7411301 8:-1.93829 9:1.52783 10:-0.94419199 14:1 24:1 #
-0.54538560049692175191182741400553 1:-0.394171 2:1.15584 3:1.4552701 4:-0.63716799 5:0.061406501 6:-0.0020202 7:-2.62047 8:0.33788601 9:2.1288199 10:-0.38007399 13:1 47:1 #
-10 1:-3.2836599 2:1.44178 3:2.79039 4:-0.27019501 5:1.24494 6:-1.35716 7:-3.7784801 8:-1.83713 9:1.60622 10:-1.12392 14:1 24:1 #
8.0352063378390177206256339559332 1:-0.67276198 2:-1.3283 3:-0.68090802 4:0.69428402 5:1.34786 6:-0.25534701 7:-0.117669 8:-0.066767797 9:0.19519199 10:0.0450917 13:1 24:1 #
10 1:-0.81920099 2:-1.10491 3:-0.68090802 4:0.72721702 5:1.0391099 6:0.126247 7:0.218528 8:-0.11735 9:-0.092239402 10:-0.38536 13:1 46:1 #
6.5214851594325971007037878734991 1:-0.69419199 2:-1.06023 3:-0.94793099 4:0.651941 5:0.40446001 6:-0.28420699 7:0.293239 8:0.034395501 9:-0.092239402 10:0.173472 13:1 24:1 #
4.1519327108600645459546285565011 1:-1.81927 2:1.06648 3:0.38718301 4:0.99538898 5:2.29125 6:-0.92233402 7:-1.49981 8:0.944866 9:1.71074 10:-1.1934 14:1 24:1 #
1.8366839549716087454100943432422 1:-1.8264199 2:0.92351002 3:-0.28037399 4:-0.50543398 5:-0.81337899 6:-0.89988798 7:-0.79006398 8:1.19777 9:1.34492 10:-1.39428 14:1 20:1 #
-10 1:-1.38353 2:-0.82789701 3:-1.08144 4:-0.32194799 5:0.130017 6:-0.70556402 7:0.51736999 8:0.186141 9:-0.19676 10:-0.55980599 13:1 16:1 #
3.1952377981868034240164888615254 1:-3.8015599 2:1.79921 3:1.05474 4:-0.703035 5:-0.041509401 6:-1.44951 7:-1.16362 8:-1.43247 9:0.142932 10:-0.969868 14:1 16:1 #
10 1:-2.2514501 2:0.306943 3:1.5887901 4:-0.82065398 5:0.42161199 6:-0.46570501 7:-0.080313802 8:1.2989399 9:0.37810299 10:-0.81958801 14:1 16:1 #
10 1:-1.32995 2:-0.71173298 3:-0.68090802 4:0.43081599 5:0.21578 6:-1.07497 7:0.70414603 8:0.034395501 9:-0.43193099 10:-0.454081 13:1 16:1 #
-2.7448687172765553476949662581319 1:-1.1835099 2:0.76266599 3:1.5887901 4:-1.12646 5:-0.59039497 6:0.106365 7:-1.91072 8:1.34952 9:1.99817 10:-0.039488301 13:1 25:1 #
-0.60339683255993836752395509392954 1:-0.56561202 2:1.44178 3:1.1882499 4:-0.82065398 5:-0.144425 6:-1.34882 7:-2.2095599 8:-0.57258499 9:1.42331 10:-0.791646 13:1 36:1 #
10 1:-2.6871901 2:-1.2657501 3:1.3217601 4:-0.75949198 5:-0.230189 6:-0.605515 7:-0.82741898 8:-1.98887 9:-0.51032102 10:-1.1586601 14:1 24:1 #
-10 1:-2.0478599 2:-0.89044797 3:-0.68090802 4:-0.067889899 5:-0.161578 6:-0.62475502 7:0.51736999 8:-0.066767797 9:-0.327411 10:-1.0559601 14:1 20:1 #
-1.5808804192765215645977150416002 1:-2.83006 2:-0.47940299 3:0.12016 4:-0.37369999 5:-0.230189 6:-0.637582 7:1.18976 8:-0.218513 9:-1.11131 10:-1.25079 14:1 17:1 #
6.5016648947412507553167415608186 1:-2.6586201 2:1.56688 3:1.5887901 4:0.0026817201 5:0.78181797 6:-1.09934 7:-2.3589799 8:-1.33131 9:1.03136 10:-1.39428 14:1 24:1 #
2.8922936457392971476565435295925 1:-2.2978799 2:-1.31936 3:-0.81441897 4:-1.26761 5:-0.79622602 6:-0.54522997 7:-0.042958502 8:-0.016186099 9:0.19519199 10:-1.10429 14:1 31:1 #
-10 1:-2.12644 2:1.30775 3:1.1882499 4:0.73662698 5:1.31355 6:-1.2135 7:-2.3589799 8:-0.066767797 9:1.78913 10:-0.113496 14:1 24:1 #
-10 1:-2.4836099 2:1.7456 3:1.85581 4:-0.279605 5:0.47307 6:-0.76777297 7:-1.9480799 8:-2.14062 9:0.221322 10:-1.2689199 14:1 24:1 #
10 1:-0.79062802 2:-0.57769603 3:-0.0133511 4:0.308492 5:-0.84768403 6:-1.02495 7:1.0777 8:-0.269095 9:-1.00679 10:-1.2002 13:1 18:1 #
10 1:-0.99778599 2:-0.425789 3:0.38718301 4:-0.27019501 5:-0.213036 6:-0.0526856 7:1.3018301 8:-0.269095 9:-1.24196 10:0.13646799 13:1 24:1 #
10 1:-0.76205403 2:-0.56876099 3:-0.413885 4:0.14853001 5:-0.72761601 6:-1.00378 7:0.96563298 8:-0.066767797 9:-0.74549299 10:-1.17528 13:1 25:1 #
-10 1:-1.25852 2:-0.47940299 3:-0.146862 4:-0.13846201 5:-0.67615801 6:-1.19683 7:1.11505 8:-0.066767797 9:-0.92840302 10:-0.61191398 13:1 18:1 #
-7.1221473260535468341458908980712 1:-0.70133603 2:-1.3461699 3:-0.413885 4:1.02832 5:-1.20789 6:-1.0570101 7:-0.26708999 8:-0.269095 9:0.169062 10:-0.87320602 13:1 25:1 #
1.2459194589660000929143279790878 1:-2.2014401 2:1.6294301 3:1.4552701 4:-0.56189102 5:0.73035997 6:-0.8768 7:-2.02279 8:-1.33131 9:0.79618502 10:-0.77125603 14:1 24:1 #
-10 1:-2.3585999 2:1.58476 3:1.1882499 4:-0.75949198 5:-0.092967398 6:-1.06279 7:-1.8733701 8:-0.977238 9:0.92683601 10:-1.099 14:1 24:1 #
-10 1:-1.81213 2:-0.29175201 3:1.05474 4:0.0026817201 5:0.130017 6:-0.75109798 7:1.45125 8:-0.31967601 9:-1.58166 10:-0.52733397 13:1 18:1 #
10 1:-1.60497 2:-0.16665199 3:0.38718301 4:-1.26761 5:-0.79622602 6:-1.08523 7:1.18976 8:0.38846701 9:-0.85001302 10:-0.82940501 13:1 18:1 #
-10 1:-1.35495 2:0.029934799 3:0.65420598 4:-0.98532099 5:-1.12213 6:-0.62988597 7:0.89092302 8:0.84370297 9:-0.43193099 10:-0.76143903 13:1 18:1 #
-10 1:-0.77276897 2:-1.14065 3:-0.94793099 4:-1.26761 5:-0.79622602 6:-0.813308 7:0.218528 8:0.084977202 9:0.0122812 10:0.185555 13:1 31:1 #
-10 1:-1.9764301 2:1.4149801 3:1.5887901 4:-0.50543398 5:0.73035997 6:-1.27314 7:-2.5457599 8:-0.67374802 9:1.55396 10:-0.92908901 14:1 24:1 #
-0.05957880091247084314298732010684 1:-0.53703803 2:1.13797 3:1.5887901 4:0.43081599 5:1.96535 6:-0.78444803 7:-2.65783 8:0.38846701 9:2.1549499 10:-0.352887 13:1 42:1 #
-10 1:-1.66212 2:-0.461532 3:-0.0133511 4:-1.26761 5:-0.79622602 6:-0.813308 7:1.15241 8:-0.11735 9:-0.98066401 10:-1.04237 13:1 18:1 #
-10 1:-1.6656899 2:-0.390046 3:-0.413885 4:-0.98532099 5:-1.07067 6:-0.74404401 7:1.00299 8:0.23672201 9:-0.64097202 10:-0.32796699 13:1 18:1 #
3.4699225201206056468095084710512 1:-1.52282 2:-0.38111001 3:0.12016 4:-0.95238799 5:-0.74476802 6:-0.73185802 7:1.22712 8:-0.016186099 9:-1.00679 10:-0.50618899 13:1 18:1 #
3.9529896015221952509932634711731 1:-2.0264299 2:-0.559825 3:0.78771698 4:-0.84417802 5:-0.161578 6:-1.17117 7:1.3018301 8:-0.92665702 9:-1.68618 10:-0.78409398 13:1 18:1 #
10 1:-1.955 2:-0.31856 3:1.1882499 4:-0.44427201 5:0.21578 6:-1.46426 7:1.48861 8:-0.522003 9:-1.76457 10:-1.26212 13:1 18:1 #
0.099469545122991220864605566021055 1:-1.3371 2:-0.80109 3:-0.68090802 4:-1.26761 5:-0.79622602 6:-0.24700999 7:0.62943602 8:-0.11735 9:-0.484191 10:0.0911576 13:1 16:1 #
10 1:-1.98 2:0.056742001 3:0.12016 4:-0.56189102 5:-0.95060003 6:-1.50723 7:0.77885699 8:0.99544799 9:-0.17062999 10:-1.28629 13:1 18:1 #
9.9696237573410968479947769083083 1:-1.07636 2:-0.67598999 3:0.52069402 4:-0.467796 5:-0.144425 6:-0.29510999 7:1.0777 8:-0.92665702 9:-1.45101 10:0.0020465299 13:1 18:1 #
10 1:-0.95849699 2:-0.51514602 3:0.253672 4:-1.12646 5:-0.67615801 6:-0.64976799 7:1.18976 8:-0.370258 9:-1.21583 10:-0.489575 13:1 27:1 #
10 1:-0.96564001 2:-0.077294298 3:0.12016 4:0.14853001 5:0.98764998 6:-0.30537099 7:1.00299 8:0.69195801 9:-0.484191 10:0.56314403 13:1 18:1 #
0.027737925230448823299411742482334 1:-2.5228901 2:1.3971 3:1.7223001 4:-0.98532099 5:-0.57324201 6:-0.491999 7:-2.7325399 8:-0.72433001 9:1.63235 10:-0.94721299 14:1 20:1 #
-1.382701403921404947894302495115 1:-2.2550199 2:0.932446 3:-0.413885 4:0.43081599 5:-2.70017 6:-1.48799 7:-0.71535301 8:1.14719 9:1.29266 10:-1.1186399 14:1 16:1 #
3.266737771043384697122746729292 1:-2.5371799 2:1.64731 3:0.78771698 4:-0.32194799 5:1.91389 6:-1.18015 7:-1.46246 8:-0.87607503 9:0.69166398 10:-1.27118 14:1 20:1 #
0.066074691119694051177901883420418 1:-3.18366 2:-1.3283 3:1.85581 4:0.25203499 5:-2.71732 6:-1.0583 7:-1.38775 8:-2.4946899 9:-0.43193099 10:-0.95174402 14:1 24:1 #
-10 1:-1.5621099 2:-0.765347 3:-0.54739702 4:-1.26761 5:-0.79622602 6:-0.88577801 7:0.70414603 8:-0.11735 9:-0.51032102 10:-1.12695 13:1 27:1 #
-10 1:-2.11215 2:-0.88151199 3:-0.413885 4:-0.420748 5:-0.65900499 6:-1.26609 7:0.59208101 8:-0.370258 9:-0.58871198 10:-0.96684802 13:1 16:1 #
8.1602501834324581153623512363993 1:-1.15494 2:1.18265 3:-1.61549 4:0.14382499 5:1.22779 6:-0.75302202 7:0.031752001 8:0.79312098 9:0.561014 10:-0.204117 13:1 45:1 #
-10 1:-2.12644 2:-0.75641102 3:-0.68090802 4:-0.56189102 5:-0.57324201 6:-1.27507 7:0.70414603 8:-0.066767797 9:-0.484191 10:-0.96231699 13:1 16:1 #
10 1:-2.0050001 2:0.26226401 3:-0.0133511 4:-0.56189102 5:-0.88199002 6:-1.4802999 7:0.36794901 8:1.2989399 9:0.37810299 10:-1.3353699 13:1 16:1 #
5.5959967393823379921968808048405 1:-2.4693201 2:-0.25600901 3:1.85581 4:-1.0700099 5:-0.45317301 6:-0.93900901 7:1.52596 8:-0.77491099 9:-2.07813 10:-0.63305902 14:1 18:1 #
-3.4599068574316929058909408922773 1:-1.48353 2:1.57582 3:-0.413885 4:-1.12646 5:-0.76192099 6:-1.14424 7:-0.67799801 8:0.13555899 9:0.74392498 10:0.070012599 11:1 34:1 #
-10 1:-1.3799599 2:0.583951 3:-0.0133511 4:-0.75949198 5:-0.264494 6:-0.66836601 7:-0.37915599 8:1.50126 9:1.08362 10:-0.60436201 13:1 18:1 #
7.2099934679024730854735025786795 1:-1.3371 2:-0.25600901 3:0.78771698 4:-1.26761 5:-0.79622602 6:-0.25983599 7:1.3765399 8:-0.066767797 9:-1.3203599 10:0.030743301 13:1 31:1 #
-10 1:-0.89063501 2:-0.96193397 3:0.12016 4:0.063843802 5:-0.84768403 6:-0.978131 7:0.44266 8:-0.87607503 9:-0.77162302 10:-1.31876 13:1 24:1 #
5.4447148966762970445643077255227 1:-2.1192901 2:1.1915801 3:1.5887901 4:-1.0700099 5:-0.67615801 6:-1.14231 7:-2.7698901 8:0.13555899 9:2.10269 10:-1.02877 14:1 24:1 #
8.1191814949993297290120608522557 1:-2.09429 2:1.26307 3:1.1882499 4:-0.98532099 5:-0.29879901 6:-0.92233402 7:-2.32163 8:0.13555899 9:1.84139 10:-0.31286299 14:1 24:1 #
10 1:-1.8657 2:1.54901 3:-0.54739702 4:-0.24196699 5:-1.0020601 6:-0.86204898 7:-0.60328698 8:0.23672201 9:0.770055 10:-1.40485 14:1 24:1 #
-4.1429330383879561239268696226645 1:-3.1157899 2:-0.68492502 3:-0.54739702 4:-1.26761 5:-0.79622602 6:-0.99416399 7:0.77885699 8:-0.016186099 9:-0.56258202 10:-1.37993 14:1 17:1 #
8.2815358771264495629793600528501 1:-2.8872099 2:-0.398981 3:1.85581 4:0.14382499 5:0.93619198 6:-1.27635 7:1.56332 8:-1.28073 9:-2.3655601 10:-1.2591 14:1 16:1 #
-0.54873630049070776237840618705377 1:-1.06565 2:-0.354303 3:1.4552701 4:-1.0700099 5:-0.487479 6:-0.18672401 7:1.52596 8:-0.82549298 9:-1.99974 10:2.0576401 11:1 44:1 #
8.7423768399721506483501798356883 1:-2.3764601 2:1.16478 3:2.3898499 4:-0.00672783 5:1.99966 6:-1.00827 7:-3.5917101 8:-0.16793101 9:2.41625 10:-0.64967299 14:1 24:1 #
10 1:-0.75133902 2:1.81709 3:0.52069402 4:0.75544602 5:0.130017 6:-0.27073899 7:-0.82741898 8:-1.02782 9:0.142932 10:0.21878301 13:1 24:1 #
-10 1:-1.94428 2:-0.72066802 3:0.52069402 4:0.56725502 5:1.6223 6:-1.25711 7:1.00299 8:-1.0784 9:-1.45101 10:-0.72141498 13:1 24:1 #
0.54773019279514401080888319484075 1:-1.26566 2:-0.80109 3:1.05474 4:-0.36429101 5:0.38730699 6:-1.23146 7:0.853567 8:-1.68538 9:-1.76457 10:-0.27510399 13:1 24:1 #
-8.6346831303351461173178904573433 1:-0.69062102 2:-1.0423599 3:1.1882499 4:-0.251376 5:1.2106301 6:-0.66708398 7:0.106462 8:-1.98887 9:-1.24196 10:-0.83242601 13:1 27:1 #
-0.96821157437716998117593902861699 1:-1.08708 2:-0.65811801 3:1.85581 4:-0.129052 5:1.39931 6:-0.89155 7:1.22712 8:-2.2923601 9:-2.6268599 10:-0.778808 13:1 27:1 #
9.6437424747837994232213532086462 1:-1.43353 2:-0.99767703 3:1.05474 4:-0.75949198 5:-0.00720412 6:-0.68375802 7:0.25588301 8:-1.93829 9:-1.37262 10:-0.98874801 13:1 25:1 #
9.0157745643648734557018542545848 1:-0.75491101 2:-0.99767703 3:1.5887901 4:-0.50543398 5:0.49022299 6:-0.71838999 7:0.14381801 8:-2.4946899 9:-1.66005 10:-1.07786 13:1 47:1 #
-0.39303663444938319315724584157579 1:-0.93706697 2:-0.095165797 3:-0.413885 4:0.50138801 5:1.72521 6:0.0332532 7:0.89092302 8:0.74253899 9:-0.27515 10:-0.75766301 13:1 16:1 #
-10 1:-1.25852 2:-0.96193397 3:0.92122799 4:-1.12646 5:-0.62470001 6:-0.67926902 7:0.40530401 8:-1.68538 9:-1.29423 10:-0.80221897 13:1 47:1 #
-10 1:-1.30495 2:-0.80109 3:0.78771698 4:-0.44427201 5:0.044253901 6:0.210261 7:0.853567 8:-1.3818901 9:-1.50327 10:-0.93513 13:1 25:1 #
-0.9306080994543037832045229151845 1:-1.23352 2:-1.31043 3:-1.08144 4:0.035615101 5:0.26723799 6:-0.77610999 7:0.031752001 8:0.186141 9:0.24745201 10:-0.58246201 13:1 25:1 #
10 1:-2.4121699 2:-0.62237501 3:0.52069402 4:-0.56189102 5:-0.50463098 6:-1.36742 7:1.15241 8:-0.77491099 9:-1.42488 10:-0.77276701 14:1 17:1 #
-10 1:-0.979927 2:-0.872576 3:1.5887901 4:-1.12646 5:-0.74476802 6:-0.463781 7:0.59208101 8:-2.3935299 9:-2.052 10:-0.60209602 13:1 47:1 #
2.3182694319266099469700748159084 1:-1.42996 2:-1.05129 3:1.98932 4:-0.36429101 5:-1.48233 6:-0.93516099 7:-0.19238 8:-2.9499199 9:-1.73844 10:-0.628528 13:1 24:1 #
-10 1:-0.90135002 2:-1.1763901 3:0.253672 4:0.651941 5:0.953345 6:-0.8768 7:-0.080313802 8:-0.977238 9:-0.405801 10:-0.53412998 13:1 47:1 #
2.6434720808606506636806443566456 1:-3.2693801 2:-1.38191 3:0.65420598 4:0.289673 5:-1.01921 6:-1.06407 7:-0.86477399 8:-1.1795599 9:0.064541399 10:-0.85961199 14:1 24:1 #
1.4826161947245446448562233854318 1:-1.24423 2:-0.89044797 3:1.1882499 4:-0.27019501 5:0.78181797 6:-0.62603801 7:0.59208101 8:-1.93829 9:-1.66005 10:-0.167869 13:1 24:1 #
10 1:-1.31209 2:-1.23001 3:0.65420598 4:0.14382499 5:0.97049701 6:-0.177746 7:-0.416511 8:-1.3818901 9:-0.43193099 10:-1.01065 13:1 24:1 #
4.0668500277590950986450479831547 1:-1.59069 2:-1.24788 3:-1.48198 4:1.2024 5:0.64459699 6:-1.25647 7:0.181173 8:0.43904901 9:0.27358201 10:-0.83544701 14:1 20:1 #
-10 1:-1.92285 2:1.3703001 3:1.7223001 4:-0.98532099 5:-0.50463098 6:-1.00378 7:-2.7698901 8:-0.62316602 9:1.7368701 10:-0.37403199 14:1 24:1 #
10 1:-0.94420999 2:1.52221 3:1.4552701 4:-1.26761 5:-0.79622602 6:-0.67606199 7:-2.28427 8:-0.977238 9:1.18814 10:-1.04161 13:1 38:1 #
2.3880864687974172611006906663533 1:-0.844203 2:-0.24707399 3:0.12016 4:0.25674 5:1.60515 6:-0.205323 7:1.18976 8:0.28730401 9:-0.85001302 10:0.47176799 13:1 18:1 #
10 1:-2.4621799 2:-0.86364001 3:0.38718301 4:-0.86770201 5:-0.74476802 6:-1.40911 7:0.70414603 8:-1.0784 9:-1.16357 10:-0.775787 14:1 17:1 #
10 1:-0.87277699 2:-0.220266 3:0.52069402 4:0.25203499 5:1.43362 6:-0.22584599 7:1.26448 8:0.186141 9:-1.05905 10:0.497444 13:1 18:1 #
-1.5649076662083429845040427608183 1:-0.61204398 2:-1.18533 3:-0.81441897 4:-0.56189102 5:-0.64185202 6:-0.50674999 7:0.14381801 8:-0.016186099 9:0.038411301 10:0.41815001 13:1 40:1 #
1.558433892770680451178577641258 1:-1.71569 2:1.57582 3:0.78771698 4:-0.75949198 5:-0.29879901 6:-1.19683 7:-1.57452 8:-0.62316602 9:0.92683601 10:-0.45181599 14:1 24:1 #
4.0272934202866013109201048791874 1:-1.84427 2:1.70986 3:-0.28037399 4:-0.27019501 5:0.66175002 6:-1.16027 7:-0.60328698 8:-0.16793101 9:0.50875401 10:-1.02424 13:1 25:1 #
7.7954819074245591536964639090002 1:-1.37281 2:1.63837 3:1.85581 4:-0.37369999 5:0.747513 6:-1.03072 7:-2.3589799 8:-1.78655 9:0.74392498 10:-1.2689199 13:1 47:1 #
-10 1:-1.30852 2:0.038870499 3:-0.0133511 4:-0.13846201 5:-0.213036 6:-0.54074103 7:0.77885699 8:0.944866 9:-0.17062999 10:0.249745 13:1 18:1 #
-10 1:-1.88713 2:1.22733 3:1.3217601 4:-0.129052 5:1.79383 6:-1.3064899 7:-2.5084 8:0.13555899 9:1.9720401 10:-0.19279 14:1 24:1 #
-10 1:-2.6157601 2:1.47753 3:2.1228299 4:-0.13846201 5:1.81098 6:-0.563829 7:-2.99402 8:-1.3818901 9:1.42331 10:-0.82185298 14:1 24:1 #
-3.3221181961486330180832737823948 1:-0.84063101 2:-0.27388099 3:0.65420598 4:-0.84417802 5:-0.436021 6:-0.073208302 7:1.33919 8:-0.016186099 9:-1.24196 10:-0.98648202 13:1 18:1 #
10 1:-0.64776099 2:-1.2568099 3:1.7223001 4:0.063843802 5:1.74237 6:-0.69337797 7:-1.05155 8:-2.54527 9:-0.71936202 10:-1.01895 13:1 47:1 #
-10 1:-1.74784 2:-0.631311 3:0.78771698 4:0.063843802 5:0.62744403 6:-1.02623 7:1.18976 8:-1.12898 9:-1.68618 10:-1.28176 14:1 16:1 #
-10 1:-2.06215 2:1.26307 3:3.1909201 4:-0.36429101 5:0.88473397 6:-1.31675 7:-4.5629401 8:-1.33131 9:2.3378601 10:-0.76596999 14:1 24:1 #
6.7939466450977272771183379518334 1:-1.85142 2:-0.81002599 3:0.253672 4:-0.82065398 5:-0.12727299 6:-1.29944 7:0.816212 8:-0.87607503 9:-1.13744 10:-1.18056 14:1 24:1 #
-10 1:-2.3193099 2:-1.16746 3:0.78771698 4:-0.420748 5:0.33584899 6:-0.64591998 7:-0.229735 8:-1.48306 9:-0.64097202 10:-1.0997601 14:1 24:1 #
-10 1:-2.3978901 2:0.083549298 3:-0.0133511 4:-0.75949198 5:-0.35025701 6:-1.3840899 7:0.74150199 8:1.04603 9:-0.066109203 10:-1.3029 14:1 25:1 #
3.6685898490540189698094764025882 1:-2.22644 2:0.86096001 3:-0.94793099 4:-0.063185103 5:1.36501 6:-0.85627699 7:-0.26708999 8:1.09661 9:0.92683601 10:-0.97364402 14:1 19:1 #
0.57397062384060393291917989699868 1:-2.0442901 2:0.98606002 3:1.5887901 4:-0.703035 5:-0.213036 6:-1.4257801 7:-2.47105 8:0.84370297 9:2.23334 10:-1.42373 13:1 16:1 #
-0.051450489167445101479358982032863 1:-0.42274401 2:-1.23001 3:-0.146862 4:0.83072197 5:0.130017 6:0.60724699 7:-0.117669 8:-0.62316602 9:-0.1445 10:-0.51525098 13:1 46:1 #
-2.7787424886699998438643888221122 1:-0.69776398 2:0.83415198 3:1.1882499 4:-1.0700099 5:-0.53893697 6:-0.022542899 7:-1.83601 8:1.2989399 9:1.99817 10:-0.92380202 13:1 27:1 #
10 1:-2.5264699 2:-0.220266 3:0.38718301 4:-0.75949198 5:-0.436021 6:-0.61449403 7:1.22712 8:0.23672201 9:-0.98066401 10:-1.11562 14:1 16:1 #
7.8604954726344384852154689724557 1:-0.62990201 2:1.06648 3:1.5887901 4:0.50138801 5:2.7886801 6:-0.63822401 7:-2.6951799 8:0.59079403 9:2.25947 10:-0.72368002 13:1 27:1 #
-10 1:-1.40853 2:-0.095165797 3:-0.146862 4:-1.12646 5:-0.69331002 6:-0.87102801 7:0.96563298 8:0.69195801 9:-0.405801 10:-0.264532 13:1 16:1 #
-10 1:-3.21223 2:1.33455 3:3.05741 4:-0.95238799 5:0.112864 6:-1.4257801 7:-4.2641001 8:-1.53364 9:2.07656 10:-0.99781001 14:1 24:1 #
2.2185221247218445128623898199294 1:-1.62997 2:-0.667054 3:0.38718301 4:0.14382499 5:1.07341 6:-1.0172499 7:1.0777 8:-0.77491099 9:-1.3203599 10:-0.76370502 13:1 16:1 #
-10 1:-1.94428 2:-0.72960401 3:0.52069402 4:-0.98532099 5:-0.315952 6:-0.94798797 7:1.00299 8:-1.02782 9:-1.3987499 10:-0.45106101 14:1 20:1 #
-10 1:-1.96928 2:-0.85470498 3:-0.146862 4:-0.50543398 5:-0.24734101 6:-0.806894 7:0.66679102 8:-0.57258499 9:-0.77162302 10:-0.87018502 14:1 20:1 #
-10 1:-2.9300699 2:1.18265 3:3.32443 4:-0.84417802 5:0.26723799 6:-0.59268898 7:-4.63765 8:-0.977238 9:2.57303 10:-0.85130501 14:1 24:1 #
10 1:-1.79427 2:-0.67598999 3:0.78771698 4:1.02832 5:1.19348 6:-1.02302 7:1.11505 8:-1.1795599 9:-1.68618 10:-0.420854 14:1 24:1 #
5.0636353876770758830616614432074 1:-0.444175 2:-0.53301799 3:1.4552701 4:0.651941 5:1.9825 6:-0.82420999 7:1.4139 8:-1.48306 9:-2.23491 10:-1.1412899 13:1 38:1 #
-10 1:-2.2550199 2:1.2809401 3:2.25634 4:-0.63716799 5:-0.144425 6:-1.00699 7:-3.4049301 8:-0.57258499 9:2.10269 10:-1.00536 14:1 20:1 #
0.28873257816980535395146034716163 1:-0.919209 2:1.56688 3:2.25634 4:-0.19491901 5:0.76466602 6:-0.31755701 7:-2.8819599 8:-1.88771 9:1.03136 10:0.41512901 13:1 24:1 #
0.56373952792568216008106674053124 1:-3.7872701 2:1.79921 3:0.78771698 4:-0.95238799 5:-0.333105 6:-1.46875 7:-1.08891 8:-1.23015 9:0.169062 10:-0.94041598 14:1 15:1 #
-10 1:-1.57283 2:-0.58663201 3:-0.0133511 4:-0.50543398 5:-0.17873099 6:-1.35203 7:1.0403399 8:-0.269095 9:-0.98066401 10:-0.1943 14:1 20:1 #
4.675752886968306043513621261809 1:-2.1621499 2:1.69198 3:1.98932 4:0.45434001 5:1.70806 6:-0.82036197 7:-2.28427 8:-2.14062 9:0.45649299 10:-0.79013598 14:1 24:1 #
-0.1687809915847759412166340098338 1:-1.15851 2:1.72773 3:0.78771698 4:1.12712 5:3.4576299 6:-1.12949 7:-1.23833 8:-1.0784 9:0.40423301 10:-0.728966 14:1 24:1 #
10 1:-1.69784 2:-0.40791699 3:-0.413885 4:-1.0700099 5:-0.65900499 6:-1.20324 7:1.00299 8:0.23672201 9:-0.64097202 10:-0.51298499 14:1 20:1 #
-10 1:-1.4585299 2:-0.14878 3:0.78771698 4:-0.703035 5:-0.29879901 6:-0.781241 7:1.26448 8:0.28730401 9:-1.05905 10:-0.161072 13:1 18:1 #
-0.37295271391018403051020868588239 1:-1.0692199 2:-1.28362 3:2.1228299 4:-0.82065398 5:-0.57324201 6:-0.68375802 7:-1.38775 8:-3.00051 9:-0.79775298 10:0.44382599 11:1 43:1 #
6.0012471313987330034933620481752 1:-0.77991301 2:1.3971 3:0.52069402 4:0.53902602 5:-0.00720412 6:-0.309861 7:-1.6118799 8:0.034395501 9:1.34492 10:0.273911 13:1 24:1 #
-10 1:-1.16923 2:-0.229202 3:-0.413885 4:0.14382499 5:0.45591801 6:-0.44582301 7:0.96563298 8:0.54021198 9:-0.45806101 10:0.358491 13:1 18:1 #
10 1:-1.23709 2:-0.014744 3:1.1882499 4:-1.12646 5:-0.69331002 6:-0.31114301 7:1.0403399 8:0.59079403 9:-0.823883 10:0.61676198 13:1 18:1 #
10 1:-1.4263901 2:0.00312751 3:-0.68090802 4:0.32731101 5:1.05626 6:-1.09549 7:0.66679102 8:0.89428401 9:0.0122812 10:-0.72594601 13:1 18:1 #
10 1:-2.10144 2:0.38736501 3:1.85581 4:-0.27019501 5:0.93619198 6:-0.75045699 7:-0.52857703 8:1.34952 9:0.71779501 10:-1.17075 14:1 15:1 #
-10 1:-2.8371999 2:1.48646 3:2.79039 4:-0.82065398 5:0.19862799 6:-0.75686997 7:-3.7784801 8:-2.14062 9:1.42331 10:-0.68667603 14:1 24:1 #
-10 1:-2.99436 2:1.42391 3:0.52069402 4:-0.86770201 5:-0.230189 6:-1.2641701 7:-1.6118799 8:-0.066767797 9:1.29266 10:-1.12997 14:1 24:1 #
3.9583748742131144027212030778173 1:-2.56933 2:-0.434724 3:1.3217601 4:-1.26761 5:-0.79622602 6:-1.18015 7:1.48861 8:-0.977238 9:-2.0258701 10:-0.97893101 14:1 15:1 #
-10 1:-1.54782 2:-0.64918202 3:-0.146862 4:0.035615101 5:0.81612301 6:-0.88064802 7:0.96563298 8:-0.31967601 9:-0.902273 10:-0.485044 13:1 18:1 #
-10 1:-1.52997 2:-0.74747598 3:-0.68090802 4:0.073253401 5:0.42161199 6:-0.86204898 7:0.70414603 8:-0.016186099 9:-0.45806101 10:-0.49259499 13:1 18:1 #
-10 1:-1.25852 2:-0.40791699 3:-0.146862 4:-0.36429101 5:-0.00720412 6:-0.52534902 7:1.15241 8:0.084977202 9:-0.902273 10:-0.707066 13:1 18:1 #
-10 1:-1.20494 2:0.119292 3:-0.146862 4:0.83072197 5:0.62744403 6:-0.470835 7:0.66679102 8:1.09661 9:0.038411301 10:0.034519199 13:1 18:1 #
10 1:-1.3871 2:-0.32749501 3:-0.413885 4:0.63312203 5:1.24494 6:-1.08523 7:1.00299 8:0.38846701 9:-0.56258202 10:-0.67836899 13:1 18:1 #
5.2029226271398414382929331623018 1:-0.79777098 2:-0.220266 3:-0.68090802 4:0.308492 5:-0.36741 6:-0.167484 7:0.853567 8:0.59079403 9:-0.30127999 10:0.42796701 13:1 18:1 #
10 1:-1.63355 2:-0.461532 3:-0.68090802 4:-0.37369999 5:-0.24734101 6:-0.83062398 7:0.89092302 8:0.28730401 9:-0.484191 10:-0.77050102 13:1 18:1 #
-10 1:-0.98349899 2:-0.059422798 3:-0.28037399 4:0.308492 5:0.061406501 6:-0.070001602 7:0.89092302 8:0.79312098 9:-0.27515 10:0.32677299 13:1 18:1 #
2.7250764450641420388876667857403 1:-2.44432 2:-1.16746 3:2.25634 4:-0.36429101 5:0.81612301 6:-0.97620702 7:-0.90212899 8:-3.3039999 9:-1.37262 10:-0.97817498 14:1 20:1 #
-1.0381588782825483807670252645039 1:-0.251304 2:1.37923 3:-0.413885 4:-0.129052 5:0.130017 6:0.357768 7:-0.82741898 8:0.489631 9:1.05749 10:0.072278097 13:1 36:1 #
2.4655158642780516942139001912437 1:-2.70505 2:1.7456 3:0.52069402 4:0.28496799 5:0.59313899 6:-1.18015 7:-1.01419 8:-0.87607503 9:0.37810299 10:-1.36332 14:1 24:1 #
1.2297348554843647860934652271681 1:-2.5228901 2:-0.89938301 3:-0.81441897 4:-1.26761 5:-0.79622602 6:-0.64271301 7:0.48001501 8:0.034395501 9:-0.24902 10:-1.0997601 14:1 28:1 #
-10 1:-1.91214 2:-0.36323801 3:-0.0133511 4:-0.95238799 5:-0.487479 6:-1.01661 7:1.15241 8:0.13555899 9:-0.87614298 10:-0.37478799 14:1 20:1 #
10 1:-1.23352 2:-0.34536701 3:-0.28037399 4:-0.82065398 5:-0.55608898 6:-0.15850601 7:1.0403399 8:0.28730401 9:-0.66710198 10:0.171207 13:1 25:1 #
0.92563802711272558099153684452176 1:-1.67641 2:-1.29256 3:-0.413885 4:-0.547777 5:-0.45317301 6:-0.88642001 7:-0.117669 8:-0.269095 9:0.090671502 10:-0.83771199 13:1 18:1 #
-10 1:-1.32638 2:-0.37217399 3:-1.21495 4:-0.75949198 5:-0.45317301 6:-0.89347398 7:0.59208101 8:0.59079403 9:-0.0399791 10:-0.61191398 13:1 25:1 #
-10 1:-1.3621 2:-0.559825 3:-0.28037399 4:-1.0700099 5:-0.65900499 6:0.0082411403 7:1.00299 8:-0.066767797 9:-0.823883 10:0.384922 13:1 25:1 #
-10 1:-1.56568 2:-0.62237501 3:-1.34846 4:-0.420748 5:-0.144425 6:-1.29238 7:0.48001501 8:0.489631 9:0.038411301 10:-1.25079 14:1 20:1 #
10 1:-1.45139 2:-0.559825 3:-0.54739702 4:-1.12646 5:-0.81337899 6:-1.03072 7:0.89092302 8:0.084977202 9:-0.58871198 10:-0.63154799 13:1 25:1 #
10 1:-1.5764 2:-0.461532 3:-0.81441897 4:-0.129052 5:0.061406501 6:-1.0172499 7:0.816212 8:0.33788601 9:-0.35354099 10:-0.78636003 13:1 16:1 #
10 1:-1.24423 2:-1.2032 3:1.1882499 4:-0.279605 5:0.28439099 6:-1.27571 7:-0.56593198 8:-1.98887 9:-0.71936202 10:-0.46087801 13:1 24:1 #
10 1:-2.06215 2:1.8081501 3:2.6568799 4:0.0120913 5:1.1248699 6:-1.00763 7:-2.3589799 8:-3.3039999 9:-0.30127999 10:-1.0114 14:1 24:1 #
5.3214300353471202242872095666826 1:-2.0550001 2:1.7187901 3:2.3898499 4:-0.63716799 5:0.37015399 6:-0.93900901 7:-2.47105 8:-2.59585 9:0.27358201 10:-0.75011098 14:1 24:1 #
5.3697169916150206958604940155055 1:-1.35853 2:0.083549298 3:0.65420598 4:-1.26761 5:-0.79622602 6:-0.52983803 7:0.77885699 8:0.99544799 9:-0.24902 10:0.52916098 13:1 31:1 #
2.4147058445466935694412313750945 1:-1.0335 2:-0.65811801 3:-0.94793099 4:-0.41133901 5:-0.40171501 6:-0.31755701 7:0.66679102 8:0.23672201 9:-0.27515 10:-0.104434 13:1 18:1 #
10 1:-2.18716 2:-1.06023 3:-1.21495 4:-0.27019501 5:0.28439099 6:-0.70363998 7:0.293239 8:0.28730401 9:0.064541399 10:-1.21153 14:1 20:1 #
-10 1:-1.1049401 2:-0.74747598 3:-1.21495 4:-1.12646 5:-0.77907401 6:-1.46875 7:0.51736999 8:0.33788601 9:-0.118369 10:-0.86565399 13:1 31:1 #
-10 1:-0.90135002 2:-0.20239501 3:0.253672 4:0.035615101 5:0.54168099 6:0.13009501 7:1.18976 8:0.33788601 9:-0.85001302 10:0.19008601 13:1 24:1 #
-10 1:-2.3907399 2:-0.84576899 3:-0.81441897 4:0.120301 5:0.095711797 6:-1.12628 7:0.55472499 8:-0.016186099 9:-0.35354099 10:-1.14054 14:1 20:1 #
10 1:-1.40139 2:-0.300688 3:0.52069402 4:0.52961701 5:1.1248699 6:-1.04419 7:1.33919 8:-0.066767797 9:-1.24196 10:-0.69347298 13:1 18:1 #
4.1031312674314293076349713373929 1:-1.5406801 2:-0.88151199 3:-0.81441897 4:0.063843802 5:0.57598603 6:-1.2135 7:0.51736999 8:-0.016186099 9:-0.27515 10:-0.72217 13:1 16:1 #
-10 1:-1.45496 2:-0.78321898 3:0.253672 4:0.308492 5:-0.384563 6:-1.17053 7:0.853567 8:-0.87607503 9:-1.13744 10:-0.55754101 13:1 16:1 #
-10 1:-1.41567 2:-1.10491 3:-0.28037399 4:0.43552101 5:-1.32796 6:-0.72929299 7:0.181173 8:-0.522003 9:-0.35354099 10:-0.62399697 13:1 18:1 #
10 1:-2.1407199 2:1.68305 3:1.98932 4:0.63312203 5:1.99966 6:-0.82677603 7:-2.32163 8:-2.09004 9:0.50875401 10:-0.75841802 14:1 24:1 #
5.0956341030590941443279007216915 1:-1.90856 2:-0.65811801 3:-0.146862 4:-0.44427201 5:-0.315952 6:-1.1198699 7:0.96563298 8:-0.370258 9:-0.92840302 10:-0.70933199 13:1 18:1 #
4.8090065092685563286067917943001 1:-1.41924 2:-0.89938301 3:-0.146862 4:0.72721702 5:-0.213036 6:-1.13782 7:0.59208101 8:-0.62316602 9:-0.74549299 10:-0.610403 13:1 16:1 #
0.19885076271627757926729884729866 1:-1.20494 2:-1.01555 3:-0.413885 4:0.43081599 5:-0.487479 6:-0.323329 7:0.36794901 8:-0.42084 9:-0.405801 10:-0.89359498 13:1 16:1 #
3.250564469593619776333071058616 1:-1.96214 2:1.54008 3:0.253672 4:-0.98532099 5:-0.57324201 6:-0.99865299 7:-1.2756799 8:-0.218513 9:0.979096 10:-0.685166 14:1 30:1 #
10 1:-1.0692199 2:-0.79215401 3:-0.28037399 4:-0.251376 5:-0.60754699 6:-0.33166599 7:0.74150199 8:-0.31967601 9:-0.693232 10:-0.098392203 13:1 25:1 #
-10 1:-1.8407 2:0.1461 3:0.12016 4:-0.279605 5:-2.0483699 6:-0.74468499 7:0.62943602 8:1.14719 9:0.064541399 10:-0.37025699 13:1 18:1 #
-0.50837981288262634738117640154087 1:-1.56568 2:0.90563798 3:1.85581 4:0.84954101 5:-2.13413 6:-1.21863 7:-2.5831201 8:0.99544799 9:2.2855999 10:-0.66251099 13:1 18:1 #
-1.2766904102180074431771572562866 1:-0.79777098 2:1.64731 3:0.92122799 4:-0.32194799 5:0.62744403 6:-0.18351801 7:-1.5371701 8:-0.92665702 9:0.71779501 10:0.46572599 11:1 43:1 #
10 1:-2.68362 2:1.6741101 3:2.25634 4:-0.129052 5:1.82813 6:-1.1179399 7:-2.65783 8:-2.3935299 9:0.53488398 10:-0.84677398 14:1 24:1 #
6.3114459425772180267699695832562 1:-0.87992001 2:-0.73853999 3:-0.413885 4:0.477864 5:-1.03636 6:-1.03585 7:0.77885699 8:-0.269095 9:-0.71936202 10:-1.29006 13:1 18:1 #
10 1:-1.48353 2:-0.91725498 3:0.38718301 4:0.56725502 5:0.19862799 6:-1.1807899 7:0.55472499 8:-1.02782 9:-1.00679 10:-0.65269297 13:1 16:1 #
-1.6077493135013378733333411219064 1:-1.31924 2:-0.67598999 3:-0.68090802 4:1.4141099 5:-0.60754699 6:-0.781241 7:0.77885699 8:-0.016186099 9:-0.536452 10:1.4889899 11:1 43:1 #
-0.34021543866749265339066710112093 1:-0.84777498 2:-0.82789701 3:3.7249701 4:-0.56189102 5:0.61029202 6:-0.69594401 7:0.218528 8:-5.0743599 9:-3.7243299 10:0.152327 11:1 26:1 #
-10 1:-1.80856 2:-0.220266 3:0.78771698 4:-0.279605 5:0.181475 6:-0.78316498 7:1.33919 8:0.084977202 9:-1.21583 10:-0.531865 13:1 18:1 #
1.8853996986970296134700220136438 1:-0.97635502 2:-1.0781 3:-0.413885 4:-0.56189102 5:-0.230189 6:-0.154016 7:0.25588301 8:-0.42084 9:-0.327411 10:-0.019853599 13:1 24:1 #
3.1463477827902650574287690687925 1:-1.8264199 2:0.12822799 3:1.3217601 4:0.50138801 5:2.2569499 6:-0.806894 7:0.62943602 8:0.944866 9:-0.30127999 10:-1.08541 14:1 16:1 #
8.1239060732720176360999175813049 1:-3.3443799 2:1.45072 3:1.5887901 4:-1.0700099 5:-0.53893697 6:-1.33407 7:-2.5457599 8:-0.82549298 9:1.44944 10:-1.23116 14:1 24:1 #
10 1:-1.21566 2:-0.86364001 3:0.92122799 4:-0.56189102 5:-0.52178401 6:-0.074490897 7:0.66679102 8:-1.5842201 9:-1.50327 10:-0.96684802 13:1 24:1 #
-0.033740803415359565953224318946013 1:-1.84427 2:1.81709 3:0.65420598 4:1.44705 5:3.5434 6:-0.66002899 7:-0.86477399 8:-1.0784 9:0.142932 10:-1.0997601 14:1 20:1 #
-10 1:-1.02993 2:-1.1763901 3:-0.54739702 4:-1.0700099 5:-0.69331002 6:-0.53496897 7:0.106462 8:-0.269095 9:-0.066109203 10:-0.467675 13:1 24:1 #
-10 1:-1.63355 2:-1.3283 3:-0.81441897 4:-0.44427201 5:-0.29879901 6:-1.18015 7:-0.080313802 8:0.034395501 9:0.221322 10:-0.38460499 14:1 20:1 #
-10 1:-2.2550199 2:-1.31043 3:-0.68090802 4:-0.251376 5:0.112864 6:-1.19426 7:-0.080313802 8:-0.066767797 9:0.169062 10:-1.03934 14:1 24:1 #
9.4782691707773309985896048601717 1:-2.5228901 2:1.15584 3:1.1882499 4:-0.95238799 5:-0.50463098 6:-0.58371001 7:-2.2469201 8:0.489631 9:1.9720401 10:-1.02273 14:1 20:1 #
3.8939367110721327946976089151576 1:-1.2478 2:-1.2568099 3:-0.413885 4:0.28496799 5:-0.65900499 6:-0.36437401 7:-0.042958502 8:-0.269095 9:0.0122812 10:-0.84299803 13:1 24:1 #
-10 1:-1.35853 2:-1.24788 3:-0.54739702 4:-0.067889899 5:-0.24734101 6:-1.2212 7:-0.042958502 8:-0.218513 9:0.0122812 10:-0.81279099 13:1 25:1 #
-10 1:-1.1478 2:-1.14958 3:-0.0133511 4:-0.67010099 5:-0.86483699 6:-0.611929 7:0.031752001 8:-0.77491099 9:-0.37967101 10:0.0080879601 13:1 25:1 #
-10 1:-1.15137 2:-1.05129 3:0.253672 4:0.37906399 5:-0.95060003 6:-0.43556201 7:0.218528 8:-0.977238 9:-0.66710198 10:-0.20260701 13:1 24:1 #
10 1:-2.6371901 2:1.79921 3:1.85581 4:-0.63716799 5:0.33584899 6:-0.548437 7:-1.72394 8:-2.2923601 9:-0.0399791 10:-1.21153 14:1 24:1 #
10 1:-2.15501 2:1.70986 3:2.1228299 4:0.53902602 5:1.87959 6:-0.82420999 7:-2.32163 8:-2.3429401 9:0.351973 10:-0.77427697 14:1 24:1 #
7.7390240503306095831703714793548 1:-2.3764601 2:1.22733 3:2.9238999 4:-0.420748 5:0.64459699 6:-0.94157398 7:-4.1893902 8:-0.87607503 9:2.39012 10:-0.93588501 14:1 20:1 #
10 1:-2.6229 2:1.3971 3:3.05741 4:-1.0700099 5:-0.29879901 6:-1.07112 7:-4.1893902 8:-1.83713 9:1.84139 10:-1.08994 14:1 24:1 #
-8.9733124309183569522474499535747 1:-0.783485 2:1.03967 3:-1.21495 4:-0.129052 5:0.45591801 6:-0.96209699 7:-0.26708999 8:0.944866 9:0.848445 10:-0.044774499 13:1 45:1 #
6.7777335409574455127312830882147 1:-1.0799299 2:-1.31043 3:1.7223001 4:-0.467796 5:0.112864 6:-0.38104901 7:-1.2009701 8:-2.3935299 9:-0.51032102 10:0.548796 13:1 24:1 #
2.6885105807506164410369819961488 1:-3.28723 2:1.59369 3:0.92122799 4:-1.12646 5:-0.71046299 6:-1.2372299 7:-1.64923 8:-0.77491099 9:0.87457502 10:-1.08692 14:1 28:1 #
0.71467876515662176473142608301714 1:-2.9407799 2:1.26307 3:0.52069402 4:-0.56189102 5:-0.60754699 6:-1.3687 7:-1.64923 8:0.43904901 9:1.58009 10:-0.96458203 14:1 24:1 #
1.5770649602910644659914396470413 1:-2.0335701 2:1.07542 3:1.85581 4:-0.63716799 5:-0.024356799 6:-1.36101 7:-2.9193101 8:0.43904901 9:2.3117299 10:-1.3353699 13:1 16:1 #
-3.5849676128787741902215202571824 1:-0.49775001 2:1.38817 3:0.92122799 4:-0.95238799 5:-0.281647 6:-1.04483 7:-2.0601399 8:-0.16793101 9:1.5017 10:-0.66402102 13:1 37:1 #
0.73028963257998213975952239707112 1:-0.64776099 2:1.47753 3:0.92122799 4:-1.26761 5:-0.79622602 6:-0.54074103 7:-1.9480799 8:-0.471421 9:1.26653 10:-0.14823399 13:1 27:1 #
-4.4293337908174397199445593287237 1:-0.82634503 2:0.00312751 3:0.78771698 4:-0.703035 5:-0.19588301 6:-0.510598 7:0.96563298 8:0.74253899 9:-0.58871198 10:0.330549 13:1 24:1 #
10 1:-1.15494 2:-1.09597 3:1.98932 4:-1.0700099 5:-0.45317301 6:-0.76392502 7:-0.453866 8:-3.05109 9:-1.58166 10:-0.87320602 13:1 47:1 #
-0.12209481986679772413939559783103 1:-0.869205 2:1.78134 3:1.7223001 4:-0.95238799 5:-0.11012 6:0.196793 7:-1.72394 8:-2.14062 9:0.064541399 10:3.5362799 11:1 43:1 #
3.7634479818492110325678368099034 1:-0.75491101 2:-0.56876099 3:0.253672 4:-1.12646 5:-0.64185202 6:-0.88770199 7:1.15241 8:-0.471421 9:-1.21583 10:-0.39970899 13:1 37:1 #
10 1:-1.12994 2:-0.82789701 3:0.52069402 4:-0.129052 5:-0.47032601 6:-0.341286 7:0.77885699 8:-1.0784 9:-1.2681 10:-0.064409196 13:1 25:1 #
-3.834432720961434171158543904312 1:-1.12994 2:-1.23894 3:1.1882499 4:1.08008 5:1.9825 6:-1.01661 7:-0.67799801 8:-1.88771 9:-0.58871198 10:-1.06955 13:1 47:1 #
10 1:-3.2265201 2:0.59288698 3:1.1882499 4:0.063843802 5:-0.81337899 6:-1.13397 7:-0.97684002 8:1.55185 9:1.42331 10:-0.78031898 14:1 15:1 #
8.5926919058712876164918270660564 1:-1.1835099 2:-1.06916 3:-0.0133511 4:-0.56189102 5:-0.315952 6:-1.12949 7:0.218528 8:-0.82549298 9:-0.536452 10:-0.55980599 13:1 24:1 #
10 1:-1.99071 2:-0.64024699 3:0.38718301 4:-0.68421501 5:0.164322 6:-1.19683 7:1.11505 8:-0.72433001 9:-1.3203599 10:-0.80523902 13:1 18:1 #
10 1:-2.8764901 2:1.4954 3:2.9238999 4:-0.50543398 5:0.901887 6:-1.1660399 7:-3.81584 8:-2.24178 9:1.39718 10:-0.89963698 14:1 24:1 #
9.5864058426740577090185979614034 1:-2.5443201 2:1.17371 3:2.79039 4:-0.32194799 5:1.02196 6:-0.98197901 7:-4.0399699 8:-0.522003 9:2.4946401 10:-0.67685902 14:1 24:1 #
2.2738780346004112686841835966334 1:-1.69069 2:0.50353003 3:0.38718301 4:1.36707 5:3.20034 6:-0.88770199 7:-0.304445 8:1.55185 9:1.0052299 10:-0.98874801 14:1 16:1 #
10 1:-1.8657 2:-0.93512601 3:-0.146862 4:-0.703035 5:0.112864 6:-1.26096 7:0.51736999 8:-0.57258499 9:-0.64097202 10:-1.12392 14:1 24:1 #
1.1799392501403180855135133242584 1:-1.78356 2:0.12822799 3:-0.68090802 4:-1.26761 5:-0.79622602 6:-0.254706 7:0.55472499 8:1.04603 9:0.169062 10:-1.26816 13:1 30:1 #
-10 1:-1.08708 2:-0.72960401 3:-0.0133511 4:-0.56189102 5:-0.24734101 6:0.026198501 7:0.89092302 8:-0.522003 9:-0.95453399 10:-0.67081797 13:1 24:1 #
6.3793841355617768584806981380098 1:-2.46575 2:1.55795 3:2.1228299 4:0.14382499 5:1.4679199 6:-0.81843799 7:-2.8446 8:-1.73596 9:1.08362 10:-0.83242601 14:1 24:1 #
-10 1:-0.89063501 2:-0.93512601 3:-1.08144 4:-1.12646 5:-0.79622602 6:-1.12371 7:0.40530401 8:0.186141 9:-0.092239402 10:0.190841 13:1 31:1 #
-3.1248260029389918202014087000862 1:-0.66204703 2:-1.0781 3:1.5887901 4:0.81660801 5:2.6686101 6:-0.65746403 7:-0.229735 8:-2.59585 9:-1.42488 10:-0.88302302 13:1 47:1 #
10 1:-3.1908 2:0.94138098 3:0.38718301 4:-0.24196699 5:0.37015399 6:-1.21863 7:-1.31304 8:1.19777 9:1.68461 10:-1.01744 14:1 24:1 #
-10 1:-1.27995 2:-0.44365999 3:-0.94793099 4:-0.36429101 5:-0.24734101 6:-0.55484998 7:0.74150199 8:0.43904901 9:-0.27515 10:-0.420854 13:1 25:1 #
7.9178508475260116483696037903428 1:-2.76934 2:1.52221 3:1.05474 4:-0.129052 5:1.34786 6:-1.1807899 7:-1.9480799 8:-0.72433001 9:1.13588 10:-0.93588501 14:1 24:1 #
0.13219532976904468934975511729135 1:-3.1586499 2:-1.23894 3:2.25634 4:-0.95238799 5:-0.281647 6:-1.46426 7:-1.2756799 8:-3.2534101 9:-1.08518 10:-0.94041598 14:1 24:1 #
10 1:-1.3621 2:-0.58663201 3:-1.08144 4:-0.95238799 5:-0.79622602 6:-0.92874801 7:0.62943602 8:0.38846701 9:-0.17062999 10:-0.40575001 13:1 25:1 #
10 1:-0.894207 2:-0.81896198 3:-0.0133511 4:0.38376901 5:-1.03636 6:-1.02495 7:0.74150199 8:-0.67374802 9:-0.92840302 10:-1.3089401 13:1 24:1 #
-10 1:-0.67276198 2:-0.702797 3:-0.68090802 4:0.70839798 5:-0.69331002 6:-1.06279 7:0.74150199 8:0.034395501 9:-0.45806101 10:-1.08541 13:1 25:1 #
-10 1:-0.93706697 2:-1.05129 3:-0.146862 4:0.69898802 5:0.43876499 6:-1.2141401 7:0.25588301 8:-0.67374802 9:-0.51032102 10:-1.35199 13:1 24:1 #
10 1:-1.31567 2:-0.68492502 3:0.12016 4:-0.63716799 5:-0.64185202 6:0.37572601 7:1.00299 8:-0.62316602 9:-1.16357 10:-0.728966 13:1 25:1 #
10 1:-1.69784 2:0.968189 3:1.05474 4:-0.16669001 5:0.38730699 6:-1.15386 7:-1.98543 8:1.04603 9:2.0243001 10:-1.2689199 14:1 24:1 #
2.0052342288663522751335221983027 1:-2.8371999 2:1.54901 3:2.52336 4:-0.37369999 5:1.09057 6:-1.16027 7:-3.3675799 8:-2.1912 9:1.13588 10:-0.89586103 14:1 24:1 #
-10 1:-1.37638 2:-1.00661 3:-0.68090802 4:0.308492 5:-0.72761601 6:0.207055 7:0.36794901 8:-0.16793101 9:-0.27515 10:0.57522702 13:1 25:1 #
-10 1:-1.36924 2:-1.11384 3:-0.413885 4:-0.84417802 5:-0.69331002 6:0.33724499 7:0.181173 8:-0.370258 9:-0.24902 10:0.41059801 13:1 25:1 #
5.1176546903265816013117728289217 1:-1.27281 2:-1.18533 3:-0.28037399 4:0.035615101 5:-0.436021 6:-0.421453 7:-0.0056032902 8:-0.471421 9:-0.17062999 10:-0.047795299 13:1 25:1 #
-10 1:-2.5657499 2:1.57582 3:1.4552701 4:0.063843802 5:1.69091 6:-0.71390098 7:-2.13485 8:-1.1795599 9:0.979096 10:-0.65495902 14:1 24:1 #
10 1:-0.95135403 2:-1.29256 3:-0.68090802 4:-0.86770201 5:-0.77907401 6:-0.18736599 7:-0.042958502 8:-0.066767797 9:0.142932 10:0.48913699 13:1 25:1 #
-2.8260233692977307917715279472759 1:-0.74062401 2:-0.37217399 3:0.78771698 4:-0.98532099 5:-0.86483699 6:-0.86204898 7:1.4139 8:-0.370258 9:-1.50327 10:-1.10807 13:1 27:1 #
-10 1:-3.0729301 2:1.01287 3:1.05474 4:-0.84417802 5:-0.19588301 6:-1.1763 7:-1.98543 8:0.944866 9:1.99817 10:-0.89737099 14:1 20:1 #
8.5586404966247400238898990210146 1:-2.1300099 2:1.31668 3:1.7223001 4:-0.82065398 5:0.061406501 6:-0.80176401 7:-2.8446 8:-0.370258 9:1.8936501 10:-0.349112 14:1 24:1 #
10 1:-0.94778198 2:-1.0870301 3:-0.68090802 4:-0.95238799 5:-0.84768403 6:-0.173898 7:0.25588301 8:-0.11735 9:-0.1445 10:0.49215701 13:1 25:1 #
9.0559608741762716022094537038356 1:-1.29424 2:-1.12278 3:-0.413885 4:-0.36429101 5:-0.53893697 6:-0.37784201 7:0.14381801 8:-0.42084 9:-0.24902 10:-0.016832899 13:1 25:1 #
-10 1:-0.7942 2:-1.2568099 3:-0.94793099 4:-1.0700099 5:-0.79622602 6:-0.77482802 7:0.069107197 8:0.13555899 9:0.169062 10:0.22180399 13:1 25:1 #
10 1:-0.61204398 2:-0.91725498 3:0.38718301 4:0.34142601 5:0.798971 6:-0.85178798 7:0.55472499 8:-1.1795599 9:-1.08518 10:-1.21153 13:1 47:1 #
10 1:-1.82284 2:1.2362601 3:1.1882499 4:0.17205399 5:2.2569499 6:-1.04162 7:-2.28427 8:0.23672201 9:1.86752 10:-0.58246201 14:1 24:1 #
10 1:-1.99429 2:1.35243 3:1.1882499 4:0.81660801 5:2.29125 6:-0.91463798 7:-2.3589799 8:-0.269095 9:1.65848 10:-0.70253497 14:1 24:1 #
10 1:-1.02993 2:-0.98874098 3:-0.146862 4:-0.86770201 5:-0.487479 6:-0.196986 7:0.40530401 8:-0.67374802 9:-0.614842 10:-0.066674702 13:1 24:1 #
-10 1:-1.77284 2:1.28988 3:1.4552701 4:0.186168 5:2.34271 6:-1.38538 7:-2.65783 8:-0.16793101 9:1.8936501 10:-0.24565201 14:1 24:1 #
10 1:-1.02636 2:1.75453 3:-0.54739702 4:-1.26761 5:-0.79622602 6:-0.59461302 7:-0.37915599 8:-0.066767797 9:0.40423301 10:-0.47371599 13:1 34:1 #
-10 1:-1.02636 2:-0.54195303 3:-0.81441897 4:-1.26761 5:-0.79622602 6:-0.54074103 7:0.77885699 8:0.28730401 9:-0.37967101 10:-0.38460499 13:1 25:1 #
0.15772713214158073924409109167755 1:-1.7657 2:-1.2568099 3:-1.48198 4:-0.063185103 5:-0.55608898 6:-0.92233402 7:0.181173 8:0.489631 9:0.29971299 10:-0.70933199 14:1 20:1 #
10 1:-1.34781 2:-0.60450399 3:-0.94793099 4:-1.12646 5:-0.72761601 6:-0.26111901 7:0.70414603 8:0.23672201 9:-0.35354099 10:0.065481499 13:1 25:1 #
10 1:-1.47282 2:-0.425789 3:-1.48198 4:-1.26761 5:-0.79622602 6:-1.04483 7:0.48001501 8:0.64137602 9:0.090671502 10:-0.67459399 13:1 25:1 #
6.1270643191674434291371653671376 1:-1.3621 2:-1.3908499 3:-1.61549 4:-1.26761 5:-0.79622602 6:-0.95632499 7:0.14381801 8:0.59079403 9:0.351973 10:-0.452571 13:1 25:1 #
-9.6505487311641235947945460793562 1:-1.36567 2:-0.264945 3:-1.08144 4:-0.86770201 5:-0.79622602 6:0.39817199 7:0.70414603 8:0.64137602 9:-0.118369 10:0.267869 13:1 25:1 #
6.1961966166149569090748627786525 1:-0.73705298 2:1.31668 3:-0.146862 4:0.34142601 5:0.19862799 6:-0.33487299 7:-1.01419 8:0.54021198 9:1.21427 10:0.25503099 13:1 24:1 #
-2.2942020386353147998192980594467 1:-0.35845399 2:1.03074 3:0.52069402 4:0.651941 5:2.85729 6:-0.81010097 7:-1.57452 8:0.99544799 9:1.78913 10:-0.167869 13:1 47:1 #
5.4135449357443921059029889875092 1:-1.9299901 2:1.7456 3:1.4552701 4:-0.37369999 5:0.76466602 6:-0.97364098 7:-1.64923 8:-1.68538 9:0.29971299 10:-0.707066 14:1 24:1 #
-10 1:-1.8157001 2:1.42391 3:1.4552701 4:-0.82065398 5:-0.29879901 6:-1.01982 7:-2.4336901 8:-0.62316602 9:1.5017 10:-0.42689499 13:1 24:1 #
-10 1:-1.41924 2:1.65624 3:1.4552701 4:-0.063185103 5:-0.041509401 6:-0.908225 7:-1.91072 8:-1.43247 9:0.66553402 10:-0.178441 13:1 47:1 #
-10 1:-1.35495 2:-0.872576 3:-1.08144 4:-0.37369999 5:-0.384563 6:-0.90886599 7:0.44266 8:0.23672201 9:-0.118369 10:0.181024 13:1 25:1 #
-4.3519663393120584515827431459911 1:-2.3264501 2:-0.229202 3:1.7223001 4:-0.24196699 5:1.10772 6:-1.02623 7:1.45125 8:-0.471421 9:-1.84296 10:-0.32041499 14:1 17:1 #
-7.7206272074229893576102767838165 1:-0.48703501 2:-0.470467 3:-0.68090802 4:-0.82065398 5:-0.59039497 6:-0.64271301 7:0.853567 8:0.28730401 9:-0.45806101 10:0.811598 13:1 37:1 #
-10 1:-1.15851 2:-0.264945 3:-0.146862 4:-1.0700099 5:-0.69331002 6:-0.0103575 7:1.0777 8:0.38846701 9:-0.66710198 10:0.36528701 13:1 18:1 #
-0.28668035574739025861390473437496 1:-0.28344899 2:0.74479502 3:-0.413885 4:-0.27019501 5:0.50737602 6:-0.52599001 7:-0.453866 8:1.2989399 9:1.13588 10:-0.087819703 13:1 48:1 #
-10 1:-1.34067 2:-0.71173298 3:-1.08144 4:-0.86770201 5:-0.72761601 6:0.44049999 7:0.59208101 8:0.28730401 9:-0.17062999 10:0.40606701 13:1 25:1 #
10 1:-0.72276598 2:-0.47940299 3:-0.81441897 4:-1.12646 5:-0.76192099 6:-0.96530402 7:0.816212 8:0.33788601 9:-0.37967101 10:-0.36270499 13:1 37:1 #
-10 1:-1.16208 2:-1.0781 3:1.85581 4:0.063843802 5:2.0854199 6:-0.97107601 7:-0.304445 8:-2.7981801 9:-1.50327 10:-0.41858801 13:1 47:1 #
10 1:-3.5301099 2:1.18265 3:2.1228299 4:-0.105528 5:1.2964 6:-1.37255 7:-3.2555101 8:-0.066767797 9:2.2855999 10:-0.87244999 14:1 19:1 #
10 1:-2.99436 2:1.25413 3:0.52069402 4:-0.68421501 5:-0.24734101 6:-1.3712699 7:-1.64923 8:0.43904901 9:1.60622 10:-0.93286502 14:1 24:1 #
-0.076064854501294298927405179711059 1:-0.58704197 2:-0.425789 3:-0.413885 4:0.28496799 5:-0.11012 6:-0.62283099 7:1.00299 8:0.186141 9:-0.64097202 10:-0.925313 13:1 42:1 #
10 1:-1.37281 2:-0.390046 3:-0.413885 4:-0.98532099 5:-0.89914203 6:0.34943101 7:1.00299 8:0.23672201 9:-0.614842 10:-0.69875902 13:1 18:1 #
10 1:-1.6014 2:0.17290699 3:1.05474 4:-1.26761 5:-0.79622602 6:-0.094372302 7:0.51736999 8:1.09661 9:-0.092239402 10:-0.85734701 13:1 18:1 #
2.4894263185413478822738397866488 1:-3.4265299 2:-0.84576899 3:-0.146862 4:-0.13846201 5:0.54168099 6:-1.3148299 7:0.66679102 8:-0.62316602 9:-0.823883 10:-0.83469099 14:1 15:1 #
10 1:-2.4335999 2:-1.00661 3:0.65420598 4:-1.0700099 5:-0.53893697 6:-0.79535002 7:0.293239 8:-1.48306 9:-1.05905 10:-0.816567 14:1 20:1 #
-10 1:-2.8479199 2:1.70986 3:0.52069402 4:-0.279605 5:0.88473397 6:-1.17117 7:-1.12626 8:-0.82549298 9:0.50875401 10:-1.16546 14:1 24:1 #
-10 1:-1.12637 2:-0.104102 3:0.65420598 4:-0.56189102 5:-1.2593499 6:0.235273 7:1.15241 8:0.489631 9:-0.85001302 10:-0.087064497 13:1 25:1 #
-10 1:-1.06208 2:0.020998999 3:0.52069402 4:-0.98532099 5:-0.60754699 6:-0.19377901 7:0.92827803 8:0.84370297 9:-0.43193099 10:0.35622501 13:1 18:1 #
-0.72542089248237040521871676901355 1:-1.35495 2:-0.44365999 3:3.32443 4:-0.95238799 5:-0.092967398 6:-0.470835 7:1.45125 8:-3.05109 9:-3.7243299 10:-0.38082901 13:1 27:1 #
2.7135916819130647681390655634459 1:-3.1265099 2:-0.64024699 3:0.78771698 4:-1.12646 5:-0.60754699 6:-1.2160701 7:1.18976 8:-1.1795599 9:-1.71231 10:-0.94721299 14:1 24:1 #
-7.4098027569191486918498412705958 1:0.113008 2:1.47753 3:1.5887901 4:0.75544602 5:3.0631199 6:-1.02046 7:-2.5084 8:-0.977238 9:1.34492 10:-0.52129197 13:1 47:1 #
-10 1:-2.80863 2:1.7456 3:0.92122799 4:-0.27019501 5:-0.59039497 6:-1.13782 7:-1.2756799 8:-1.1795599 9:0.37810299 10:-0.97893101 14:1 24:1 #
10 1:-1.19066 2:-0.34536701 3:-0.28037399 4:0.25674 5:-0.76192099 6:-0.39515799 7:1.0403399 8:0.28730401 9:-0.66710198 10:-0.0999026 13:1 16:1 #
4.9083645350113442873407620936632 1:-0.48703501 2:-0.89044797 3:1.05474 4:0.308492 5:2.1883399 6:-0.76969701 7:0.59208101 8:-1.73596 9:-1.55553 10:-1.099 13:1 47:1 #
-0.85884055664864045187556484961533 1:0.17372701 2:1.12903 3:1.85581 4:0.61430299 5:2.8229799 6:0.062754497 7:-2.99402 8:0.23672201 9:2.2855999 10:-0.40650499 13:1 47:1 #
5.7347187868330493643043155316263 1:-2.4300301 2:-0.81002599 3:0.38718301 4:-0.75949198 5:-0.59039497 6:-1.39051 7:0.816212 8:-1.0784 9:-1.24196 10:-0.76521498 14:1 17:1 #
3.1930585139608815836709254654124 1:-1.39424 2:-0.31856 3:0.52069402 4:-0.98532099 5:-1.0020601 6:0.330832 7:1.33919 8:-0.066767797 9:-1.21583 10:-0.704045 13:1 18:1 #
-10 1:-0.99064201 2:-0.32749501 3:0.65420598 4:0.035615101 5:0.0271012 6:0.033894502 7:1.3765399 8:-0.16793101 9:-1.34649 10:0.23615199 13:1 24:1 #
8.7808151991783311984818283235654 1:-0.94063902 2:0.378429 3:-1.61549 4:-0.63716799 5:-0.55608898 6:-0.241879 7:0.218528 8:0.89428401 9:0.430363 10:0.43249801 13:1 16:1 #
0.64334626453388343847450414614286 1:-1.84785 2:-1.00661 3:-0.68090802 4:0.289673 5:0.901887 6:-1.06407 7:0.36794901 8:-0.11735 9:-0.22289 10:-0.98648202 14:1 20:1 #
