SVM-light Version V6.02
2 # kernel type
3 # kernel parameter -d 
1 # kernel parameter -g 
1 # kernel parameter -s 
1 # kernel parameter -r 
empty# kernel parameter -u 
54 # highest feature index 
10000 # number of training documents 
8118 # number of support vectors plus 1 
0.67394013 # threshold b, each following line is a SV (starting with alpha*y)
-0.036629210056728638000844711086756 1:-0.75133902 2:0.065677799 3:-1.08144 4:-0.68421501 5:-0.69331002 6:-0.31755701 7:0.51736999 8:0.944866 9:0.19519199 10:0.452133 11:1 44:1 #
-0.037550094142350366743787759560291 1:0.113008 2:-1.35511 3:-0.54739702 4:0.186168 5:-0.075814798 6:1.27552 7:-0.19238 8:-0.16793101 9:0.221322 10:2.3431001 11:1 43:1 #
-0.10000000000000000555111512312578 1:-2.2335899 2:-1.3461699 3:1.3217601 4:-0.13846201 5:0.747513 6:-0.61064601 7:-1.12626 8:-1.88771 9:-0.22289 10:-1.08692 14:1 24:1 #
-0.10000000000000000555111512312578 1:-0.544182 2:-0.78321898 3:1.3217601 4:-0.129052 5:1.34786 6:-0.55036098 7:0.92827803 8:-1.93829 9:-1.97361 10:-0.64514202 13:1 47:1 #
-0.025754698645559785663561314095205 1:0.22373 2:1.55795 3:-0.68090802 4:0.75544602 5:1.1248699 6:-0.418246 7:-0.52857703 8:0.28730401 9:0.71779501 10:0.31544599 13:1 46:1 #
0.10000000000000000555111512312578 1:-2.1192901 2:-1.23894 3:2.6568799 4:-1.12646 5:-0.47032601 6:-1.20324 7:-1.49981 8:-3.7086501 9:-1.21583 10:-1.01065 14:1 24:1 #
0.10000000000000000555111512312578 1:-2.9264901 2:1.57582 3:1.3217601 4:-0.24196699 5:0.93619198 6:-1.2455699 7:-2.13485 8:-1.12898 9:1.0052299 10:-1.02424 14:1 24:1 #
0.10000000000000000555111512312578 1:-2.4586 2:0.36949301 3:1.05474 4:-1.12646 5:-0.67615801 6:-0.47596601 7:-0.15502401 8:1.45068 9:0.69166398 10:-0.68894202 14:1 31:1 #
0.080023086405274987398250630121765 1:-1.92642 2:1.56688 3:-0.54739702 4:-0.16669001 5:0.49022299 6:-0.67221397 7:-0.56593198 8:0.23672201 9:0.71779501 10:-1.01744 14:1 24:1 #
0.10000000000000000555111512312578 1:-1.23709 2:0.83415198 3:0.65420598 4:-1.26761 5:-0.79622602 6:-0.60743898 7:-1.38775 8:1.34952 9:1.763 10:-0.64665198 13:1 34:1 #
-0.10000000000000000555111512312578 1:-2.3585999 2:1.58476 3:1.1882499 4:-0.75949198 5:-0.092967398 6:-1.06279 7:-1.8733701 8:-0.977238 9:0.92683601 10:-1.099 14:1 24:1 #
-0.10000000000000000555111512312578 1:-2.6979101 2:1.52221 3:0.92122799 4:-0.67010099 5:-0.315952 6:-0.749174 7:-1.79866 8:-0.62316602 9:1.10975 10:-0.63456899 14:1 24:1 #
-0.10000000000000000555111512312578 1:-2.6693299 2:0.235457 3:1.05474 4:-1.26761 5:-0.79622602 6:-0.548437 7:0.293239 8:1.24836 9:0.169062 10:-0.80675 14:1 31:1 #
0.10000000000000000555111512312578 1:-1.99429 2:-1.33724 3:1.1882499 4:-0.16669001 5:0.747513 6:-0.59781897 7:-1.01419 8:-1.73596 9:-0.19676 10:-1.19038 14:1 24:1 #
0.10000000000000000555111512312578 1:-1.8728499 2:-0.82789701 3:0.52069402 4:0.34142601 5:0.81612301 6:-1.08716 7:0.77885699 8:-1.0784 9:-1.2681 10:-0.43595701 14:1 24:1 #
0.10000000000000000555111512312578 1:-2.39431 2:-1.28362 3:1.3217601 4:0.25674 5:1.05626 6:-0.91079003 7:-0.90212899 8:-1.93829 9:-0.43193099 10:-0.87698102 14:1 24:1 #
-0.10000000000000000555111512312578 1:-2.3585999 2:-1.3014899 3:1.05474 4:-0.32194799 5:0.26723799 6:-0.65682203 7:-0.82741898 8:-1.73596 9:-0.327411 10:-0.73425299 14:1 24:1 #
-0.10000000000000000555111512312578 1:-2.5479 2:-1.18533 3:1.3217601 4:0.204987 5:1.09057 6:-0.67478001 7:-0.49122199 8:-2.09004 9:-0.823883 10:-0.94721299 14:1 24:1 #
-0.10000000000000000555111512312578 1:-2.3193099 2:-1.16746 3:0.78771698 4:-0.420748 5:0.33584899 6:-0.64591998 7:-0.229735 8:-1.48306 9:-0.64097202 10:-1.0997601 14:1 24:1 #
0.017368997148607682318166567370099 1:-2.0692899 2:1.4596601 3:0.92122799 4:-0.56189102 5:0.181475 6:-0.60294998 7:-1.91072 8:-0.42084 9:1.29266 10:-1.25155 14:1 24:1 #
0.10000000000000000555111512312578 1:-1.8049901 2:1.30775 3:-0.28037399 4:-0.82065398 5:-0.52178401 6:-0.77610999 7:-0.97684002 8:0.54021198 9:1.21427 10:-1.3127199 14:1 24:1 #
-0.10000000000000000555111512312578 1:-0.51560801 2:0.074613497 3:0.92122799 4:-0.32194799 5:0.095711797 6:0.79708201 7:0.816212 8:0.89428401 9:-0.37967101 10:-0.39970899 11:1 44:1 #
-0.10000000000000000555111512312578 1:-1.8728499 2:1.45072 3:1.05474 4:-0.68421501 5:0.30154401 6:-0.89988798 7:-2.02279 8:-0.42084 9:1.37105 10:-0.52053702 14:1 24:1 #
-0.10000000000000000555111512312578 1:-2.92292 2:-0.96193397 3:2.1228299 4:-1.0700099 5:-0.52178401 6:-0.71454197 7:0.106462 8:-3.1522501 9:-2.1565199 10:-0.74482501 14:1 24:1 #
-0.10000000000000000555111512312578 1:-2.80863 2:1.7456 3:0.92122799 4:-0.27019501 5:-0.59039497 6:-1.13782 7:-1.2756799 8:-1.1795599 9:0.37810299 10:-0.97893101 14:1 24:1 #
0.0001879666821284720025150849487261 1:-2.1835799 2:-1.2032 3:1.05474 4:-0.36429101 5:0.45591801 6:-0.69915003 7:-0.49122199 8:-1.88771 9:-0.693232 10:-1.26212 14:1 24:1 #
0.045802289270547046073911445773774 1:-3.36938 2:-1.16746 3:1.3217601 4:-0.75949198 5:-0.11012 6:-1.23146 7:-0.453866 8:-2.09004 9:-0.902273 10:-1.08692 14:1 24:1 #
0.10000000000000000555111512312578 1:-1.77641 2:-1.24788 3:-0.0133511 4:-0.95238799 5:-0.53893697 6:-1.32445 7:-0.19238 8:-0.72433001 9:-0.1445 10:-0.588503 14:1 25:1 #
-0.10000000000000000555111512312578 1:-2.3693099 2:-1.28362 3:0.92122799 4:-0.68421501 5:-0.11012 6:-1.37255 7:-0.67799801 8:-1.53364 9:-0.327411 10:-0.73576301 14:1 24:1 #
-0.10000000000000000555111512312578 1:-2.2943101 2:-0.93512601 3:0.52069402 4:-0.50543398 5:0.26723799 6:-1.06407 7:0.51736999 8:-1.23015 9:-1.08518 10:-1.0197099 14:1 24:1 #
-0.10000000000000000555111512312578 1:-2.0871501 2:-0.908319 3:0.65420598 4:-0.251376 5:-0.213036 6:-0.90950799 7:0.55472499 8:-1.43247 9:-1.29423 10:-0.92908901 14:1 24:1 #
0.10000000000000000555111512312578 1:-0.62633002 2:-0.765347 3:1.05474 4:-0.129052 5:1.10772 6:-0.755588 7:0.96563298 8:-1.6348 9:-1.7907 10:-1.10807 13:1 47:1 #
0.10000000000000000555111512312578 1:-0.52632302 2:-0.78321898 3:1.1882499 4:0.186168 5:1.81098 6:-0.77226198 7:0.89092302 8:-1.83713 9:-1.89522 10:-1.11033 13:1 47:1 #
0.10000000000000000555111512312578 1:-3.00507 2:1.7187901 3:1.1882499 4:-0.053775601 5:-0.40171501 6:-1.21799 7:-1.49981 8:-1.3818901 9:0.430363 10:-0.89661598 14:1 24:1 #
-0.10000000000000000555111512312578 1:-2.99436 2:1.42391 3:0.52069402 4:-0.86770201 5:-0.230189 6:-1.2641701 7:-1.6118799 8:-0.066767797 9:1.29266 10:-1.12997 14:1 24:1 #
-0.10000000000000000555111512312578 1:-2.2228701 2:-1.11384 3:1.5887901 4:-0.75949198 5:0.45591801 6:-0.44005099 7:-0.34180099 8:-2.4946899 9:-1.2681 10:-0.87924701 14:1 24:1 #
-0.10000000000000000555111512312578 1:-2.8764901 2:0.56607997 3:0.92122799 4:-1.12646 5:-0.67615801 6:-0.74083698 7:-0.75270802 8:1.55185 9:1.29266 10:-0.75313199 14:1 31:1 #
0.047467078828043171578876524563384 1:-1.11922 2:-0.94406199 3:0.253672 4:-0.467796 5:-0.281647 6:-0.060381599 7:0.48001501 8:-0.977238 9:-0.902273 10:0.20745499 13:1 24:1 #
0.10000000000000000555111512312578 1:-1.64783 2:-1.19426 3:-0.146862 4:-1.0700099 5:-0.67615801 6:-0.749174 7:-0.0056032902 8:-0.522003 9:-0.17062999 10:-0.704045 13:1 31:1 #
-0.043611773010481406920302305252335 1:0.020144301 2:0.26226401 3:-0.68090802 4:-0.56189102 5:-0.77907401 6:-0.42337701 7:0.36794901 8:1.14719 9:0.40423301 10:-0.62701702 11:1 43:1 #
-0.10000000000000000555111512312578 1:-2.8479199 2:1.70986 3:0.52069402 4:-0.279605 5:0.88473397 6:-1.17117 7:-1.12626 8:-0.82549298 9:0.50875401 10:-1.16546 14:1 24:1 #
-0.10000000000000000555111512312578 1:-2.3907399 2:-0.94406199 3:1.1882499 4:0.289673 5:0.62744403 6:-1.33279 7:0.40530401 8:-2.0394499 9:-1.60779 10:-0.325701 14:1 24:1 #
-0.10000000000000000555111512312578 1:-2.24073 2:-1.02448 3:0.65420598 4:-0.467796 5:0.71320802 6:-0.62988597 7:0.25588301 8:-1.43247 9:-1.00679 10:-0.603607 14:1 16:1 #
0.10000000000000000555111512312578 1:-2.99436 2:1.25413 3:0.52069402 4:-0.68421501 5:-0.24734101 6:-1.3712699 7:-1.64923 8:0.43904901 9:1.60622 10:-0.93286502 14:1 24:1 #
0.10000000000000000555111512312578 1:-2.9407799 2:1.26307 3:0.52069402 4:-0.56189102 5:-0.60754699 6:-1.3687 7:-1.64923 8:0.43904901 9:1.58009 10:-0.96458203 14:1 24:1 #
0.10000000000000000555111512312578 1:-3.17294 2:1.40604 3:0.78771698 4:-1.0700099 5:-0.59039497 6:-1.15321 7:-1.83601 8:-0.11735 9:1.39718 10:-0.950234 14:1 24:1 #
-0.10000000000000000555111512312578 1:-3.1908 2:1.36136 3:0.92122799 4:-1.0700099 5:-0.76192099 6:-1.00378 7:-2.02279 8:-0.066767797 9:1.55396 10:-0.97364402 14:1 24:1 #
-0.10000000000000000555111512312578 1:-2.0335701 2:1.13797 3:0.38718301 4:-0.547777 5:-0.041509401 6:-1.3982 7:-1.57452 8:0.74253899 9:1.68461 10:-0.98648202 14:1 24:1 #
-0.10000000000000000555111512312578 1:-3.5408199 2:1.4596601 3:1.4552701 4:-0.82065398 5:0.130017 6:-1.4110301 7:-2.47105 8:-0.82549298 9:1.39718 10:-1.12392 14:1 24:1 #
0.10000000000000000555111512312578 1:-2.70505 2:1.7456 3:0.52069402 4:0.28496799 5:0.59313899 6:-1.18015 7:-1.01419 8:-0.87607503 9:0.37810299 10:-1.36332 14:1 24:1 #
0.10000000000000000555111512312578 1:-3.1586499 2:1.70092 3:0.52069402 4:-0.129052 5:0.52452803 6:-1.19426 7:-1.08891 8:-0.72433001 9:0.53488398 10:-0.97817498 14:1 24:1 #
0.10000000000000000555111512312578 1:-2.4621799 2:0.64650202 3:0.92122799 4:-1.26761 5:-0.79622602 6:-0.61898297 7:-1.01419 8:1.55185 9:1.5017 10:-1.09447 14:1 31:1 #
-0.10000000000000000555111512312578 1:-2.4693201 2:1.7634701 3:0.12016 4:0.59077901 5:0.25008601 6:-1.3148299 7:-0.71535301 8:-0.522003 9:0.37810299 10:-0.27510399 14:1 24:1 #
-0.10000000000000000555111512312578 1:-3.06936 2:-1.0870301 3:2.52336 4:-0.56189102 5:0.164322 6:-1.32573 7:-0.67799801 8:-3.7592299 9:-1.94748 10:-1.19718 14:1 24:1 #
-0.10000000000000000555111512312578 1:-0.451318 2:-0.80109 3:0.52069402 4:-0.50543398 5:0.47307 6:-0.53625101 7:0.816212 8:-1.1795599 9:-1.37262 10:-0.41858801 13:1 47:1 #
0.089954675139781017922935291153408 1:-2.46575 2:-1.3461699 3:2.3898499 4:-0.63716799 5:-0.092967398 6:-1.13718 7:-1.91072 8:-3.2028301 9:-0.56258202 10:-1.1073101 14:1 24:1 #
0.10000000000000000555111512312578 1:-3.3443799 2:1.45072 3:1.5887901 4:-1.0700099 5:-0.53893697 6:-1.33407 7:-2.5457599 8:-0.82549298 9:1.44944 10:-1.23116 14:1 24:1 #
0.10000000000000000555111512312578 1:-3.1372199 2:1.34349 3:1.5887901 4:-0.84417802 5:-0.075814798 6:-1.19618 7:-2.6951799 8:-0.42084 9:1.78913 10:-0.99856502 14:1 24:1 #
-0.10000000000000000555111512312578 1:-3.01579 2:1.45072 3:1.7223001 4:-0.86770201 5:-0.264494 6:-1.31419 7:-2.65783 8:-0.92665702 9:1.47557 10:-1.07257 14:1 24:1 #
-0.10000000000000000555111512312578 1:-3.31938 2:1.30775 3:1.98932 4:-1.12646 5:-0.47032601 6:-1.45272 7:-3.0687301 8:-0.522003 9:1.94591 10:-0.99629998 14:1 24:1 #
-0.10000000000000000555111512312578 1:-2.35145 2:1.3256201 3:1.7223001 4:-0.56189102 5:0.30154401 6:-0.95183599 7:-2.8819599 8:-0.42084 9:1.86752 10:-1.25155 14:1 24:1 #
0.10000000000000000555111512312578 1:-3.1586499 2:-1.06916 3:2.52336 4:-0.63716799 5:0.35300201 6:-1.19169 7:-0.56593198 8:-3.8098099 9:-2.07813 10:-1.1073101 14:1 24:1 #
0.088257594339720440990149086246674 1:-3.01579 2:1.4596601 3:1.85581 4:-0.63716799 5:0.47307 6:-1.19683 7:-2.7698901 8:-1.0784 9:1.47557 10:-0.981951 14:1 24:1 #
0.10000000000000000555111512312578 1:-3.2586601 2:-1.12278 3:2.6568799 4:-0.86770201 5:0.112864 6:-1.4110301 7:-0.86477399 8:-3.91098 9:-1.86909 10:-1.1775399 14:1 24:1 #
-0.10000000000000000555111512312578 1:-2.44432 2:-1.06916 3:2.52336 4:-0.37369999 5:1.15918 6:-1.04483 7:-0.56593198 8:-3.8098099 9:-2.0258701 10:-1.15036 14:1 24:1 #
-0.10000000000000000555111512312578 1:-1.5764 2:1.33455 3:0.65420598 4:-0.44427201 5:0.061406501 6:-1.12628 7:-1.7613 8:0.13555899 9:1.52783 10:-1.01518 14:1 24:1 #
-0.10000000000000000555111512312578 1:-2.36217 2:-1.14958 3:3.1909201 4:-0.95238799 5:0.21578 6:-0.59461302 7:-1.31304 8:-4.5179601 9:-1.99974 10:-0.72594601 14:1 24:1 #
-0.0099229434620376009285047658181611 1:0.98449898 2:1.33455 3:-1.34846 4:-0.32194799 5:-0.12727299 6:-1.0025001 7:-0.117669 8:0.69195801 9:0.639404 10:-0.087819703 12:1 37:1 #
0.10000000000000000555111512312578 1:-3.2693801 2:1.3971 3:1.85581 4:-0.98532099 5:-0.384563 6:-1.29944 7:-2.95667 8:-0.87607503 9:1.71074 10:-1.07257 14:1 24:1 #
0.10000000000000000555111512312578 1:-2.99793 2:1.36136 3:1.7223001 4:-0.75949198 5:0.26723799 6:-1.1179399 7:-2.8819599 8:-0.62316602 9:1.763 10:-0.88604403 14:1 24:1 #
-0.10000000000000000555111512312578 1:-2.6800499 2:1.38817 3:2.25634 4:-0.95238799 5:-0.161578 6:-1.13975 7:-3.3675799 8:-1.12898 9:1.8152601 10:-0.46994001 14:1 24:1 #
-0.10000000000000000555111512312578 1:-2.0692899 2:1.45072 3:1.4552701 4:-1.12646 5:-0.50463098 6:-0.83511299 7:-2.4336901 8:-0.72433001 9:1.44944 10:-0.58472699 14:1 24:1 #
-0.10000000000000000555111512312578 1:-2.9157801 2:1.28988 3:2.52336 4:-0.56189102 5:0.42161199 6:-0.66002899 7:-3.7037699 8:-0.82549298 9:2.1549499 10:-1.0559601 14:1 24:1 #
0.10000000000000000555111512312578 1:-2.08358 2:1.31668 3:1.3217601 4:-0.68421501 5:0.25008601 6:-0.79278499 7:-2.47105 8:-0.16793101 9:1.78913 10:-0.352887 14:1 24:1 #
0.10000000000000000555111512312578 1:-1.74784 2:1.44178 3:0.78771698 4:-0.27019501 5:-0.81337899 6:-1.09934 7:-1.83601 8:-0.269095 9:1.31879 10:-0.477492 14:1 24:1 #
0.036388201676199848078052667688098 1:-2.11572 2:1.22733 3:0.253672 4:-0.56189102 5:0.67890197 6:-0.542023 7:-1.38775 8:0.59079403 9:1.5017 10:-1.0008301 14:1 24:1 #
-0.10000000000000000555111512312578 1:-1.5049599 2:1.38817 3:0.253672 4:-0.279605 5:0.112864 6:-1.26096 7:-1.38775 8:0.186141 9:1.26653 10:-0.93286502 14:1 24:1 #
-0.10000000000000000555111512312578 1:-1.75141 2:1.22733 3:0.92122799 4:-0.420748 5:0.62744403 6:-0.999295 7:-2.0975001 8:0.33788601 9:1.8152601 10:-0.33023199 14:1 24:1 #
-0.10000000000000000555111512312578 1:-1.4478199 2:1.28988 3:0.12016 4:-0.279605 5:0.232933 6:-1.30265 7:-1.31304 8:0.489631 9:1.39718 10:-0.87018502 14:1 24:1 #
0.10000000000000000555111512312578 1:-2.84077 2:1.36136 3:2.6568799 4:-0.84417802 5:0.21578 6:-1.10255 7:-3.7784801 8:-1.28073 9:1.94591 10:-0.81581199 14:1 24:1 #
0.10000000000000000555111512312578 1:-1.9871401 2:1.40604 3:1.85581 4:-0.98532099 5:-0.29879901 6:-1.09614 7:-2.99402 8:-0.92665702 9:1.65848 10:-0.55300999 14:1 24:1 #
0.10000000000000000555111512312578 1:-2.03 2:1.47753 3:1.7223001 4:-0.98532099 5:-0.36741 6:-1.0769 7:-2.6951799 8:-1.0784 9:1.39718 10:-0.57340002 14:1 24:1 #
-0.10000000000000000555111512312578 1:-1.92285 2:1.3703001 3:1.7223001 4:-0.98532099 5:-0.50463098 6:-1.00378 7:-2.7698901 8:-0.62316602 9:1.7368701 10:-0.37403199 14:1 24:1 #
-0.10000000000000000555111512312578 1:-1.9871401 2:1.42391 3:1.7223001 4:-0.75949198 5:0.25008601 6:-0.82677603 7:-2.6951799 8:-0.82549298 9:1.55396 10:-0.61191398 14:1 24:1 #
-0.10000000000000000555111512312578 1:-2.83006 2:1.4149801 3:2.79039 4:-0.75949198 5:0.747513 6:-1.35331 7:-3.96526 8:-1.78655 9:1.763 10:-0.99856502 14:1 24:1 #
0.10000000000000000555111512312578 1:-1.9299901 2:1.1201 3:-0.28037399 4:-0.37369999 5:-0.00720412 6:-1.08523 7:-0.939484 8:0.89428401 9:1.34492 10:-0.45106101 14:1 24:1 #
0.10000000000000000555111512312578 1:-1.9192801 2:1.72773 3:-0.0133511 4:0.83072197 5:0.54168099 6:-0.92233402 7:-0.71535301 8:-0.42084 9:0.48262301 10:-0.43897799 14:1 24:1 #
-0.078023150015264386425428710936103 1:1.28452 2:0.31587899 3:1.3217601 4:-0.50543398 5:-0.96775299 6:0.328908 7:-0.042958502 8:1.34952 9:0.45649299 10:-1.12015 13:1 47:1 #
-0.10000000000000000555111512312578 1:-2.2621601 2:1.42391 3:0.12016 4:-1.12646 5:-0.57324201 6:-1.11089 7:-1.2009701 8:0.186141 9:1.16201 10:-1.2221 14:1 24:1 #
-0.10000000000000000555111512312578 1:-2.00857 2:1.272 3:-0.413885 4:-1.12646 5:-0.71046299 6:-0.81458998 7:-0.90212899 8:0.64137602 9:1.18814 10:-0.710087 14:1 24:1 #
-0.10000000000000000555111512312578 1:-2.2693 2:1.05755 3:0.38718301 4:0.50138801 5:-0.88199002 6:-1.12628 7:-1.4251 8:0.944866 9:1.68461 10:-0.94721299 14:1 24:1 #
0.10000000000000000555111512312578 1:-2.10501 2:1.36136 3:1.5887901 4:-0.56189102 5:0.30154401 6:-0.749816 7:-2.65783 8:-0.471421 9:1.7368701 10:-0.38460499 14:1 24:1 #
0.10000000000000000555111512312578 1:-2.0585799 2:1.35243 3:1.7223001 4:-0.420748 5:0.52452803 6:-0.74083698 7:-2.80725 8:-0.522003 9:1.78913 10:-0.40650499 14:1 24:1 #
0.10000000000000000555111512312578 1:-2.17644 2:1.36136 3:1.4552701 4:-0.95238799 5:-0.264494 6:-0.81010097 7:-2.5831201 8:-0.42084 9:1.71074 10:-0.36874601 14:1 24:1 #
-0.10000000000000000555111512312578 1:-2.6693299 2:1.2809401 3:1.1882499 4:-0.16669001 5:0.747513 6:-1.02495 7:-2.3963399 8:-0.016186099 9:1.84139 10:-1.20926 14:1 24:1 #
-0.10000000000000000555111512312578 1:-2.2335899 2:1.18265 3:1.7223001 4:-0.95238799 5:-0.213036 6:-1.24813 7:-2.8819599 8:0.13555899 9:2.1810801 10:-0.275859 14:1 24:1 #
-0.10000000000000000555111512312578 1:-1.9764301 2:1.4149801 3:1.5887901 4:-0.50543398 5:0.73035997 6:-1.27314 7:-2.5457599 8:-0.67374802 9:1.55396 10:-0.92908901 14:1 24:1 #
-0.053290063406564176784474540227166 1:1.0095 2:-0.96193397 3:-0.146862 4:-1.0700099 5:-0.64185202 6:0.36161599 7:0.44266 8:-0.62316602 9:-0.614842 10:0.231621 11:1 43:1 #
0.10000000000000000555111512312578 1:-2.2728801 2:1.34349 3:0.253672 4:-0.13846201 5:-0.11012 6:-0.791502 7:-1.46246 8:0.28730401 9:1.37105 10:-0.775787 14:1 25:1 #
0.10000000000000000555111512312578 1:-0.79062802 2:-0.57769603 3:-0.0133511 4:0.308492 5:-0.84768403 6:-1.02495 7:1.0777 8:-0.269095 9:-1.00679 10:-1.2002 13:1 18:1 #
-0.10000000000000000555111512312578 1:-1.52639 2:1.73666 3:-0.54739702 4:0.96245599 5:-0.024356799 6:-0.90950799 7:-0.37915599 8:0.034395501 9:0.430363 10:-0.53412998 14:1 24:1 #
-0.10000000000000000555111512312578 1:-1.8657 2:1.05755 3:-0.54739702 4:-1.12646 5:-0.72761601 6:-1.34369 7:-0.71535301 8:0.99544799 9:1.21427 10:-1.42751 14:1 24:1 #
-0.10000000000000000555111512312578 1:-1.9299901 2:0.968189 3:-0.54739702 4:-1.12646 5:-0.72761601 6:-1.2693 7:-0.60328698 8:1.09661 9:1.16201 10:-1.3029 14:1 24:1 #
0.10000000000000000555111512312578 1:-2.0978601 2:1.21839 3:1.4552701 4:-0.00672783 5:0.953345 6:-0.77610999 7:-2.5831201 8:0.13555899 9:2.0243001 10:-1.31876 14:1 24:1 #
0.10000000000000000555111512312578 1:-2.7729101 2:1.2362601 3:1.3217601 4:-0.16669001 5:1.34786 6:-1.12628 7:-2.5457599 8:0.084977202 9:1.94591 10:-0.87320602 14:1 24:1 #
0.10000000000000000555111512312578 1:-2.8764901 2:1.4954 3:2.9238999 4:-0.50543398 5:0.901887 6:-1.1660399 7:-3.81584 8:-2.24178 9:1.39718 10:-0.89963698 14:1 24:1 #
-0.10000000000000000555111512312578 1:-1.6656899 2:1.05755 3:1.3217601 4:-0.420748 5:0.33584899 6:-0.67221397 7:-2.32163 8:0.74253899 9:2.1288199 10:-0.97213399 14:1 24:1 #
-0.10000000000000000555111512312578 1:-2.8371999 2:1.48646 3:2.79039 4:-0.82065398 5:0.19862799 6:-0.75686997 7:-3.7784801 8:-2.14062 9:1.42331 10:-0.68667603 14:1 24:1 #
-0.10000000000000000555111512312578 1:-2.2228701 2:1.01287 3:1.1882499 4:0.38376901 5:0.66175002 6:-1.29944 7:-2.2095599 8:0.89428401 9:2.10269 10:-1.01895 14:1 24:1 #
0.10000000000000000555111512312578 1:-1.93714 2:0.91457403 3:-0.68090802 4:-1.12646 5:-0.69331002 6:-0.64976799 7:-0.52857703 8:1.14719 9:1.13588 10:-0.94268203 14:1 24:1 #
0.10000000000000000555111512312578 1:-1.90142 2:1.16478 3:0.38718301 4:0.45434001 5:-1.1735801 6:-0.87230998 7:-1.57452 8:0.69195801 9:1.68461 10:-1.40485 14:1 24:1 #
0.10000000000000000555111512312578 1:-1.86928 2:0.99499601 3:-0.28037399 4:-0.19491901 5:-1.01921 6:-0.86525601 7:-0.86477399 8:1.09661 9:1.37105 10:-1.42751 14:1 24:1 #
-0.10000000000000000555111512312578 1:-2.68362 2:1.3971 3:1.85581 4:-0.067889899 5:1.48508 6:-0.520859 7:-2.8819599 8:-0.82549298 9:1.65848 10:-0.85583597 14:1 24:1 #
-0.10000000000000000555111512312578 1:-2.00857 2:1.26307 3:1.98932 4:0.43081599 5:1.9482 6:-1.00827 7:-3.1808 8:-0.370258 9:2.10269 10:-1.26212 14:1 24:1 #
-0.10000000000000000555111512312578 1:-2.9514999 2:1.34349 3:0.65420598 4:0.308492 5:1.31355 6:-1.26096 7:-1.83601 8:0.084977202 9:1.52783 10:-1.01895 14:1 24:1 #
0.10000000000000000555111512312578 1:-1.67998 2:0.90563798 3:1.1882499 4:-0.067889899 5:0.47307 6:-1.13718 7:-1.9480799 8:1.14719 9:2.0243001 10:-1.24626 14:1 24:1 #
0.10000000000000000555111512312578 1:-1.99429 2:1.1469001 3:1.1882499 4:-0.56189102 5:0.181475 6:-0.8768 7:-2.28427 8:0.489631 9:2.0243001 10:-0.32041499 14:1 24:1 #
0.035018780751314655674821807451735 1:-2.10501 2:1.06648 3:1.3217601 4:-0.420748 5:0.30154401 6:-0.706846 7:-2.4336901 8:0.69195801 9:2.1549499 10:-0.41556701 14:1 24:1 #
-0.10000000000000000555111512312578 1:-1.70498 2:0.97712398 3:1.05474 4:-0.56189102 5:0.044253901 6:-1.28276 7:-1.98543 8:1.04603 9:2.0243001 10:-1.47282 14:1 24:1 #
-0.10000000000000000555111512312578 1:-1.6549799 2:0.79840899 3:0.92122799 4:-0.32194799 5:0.28439099 6:-1.2212 7:-1.4251 8:1.4001 9:1.78913 10:-1.39428 14:1 24:1 #
-0.10000000000000000555111512312578 1:-1.83713 2:0.95925301 3:0.65420598 4:-0.50543398 5:-0.264494 6:-1.33407 7:-1.64923 8:1.09661 9:1.86752 10:-0.91776103 14:1 24:1 #
0.10000000000000000555111512312578 1:-2.4121699 2:1.3703001 3:2.1228299 4:-0.105528 5:1.58799 6:-0.70620501 7:-3.2555101 8:-0.92665702 9:1.84139 10:-0.87244999 14:1 24:1 #
0.10000000000000000555111512312578 1:-2.39431 2:1.3256201 3:1.85581 4:-0.00672783 5:1.81098 6:-0.73314101 7:-3.0687301 8:-0.57258499 9:1.91978 10:-0.85734701 14:1 24:1 #
0.090938581636227075466472058451473 1:-2.16573 2:1.4149801 3:1.7223001 4:0.34142601 5:1.6223 6:-0.83062398 7:-2.7698901 8:-0.82549298 9:1.60622 10:-0.80221897 14:1 24:1 #
-0.10000000000000000555111512312578 1:-2.5978999 2:1.35243 3:2.1228299 4:0.129711 5:1.89674 6:-0.531762 7:-3.2555101 8:-0.82549298 9:1.8936501 10:-0.82638401 14:1 24:1 #
-0.10000000000000000555111512312578 1:-2.6157601 2:1.47753 3:2.1228299 4:-0.13846201 5:1.81098 6:-0.563829 7:-2.99402 8:-1.3818901 9:1.42331 10:-0.82185298 14:1 24:1 #
-0.10000000000000000555111512312578 1:-1.96214 2:1.272 3:2.1228299 4:-0.00672783 5:1.2964 6:-1.3000799 7:-3.2555101 8:-0.471421 9:2.10269 10:-0.803729 14:1 24:1 #
0.10000000000000000555111512312578 1:-1.8049901 2:-1.31936 3:0.65420598 4:-0.053775601 5:0.98764998 6:-0.96273798 7:-0.640643 8:-1.23015 9:-0.118369 10:-1.06578 14:1 24:1 #
0.10000000000000000555111512312578 1:-1.77284 2:0.87883103 3:1.05474 4:-0.32194799 5:0.0271012 6:-1.15321 7:-1.83601 8:1.24836 9:1.99817 10:-1.2424901 14:1 24:1 #
0.043340011025709078429368759088902 1:-2.1728699 2:-0.81896198 3:1.4552701 4:-0.86770201 5:-0.59039497 6:-0.94414002 7:0.77885699 8:-2.1912 9:-2.052 10:-0.74482501 14:1 24:1 #
-0.10000000000000000555111512312578 1:-1.88713 2:1.22733 3:1.3217601 4:-0.129052 5:1.79383 6:-1.3064899 7:-2.5084 8:0.13555899 9:1.9720401 10:-0.19279 14:1 24:1 #
-0.10000000000000000555111512312578 1:-3.10865 2:0.94138098 3:1.85581 4:-0.67010099 5:0.33584899 6:-1.3840899 7:-2.6951799 8:0.89428401 9:2.3378601 10:-1.07408 14:1 24:1 #
-0.10000000000000000555111512312578 1:-3.09079 2:-0.86364001 3:2.1228299 4:-0.86770201 5:-0.333105 6:-1.3982 7:0.55472499 8:-3.05109 9:-2.4700799 10:-1.099 14:1 24:1 #
0.10000000000000000555111512312578 1:-2.9622099 2:1.4954 3:2.79039 4:-0.82065398 5:0.181475 6:-1.15899 7:-3.7784801 8:-2.1912 9:1.39718 10:-0.88302302 14:1 24:1 #
0.10000000000000000555111512312578 1:-2.5050399 2:1.44178 3:2.25634 4:-0.37369999 5:1.0391099 6:-0.68375802 7:-3.2555101 8:-1.3818901 9:1.58009 10:-0.91474003 14:1 24:1 #
0.10000000000000000555111512312578 1:-2.47646 2:1.4149801 3:2.3898499 4:-0.50543398 5:0.93619198 6:-0.62988597 7:-3.4049301 8:-1.28073 9:1.71074 10:-0.938151 14:1 24:1 #
-0.10000000000000000555111512312578 1:-2.6693299 2:1.37923 3:2.52336 4:-0.32194799 5:0.83327597 6:-0.83383 7:-3.62906 8:-1.28073 9:1.86752 10:-0.588503 14:1 24:1 #
-0.10000000000000000555111512312578 1:-2.49789 2:1.52221 3:2.1228299 4:-0.24196699 5:0.901887 6:-1.0422601 7:-2.99402 8:-1.6348 9:1.2404 10:-1.04161 14:1 24:1 #
-0.10000000000000000555111512312578 1:-3.2836599 2:1.44178 3:2.79039 4:-0.27019501 5:1.24494 6:-1.35716 7:-3.7784801 8:-1.83713 9:1.60622 10:-1.12392 14:1 24:1 #
0.10000000000000000555111512312578 1:-3.0443599 2:-0.88151199 3:1.98932 4:-1.12646 5:-0.59039497 6:-1.17502 7:0.48001501 8:-2.8993399 9:-2.2871699 10:-0.89963698 14:1 24:1 #
0.10000000000000000555111512312578 1:-3.0729301 2:-0.89044797 3:2.25634 4:-0.703035 5:-0.436021 6:-1.35203 7:0.40530401 8:-3.3039999 9:-2.5223401 10:-1.1428 14:1 24:1 #
0.10000000000000000555111512312578 1:-3.1229401 2:-0.86364001 3:1.7223001 4:-0.84417802 5:-0.17873099 6:-1.40911 7:0.59208101 8:-2.54527 9:-2.1565199 10:-1.11033 14:1 24:1 #
-0.10000000000000000555111512312578 1:-3.2836599 2:-0.93512601 3:1.98932 4:-0.86770201 5:-0.11012 6:-1.23787 7:0.293239 8:-2.8993399 9:-2.1303899 10:-0.97213399 14:1 24:1 #
-0.10000000000000000555111512312578 1:-3.1586499 2:-1.09597 3:1.85581 4:-1.12646 5:-0.93344802 6:-1.22697 7:-0.34180099 8:-2.7981801 9:-1.4771399 10:-0.969868 14:1 24:1 #
-0.10000000000000000555111512312578 1:-3.3550999 2:-0.81002599 3:1.85581 4:-1.26761 5:-0.79622602 6:-1.3295799 7:0.77885699 8:-2.59585 9:-2.3394301 10:-0.95174402 14:1 15:1 #
0.10000000000000000555111512312578 1:-2.7336199 2:1.4954 3:1.98932 4:-0.063185103 5:1.36501 6:-1.07112 7:-2.9193101 8:-1.3818901 9:1.34492 10:-0.803729 14:1 24:1 #
0.008184237162844464064104244016562 1:-1.69426 2:-1.27469 3:1.3217601 4:-0.75949198 5:-0.40171501 6:-1.10255 7:-0.86477399 8:-2.0394499 9:-0.536452 10:-0.41858801 13:1 24:1 #
0.10000000000000000555111512312578 1:-2.46575 2:1.55795 3:2.1228299 4:0.14382499 5:1.4679199 6:-0.81843799 7:-2.8446 8:-1.73596 9:1.08362 10:-0.83242601 14:1 24:1 #
-0.10000000000000000555111512312578 1:-2.5657499 2:1.57582 3:1.4552701 4:0.063843802 5:1.69091 6:-0.71390098 7:-2.13485 8:-1.1795599 9:0.979096 10:-0.65495902 14:1 24:1 #
-0.10000000000000000555111512312578 1:-2.4728899 2:1.60263 3:2.6568799 4:0.035615101 5:1.79383 6:-0.78893697 7:-3.2555101 8:-2.54527 9:0.848445 10:-0.60134101 14:1 24:1 #
-0.10000000000000000555111512312578 1:-2.3478799 2:1.66518 3:2.3898499 4:0.14853001 5:2.23979 6:-0.87230998 7:-2.6951799 8:-2.3935299 9:0.561014 10:-0.54394799 14:1 24:1 #
0.10000000000000000555111512312578 1:-3.1050799 2:-1.14065 3:1.85581 4:-1.12646 5:-0.53893697 6:-1.23531 7:-0.60328698 8:-2.7981801 9:-1.29423 10:-1.24551 14:1 24:1 #
0.10000000000000000555111512312578 1:-2.9514999 2:-1.06916 3:1.4552701 4:-1.26761 5:-0.79622602 6:-1.29944 7:-0.117669 8:-2.4441099 9:-1.3987499 10:-0.84224302 14:1 24:1 #
0.10000000000000000555111512312578 1:-2.7443399 2:-1.09597 3:1.4552701 4:-1.12646 5:-0.98490602 6:-1.20837 7:-0.229735 8:-2.4441099 9:-1.29423 10:-1.06578 14:1 24:1 #
-0.10000000000000000555111512312578 1:-1.90856 2:-1.3014899 3:2.1228299 4:-0.467796 5:0.095711797 6:-1.11089 7:-1.46246 8:-2.9499199 9:-0.71936202 10:-0.65269297 14:1 24:1 #
-0.10000000000000000555111512312578 1:-2.3585999 2:1.79028 3:0.92122799 4:-0.95238799 5:-0.67615801 6:-0.67349702 7:-1.12626 8:-1.28073 9:0.19519199 10:-0.78560501 14:1 24:1 #
-0.10000000000000000555111512312578 1:-2.4836099 2:1.7456 3:1.85581 4:-0.279605 5:0.47307 6:-0.76777297 7:-1.9480799 8:-2.14062 9:0.221322 10:-1.2689199 14:1 24:1 #
0.10000000000000000555111512312578 1:-2.68362 2:1.6741101 3:2.25634 4:-0.129052 5:1.82813 6:-1.1179399 7:-2.65783 8:-2.3935299 9:0.53488398 10:-0.84677398 14:1 24:1 #
0.10000000000000000555111512312578 1:-2.7622001 2:1.3971 3:0.78771698 4:-0.16669001 5:1.39931 6:-1.15321 7:-1.91072 8:-0.16793101 9:1.44944 10:-0.90492302 14:1 24:1 #
0.10000000000000000555111512312578 1:-2.15501 2:1.70986 3:2.1228299 4:0.53902602 5:1.87959 6:-0.82420999 7:-2.32163 8:-2.3429401 9:0.351973 10:-0.77427697 14:1 24:1 #
-0.10000000000000000555111512312578 1:-2.0585799 2:1.70986 3:2.1228299 4:0.651941 5:2.51424 6:-0.67606199 7:-2.3963399 8:-2.3935299 9:0.351973 10:-1.22361 14:1 24:1 #
-0.10000000000000000555111512312578 1:0.170155 2:-0.95299798 3:1.05474 4:0.94363701 5:2.58285 6:-0.86974502 7:0.40530401 8:-1.88771 9:-1.45101 10:-0.77050102 13:1 47:1 #
-0.10000000000000000555111512312578 1:-3.0729301 2:1.01287 3:1.05474 4:-0.84417802 5:-0.19588301 6:-1.1763 7:-1.98543 8:0.944866 9:1.99817 10:-0.89737099 14:1 20:1 #
0.10000000000000000555111512312578 1:-2.5871799 2:1.7456 3:1.7223001 4:-0.63716799 5:0.26723799 6:-0.50674999 7:-1.91072 8:-2.09004 9:0.221322 10:-1.2372 14:1 24:1 #
0.10000000000000000555111512312578 1:-1.87999 2:-1.2568099 3:2.1228299 4:-0.67010099 5:0.37015399 6:-0.876158 7:-1.23833 8:-3.00051 9:-0.87614298 10:-0.97817498 14:1 24:1 #
0.10000000000000000555111512312578 1:-2.6371901 2:1.79921 3:1.85581 4:-0.63716799 5:0.33584899 6:-0.548437 7:-1.72394 8:-2.2923601 9:-0.0399791 10:-1.21153 14:1 24:1 #
-0.10000000000000000555111512312578 1:-2.21573 2:1.73666 3:1.98932 4:-0.56189102 5:0.91903901 6:-0.64912599 7:-2.17221 8:-2.2923601 9:0.24745201 10:-0.67081797 14:1 24:1 #
-0.10000000000000000555111512312578 1:-2.56933 2:1.69198 3:2.52336 4:-0.19491901 5:0.86758101 6:-0.82677603 7:-2.8446 8:-2.7476001 9:0.40423301 10:-1.0597301 14:1 24:1 #
-0.10000000000000000555111512312578 1:-2.55147 2:1.77241 3:2.6568799 4:-0.251376 5:1.3821599 6:-1.10576 7:-2.5831201 8:-3.3039999 9:-0.118369 10:-1.31423 14:1 24:1 #
0.10000000000000000555111512312578 1:-3.52654 2:-0.84576899 3:1.5887901 4:-0.86770201 5:-0.59039497 6:-1.33407 7:0.70414603 8:-2.2923601 9:-2.052 10:-1.0786099 14:1 15:1 #
0.10000000000000000555111512312578 1:-2.97293 2:-0.79215401 3:1.5887901 4:-0.86770201 5:-0.71046299 6:-1.28789 7:0.853567 8:-2.3429401 9:-2.23491 10:-0.78409398 14:1 15:1 #
0.10000000000000000555111512312578 1:-1.8657 2:1.2362601 3:1.98932 4:0.035615101 5:1.86244 6:-1.0319999 7:-3.2555101 8:-0.269095 9:2.1810801 10:-0.59076899 14:1 24:1 #
-0.10000000000000000555111512312578 1:-1.8728499 2:-0.61343902 3:1.85581 4:-0.32194799 5:0.0271012 6:-1.02046 7:1.3018301 8:-2.0394499 9:-2.5223401 10:-0.99781001 14:1 15:1 #
-0.10000000000000000555111512312578 1:-0.844203 2:0.70905203 3:0.92122799 4:-0.98532099 5:-0.86483699 6:-1.00699 7:-1.23833 8:1.50126 9:1.65848 10:-1.03934 13:1 17:1 #
-0.10000000000000000555111512312578 1:-0.80134302 2:1.40604 3:0.65420598 4:-1.26761 5:-0.79622602 6:-0.68504101 7:-1.68659 8:-0.016186099 9:1.34492 10:-0.36648101 13:1 34:1 #
0.10000000000000000555111512312578 1:-2.5014601 2:1.72773 3:2.25634 4:-0.27019501 5:0.850429 6:-0.94798797 7:-2.3589799 8:-2.54527 9:0.24745201 10:-0.63305902 14:1 24:1 #
0.10000000000000000555111512312578 1:-2.06215 2:1.8081501 3:2.6568799 4:0.0120913 5:1.1248699 6:-1.00763 7:-2.3589799 8:-3.3039999 9:-0.30127999 10:-1.0114 14:1 24:1 #
0.10000000000000000555111512312578 1:-2.0550001 2:1.7187901 3:2.3898499 4:-0.63716799 5:0.37015399 6:-0.93900901 7:-2.47105 8:-2.59585 9:0.27358201 10:-0.75011098 14:1 24:1 #
-0.10000000000000000555111512312578 1:-2.44432 2:1.72773 3:2.52336 4:-0.75949198 5:-0.092967398 6:-1.40911 7:-2.5831201 8:-2.7981801 9:0.19519199 10:-0.89963698 14:1 24:1 #
-0.10000000000000000555111512312578 1:-2.37288 2:1.54008 3:2.6568799 4:-0.84417802 5:0.21578 6:-0.64976799 7:-3.4049301 8:-2.14062 9:1.18814 10:-0.81279099 14:1 24:1 #
-0.10000000000000000555111512312578 1:-3.08008 2:1.53114 3:0.65420598 4:0.073253401 5:0.73035997 6:-1.25711 7:-1.5371701 8:-0.370258 9:1.03136 10:-1.35803 14:1 19:1 #
0.10000000000000000555111512312578 1:-1.30138 2:1.3703001 3:0.78771698 4:-1.12646 5:-0.69331002 6:-0.52599001 7:-1.91072 8:-0.066767797 9:1.5017 10:-0.641366 13:1 34:1 #
0.10000000000000000555111512312578 1:-0.85134703 2:1.31668 3:0.253672 4:-1.26761 5:-0.79622602 6:-0.78701299 7:-1.46246 8:0.33788601 9:1.42331 10:-0.42689499 13:1 34:1 #
0.10000000000000000555111512312578 1:-2.00143 2:1.7634701 3:1.05474 4:-1.0700099 5:-0.60754699 6:-0.62796199 7:-1.2756799 8:-1.33131 9:0.27358201 10:-1.19189 14:1 24:1 #
-0.10000000000000000555111512312578 1:-1.3228101 2:1.3703001 3:0.12016 4:-1.12646 5:-0.64185202 6:-0.64976799 7:-1.2756799 8:0.28730401 9:1.26653 10:-0.84677398 13:1 47:1 #
0.10000000000000000555111512312578 1:-2.2514501 2:1.55795 3:2.3898499 4:-0.84417802 5:0.044253901 6:-0.62219 7:-3.14344 8:-2.0394499 9:1.10975 10:-1.16093 14:1 24:1 #
-0.10000000000000000555111512312578 1:-2.01214 2:1.68305 3:1.4552701 4:-0.50543398 5:0.59313899 6:-1.34369 7:-1.8733701 8:-1.53364 9:0.561014 10:-1.37313 14:1 24:1 #
-0.10000000000000000555111512312578 1:-0.77991301 2:1.07542 3:-0.146862 4:-1.26761 5:-0.79622602 6:-0.42209399 7:-1.05155 8:0.944866 9:1.44944 10:-0.68365598 13:1 37:1 #
0.10000000000000000555111512312578 1:-2.4086001 2:1.30775 3:2.79039 4:-0.56189102 5:0.49022299 6:-0.93644398 7:-4.0773301 8:-1.1795599 9:2.1810801 10:-0.96684802 14:1 24:1 #
0.10000000000000000555111512312578 1:-2.34074 2:1.58476 3:2.3898499 4:-0.82065398 5:-0.075814798 6:-0.717749 7:-2.99402 8:-2.14062 9:0.95296597 10:-1.02273 14:1 24:1 #
-0.10000000000000000555111512312578 1:-1.96928 2:-0.85470498 3:-0.146862 4:-0.50543398 5:-0.24734101 6:-0.806894 7:0.66679102 8:-0.57258499 9:-0.77162302 10:-0.87018502 14:1 20:1 #
-0.10000000000000000555111512312578 1:-3.75155 2:-1.24788 3:1.85581 4:-1.26761 5:-0.79622602 6:-1.46875 7:-1.05155 8:-2.7476001 9:-0.85001302 10:-1.1073101 14:1 15:1 #
-0.10000000000000000555111512312578 1:-1.7907 2:-0.89044797 3:2.1228299 4:-0.67010099 5:0.14717001 6:-1.08716 7:0.40530401 8:-3.10167 9:-2.39169 10:-0.97213399 13:1 24:1 #
0.10000000000000000555111512312578 1:-1.39424 2:1.38817 3:0.253672 4:-1.12646 5:-0.62470001 6:-0.73185802 7:-1.38775 8:0.186141 9:1.26653 10:-0.95854098 13:1 47:1 #
0.10000000000000000555111512312578 1:-1.2192301 2:1.38817 3:0.52069402 4:-0.95238799 5:-0.47032601 6:-0.57857901 7:-1.57452 8:0.084977202 9:1.37105 10:-0.74256003 13:1 47:1 #
0.10000000000000000555111512312578 1:-2.9622099 2:1.03967 3:1.5887901 4:-0.16669001 5:0.044253901 6:-1.2539001 7:-2.62047 8:0.69195801 9:2.25947 10:-0.89208502 14:1 24:1 #
-0.10000000000000000555111512312578 1:-0.744196 2:1.37923 3:0.38718301 4:-1.0700099 5:-0.69331002 6:-0.0065095401 7:-1.5371701 8:0.13555899 9:1.34492 10:-1.0786099 13:1 47:1 #
-0.10000000000000000555111512312578 1:-2.06215 2:1.26307 3:3.1909201 4:-0.36429101 5:0.88473397 6:-1.31675 7:-4.5629401 8:-1.33131 9:2.3378601 10:-0.76596999 14:1 24:1 #
-0.10000000000000000555111512312578 1:-0.67276198 2:1.22733 3:1.1882499 4:-0.84417802 5:-0.384563 6:-0.49135801 7:-2.3963399 8:0.23672201 9:1.94591 10:-0.61191398 13:1 47:1 #
0.10000000000000000555111512312578 1:-1.83713 2:-0.85470498 3:2.25634 4:-0.63716799 5:0.30154401 6:-1.0583 7:0.55472499 8:-3.2028301 9:-2.5746 10:-0.96458203 13:1 24:1 #
0.10000000000000000555111512312578 1:-1.8264199 2:-0.86364001 3:1.85581 4:-0.547777 5:0.130017 6:-0.97877198 7:0.59208101 8:-2.64643 9:-2.2087801 10:-0.73123199 13:1 24:1 #
0.017181809737860358894279144692518 1:-1.81213 2:-0.434724 3:-0.146862 4:-0.95238799 5:-0.65900499 6:-1.2212 7:1.11505 8:0.034395501 9:-0.87614298 10:-0.467675 14:1 20:1 #
-0.10000000000000000555111512312578 1:-1.57283 2:-0.58663201 3:-0.0133511 4:-0.50543398 5:-0.17873099 6:-1.35203 7:1.0403399 8:-0.269095 9:-0.98066401 10:-0.1943 14:1 20:1 #
-0.10000000000000000555111512312578 1:-1.91214 2:-0.36323801 3:-0.0133511 4:-0.95238799 5:-0.487479 6:-1.01661 7:1.15241 8:0.13555899 9:-0.87614298 10:-0.37478799 14:1 20:1 #
-0.10000000000000000555111512312578 1:-2.0264299 2:-0.96193397 3:1.05474 4:-0.56189102 5:-0.024356799 6:-1.15321 7:0.40530401 8:-1.83713 9:-1.42488 10:-1.02424 13:1 24:1 #
0.10000000000000000555111512312578 1:-1.1835099 2:1.25413 3:1.1882499 4:-0.82065398 5:-0.213036 6:-0.590765 7:-2.32163 8:0.13555899 9:1.86752 10:-0.75011098 13:1 47:1 #
0.10000000000000000555111512312578 1:-2.64433 2:-1.00661 3:2.79039 4:-0.420748 5:1.3307 6:-1.11089 7:-0.34180099 8:-4.0627198 9:-2.4439499 10:-0.82940501 14:1 24:1 #
0.10000000000000000555111512312578 1:-1.9299901 2:1.7456 3:1.4552701 4:-0.37369999 5:0.76466602 6:-0.97364098 7:-1.64923 8:-1.68538 9:0.29971299 10:-0.707066 14:1 24:1 #
-0.10000000000000000555111512312578 1:-1.73712 2:1.81709 3:1.3217601 4:0.14382499 5:1.10772 6:-1.04162 7:-1.31304 8:-1.78655 9:-0.013849 10:-0.55149901 14:1 24:1 #
-0.10000000000000000555111512312578 1:-1.4621 2:1.4596601 3:0.78771698 4:-1.12646 5:-0.55608898 6:-0.76648998 7:-1.72394 8:-0.269095 9:1.26653 10:-0.121803 13:1 27:1 #
-0.10000000000000000555111512312578 1:-3.21223 2:1.33455 3:3.05741 4:-0.95238799 5:0.112864 6:-1.4257801 7:-4.2641001 8:-1.53364 9:2.07656 10:-0.99781001 14:1 24:1 #
0.078000076531462944617878463304805 1:-1.78713 2:-0.41685301 3:-0.0133511 4:-0.68421501 5:-0.36741 6:-1.18464 7:1.18976 8:-0.016186099 9:-0.98066401 10:-0.42387399 14:1 20:1 #
0.10000000000000000555111512312578 1:-1.7657 2:-0.24707399 3:-0.146862 4:-0.95238799 5:-0.57324201 6:-1.2135 7:1.0777 8:0.38846701 9:-0.66710198 10:-0.47069499 14:1 20:1 #
0.10000000000000000555111512312578 1:-1.71569 2:1.58476 3:2.25634 4:-0.547777 5:0.45591801 6:-0.84409201 7:-2.8819599 8:-1.98887 9:0.95296597 10:-0.69347298 13:1 24:1 #
-0.10000000000000000555111512312578 1:-1.6085401 2:-0.71173298 3:-0.28037399 4:-0.84417802 5:-0.384563 6:-1.32573 7:0.816212 8:-0.269095 9:-0.74549299 10:-1.15564 14:1 20:1 #
-0.10000000000000000555111512312578 1:-1.96928 2:-0.765347 3:-0.146862 4:-0.56189102 5:-0.24734101 6:-0.82549298 7:0.816212 8:-0.522003 9:-0.902273 10:-0.853571 14:1 20:1 #
-0.10000000000000000555111512312578 1:-1.9299901 2:-0.58663201 3:-0.81441897 4:-0.420748 5:0.59313899 6:-0.76969701 7:0.74150199 8:0.23672201 9:-0.35354099 10:-0.82940501 14:1 20:1 #
0.10000000000000000555111512312578 1:-1.51925 2:1.3703001 3:0.78771698 4:-1.12646 5:-0.64185202 6:-0.47468299 7:-1.91072 8:-0.016186099 9:1.5017 10:-0.30757701 13:1 27:1 #
0.10000000000000000555111512312578 1:-1.37638 2:1.44178 3:0.65420598 4:-1.12646 5:-0.64185202 6:-0.40092999 7:-1.7613 8:-0.218513 9:1.29266 10:-0.52280301 13:1 27:1 #
0.10000000000000000555111512312578 1:-1.59426 2:1.3703001 3:1.98932 4:-0.75949198 5:0.0099485395 6:-1.0319999 7:-3.14344 8:-0.87607503 9:1.8152601 10:-1.05067 13:1 24:1 #
-0.10000000000000000555111512312578 1:-0.88349199 2:1.3703001 3:0.65420598 4:-0.50543398 5:-0.075814798 6:-0.39900601 7:-1.72394 8:0.084977202 9:1.44944 10:-0.53564101 13:1 27:1 #
-0.10000000000000000555111512312578 1:-1.59069 2:-0.85470498 3:0.78771698 4:-1.12646 5:-0.64185202 6:-1.01982 7:0.70414603 8:-1.48306 9:-1.45101 10:-0.477492 13:1 24:1 #
-0.10000000000000000555111512312578 1:-1.40139 2:-0.95299798 3:0.38718301 4:-0.82065398 5:-0.384563 6:-0.51829398 7:0.48001501 8:-1.1795599 9:-1.03292 10:-0.47598201 13:1 24:1 #
0.10000000000000000555111512312578 1:-1.8264199 2:-1.0423599 3:-0.54739702 4:-0.68421501 5:0.078559197 6:-1.30906 7:0.330594 8:-0.31967601 9:-0.327411 10:-1.16093 14:1 20:1 #
0.10000000000000000555111512312578 1:-2.0050001 2:-0.836833 3:-0.54739702 4:-0.27019501 5:0.43876499 6:-0.84858102 7:0.62943602 8:-0.269095 9:-0.56258202 10:-0.58925802 14:1 20:1 #
0.10000000000000000555111512312578 1:-1.88713 2:-1.0423599 3:-0.68090802 4:-0.56189102 5:0.164322 6:-1.25711 7:0.330594 8:-0.218513 9:-0.24902 10:-1.07786 14:1 20:1 #
-0.10000000000000000555111512312578 1:-1.74427 2:-1.24788 3:-1.08144 4:-0.56189102 5:0.095711797 6:-1.3712699 7:0.106462 8:0.186141 9:0.169062 10:-1.2424901 14:1 20:1 #
-0.10000000000000000555111512312578 1:-2.3907399 2:-0.84576899 3:-0.81441897 4:0.120301 5:0.095711797 6:-1.12628 7:0.55472499 8:-0.016186099 9:-0.35354099 10:-1.14054 14:1 20:1 #
-0.10000000000000000555111512312578 1:-1.63355 2:-1.3283 3:-0.81441897 4:-0.44427201 5:-0.29879901 6:-1.18015 7:-0.080313802 8:0.034395501 9:0.221322 10:-0.38460499 14:1 20:1 #
0.10000000000000000555111512312578 1:-2.3157401 2:1.73666 3:-0.146862 4:-0.279605 5:0.35300201 6:-0.84858102 7:-0.60328698 8:-0.269095 9:0.45649299 10:-0.51449603 14:1 24:1 #
0.10000000000000000555111512312578 1:-2.0157199 2:1.58476 3:-0.54739702 4:-0.95238799 5:-0.50463098 6:-1.12243 7:-0.56593198 8:0.23672201 9:0.69166398 10:-0.44426399 14:1 25:1 #
0.10000000000000000555111512312578 1:-1.8049901 2:-1.19426 3:1.05474 4:-1.0700099 5:-0.62470001 6:-1.3064899 7:-0.453866 8:-1.83713 9:-0.693232 10:-0.71461803 13:1 24:1 #
-0.10000000000000000555111512312578 1:-1.98 2:-0.77428299 3:0.253672 4:-1.12646 5:-0.76192099 6:-1.15257 7:0.853567 8:-0.82549298 9:-1.13744 10:-1.05067 13:1 24:1 #
-0.10000000000000000555111512312578 1:-0.73348099 2:-1.19426 3:0.65420598 4:-0.84417802 5:-0.57324201 6:-0.531762 7:-0.26708999 8:-1.33131 9:-0.51032102 10:-0.45332599 13:1 24:1 #
-0.10000000000000000555111512312578 1:-1.44425 2:-1.21213 3:1.1882499 4:-0.63716799 5:-0.40171501 6:-0.90501797 7:-0.56593198 8:-1.98887 9:-0.693232 10:-0.72594601 13:1 24:1 #
0.10000000000000000555111512312578 1:-2.18716 2:-1.06023 3:-1.21495 4:-0.27019501 5:0.28439099 6:-0.70363998 7:0.293239 8:0.28730401 9:0.064541399 10:-1.21153 14:1 20:1 #
0.10000000000000000555111512312578 1:-1.99786 2:-0.80109 3:-1.21495 4:-0.105528 5:0.47307 6:-0.83126497 7:0.48001501 8:0.33788601 9:-0.0399791 10:-0.62097597 14:1 20:1 #
0.10000000000000000555111512312578 1:-1.7657 2:-1.2568099 3:-1.48198 4:-0.063185103 5:-0.55608898 6:-0.92233402 7:0.181173 8:0.489631 9:0.29971299 10:-0.70933199 14:1 20:1 #
-0.10000000000000000555111512312578 1:-1.56568 2:-0.62237501 3:-1.34846 4:-0.420748 5:-0.144425 6:-1.29238 7:0.48001501 8:0.489631 9:0.038411301 10:-1.25079 14:1 20:1 #
-0.10000000000000000555111512312578 1:-2.0478599 2:-0.89044797 3:-0.68090802 4:-0.067889899 5:-0.161578 6:-0.62475502 7:0.51736999 8:-0.066767797 9:-0.327411 10:-1.0559601 14:1 20:1 #
-0.10000000000000000555111512312578 1:-2.3264501 2:-1.14958 3:-0.54739702 4:0.623712 5:0.64459699 6:-0.80753601 7:0.14381801 8:-0.218513 9:-0.118369 10:-1.1934 14:1 20:1 #
0.10000000000000000555111512312578 1:-2.01214 2:-1.2568099 3:1.3217601 4:-0.98532099 5:-0.69331002 6:-0.98967499 7:-0.79006398 8:-2.0394499 9:-0.56258202 10:-0.66251099 13:1 24:1 #
0.10000000000000000555111512312578 1:-2.00143 2:-0.52408201 3:0.12016 4:-0.95238799 5:-0.487479 6:-1.1359 7:1.18976 8:-0.370258 9:-1.16357 10:-0.40801501 14:1 20:1 #
0.0073083571166631449908535067550019 1:-1.36567 2:-1.12278 3:1.1882499 4:-0.56189102 5:-0.29879901 6:-1.3295799 7:-0.19238 8:-1.98887 9:-1.00679 10:-0.44124299 13:1 24:1 #
-0.10000000000000000555111512312578 1:-1.39424 2:-1.3461699 3:1.5887901 4:-0.37369999 5:-0.41886801 6:-1.21863 7:-1.2756799 8:-2.14062 9:-0.30127999 10:-0.30002499 13:1 24:1 #
-0.10000000000000000555111512312578 1:-1.18708 2:-1.38191 3:1.1882499 4:-0.56189102 5:0.095711797 6:-0.40541899 7:-1.2009701 8:-1.68538 9:-0.013849 10:-0.45559201 13:1 24:1 #
-0.10000000000000000555111512312578 1:-1.61926 2:-1.24788 3:1.5887901 4:-0.13846201 5:0.59313899 6:-0.548437 7:-0.86477399 8:-2.2923601 9:-0.693232 10:-1.15564 13:1 24:1 #
0.10000000000000000555111512312578 1:-1.62283 2:-1.16746 3:-0.54739702 4:-0.84417802 5:-0.59039497 6:-1.2212 7:0.106462 8:-0.218513 9:-0.066109203 10:-0.40952599 14:1 20:1 #
0.10000000000000000555111512312578 1:-2.2978799 2:1.79028 3:1.05474 4:0.25674 5:1.43362 6:-0.92554098 7:-1.2756799 8:-1.48306 9:0.169062 10:-0.58246201 14:1 24:1 #
0.10000000000000000555111512312578 1:-1.64783 2:1.05755 3:0.52069402 4:-0.19491901 5:0.43876499 6:-1.1763 7:-1.57452 8:0.944866 9:1.763 10:-1.3127199 14:1 24:1 #
-0.10000000000000000555111512312578 1:-2.0335701 2:-1.29256 3:1.05474 4:-1.12646 5:-0.60754699 6:-0.93516099 7:-0.82741898 8:-1.73596 9:-0.35354099 10:-1.0786099 14:1 24:1 #
-0.10000000000000000555111512312578 1:-1.8157001 2:1.42391 3:1.4552701 4:-0.82065398 5:-0.29879901 6:-1.01982 7:-2.4336901 8:-0.62316602 9:1.5017 10:-0.42689499 13:1 24:1 #
-0.10000000000000000555111512312578 1:-2.3336 2:1.30775 3:2.1228299 4:0.14382499 5:-0.89914203 6:-1.16668 7:-3.2555101 8:-0.62316602 9:1.99817 10:-1.00536 14:1 24:1 #
0.10000000000000000555111512312578 1:-1.45139 2:-1.28362 3:1.5887901 4:-0.32194799 5:0.30154401 6:-0.21815 7:-1.01419 8:-2.24178 9:-0.536452 10:-0.93286502 13:1 24:1 #
0.10000000000000000555111512312578 1:-1.47639 2:-1.3283 3:1.7223001 4:-0.547777 5:-0.00720412 6:-0.44903001 7:-1.2756799 8:-2.3429401 9:-0.405801 10:-0.72065902 13:1 24:1 #
0.037955864675337340485850035065596 1:-1.75141 2:-1.23001 3:1.4552701 4:-0.56189102 5:0.38730699 6:-0.88064802 7:-0.71535301 8:-2.1912 9:-0.71936202 10:-0.61417902 13:1 24:1 #
-0.10000000000000000555111512312578 1:-1.29424 2:-1.31043 3:1.98932 4:-0.420748 5:-0.00720412 6:-0.499695 7:-1.4251 8:-2.7476001 9:-0.58871198 10:-0.35439801 13:1 24:1 #
-0.10000000000000000555111512312578 1:-1.46925 2:-1.23001 3:1.85581 4:-0.67010099 5:0.42161199 6:-0.89988798 7:-0.939484 8:-2.6970201 9:-0.92840302 10:-0.43369201 13:1 24:1 #
-0.10000000000000000555111512312578 1:-1.54425 2:-1.12278 3:1.7223001 4:-0.37369999 5:-0.00720412 6:-0.54074103 7:-0.453866 8:-2.64643 9:-1.29423 10:-1.14885 13:1 24:1 #
0.10000000000000000555111512312578 1:-2.2014401 2:1.59369 3:1.4552701 4:-0.95238799 5:-0.24734101 6:-0.67991 7:-2.0975001 8:-1.23015 9:0.92683601 10:-1.31876 14:1 24:1 #
0.10000000000000000555111512312578 1:-2.05143 2:-1.33724 3:1.1882499 4:-0.95238799 5:-0.487479 6:-1.04996 7:-1.05155 8:-1.83713 9:-0.22289 10:-0.60436201 14:1 24:1 #
0.10000000000000000555111512312578 1:-1.97286 2:-1.3283 3:1.1882499 4:-1.12646 5:-0.55608898 6:-0.68888903 7:-0.97684002 8:-1.73596 9:-0.22289 10:-0.90265697 14:1 24:1 #
-0.10000000000000000555111512312578 1:-2.3764601 2:-1.33724 3:1.5887901 4:-0.75949198 5:0.061406501 6:-0.706846 7:-1.2756799 8:-2.1912 9:-0.327411 10:-1.06427 14:1 24:1 #
-0.10000000000000000555111512312578 1:-2.7193401 2:-1.3283 3:1.1882499 4:-0.98532099 5:-0.69331002 6:-0.87230998 7:-0.97684002 8:-1.73596 9:-0.22289 10:-1.2221 14:1 24:1 #
-0.10000000000000000555111512312578 1:-1.07279 2:-1.1763901 3:0.78771698 4:-0.13846201 5:0.81612301 6:-0.350265 7:-0.26708999 8:-1.53364 9:-0.64097202 10:-0.38460499 13:1 24:1 #
0.10000000000000000555111512312578 1:-1.7121201 2:-1.1763901 3:1.7223001 4:-0.50543398 5:0.47307 6:-0.87230998 7:-0.640643 8:-2.59585 9:-1.08518 10:-0.64665198 13:1 24:1 #
0.10000000000000000555111512312578 1:-1.7907 2:-1.23001 3:1.85581 4:-0.68421501 5:0.095711797 6:-0.85820103 7:-1.01419 8:-2.7981801 9:-0.95453399 10:-0.64665198 13:1 24:1 #
0.10000000000000000555111512312578 1:-1.73712 2:-1.15852 3:1.85581 4:-0.27019501 5:0.747513 6:-1.00763 7:-0.67799801 8:-2.8993399 9:-1.2681 10:-0.86716402 13:1 24:1 #
-0.10000000000000000555111512312578 1:-1.6085401 2:-1.10491 3:2.1228299 4:-0.82065398 5:-0.058662102 6:-1.13718 7:-0.56593198 8:-3.2534101 9:-1.63392 10:-0.531865 13:1 24:1 #
-0.10000000000000000555111512312578 1:-1.59426 2:-0.97980499 3:2.3898499 4:0.129711 5:1.0048 6:-0.59589499 7:-0.080313802 8:-3.6074901 9:-2.3132999 10:-1.10429 13:1 24:1 #
-0.10000000000000000555111512312578 1:-1.57997 2:-1.28362 3:1.5887901 4:-0.95238799 5:-0.436021 6:-0.87936503 7:-1.05155 8:-2.24178 9:-0.536452 10:-0.51751602 13:1 47:1 #
0.10000000000000000555111512312578 1:-2.85149 2:-1.36404 3:1.5887901 4:-0.95238799 5:-0.333105 6:-0.67221397 7:-1.35039 8:-2.14062 9:-0.19676 10:-1.12997 14:1 24:1 #
0.02009528554954743972960073961076 1:-1.69069 2:-0.85470498 3:-0.146862 4:-0.75949198 5:-0.52178401 6:-0.85627699 7:0.66679102 8:-0.57258499 9:-0.77162302 10:-0.81279099 13:1 18:1 #
0.10000000000000000555111512312578 1:-2.6193299 2:1.28988 3:2.25634 4:0.073253401 5:-1.15643 6:-0.89155 7:-3.517 8:-0.72433001 9:2.10269 10:-0.81581199 14:1 24:1 #
-0.10000000000000000555111512312578 1:-0.93706697 2:1.54901 3:1.4552701 4:-0.84417802 5:0.0271012 6:-0.49456501 7:-2.2095599 8:-1.0784 9:1.08362 10:-0.54847902 13:1 47:1 #
-0.10000000000000000555111512312578 1:-3.06936 2:-0.89938301 3:1.98932 4:-0.467796 5:0.37015399 6:-1.11089 7:0.44266 8:-2.8993399 9:-2.26104 10:-0.94721299 14:1 20:1 #
-0.10000000000000000555111512312578 1:-3.0014999 2:1.2809401 3:-0.28037399 4:-1.12646 5:-0.65900499 6:-0.79535002 7:-0.939484 8:0.64137602 9:1.21427 10:-0.48126799 14:1 31:1 #
0.10000000000000000555111512312578 1:-1.8407 2:-1.05129 3:2.25634 4:-0.63716799 5:-0.058662102 6:-0.78893697 7:-0.34180099 8:-3.3545799 9:-1.89522 10:-0.77276701 13:1 24:1 #
0.10000000000000000555111512312578 1:-0.87277699 2:-1.09597 3:0.65420598 4:0.035615101 5:0.38730699 6:-0.13798299 7:0.031752001 8:-1.3818901 9:-0.79775298 10:0.227845 13:1 24:1 #
0.013920354203608887797005699837882 1:-1.36567 2:-1.15852 3:0.65420598 4:0.0026817201 5:0.696055 6:-0.50226098 7:-0.15502401 8:-1.43247 9:-0.66710198 10:-0.67836899 13:1 24:1 #
-0.10000000000000000555111512312578 1:-1.41924 2:-1.1317101 3:0.12016 4:0.45434001 5:1.24494 6:-0.84537399 7:0.031752001 8:-0.87607503 9:-0.45806101 10:-0.67685902 13:1 24:1 #
-0.10000000000000000555111512312578 1:-0.53703803 2:-1.0781 3:0.12016 4:0.426112 5:0.044253901 6:-0.36373299 7:0.181173 8:-0.87607503 9:-0.56258202 10:-0.59303403 13:1 24:1 #
-0.10000000000000000555111512312578 1:-0.60847199 2:-1.14958 3:1.05474 4:-0.251376 5:0.112864 6:0.397531 7:-0.26708999 8:-1.88771 9:-0.87614298 10:-1.0333 13:1 24:1 #
0.10000000000000000555111512312578 1:-2.34074 2:1.1469001 3:-0.54739702 4:-1.12646 5:-0.71046299 6:-0.62219 7:-0.79006398 8:0.84370297 9:1.21427 10:-0.885288 14:1 31:1 #
0.10000000000000000555111512312578 1:-0.71562302 2:1.37923 3:-0.28037399 4:-1.26761 5:-0.79622602 6:-0.95183599 7:-0.97684002 8:0.38846701 9:1.10975 10:-0.33098701 13:1 37:1 #
0.10000000000000000555111512312578 1:-2.9693501 2:-1.37298 3:0.92122799 4:-0.98532099 5:-0.50463098 6:-1.20324 7:-0.97684002 8:-1.43247 9:-0.013849 10:-1.24551 14:1 24:1 #
-0.10000000000000000555111512312578 1:-0.36202601 2:1.53114 3:-0.413885 4:-1.26761 5:-0.79622602 6:-0.46442199 7:-0.75270802 8:0.186141 9:0.82231498 10:-0.57113397 13:1 37:1 #
-0.10000000000000000555111512312578 1:0.19515701 2:1.63837 3:-0.28037399 4:-1.0700099 5:-0.67615801 6:-1.19426 7:-0.71535301 8:-0.066767797 9:0.66553402 10:-0.219221 13:1 37:1 #
-0.10000000000000000555111512312578 1:-0.42988801 2:1.28988 3:-1.21495 4:-1.26761 5:-0.79622602 6:-0.63694102 7:-0.26708999 8:0.74253899 9:0.770055 10:-0.43595701 13:1 37:1 #
0.10000000000000000555111512312578 1:-1.24066 2:-1.06916 3:-0.146862 4:0.17205399 5:1.1248699 6:-0.32781801 7:0.25588301 8:-0.62316602 9:-0.45806101 10:-0.87698102 13:1 24:1 #
0.10000000000000000555111512312578 1:-1.27995 2:-1.0781 3:0.12016 4:0.0120913 5:0.93619198 6:-0.34898201 7:0.181173 8:-0.87607503 9:-0.56258202 10:-0.84677398 13:1 24:1 #
0.10000000000000000555111512312578 1:-2.25859 2:-0.57769603 3:-0.146862 4:-1.12646 5:-1.03636 6:-1.4110301 7:1.0403399 8:-0.218513 9:-0.902273 10:-1.35954 13:1 24:1 #
-0.10000000000000000555111512312578 1:-2.13358 2:-1.37298 3:-0.0133511 4:-0.067889899 5:-0.41886801 6:-0.60038501 7:-0.453866 8:-0.522003 9:0.169062 10:-1.1496 14:1 24:1 #
-0.10000000000000000555111512312578 1:-1.1835099 2:-1.37298 3:-0.68090802 4:0.25203499 5:0.696055 6:-0.55677402 7:-0.15502401 8:0.034395501 9:0.27358201 10:-0.190524 13:1 24:1 #
-0.10000000000000000555111512312578 1:-1.0013601 2:-1.23894 3:0.92122799 4:0.43081599 5:-0.62470001 6:-0.65297401 7:-0.56593198 8:-1.6348 9:-0.484191 10:0.57824802 13:1 24:1 #
0.10000000000000000555111512312578 1:-0.92277998 2:1.56688 3:-0.68090802 4:-1.26761 5:-0.79622602 6:-0.73057598 7:-0.453866 8:0.33788601 9:0.69166398 10:-0.489575 13:1 37:1 #
0.10000000000000000555111512312578 1:-2.0050001 2:-0.99767703 3:1.05474 4:0.37906399 5:0.37015399 6:-1.15257 7:0.25588301 8:-1.88771 9:-1.34649 10:-0.51525098 14:1 24:1 #
0.10000000000000000555111512312578 1:-0.451318 2:1.53114 3:0.78771698 4:-0.00672783 5:-0.144425 6:-0.35988501 7:-1.6118799 8:-0.471421 9:1.05749 10:-0.32192501 13:1 27:1 #
-0.10000000000000000555111512312578 1:-1.62283 2:-0.78321898 3:0.52069402 4:0.426112 5:1.63945 6:-0.98710901 7:0.89092302 8:-1.12898 9:-1.37262 10:-0.45181599 14:1 24:1 #
-0.10000000000000000555111512312578 1:-0.68347698 2:1.47753 3:0.78771698 4:-1.12646 5:-0.53893697 6:-0.59717798 7:-1.72394 8:-0.31967601 9:1.21427 10:-0.30002499 13:1 38:1 #
-0.10000000000000000555111512312578 1:-1.34067 2:-1.1763901 3:0.52069402 4:-0.32194799 5:0.33584899 6:0.051851898 7:-0.19238 8:-1.33131 9:-0.56258202 10:-1.05067 13:1 25:1 #
0.10000000000000000555111512312578 1:-0.81205797 2:-1.3908499 3:-0.413885 4:0.129711 5:0.67890197 6:-0.14632 7:-0.34180099 8:-0.218513 9:0.27358201 10:0.181779 13:1 24:1 #
0.10000000000000000555111512312578 1:-0.72633803 2:-1.31043 3:-0.81441897 4:0.25203499 5:0.25008601 6:-0.40926701 7:-0.042958502 8:0.034395501 9:0.19519199 10:0.345653 13:1 24:1 #
0.10000000000000000555111512312578 1:-2.1942999 2:-1.36404 3:-0.0133511 4:-0.16669001 5:-0.12727299 6:-0.79278499 7:-0.453866 8:-0.57258499 9:0.142932 10:-0.44955 14:1 24:1 #
-0.10000000000000000555111512312578 1:-0.34059599 2:-1.3461699 3:-0.54739702 4:0.53902602 5:0.112864 6:-0.46442199 7:-0.19238 8:-0.16793101 9:0.19519199 10:0.79724997 13:1 37:1 #
-0.10000000000000000555111512312578 1:-0.29773599 2:-1.18533 3:-0.28037399 4:0.43081599 5:0.130017 6:-0.42978999 7:0.031752001 8:-0.42084 9:-0.1445 10:0.65678602 13:1 40:1 #
-0.10000000000000000555111512312578 1:-0.70133603 2:-0.91725498 3:-0.68090802 4:1.0095 5:-0.230189 6:0.15895499 7:0.51736999 8:-0.16793101 9:-0.37967101 10:0.048867598 13:1 24:1 #
0.10000000000000000555111512312578 1:-1.7907 2:-0.64024699 3:0.52069402 4:0.92952198 5:1.2106301 6:-1.01982 7:1.15241 8:-0.92665702 9:-1.4771399 10:-0.40575001 14:1 24:1 #
0.10000000000000000555111512312578 1:-1.79427 2:-0.67598999 3:0.78771698 4:1.02832 5:1.19348 6:-1.02302 7:1.11505 8:-1.1795599 9:-1.68618 10:-0.420854 14:1 24:1 #
0.10000000000000000555111512312578 1:-1.82999 2:-0.74747598 3:0.52069402 4:0.83072197 5:1.02196 6:-1.03906 7:0.96563298 8:-1.0784 9:-1.42488 10:-0.422364 14:1 24:1 #
-0.10000000000000000555111512312578 1:-1.94428 2:-0.72066802 3:0.52069402 4:0.56725502 5:1.6223 6:-1.25711 7:1.00299 8:-1.0784 9:-1.45101 10:-0.72141498 13:1 24:1 #
-0.10000000000000000555111512312578 1:-2.93364 2:-1.33724 3:0.65420598 4:-1.12646 5:-0.72761601 6:-0.88321298 7:-0.67799801 8:-1.12898 9:-0.0399791 10:-1.01744 14:1 28:1 #
-0.10000000000000000555111512312578 1:-2.2978799 2:-0.40791699 3:0.253672 4:-0.56189102 5:-0.29879901 6:-0.760077 7:1.22712 8:-0.11735 9:-1.11131 10:-0.74633503 14:1 17:1 #
0.10000000000000000555111512312578 1:-1.1835099 2:-0.94406199 3:-0.413885 4:0.76955998 5:-0.230189 6:-0.46762899 7:0.48001501 8:-0.31967601 9:-0.45806101 10:-0.052326299 13:1 24:1 #
0.10000000000000000555111512312578 1:-1.23352 2:-1.05129 3:-0.413885 4:1.01421 5:-0.17873099 6:-0.563829 7:0.293239 8:-0.42084 9:-0.37967101 10:-0.156541 13:1 24:1 #
0.10000000000000000555111512312578 1:-1.15494 2:-1.33724 3:1.4552701 4:-0.56189102 5:-0.29879901 6:-0.41055 7:-1.23833 8:-2.09004 9:-0.27515 10:0.58126903 13:1 24:1 #
-0.10000000000000000555111512312578 1:-1.3621 2:-0.91725498 3:0.38718301 4:0.52961701 5:-0.55608898 6:-0.81010097 7:0.55472499 8:-1.0784 9:-1.03292 10:-0.59303403 13:1 24:1 #
-0.10000000000000000555111512312578 1:-0.93706697 2:-1.05129 3:-0.146862 4:0.69898802 5:0.43876499 6:-1.2141401 7:0.25588301 8:-0.67374802 9:-0.51032102 10:-1.35199 13:1 24:1 #
-0.10000000000000000555111512312578 1:-1.44425 2:-0.85470498 3:-0.68090802 4:0.17205399 5:0.095711797 6:-0.87230998 7:0.59208101 8:-0.11735 9:-0.43193099 10:-0.39895299 13:1 25:1 #
0.10000000000000000555111512312578 1:-2.6871901 2:-1.28362 3:-0.0133511 4:-1.12646 5:-0.79622602 6:-0.606157 7:-0.26708999 8:-0.67374802 9:-0.066109203 10:-1.07786 14:1 28:1 #
0.10000000000000000555111512312578 1:-2.4121699 2:-0.62237501 3:0.52069402 4:-0.56189102 5:-0.50463098 6:-1.36742 7:1.15241 8:-0.77491099 9:-1.42488 10:-0.77276701 14:1 17:1 #
0.10000000000000000555111512312578 1:-2.2728801 2:-0.631311 3:0.38718301 4:-0.19491901 5:-0.65900499 6:-1.29559 7:1.11505 8:-0.72433001 9:-1.37262 10:-0.68441099 14:1 17:1 #
-0.10000000000000000555111512312578 1:-2.3871701 2:-0.71173298 3:0.38718301 4:-0.98532099 5:-0.47032601 6:-0.76969701 7:0.96563298 8:-0.82549298 9:-1.29423 10:-0.93588501 14:1 17:1 #
-0.10000000000000000555111512312578 1:-3.6015401 2:-0.65811801 3:1.05474 4:-0.56189102 5:0.0271012 6:-1.4110301 7:1.18976 8:-1.48306 9:-1.92135 10:-0.94721299 14:1 17:1 #
-0.10000000000000000555111512312578 1:-2.6371901 2:-0.34536701 3:1.7223001 4:-0.86770201 5:-0.213036 6:-0.85435301 7:1.56332 8:-0.977238 9:-2.1565199 10:-0.53412998 14:1 17:1 #
0.10000000000000000555111512312578 1:-1.31924 2:-1.05129 3:0.38718301 4:-0.13846201 5:-0.98490602 6:-0.51701099 7:0.218528 8:-1.0784 9:-0.74549299 10:-0.67081797 13:1 24:1 #
0.07208024972748688918855464180524 1:-1.39781 2:-0.80109 3:0.78771698 4:-0.56189102 5:0.19862799 6:-0.63565803 7:0.853567 8:-1.43247 9:-1.5294 10:-0.28114501 13:1 24:1 #
0.10000000000000000555111512312578 1:-1.54782 2:-0.72960401 3:0.38718301 4:-0.16669001 5:-0.47032601 6:-1.19683 7:0.96563298 8:-0.92665702 9:-1.3203599 10:-0.52657902 13:1 24:1 #
-0.10000000000000000555111512312578 1:-1.02279 2:-0.92619097 3:-0.146862 4:-0.279605 5:-0.86483699 6:-0.32140499 7:0.55472499 8:-0.57258499 9:-0.66710198 10:-0.340049 13:1 24:1 #
-0.10000000000000000555111512312578 1:-1.15137 2:-1.05129 3:0.253672 4:0.37906399 5:-0.95060003 6:-0.43556201 7:0.218528 8:-0.977238 9:-0.66710198 10:-0.20260701 13:1 24:1 #
-0.10000000000000000555111512312578 1:-1.08351 2:-0.89044797 3:-0.0133511 4:-0.37369999 5:-0.230189 6:-0.0026615399 7:0.59208101 8:-0.62316602 9:-0.77162302 10:-0.67459399 13:1 24:1 #
0.10000000000000000555111512312578 1:-2.6479001 2:1.54008 3:2.6568799 4:-0.19491901 5:1.87959 6:-1.10576 7:-3.47964 8:-2.1912 9:1.18814 10:-0.82865 14:1 24:1 #
0.10000000000000000555111512312578 1:-1.98 2:-0.89044797 3:0.253672 4:-1.26761 5:-0.79622602 6:-1.00699 7:0.62943602 8:-0.977238 9:-1.00679 10:-0.67157298 14:1 20:1 #
0.10000000000000000555111512312578 1:-3.7979901 2:-1.21213 3:1.5887901 4:-0.703035 5:-0.161578 6:-1.42129 7:-0.71535301 8:-2.3935299 9:-0.87614298 10:-0.93588501 14:1 15:1 #
-0.10000000000000000555111512312578 1:-1.94428 2:-0.72960401 3:0.52069402 4:-0.98532099 5:-0.315952 6:-0.94798797 7:1.00299 8:-1.02782 9:-1.3987499 10:-0.45106101 14:1 20:1 #
-0.10000000000000000555111512312578 1:-1.30138 2:-1.31936 3:0.38718301 4:-0.75949198 5:-0.29879901 6:-0.47275901 7:-0.52857703 8:-0.977238 9:-0.0399791 10:-0.51222998 13:1 24:1 #
-0.10000000000000000555111512312578 1:-1.58354 2:-0.69386101 3:0.38718301 4:-0.067889899 5:-0.436021 6:-1.2058001 7:1.0403399 8:-0.82549298 9:-1.29423 10:-0.52204698 13:1 18:1 #
0.10000000000000000555111512312578 1:-1.0335 2:-0.72066802 3:-0.0133511 4:-0.251376 5:-0.384563 6:-0.043706901 7:0.89092302 8:-0.522003 9:-0.98066401 10:0.158369 13:1 24:1 #
0.05540130847588430745842558167169 1:-2.0978601 2:-1.16746 3:2.1228299 4:-0.36429101 5:0.078559197 6:-1.11089 7:-0.86477399 8:-3.2534101 9:-1.37262 10:-1.16546 14:1 24:1 #
0.044699978941321834302602411526095 1:-1.34424 2:-0.470467 3:-0.413885 4:-0.98532099 5:-0.81337899 6:-0.251499 7:0.96563298 8:0.13555899 9:-0.64097202 10:0.0586849 13:1 24:1 #
-0.10000000000000000555111512312578 1:-1.49782 2:-0.60450399 3:-0.0133511 4:-0.75949198 5:-0.281647 6:-0.51572901 7:1.0403399 8:-0.370258 9:-1.03292 10:-0.25849 13:1 24:1 #
-0.10000000000000000555111512312578 1:-0.99064201 2:-0.32749501 3:0.65420598 4:0.035615101 5:0.0271012 6:0.033894502 7:1.3765399 8:-0.16793101 9:-1.34649 10:0.23615199 13:1 24:1 #
-0.10000000000000000555111512312578 1:-1.02993 2:-1.1763901 3:-0.54739702 4:-1.0700099 5:-0.69331002 6:-0.53496897 7:0.106462 8:-0.269095 9:-0.066109203 10:-0.467675 13:1 24:1 #
0.052219721477809212528686799714706 1:-1.47639 2:-1.10491 3:0.253672 4:-0.84417802 5:-0.77907401 6:-1.3840899 7:0.106462 8:-0.977238 9:-0.56258202 10:-0.41858801 13:1 24:1 #
0.10000000000000000555111512312578 1:-2.0157199 2:-0.82789701 3:0.52069402 4:-0.84417802 5:-0.161578 6:-1.02623 7:0.77885699 8:-1.12898 9:-1.29423 10:-0.389891 14:1 20:1 #
0.10000000000000000555111512312578 1:-1.47639 2:-0.82789701 3:0.52069402 4:-0.19491901 5:-0.76192099 6:-1.19683 7:0.77885699 8:-1.0784 9:-1.2681 10:-0.556786 13:1 18:1 #
-0.10000000000000000555111512312578 1:-3.31581 2:-0.631311 3:0.52069402 4:-0.86770201 5:-0.52178401 6:-1.20837 7:1.15241 8:-0.87607503 9:-1.4771399 10:-1.0469 14:1 20:1 #
-0.10000000000000000555111512312578 1:-0.75848299 2:-0.96193397 3:-0.413885 4:-0.82065398 5:-0.50463098 6:0.0133718 7:0.44266 8:-0.42084 9:-0.51032102 10:0.227845 13:1 46:1 #
-0.10000000000000000555111512312578 1:-1.25852 2:-0.96193397 3:0.92122799 4:-1.12646 5:-0.62470001 6:-0.67926902 7:0.40530401 8:-1.68538 9:-1.29423 10:-0.80221897 13:1 47:1 #
0.10000000000000000555111512312578 1:-0.954925 2:-1.14958 3:-0.81441897 4:-0.547777 5:-0.436021 6:-0.10271 7:0.181173 8:-0.066767797 9:-0.0399791 10:-0.042509001 13:1 46:1 #
0.06092279868335892523134589282563 1:-1.62283 2:-1.29256 3:-0.54739702 4:-1.12646 5:-0.71046299 6:-0.37078699 7:-0.117669 8:-0.16793101 9:0.116802 10:-0.775787 13:1 24:1 #
0.10000000000000000555111512312578 1:-1.6549799 2:-1.35511 3:-0.28037399 4:-1.12646 5:-0.69331002 6:-0.46698701 7:-0.304445 8:-0.370258 9:0.169062 10:-0.81430203 13:1 24:1 #
-0.10000000000000000555111512312578 1:-0.669191 2:-1.23001 3:-0.54739702 4:-1.12646 5:-0.76192099 6:-0.54522997 7:-0.0056032902 8:-0.269095 9:-0.013849 10:-0.249428 13:1 24:1 #
-0.10000000000000000555111512312578 1:-0.92277998 2:-0.78321898 3:-1.34846 4:-1.26761 5:-0.79622602 6:-0.078338899 7:0.44266 8:0.38846701 9:-0.013849 10:-1.02877 13:1 24:1 #
-0.10000000000000000555111512312578 1:-2.2550199 2:-0.64918202 3:-1.34846 4:-1.12646 5:-0.77907401 6:-1.3148299 7:0.48001501 8:0.489631 9:0.0122812 10:-1.0597301 13:1 24:1 #
0.10000000000000000555111512312578 1:-0.93349499 2:-1.01555 3:1.05474 4:-0.95238799 5:-0.144425 6:-0.66066998 7:0.218528 8:-1.83713 9:-1.2681 10:-1.01744 13:1 47:1 #
0.10000000000000000555111512312578 1:-1.31209 2:-1.14065 3:1.05474 4:-0.98532099 5:-0.384563 6:-0.86525601 7:-0.26708999 8:-1.93829 9:-0.902273 10:-0.75313199 13:1 47:1 #
0.045633682833273236933990801844629 1:-0.94420999 2:-1.23001 3:-0.54739702 4:-0.41133901 5:-0.384563 6:-0.103992 7:-0.0056032902 8:-0.218513 9:0.0122812 10:-0.0085259704 13:1 46:1 #
-0.10000000000000000555111512312578 1:-0.61204398 2:-0.99767703 3:1.5887901 4:-0.56189102 5:-0.024356799 6:-0.67093199 7:0.14381801 8:-2.4441099 9:-1.63392 10:-0.672328 13:1 47:1 #
-0.10000000000000000555111512312578 1:-0.82277298 2:-0.970869 3:-0.54739702 4:0.34142601 5:0.19862799 6:-0.0020202 7:0.44266 8:-0.31967601 9:-0.405801 10:0.081340298 13:1 46:1 #
-0.10000000000000000555111512312578 1:-0.97635502 2:-0.89044797 3:1.5887901 4:-0.98532099 5:-0.41886801 6:-0.63565803 7:0.55472499 8:-2.3935299 9:-1.94748 10:-0.647407 13:1 47:1 #
0.10000000000000000555111512312578 1:-1.63355 2:-0.40791699 3:-1.21495 4:-1.26761 5:-0.79622602 6:-0.441975 7:0.59208101 8:0.54021198 9:-0.066109203 10:-1.0997601 13:1 24:1 #
0.10000000000000000555111512312578 1:-1.77284 2:-0.34536701 3:-1.61549 4:-1.26761 5:-0.79622602 6:-1.4802999 7:0.40530401 8:0.69195801 9:0.19519199 10:-0.54470301 13:1 24:1 #
0.10000000000000000555111512312578 1:-0.99778599 2:-0.425789 3:0.38718301 4:-0.27019501 5:-0.213036 6:-0.0526856 7:1.3018301 8:-0.269095 9:-1.24196 10:0.13646799 13:1 24:1 #
-0.10000000000000000555111512312578 1:-0.39059901 2:-0.23813801 3:-0.146862 4:-0.547777 5:-0.487479 6:-0.791502 7:1.0777 8:0.43904901 9:-0.64097202 10:-0.15880699 13:1 24:1 #
-0.10000000000000000555111512312578 1:-0.72633803 2:-0.24707399 3:0.12016 4:0.120301 5:0.55883402 6:-0.336155 7:1.18976 8:0.28730401 9:-0.85001302 10:0.188576 13:1 24:1 #
-0.10000000000000000555111512312578 1:-2.2550199 2:-1.31043 3:-0.68090802 4:-0.251376 5:0.112864 6:-1.19426 7:-0.080313802 8:-0.066767797 9:0.169062 10:-1.03934 14:1 24:1 #
0.10000000000000000555111512312578 1:-0.869205 2:-0.93512601 3:-0.54739702 4:0.120301 5:0.28439099 6:-0.048837598 7:0.48001501 8:-0.218513 9:-0.405801 10:0.078319602 13:1 46:1 #
0.10000000000000000555111512312578 1:-0.75491101 2:-0.99767703 3:1.5887901 4:-0.50543398 5:0.49022299 6:-0.71838999 7:0.14381801 8:-2.4946899 9:-1.66005 10:-1.07786 13:1 47:1 #
0.10000000000000000555111512312578 1:-0.86206198 2:-0.69386101 3:-0.54739702 4:0.25674 5:0.30154401 6:-0.0154882 7:0.77885699 8:-0.066767797 9:-0.58871198 10:0.122875 13:1 46:1 #
-0.10000000000000000555111512312578 1:0.0522894 2:-0.86364001 3:-0.94793099 4:0.073253401 5:0.43876499 6:-0.44774699 7:0.51736999 8:0.13555899 9:-0.22289 10:0.61072099 13:1 46:1 #
0.10000000000000000555111512312578 1:-1.9871401 2:-1.35511 3:-0.54739702 4:-0.16669001 5:0.33584899 6:-0.590765 7:-0.19238 8:-0.11735 9:0.221322 10:-1.08692 14:1 24:1 #
-0.10000000000000000555111512312578 1:0.059432801 2:-0.29175201 3:-0.81441897 4:-0.067889899 5:0.181475 6:-0.44069299 7:0.816212 8:0.54021198 9:-0.30127999 10:0.55332702 13:1 46:1 #
-0.10000000000000000555111512312578 1:0.0415744 2:-0.970869 3:-0.68090802 4:0.035615101 5:0.38730699 6:-0.45672601 7:0.40530401 8:-0.11735 9:-0.27515 10:0.60392398 13:1 46:1 #
0.10000000000000000555111512312578 1:-1.17637 2:-0.300688 3:-0.146862 4:-0.27019501 5:-0.281647 6:-1.18464 7:1.11505 8:0.28730401 9:-0.71936202 10:-0.610403 13:1 24:1 #
0.10000000000000000555111512312578 1:-2.3336 2:-1.37298 3:-0.94793099 4:-0.36429101 5:0.33584899 6:-0.86782098 7:-0.080313802 8:0.13555899 9:0.29971299 10:-0.53715098 14:1 24:1 #
-0.10000000000000000555111512312578 1:-0.84063101 2:-1.15852 3:0.92122799 4:-0.063185103 5:0.91903901 6:-1.0319999 7:-0.304445 8:-1.78655 9:-0.77162302 10:-0.69196302 13:1 47:1 #
-0.10000000000000000555111512312578 1:-2.71577 2:-1.0423599 3:1.5887901 4:-0.547777 5:0.35300201 6:-0.86653799 7:-0.0056032902 8:-2.4441099 9:-1.50327 10:-0.28718701 14:1 24:1 #
-0.10000000000000000555111512312578 1:-1.91571 2:-0.48833901 3:0.253672 4:0.50138801 5:-0.230189 6:-0.95632499 7:1.22712 8:-0.370258 9:-1.24196 10:-0.85432601 14:1 16:1 #
0.10000000000000000555111512312578 1:-1.21209 2:-1.06023 3:1.98932 4:-0.98532099 5:-0.264494 6:-0.80497003 7:-0.26708999 8:-3.00051 9:-1.71231 10:-0.82487398 13:1 47:1 #
0.10000000000000000555111512312578 1:-1.13351 2:1.54901 3:1.5887901 4:-0.68421501 5:-0.230189 6:-0.29639199 7:-2.32163 8:-1.1795599 9:1.10975 10:0.504996 13:1 24:1 #
0.10000000000000000555111512312578 1:-2.6229 2:1.3971 3:3.05741 4:-1.0700099 5:-0.29879901 6:-1.07112 7:-4.1893902 8:-1.83713 9:1.84139 10:-1.08994 14:1 24:1 #
-0.10000000000000000555111512312578 1:-1.26209 2:-0.99767703 3:2.25634 4:-0.41133901 5:0.55883402 6:-1.04547 7:-0.080313802 8:-3.40516 9:-2.1565199 10:-0.90265697 13:1 47:1 #
-0.10000000000000000555111512312578 1:-1.5621099 2:-0.765347 3:-0.54739702 4:-1.26761 5:-0.79622602 6:-0.88577801 7:0.70414603 8:-0.11735 9:-0.51032102 10:-1.12695 13:1 27:1 #
-0.10000000000000000555111512312578 1:-1.13351 2:-0.55088902 3:0.253672 4:-0.86770201 5:-0.29879901 6:-0.064870901 7:1.18976 8:-0.471421 9:-1.24196 10:0.32224199 13:1 25:1 #
0.10000000000000000555111512312578 1:-2.4407499 2:-0.559825 3:0.253672 4:-0.32194799 5:-0.29879901 6:-0.66195297 7:1.15241 8:-0.471421 9:-1.21583 10:-1.08692 14:1 16:1 #
0.10000000000000000555111512312578 1:-2.19787 2:-1.06023 3:1.7223001 4:-0.56189102 5:0.47307 6:-1.05317 7:-0.19238 8:-2.7476001 9:-1.55553 10:-0.85961199 14:1 24:1 #
0.10000000000000000555111512312578 1:-1.9192801 2:-0.40791699 3:0.12016 4:-0.063185103 5:0.33584899 6:-0.99416399 7:1.18976 8:-0.066767797 9:-1.03292 10:-0.56131703 14:1 16:1 #
-0.10000000000000000555111512312578 1:-2.3871701 2:-0.702797 3:0.253672 4:-0.75949198 5:0.49022299 6:-0.67991 7:1.00299 8:-0.72433001 9:-1.21583 10:-1.099 14:1 16:1 #
-0.10000000000000000555111512312578 1:-2.0692899 2:-0.80109 3:-0.146862 4:-1.26761 5:-0.79622602 6:-1.0801001 7:0.74150199 8:-0.522003 9:-0.85001302 10:-0.83695698 14:1 16:1 #
-0.10000000000000000555111512312578 1:-1.87642 2:-0.88151199 3:1.85581 4:-0.13846201 5:0.62744403 6:-1.08331 7:0.55472499 8:-2.6970201 9:-2.1826501 10:-0.55225497 14:1 24:1 #
0.10000000000000000555111512312578 1:-1.3371 2:-0.67598999 3:0.253672 4:-0.68421501 5:-1.01921 6:-0.25855401 7:1.00299 8:-0.67374802 9:-1.1897 10:0.00053617702 13:1 25:1 #
0.10000000000000000555111512312578 1:-1.09065 2:-0.79215401 3:-0.146862 4:-0.16669001 5:-0.60754699 6:-0.33872101 7:0.77885699 8:-0.522003 9:-0.85001302 10:-0.0953715 13:1 25:1 #
0.10000000000000000555111512312578 1:-1.34424 2:-0.68492502 3:-0.0133511 4:-0.56189102 5:-1.0020601 6:-0.27587 7:0.96563298 8:-0.471421 9:-1.00679 10:-0.000219002 13:1 25:1 #
-0.10000000000000000555111512312578 1:-0.75491101 2:-0.91725498 3:-0.413885 4:-0.82065398 5:-0.487479 6:0.067243896 7:0.55472499 8:-0.42084 9:-0.56258202 10:0.166675 13:1 25:1 #
-0.10000000000000000555111512312578 1:-1.3621 2:-0.559825 3:-0.28037399 4:-1.0700099 5:-0.65900499 6:0.0082411403 7:1.00299 8:-0.066767797 9:-0.823883 10:0.384922 13:1 25:1 #
-0.10000000000000000555111512312578 1:-1.1478 2:-1.14958 3:-0.0133511 4:-0.67010099 5:-0.86483699 6:-0.611929 7:0.031752001 8:-0.77491099 9:-0.37967101 10:0.0080879601 13:1 25:1 #
0.10000000000000000555111512312578 1:-2.5836101 2:-0.68492502 3:-0.28037399 4:-1.12646 5:-0.71046299 6:-0.66580099 7:0.89092302 8:-0.31967601 9:-0.85001302 10:-1.03708 14:1 16:1 #
0.10000000000000000555111512312578 1:-2.55147 2:-0.765347 3:-0.146862 4:-0.98532099 5:-0.55608898 6:-0.66900802 7:0.816212 8:-0.471421 9:-0.87614298 10:-1.04388 14:1 16:1 #
0.10000000000000000555111512312578 1:-2.3764601 2:-0.872576 3:0.253672 4:-0.50543398 5:0.0099485395 6:-0.71838999 7:0.66679102 8:-0.977238 9:-1.05905 10:-1.01895 14:1 16:1 #
-0.10000000000000000555111512312578 1:-2.7407701 2:-0.434724 3:-0.413885 4:-1.12646 5:-0.79622602 6:-1.4110301 7:1.00299 8:0.13555899 9:-0.693232 10:-1.26212 14:1 16:1 #
-0.10000000000000000555111512312578 1:-1.64069 2:-0.61343902 3:0.78771698 4:-1.12646 5:-0.86483699 6:-1.0583 7:1.18976 8:-0.977238 9:-1.63392 10:-0.81430203 13:1 25:1 #
-0.10000000000000000555111512312578 1:-2.0800099 2:-0.354303 3:0.38718301 4:-0.27019501 5:-0.230189 6:-1.16027 7:1.3018301 8:-0.066767797 9:-1.1897 10:-1.01065 14:1 15:1 #
0.10000000000000000555111512312578 1:-1.30852 2:-1.19426 3:-0.146862 4:-0.82065398 5:-0.65900499 6:-0.31435001 7:-0.0056032902 8:-0.522003 9:-0.17062999 10:0.037539899 13:1 25:1 #
0.10000000000000000555111512312578 1:-1.34067 2:-1.23001 3:-0.28037399 4:-0.86770201 5:-0.72761601 6:-0.32974201 7:-0.080313802 8:-0.471421 9:-0.092239402 10:0.0111087 13:1 25:1 #
0.10000000000000000555111512312578 1:-0.94778198 2:-1.0870301 3:-0.68090802 4:-0.95238799 5:-0.84768403 6:-0.173898 7:0.25588301 8:-0.11735 9:-0.1445 10:0.49215701 13:1 25:1 #
-0.10000000000000000555111512312578 1:-1.36924 2:-1.11384 3:-0.413885 4:-0.84417802 5:-0.69331002 6:0.33724499 7:0.181173 8:-0.370258 9:-0.24902 10:0.41059801 13:1 25:1 #
-0.10000000000000000555111512312578 1:-0.76562601 2:-1.3283 3:-0.81441897 4:-0.95238799 5:-0.69331002 6:-0.80497003 7:-0.080313802 8:0.034395501 9:0.221322 10:0.131937 13:1 25:1 #
-0.10000000000000000555111512312578 1:-0.7942 2:-1.2568099 3:-0.94793099 4:-1.0700099 5:-0.79622602 6:-0.77482802 7:0.069107197 8:0.13555899 9:0.169062 10:0.22180399 13:1 25:1 #
0.10000000000000000555111512312578 1:-2.01929 2:-0.27388099 3:0.253672 4:-0.68421501 5:-0.144425 6:-1.0769 7:1.26448 8:0.13555899 9:-1.00679 10:-0.53412998 14:1 15:1 #
0.10000000000000000555111512312578 1:-2.12287 2:-0.193459 3:0.65420598 4:-0.63716799 5:-0.29879901 6:-1.18849 7:1.3018301 8:0.186141 9:-1.11131 10:-0.45785701 14:1 15:1 #
0.092397349591478800112653857468104 1:-2.10144 2:-0.40791699 3:0.12016 4:-0.56189102 5:-0.12727299 6:-1.2455699 7:1.22712 8:-0.11735 9:-1.08518 10:-0.53941703 14:1 15:1 #
-0.10000000000000000555111512312578 1:-1.67641 2:-0.434724 3:-0.146862 4:-0.84417802 5:-0.487479 6:-1.17117 7:1.0777 8:0.034395501 9:-0.85001302 10:-1.23041 14:1 24:1 #
-0.10000000000000000555111512312578 1:-1.13708 2:-0.300688 3:0.12016 4:-0.50543398 5:-0.50463098 6:-0.298958 7:1.18976 8:0.186141 9:-0.902273 10:-0.98874801 13:1 25:1 #
-0.10000000000000000555111512312578 1:-2.31217 2:-0.470467 3:-0.0133511 4:-0.56189102 5:-0.161578 6:-1.45272 7:1.15241 8:-0.11735 9:-1.03292 10:-1.31423 14:1 25:1 #
0.10000000000000000555111512312578 1:-1.42996 2:-1.24788 3:-1.48198 4:-1.12646 5:-0.79622602 6:-0.66323602 7:0.181173 8:0.43904901 9:0.27358201 10:0.358491 13:1 25:1 #
0.10000000000000000555111512312578 1:-1.23352 2:-0.34536701 3:-0.28037399 4:-0.82065398 5:-0.55608898 6:-0.15850601 7:1.0403399 8:0.28730401 9:-0.66710198 10:0.171207 13:1 25:1 #
0.10000000000000000555111512312578 1:-1.47639 2:-0.72066802 3:0.52069402 4:-1.0700099 5:-0.65900499 6:-0.58371001 7:1.00299 8:-1.02782 9:-1.42488 10:-0.99856502 13:1 25:1 #
-0.10000000000000000555111512312578 1:-0.79777098 2:-0.89938301 3:0.253672 4:-0.56189102 5:-0.075814798 6:-0.66900802 7:0.59208101 8:-0.92665702 9:-0.95453399 10:-0.34986699 13:1 25:1 #
-0.10000000000000000555111512312578 1:-1.36567 2:-0.264945 3:-1.08144 4:-0.86770201 5:-0.79622602 6:0.39817199 7:0.70414603 8:0.64137602 9:-0.118369 10:0.267869 13:1 25:1 #
-0.10000000000000000555111512312578 1:-1.12637 2:-0.104102 3:0.65420598 4:-0.56189102 5:-1.2593499 6:0.235273 7:1.15241 8:0.489631 9:-0.85001302 10:-0.087064497 13:1 25:1 #
0.10000000000000000555111512312578 1:-1.9764301 2:-0.88151199 3:-0.28037399 4:-1.26761 5:-0.79622602 6:-1.23402 7:0.59208101 8:-0.42084 9:-0.614842 10:-1.20699 14:1 24:1 #
0.10000000000000000555111512312578 1:-2.5443201 2:1.17371 3:2.79039 4:-0.32194799 5:1.02196 6:-0.98197901 7:-4.0399699 8:-0.522003 9:2.4946401 10:-0.67685902 14:1 24:1 #
0.10000000000000000555111512312578 1:-1.82284 2:1.2362601 3:1.1882499 4:0.17205399 5:2.2569499 6:-1.04162 7:-2.28427 8:0.23672201 9:1.86752 10:-0.58246201 14:1 24:1 #
-0.10000000000000000555111512312578 1:-1.77284 2:1.28988 3:1.4552701 4:0.186168 5:2.34271 6:-1.38538 7:-2.65783 8:-0.16793101 9:1.8936501 10:-0.24565201 14:1 24:1 #
-0.10000000000000000555111512312578 1:-2.0335701 2:1.03074 3:1.3217601 4:0.73662698 5:2.3083999 6:-1.28276 7:-2.3589799 8:0.79312098 9:2.1549499 10:-0.89586103 14:1 24:1 #
-0.10000000000000000555111512312578 1:-2.28002 2:1.01287 3:2.3898499 4:-0.41133901 5:1.15918 6:-1.29944 7:-3.3675799 8:0.43904901 9:2.5207701 10:-0.420854 14:1 24:1 #
0.10000000000000000555111512312578 1:-2.6871901 2:1.81709 3:2.52336 4:-0.86770201 5:-0.40171501 6:-1.19683 7:-2.2469201 8:-3.1522501 9:-0.27515 10:-1.11562 14:1 24:1 #
0.10000000000000000555111512312578 1:-1.75498 2:1.77241 3:-0.413885 4:0.34142601 5:0.40446001 6:-1.19618 7:-0.416511 8:-0.16793101 9:0.37810299 10:-0.65495902 14:1 24:1 #
0.10000000000000000555111512312578 1:-2.2442999 2:-0.72960401 3:1.3217601 4:-0.68421501 5:0.25008601 6:-1.08331 7:1.0403399 8:-1.83713 9:-2.0258701 10:-0.85432601 14:1 15:1 #
-0.10000000000000000555111512312578 1:-1.57283 2:1.50433 3:-0.28037399 4:0.186168 5:1.7595201 6:-0.93900901 7:-0.90212899 8:0.13555899 9:0.92683601 10:-0.397443 14:1 24:1 #
-0.10000000000000000555111512312578 1:-3.0657899 2:-0.631311 3:0.38718301 4:-1.26761 5:-0.79622602 6:-0.62796199 7:1.11505 8:-0.67374802 9:-1.3203599 10:-0.83771199 14:1 15:1 #
-0.10000000000000000555111512312578 1:-1.69784 2:1.46859 3:-0.413885 4:-0.279605 5:0.095711797 6:-1.10127 7:-0.79006398 8:0.28730401 9:0.92683601 10:-0.40650499 14:1 20:1 #
0.10000000000000000555111512312578 1:-1.88713 2:1.01287 3:0.92122799 4:0.713103 5:1.96535 6:-0.89155 7:-1.8733701 8:0.944866 9:1.9720401 10:-1.29006 14:1 24:1 #
0.10000000000000000555111512312578 1:-1.93357 2:1.08435 3:1.1882499 4:0.57195997 5:1.74237 6:-0.87230998 7:-2.2469201 8:0.69195801 9:2.0504301 10:-1.2915699 14:1 24:1 #
0.10000000000000000555111512312578 1:-2.5228901 2:1.15584 3:1.1882499 4:-0.95238799 5:-0.50463098 6:-0.58371001 7:-2.2469201 8:0.489631 9:1.9720401 10:-1.02273 14:1 20:1 #
-0.10000000000000000555111512312578 1:-1.79427 2:-0.73853999 3:1.1882499 4:-0.129052 5:0.45591801 6:-1.12371 7:1.00299 8:-1.68538 9:-1.89522 10:-0.41632199 14:1 19:1 #
-0.10000000000000000555111512312578 1:-1.84785 2:1.4149801 3:0.92122799 4:0.75544602 5:3.20034 6:-0.80112201 7:-1.9480799 8:-0.269095 9:1.42331 10:-0.90567797 14:1 24:1 #
-0.10000000000000000555111512312578 1:-1.46925 2:-0.175588 3:0.12016 4:-0.067889899 5:0.181475 6:-0.89347398 7:1.11505 8:0.489631 9:-0.66710198 10:-0.59001398 13:1 16:1 #
0.10000000000000000555111512312578 1:-1.73712 2:1.40604 3:-0.68090802 4:-0.19491901 5:-0.29879901 6:-1.11089 7:-0.56593198 8:0.54021198 9:0.90070599 10:-0.50165802 14:1 20:1 #
0.10000000000000000555111512312578 1:-1.72641 2:1.30775 3:-0.81441897 4:0.204987 5:-0.075814798 6:-1.05445 7:-0.49122199 8:0.69195801 9:0.90070599 10:-0.54696798 14:1 20:1 #
0.10000000000000000555111512312578 1:-1.72998 2:1.68305 3:-0.81441897 4:0.063843802 5:-0.092967398 6:-1.08139 7:-0.26708999 8:0.23672201 9:0.50875401 10:-0.531865 14:1 20:1 #
-0.10000000000000000555111512312578 1:-1.52997 2:1.60263 3:-1.21495 4:-0.24196699 5:-0.40171501 6:-1.01405 7:-0.117669 8:0.489631 9:0.53488398 10:-0.72518998 14:1 20:1 #
-0.10000000000000000555111512312578 1:-1.36924 2:1.70986 3:-1.08144 4:0.14382499 5:0.061406501 6:-1.16027 7:-0.15502401 8:0.33788601 9:0.45649299 10:-0.86716402 14:1 20:1 #
-0.10000000000000000555111512312578 1:-1.52639 2:1.26307 3:-0.94793099 4:0.308492 5:0.044253901 6:-1.39179 7:-0.416511 8:0.74253899 9:0.87457502 10:-0.072716199 14:1 20:1 #
0.10000000000000000555111512312578 1:-1.96571 2:1.3256201 3:-0.54739702 4:-0.00672783 5:1.6566 6:-0.63694102 7:-0.75270802 8:0.59079403 9:1.05749 10:-0.94796801 14:1 24:1 #
0.10000000000000000555111512312578 1:-2.01214 2:1.4596601 3:0.78771698 4:0.83072197 5:2.3598599 6:-0.88064802 7:-1.79866 8:-0.31967601 9:1.29266 10:-0.72368002 14:1 24:1 #
0.10000000000000000555111512312578 1:-1.5764 2:-0.461532 3:-0.81441897 4:-0.129052 5:0.061406501 6:-1.0172499 7:0.816212 8:0.33788601 9:-0.35354099 10:-0.78636003 13:1 16:1 #
-0.10000000000000000555111512312578 1:-1.38353 2:-0.82789701 3:-1.08144 4:-0.32194799 5:0.130017 6:-0.70556402 7:0.51736999 8:0.186141 9:-0.19676 10:-0.55980599 13:1 16:1 #
-0.10000000000000000555111512312578 1:-1.35853 2:1.0218 3:-0.54739702 4:0.14853001 5:0.112864 6:-1.19169 7:-0.71535301 8:1.04603 9:1.2404 10:-0.84601903 14:1 20:1 #
-0.10000000000000000555111512312578 1:-2.12644 2:-0.75641102 3:-0.68090802 4:-0.56189102 5:-0.57324201 6:-1.27507 7:0.70414603 8:-0.066767797 9:-0.484191 10:-0.96231699 13:1 16:1 #
0.10000000000000000555111512312578 1:-1.6514 2:1.8081501 3:-1.21495 4:-0.703035 5:-0.281647 6:-1.09806 7:-0.042958502 8:0.33788601 9:0.351973 10:-0.50014699 14:1 20:1 #
0.10000000000000000555111512312578 1:-1.55497 2:1.70986 3:-1.21495 4:-0.420748 5:-0.092967398 6:-1.4110301 7:-0.080313802 8:0.38846701 9:0.45649299 10:-0.19883101 14:1 20:1 #
0.10000000000000000555111512312578 1:-1.57283 2:1.72773 3:-1.21495 4:-0.67010099 5:-0.64185202 6:-1.30265 7:-0.042958502 8:0.43904901 9:0.430363 10:-0.31966001 14:1 20:1 #
-0.10000000000000000555111512312578 1:-2.9300699 2:1.18265 3:3.32443 4:-0.84417802 5:0.26723799 6:-0.59268898 7:-4.63765 8:-0.977238 9:2.57303 10:-0.85130501 14:1 24:1 #
-0.10000000000000000555111512312578 1:-2.6586201 2:1.50433 3:0.92122799 4:-1.26761 5:-0.79622602 6:-1.2455699 7:-1.83601 8:-0.522003 9:1.16201 10:-0.55754101 14:1 30:1 #
-0.10000000000000000555111512312578 1:-2.04072 2:-0.032615501 3:1.5887901 4:-0.95238799 5:-0.315952 6:-1.23531 7:1.0777 8:0.33788601 9:-1.08518 10:-0.54696798 14:1 18:1 #
0.10000000000000000555111512312578 1:-1.77284 2:-0.89938301 3:-0.68090802 4:-0.98532099 5:-0.77907401 6:-1.4110301 7:0.51736999 8:-0.11735 9:-0.37967101 10:-0.62022102 13:1 16:1 #
0.10000000000000000555111512312578 1:-1.72998 2:-0.98874098 3:-0.81441897 4:-0.82065398 5:-0.57324201 6:-1.40911 7:0.40530401 8:-0.016186099 9:-0.19676 10:-0.63305902 13:1 16:1 #
0.10000000000000000555111512312578 1:-1.75498 2:-0.92619097 3:-0.413885 4:-0.98532099 5:-0.69331002 6:-1.42129 7:0.51736999 8:-0.31967601 9:-0.484191 10:-0.61568999 13:1 16:1 #
-0.10000000000000000555111512312578 1:-2.11215 2:-0.88151199 3:-0.413885 4:-0.420748 5:-0.65900499 6:-1.26609 7:0.59208101 8:-0.370258 9:-0.58871198 10:-0.96684802 13:1 16:1 #
-0.10000000000000000555111512312578 1:-1.19066 2:-1.23001 3:-0.54739702 4:-1.12646 5:-0.74476802 6:-1.11089 7:0.031752001 8:-0.16793101 9:0.0122812 10:-0.51222998 13:1 47:1 #
-0.10000000000000000555111512312578 1:-1.40853 2:-0.095165797 3:-0.146862 4:-1.12646 5:-0.69331002 6:-0.87102801 7:0.96563298 8:0.69195801 9:-0.405801 10:-0.264532 13:1 16:1 #
0.10000000000000000555111512312578 1:-1.27995 2:-0.96193397 3:-1.08144 4:0.129711 5:0.76466602 6:-0.55164301 7:0.40530401 8:0.186141 9:-0.066109203 10:-0.206383 13:1 16:1 #
0.10000000000000000555111512312578 1:-2.12287 2:-0.81002599 3:1.1882499 4:-0.84417802 5:-0.12727299 6:-0.89155 7:0.816212 8:-1.83713 9:-1.84296 10:-0.47598201 14:1 19:1 #
0.10000000000000000555111512312578 1:-1.17637 2:1.60263 3:0.92122799 4:-0.82065398 5:-0.47032601 6:-0.25983599 7:-1.68659 8:-0.82549298 9:0.87457502 10:0.497444 13:1 38:1 #
-0.10000000000000000555111512312578 1:-1.81927 2:0.065677799 3:-1.08144 4:0.14382499 5:-0.62470001 6:-0.9249 7:0.51736999 8:0.944866 9:0.169062 10:-0.57793099 13:1 16:1 #
-0.10000000000000000555111512312578 1:-0.62633002 2:-0.69386101 3:0.253672 4:-0.86770201 5:-1.05352 6:-0.29062 7:1.00299 8:-0.77491099 9:-1.2681 10:-0.29247299 13:1 27:1 #
-0.10000000000000000555111512312578 1:-2.91221 2:1.20945 3:-0.28037399 4:0.81660801 5:0.83327597 6:-1.19683 7:-1.01419 8:0.74253899 9:1.31879 10:-0.84224302 14:1 24:1 #
0.10000000000000000555111512312578 1:-1.5764 2:-1.2568099 3:-0.413885 4:-1.26761 5:-0.79622602 6:-0.90501797 7:-0.080313802 8:-0.31967601 9:0.0122812 10:-0.269063 13:1 47:1 #
0.10000000000000000555111512312578 1:-1.34781 2:-0.60450399 3:-0.94793099 4:-1.12646 5:-0.72761601 6:-0.26111901 7:0.70414603 8:0.23672201 9:-0.35354099 10:0.065481499 13:1 25:1 #
0.10000000000000000555111512312578 1:-1.80141 2:-0.765347 3:0.253672 4:-0.44427201 5:0.25008601 6:-1.06407 7:0.853567 8:-0.77491099 9:-1.11131 10:-0.66402102 13:1 18:1 #
-0.10000000000000000555111512312578 1:-1.02636 2:-0.54195303 3:-0.81441897 4:-1.26761 5:-0.79622602 6:-0.54074103 7:0.77885699 8:0.28730401 9:-0.37967101 10:-0.38460499 13:1 25:1 #
-0.10000000000000000555111512312578 1:-1.54782 2:-0.64918202 3:-0.146862 4:0.035615101 5:0.81612301 6:-0.88064802 7:0.96563298 8:-0.31967601 9:-0.902273 10:-0.485044 13:1 18:1 #
-0.10000000000000000555111512312578 1:-0.73348099 2:-0.60450399 3:-0.81441897 4:-0.75949198 5:-0.71046299 6:-0.85050499 7:0.77885699 8:0.186141 9:-0.43193099 10:0.25276601 13:1 25:1 #
0.10000000000000000555111512312578 1:-0.95849699 2:-0.51514602 3:0.253672 4:-1.12646 5:-0.67615801 6:-0.64976799 7:1.18976 8:-0.370258 9:-1.21583 10:-0.489575 13:1 27:1 #
0.064410551665429680023855496528995 1:-1.9192801 2:1.50433 3:0.38718301 4:0.14853001 5:0.54168099 6:-0.96209699 7:-1.35039 8:-0.16793101 9:1.05749 10:-0.33476299 14:1 24:1 #
0.10000000000000000555111512312578 1:-1.35853 2:-0.0058082398 3:-0.68090802 4:0.70839798 5:0.078559197 6:-1.05958 7:0.70414603 8:0.89428401 9:-0.013849 10:-0.51827198 13:1 16:1 #
-0.10000000000000000555111512312578 1:-1.31567 2:0.199714 3:-0.68090802 4:0.51550198 5:0.62744403 6:-0.98646802 7:0.44266 8:1.14719 9:0.29971299 10:-0.44426399 13:1 16:1 #
-0.10000000000000000555111512312578 1:-0.74062401 2:-0.37217399 3:0.78771698 4:-0.98532099 5:-0.86483699 6:-0.86204898 7:1.4139 8:-0.370258 9:-1.50327 10:-1.10807 13:1 27:1 #
-0.10000000000000000555111512312578 1:-1.75498 2:-0.51514602 3:0.78771698 4:-0.86770201 5:-0.40171501 6:-1.21799 7:1.33919 8:-0.82549298 9:-1.68618 10:-0.83469099 13:1 18:1 #
0.10000000000000000555111512312578 1:-1.3621 2:-0.58663201 3:-1.08144 4:-0.95238799 5:-0.79622602 6:-0.92874801 7:0.62943602 8:0.38846701 9:-0.17062999 10:-0.40575001 13:1 25:1 #
0.10000000000000000555111512312578 1:-1.34781 2:-0.702797 3:-0.68090802 4:-0.82065398 5:-0.72761601 6:-0.91079003 7:0.74150199 8:0.034395501 9:-0.45806101 10:-0.383095 13:1 25:1 #
0.10000000000000000555111512312578 1:-1.45139 2:-0.559825 3:-0.54739702 4:-1.12646 5:-0.81337899 6:-1.03072 7:0.89092302 8:0.084977202 9:-0.58871198 10:-0.63154799 13:1 25:1 #
-0.10000000000000000555111512312578 1:-1.32638 2:-0.37217399 3:-1.21495 4:-0.75949198 5:-0.45317301 6:-0.89347398 7:0.59208101 8:0.59079403 9:-0.0399791 10:-0.61191398 13:1 25:1 #
-0.10000000000000000555111512312578 1:-0.95135403 2:-0.65811801 3:-0.94793099 4:-0.50543398 5:-0.62470001 6:-1.35716 7:0.66679102 8:0.23672201 9:-0.27515 10:-0.67685902 13:1 25:1 #
-0.10000000000000000555111512312578 1:-1.27995 2:-0.44365999 3:-0.94793099 4:-0.36429101 5:-0.24734101 6:-0.55484998 7:0.74150199 8:0.43904901 9:-0.27515 10:-0.420854 13:1 25:1 #
0.10000000000000000555111512312578 1:-2.0264299 2:-0.559825 3:0.78771698 4:-0.84417802 5:-0.161578 6:-1.17117 7:1.3018301 8:-0.92665702 9:-1.68618 10:-0.78409398 13:1 18:1 #
0.10000000000000000555111512312578 1:-2.01929 2:-0.62237501 3:1.1882499 4:-1.12646 5:-0.69331002 6:-1.09934 7:1.26448 8:-1.48306 9:-2.052 10:-0.65420401 13:1 18:1 #
0.10000000000000000555111512312578 1:-1.955 2:-0.31856 3:1.1882499 4:-0.44427201 5:0.21578 6:-1.46426 7:1.48861 8:-0.522003 9:-1.76457 10:-1.26212 13:1 18:1 #
-0.10000000000000000555111512312578 1:-1.99429 2:-0.56876099 3:1.3217601 4:-0.98532099 5:-0.59039497 6:-1.06792 7:1.3765399 8:-1.48306 9:-2.1826501 10:-0.65420401 13:1 18:1 #
-0.10000000000000000555111512312578 1:-1.7121201 2:-0.54195303 3:1.05474 4:-0.75949198 5:-0.19588301 6:-1.2160701 7:1.3765399 8:-1.1795599 9:-1.94748 10:-0.82638401 13:1 18:1 #
-0.10000000000000000555111512312578 1:-1.74784 2:-0.390046 3:1.4552701 4:-0.95238799 5:-0.50463098 6:-0.95311803 7:1.52596 8:-0.977238 9:-2.07813 10:-0.92908901 13:1 18:1 #
0.10000000000000000555111512312578 1:-0.76205403 2:-0.56876099 3:-0.413885 4:0.14853001 5:-0.72761601 6:-1.00378 7:0.96563298 8:-0.066767797 9:-0.74549299 10:-1.17528 13:1 25:1 #
0.10000000000000000555111512312578 1:-1.40139 2:-0.300688 3:0.52069402 4:0.52961701 5:1.1248699 6:-1.04419 7:1.33919 8:-0.066767797 9:-1.24196 10:-0.69347298 13:1 18:1 #
0.10000000000000000555111512312578 1:-1.3871 2:-0.32749501 3:-0.413885 4:0.63312203 5:1.24494 6:-1.08523 7:1.00299 8:0.38846701 9:-0.56258202 10:-0.67836899 13:1 18:1 #
-0.10000000000000000555111512312578 1:-1.41924 2:-0.28281701 3:1.05474 4:0.14853001 5:1.36501 6:-1.31098 7:1.45125 8:-0.269095 9:-1.5294 10:-1.2689199 13:1 18:1 #
-0.10000000000000000555111512312578 1:-1.5764 2:-0.29175201 3:0.78771698 4:-0.36429101 5:0.40446001 6:-1.11089 7:1.3765399 8:-0.11735 9:-1.37262 10:-0.83393598 13:1 18:1 #
-0.10000000000000000555111512312578 1:-0.67276198 2:-0.702797 3:-0.68090802 4:0.70839798 5:-0.69331002 6:-1.06279 7:0.74150199 8:0.034395501 9:-0.45806101 10:-1.08541 13:1 25:1 #
0.10000000000000000555111512312578 1:-2.0657201 2:-0.52408201 3:1.5887901 4:-1.0700099 5:-0.64185202 6:-1.10576 7:1.45125 8:-1.48306 9:-2.3132999 10:-0.72217 13:1 18:1 #
0.10000000000000000555111512312578 1:-2.12644 2:-0.57769603 3:1.85581 4:-1.0700099 5:-0.55608898 6:-1.20324 7:1.3765399 8:-1.93829 9:-2.5223401 10:-0.82940501 13:1 18:1 #
0.10000000000000000555111512312578 1:-2.0692899 2:-0.58663201 3:1.85581 4:-0.98532099 5:-0.50463098 6:-1.14231 7:1.3765399 8:-2.0394499 9:-2.6007299 10:-0.76068401 13:1 18:1 #
-0.10000000000000000555111512312578 1:-2.05143 2:-0.595568 3:1.85581 4:-0.98532099 5:-0.55608898 6:-1.03777 7:1.33919 8:-1.98887 9:-2.5223401 10:-0.660245 13:1 18:1 #
-0.10000000000000000555111512312578 1:-2.59076 2:-0.595568 3:1.85581 4:-1.12646 5:-0.59039497 6:-0.73763001 7:1.33919 8:-2.0394499 9:-2.5746 10:-1.12695 14:1 18:1 #
-0.10000000000000000555111512312578 1:-1.25495 2:-0.58663201 3:2.3898499 4:-0.86770201 5:-0.144425 6:-0.60294998 7:1.3765399 8:-2.64643 9:-3.07107 10:-1.28025 13:1 18:1 #
0.10000000000000000555111512312578 1:-1.67641 2:-0.15771601 3:1.05474 4:-1.26761 5:-0.79622602 6:-1.09934 7:1.3018301 8:0.186141 9:-1.1897 10:-0.86414301 13:1 18:1 #
0.10000000000000000555111512312578 1:-3.5086801 2:-0.92619097 3:0.38718301 4:-1.12646 5:-0.64185202 6:-1.32445 7:0.51736999 8:-1.12898 9:-1.05905 10:-1.13752 14:1 15:1 #
0.10000000000000000555111512312578 1:-0.954925 2:-0.72960401 3:0.92122799 4:-1.12646 5:-0.55608898 6:-0.63630003 7:1.0403399 8:-1.48306 9:-1.76457 10:-0.49259499 13:1 27:1 #
-0.10000000000000000555111512312578 1:-0.57989901 2:-0.89044797 3:1.05474 4:-1.12646 5:-0.50463098 6:0.0082411403 7:0.59208101 8:-1.78655 9:-1.58166 10:-0.0568574 13:1 27:1 #
-0.10000000000000000555111512312578 1:-1.66212 2:-0.461532 3:-0.0133511 4:-1.26761 5:-0.79622602 6:-0.813308 7:1.15241 8:-0.11735 9:-0.98066401 10:-1.04237 13:1 18:1 #
-0.10000000000000000555111512312578 1:-1.6656899 2:-0.390046 3:-0.413885 4:-0.98532099 5:-1.07067 6:-0.74404401 7:1.00299 8:0.23672201 9:-0.64097202 10:-0.32796699 13:1 18:1 #
0.10000000000000000555111512312578 1:-2.5764699 2:-0.470467 3:1.85581 4:-1.0700099 5:-0.52178401 6:-1.0025001 7:1.52596 8:-1.5842201 9:-2.4700799 10:-0.69875902 14:1 18:1 #
0.10000000000000000555111512312578 1:-2.3264501 2:-0.44365999 3:1.5887901 4:-0.95238799 5:-0.36741 6:-0.78188199 7:1.52596 8:-1.33131 9:-2.3132999 10:-0.64891702 14:1 18:1 #
0.10000000000000000555111512312578 1:-2.5729001 2:-0.38111001 3:2.25634 4:-0.95238799 5:-0.17873099 6:-1.04483 7:1.56332 8:-1.53364 9:-2.6268599 10:-0.74784601 14:1 18:1 #
-0.10000000000000000555111512312578 1:-1.01564 2:-0.470467 3:1.1882499 4:-0.84417802 5:-0.24734101 6:-0.73314101 7:1.45125 8:-1.02782 9:-1.99974 10:-0.704045 13:1 27:1 #
-0.10000000000000000555111512312578 1:-1.48353 2:-1.3908499 3:0.12016 4:-0.68421501 5:-0.52178401 6:-0.23289999 7:-0.56593198 8:-0.62316602 9:0.19519199 10:0.039805502 13:1 24:1 #
-0.10000000000000000555111512312578 1:-1.77641 2:1.44178 3:0.38718301 4:-0.067889899 5:0.37015399 6:-1.2539001 7:-1.4251 8:-0.016186099 9:1.18814 10:-0.460123 13:1 24:1 #
0.10000000000000000555111512312578 1:-1.52282 2:-0.38111001 3:0.12016 4:-0.95238799 5:-0.74476802 6:-0.73185802 7:1.22712 8:-0.016186099 9:-1.00679 10:-0.50618899 13:1 18:1 #
0.10000000000000000555111512312578 1:-1.75498 2:-0.470467 3:-0.68090802 4:-1.26761 5:-0.79622602 6:-0.53561002 7:0.89092302 8:0.23672201 9:-0.536452 10:-0.92153698 13:1 18:1 #
0.10000000000000000555111512312578 1:-1.8728499 2:-0.32749501 3:0.253672 4:-1.12646 5:-0.93344802 6:-1.14808 7:1.22712 8:0.084977202 9:-1.00679 10:-1.02877 13:1 18:1 #
-0.10000000000000000555111512312578 1:-1.4585299 2:-0.14878 3:0.78771698 4:-0.703035 5:-0.29879901 6:-0.781241 7:1.26448 8:0.28730401 9:-1.05905 10:-0.161072 13:1 18:1 #
-0.10000000000000000555111512312578 1:-0.81563002 2:-0.059422798 3:0.92122799 4:-0.98532099 5:-0.55608898 6:-0.611929 7:1.11505 8:0.54021198 9:-0.85001302 10:-0.42160901 13:1 18:1 #
-0.10000000000000000555111512312578 1:-1.35495 2:0.029934799 3:0.65420598 4:-0.98532099 5:-1.12213 6:-0.62988597 7:0.89092302 8:0.84370297 9:-0.43193099 10:-0.76143903 13:1 18:1 #
0.10000000000000000555111512312578 1:-1.0120699 2:-1.3014899 3:0.253672 4:-1.12646 5:-0.74476802 6:-0.173898 7:-0.416511 8:-0.87607503 9:-0.066109203 10:0.45364299 13:1 24:1 #
0.10000000000000000555111512312578 1:-1.08708 2:-1.3283 3:-0.0133511 4:-0.56189102 5:-0.17873099 6:-0.22969399 7:-0.37915599 8:-0.57258499 9:0.064541399 10:0.231621 13:1 24:1 #
0.10000000000000000555111512312578 1:-1.41924 2:1.50433 3:0.12016 4:0.035615101 5:0.78181797 6:-1.04996 7:-1.16362 8:-0.016186099 9:1.0052299 10:-1.01744 13:1 24:1 #
-0.10000000000000000555111512312578 1:-2.0371499 2:1.64731 3:-0.28037399 4:1.0095 5:1.72521 6:-0.51380497 7:-0.71535301 8:-0.11735 9:0.639404 10:-0.96684802 14:1 20:1 #
-0.10000000000000000555111512312578 1:-2.7943399 2:-1.1763901 3:0.253672 4:-1.26761 5:-0.79622602 6:-0.470835 7:-0.117669 8:-1.02782 9:-0.405801 10:-1.3822 14:1 17:1 #
-0.10000000000000000555111512312578 1:-1.20494 2:0.119292 3:-0.146862 4:0.83072197 5:0.62744403 6:-0.470835 7:0.66679102 8:1.09661 9:0.038411301 10:0.034519199 13:1 18:1 #
0.10000000000000000555111512312578 1:-1.79427 2:0.029934799 3:0.65420598 4:-1.26761 5:-0.79622602 6:-0.63437599 7:0.92827803 8:0.79312098 9:-0.484191 10:-1.01744 13:1 18:1 #
0.10000000000000000555111512312578 1:-1.25852 2:-0.041551199 3:0.92122799 4:-1.12646 5:-0.72761601 6:-0.32845899 7:1.0777 8:0.59079403 9:-0.77162302 10:0.63488603 13:1 18:1 #
0.10000000000000000555111512312578 1:-1.23709 2:-0.014744 3:1.1882499 4:-1.12646 5:-0.69331002 6:-0.31114301 7:1.0403399 8:0.59079403 9:-0.823883 10:0.61676198 13:1 18:1 #
-0.10000000000000000555111512312578 1:-1.06208 2:0.020998999 3:0.52069402 4:-0.98532099 5:-0.60754699 6:-0.19377901 7:0.92827803 8:0.84370297 9:-0.43193099 10:0.35622501 13:1 18:1 #
-0.10000000000000000555111512312578 1:-1.15851 2:-0.264945 3:-0.146862 4:-1.0700099 5:-0.69331002 6:-0.0103575 7:1.0777 8:0.38846701 9:-0.66710198 10:0.36528701 13:1 18:1 #
-0.10000000000000000555111512312578 1:-1.87999 2:0.1461 3:1.7223001 4:-1.26761 5:-0.79622602 6:-1.08139 7:0.48001501 8:0.84370297 9:-0.37967101 10:-0.69422799 13:1 18:1 #
0.10000000000000000555111512312578 1:-1.92285 2:1.69198 3:-0.146862 4:0.96245599 5:1.79383 6:-0.85371202 7:-0.640643 8:-0.16793101 9:0.53488398 10:-0.65269297 14:1 20:1 #
0.10000000000000000555111512312578 1:-1.8157001 2:1.52221 3:-0.0133511 4:0.99068499 5:1.69091 6:-0.849222 7:-0.97684002 8:0.034395501 9:0.92683601 10:-0.63758999 14:1 20:1 #
0.10000000000000000555111512312578 1:-1.84427 2:1.63837 3:-0.0133511 4:0.69428402 5:2.17118 6:-0.92233402 7:-0.82741898 8:-0.218513 9:0.66553402 10:-0.775787 14:1 20:1 #
-0.10000000000000000555111512312578 1:-1.4263901 2:1.03967 3:-0.413885 4:0.43081599 5:1.48508 6:-0.78829598 7:-0.82741898 8:0.99544799 9:1.31879 10:-1.01895 14:1 20:1 #
-0.10000000000000000555111512312578 1:-1.44425 2:1.63837 3:-0.28037399 4:-0.68421501 5:-0.436021 6:-0.83703703 7:-0.67799801 8:-0.066767797 9:0.639404 10:0.158369 13:1 25:1 #
-0.10000000000000000555111512312578 1:-0.34416699 2:1.6741101 3:0.65420598 4:-0.105528 5:-0.487479 6:-0.39515799 7:-1.2009701 8:-0.77491099 9:0.61327398 10:0.345653 13:1 47:1 #
0.10000000000000000555111512312578 1:-1.15851 2:-0.34536701 3:-0.413885 4:-1.12646 5:-0.74476802 6:-0.0033028701 7:1.00299 8:0.33788601 9:-0.58871198 10:0.38416699 13:1 18:1 #
0.10000000000000000555111512312578 1:-0.86563301 2:-0.21133099 3:-0.146862 4:0.14382499 5:-0.69331002 6:-0.23289999 7:1.0777 8:0.489631 9:-0.58871198 10:0.51405799 13:1 18:1 #
0.10000000000000000555111512312578 1:-1.3371 2:0.190778 3:0.12016 4:-1.12646 5:-0.79622602 6:-0.450313 7:0.51736999 8:1.19777 9:0.169062 10:0.62582397 13:1 18:1 #
-0.10000000000000000555111512312578 1:-0.85134703 2:0.306943 3:0.65420598 4:-0.95238799 5:-0.487479 6:-1.03777 7:0.181173 8:1.4001 9:0.45649299 10:0.0851162 13:1 18:1 #
-0.10000000000000000555111512312578 1:-1.6014 2:-0.300688 3:-0.68090802 4:-0.067889899 5:0.164322 6:-1.3295799 7:0.89092302 8:0.489631 9:-0.37967101 10:-1.14054 13:1 18:1 #
-0.10000000000000000555111512312578 1:-0.165583 2:-1.35511 3:-0.0133511 4:0.89188403 5:1.17633 6:0.591214 7:-0.416511 8:-0.57258499 9:0.142932 10:-0.95854098 13:1 24:1 #
0.10000000000000000555111512312578 1:-1.43353 2:1.10223 3:-0.54739702 4:0.449635 5:1.45077 6:-0.79342598 7:-0.67799801 8:0.944866 9:1.16201 10:-1.04161 14:1 20:1 #
0.10000000000000000555111512312578 1:-1.45139 2:1.03967 3:-0.146862 4:0.308492 5:1.36501 6:-0.77482802 7:-0.97684002 8:1.04603 9:1.42331 10:-1.0401 14:1 20:1 #
0.10000000000000000555111512312578 1:-1.48353 2:1.18265 3:-0.146862 4:0.204987 5:1.2106301 6:-0.760077 7:-1.08891 8:0.79312098 9:1.37105 10:-1.0597301 14:1 20:1 #
-0.10000000000000000555111512312578 1:-1.27281 2:1.10223 3:-1.08144 4:0.14382499 5:1.19348 6:-1.0025001 7:-0.304445 8:0.89428401 9:0.87457502 10:-0.713108 14:1 25:1 #
-0.10000000000000000555111512312578 1:-3.1586499 2:1.79921 3:1.3217601 4:-0.36429101 5:0.35300201 6:-1.3148299 7:-1.38775 8:-1.73596 9:0.064541399 10:-1.32329 14:1 19:1 #
-0.10000000000000000555111512312578 1:-1.37638 2:-1.00661 3:-0.68090802 4:0.308492 5:-0.72761601 6:0.207055 7:0.36794901 8:-0.16793101 9:-0.27515 10:0.57522702 13:1 25:1 #
0.10000000000000000555111512312578 1:-1.16565 2:-0.184523 3:-0.0133511 4:0.035615101 5:-0.19588301 6:-1.19169 7:1.0777 8:0.489631 9:-0.66710198 10:-1.28025 13:1 18:1 #
0.10000000000000000555111512312578 1:-1.63355 2:-0.461532 3:-0.68090802 4:-0.37369999 5:-0.24734101 6:-0.83062398 7:0.89092302 8:0.28730401 9:-0.484191 10:-0.77050102 13:1 18:1 #
0.10000000000000000555111512312578 1:-1.51925 2:0.35162199 3:0.78771698 4:-0.86770201 5:-0.69331002 6:-0.77098 7:-0.0056032902 8:1.45068 9:0.61327398 10:-0.50165802 13:1 18:1 #
-0.10000000000000000555111512312578 1:-1.25852 2:-0.47940299 3:-0.146862 4:-0.13846201 5:-0.67615801 6:-1.19683 7:1.11505 8:-0.066767797 9:-0.92840302 10:-0.61191398 13:1 18:1 #
0.10000000000000000555111512312578 1:-2.99793 2:1.78134 3:1.4552701 4:0.308492 5:0.164322 6:-1.25647 7:-1.6118799 8:-1.88771 9:0.116802 10:-0.76748002 14:1 19:1 #
-0.10000000000000000555111512312578 1:-1.64783 2:0.38736501 3:-0.0133511 4:-0.63716799 5:-0.64185202 6:-0.840244 7:0.106462 8:1.4001 9:0.66553402 10:-0.775787 13:1 18:1 #
-0.10000000000000000555111512312578 1:-1.42996 2:0.24439301 3:0.253672 4:-1.26761 5:-0.79622602 6:-0.66323602 7:0.40530401 8:1.2989399 9:0.29971299 10:-1.17528 13:1 18:1 #
0.10000000000000000555111512312578 1:-1.28352 2:-1.16746 3:-0.28037399 4:0.51550198 5:-0.35025701 6:-0.521501 7:0.069107197 8:-0.42084 9:-0.19676 10:-0.140682 13:1 25:1 #
0.10000000000000000555111512312578 1:-3.7872701 2:1.78134 3:1.05474 4:-0.547777 5:-0.058662102 6:-1.4277101 7:-1.2756799 8:-1.43247 9:0.221322 10:-0.87698102 14:1 19:1 #
-0.10000000000000000555111512312578 1:-1.84785 2:0.396301 3:1.5887901 4:-0.95238799 5:-0.230189 6:-0.65297401 7:-0.453866 8:1.45068 9:0.79618502 10:-0.860367 13:1 18:1 #
-0.10000000000000000555111512312578 1:-1.3799599 2:0.583951 3:-0.0133511 4:-0.75949198 5:-0.264494 6:-0.66836601 7:-0.37915599 8:1.50126 9:1.08362 10:-0.60436201 13:1 18:1 #
-0.10000000000000000555111512312578 1:-1.6085401 2:0.0478063 3:-0.54739702 4:-1.0700099 5:-0.72761601 6:-0.92297602 7:0.66679102 8:0.99544799 9:0.0122812 10:-0.340049 13:1 18:1 #
0.10000000000000000555111512312578 1:-1.29066 2:-1.14065 3:-0.28037399 4:0.56725502 5:-0.35025701 6:-0.54074103 7:0.106462 8:-0.522003 9:-0.24902 10:-0.161827 13:1 25:1 #
0.10000000000000000555111512312578 1:-1.66212 2:0.092485003 3:1.5887901 4:-1.26761 5:-0.79622602 6:-0.115536 7:0.70414603 8:0.74253899 9:-0.56258202 10:-0.86565399 13:1 18:1 #
0.10000000000000000555111512312578 1:-0.94778198 2:1.79028 3:-0.68090802 4:-0.84417802 5:-0.72761601 6:-0.20147499 7:-0.26708999 8:0.034395501 9:0.351973 10:0.467237 13:1 25:1 #
-0.10000000000000000555111512312578 1:-0.79062802 2:-1.10491 3:0.12016 4:1.2024 5:0.33584899 6:-1.13975 7:0.14381801 8:-0.82549298 9:-0.484191 10:-0.55225497 13:1 25:1 #
-0.10000000000000000555111512312578 1:-0.83705997 2:1.75453 3:-1.48198 4:-0.27019501 5:-0.77907401 6:-0.75686997 7:0.069107197 8:0.489631 9:0.40423301 10:0.025457099 13:1 25:1 #
-0.10000000000000000555111512312578 1:-0.70133603 2:-1.3461699 3:-0.413885 4:1.02832 5:-1.20789 6:-1.0570101 7:-0.26708999 8:-0.269095 9:0.169062 10:-0.87320602 13:1 25:1 #
0.10000000000000000555111512312578 1:-1.6549799 2:0.226521 3:-0.0133511 4:-1.26761 5:-0.79622602 6:-0.74789202 7:0.44266 8:1.24836 9:0.27358201 10:-0.49863699 13:1 18:1 #
0.10000000000000000555111512312578 1:-1.83713 2:0.25332901 3:-0.146862 4:-1.26761 5:-0.79622602 6:-0.74596798 7:0.40530401 8:1.2989399 9:0.351973 10:-0.98648202 13:1 18:1 #
0.10000000000000000555111512312578 1:-1.5406801 2:0.440979 3:-0.146862 4:-1.12646 5:-0.79622602 6:-0.764566 7:-0.0056032902 8:1.4001 9:0.770055 10:-0.461633 13:1 18:1 #
-0.10000000000000000555111512312578 1:-1.95857 2:0.378429 3:0.12016 4:-1.12646 5:-0.67615801 6:-0.749816 7:0.069107197 8:1.45068 9:0.66553402 10:-0.73425299 13:1 30:1 #
-0.10000000000000000555111512312578 1:-1.50854 2:0.20864999 3:1.4552701 4:-0.95238799 5:-0.35025701 6:-0.127722 7:0.330594 8:1.14719 9:0.0122812 10:-0.79542202 13:1 18:1 #
-0.10000000000000000555111512312578 1:-1.4371001 2:-0.86364001 3:-0.413885 4:-0.467796 5:0.095711797 6:-0.460574 7:0.59208101 8:-0.31967601 9:-0.58871198 10:-0.19883101 13:1 25:1 #
0.10000000000000000555111512312578 1:-1.88713 2:0.52140099 3:1.4552701 4:-1.26761 5:-0.79622602 6:-0.37784201 7:-0.90212899 8:1.55185 9:1.2404 10:-1.28176 13:1 18:1 #
0.10000000000000000555111512312578 1:-0.96564001 2:-0.077294298 3:0.12016 4:0.14853001 5:0.98764998 6:-0.30537099 7:1.00299 8:0.69195801 9:-0.484191 10:0.56314403 13:1 18:1 #
