SVM-light Version V6.02
2 # kernel type
3 # kernel parameter -d 
1 # kernel parameter -g 
1 # kernel parameter -s 
1 # kernel parameter -r 
empty# kernel parameter -u 
48 # highest feature index 
5000 # number of training documents 
1827 # number of support vectors plus 1 
0 # threshold b, each following line is a SV (starting with alpha*y)
0.13559936120333612730171068960772 1:-2.1192901 2:-1.23894 3:2.6568799 4:-1.12646 5:-0.47032601 6:-1.20324 7:-1.49981 8:-3.7086501 9:-1.21583 10:-1.01065 14:1 24:1 #
0.057818125268040011788261978153969 1:-1.68355 2:1.70092 3:0.92122799 4:-0.63716799 5:0.181475 6:-0.75045699 7:-1.46246 8:-1.12898 9:0.50875401 10:-1.20095 14:1 24:1 #
0.69084759009808849317124668232282 1:-2.4586 2:0.36949301 3:1.05474 4:-1.12646 5:-0.67615801 6:-0.47596601 7:-0.15502401 8:1.45068 9:0.69166398 10:-0.68894202 14:1 31:1 #
0.41376464851374455955479447766265 1:-2.0050001 2:-0.75641102 3:-0.146862 4:-0.56189102 5:0.21578 6:-1.31419 7:0.816212 8:-0.471421 9:-0.85001302 10:-1.2424901 13:1 17:1 #
0.44681327011454485820252102712402 1:-1.23709 2:0.83415198 3:0.65420598 4:-1.26761 5:-0.79622602 6:-0.60743898 7:-1.38775 8:1.34952 9:1.763 10:-0.64665198 13:1 34:1 #
0.77511763856956261697916943376185 1:-0.97278398 2:1.29881 3:4.39252 4:-0.50543398 5:1.31355 6:-0.39195099 7:-5.98244 8:-2.7476001 9:2.3117299 10:-0.46918499 13:1 27:1 #
0.70898375257173451569059352550539 1:-0.94063902 2:1.1469001 3:4.39252 4:-0.50543398 5:1.55369 6:-0.36437401 7:-5.9077301 8:-1.73596 9:2.75594 10:-0.43067101 13:1 27:1 #
0.99999865723111769355568867467809 1:-1.02279 2:-1.37298 3:5.0600801 4:-0.44427201 5:1.22779 6:-0.39131001 7:-4.33881 8:-6.7435498 9:-1.37262 10:-0.400464 13:1 27:1 #
0.64783043721381206037079891757458 1:-1.77284 2:-1.0870301 3:-1.21495 4:1.27768 5:2.51424 6:-0.918486 7:0.25588301 8:0.23672201 9:0.064541399 10:-0.69271803 14:1 20:1 #
0.85081994090771939642792176528019 1:-3.2265201 2:1.81709 3:3.05741 4:0.56725502 5:2.7200699 6:-1.27635 7:-2.6951799 8:-3.91098 9:-0.484191 10:-0.77050102 14:1 19:1 #
0.41501966594018674383548272999178 1:-1.7907 2:-0.95299798 3:-0.68090802 4:1.08008 5:2.4284699 6:-0.92105198 7:0.44266 8:-0.16793101 9:-0.35354099 10:-0.72065902 14:1 20:1 #
0.50179186249474705405759777931962 1:-0.54061002 2:1.38817 3:1.7223001 4:0.86835998 5:3.4747901 6:-0.74147803 7:-2.7698901 8:-0.67374802 9:1.68461 10:-0.81430203 13:1 47:1 #
0.50065844036219819823685384108103 1:-0.544182 2:1.2452 3:1.5887901 4:0.69898802 5:3.37187 6:-0.67285597 7:-2.7698901 8:-0.016186099 9:2.0243001 10:-0.74784601 13:1 47:1 #
0.63981729169310097571354845058522 1:-0.99778599 2:-0.69386101 3:-0.68090802 4:0.69428402 5:-1.41372 6:-1.06279 7:0.74150199 8:-0.016186099 9:-0.51032102 10:-1.41391 13:1 24:1 #
0.58491100602004153508062245236943 1:-1.01564 2:-0.62237501 3:-0.81441897 4:0.76955998 5:-1.46518 6:-1.06856 7:0.74150199 8:0.186141 9:-0.35354099 10:-1.43128 13:1 18:1 #
0.53089125601229958384408291749423 1:-0.894207 2:-0.81896198 3:-0.0133511 4:0.38376901 5:-1.03636 6:-1.02495 7:0.74150199 8:-0.67374802 9:-0.92840302 10:-1.3089401 13:1 24:1 #
0.032871213477356206467128174608661 1:-2.0157199 2:-1.23001 3:-0.413885 4:-0.36429101 5:0.850429 6:-0.76969701 7:-0.042958502 8:-0.31967601 9:-0.013849 10:-0.62097597 14:1 20:1 #
0.69046599535883079745701706997352 1:-0.444175 2:-0.53301799 3:1.4552701 4:0.651941 5:1.9825 6:-0.82420999 7:1.4139 8:-1.48306 9:-2.23491 10:-1.1412899 13:1 38:1 #
0.94687006924430983101359515785589 1:-3.09079 2:-1.2032 3:1.4552701 4:0.43081599 5:3.4061699 6:-1.29238 7:-0.67799801 8:-2.2923601 9:-0.85001302 10:-0.81430203 14:1 19:1 #
0.71742366492322828808170243064524 1:-3.20151 2:1.59369 3:3.1909201 4:0.70839798 5:-0.79622602 6:-1.25711 7:-3.81584 8:-3.10167 9:0.848445 10:-0.74784601 14:1 19:1 #
0.1195852461137896366460964259204 1:-1.4371001 2:1.45072 3:1.05474 4:-0.36429101 5:0.901887 6:-1.09549 7:-2.02279 8:-0.471421 9:1.34492 10:-1.13752 13:1 24:1 #
0.4004459073748122821534423110279 1:-0.22273 2:1.77241 3:-0.413885 4:0.426112 5:0.953345 6:-0.40670201 7:-0.37915599 8:-0.11735 9:0.37810299 10:-0.13313 13:1 48:1 #
0.77700084990286377717438881518319 1:-2.31217 2:0.67330903 3:3.59146 4:-0.86770201 5:-0.00720412 6:-0.53689301 7:-3.29287 8:0.69195801 9:2.07656 10:-0.91549599 14:1 15:1 #
0.56229735810171588283878918446135 1:-2.1514399 2:1.04861 3:2.6568799 4:-1.12646 5:-0.36741 6:-1.3687 7:-3.81584 8:0.084977202 9:2.59916 10:-1.3127199 13:1 28:1 #
0.029595813504355684281366123400403 1:-2.2693 2:-0.65811801 3:0.65420598 4:-1.12646 5:-0.57324201 6:-0.75879401 7:1.11505 8:-1.02782 9:-1.55553 10:-0.472206 14:1 24:1 #
0.47650427402266398724250962004589 1:-3.23366 2:1.77241 3:1.7223001 4:0.43552101 5:-2.9574599 6:-1.05124 7:-1.79866 8:-2.1912 9:0.090671502 10:-0.928334 14:1 24:1 #
0.99999864028872154086968748742947 1:-1.20137 2:1.73666 3:4.39252 4:-0.50543398 5:0.45591801 6:-0.40221301 7:-4.4135199 8:-5.4284301 9:-0.35354099 10:-0.39064601 13:1 27:1 #
0.7234982457509034903253564152692 1:-1.81213 2:0.48565799 3:1.3217601 4:0.14382499 5:2.3255601 6:-0.75109798 7:-0.67799801 8:1.55185 9:1.10975 10:-1.07257 14:1 16:1 #
0.73771935758852935638429926257231 1:-1.26209 2:-1.31043 3:1.05474 4:-0.98532099 5:-0.79622602 6:-0.33487299 7:-0.86477399 8:-1.73596 9:-0.30127999 10:0.63262099 13:1 31:1 #
0.41140548325744707991447057793266 1:-3.3336699 2:1.272 3:2.1228299 4:0.14382499 5:2.23979 6:-1.33407 7:-3.29287 8:-0.471421 9:2.10269 10:-0.84677398 14:1 19:1 #
0.20555710342172095472790260828333 1:-3.2300899 2:1.38817 3:2.1228299 4:0.651941 5:2.63431 6:-1.2641701 7:-3.2555101 8:-1.02782 9:1.763 10:-0.73576301 14:1 19:1 #
0.1590976296324222993838759521168 1:-1.29781 2:0.092485003 3:-1.61549 4:-1.26761 5:-0.79622602 6:-0.29190299 7:0.330594 8:0.79312098 9:0.32584301 10:0.61072099 13:1 31:1 #
0.73588108349716152556396764339297 1:-3.41224 2:1.13797 3:-1.08144 4:0.0026817201 5:0.61029202 6:-1.27635 7:-0.37915599 8:0.84370297 9:0.90070599 10:-0.83695698 14:1 15:1 #
0.63043976896185049962895163844223 1:-1.35853 2:-0.059422798 3:-1.749 4:-1.26761 5:-0.79622602 6:-0.428507 7:0.330594 8:0.74253899 9:0.29971299 10:0.67642099 13:1 18:1 #
0.59837990183637701502306072143256 1:-3.44082 2:-1.1317101 3:3.1909201 4:0.25203499 5:1.79383 6:-1.32445 7:-1.2756799 8:-4.6697001 9:-2.1303899 10:-0.809771 14:1 19:1 #
0.39674991288266653333138833659177 1:-2.6193299 2:-0.30962399 3:1.4552701 4:-0.95238799 5:-0.24734101 6:-0.53368598 7:1.52596 8:-0.62316602 9:-1.86909 10:-1.1412899 14:1 16:1 #
0.33405700347120748094909004066722 1:-2.85149 2:-0.36323801 3:1.4552701 4:0.14382499 5:1.17633 6:-1.27635 7:1.52596 8:-0.87607503 9:-2.052 10:-1.25155 14:1 16:1 #
0.70582886656855425844270257584867 1:-1.98 2:1.81709 3:2.6568799 4:-0.75949198 5:-0.35025701 6:-0.999295 7:-2.28427 8:-3.2534101 9:-0.30127999 10:-0.69498301 13:1 24:1 #
0.023411355456415636200340202321968 1:-2.3193099 2:-1.12278 3:0.65420598 4:-0.703035 5:0.0099485395 6:-0.81458998 7:-0.042958502 8:-1.3818901 9:-0.71936202 10:-0.86565399 14:1 19:1 #
0.70112868569035702304148571784026 1:-3.35867 2:0.92351002 3:1.05474 4:0.43552101 5:-1.44803 6:-1.14103 7:-1.83601 8:1.14719 9:1.99817 10:-0.84677398 14:1 15:1 #
0.79222005291593455833520920350566 1:-1.1978 2:-0.62237501 3:1.85581 4:-0.27019501 5:-0.76192099 6:-0.31691501 7:1.3018301 8:-2.14062 9:-2.5746 10:0.0111087 13:1 25:1 #
0.69954553867245183873535552265821 1:-3.06936 2:-0.98874098 3:-1.749 4:-1.12646 5:-0.93344802 6:-0.840244 7:0.25588301 8:0.64137602 9:0.29971299 10:-1.0008301 14:1 28:1 #
0.85708131012227151135363101275288 1:-2.41574 2:0.20864999 3:3.32443 4:-1.12646 5:-0.36741 6:-0.43876901 7:-0.26708999 8:0.33788601 9:-0.51032102 10:-0.82260901 14:1 15:1 #
0.77774241086277451362462898032391 1:-3.18366 2:-1.3283 3:1.85581 4:0.25203499 5:-2.71732 6:-1.0583 7:-1.38775 8:-2.4946899 9:-0.43193099 10:-0.95174402 14:1 24:1 #
0.63351206686475369789235401185579 1:-0.769198 2:1.57582 3:0.92122799 4:0.186168 5:-1.36226 6:-0.75815302 7:-1.72394 8:-0.77491099 9:0.95296597 10:0.082095496 13:1 27:1 #
0.41691773690964556431381993206742 1:-0.829916 2:1.54901 3:1.5887901 4:-0.00672783 5:-1.22504 6:-0.71838999 7:-2.32163 8:-1.1795599 9:1.08362 10:0.0194156 13:1 27:1 #
0.4122572450702828850133130345057 1:-2.04072 2:1.77241 3:-0.68090802 4:-0.98532099 5:-0.69331002 6:-1.3982 7:-0.229735 8:0.084977202 9:0.40423301 10:-1.25155 13:1 24:1 #
0.49153293817621107608673014510714 1:-1.72284 2:1.79028 3:-0.81441897 4:-1.12646 5:-0.88199002 6:-1.28789 7:-0.15502401 8:0.13555899 9:0.351973 10:-0.33778399 14:1 30:1 #
0.52969023551796634574628797054174 1:-2.00857 2:1.64731 3:-1.21495 4:-0.68421501 5:-0.64185202 6:-1.50723 7:-0.080313802 8:0.489631 9:0.50875401 10:-1.43128 13:1 16:1 #
0.86655689697180182662350489408709 1:-1.50854 2:-1.01555 3:2.9238999 4:0.063843802 5:1.48508 6:-0.84280902 7:-0.416511 8:-4.2650499 9:-2.4962101 10:-0.74104899 13:1 18:1 #
0.61628445066420645126470390096074 1:-1.61926 2:1.42391 3:2.9238999 4:-0.703035 5:-0.50463098 6:-0.29510999 7:-4.0773301 8:-1.98887 9:1.71074 10:-0.83393598 13:1 24:1 #
0.24591861682085652818230414595746 1:-2.6193299 2:-1.38191 3:1.1882499 4:0.25203499 5:0.67890197 6:-1.11089 7:-1.12626 8:-1.6348 9:-0.013849 10:-1.37313 14:1 24:1 #
0.11029163764996242902416412334787 1:-1.9407099 2:1.79921 3:-0.0133511 4:0.88717902 5:1.70806 6:-0.86782098 7:-0.56593198 8:-0.522003 9:0.27358201 10:-0.65420401 14:1 20:1 #
0.72609543529483933088641833819565 1:-3.0657899 2:-1.38191 3:2.25634 4:0.83072197 5:-0.161578 6:-1.23787 7:-1.9480799 8:-2.9499199 9:-0.327411 10:-0.72518998 14:1 19:1 #
0.71899203101693909268021798197879 1:-3.2800901 2:-0.82789701 3:2.52336 4:0.38376901 5:2.4970801 6:-1.29238 7:0.59208101 8:-3.50632 9:-2.86203 10:-0.83771199 14:1 15:1 #
0.52750746241805035463556805552798 1:-0.80134302 2:1.70986 3:1.4552701 4:0.63312203 5:1.0048 6:-0.245727 7:-1.7613 8:-1.6348 9:0.430363 10:0.238417 13:1 24:1 #
0.59567985744765639122277889327961 1:-1.3371 2:-0.25600901 3:0.78771698 4:-1.26761 5:-0.79622602 6:-0.25983599 7:1.3765399 8:-0.066767797 9:-1.3203599 10:0.030743301 13:1 31:1 #
0.52496161247801897964393447182374 1:-0.68704897 2:-0.98874098 3:-1.749 4:0.86835998 5:0.43876499 6:-0.25983599 7:0.25588301 8:0.64137602 9:0.32584301 10:0.122875 13:1 24:1 #
0.79506484580019387564675525936764 1:-1.57283 2:-1.05129 3:2.3898499 4:-0.053775601 5:-2.1684401 6:-0.88064802 7:-0.37915599 8:-3.50632 9:-1.97361 10:-0.68441099 13:1 24:1 #
0.21183134659671554178572705495753 1:-1.2299401 2:1.18265 3:1.1882499 4:-0.13846201 5:0.86758101 6:-0.791502 7:-2.32163 8:0.38846701 9:1.9720401 10:-0.21317901 13:1 47:1 #
0.030387866089067797764622369527387 1:-1.60497 2:1.60263 3:-0.81441897 4:-1.0700099 5:-0.72761601 6:-1.30906 7:-0.37915599 8:0.33788601 9:0.61327398 10:-0.24867301 14:1 20:1 #
0.03114208982549085402702360170224 1:-3.3443799 2:1.45072 3:1.5887901 4:-1.0700099 5:-0.53893697 6:-1.33407 7:-2.5457599 8:-0.82549298 9:1.44944 10:-1.23116 14:1 24:1 #
0.53264890160150757392187870209455 1:-3.6336901 2:-1.38191 3:3.59146 4:-0.68421501 5:0.696055 6:-1.43027 7:-3.0313799 8:-4.5685401 9:-0.71936202 10:-0.82260901 14:1 19:1 #
0.5486078054596897901618035575666 1:-2.7943399 2:-1.10491 3:3.85848 4:-0.82065398 5:0.28439099 6:-1.18721 7:-1.46246 8:-5.5801702 9:-2.6791201 10:-1.2424901 14:1 24:1 #
0.67185656471468613304409700504038 1:-3.2407999 2:0.932446 3:1.3217601 4:0.59077901 5:1.43362 6:-1.23146 7:-2.0601399 8:1.09661 9:2.10269 10:-0.77125603 14:1 15:1 #
0.55732703344461897998485255811829 1:-2.07286 2:-1.0781 3:1.3217601 4:-0.68421501 5:0.21578 6:-1.36742 7:-0.080313802 8:-2.14062 9:-1.21583 10:-1.30215 13:1 17:1 #
0.64667559178257216778717975103064 1:-3.8194201 2:1.47753 3:0.253672 4:-1.26761 5:-0.79622602 6:-1.4110301 7:-1.23833 8:-0.016186099 9:1.08362 10:-0.92380202 14:1 19:1 #
0.60765945107933660995769287183066 1:-3.7658401 2:1.79028 3:2.3898499 4:-0.75949198 5:0.164322 6:-1.44951 7:-2.28427 8:-3.00051 9:-0.1445 10:-1.01895 14:1 19:1 #
0.69300463919202071050307267796597 1:-1.35138 2:0.92351002 3:-0.146862 4:0.99068499 5:0.112864 6:-1.05317 7:-0.90212899 8:1.19777 9:1.42331 10:-0.58246201 13:1 16:1 #
0.91396061380603210722028961754404 1:-1.35495 2:0.77160197 3:2.79039 4:-1.26761 5:-0.79622602 6:0.29620001 7:-2.95667 8:0.99544799 9:2.2855999 10:-0.69120699 13:1 18:1 #
0.81074157271806202018638032313902 1:-2.2121601 2:0.119292 3:1.1882499 4:-1.26761 5:-0.79622602 6:-1.40911 7:0.66679102 8:0.944866 9:-0.30127999 10:-1.35803 13:1 24:1 #
0.58344005147352184792453044792637 1:-3.15151 2:-0.85470498 3:3.1909201 4:-0.98532099 5:-0.024356799 6:-1.27571 7:0.25588301 8:-4.46737 9:-3.7243299 10:-1.26816 14:1 15:1 #
0.37685911008226063989567933276703 1:-2.15501 2:1.70986 3:2.1228299 4:0.53902602 5:1.87959 6:-0.82420999 7:-2.32163 8:-2.3429401 9:0.351973 10:-0.77427697 14:1 24:1 #
0.82359423678196663765049834182719 1:-1.71927 2:0.56607997 3:-0.94793099 4:0.84954101 5:2.7715299 6:-0.806894 7:-0.0056032902 8:1.19777 9:0.74392498 10:-1.01895 14:1 24:1 #
0.63159594637928717641983666908345 1:-1.9192801 2:1.66518 3:-1.61549 4:1.19769 5:0.54168099 6:-0.97492403 7:0.14381801 8:0.64137602 9:0.40423301 10:-0.50845402 14:1 20:1 #
0.52901939260482822025011273581185 1:-1.21566 2:0.20864999 3:1.3217601 4:-1.12646 5:-0.59039497 6:-0.27651101 7:0.36794901 8:1.14719 9:0.0122812 10:0.58126903 13:1 18:1 #
0.67274636236336260441959211675567 1:-0.77276897 2:-1.27469 3:0.12016 4:0.37906399 5:1.4679199 6:-0.42017001 7:-0.304445 8:-0.77491099 9:-0.118369 10:0.394739 13:1 24:1 #
0.56312866556573604182034387122258 1:-2.6193299 2:1.28988 3:2.25634 4:0.073253401 5:-1.15643 6:-0.89155 7:-3.517 8:-0.72433001 9:2.10269 10:-0.81581199 14:1 24:1 #
0.71400730975837412017881433712319 1:-1.25852 2:1.79921 3:0.92122799 4:-1.0700099 5:-0.60754699 6:-0.31755701 7:-1.05155 8:-1.28073 9:0.142932 10:0.62809002 13:1 31:1 #
0.74465267697078685316114388115238 1:-1.95143 2:-0.36323801 3:2.3898499 4:-1.26761 5:-0.79622602 6:-1.17502 7:1.56332 8:-1.68538 9:-2.7836399 10:-1.07786 13:1 18:1 #
0.23448333077195171458839695333154 1:-2.7336199 2:-1.35511 3:2.25634 4:-0.067889899 5:1.72521 6:-1.1282001 7:-1.7613 8:-2.8993399 9:-0.43193099 10:-0.863388 14:1 24:1 #
0.049380656059143088199014925976371 1:-1.55497 2:1.72773 3:-0.0133511 4:-0.68421501 5:-0.69331002 6:-1.27507 7:-0.71535301 8:-0.370258 9:0.45649299 10:-0.414812 13:1 24:1 #
0.62787835351944631945286801055772 1:-2.7443399 2:1.82602 3:1.5887901 4:-1.12646 5:-0.60754699 6:-0.46121499 7:-1.49981 8:-2.09004 9:-0.066109203 10:-1.36709 14:1 28:1 #
0.25912649334782267285248735788628 1:-2.5121801 2:0.85202402 3:1.7223001 4:-0.98532099 5:-0.40171501 6:-0.62219 7:-2.3589799 8:1.14719 9:2.2072101 10:-1.06578 14:1 16:1 #
0.74372980176738623381282877744525 1:-3.8015599 2:1.79921 3:1.05474 4:-0.703035 5:-0.041509401 6:-1.44951 7:-1.16362 8:-1.43247 9:0.142932 10:-0.969868 14:1 16:1 #
0.39481142375056138549282991334621 1:-1.80141 2:-0.75641102 3:0.92122799 4:1.13653 5:1.15918 6:-1.02495 7:0.96563298 8:-1.43247 9:-1.66005 10:-0.43595701 14:1 24:1 #
0.62224156195837143634719268447952 1:-1.79427 2:-1.35511 3:-0.81441897 4:0.43552101 5:-0.69331002 6:-0.85435301 7:-0.080313802 8:0.084977202 9:0.27358201 10:-0.778808 14:1 20:1 #
0.60119033041048142163020884254365 1:-2.87292 2:1.4954 3:3.05741 4:-0.56189102 5:0.798971 6:-1.15257 7:-3.96526 8:-2.3935299 9:1.39718 10:-0.88000202 14:1 24:1 #
0.61707832502632009585852301825071 1:-1.7799799 2:-0.872576 3:0.38718301 4:-1.26761 5:-0.79622602 6:-1.22697 7:0.66679102 8:-1.02782 9:-1.11131 10:-0.40726 14:1 30:1 #
0.25618155676157911004864331516728 1:-0.99064201 2:1.30775 3:2.52336 4:-0.56189102 5:0.86758101 6:-0.500337 7:-3.7037699 8:-0.92665702 9:2.07656 10:-0.57113397 13:1 27:1 #
0.030259230012521665803548742701423 1:-1.53354 2:-0.84576899 3:-0.94793099 4:-0.86770201 5:-0.69331002 6:0.081353202 7:0.51736999 8:0.084977202 9:-0.24902 10:0.317711 13:1 31:1 #
0.69202789297593314543632914137561 1:-0.68347698 2:-1.36404 3:0.38718301 4:0.129711 5:-1.44803 6:-0.75302202 7:-0.640643 8:-0.87607503 9:0.090671502 10:0.109282 13:1 27:1 #
0.57393726769239239438036292995093 1:-1.03707 2:-1.3461699 3:1.85581 4:-0.279605 5:0.42161199 6:-0.424018 7:-1.46246 8:-2.4946899 9:-0.37967101 10:0.53746802 13:1 24:1 #
0.41717470264322042972082726919325 1:-3.7801299 2:-1.1317101 3:1.4552701 4:-0.37369999 5:0.21578 6:-1.40911 7:-0.34180099 8:-2.2923601 9:-1.11131 10:-0.89133 14:1 16:1 #
0.26556185020536027252546773524955 1:-3.7337 2:-1.36404 3:1.4552701 4:-0.420748 5:0.28439099 6:-1.4110301 7:-1.23833 8:-1.93829 9:-0.17062999 10:-0.92908901 14:1 16:1 #
0.032816419186811593422525845653581 1:-1.78356 2:0.12822799 3:-0.68090802 4:-1.26761 5:-0.79622602 6:-0.254706 7:0.55472499 8:1.04603 9:0.169062 10:-1.26816 13:1 30:1 #
0.67384823182485353854076493007597 1:-0.94778198 2:1.79028 3:-0.68090802 4:-0.84417802 5:-0.72761601 6:-0.20147499 7:-0.26708999 8:0.034395501 9:0.351973 10:0.467237 13:1 25:1 #
0.59292534412565855994614594237646 1:-2.7300501 2:-0.68492502 3:1.85581 4:-0.68421501 5:-1.31081 6:-0.94927001 7:1.15241 8:-2.3935299 9:-2.6007299 10:-0.79768801 14:1 19:1 #
0.007467197729204300311878217399908 1:-3.1479399 2:-1.23001 3:2.1228299 4:-0.41133901 5:-1.8940001 6:-1.13782 7:-1.12626 8:-3.05109 9:-1.03292 10:-1.06502 14:1 24:1 #
0.14134425567077638086210811252386 1:-1.99429 2:1.35243 3:1.1882499 4:0.81660801 5:2.29125 6:-0.91463798 7:-2.3589799 8:-0.269095 9:1.65848 10:-0.70253497 14:1 24:1 #
0.37004880718235638736857140429493 1:-1.82284 2:1.2362601 3:1.1882499 4:0.17205399 5:2.2569499 6:-1.04162 7:-2.28427 8:0.23672201 9:1.86752 10:-0.58246201 14:1 24:1 #
0.43388072605519323321487945577246 1:-2.17644 2:0.36949301 3:-0.54739702 4:-0.547777 5:0.78181797 6:-0.45480201 7:0.218528 8:1.2989399 9:0.58714402 10:-0.78409398 14:1 16:1 #
0.56002759143092839533295546061709 1:-1.1478 2:-0.61343902 3:0.65420598 4:-0.053775601 5:0.59313899 6:-0.143755 7:1.22712 8:-0.977238 9:-1.60779 10:-0.92757797 13:1 18:1 #
0.18649366887241994317214732745924 1:-1.34067 2:-0.85470498 3:1.05474 4:-0.82065398 5:-0.384563 6:0.33275601 7:0.70414603 8:-1.73596 9:-1.66005 10:-0.78560501 13:1 24:1 #
0.055672743888358411368244560435414 1:-1.34781 2:-0.60450399 3:-0.94793099 4:-1.12646 5:-0.72761601 6:-0.26111901 7:0.70414603 8:0.23672201 9:-0.35354099 10:0.065481499 13:1 25:1 #
0.68513888157434554848634888912784 1:-2.48718 2:-1.29256 3:1.4552701 4:-0.95238799 5:-0.281647 6:-0.521501 7:-1.01419 8:-2.14062 9:-0.45806101 10:-0.97364402 14:1 20:1 #
0.347443510935007249251782468491 1:-1.8407 2:1.8081501 3:0.12016 4:-0.27019501 5:-0.88199002 6:-0.85820103 7:-0.60328698 8:-0.62316602 9:0.24745201 10:-1.3822 14:1 20:1 #
0.62717918070333833480134444471332 1:-1.15494 2:-1.09597 3:1.98932 4:-1.0700099 5:-0.45317301 6:-0.76392502 7:-0.453866 8:-3.05109 9:-1.58166 10:-0.87320602 13:1 47:1 #
0.87281225219002989135219650052022 1:-2.3764601 2:1.22733 3:2.9238999 4:-0.420748 5:0.64459699 6:-0.94157398 7:-4.1893902 8:-0.87607503 9:2.39012 10:-0.93588501 14:1 20:1 #
0.53614470717978823799398924165871 1:-0.854918 2:1.55795 3:0.92122799 4:-0.00672783 5:1.99966 6:-0.37720099 7:-1.72394 8:-0.67374802 9:0.979096 10:-0.420854 13:1 27:1 #
0.58513728157645050753643545249361 1:-1.91214 2:1.66518 3:0.52069402 4:-0.56189102 5:0.52452803 6:-1.19683 7:-1.23833 8:-0.67374802 9:0.639404 10:-1.02877 13:1 25:1 #
0.6395271515337510592758007987868 1:-3.1586499 2:1.53114 3:1.85581 4:0.57195997 5:-0.60754699 6:-1.25711 7:-2.65783 8:-1.3818901 9:1.21427 10:-0.74784601 14:1 19:1 #
0.71563418189195682206360515920096 1:-3.0122199 2:-1.14958 3:0.38718301 4:0.73662698 5:0.095711797 6:-1.21863 7:-0.042958502 8:-1.0784 9:-0.51032102 10:-0.74482501 14:1 19:1 #
0.40894169256928802891337682012818 1:-2.1621499 2:-0.68492502 3:0.12016 4:-1.26761 5:-0.79622602 6:-1.4802999 7:1.00299 8:-0.62316602 9:-1.16357 10:-1.3353699 13:1 28:1 #
0.017998047065616546574817746773078 1:-3.01579 2:1.4596601 3:1.85581 4:-0.63716799 5:0.47307 6:-1.19683 7:-2.7698901 8:-1.0784 9:1.47557 10:-0.981951 14:1 24:1 #
0.11021254712448988466455546131328 1:-2.3764601 2:-1.31043 3:2.3898499 4:-0.44427201 5:0.88473397 6:-1.05124 7:-1.68659 8:-3.2028301 9:-0.71936202 10:-1.1110899 14:1 20:1 #
0.70043414980176899042874083534116 1:-0.94420999 2:1.52221 3:1.4552701 4:-1.26761 5:-0.79622602 6:-0.67606199 7:-2.28427 8:-0.977238 9:1.18814 10:-1.04161 13:1 38:1 #
0.22116738367309601853705203211575 1:-1.09065 2:-1.3908499 3:-0.54739702 4:-1.26761 5:-0.79622602 6:-0.15850601 7:-0.26708999 8:-0.11735 9:0.27358201 10:0.39020801 13:1 24:1 #
0.4197131076607018562718565135583 1:-1.3621 2:-1.3908499 3:-1.61549 4:-1.26761 5:-0.79622602 6:-0.95632499 7:0.14381801 8:0.59079403 9:0.351973 10:-0.452571 13:1 25:1 #
0.60879008269579049095199252406019 1:-1.74427 2:-1.3908499 3:-1.8825099 4:-1.26761 5:-0.79622602 6:-0.90501797 7:0.218528 8:0.74253899 9:0.351973 10:-0.89133 13:1 31:1 #
0.76972881827065620097272358179907 1:-1.6549799 2:-0.872576 3:1.5887901 4:0.25203499 5:0.953345 6:-1.12628 7:0.59208101 8:-2.3429401 9:-1.97361 10:-0.68894202 13:1 16:1 #
0.38667762757052548394653967989143 1:-2.0050001 2:-0.75641102 3:2.25634 4:-0.68421501 5:0.28439099 6:-1.2693 7:0.89092302 8:-3.05109 9:-2.8359001 10:-1.1934 13:1 17:1 #
0.54084233433726314199674334304291 1:-3.3408101 2:1.56688 3:3.1909201 4:0.38376901 5:2.1025701 6:-1.3000799 7:-3.9279001 8:-2.9499199 9:1.0052299 10:-0.778808 14:1 19:1 #
0.55675860220724326943297910474939 1:-2.10144 2:0.38736501 3:1.85581 4:-0.27019501 5:0.93619198 6:-0.75045699 7:-0.52857703 8:1.34952 9:0.71779501 10:-1.17075 14:1 15:1 #
0.48453072417674786231955863513576 1:-1.98 2:0.94138098 3:1.4552701 4:-0.41133901 5:0.30154401 6:-1.35203 7:-2.2469201 8:1.04603 9:2.1549499 10:-1.31423 13:1 24:1 #
0.70686401123408959534799578250386 1:-1.75498 2:0.33375001 3:-0.0133511 4:1.2024 5:0.98764998 6:-1.0025001 7:0.218528 8:1.34952 9:0.53488398 10:-0.53262001 14:1 20:1 #
0.44905756470816082792651968702557 1:-1.85499 2:-1.19426 3:1.1882499 4:0.426112 5:2.11973 6:-1.02623 7:-0.49122199 8:-1.93829 9:-0.71936202 10:-0.95098901 14:1 20:1 #
0.73619999653997969524255040596472 1:-3.6443999 2:-1.01555 3:2.52336 4:-0.129052 5:0.73035997 6:-1.35331 7:-0.304445 8:-3.8098099 9:-2.2871699 10:-0.81958801 14:1 17:1 #
0.49814423233437282734215045820747 1:-1.94785 2:-0.28281701 3:0.52069402 4:1.07067 5:0.61029202 6:-1.10255 7:1.33919 8:-0.016186099 9:-1.1897 10:-0.54923397 14:1 17:1 #
0.39250132605467180635372415054007 1:-0.844203 2:-1.28362 3:-0.54739702 4:0.96245599 5:-0.024356799 6:0.071091898 7:-0.080313802 8:-0.16793101 9:0.090671502 10:-0.271328 13:1 46:1 #
0.11163738018599725365653796416154 1:-0.854918 2:-1.2032 3:-0.28037399 4:0.69898802 5:-0.075814798 6:0.044797201 7:-0.0056032902 8:-0.522003 9:-0.1445 10:-0.226017 13:1 46:1 #
0.62305594148250531549848574286443 1:-1.8264199 2:0.12822799 3:1.3217601 4:0.50138801 5:2.2569499 6:-0.806894 7:0.62943602 8:0.944866 9:-0.30127999 10:-1.08541 14:1 16:1 #
0.80231747286387000706042726960732 1:-1.06565 2:1.61156 3:2.1228299 4:-0.420748 5:0.061406501 6:-0.25663 7:-2.65783 8:-1.88771 9:0.848445 10:0.427212 13:1 38:1 #
0.6902843831595389945121610253409 1:-3.3015201 2:1.66518 3:0.65420598 4:0.17205399 5:-1.1735801 6:-1.0820301 7:-1.23833 8:-0.72433001 9:0.639404 10:-0.83469099 14:1 15:1 #
0.54080900134030407411245278126444 1:-0.71562302 2:1.37923 3:-0.28037399 4:-1.26761 5:-0.79622602 6:-0.95183599 7:-0.97684002 8:0.38846701 9:1.10975 10:-0.33098701 13:1 37:1 #
0.15577213046629798109954379015107 1:-2.01929 2:0.81628102 3:-1.08144 4:-0.63716799 5:-0.69331002 6:-1.50723 7:-0.19238 8:1.09661 9:0.87457502 10:-1.44488 13:1 16:1 #
0.39914147066358041104905396423419 1:-0.77991301 2:1.3971 3:0.52069402 4:0.53902602 5:-0.00720412 6:-0.309861 7:-1.6118799 8:0.034395501 9:1.34492 10:0.273911 13:1 24:1 #
0.53774860085190234748608872905606 1:-2.2121601 2:-1.1317101 3:-0.94793099 4:-0.56189102 5:0.78181797 6:-0.81908 7:0.218528 8:0.034395501 9:-0.013849 10:-0.70933199 14:1 25:1 #
0.29961216515203276111733998732234 1:-2.81934 2:1.63837 3:2.3898499 4:-1.26761 5:-0.79622602 6:-1.12564 7:-2.8446 8:-2.3429401 9:0.69166398 10:-1.15036 14:1 24:1 #
0.18351683359269890805087754870328 1:-2.1585801 2:-1.0423599 3:-0.68090802 4:0.14382499 5:1.36501 6:-0.93900901 7:0.330594 8:-0.16793101 9:-0.22289 10:-0.981951 14:1 20:1 #
0.062263484085618617247526174196537 1:-2.0050001 2:-0.86364001 3:1.85581 4:-0.68421501 5:0.45591801 6:-1.29495 7:0.59208101 8:-2.6970201 9:-2.23491 10:-1.22285 13:1 17:1 #
0.59855891278739226102345583058195 1:-1.84427 2:-1.35511 3:1.85581 4:-0.56189102 5:-0.79622602 6:-1.14552 7:-1.57452 8:-2.54527 9:-0.327411 10:-0.94343698 13:1 24:1 #
0.67731270492828199447643555686227 1:-2.23716 2:1.58476 3:-1.61549 4:-0.32194799 5:1.05626 6:-0.85307002 7:0.069107197 8:0.64137602 9:0.45649299 10:-1.01744 14:1 19:1 #
0.50079130799952797925556069458253 1:-1.02279 2:-1.2568099 3:0.65420598 4:-1.26761 5:-0.79622602 6:-0.648485 7:-0.49122199 8:-1.33131 9:-0.327411 10:-0.99705499 13:1 38:1 #
0.62891733492648860259777165993 1:-2.6693299 2:1.3703001 3:1.4552701 4:-1.12646 5:-0.59039497 6:-0.450313 7:-2.5831201 8:-0.42084 9:1.68461 10:-1.33084 14:1 28:1 #
0.3736123394356224425294499269512 1:-2.05143 2:-0.81896198 3:1.1882499 4:-0.56189102 5:0.55883402 6:-0.76392502 7:0.816212 8:-1.88771 9:-1.84296 10:-0.58246201 14:1 20:1 #
0.83515723190421220500923027429963 1:-2.56218 2:1.8081501 3:3.32443 4:-0.86770201 5:-0.24734101 6:-0.96273798 7:-2.9193101 8:-4.1132998 9:-0.45806101 10:-0.64967299 14:1 24:1 #
0.73228815611020259268570953281596 1:-3.16223 2:-0.872576 3:2.52336 4:0.43081599 5:-0.62470001 6:-1.2641701 7:0.36794901 8:-3.6074901 9:-2.7575099 10:-0.79315698 14:1 15:1 #
0.47555372411667307108729119136115 1:-3.5086801 2:-0.60450399 3:1.05474 4:-1.0700099 5:-0.64185202 6:-1.33279 7:1.26448 8:-1.23015 9:-1.86909 10:-1.10958 14:1 15:1 #
0.7667255588028120127930264970928 1:-1.50139 2:1.65624 3:1.7223001 4:-0.56189102 5:-1.82539 6:-0.94670498 7:-2.2469201 8:-1.78655 9:0.639404 10:-0.60285199 13:1 24:1 #
0.47781646914989900354342466926028 1:-3.31938 2:1.72773 3:0.78771698 4:0.53902602 5:0.71320802 6:-1.08395 7:-1.23833 8:-1.02782 9:0.430363 10:-0.90265697 14:1 24:1 #
0.49384915550530356087577388279897 1:-3.64797 2:0.85202402 3:2.1228299 4:-1.12646 5:-0.52178401 6:-1.37255 7:-2.6951799 8:1.04603 9:2.3117299 10:-0.91851598 14:1 15:1 #
0.6726520834277353033670010518108 1:-1.16208 2:-1.2568099 3:0.65420598 4:-0.00672783 5:0.67890197 6:-1.20324 7:-0.453866 8:-1.28073 9:-0.327411 10:-0.52733397 13:1 16:1 #
0.62304334103227587693396571921767 1:-3.2693801 2:-1.38191 3:0.65420598 4:0.289673 5:-1.01921 6:-1.06407 7:-0.86477399 8:-1.1795599 9:0.064541399 10:-0.85961199 14:1 24:1 #
0.33338304207444346971556115022395 1:-1.36924 2:-0.77428299 3:2.3898499 4:-0.86770201 5:-0.69331002 6:-0.135418 7:0.816212 8:-3.2028301 9:-2.88816 10:-1.02877 13:1 24:1 #
0.88993372041359386503955875014071 1:-0.46560499 2:1.2362601 3:0.78771698 4:0.129711 5:2.3083999 6:-0.40221301 7:-1.8733701 8:0.38846701 9:1.7368701 10:-0.371012 13:1 18:1 #
0.45287216830629545283315451342787 1:-1.89428 2:-0.98874098 3:-0.54739702 4:1.57408 5:0.901887 6:-1.04162 7:0.40530401 8:-0.269095 9:-0.35354099 10:-0.525823 14:1 24:1 #
0.86213906345535717967720756860217 1:-1.15494 2:1.18265 3:-1.61549 4:0.14382499 5:1.22779 6:-0.75302202 7:0.031752001 8:0.79312098 9:0.561014 10:-0.204117 13:1 45:1 #
0.23585387276399980005514578351722 1:-1.95857 2:1.34349 3:-0.146862 4:0.38376901 5:0.35300201 6:-0.89475697 7:-1.08891 8:0.43904901 9:1.21427 10:-0.39064601 14:1 25:1 #
0.50553371144634673406415004137671 1:-1.64069 2:-1.3461699 3:-0.146862 4:-0.82065398 5:-0.50463098 6:-1.37255 7:-0.34180099 8:-0.471421 9:0.142932 10:-0.225262 14:1 19:1 #
0.15851827038101248823487310346536 1:-1.9192801 2:-1.35511 3:0.78771698 4:-1.0700099 5:-0.62470001 6:-1.24941 7:-0.82741898 8:-1.28073 9:-0.0399791 10:-0.54394799 14:1 25:1 #
0.66119354409816899487140062774415 1:-2.5121801 2:0.092485003 3:1.05474 4:-1.12646 5:-0.60754699 6:-0.47275901 7:0.77885699 8:0.89428401 9:-0.37967101 10:-0.79315698 14:1 16:1 #
0.45570243626681661286426106016734 1:-2.5943301 2:1.44178 3:-0.81441897 4:-1.12646 5:-0.93344802 6:-0.484303 7:-0.52857703 8:0.489631 9:0.82231498 10:-0.94041598 14:1 31:1 #
0.61069471983597090058992762351409 1:-2.99436 2:1.09329 3:2.1228299 4:0.129711 5:0.0099485395 6:-1.23915 7:-3.2555101 8:0.23672201 9:2.41625 10:-0.94721299 14:1 19:1 #
0.73778292696392477889588690231903 1:-2.63362 2:-0.89044797 3:-0.413885 4:0.38376901 5:2.1540301 6:-1.23915 7:0.55472499 8:-0.269095 9:-0.51032102 10:-1.2727 14:1 16:1 #
0.34336608435030119279574023494206 1:-2.0264299 2:-0.184523 3:0.92122799 4:-0.63716799 5:-0.12727299 6:-1.46426 7:1.3018301 8:0.13555899 9:-1.1897 10:-1.29308 13:1 18:1 #
0.44732111872603108615464861941291 1:-1.37281 2:-0.390046 3:-0.413885 4:-0.98532099 5:-0.89914203 6:0.34943101 7:1.00299 8:0.23672201 9:-0.614842 10:-0.69875902 13:1 18:1 #
0.4832988819615963160813976173813 1:-1.75855 2:1.05755 3:-0.146862 4:0.85424602 5:2.87444 6:-0.96017301 7:-1.05155 8:0.99544799 9:1.44944 10:-1.17981 14:1 16:1 #
0.6412608797660652726335683837533 1:-2.23002 2:1.18265 3:0.38718301 4:-1.26761 5:-0.79622602 6:-1.36101 7:-1.6118799 8:0.64137602 9:1.65848 10:-1.30215 13:1 17:1 #
0.55928301703232097263907007800299 1:-1.34781 2:1.6205 3:-0.146862 4:0.25674 5:1.3821599 6:-1.16668 7:-0.75270802 8:-0.066767797 9:0.69166398 10:-1.25079 13:1 24:1 #
0.66173491345261592488924407007289 1:-0.644189 2:-0.86364001 3:-0.28037399 4:0.14382499 5:0.64459699 6:-0.83383 7:0.62943602 8:-0.471421 9:-0.693232 10:-1.20095 13:1 38:1 #
0.51165688197966208150546663091518 1:-3.2193699 2:-1.14065 3:2.3898499 4:0.34142601 5:-0.88199002 6:-1.23146 7:-0.79006398 8:-3.45574 9:-1.58166 10:-0.76899099 14:1 19:1 #
0.20606492658645667037653481656889 1:-2.5443201 2:-0.836833 3:-0.0133511 4:-0.68421501 5:0.112864 6:-0.52406597 7:0.70414603 8:-0.62316602 9:-0.85001302 10:-1.18736 14:1 24:1 #
0.38884479158396401121677854462177 1:-2.40503 2:0.50353003 3:2.6568799 4:-1.12646 5:-0.45317301 6:-0.61705899 7:-1.57452 8:1.19777 9:1.26653 10:-1.0786099 14:1 15:1 #
0.82353132705448439665474325011019 1:-1.80141 2:0.396301 3:1.7223001 4:-1.0700099 5:-0.50463098 6:-1.3148299 7:-0.52857703 8:1.4001 9:0.770055 10:-0.71612799 13:1 31:1 #
0.38033060866351725559653118580172 1:-2.6907599 2:-1.00661 3:1.5887901 4:0.073253401 5:1.86244 6:-1.28212 7:0.106462 8:-2.4946899 9:-1.63392 10:-1.2372 14:1 16:1 #
0.57742460105042492379823215742363 1:-1.76213 2:1.75453 3:0.65420598 4:-1.26761 5:-0.79622602 6:-1.05124 7:-1.12626 8:-1.02782 9:0.351973 10:-0.269063 13:1 34:1 #
0.39989324998814135270208680594806 1:-2.21573 2:-0.390046 3:-0.68090802 4:-1.12646 5:-0.88199002 6:-1.43027 7:0.92827803 8:0.33788601 9:-0.484191 10:-1.36709 13:1 17:1 #
0.52617339935125784222691436298192 1:-2.1407199 2:-1.0781 3:1.3217601 4:-0.053775601 5:-1.01921 6:-0.90309399 7:-0.15502401 8:-2.2923601 9:-1.2681 10:-0.81279099 14:1 24:1 #
0.51071822938321220775037545536179 1:-3.1908 2:0.94138098 3:0.38718301 4:-0.24196699 5:0.37015399 6:-1.21863 7:-1.31304 8:1.19777 9:1.68461 10:-1.01744 14:1 24:1 #
0.14690949905098607541908961593435 1:-0.76562601 2:-0.73853999 3:0.65420598 4:-0.98532099 5:-0.62470001 6:-0.86974502 7:0.96563298 8:-1.12898 9:-1.4771399 10:-0.42160901 13:1 37:1 #
0.84369101279254610226132626848994 1:-3.20509 2:1.82602 3:2.1228299 4:0.14382499 5:2.85729 6:-1.33279 7:-1.8733701 8:-2.64643 9:-0.19676 10:-0.85734701 14:1 19:1 #
0.63230232627991844740478200037614 1:-1.18708 2:-0.64024699 3:0.65420598 4:-0.82065398 5:-0.60754699 6:-0.125156 7:1.15241 8:-1.02782 9:-1.58166 10:0.50273001 13:1 38:1 #
0.51853492420034630328018465661444 1:-0.94420999 2:1.42391 3:-1.749 4:-0.68421501 5:-0.71046299 6:-0.228411 7:0.14381801 8:0.69195801 9:0.430363 10:0.45364299 13:1 16:1 #
0.31864202064247298951116249554616 1:-0.412029 2:1.64731 3:0.253672 4:-0.63716799 5:0.044253901 6:-0.52534902 7:-1.05155 8:-0.471421 9:0.69166398 10:-0.064409196 13:1 45:1 #
0.47737250858686458565571797407756 1:-1.03707 2:1.1469001 3:1.7223001 4:-0.56189102 5:-0.264494 6:-0.48751 7:-2.8819599 8:0.28730401 9:2.23334 10:-0.28945199 13:1 27:1 #
0.45826609790526440235680638579652 1:-1.98357 2:1.05755 3:2.1228299 4:-0.13846201 5:0.88473397 6:-0.717749 7:-3.14344 8:0.43904901 9:2.41625 10:-0.466919 14:1 24:1 #
0.45629589579631918416779967628827 1:-3.1157899 2:-0.55088902 3:2.1228299 4:-0.56189102 5:-0.161578 6:-1.37255 7:1.45125 8:-2.24178 9:-2.8359001 10:-1.1435601 14:1 24:1 #
0.46192223400230481011874417163199 1:-2.33002 2:-1.27469 3:2.52336 4:-0.41133901 5:1.10772 6:-1.01533 7:-1.57452 8:-3.45574 9:-1.00679 10:-1.06276 14:1 20:1 #
0.61995662955923980241834669868695 1:-1.4263901 2:0.00312751 3:-0.68090802 4:0.32731101 5:1.05626 6:-1.09549 7:0.66679102 8:0.89428401 9:0.0122812 10:-0.72594601 13:1 18:1 #
0.65320257991042962597560972426436 1:-1.53354 2:0.119292 3:1.7223001 4:-1.26761 5:-0.79622602 6:0.14163899 7:0.62943602 8:0.79312098 9:-0.51032102 10:-0.860367 13:1 24:1 #
0.48542824829027358957134197225969 1:-2.0371499 2:-0.390046 3:1.1882499 4:-1.12646 5:-1.19074 6:-1.15899 7:1.48861 8:-0.72433001 9:-1.84296 10:-1.0786099 13:1 24:1 #
0.83387669851404344623091446919716 1:-2.7729101 2:-1.23894 3:2.25634 4:-1.12646 5:-0.62470001 6:-0.49328199 7:-1.2009701 8:-3.1522501 9:-1.03292 10:-1.33235 14:1 28:1 #
0.42913072717528222277394434058806 1:-2.28002 2:1.48646 3:1.1882499 4:-0.44427201 5:1.10772 6:-0.887061 7:-2.0601399 8:-0.62316602 9:1.26653 10:-0.99856502 14:1 19:1 #
0.60966275225771615620118382139481 1:-3.1586499 2:-1.14958 3:2.1228299 4:-1.12646 5:-0.53893697 6:-1.24813 7:-0.71535301 8:-3.10167 9:-1.3987499 10:-1.24626 14:1 15:1 #
0.78597079004607373065027786651626 1:-2.1907301 2:1.61156 3:1.5887901 4:-0.95238799 5:-0.55608898 6:-1.35203 7:-2.2095599 8:-1.43247 9:0.87457502 10:-1.30064 13:1 28:1 #
0.57687407838178494934311402175808 1:-3.0300701 2:1.70986 3:2.6568799 4:0.25203499 5:-1.9797601 6:-1.02174 7:-2.80725 8:-2.8993399 9:0.27358201 10:-0.92757797 14:1 24:1 #
0.56168568950799224737124859530013 1:-0.94778198 2:1.63837 3:1.05474 4:0.70839798 5:2.3598599 6:-0.89347398 7:-1.72394 8:-1.0784 9:0.74392498 10:-1.01744 13:1 47:1 #
0.46002648897328857202637664158829 1:-0.72276598 2:-0.47940299 3:-0.81441897 4:-1.12646 5:-0.76192099 6:-0.96530402 7:0.816212 8:0.33788601 9:-0.37967101 10:-0.36270499 13:1 37:1 #
0.46856668828658354364335991704138 1:-2.9800701 2:-1.37298 3:-0.146862 4:-1.12646 5:-0.67615801 6:-0.75302202 7:-0.416511 8:-0.42084 9:0.19519199 10:-1.06427 14:1 28:1 #
0.57040520789474369323102109774482 1:-1.40139 2:-0.425789 3:-1.61549 4:-0.467796 5:0.044253901 6:-0.26496699 7:0.40530401 8:0.64137602 9:0.169062 10:-1.01367 13:1 24:1 #
0.6180490287512400149338986921066 1:-0.79777098 2:-0.89938301 3:1.5887901 4:-0.63716799 5:0.28439099 6:-0.71838999 7:0.48001501 8:-2.4946899 9:-1.99974 10:-1.08239 13:1 38:1 #
0.5798956013012954713303770404309 1:-1.95143 2:-0.98874098 3:-1.61549 4:1.72463 5:0.798971 6:-1.04483 7:0.293239 8:0.54021198 9:0.221322 10:-0.59680998 14:1 20:1 #
0.61065547139323161918156301908311 1:-1.36924 2:1.48646 3:-0.28037399 4:-0.32194799 5:0.19862799 6:-0.27522799 7:-0.82741898 8:0.23672201 9:0.92683601 10:-0.98270601 13:1 18:1 #
0.64985278801682688776253371543135 1:-3.41224 2:1.79028 3:0.12016 4:-1.26761 5:-0.79622602 6:-1.35716 7:-0.60328698 8:-0.522003 9:0.29971299 10:-1.1435601 14:1 24:1 #
0.21486963997371785750623018884653 1:-3.31938 2:-1.3283 3:3.1909201 4:0.426112 5:2.2741001 6:-1.29559 7:-2.3589799 8:-4.2144699 9:-0.92840302 10:-0.79315698 14:1 19:1 #
0.38701162800611688119545306108193 1:-3.6551199 2:1.4149801 3:2.52336 4:-0.37369999 5:0.57598603 6:-1.4110301 7:-3.62906 8:-1.48306 9:1.7368701 10:-0.90643299 14:1 19:1 #
0.19936889673826488356134234436468 1:-2.0335701 2:0.25332901 3:0.12016 4:-0.703035 5:-0.161578 6:-1.46426 7:0.40530401 8:1.2989399 9:0.32584301 10:-1.35048 13:1 16:1 #
0.23552668316216698873866164376523 1:-2.2050099 2:1.26307 3:0.65420598 4:-1.26761 5:-0.79622602 6:-0.601026 7:-1.83601 8:0.33788601 9:1.65848 10:-1.1775399 14:1 31:1 #
0.73138246830667552611515702665201 1:-1.76213 2:1.79921 3:1.4552701 4:-0.27019501 5:1.09057 6:-1.08459 7:-1.46246 8:-1.88771 9:0.038411301 10:-0.87320602 13:1 24:1 #
0.30384937775926745828769526269753 1:-1.92642 2:1.40604 3:1.1882499 4:0.96245599 5:0.26723799 6:-0.92233402 7:-2.2469201 8:-0.370258 9:1.52783 10:-0.67459399 14:1 24:1 #
0.79234842271872085728290358019876 1:-1.46925 2:-1.3908499 3:-0.0133511 4:0.25203499 5:-1.70532 6:-0.63630003 7:-0.49122199 8:-0.522003 9:0.221322 10:-0.657224 13:1 24:1 #
0.1414550599287864862674268806586 1:-2.0442901 2:0.88776702 3:-1.48198 4:-1.26761 5:-0.79622602 6:-1.1179399 7:0.031752001 8:0.89428401 9:0.61327398 10:-0.67685902 13:1 28:1 #
0.46780870828303489084021293820115 1:-1.68355 2:-1.0870301 3:2.25634 4:-0.251376 5:0.64459699 6:-0.84409201 7:-0.49122199 8:-3.40516 9:-1.7907 10:-0.72065902 13:1 24:1 #
0.89477475834376785090995554128313 1:-3.1372199 2:-0.92619097 3:2.25634 4:0.449635 5:3.1831901 6:-1.28789 7:0.25588301 8:-3.3039999 9:-2.39169 10:-0.81581199 14:1 19:1 #
0.46531184546219045428117055962502 1:-0.62990201 2:1.06648 3:1.5887901 4:0.50138801 5:2.7886801 6:-0.63822401 7:-2.6951799 8:0.59079403 9:2.25947 10:-0.72368002 13:1 27:1 #
0.47340192004171971484893788328918 1:-3.71227 2:1.03074 3:0.38718301 4:-1.26761 5:-0.79622602 6:-1.35331 7:-1.46246 8:0.99544799 9:1.71074 10:-0.95098901 14:1 15:1 #
0.63649183116115970459958361971076 1:-1.88713 2:0.52140099 3:1.4552701 4:-1.26761 5:-0.79622602 6:-0.37784201 7:-0.90212899 8:1.55185 9:1.2404 10:-1.28176 13:1 18:1 #
0.74662604326650261477027470391477 1:-2.5943301 2:1.79921 3:0.253672 4:0.14382499 5:1.09057 6:-1.09806 7:-0.75270802 8:-0.72433001 9:0.24745201 10:-1.42373 14:1 16:1 #
0.54491654977780668023257248933078 1:-2.83006 2:-0.908319 3:2.25634 4:-0.24196699 5:1.19348 6:-1.32445 7:0.330594 8:-3.3545799 9:-2.4962101 10:-1.19718 14:1 18:1 #
0.48909499613738288692488254127966 1:-0.89063501 2:1.3256201 3:-0.28037399 4:-0.129052 5:1.79383 6:-0.371429 7:-0.939484 8:0.54021198 9:1.16201 10:-0.40575001 13:1 27:1 #
0.33265327791953047675832522145356 1:-1.53711 2:-1.0870301 3:-0.0133511 4:-0.13846201 5:0.93619198 6:-1.07177 7:0.181173 8:-0.77491099 9:-0.51032102 10:-1.21908 14:1 20:1 #
0.73918111997168356452903026365675 1:-3.46225 2:-1.12278 3:-0.94793099 4:-0.82065398 5:-0.41886801 6:-1.3712699 7:0.218528 8:0.13555899 9:0.0122812 10:-1.1428 14:1 15:1 #
0.049819054644623828043137336862856 1:-1.58711 2:1.3703001 3:1.85581 4:-0.95238799 5:-0.24734101 6:-0.64271301 7:-2.99402 8:-0.77491099 9:1.763 10:-0.090840399 13:1 24:1 #
0.61193890523446770046689380251337 1:-1.71569 2:0.101421 3:-0.0133511 4:1.19769 5:3.0802701 6:-0.91335601 7:0.70414603 8:1.04603 9:-0.0399791 10:-1.00612 14:1 16:1 #
0.35119515150343139087141253185109 1:-1.27281 2:-1.0870301 3:-0.0133511 4:0.94363701 5:-0.264494 6:-0.58178598 7:0.181173 8:-0.82549298 9:-0.536452 10:-0.186748 13:1 25:1 #
0.69274896444547162666083295334829 1:-0.87634802 2:-0.14878 3:0.52069402 4:0.28496799 5:-0.74476802 6:-0.22969399 7:1.18976 8:0.38846701 9:-0.902273 10:0.50575101 13:1 18:1 #
0.64974500503060783618280993323424 1:-1.46568 2:-1.09597 3:1.05474 4:-0.75949198 5:-0.57324201 6:0.192945 7:-0.117669 8:-1.93829 9:-1.03292 10:-0.92757797 13:1 25:1 #
0.61076025685570689560677237750497 1:-3.6051099 2:-1.36404 3:1.7223001 4:0.0120913 5:0.901887 6:-1.34882 7:-1.4251 8:-2.2923601 9:-0.24902 10:-0.86867398 14:1 19:1 #
0.11227964731897195627130514594683 1:-1.01564 2:-0.97980499 3:0.12016 4:-0.067889899 5:0.33584899 6:-0.016770899 7:0.44266 8:-0.82549298 9:-0.74549299 10:0.203679 13:1 24:1 #
0.74635414258750376603757104021497 1:-1.58354 2:-0.58663201 3:1.7223001 4:0.120301 5:1.2964 6:-0.97620702 7:1.3765399 8:-1.83713 9:-2.41782 10:-0.800708 13:1 18:1 #
0.34177243831182801958590289359563 1:-2.15501 2:-0.184523 3:1.1882499 4:-0.68421501 5:-0.35025701 6:-1.23146 7:1.33919 8:-0.016186099 9:-1.37262 10:-0.500902 14:1 15:1 #
0.38470322474638124488066637240991 1:-2.2728801 2:-0.631311 3:0.38718301 4:-0.19491901 5:-0.65900499 6:-1.29559 7:1.11505 8:-0.72433001 9:-1.37262 10:-0.68441099 14:1 17:1 #
0.58593445347292238967185085130041 1:-1.52282 2:0.83415198 3:1.5887901 4:-0.86770201 5:-0.53893697 6:-0.91976899 7:-2.2095599 8:1.19777 9:2.1288199 10:-0.207893 13:1 47:1 #
0.58150329325289418225253257332952 1:-0.48703501 2:-0.89044797 3:1.05474 4:0.308492 5:2.1883399 6:-0.76969701 7:0.59208101 8:-1.73596 9:-1.55553 10:-1.099 13:1 47:1 #
0.13243092919703433607558906714985 1:-1.90499 2:0.119292 3:-0.94793099 4:-0.98532099 5:-0.91629499 6:-1.21863 7:0.51736999 8:0.99544799 9:0.221322 10:-0.466919 14:1 20:1 #
0.47443276544664669813755608629435 1:-1.53711 2:1.7634701 3:-0.146862 4:-0.98532099 5:-0.67615801 6:0.097386599 7:-0.60328698 8:-0.370258 9:0.37810299 10:-0.925313 13:1 24:1 #
0.34340338435617395740351298627502 1:-2.84077 2:-0.95299798 3:3.05741 4:-0.63716799 5:0.98764998 6:-1.23979 7:-0.19238 8:-4.41679 9:-2.86203 10:-1.30215 14:1 24:1 #
0.46722081939604981348779233485402 1:-1.55497 2:1.70986 3:-1.21495 4:-0.420748 5:-0.092967398 6:-1.4110301 7:-0.080313802 8:0.38846701 9:0.45649299 10:-0.19883101 14:1 20:1 #
0.16817152624893327850230662079412 1:-3.04793 2:-1.03342 3:1.1882499 4:-1.12646 5:-0.71046299 6:-1.12243 7:0.069107197 8:-2.09004 9:-1.3203599 10:-0.99403399 14:1 19:1 #
0.74645200791238031090557569768862 1:-2.12287 2:-0.872576 3:1.5887901 4:0.53902602 5:1.15918 6:-1.21863 7:0.62943602 8:-2.3935299 9:-2.0258701 10:-0.82185298 14:1 17:1 #
0.50847199497363992914955588275916 1:-1.8157001 2:1.04861 3:0.38718301 4:0.92481798 5:0.30154401 6:-0.93002999 7:-1.49981 8:0.944866 9:1.7368701 10:-1.28025 14:1 16:1 #
0.0095079599629406923166907716904461 1:-1.7692699 2:-0.92619097 3:1.1882499 4:0.035615101 5:0.35300201 6:-1.13782 7:0.48001501 8:-1.98887 9:-1.60779 10:-0.70933199 13:1 24:1 #
0.66241719109750940575054301007185 1:-2.99793 2:1.78134 3:1.4552701 4:0.308492 5:0.164322 6:-1.25647 7:-1.6118799 8:-1.88771 9:0.116802 10:-0.76748002 14:1 19:1 #
0.11570789709077457241281905453434 1:-1.0692199 2:1.70092 3:0.65420598 4:-0.105528 5:0.044253901 6:-0.171332 7:-1.16362 8:-0.82549298 9:0.50875401 10:0.36906299 13:1 38:1 #
0.11878829328880839699689175859021 1:-2.55147 2:1.6294301 3:1.4552701 4:-1.26761 5:-0.79622602 6:-0.53561002 7:-2.02279 8:-1.3818901 9:0.770055 10:-0.99629998 14:1 31:1 #
0.46347103195875000158920897774806 1:-1.81213 2:-0.23813801 3:0.52069402 4:-1.12646 5:-0.91629499 6:-0.27651101 7:1.26448 8:0.186141 9:-1.05905 10:-1.28629 13:1 30:1 #
0.68037256006177015965619148119004 1:-1.21209 2:0.583951 3:0.92122799 4:-1.26761 5:-0.79622602 6:-0.18736599 7:-0.86477399 8:1.55185 9:1.37105 10:0.078319602 13:1 31:1 #
0.27187229723746003662299131065083 1:-1.2192301 2:0.36949301 3:0.52069402 4:-1.26761 5:-0.79622602 6:-0.178387 7:0.031752001 8:1.45068 9:0.66553402 10:0.12891699 13:1 31:1 #
0.51365417187212603078450001703459 1:-1.87642 2:1.77241 3:0.12016 4:0.99068499 5:0.747513 6:-0.94414002 7:-0.67799801 8:-0.522003 9:0.351973 10:-0.44577399 14:1 24:1 #
0.5954968538786067355772502196487 1:-2.1585801 2:1.68305 3:-1.34846 4:0.14853001 5:1.9310499 6:-0.94798797 7:-0.042958502 8:0.489631 9:0.45649299 10:-0.99629998 14:1 20:1 #
0.29044235697340609059224902921414 1:-1.46925 2:-1.36404 3:-0.54739702 4:-0.13846201 5:-0.45317301 6:-1.19683 7:-0.229735 8:-0.16793101 9:0.24745201 10:-0.47598201 13:1 16:1 #
0.47052821118558441071400011423975 1:-1.88713 2:0.95925301 3:0.12016 4:0.651941 5:1.96535 6:-0.85371202 7:-1.08891 8:1.14719 9:1.55396 10:-1.13299 14:1 15:1 #
0.6236024836377292990263754290936 1:-2.06215 2:1.8081501 3:2.6568799 4:0.0120913 5:1.1248699 6:-1.00763 7:-2.3589799 8:-3.3039999 9:-0.30127999 10:-1.0114 14:1 24:1 #
0.51561343248300495201164039826836 1:-2.0335701 2:1.07542 3:1.85581 4:-0.63716799 5:-0.024356799 6:-1.36101 7:-2.9193101 8:0.43904901 9:2.3117299 10:-1.3353699 13:1 16:1 #
0.12417625472341535519671396059493 1:-2.71577 2:-0.908319 3:0.38718301 4:0.70839798 5:0.47307 6:-1.19875 7:0.59208101 8:-1.02782 9:-1.03292 10:-1.35954 14:1 16:1 #
0.40056178157816041407457419154525 1:-3.4086699 2:1.48646 3:0.38718301 4:0.14382499 5:0.62744403 6:-1.27635 7:-1.38775 8:-0.11735 9:1.10975 10:-0.816567 14:1 15:1 #
0.32097372244320898637681693799095 1:-2.1728699 2:1.75453 3:0.253672 4:-1.12646 5:-0.83053201 6:-0.99801201 7:-0.86477399 8:-0.67374802 9:0.37810299 10:-0.66402102 14:1 28:1 #
0.8093963517241957728032275554142 1:-3.7837 2:1.54008 3:2.25634 4:-1.0700099 5:-0.77907401 6:-1.4463 7:-3.0687301 8:-1.83713 9:1.16201 10:-0.87924701 14:1 19:1 #
0.40131378951050838965741718311619 1:-2.3264501 2:-1.2032 3:3.05741 4:-0.053775601 5:0.57598603 6:-1.14424 7:-1.6118799 8:-4.41679 9:-1.66005 10:-1.1775399 14:1 24:1 #
0.74728034688785882622141798492521 1:-1.34781 2:0.60182297 3:-0.68090802 4:0.72721702 5:1.4164701 6:-1.0172499 7:-0.117669 8:1.2989399 9:0.87457502 10:-0.660245 13:1 16:1 #
0.40372650410689631117477915722702 1:-1.51211 2:-0.92619097 3:1.1882499 4:-1.12646 5:-0.64185202 6:-1.01982 7:0.48001501 8:-1.98887 9:-1.60779 10:-0.80221897 13:1 34:1 #
0.60628602331068259800872510822956 1:-2.2978799 2:-1.31936 3:-0.81441897 4:-1.26761 5:-0.79622602 6:-0.54522997 7:-0.042958502 8:-0.016186099 9:0.19519199 10:-1.10429 14:1 31:1 #
0.45269556188930915041623848082963 1:-1.87999 2:0.61969399 3:1.3217601 4:-0.98532099 5:-0.41886801 6:-0.62283099 7:-1.16362 8:1.55185 9:1.52783 10:-0.97364402 14:1 24:1 #
0.011626679982196908014202563208528 1:-2.2550199 2:1.20945 3:2.25634 4:0.25674 5:1.1248699 6:-0.99480498 7:-3.5543499 8:-0.370258 9:2.3117299 10:-0.64212102 14:1 24:1 #
0.25738875963014384851135218923446 1:-3.6336901 2:-0.99767703 3:1.5887901 4:-0.105528 5:0.76466602 6:-1.36101 7:0.14381801 8:-2.4441099 9:-1.63392 10:-0.89586103 14:1 15:1 #
0.3377244783364554137072843786882 1:-2.2550199 2:1.40604 3:2.3898499 4:0.17205399 5:1.19348 6:-0.806894 7:-3.47964 8:-1.33131 9:1.7368701 10:-0.83393598 14:1 24:1 #
0.61406489441196110412590769556118 1:-2.35145 2:-0.336431 3:1.7223001 4:-0.82065398 5:0.112864 6:-0.92233402 7:1.56332 8:-0.977238 9:-2.1565199 10:-0.67836899 14:1 25:1 #
0.039688738227238291866871833235564 1:-1.32638 2:1.8081501 3:-1.08144 4:-1.26761 5:-0.79622602 6:-0.53881699 7:-0.042958502 8:0.28730401 9:0.351973 10:-0.66251099 13:1 34:1 #
0.67840442219967433956639979442116 1:-3.1979401 2:-0.73853999 3:1.7223001 4:-1.26761 5:-0.79622602 6:-1.18015 7:1.00299 8:-2.3935299 9:-2.41782 10:-1.05822 14:1 28:1 #
0.43960938289709960979934066926944 1:-1.99429 2:1.12903 3:-0.146862 4:-0.547777 5:0.0271012 6:-1.46875 7:-1.12626 8:0.84370297 9:1.44944 10:-1.45016 13:1 16:1 #
0.63257688314911530991224708486698 1:-2.6229 2:-1.31043 3:1.05474 4:-0.27019501 5:2.0339601 6:-1.22312 7:-0.86477399 8:-1.73596 9:-0.30127999 10:-1.31876 14:1 24:1 #
0.49557215145631655639490986686724 1:-0.78705603 2:-1.10491 3:0.253672 4:-0.44427201 5:-0.041509401 6:-0.77610999 7:0.106462 8:-0.977238 9:-0.536452 10:-1.15262 13:1 47:1 #
0.5325158069147004624710461939685 1:-2.0978601 2:0.70905203 3:2.6568799 4:-0.56189102 5:1.02196 6:-0.568959 7:-2.5831201 8:1.14719 9:2.07656 10:-0.92380202 14:1 15:1 #
0.26419828215329588250170900209923 1:-2.9765 2:-1.09597 3:2.9238999 4:-0.63716799 5:-1.07067 6:-1.12628 7:-0.90212899 8:-4.2650499 9:-2.1303899 10:-1.08541 14:1 24:1 #
0.073811216149868505431719256648648 1:-2.5336101 2:1.3256201 3:0.92122799 4:-0.95238799 5:-0.65900499 6:-0.46955299 7:-2.0601399 8:0.034395501 9:1.63235 10:-0.92153698 14:1 20:1 #
0.4047637279084023154140936640033 1:-1.17637 2:1.17371 3:0.253672 4:0.0026817201 5:1.1248699 6:-0.764566 7:-1.38775 8:0.69195801 9:1.55396 10:-0.21771 13:1 45:1 #
0.62736820057477671319645651237806 1:-1.8264199 2:-1.38191 3:0.12016 4:0.938932 5:2.2569499 6:-0.88064802 7:-0.56593198 8:-0.67374802 9:0.169062 10:-0.70933199 14:1 20:1 #
0.74797996795612220477522669170867 1:-1.16565 2:1.4596601 3:3.05741 4:-0.68421501 5:0.38730699 6:-0.39131001 7:-4.0773301 8:-2.1912 9:1.58009 10:-0.48126799 13:1 27:1 #
0.22427356768437342604549655789015 1:-3.0014999 2:-1.3908499 3:1.4552701 4:-0.84417802 5:-0.47032601 6:-1.28982 7:-1.4251 8:-1.98887 9:-0.066109203 10:-1.2221 14:1 24:1 #
0.34560716578575867430345169850625 1:-3.7765601 2:-1.37298 3:0.92122799 4:-0.56189102 5:0.078559197 6:-1.43027 7:-1.01419 8:-1.48306 9:-0.0399791 10:-0.95174402 14:1 16:1 #
0.22558530224345688108833485330251 1:-1.52997 2:-0.56876099 3:-1.08144 4:-1.12646 5:-0.79622602 6:0.111496 7:0.66679102 8:0.38846701 9:-0.19676 10:0.330549 13:1 34:1 #
0.56740468739809113429828357766382 1:-1.16565 2:-0.425789 3:-1.34846 4:0.94363701 5:-0.36741 6:-0.44903001 7:0.51736999 8:0.59079403 9:0.038411301 10:-0.0138122 13:1 16:1 #
0.57740560614327696153935676193214 1:-0.94420999 2:-1.27469 3:-1.48198 4:-0.703035 5:-0.74476802 6:-0.21494301 7:0.14381801 8:0.489631 9:0.29971299 10:0.47478801 13:1 16:1 #
0.63281516443023921869581727150944 1:-2.24787 2:1.68305 3:-1.34846 4:-1.26761 5:-0.79622602 6:-0.64078897 7:-0.042958502 8:0.489631 9:0.45649299 10:-1.3127199 14:1 20:1 #
0.25638277337194059768421539047267 1:-1.08351 2:1.53114 3:0.78771698 4:-1.0700099 5:-0.59039497 6:-0.079621598 7:-1.68659 8:-0.522003 9:1.08362 10:0.363022 13:1 24:1 #
0.25420756255304099990866006919532 1:-2.19787 2:-1.24788 3:0.38718301 4:-1.12646 5:-0.72761601 6:-1.3982 7:-0.37915599 8:-1.0784 9:-0.27515 10:-1.0401 13:1 28:1 #
0.58563887687946725169041428671335 1:-1.15494 2:-0.48833901 3:1.7223001 4:-0.68421501 5:-0.333105 6:-0.25278199 7:1.48861 8:-1.53364 9:-2.41782 10:0.090402402 13:1 18:1 #
0.44066144014122515804032786945754 1:-3.6229701 2:1.56688 3:1.1882499 4:-1.12646 5:-0.52178401 6:-1.29559 7:-1.9480799 8:-0.92665702 9:1.0052299 10:-0.97893101 14:1 15:1 #
0.62311177236852133276556742202956 1:-2.3050201 2:1.00393 3:2.79039 4:-0.98532099 5:-0.230189 6:-0.59974301 7:-3.7037699 8:0.28730401 9:2.6252899 10:-0.93513 14:1 24:1 #
0.080078691382060779302420883141167 1:-0.97278398 2:-1.24788 3:-0.94793099 4:-0.703035 5:-0.52178401 6:-0.129646 7:0.069107197 8:0.13555899 9:0.142932 10:-0.068940297 13:1 31:1 #
0.29243279410352085445623515624902 1:-1.37638 2:1.40604 3:1.4552701 4:-0.129052 5:1.0391099 6:-1.10255 7:-2.47105 8:-0.522003 9:1.58009 10:-1.10958 13:1 24:1 #
0.51501718169090537902121695879032 1:-2.00857 2:-0.0236797 3:-1.61549 4:-0.75949198 5:-0.69331002 6:-1.50723 7:0.36794901 8:0.79312098 9:0.27358201 10:-1.40485 13:1 16:1 #
0.23533805013551523099835094399168 1:-3.16223 2:1.2362601 3:1.1882499 4:0.53902602 5:-0.62470001 6:-1.23915 7:-2.28427 8:0.23672201 9:1.86752 10:-0.72141498 14:1 19:1 #
0.45992219055465077826028164054151 1:-2.2442999 2:-1.18533 3:0.52069402 4:-1.26761 5:-0.79622602 6:-1.4257801 7:-0.229735 8:-1.28073 9:-0.51032102 10:-1.0597301 13:1 28:1 #
0.25772389758200536791221679777664 1:-2.5836101 2:-0.68492502 3:-0.28037399 4:-1.12646 5:-0.71046299 6:-0.66580099 7:0.89092302 8:-0.31967601 9:-0.85001302 10:-1.03708 14:1 16:1 #
0.50429650492720556886894200943061 1:-1.82284 2:-0.041551199 3:0.38718301 4:0.43552101 5:0.798971 6:-0.95183599 7:1.00299 8:0.69195801 9:-0.536452 10:-0.56584799 14:1 16:1 #
0.74753419022952793948633143372717 1:-3.2658 2:1.79921 3:1.05474 4:0.43081599 5:-1.0020601 6:-1.06471 7:-1.16362 8:-1.43247 9:0.142932 10:-0.88226801 14:1 24:1 #
0.65293856922589432745240856093005 1:-0.50132197 2:-1.31043 3:-0.0133511 4:-0.41133901 5:-0.59039497 6:-0.64784402 7:-0.34180099 8:-0.62316602 9:0.0122812 10:0.048867598 13:1 45:1 #
0.070131239834676672995072976846131 1:-1.75855 2:0.199714 3:0.52069402 4:1.13183 5:2.58285 6:-0.86782098 7:0.48001501 8:1.24836 9:0.169062 10:-1.0401 14:1 16:1 #
0.21992873203225013489792161180958 1:-1.9299901 2:1.7456 3:1.4552701 4:-0.37369999 5:0.76466602 6:-0.97364098 7:-1.64923 8:-1.68538 9:0.29971299 10:-0.707066 14:1 24:1 #
0.0052855938537637921909029259381896 1:-1.8049901 2:1.3703001 3:-1.08144 4:-0.44427201 5:-0.62470001 6:-1.3712699 7:-0.34180099 8:0.64137602 9:0.79618502 10:-0.64967299 14:1 24:1 #
0.22791499142771440289401141399139 1:-1.8049901 2:1.3971 3:-0.28037399 4:-1.26761 5:-0.79622602 6:-1.06407 7:-0.90212899 8:0.38846701 9:1.05749 10:-0.99781001 13:1 31:1 #
0.29057378115448806443765761287068 1:-3.45153 2:1.81709 3:2.52336 4:0.14382499 5:1.63945 6:-1.33407 7:-2.2469201 8:-3.2028301 9:-0.30127999 10:-0.83771199 14:1 19:1 #
0.2621528347205266951114310813864 1:-1.98 2:-0.55088902 3:0.38718301 4:-0.56189102 5:0.40446001 6:-1.29559 7:1.18976 8:-0.522003 9:-1.29423 10:-1.22285 13:1 17:1 #
0.12478278517096307032030466643846 1:-2.09429 2:0.32481501 3:0.12016 4:-1.26761 5:-0.79622602 6:-1.09934 7:0.181173 8:1.4001 9:0.53488398 10:-0.73576301 13:1 17:1 #
0.28963651919718291782857022553799 1:-1.31567 2:-0.68492502 3:0.12016 4:-0.63716799 5:-0.64185202 6:0.37572601 7:1.00299 8:-0.62316602 9:-1.16357 10:-0.728966 13:1 25:1 #
0.24798793264934917979225303952262 1:-2.13715 2:1.66518 3:-0.68090802 4:-0.50543398 5:0.59313899 6:-0.66066998 7:-0.416511 8:0.13555899 9:0.561014 10:-1.2221 14:1 24:1 #
0.62985659648682601474689590759226 1:-0.38345599 2:1.3256201 3:-0.54739702 4:0.204987 5:0.181475 6:-0.365015 7:-0.75270802 8:0.59079403 9:1.05749 10:-0.306822 13:1 27:1 #
0.029661777706777889968003947274156 1:-2.95507 2:-1.31936 3:1.85581 4:-0.32194799 5:-1.61955 6:-1.07112 7:-1.35039 8:-2.54527 9:-0.51032102 10:-1.01518 14:1 24:1 #
0.40122434040824328516094965380034 1:-2.7336199 2:-1.28362 3:-0.54739702 4:0.063843802 5:0.901887 6:-1.20645 7:-0.080313802 8:-0.16793101 9:0.090671502 10:-0.95854098 14:1 24:1 #
0.65247823458161546827938082060427 1:-3.4265299 2:-0.84576899 3:-0.146862 4:-0.13846201 5:0.54168099 6:-1.3148299 7:0.66679102 8:-0.62316602 9:-0.823883 10:-0.83469099 14:1 15:1 #
0.31588212074201454937494304431311 1:-1.85856 2:1.1201 3:-0.68090802 4:-1.12646 5:-0.77907401 6:-0.32076299 7:-0.60328698 8:0.89428401 9:1.10975 10:-1.3127199 13:1 30:1 #
0.43173342062548836217672487691743 1:-0.75133902 2:1.81709 3:0.52069402 4:0.75544602 5:0.130017 6:-0.27073899 7:-0.82741898 8:-1.02782 9:0.142932 10:0.21878301 13:1 24:1 #
0.46137125055636951653781352433725 1:-3.1658001 2:1.79028 3:2.79039 4:0.25203499 5:-0.64185202 6:-1.2212 7:-2.5831201 8:-3.45574 9:-0.24902 10:-0.74482501 14:1 19:1 #
0.55093006625885998506220175841008 1:-0.919209 2:1.56688 3:2.25634 4:-0.19491901 5:0.76466602 6:-0.31755701 7:-2.8819599 8:-1.88771 9:1.03136 10:0.41512901 13:1 24:1 #
0.2981246390105802279713032021391 1:-1.99429 2:1.05755 3:1.3217601 4:-1.12646 5:-0.69331002 6:-1.29238 7:-2.3963399 8:0.69195801 9:2.1549499 10:-1.25079 13:1 28:1 #
0.38697572515854888886011053727998 1:-1.10136 2:-1.36404 3:0.92122799 4:-0.98532099 5:-0.24734101 6:-0.58948201 7:-0.939484 8:-1.43247 9:-0.0399791 10:-0.17768601 13:1 27:1 #
0.18964566415703038027018578759453 1:-1.16208 2:1.45072 3:-0.413885 4:-1.12646 5:-0.76192099 6:-0.032162901 7:-0.82741898 8:0.33788601 9:0.95296597 10:0.433254 13:1 31:1 #
0.4262671255936377745499044067401 1:-2.6871901 2:-0.79215401 3:2.3898499 4:-0.95238799 5:-0.36741 6:-1.07305 7:0.74150199 8:-3.2534101 9:-2.8359001 10:-0.78031898 14:1 18:1 #
0.30316045153066739636926740786294 1:-1.84785 2:1.29881 3:0.92122799 4:0.25674 5:-0.91629499 6:-0.89155 7:-2.02279 8:0.13555899 9:1.65848 10:-1.42373 14:1 24:1 #
0.49022648816567881979722187679727 1:-2.04072 2:-1.3908499 3:-0.81441897 4:-0.98532099 5:-0.69331002 6:-1.3840899 7:-0.117669 8:0.13555899 9:0.32584301 10:-1.23041 13:1 24:1 #
0.75940023294071246073855263603036 1:-2.51932 2:0.342686 3:0.52069402 4:-1.12646 5:-0.81337899 6:-0.456085 7:0.069107197 8:1.45068 9:0.58714402 10:-0.738029 14:1 15:1 #
0.016790859900577239510743865480435 1:-1.02636 2:-0.836833 3:-0.68090802 4:-1.26761 5:-0.79622602 6:-0.214302 7:0.59208101 8:-0.11735 9:-0.45806101 10:-0.165603 13:1 31:1 #
0.18427316433793408667618507479347 1:-3.49439 2:-1.11384 3:2.3898499 4:-0.420748 5:1.36501 6:-1.39179 7:-0.67799801 8:-3.5569 9:-1.73844 10:-0.81958801 14:1 19:1 #
0.56936382970305499107155355886789 1:-2.4407499 2:0.86096001 3:-1.61549 4:-0.56189102 5:-0.17873099 6:-0.39066899 7:0.069107197 8:0.84370297 9:0.561014 10:-0.809771 14:1 16:1 #
0.49144615158152621381404401290638 1:-2.42646 2:1.78134 3:1.05474 4:-0.95238799 5:-0.075814798 6:-0.500337 7:-1.2756799 8:-1.43247 9:0.221322 10:-0.95174402 14:1 20:1 #
0.55612801096425523716959560260875 1:-1.90142 2:0.583951 3:0.78771698 4:0.57195997 5:1.89674 6:-0.86525601 7:-0.71535301 8:1.55185 9:1.31879 10:-1.20095 14:1 24:1 #
0.83067266928007821302770707916352 1:-1.20137 2:-1.35511 3:0.78771698 4:0.063843802 5:1.55369 6:-1.01661 7:-0.86477399 8:-1.3818901 9:-0.066109203 10:-1.19718 13:1 47:1 #
0.086500772154666547009149724090094 1:-2.7300501 2:1.4149801 3:2.9238999 4:-1.12646 5:-0.55608898 6:-1.09934 7:-4.0026102 8:-1.83713 9:1.763 10:-1.10807 14:1 24:1 #
0.6066751058047317179955371102551 1:-1.02279 2:-0.95299798 3:0.65420598 4:-1.26761 5:-0.79622602 6:-0.146962 7:0.44266 8:-1.3818901 9:-1.13744 10:0.46874699 13:1 24:1 #
0.56764550656138168527320431167027 1:-2.0335701 2:1.6741101 3:1.3217601 4:0.84954101 5:2.3255601 6:-0.86525601 7:-1.72394 8:-1.33131 9:0.58714402 10:-0.72594601 14:1 24:1 #
0.38431344246182280732782032828254 1:-2.1835799 2:-1.0423599 3:1.5887901 4:-0.98532099 5:-0.69331002 6:-1.39179 7:-0.042958502 8:-2.4946899 9:-1.50327 10:-1.3353699 13:1 24:1 #
0.74617056825179262080638409315725 1:-3.3336699 2:1.30775 3:-0.146862 4:0.204987 5:-1.32796 6:-1.10127 7:-1.12626 8:0.489631 9:1.26653 10:-0.83242601 14:1 15:1 #
0.41967779473325467209932071455114 1:-2.4800301 2:-0.58663201 3:-1.48198 4:-0.56189102 5:-0.00720412 6:-0.53817499 7:0.44266 8:0.54021198 9:0.090671502 10:-1.20095 14:1 24:1 #
0.46173171885389641122543480378226 1:-2.0978601 2:1.11116 3:1.3217601 4:-0.36429101 5:1.1248699 6:-0.55805701 7:-2.4336901 8:0.59079403 9:2.1288199 10:-0.885288 14:1 16:1 #
0.34270099799667619322462996933609 1:-1.7407 2:-1.35511 3:0.38718301 4:-0.37369999 5:-0.41886801 6:-0.87230998 7:-0.60328698 8:-0.87607503 9:0.064541399 10:-1.3127199 14:1 20:1 #
0.47863310337324260768099293272826 1:-2.5228901 2:1.3971 3:1.7223001 4:-0.98532099 5:-0.57324201 6:-0.491999 7:-2.7325399 8:-0.72433001 9:1.63235 10:-0.94721299 14:1 20:1 #
0.34731022558799412580654575322114 1:-1.23709 2:-0.64918202 3:0.12016 4:0.120301 5:1.0048 6:-0.568959 7:1.0403399 8:-0.57258499 9:-1.1897 10:-0.15352 13:1 16:1 #
0.057995313117125149582342658050038 1:-1.26923 2:-0.72960401 3:0.253672 4:0.035615101 5:0.850429 6:-0.57793802 7:0.96563298 8:-0.77491099 9:-1.21583 10:-0.176176 13:1 16:1 #
0.52964521050839219462602613930358 1:-1.98 2:0.056742001 3:0.12016 4:-0.56189102 5:-0.95060003 6:-1.50723 7:0.77885699 8:0.99544799 9:-0.17062999 10:-1.28629 13:1 18:1 #
0.13318668494922372702582435977092 1:-1.6014 2:1.55795 3:0.12016 4:-0.82065398 5:-0.315952 6:-1.36101 7:-1.12626 8:-0.16793101 9:0.90070599 10:-0.25849 14:1 24:1 #
0.13719881746244402820344987503631 1:-0.80491501 2:1.60263 3:1.5887901 4:-0.420748 5:1.0048 6:-0.64976799 7:-2.2469201 8:-1.43247 9:0.87457502 10:-0.060633302 13:1 27:1 #
0.55749213884182435840841662866296 1:-1.81213 2:0.79840899 3:0.253672 4:-0.16669001 5:-0.76192099 6:-0.88898498 7:-1.01419 8:1.4001 9:1.52783 10:-1.46376 14:1 20:1 #
0.61502156362577897752430544642266 1:-3.6551199 2:1.6741101 3:3.05741 4:-0.547777 5:0.696055 6:-1.43027 7:-3.3675799 8:-3.3545799 9:0.37810299 10:-0.94343698 14:1 19:1 #
0.380400248477212987729956239491 1:-0.74062401 2:-1.09597 3:1.98932 4:-0.32194799 5:0.97049701 6:-0.69850898 7:-0.416511 8:-3.05109 9:-1.60779 10:-1.04388 13:1 47:1 #
0.38876210756141160729271177842747 1:-1.29781 2:0.083549298 3:-0.94793099 4:-1.26761 5:-0.79622602 6:0.44819599 7:0.55472499 8:0.99544799 9:0.169062 10:-0.54243702 13:1 24:1 #
0.59941401972638874706689193772036 1:-3.1408 2:-1.27469 3:0.65420598 4:-1.12646 5:-0.79622602 6:-1.3840899 7:-0.52857703 8:-1.33131 9:-0.27515 10:-1.1186399 14:1 29:1 #
0.55190503678825109101779844422708 1:-1.0120699 2:-0.184523 3:-0.81441897 4:0.0026817201 5:0.78181797 6:-0.375918 7:0.77885699 8:0.69195801 9:-0.17062999 10:0.49064699 13:1 18:1 #
0.64031793559446636976417721598409 1:-1.19066 2:1.3256201 3:0.253672 4:0.477864 5:1.36501 6:-0.30473 7:-1.4251 8:0.33788601 9:1.39718 10:-0.91474003 13:1 16:1 #
0.092624319203128774313782400895434 1:-3.3408101 2:1.48646 3:1.05474 4:-0.19491901 5:0.30154401 6:-1.15321 7:-1.98543 8:-0.57258499 9:1.26653 10:-1.00612 14:1 24:1 #
0.58815669145830518083073457091814 1:-2.6371901 2:-1.35511 3:3.05741 4:-0.95238799 5:-0.315952 6:-0.98454398 7:-2.4336901 8:-4.0121398 9:-0.71936202 10:-0.67459399 14:1 24:1 #
0.64108309484870706906889381571091 1:-1.92285 2:1.42391 3:-1.21495 4:1.06126 5:0.52452803 6:-0.95632499 7:-0.229735 8:0.64137602 9:0.66553402 10:-0.48881999 14:1 24:1 #
0.44429299515255865626883746699605 1:-1.80141 2:-0.23813801 3:0.38718301 4:-1.26761 5:-0.79622602 6:-0.74468499 7:1.26448 8:0.186141 9:-1.03292 10:-0.29171801 13:1 34:1 #
0.0031630907922099477276589585272859 1:-1.82284 2:1.6205 3:-0.413885 4:0.81660801 5:2.2741001 6:-0.93580198 7:-0.60328698 8:0.084977202 9:0.66553402 10:-0.77050102 14:1 20:1 #
0.17063036471913303748770829315617 1:-2.10501 2:-0.559825 3:1.1882499 4:-1.0700099 5:-0.59039497 6:-0.978131 7:1.3765399 8:-1.33131 9:-2.0258701 10:-0.38687 14:1 19:1 #
0.29724682856895801030816528509604 1:-3.22294 2:1.57582 3:1.85581 4:-0.105528 5:0.59313899 6:-1.12756 7:-2.5084 8:-1.53364 9:1.0052299 10:-1.01744 14:1 24:1 #
0.22307862425658886440515971116838 1:-1.82284 2:1.78134 3:1.05474 4:-1.12646 5:-0.57324201 6:-0.71838999 7:-1.2756799 8:-1.48306 9:0.19519199 10:-0.95703 13:1 24:1 #
0.36820502417481654200415164268634 1:-2.9586401 2:-1.37298 3:2.25634 4:-0.44427201 5:-1.63671 6:-1.08523 7:-1.8733701 8:-2.8993399 9:-0.35354099 10:-1.03708 14:1 24:1 #
0.53902953954678844983305907589965 1:-1.41924 2:-0.45259601 3:1.98932 4:-0.82065398 5:-0.71046299 6:-0.26625001 7:1.56332 8:-1.6348 9:-2.5746 10:-1.07408 13:1 24:1 #
0.11516707951097096551684728638065 1:-2.7514801 2:-0.98874098 3:0.78771698 4:-0.50543398 5:0.81612301 6:-1.29238 7:0.330594 8:-1.5842201 9:-1.1897 10:-1.11033 14:1 24:1 #
0.1117941730209024986386623368162 1:-1.7907 2:-0.71173298 3:-0.28037399 4:-0.68421501 5:-0.60754699 6:-1.35203 7:0.853567 8:-0.31967601 9:-0.823883 10:-0.62022102 14:1 25:1 #
0.13253610140741456380197860198678 1:-1.8407 2:0.20864999 3:-0.413885 4:-1.26761 5:-0.79622602 6:-1.15321 7:0.48001501 8:1.19777 9:0.27358201 10:-1.00536 13:1 18:1 #
0.38938929484504342104500551613455 1:-1.83713 2:-0.28281701 3:0.65420598 4:0.32731101 5:0.73035997 6:-1.01405 7:1.3765399 8:-0.066767797 9:-1.29423 10:-0.47069499 14:1 20:1 #
0.38737182184933161011031188536435 1:-1.46568 2:-1.06023 3:0.253672 4:-0.98532099 5:-0.77907401 6:-1.36101 7:0.218528 8:-1.02782 9:-0.66710198 10:-0.46918499 13:1 31:1 #
0.27258135999539268023994509348995 1:-1.69426 2:-1.3908499 3:-0.68090802 4:-1.26761 5:-0.79622602 6:-0.463781 7:-0.229735 8:-0.066767797 9:0.29971299 10:-0.85734701 13:1 18:1 #
0.46312962295562332126763749329257 1:-2.3978901 2:1.1915801 3:2.3898499 4:-0.063185103 5:2.11973 6:-1.01661 7:-3.62906 8:-0.31967601 9:2.3639901 10:-0.672328 14:1 24:1 #
0.39675721016048798306385947398667 1:-1.7657 2:1.66518 3:-1.48198 4:-0.82065398 5:-1.03636 6:-0.81010097 7:0.031752001 8:0.59079403 9:0.430363 10:-0.42689499 13:1 18:1 #
0.5189302355129319366255913337227 1:-1.70498 2:0.217586 3:-1.8825099 4:1.02832 5:1.36501 6:-0.95632499 7:0.25588301 8:0.74253899 9:0.37810299 10:-0.46087801 14:1 20:1 #
0.67071860298284557977410713647259 1:-3.2372301 2:-1.23894 3:2.3898499 4:0.17205399 5:2.70292 6:-1.32445 7:-1.38775 8:-3.40516 9:-1.11131 10:-0.860367 14:1 19:1 #
0.60772431352889277889062213944271 1:-1.45496 2:0.73585898 3:1.7223001 4:-1.26761 5:-0.79622602 6:0.28593901 7:-1.91072 8:1.4001 9:1.94591 10:-0.75766301 13:1 18:1 #
0.36261853327654519629774654276844 1:-0.76205403 2:-0.54195303 3:-0.146862 4:0.289673 5:-0.77907401 6:-1.02302 7:1.0403399 8:-0.11735 9:-0.85001302 10:-1.1775399 13:1 25:1 #
0.5975363247473325367664642726595 1:-1.02993 2:0.75373101 3:1.7223001 4:-1.0700099 5:-0.60754699 6:-0.55164301 7:-2.02279 8:1.34952 9:2.0243001 10:-0.47598201 13:1 18:1 #
0.57332926960495689261421148330555 1:-3.7337 2:1.81709 3:0.65420598 4:-0.420748 5:0.28439099 6:-1.40911 7:-0.86477399 8:-1.0784 9:0.142932 10:-0.92908901 14:1 19:1 #
0.56427463160777469042272969090845 1:-2.5729001 2:-0.38111001 3:2.25634 4:-0.95238799 5:-0.17873099 6:-1.04483 7:1.56332 8:-1.53364 9:-2.6268599 10:-0.74784601 14:1 18:1 #
0.58542023729961956135525724675972 1:-1.74427 2:-1.18533 3:1.05474 4:-0.50543398 5:-0.058662102 6:-0.91079003 7:-0.416511 8:-1.78655 9:-0.71936202 10:-0.67459399 13:1 18:1 #
0.67781409858660790490603176294826 1:-2.4800301 2:-0.086230002 3:0.38718301 4:-0.36429101 5:-0.12727299 6:-1.3417701 7:1.0777 8:0.59079403 9:-0.66710198 10:-0.95476502 14:1 17:1 #
0.60878007773856912532295382334269 1:-1.21209 2:1.47753 3:-0.54739702 4:-0.420748 5:0.83327597 6:-0.73185802 7:-0.71535301 8:0.33788601 9:0.87457502 10:-0.33098701 13:1 47:1 #
0.59234330055375084000957031094003 1:-1.47996 2:-1.21213 3:2.3898499 4:-0.75949198 5:-1.2765 6:-0.96530402 7:-1.2009701 8:-3.45574 9:-1.24196 10:-0.56131703 13:1 24:1 #
0.56083505096950059254368170513771 1:-2.6264701 2:-1.19426 3:1.7223001 4:0.72721702 5:2.1883399 6:-1.19426 7:-0.71535301 8:-2.54527 9:-0.98066401 10:-1.35199 14:1 24:1 #
0.35210707640789334904596330488857 1:-1.15494 2:-1.23001 3:-1.08144 4:0.51550198 5:1.26209 6:-0.52534902 7:0.14381801 8:0.186141 9:0.169062 10:-0.14823399 13:1 16:1 #
0.12790482491085539140662774570956 1:-1.95857 2:0.49459401 3:1.1882499 4:-1.26761 5:-0.79622602 6:-0.54587102 7:-0.640643 8:1.55185 9:1.10975 10:-1.06276 13:1 30:1 #
0.52082929508354858239016493826057 1:-0.96206897 2:1.79028 3:0.253672 4:-0.75949198 5:-0.24734101 6:-0.228411 7:-0.75270802 8:-0.72433001 9:0.27358201 10:0.39625001 13:1 16:1 #
0.24230945032579445652665128818626 1:-2.3371699 2:1.18265 3:0.78771698 4:-0.50543398 5:0.181475 6:-0.91976899 7:-1.98543 8:0.489631 9:1.8152601 10:-0.72518998 14:1 25:1 #
0.25160392722324070868822332158743 1:-0.71205097 2:-0.61343902 3:0.92122799 4:-0.27019501 5:0.31869599 6:-0.77610999 7:1.22712 8:-1.12898 9:-1.76457 10:-1.1435601 13:1 38:1 #
0.0035691462751883092432980681962817 1:-1.36924 2:0.0478063 3:0.38718301 4:-1.26761 5:-0.79622602 6:-0.54522997 7:0.853567 8:0.944866 9:-0.30127999 10:0.50952703 13:1 31:1 #
0.33541878440600886301936611744168 1:-2.20859 2:-0.64024699 3:-1.21495 4:-1.26761 5:-0.79622602 6:-1.18464 7:0.55472499 8:0.38846701 9:-0.092239402 10:-0.41934299 14:1 15:1 #
0.58290674578939705163804774201708 1:-1.46568 2:0.1461 3:1.7223001 4:-1.26761 5:-0.79622602 6:0.163444 7:0.51736999 8:0.84370297 9:-0.37967101 10:-0.838467 13:1 18:1 #
0.2112463639949232752091035081321 1:-1.69069 2:-1.33724 3:0.78771698 4:-1.12646 5:-0.60754699 6:-0.157223 7:-0.82741898 8:-1.3818901 9:-0.118369 10:-0.87924701 13:1 24:1 #
0.71375617509521904757718857581494 1:-2.2514501 2:0.306943 3:1.5887901 4:-0.82065398 5:0.42161199 6:-0.46570501 7:-0.080313802 8:1.2989399 9:0.37810299 10:-0.81958801 14:1 16:1 #
0.60905033612255576880301077835611 1:-3.0729301 2:-1.14065 3:2.6568799 4:0.035615101 5:-0.19588301 6:-1.20324 7:-0.97684002 8:-3.96156 9:-1.7907 10:-0.72518998 14:1 15:1 #
0.64765667379715552431918013098766 1:-1.40139 2:-0.300688 3:0.52069402 4:0.52961701 5:1.1248699 6:-1.04419 7:1.33919 8:-0.066767797 9:-1.24196 10:-0.69347298 13:1 18:1 #
0.6353623410240755164934967069712 1:-3.43367 2:-0.908319 3:2.79039 4:0.14853001 5:1.45077 6:-1.31098 7:0.181173 8:-3.96156 9:-2.8359001 10:-0.78409398 14:1 19:1 #
0.52366519950652767878551685498678 1:-2.04072 2:1.26307 3:-1.21495 4:-0.67010099 5:-0.213036 6:-1.35716 7:-0.26708999 8:0.74253899 9:0.770055 10:-1.28629 13:1 17:1 #
0.64175672703431729804179894927074 1:-2.54075 2:-1.1317101 3:-1.08144 4:0.78837901 5:1.3821599 6:-1.11473 7:0.218528 8:0.186141 9:0.064541399 10:-1.41391 14:1 16:1 #
0.24115598275787789028790086831577 1:-2.3336 2:1.05755 3:-0.413885 4:-1.26761 5:-0.79622602 6:-0.68055201 7:-0.82741898 8:0.99544799 9:1.29266 10:-0.489575 14:1 24:1 #
0.51079793326212152848597725096624 1:-1.05493 2:1.42391 3:1.05474 4:-1.12646 5:-0.53893697 6:-0.66131198 7:-2.13485 8:-0.42084 9:1.44944 10:-0.97364402 13:1 34:1 #
0.73323079488455600305485404533101 1:-1.90142 2:-0.86364001 3:2.6568799 4:-0.75949198 5:-0.96775299 6:-1.09614 7:0.40530401 8:-3.7592299 9:-2.88816 10:-0.99856502 13:1 24:1 #
0.086391960062600262060250599915889 1:-1.20851 2:-0.94406199 3:-0.413885 4:-0.75949198 5:-0.62470001 6:-0.148886 7:0.48001501 8:-0.370258 9:-0.484191 10:0.481585 13:1 38:1 #
0.18717627903932046451451753910078 1:-3.1586499 2:1.15584 3:1.7223001 4:0.233216 5:-0.60754699 6:-1.18464 7:-2.9193101 8:0.186141 9:2.2072101 10:-0.74256003 14:1 15:1 #
0.47401345923688786854199861409143 1:-1.7121201 2:1.81709 3:-0.0133511 4:-0.84417802 5:-0.65900499 6:-1.31675 7:-0.52857703 8:-0.522003 9:0.24745201 10:-0.60662699 14:1 25:1 #
0.45465102521215233766227470368904 1:-1.83356 2:0.40523601 3:0.38718301 4:-1.26761 5:-0.79622602 6:-0.282924 7:-0.080313802 8:1.50126 9:0.770055 10:-1.33084 13:1 16:1 #
0.55614935695837974805044723325409 1:-1.93357 2:-0.16665199 3:-0.413885 4:1.70111 5:1.1248699 6:-1.0319999 7:0.92827803 8:0.64137602 9:-0.35354099 10:-0.62097597 14:1 20:1 #
0.30161101608129842199801373681112 1:-2.97293 2:0.60182297 3:0.253672 4:-0.56189102 5:0.28439099 6:-1.12243 7:-0.52857703 8:1.50126 9:1.21427 10:-0.75313199 14:1 15:1 #
0.6550889488478517375114051901619 1:-3.1693699 2:-1.35511 3:2.9238999 4:0.45434001 5:-0.65900499 6:-1.23531 7:-2.2469201 8:-3.7592299 9:-0.693232 10:-0.73576301 14:1 19:1 #
0.21660676590399824403831985364377 1:-2.03 2:-0.79215401 3:1.7223001 4:-0.75949198 5:0.0271012 6:-1.13397 7:0.853567 8:-2.4441099 9:-2.3132999 10:-1.16093 14:1 17:1 #
0.50870707236890333469148117728764 1:-1.79427 2:-1.35511 3:0.253672 4:-0.251376 5:0.93619198 6:-1.12243 7:-0.52857703 8:-0.77491099 9:0.090671502 10:-0.94268203 13:1 24:1 #
0.74714265824581183039754250785336 1:-1.0692199 2:1.26307 3:3.59146 4:-0.56189102 5:0.73035997 6:-0.41888699 7:-5.0485601 8:-1.6348 9:2.41625 10:-0.49863699 13:1 27:1 #
0.24900393626901201615808645328798 1:-1.99071 2:1.64731 3:2.3898499 4:-0.82065398 5:-0.00720412 6:-1.15321 7:-2.8446 8:-2.4441099 9:0.639404 10:-0.91776103 13:1 24:1 #
0.56353461423587447587379983815481 1:-1.8407 2:1.06648 3:-0.413885 4:0.52961701 5:2.4456301 6:-0.52791399 7:-0.79006398 8:0.99544799 9:1.26653 10:-1.13752 14:1 20:1 #
0.55511194208003089567426968642394 1:-3.0515001 2:-1.10491 3:1.4552701 4:0.43081599 5:-0.092967398 6:-1.27314 7:-0.26708999 8:-2.2923601 9:-1.1897 10:-0.791646 14:1 19:1 #
0.43584248857209201277740362456825 1:-3.47296 2:1.54008 3:1.85581 4:0.25203499 5:1.4679199 6:-1.31419 7:-2.62047 8:-1.3818901 9:1.16201 10:-0.775787 14:1 19:1 #
0.45980196686115748505585543171037 1:-0.77276897 2:1.33455 3:0.78771698 4:0.449635 5:1.4679199 6:-0.31948099 7:-1.8733701 8:0.084977202 9:1.55396 10:0.29958701 13:1 24:1 #
0.65446645749350096377128238600562 1:-1.88713 2:1.01287 3:1.4552701 4:0.035615101 5:2.0339601 6:-0.70876998 7:-2.4336901 8:0.84370297 9:2.2072101 10:-1.03708 14:1 15:1 #
0.48516794324504325386371306194633 1:-3.1658001 2:1.6294301 3:1.7223001 4:-0.105528 5:-1.9797601 6:-1.1179399 7:-2.32163 8:-1.73596 9:0.74392498 10:-1.01895 14:1 24:1 #
0.71087105960657492875753860062105 1:-1.69069 2:0.50353003 3:0.38718301 4:1.36707 5:3.20034 6:-0.88770199 7:-0.304445 8:1.55185 9:1.0052299 10:-0.98874801 14:1 16:1 #
0.51540587541694671269709715488716 1:-2.31217 2:-1.33724 3:-0.146862 4:-1.12646 5:-0.71046299 6:-0.75494599 7:-0.34180099 8:-0.471421 9:0.116802 10:-1.33084 14:1 30:1 #
0.60633535651909808983361926948419 1:-2.13715 2:-0.48833901 3:1.05474 4:-1.12646 5:-0.81337899 6:-1.12949 7:1.4139 8:-0.92665702 9:-1.84296 10:-0.75313199 13:1 30:1 #
0.36245692834663661985317162361753 1:-1.68355 2:1.79028 3:-0.28037399 4:0.84954101 5:0.38730699 6:-1.2455699 7:-0.416511 8:-0.218513 9:0.32584301 10:-0.77050102 14:1 20:1 #
0.46834666782468448165133168004104 1:-1.71927 2:0.968189 3:-0.94793099 4:0.45434001 5:0.76466602 6:-0.98775101 7:-0.37915599 8:1.04603 9:1.0052299 10:-1.28629 14:1 16:1 #
0.40113473174455638314839234226383 1:-0.83348799 2:1.6294301 3:1.4552701 4:-0.279605 5:1.14202 6:-0.67734498 7:-2.0601399 8:-1.43247 9:0.79618502 10:-0.0311813 13:1 27:1 #
0.17697214956471041258367904447368 1:-1.52282 2:-0.67598999 3:-0.68090802 4:-1.26761 5:-0.79622602 6:-1.31098 7:0.77885699 8:-0.016186099 9:-0.536452 10:-0.231304 13:1 24:1 #
0.18678678383447813726725428296049 1:-2.2621601 2:-1.36404 3:1.5887901 4:-0.24196699 5:1.43362 6:-1.00827 7:-1.31304 8:-2.09004 9:-0.22289 10:-1.06276 14:1 20:1 #
0.51190620929238972447450350955478 1:-1.73712 2:0.61075902 3:1.3217601 4:-1.12646 5:-0.81337899 6:-0.563829 7:-1.2009701 8:1.55185 9:1.52783 10:-0.65420401 13:1 30:1 #
0.21591773197555069740971589453693 1:-2.1800101 2:-1.15852 3:0.65420598 4:-0.56189102 5:0.33584899 6:-0.67413801 7:-0.15502401 8:-1.33131 9:-0.614842 10:-0.67459399 14:1 25:1 #
0.36343405889638508154959595231048 1:-1.8657 2:1.81709 3:0.78771698 4:0.14382499 5:1.10772 6:-0.54074103 7:-0.939484 8:-1.1795599 9:0.116802 10:-1.2002 14:1 24:1 #
0.1370181097864800467966972519207 1:-2.01929 2:1.34349 3:-1.34846 4:-0.13846201 5:0.061406501 6:-0.94798797 7:-0.15502401 8:0.69195801 9:0.66553402 10:-0.30984199 14:1 25:1 #
0.43679895272990620913589054907789 1:-0.90492201 2:-0.425789 3:-0.81441897 4:-0.27019501 5:-0.86483699 6:-0.23995499 7:0.853567 8:0.38846701 9:-0.37967101 10:0.54124397 13:1 46:1 #
0.61979306921257193430108145548729 1:-2.24787 2:-1.23001 3:-1.48198 4:-1.12646 5:-0.91629499 6:-1.31675 7:0.181173 8:0.489631 9:0.27358201 10:-1.25457 13:1 28:1 #
0.3640299870893704548002745013946 1:-1.86928 2:0.99499601 3:-0.28037399 4:-0.19491901 5:-1.01921 6:-0.86525601 7:-0.86477399 8:1.09661 9:1.37105 10:-1.42751 14:1 24:1 #
0.66974267690850153300630154262763 1:-3.0229299 2:-1.14065 3:1.85581 4:-0.129052 5:-1.9454499 6:-1.06856 7:-0.56593198 8:-2.7981801 9:-1.3203599 10:-0.994789 14:1 24:1 #
0.46206894887494154300355830855551 1:-2.65505 2:-0.872576 3:0.78771698 4:0.120301 5:2.0339601 6:-1.27507 7:0.66679102 8:-1.43247 9:-1.3987499 10:-1.23041 14:1 16:1 #
0.55859960780384587675229113301612 1:-2.3085899 2:1.50433 3:1.4552701 4:-0.279605 5:0.31869599 6:-0.83383 7:-2.28427 8:-0.92665702 9:1.2404 10:-0.76143903 14:1 25:1 #
0.52528434615040520139217505857232 1:-1.6264 2:-1.35511 3:-0.413885 4:1.24474 5:0.66175002 6:-1.2160701 7:-0.26708999 8:-0.218513 9:0.19519199 10:-0.800708 14:1 20:1 #
0.19016193989273966202802057523513 1:-1.7657 2:1.51327 3:0.52069402 4:-1.0700099 5:-0.60754699 6:-1.04547 7:-1.46246 8:-0.269095 9:1.05749 10:-1.02877 13:1 31:1 #
0.34731510240595242500205586111406 1:-3.3622401 2:1.50433 3:1.1882499 4:-1.26761 5:-0.79622602 6:-1.28789 7:-2.13485 8:-0.72433001 9:1.2404 10:-1.17981 14:1 24:1 #
0.47970966370848683313354854362842 1:-1.64783 2:1.28988 3:2.6568799 4:-0.86770201 5:-0.058662102 6:-1.0172499 7:-3.8905499 8:-0.977238 9:2.1810801 10:-1.06804 13:1 24:1 #
0.49869062330916763547961068070435 1:-0.99064201 2:-1.38191 3:-0.0133511 4:-0.75949198 5:-0.333105 6:-0.227128 7:-0.49122199 8:-0.522003 9:0.19519199 10:0.367553 13:1 16:1 #
0.57258106132455510728362924055546 1:-2.6764801 2:-0.75641102 3:2.6568799 4:-1.12646 5:-0.47032601 6:-1.2135 7:0.816212 8:-3.5569 9:-3.1494601 10:-0.78636003 14:1 15:1 #
0.7101086145139976490980870948988 1:-2.5371799 2:1.64731 3:0.78771698 4:-0.32194799 5:1.91389 6:-1.18015 7:-1.46246 8:-0.87607503 9:0.69166398 10:-1.27118 14:1 20:1 #
0.53276511324098674293736621621065 1:-3.3836701 2:-1.31043 3:0.12016 4:0.25674 5:0.33584899 6:-1.12243 7:-0.37915599 8:-0.72433001 9:-0.013849 10:-0.91776103 14:1 15:1 #
0.60685823681326001022284799546469 1:-3.2158 2:1.63837 3:2.52336 4:0.57195997 5:2.80583 6:-1.27635 7:-2.9193101 8:-2.4441099 9:0.69166398 10:-0.77050102 14:1 19:1 #
0.48922440806986400296807460108539 1:-1.51568 2:-0.86364001 3:1.5887901 4:-0.75949198 5:-0.36741 6:-0.325894 7:0.62943602 8:-2.4441099 9:-2.052 10:-1.04614 13:1 18:1 #
0.45442659233618332148552099170047 1:-0.354882 2:1.7187901 3:0.52069402 4:-0.105528 5:0.31869599 6:-0.39515799 7:-1.08891 8:-0.82549298 9:0.45649299 10:-0.213935 13:1 27:1 #
0.11432842739737129889032729579412 1:-1.10136 2:1.72773 3:1.5887901 4:-0.41133901 5:-0.041509401 6:-0.45351899 7:-1.79866 8:-1.78655 9:0.32584301 10:0.570696 13:1 24:1 #
0.451603313172380615991841068535 1:-3.1265099 2:-0.64024699 3:0.78771698 4:-1.12646 5:-0.60754699 6:-1.2160701 7:1.18976 8:-1.1795599 9:-1.71231 10:-0.94721299 14:1 24:1 #
0.6391626804662116079214229102945 1:-2.2121601 2:-0.15771601 3:1.1882499 4:-1.12646 5:-0.65900499 6:-1.35331 7:1.33919 8:0.084977202 9:-1.29423 10:-1.2689199 13:1 17:1 #
0.41905969173988705245292862855422 1:-2.1443 2:-0.25600901 3:0.253672 4:-1.12646 5:-0.69331002 6:-1.48799 7:1.22712 8:0.23672201 9:-0.95453399 10:-1.33689 13:1 16:1 #
0.47179272934921795412677170133975 1:-2.2050099 2:-1.36404 3:-0.54739702 4:0.035615101 5:0.55883402 6:-0.85627699 7:-0.19238 8:-0.11735 9:0.24745201 10:-0.89586103 14:1 19:1 #
0.291579141524679119612528666039 1:-1.75855 2:-1.3908499 3:-0.0133511 4:-1.26761 5:-0.79622602 6:-1.09806 7:-0.49122199 8:-0.522003 9:0.221322 10:-0.54847902 14:1 24:1 #
0.57705794446787006535259934025817 1:-3.2265201 2:0.59288698 3:1.1882499 4:0.063843802 5:-0.81337899 6:-1.13397 7:-0.97684002 8:1.55185 9:1.42331 10:-0.78031898 14:1 15:1 #
0.3090468178614448890861865493207 1:-2.0335701 2:0.52140099 3:-0.28037399 4:-0.56189102 5:-0.213036 6:-0.98390299 7:-0.117669 8:1.4001 9:0.90070599 10:-0.29549399 14:1 20:1 #
0.44532610027469932134636110276915 1:-0.95849699 2:-0.51514602 3:0.253672 4:-1.12646 5:-0.67615801 6:-0.64976799 7:1.18976 8:-0.370258 9:-1.21583 10:-0.489575 13:1 27:1 #
0.40243647636941087819550944004732 1:-2.0800099 2:-0.52408201 3:1.98932 4:-0.84417802 5:-0.12727299 6:-1.28212 7:1.48861 8:-1.88771 9:-2.6529901 10:-1.19189 13:1 17:1 #
0.51428638495469147784433516790159 1:-2.22644 2:1.59369 3:1.3217601 4:-1.0700099 5:-0.50463098 6:-0.67991 7:-2.0601399 8:-1.1795599 9:0.92683601 10:-1.33235 14:1 30:1 #
0.080523554587773354951352189345926 1:-2.1192901 2:1.1915801 3:1.5887901 4:-1.0700099 5:-0.67615801 6:-1.14231 7:-2.7698901 8:0.13555899 9:2.10269 10:-1.02877 14:1 24:1 #
0.33393988124139506457055404098355 1:-2.5264699 2:-0.16665199 3:0.12016 4:-0.75949198 5:-0.041509401 6:-0.51380497 7:1.11505 8:0.489631 9:-0.693232 10:-1.19038 14:1 24:1 #
0.5719538902288593407163830306672 1:-0.71919399 2:1.47753 3:-1.48198 4:0.186168 5:0.28439099 6:-0.34962299 7:-0.0056032902 8:0.64137602 9:0.53488398 10:0.210476 13:1 24:1 #
0.38129612092456283134467298623349 1:-2.15501 2:-0.77428299 3:1.05474 4:-0.41133901 5:0.67890197 6:-1.0583 7:0.92827803 8:-1.5842201 9:-1.73844 10:-0.809771 14:1 15:1 #
0.39501663991748126036895882862154 1:-2.69434 2:1.47753 3:-0.146862 4:0.129711 5:1.63945 6:-1.13782 7:-0.939484 8:0.186141 9:0.979096 10:-0.87698102 14:1 24:1 #
0.17312058090036297475222681896412 1:-2.0050001 2:-0.80109 3:0.253672 4:-1.26761 5:-0.79622602 6:-1.19618 7:0.816212 8:-0.87607503 9:-1.11131 10:-0.47598201 14:1 20:1 #
0.072151024349378062305859771186078 1:-1.98 2:-0.89044797 3:0.253672 4:-1.26761 5:-0.79622602 6:-1.00699 7:0.62943602 8:-0.977238 9:-1.00679 10:-0.67157298 14:1 20:1 #
0.64871892490368932016053804545663 1:-3.7872701 2:1.272 3:0.92122799 4:-1.26761 5:-0.79622602 6:-1.42129 7:-2.0975001 8:0.186141 9:1.7368701 10:-0.91096401 14:1 19:1 #
0.37990361013563361813893948237819 1:-3.52297 2:1.70092 3:-0.413885 4:-0.251376 5:-0.041509401 6:-1.1993901 7:-0.49122199 8:-0.016186099 9:0.50875401 10:-0.93588501 14:1 15:1 #
0.4225636645425280280008450972673 1:-1.69426 2:-1.1317101 3:1.05474 4:-0.44427201 5:-1.36226 6:-0.92233402 7:-0.19238 8:-1.83713 9:-0.902273 10:-0.566603 13:1 24:1 #
0.46736432495022445232635277534428 1:-1.24066 2:-1.37298 3:0.92122799 4:-0.84417802 5:-0.64185202 6:-0.39579901 7:-1.01419 8:-1.48306 9:-0.0399791 10:0.62582397 13:1 24:1 #
0.33911800982667128501191200484755 1:-1.15851 2:1.46859 3:0.65420598 4:0.035615101 5:1.53654 6:-0.96209699 7:-1.6118799 8:-0.218513 9:1.21427 10:-1.15564 13:1 47:1 #
0.35401078338250202559578383443295 1:-1.72641 2:1.70092 3:0.92122799 4:-0.16669001 5:-0.86483699 6:-1.14424 7:-1.4251 8:-1.12898 9:0.50875401 10:-0.43369201 14:1 24:1 #
0.64751070688221790128125121555058 1:-1.71927 2:-1.05129 3:2.3898499 4:-0.36429101 5:0.52452803 6:-0.79535002 7:-0.34180099 8:-3.50632 9:-1.99974 10:-0.78409398 13:1 18:1 #
0.53754251928560881079732780563063 1:-1.78713 2:-1.36404 3:0.65420598 4:1.02832 5:1.17633 6:-0.94862902 7:-0.82741898 8:-1.23015 9:0.0122812 10:-0.40801501 14:1 24:1 #
0.49800770082084261369814726094774 1:-1.77641 2:-1.29256 3:1.85581 4:-0.27019501 5:0.73035997 6:-0.99416399 7:-1.31304 8:-2.6970201 9:-0.64097202 10:-0.87698102 13:1 24:1 #
0.34256310739198431170038361415209 1:-1.47639 2:-0.82789701 3:0.52069402 4:-0.19491901 5:-0.76192099 6:-1.19683 7:0.77885699 8:-1.0784 9:-1.2681 10:-0.556786 13:1 18:1 #
0.37189401649788361714499274057744 1:-3.8301301 2:-1.27469 3:1.7223001 4:-0.82065398 5:-0.11012 6:-1.45272 7:-1.05155 8:-2.4441099 9:-0.66710198 10:-1.0333 14:1 19:1 #
0.2741980527592374206058423169452 1:-1.12637 2:-1.35511 3:-0.81441897 4:-1.26761 5:-0.79622602 6:-0.075773597 7:-0.080313802 8:0.084977202 9:0.27358201 10:0.38643199 13:1 31:1 #
0.58108072641410402070505369920284 1:-0.61204398 2:-0.91725498 3:0.38718301 4:0.34142601 5:0.798971 6:-0.85178798 7:0.55472499 8:-1.1795599 9:-1.08518 10:-1.21153 13:1 47:1 #
0.017725386618782257297510795979179 1:-0.87277699 2:-1.06916 3:-0.81441897 4:0.96245599 5:0.86758101 6:0.0576239 7:0.293239 8:-0.11735 9:-0.1445 10:-0.31739399 13:1 46:1 #
0.26139897337947576305694497023069 1:-2.1585801 2:0.65543699 3:0.253672 4:-1.0700099 5:-0.55608898 6:-1.32573 7:-0.640643 8:1.50126 9:1.29266 10:-1.01744 13:1 24:1 #
0.66192896171858672804688694668585 1:-1.12994 2:-1.14958 3:1.5887901 4:-1.12646 5:-0.57324201 6:-0.71390098 7:-0.49122199 8:-2.4441099 9:-1.11131 10:-0.92757797 13:1 34:1 #
0.41816900497944031744879112011404 1:-3.03722 2:-1.21213 3:2.25634 4:0.426112 5:0.078559197 6:-0.98903298 7:-1.12626 8:-3.3545799 9:-1.24196 10:-0.88226801 14:1 24:1 #
0.23794859574361029719291593664821 1:-2.3764601 2:1.51327 3:0.12016 4:-0.36429101 5:0.19862799 6:-0.52599001 7:-1.2009701 8:-0.066767797 9:1.0052299 10:-0.93588501 14:1 16:1 #
0.48271039505850188433555558731314 1:-2.24073 2:1.3971 3:0.253672 4:-1.0700099 5:-0.76192099 6:-1.33535 7:-1.4251 8:0.13555899 9:1.29266 10:-1.28176 13:1 28:1 #
0.4009031269325399882141880425479 1:-1.72998 2:1.81709 3:-0.413885 4:-1.0700099 5:-0.72761601 6:-0.93067199 7:-0.304445 8:-0.16793101 9:0.29971299 10:-0.91776103 13:1 31:1 #
0.26447755171643488880661720941134 1:-2.06215 2:-0.434724 3:-0.0133511 4:0.56725502 5:0.061406501 6:-1.16027 7:1.15241 8:-0.066767797 9:-0.98066401 10:-0.56584799 14:1 24:1 #
0.55000876354525085609736834157957 1:-2.76577 2:-0.65811801 3:1.7223001 4:-1.12646 5:-0.436021 6:-0.64912599 7:1.22712 8:-2.0394499 9:-2.41782 10:-1.09372 14:1 16:1 #
0.011866427099468258854475521957283 1:-1.04422 2:1.7634701 3:0.38718301 4:-1.12646 5:-0.64185202 6:-0.173898 7:-0.90212899 8:-0.82549298 9:0.32584301 10:0.42494699 13:1 24:1 #
0.32322873399601120825153088844672 1:-1.84785 2:-0.74747598 3:-1.61549 4:0.186168 5:0.798971 6:-0.73057598 7:0.330594 8:0.59079403 9:0.221322 10:-0.92757797 14:1 20:1 #
0.28405382716517535435230001894524 1:-1.1978 2:-1.16746 3:-0.68090802 4:1.02832 5:-0.230189 6:-0.50674999 7:0.14381801 8:-0.11735 9:-0.0399791 10:-0.085554197 13:1 24:1 #
0.48014458561171158290648008915014 1:-0.87277699 2:-1.09597 3:0.65420598 4:0.035615101 5:0.38730699 6:-0.13798299 7:0.031752001 8:-1.3818901 9:-0.79775298 10:0.227845 13:1 24:1 #
0.31968447202846428378819609861239 1:-2.67291 2:-0.88151199 3:3.05741 4:-0.56189102 5:-0.29879901 6:-1.09934 7:0.181173 8:-4.31563 9:-3.1494601 10:-0.81430203 14:1 24:1 #
0.47579485870272875125408518215409 1:-0.29773599 2:1.35243 3:-0.0133511 4:0.204987 5:0.59313899 6:-0.35282999 7:-1.16362 8:0.38846701 9:1.2404 10:-0.24187601 13:1 48:1 #
0.58256283448693935156370571348816 1:-3.88728 2:-1.06023 3:0.65420598 4:-0.703035 5:-0.29879901 6:-1.44951 7:0.14381801 8:-1.43247 9:-0.92840302 10:-0.92229199 14:1 16:1 #
0.52092686243874664064890112058492 1:-1.96928 2:-1.23894 3:2.79039 4:0.14382499 5:1.57084 6:-0.99480498 7:-1.57452 8:-3.91098 9:-1.29423 10:-0.96231699 14:1 24:1 #
0.076230623461427476916796308614721 1:-3.7658401 2:-1.36404 3:0.92122799 4:-0.56189102 5:0.130017 6:-1.43027 7:-0.939484 8:-1.43247 9:-0.0399791 10:-0.950234 14:1 16:1 #
0.65539934686987100231903013991541 1:-1.92642 2:0.32481501 3:1.3217601 4:0.120301 5:1.77667 6:-0.77867597 7:-0.080313802 8:1.34952 9:0.48262301 10:-1.12166 14:1 15:1 #
0.48091401566410374446292053107754 1:-0.71919399 2:1.77241 3:0.38718301 4:0.83072197 5:1.34786 6:-0.25983599 7:-0.82741898 8:-0.72433001 9:0.32584301 10:0.19310699 13:1 24:1 #
0.58228986857012510203190913671278 1:-1.77284 2:1.77241 3:-0.94793099 4:1.27297 5:1.89674 6:-0.90309399 7:-0.117669 8:0.23672201 9:0.37810299 10:-0.67081797 14:1 20:1 #
0.37916496248239539568203326780349 1:-2.11215 2:-0.84576899 3:-1.21495 4:-1.26761 5:-0.79622602 6:-0.844733 7:0.44266 8:0.28730401 9:-0.0399791 10:-0.86565399 14:1 30:1 #
0.23393588072813850664566359682794 1:-3.0014999 2:1.77241 3:1.7223001 4:-1.12646 5:-0.71046299 6:-1.19426 7:-1.79866 8:-2.1912 9:0.090671502 10:-1.2153 14:1 24:1 #
0.54310473559363570128510900758556 1:-0.294164 2:1.81709 3:-0.28037399 4:0.14853001 5:0.61029202 6:-0.37527701 7:-0.37915599 8:-0.269095 9:0.27358201 10:-0.197321 13:1 45:1 #
0.030894980725616076611128590911903 1:-1.25138 2:1.7634701 3:-1.34846 4:-1.12646 5:-0.81337899 6:-0.193138 7:0.031752001 8:0.489631 9:0.40423301 10:0.533692 13:1 31:1 #
0.48375679311002711679989829463011 1:-1.34424 2:1.8081501 3:-1.08144 4:-1.12646 5:-0.79622602 6:-0.421453 7:-0.042958502 8:0.28730401 9:0.351973 10:0.70738298 13:1 31:1 #
0.28941381515174691152481045719469 1:-2.2657299 2:-0.434724 3:0.65420598 4:-0.703035 5:-0.075814798 6:-0.73185802 7:1.3765399 8:-0.522003 9:-1.50327 10:-0.67836899 14:1 18:1 #
0.52874890560713461162833937123651 1:-1.67641 2:-1.28362 3:-0.81441897 4:-0.279605 5:-0.36741 6:-1.3417701 7:-0.0056032902 8:0.034395501 9:0.169062 10:-0.63305902 13:1 31:1 #
0.42297049885030979510247561847791 1:-1.2299401 2:1.8081501 3:0.52069402 4:-1.12646 5:-0.76192099 6:-0.658746 7:-0.86477399 8:-0.977238 9:0.19519199 10:-0.096126698 13:1 27:1 #
0.20299286178416697801196733053075 1:-1.1835099 2:1.33455 3:-0.413885 4:-1.12646 5:-0.60754699 6:-0.15145101 7:-0.90212899 8:0.54021198 9:1.13588 10:0.252011 13:1 24:1 #
0.17896271337780159105257382634591 1:-1.20851 2:1.37923 3:-0.413885 4:-1.26761 5:-0.79622602 6:-0.133494 7:-0.79006398 8:0.489631 9:1.03136 10:0.273911 13:1 24:1 #
0.31425446232516945910262506913568 1:-1.76213 2:0.056742001 3:-1.749 4:-1.26761 5:-0.79622602 6:-0.55484998 7:0.25588301 8:0.74253899 9:0.351973 10:-0.925313 13:1 18:1 #
0.36495796480017811402873917359102 1:-2.7514801 2:-0.95299798 3:2.3898499 4:-0.63716799 5:-0.19588301 6:-0.96851099 7:0.106462 8:-3.45574 9:-2.39169 10:-0.81430203 14:1 19:1 #
0.35784210700579255348685592252878 1:-1.98357 2:1.25413 3:0.38718301 4:-0.68421501 5:0.232933 6:-0.93644398 7:-1.57452 8:0.489631 9:1.55396 10:-0.27510399 14:1 20:1 #
0.67645366755942382130939449780271 1:-0.994214 2:1.07542 3:2.25634 4:-0.32194799 5:0.66175002 6:-0.59461302 7:-3.3675799 8:0.28730401 9:2.4685099 10:-0.72594601 13:1 27:1 #
0.29663789147485891684041803273431 1:-1.41924 2:-0.89938301 3:-0.146862 4:0.72721702 5:-0.213036 6:-1.13782 7:0.59208101 8:-0.62316602 9:-0.74549299 10:-0.610403 13:1 16:1 #
0.59308430386017541025012178579345 1:-2.6479001 2:1.54008 3:2.6568799 4:-0.19491901 5:1.87959 6:-1.10576 7:-3.47964 8:-2.1912 9:1.18814 10:-0.82865 14:1 24:1 #
0.14574128967369473497406318074354 1:-2.08358 2:0.86989498 3:0.78771698 4:-0.84417802 5:-0.40171501 6:-1.46426 7:-1.5371701 8:1.2989399 9:1.84139 10:-1.47282 13:1 16:1 #
0.14879131353109106838950026485691 1:-1.67998 2:0.90563798 3:1.1882499 4:-0.067889899 5:0.47307 6:-1.13718 7:-1.9480799 8:1.14719 9:2.0243001 10:-1.24626 14:1 24:1 #
0.39748635333087872778534688222862 1:-2.00143 2:0.57501602 3:1.98932 4:-0.36429101 5:1.4164701 6:-0.70363998 7:-1.4251 8:1.45068 9:1.5017 10:-1.08994 14:1 15:1 #
0.24357269262540365284408494517265 1:-2.28002 2:0.92351002 3:1.05474 4:-0.703035 5:0.078559197 6:-0.69850898 7:-1.91072 8:1.14719 9:2.0243001 10:-1.19038 14:1 15:1 #
0.6012183065140315196828169064247 1:-0.81920099 2:-1.10491 3:-0.68090802 4:0.72721702 5:1.0391099 6:0.126247 7:0.218528 8:-0.11735 9:-0.092239402 10:-0.38536 13:1 46:1 #
0.0092416245458932944761842875891489 1:-1.75498 2:-0.095165797 3:-1.08144 4:-1.26761 5:-0.79622602 6:-1.44951 7:0.59208101 8:0.79312098 9:0.038411301 10:-0.499392 13:1 31:1 #
0.51653080360858616426611433780636 1:-2.5871799 2:1.78134 3:0.12016 4:-1.12646 5:-0.77907401 6:-0.55933899 7:-0.640643 8:-0.522003 9:0.29971299 10:-1.01895 14:1 31:1 #
0.38973850195785386674174333165865 1:-2.2550199 2:-1.05129 3:-0.54739702 4:0.0026817201 5:0.30154401 6:-0.41055 7:0.293239 8:-0.31967601 9:-0.30127999 10:-0.800708 14:1 16:1 #
0.45165372738270831431961482849147 1:-0.92635202 2:-1.2032 3:1.3217601 4:-0.75949198 5:0.28439099 6:-0.66580099 7:-0.56593198 8:-2.09004 9:-0.77162302 10:-0.98874801 13:1 47:1 #
0.44721191552472305819065923060407 1:-2.31217 2:-0.184523 3:-0.54739702 4:-0.68421501 5:0.30154401 6:-0.912714 7:0.89092302 8:0.64137602 9:-0.30127999 10:-0.70102501 14:1 25:1 #
0.3770139660415773308344000724901 1:-1.51925 2:1.30775 3:-1.34846 4:-0.27019501 5:0.38730699 6:-1.09806 7:-0.19238 8:0.74253899 9:0.69166398 10:-0.70253497 13:1 16:1 #
0.42928347264266758509521082487481 1:-1.45496 2:-1.21213 3:-0.0133511 4:-0.98532099 5:-0.65900499 6:0.277601 7:-0.117669 8:-0.67374802 9:-0.19676 10:-0.82487398 13:1 24:1 #
0.45157072566002809388407968071988 1:-3.7265501 2:1.46859 3:1.3217601 4:-0.37369999 5:0.232933 6:-1.40333 7:-2.28427 8:-0.67374802 9:1.37105 10:-0.86716402 14:1 19:1 #
0.41348462222908544116961593317683 1:-1.99786 2:0.35162199 3:0.78771698 4:-1.12646 5:-0.89914203 6:-0.563829 7:-0.0056032902 8:1.45068 9:0.61327398 10:-1.0469 13:1 30:1 #
0.26042359321504604530161941511324 1:-3.7694099 2:-0.93512601 3:1.5887901 4:-0.95238799 5:-0.281647 6:-1.40333 7:0.36794901 8:-2.4441099 9:-1.84296 10:-0.95854098 14:1 15:1 #
0.15915753059748216635682638298022 1:-3.60869 2:-0.91725498 3:1.4552701 4:-0.95238799 5:-0.67615801 6:-1.3148299 7:0.48001501 8:-2.2923601 9:-1.81683 10:-1.0469 14:1 15:1 #
0.42650267456748591765602895975462 1:-0.81205797 2:-1.14958 3:-1.21495 4:-1.12646 5:-0.83053201 6:-0.84409201 7:0.218528 8:0.23672201 9:0.116802 10:-0.41103601 13:1 34:1 #
0.55454142131380812497098986568744 1:-2.6907599 2:-1.1763901 3:3.59146 4:-0.547777 5:1.17633 6:-1.2058001 7:-1.7613 8:-5.2261 9:-2.1303899 10:-1.28176 14:1 24:1 #
0.41774283587585281374288115330273 1:-2.2335899 2:-1.06023 3:0.65420598 4:-1.12646 5:-0.64185202 6:-1.34305 7:0.14381801 8:-1.48306 9:-0.95453399 10:-1.28025 13:1 17:1 #
0.41408820889233211026692060841015 1:-1.81927 2:1.06648 3:0.38718301 4:0.99538898 5:2.29125 6:-0.92233402 7:-1.49981 8:0.944866 9:1.71074 10:-1.1934 14:1 24:1 #
0.45288590821905050365359102215734 1:-1.16565 2:-0.184523 3:-0.0133511 4:0.035615101 5:-0.19588301 6:-1.19169 7:1.0777 8:0.489631 9:-0.66710198 10:-1.28025 13:1 18:1 #
0.45490118456946343483693340203899 1:-1.75855 2:1.64731 3:0.65420598 4:-1.12646 5:-0.65900499 6:-1.17117 7:-1.31304 8:-0.67374802 9:0.69166398 10:-0.84299803 13:1 38:1 #
0.59995863945420824236975931853522 1:-3.1550801 2:-1.14958 3:1.3217601 4:-1.12646 5:-0.71046299 6:-1.395 7:-0.416511 8:-2.1912 9:-0.98066401 10:-1.1058 14:1 29:1 #
0.47902438194039320684680660633603 1:-3.0193601 2:-1.0870301 3:-1.21495 4:-1.12646 5:-0.89914203 6:-1.17951 7:0.25588301 8:0.23672201 9:0.064541399 10:-1.20926 14:1 24:1 #
0.35906206439063598212513284124725 1:-2.1192901 2:-0.80109 3:-0.28037399 4:-1.12646 5:-0.72761601 6:-1.02495 7:0.74150199 8:-0.42084 9:-0.74549299 10:-0.32494599 14:1 19:1 #
0.21732122088668473502970357458253 1:-1.74784 2:0.63756597 3:-0.54739702 4:-1.12646 5:-0.72761601 6:-0.99608803 7:-0.229735 8:1.2989399 9:0.95296597 10:-0.57113397 13:1 31:1 #
0.46181040590695399128406961608562 1:-1.51568 2:0.1461 3:-1.61549 4:-1.26761 5:-0.79622602 6:-1.45272 7:0.293239 8:0.79312098 9:0.351973 10:-0.371012 13:1 16:1 #
0.74376549112920109507740562548861 1:-0.68347698 2:1.0218 3:-1.749 4:0.96245599 5:1.2106301 6:-0.20083401 7:0.14381801 8:0.74253899 9:0.45649299 10:0.0481124 13:1 24:1 #
0.46319743885515729520108152428293 1:-1.42996 2:1.46859 3:2.25634 4:-0.67010099 5:0.26723799 6:-0.97620702 7:-3.2555101 8:-1.53364 9:1.47557 10:-1.2372 13:1 47:1 #
0.63405944645561185257776060097967 1:-3.17294 2:-0.559825 3:1.85581 4:-1.12646 5:-0.67615801 6:-1.18015 7:1.4139 8:-1.98887 9:-2.6268599 10:-1.04916 14:1 17:1 #
0.53091543319247358478918386026635 1:-0.954925 2:-0.72960401 3:0.92122799 4:-1.12646 5:-0.55608898 6:-0.63630003 7:1.0403399 8:-1.48306 9:-1.76457 10:-0.49259499 13:1 27:1 #
0.53580759489263285466620345687261 1:-1.35853 2:-0.0058082398 3:-0.68090802 4:0.70839798 5:0.078559197 6:-1.05958 7:0.70414603 8:0.89428401 9:-0.013849 10:-0.51827198 13:1 16:1 #
0.61826754736311662075110007208423 1:-1.23709 2:-0.014744 3:1.1882499 4:-1.12646 5:-0.69331002 6:-0.31114301 7:1.0403399 8:0.59079403 9:-0.823883 10:0.61676198 13:1 18:1 #
0.4191324869595967061997043856536 1:-2.22644 2:-1.15852 3:0.92122799 4:-0.251376 5:0.45591801 6:-0.791502 7:-0.26708999 8:-1.68538 9:-0.74549299 10:-0.92229199 14:1 19:1 #
0.52983259852113517851535107183736 1:-1.77284 2:1.26307 3:1.1882499 4:-1.12646 5:-0.64185202 6:-0.97620702 7:-2.32163 8:0.13555899 9:1.84139 10:-1.02424 13:1 31:1 #
0.46249084159045789066411202838935 1:-2.3336 2:1.37923 3:1.85581 4:-0.75949198 5:0.26723799 6:-0.89604002 7:-2.9193101 8:-0.72433001 9:1.7368701 10:-1.06955 14:1 19:1 #
0.52316267716701214673946651601 1:-3.30866 2:1.15584 3:1.5887901 4:0.51550198 5:1.10772 6:-1.19683 7:-2.6951799 8:0.28730401 9:2.1549499 10:-0.80750501 14:1 15:1 #
0.37019445759218833069681409142504 1:-2.63362 2:-1.10491 3:0.52069402 4:0.78837901 5:0.93619198 6:-1.15899 7:0.031752001 8:-1.28073 9:-0.74549299 10:-1.40183 14:1 24:1 #
0.36980458894105222578119196441548 1:-1.27995 2:-0.41685301 3:0.12016 4:-0.00672783 5:-1.07067 6:-0.34898201 7:1.22712 8:-0.066767797 9:-1.05905 10:0.025457099 13:1 25:1 #
0.52434228275474403790923361157184 1:-2.2442999 2:-0.47940299 3:0.92122799 4:0.43081599 5:0.78181797 6:-1.23531 7:1.4139 8:-0.82549298 9:-1.76457 10:-0.87018502 14:1 17:1 #
0.1539670106394958049023102830688 1:-2.5371799 2:1.01287 3:0.65420598 4:-1.12646 5:-0.64185202 6:-0.47019401 7:-1.64923 8:0.99544799 9:1.84139 10:-0.74784601 14:1 16:1 #
0.28487786155738192839237399311969 1:-1.74427 2:-1.35511 3:-1.08144 4:0.45434001 5:0.35300201 6:-1.20324 7:-0.0056032902 8:0.23672201 9:0.29971299 10:-0.67685902 14:1 24:1 #
0.47071916712906175517261431195948 1:-2.4621799 2:0.64650202 3:0.92122799 4:-1.26761 5:-0.79622602 6:-0.61898297 7:-1.01419 8:1.55185 9:1.5017 10:-1.09447 14:1 31:1 #
0.38062941529838911769445530808298 1:-2.20859 2:-1.37298 3:1.1882499 4:-1.26761 5:-0.79622602 6:-0.64271301 7:-1.12626 8:-1.68538 9:-0.066109203 10:-0.916251 14:1 24:1 #
0.67889948977524339213118764746469 1:-1.8728499 2:1.45072 3:3.1909201 4:-0.63716799 5:0.19862799 6:-1.0319999 7:-4.2267499 8:-2.2923601 9:1.60622 10:-0.75615299 13:1 24:1 #
0.38806124629295668526651752472389 1:-1.67283 2:1.72773 3:-1.08144 4:-1.12646 5:-0.81337899 6:-1.16668 7:-0.117669 8:0.33788601 9:0.430363 10:-0.44199899 14:1 24:1 #
0.39621626577415886005795186974865 1:-1.5764 2:-1.2568099 3:-0.413885 4:-1.26761 5:-0.79622602 6:-0.90501797 7:-0.080313802 8:-0.31967601 9:0.0122812 10:-0.269063 13:1 47:1 #
0.26845981467281709864636241036351 1:-1.34781 2:-0.139845 3:0.78771698 4:-1.0700099 5:-0.98490602 6:-0.11233 7:1.22712 8:0.33788601 9:-1.00679 10:-1.0401 13:1 24:1 #
0.65026390687261026446464029504568 1:-0.92635202 2:1.52221 3:1.98932 4:0.289673 5:1.6223 6:-0.82934099 7:-2.7698901 8:-1.43247 9:1.2404 10:-0.97364402 13:1 47:1 #
0.51684503051901853343252923878026 1:-3.7872701 2:1.79921 3:0.78771698 4:-0.95238799 5:-0.333105 6:-1.46875 7:-1.08891 8:-1.23015 9:0.169062 10:-0.94041598 14:1 15:1 #
0.37145630731964390802701814209286 1:-2.34431 2:1.07542 3:2.1228299 4:-0.84417802 5:-0.161578 6:-0.56767702 7:-3.2555101 8:0.33788601 9:2.44238 10:-0.981951 14:1 15:1 #
0.54867890581720324405523570021614 1:-1.3371 2:0.190778 3:0.12016 4:-1.12646 5:-0.79622602 6:-0.450313 7:0.51736999 8:1.19777 9:0.169062 10:0.62582397 13:1 18:1 #
0.0095590461535314426300136148029196 1:-1.6656899 2:1.77241 3:0.65420598 4:0.308492 5:0.31869599 6:-1.0319999 7:-1.05155 8:-1.02782 9:0.29971299 10:-1.1435601 14:1 24:1 #
0.5926197732860113420727543598332 1:-1.84427 2:1.70986 3:-0.28037399 4:-0.27019501 5:0.66175002 6:-1.16027 7:-0.60328698 8:-0.16793101 9:0.50875401 10:-1.02424 13:1 25:1 #
0.57048456484546716804828747626743 1:-1.90499 2:-1.2210701 3:2.6568799 4:-0.68421501 5:-0.058662102 6:-1.08716 7:-1.38775 8:-3.7086501 9:-1.29423 10:-0.92229199 13:1 24:1 #
0.15299360267537967517093022706831 1:-2.6871901 2:-1.3908499 3:1.85581 4:-0.63716799 5:0.164322 6:-0.590765 7:-1.72394 8:-2.4441099 9:-0.17062999 10:-1.17981 14:1 24:1 #
0.085267440479800324371062458794768 1:-3.0443599 2:1.54901 3:2.6568799 4:0.38376901 5:-0.058662102 6:-1.25711 7:-3.4422901 8:-2.2923601 9:1.16201 10:-0.76143903 14:1 19:1 #
0.63090097289366309230018714515609 1:-2.42646 2:0.33375001 3:2.9238999 4:-1.12646 5:-0.41886801 6:-0.407985 7:-0.79006398 8:0.89428401 9:0.351973 10:-0.79013598 14:1 15:1 #
0.39035610196810516248078215539863 1:-1.35853 2:1.22733 3:0.52069402 4:0.25203499 5:1.07341 6:-1.09165 7:-1.68659 8:0.489631 9:1.65848 10:-1.0597301 13:1 24:1 #
0.42918344209886433171519115603587 1:-0.76205403 2:1.272 3:1.05474 4:-0.16669001 5:1.48508 6:-0.457367 7:-2.17221 8:0.13555899 9:1.78913 10:-0.489575 13:1 27:1 #
0.31518845826802027731972088986367 1:-2.4728899 2:1.22733 3:2.9238999 4:-0.19491901 5:-0.47032601 6:-0.91463798 7:-4.2267499 8:-0.87607503 9:2.41625 10:-0.77050102 14:1 24:1 #
0.44089678097782708521279460001097 1:-2.06215 2:0.91457403 3:0.253672 4:-1.26761 5:-0.79622602 6:-1.10704 7:-1.2009701 8:1.24836 9:1.63235 10:-0.73576301 13:1 18:1 #
0.33135284961230321298941703389573 1:-1.91571 2:1.56688 3:2.1228299 4:-0.467796 5:0.55883402 6:-1.0319999 7:-2.8819599 8:-1.83713 9:1.05749 10:-0.641366 14:1 24:1 #
0.39804576630143367887981753483473 1:-2.7336199 2:1.81709 3:2.52336 4:-0.98532099 5:-0.59039497 6:-1.00571 7:-2.17221 8:-3.10167 9:-0.27515 10:-0.69951397 14:1 24:1 #
0.61683319070918374293910346750636 1:-0.92277998 2:-1.38191 3:1.1882499 4:-0.129052 5:0.83327597 6:-0.399647 7:-1.2009701 8:-1.73596 9:-0.0399791 10:0.48309499 13:1 24:1 #
0.46101748292763855552323093434097 1:-3.28723 2:1.59369 3:0.92122799 4:-1.12646 5:-0.71046299 6:-1.2372299 7:-1.64923 8:-0.77491099 9:0.87457502 10:-1.08692 14:1 28:1 #
0.31619804497078268790133392940334 1:-2.6693299 2:1.43285 3:0.253672 4:-1.12646 5:-0.71046299 6:-0.47275901 7:-1.35039 8:0.084977202 9:1.18814 10:-1.3127199 14:1 28:1 #
0.3825180531001091677190117934515 1:-2.4800301 2:-1.10491 3:0.92122799 4:-0.44427201 5:1.43362 6:-1.1282001 7:-0.080313802 8:-1.73596 9:-0.92840302 10:-1.20699 14:1 20:1 #
0.49124791840752707328121573482349 1:-1.5621099 2:0.56607997 3:-0.146862 4:-1.26761 5:-0.79622602 6:0.101235 7:-0.26708999 8:1.45068 9:1.0052299 10:-0.88000202 13:1 24:1 #
0.3292121115953500765094474900252 1:-0.67276198 2:-1.3283 3:-0.68090802 4:0.69428402 5:1.34786 6:-0.25534701 7:-0.117669 8:-0.066767797 9:0.19519199 10:0.0450917 13:1 24:1 #
0.40242348526216226156648758660594 1:-2.0907199 2:1.04861 3:2.1228299 4:-0.68421501 5:-0.161578 6:-1.35203 7:-3.14344 8:0.43904901 9:2.44238 10:-1.3089401 13:1 24:1 #
0.15987446475841932125305788758851 1:-0.83705997 2:1.33455 3:-0.413885 4:-1.26761 5:-0.79622602 6:-0.79727399 7:-0.90212899 8:0.54021198 9:1.13588 10:-0.41858801 13:1 34:1 #
0.58189223542446089076918269711314 1:-2.24787 2:-1.27469 3:3.1909201 4:-0.16669001 5:-0.64185202 6:-1.13397 7:-2.0601399 8:-4.36621 9:-1.2681 10:-1.17528 14:1 24:1 #
