SVM-light Version V6.02
2 # kernel type
3 # kernel parameter -d 
10 # kernel parameter -g 
1 # kernel parameter -s 
1 # kernel parameter -r 
empty# kernel parameter -u 
48 # highest feature index 
5000 # number of training documents 
4923 # number of support vectors plus 1 
0 # threshold b, each following line is a SV (starting with alpha*y)
0.89099125042384363926117885057465 1:-2.1192901 2:-1.23894 3:2.6568799 4:-1.12646 5:-0.47032601 6:-1.20324 7:-1.49981 8:-3.7086501 9:-1.21583 10:-1.01065 14:1 24:1 #
0.54384056704629857303956441683113 1:-2.1728699 2:1.57582 3:1.05474 4:-0.86770201 5:-0.00720412 6:-0.81010097 7:-1.8733701 8:-0.87607503 9:0.979096 10:-0.79013598 14:1 24:1 #
0.99999999995025157240036151051754 1:-2.4586 2:0.36949301 3:1.05474 4:-1.12646 5:-0.67615801 6:-0.47596601 7:-0.15502401 8:1.45068 9:0.69166398 10:-0.68894202 14:1 31:1 #
0.75561758627761188567006911398494 1:-2.4943199 2:-0.96193397 3:2.25634 4:-0.86770201 5:-0.024356799 6:-1.14937 7:0.106462 8:-3.3039999 9:-2.26104 10:-0.77125603 14:1 24:1 #
0.74567704830475445287873981214943 1:-1.23709 2:0.83415198 3:0.65420598 4:-1.26761 5:-0.79622602 6:-0.60743898 7:-1.38775 8:1.34952 9:1.763 10:-0.64665198 13:1 34:1 #
0.93889031436767711458202256835648 1:-1.5764 2:-1.31043 3:-0.0133511 4:-0.75949198 5:-0.36741 6:-1.32445 7:-0.34180099 8:-0.62316602 9:0.038411301 10:-0.44124299 13:1 24:1 #
0.70734848879472989047201281209709 1:-1.21566 2:-1.06023 3:-0.0133511 4:-0.44427201 5:-0.67615801 6:-0.26625001 7:0.25588301 8:-0.82549298 9:-0.56258202 10:0.119854 13:1 24:1 #
0.51249946425317483011951935623074 1:-1.73355 2:-0.91725498 3:0.52069402 4:-1.12646 5:-0.79622602 6:-1.12371 7:0.55472499 8:-1.33131 9:-1.1897 10:-0.58397198 13:1 24:1 #
0.93061122879922975048572197920294 1:-1.50139 2:-1.29256 3:1.3217601 4:-0.82065398 5:-0.50463098 6:0.114703 7:-0.939484 8:-1.98887 9:-0.45806101 10:-0.950234 13:1 24:1 #
0.99999908376961377243219430965837 1:-3.5943999 2:1.33455 3:0.65420598 4:-0.68421501 5:0.26723799 6:-1.4463 7:-1.72394 8:0.186141 9:1.5017 10:-1.05822 14:1 15:1 #
0.8787648523015418877690763110877 1:-1.60497 2:-0.16665199 3:0.38718301 4:-1.26761 5:-0.79622602 6:-1.08523 7:1.18976 8:0.38846701 9:-0.85001302 10:-0.82940501 13:1 18:1 #
0.2271290163439583231763663206948 1:-2.1585801 2:1.50433 3:0.12016 4:0.25203499 5:1.69091 6:-0.79727399 7:-1.12626 8:-0.016186099 9:1.0052299 10:-1.0401 14:1 20:1 #
0.52841977711072884993370735173812 1:-2.37288 2:1.10223 3:-0.146862 4:-0.98532099 5:-0.67615801 6:-0.60166699 7:-1.05155 8:0.89428401 9:1.42331 10:-0.92908901 14:1 24:1 #
0.99736802856061201882909017513157 1:-2.2442999 2:-1.09597 3:0.253672 4:-0.279605 5:0.37015399 6:-0.86397302 7:0.106462 8:-0.92665702 9:-0.56258202 10:-0.841488 14:1 20:1 #
0.89362981702116794924251053089392 1:-3.4051001 2:-0.872576 3:0.78771698 4:-0.98532099 5:-0.436021 6:-1.35203 7:0.66679102 8:-1.43247 9:-1.3987499 10:-1.18736 14:1 15:1 #
0.78151093024085316329774286714382 1:-2.4514599 2:-0.27388099 3:0.78771698 4:-0.41133901 5:-0.35025701 6:-0.63950598 7:1.3765399 8:-0.11735 9:-1.34649 10:-1.1073101 14:1 16:1 #
0.99833269734146490304027565798606 1:-2.13358 2:-1.0781 3:1.1882499 4:-0.053775601 5:1.70806 6:-1.04419 7:-0.042958502 8:-2.0394499 9:-1.1897 10:-0.73576301 14:1 24:1 #
0.92047167701437271336573076041532 1:-1.8728499 2:-0.82789701 3:0.52069402 4:0.34142601 5:0.81612301 6:-1.08716 7:0.77885699 8:-1.0784 9:-1.2681 10:-0.43595701 14:1 24:1 #
0.61006477254098956386485497205285 1:-2.6371901 2:1.79921 3:1.85581 4:-0.63716799 5:0.33584899 6:-0.548437 7:-1.72394 8:-2.2923601 9:-0.0399791 10:-1.21153 14:1 24:1 #
0.96148108803209575423665000926121 1:-1.80856 2:1.8081501 3:0.38718301 4:0.63312203 5:0.43876499 6:-1.1179399 7:-0.75270802 8:-0.87607503 9:0.19519199 10:-0.60662699 14:1 24:1 #
0.80886487002198559359555929404451 1:-2.4121699 2:0.25332901 3:3.32443 4:-1.12646 5:-0.36741 6:-0.42017001 7:-0.49122199 8:0.489631 9:-0.24902 10:-0.80675 14:1 15:1 #
0.86178864360075335682154218375217 1:-1.91571 2:-0.86364001 3:-1.34846 4:-1.26761 5:-0.79622602 6:-0.92874801 7:0.40530401 8:0.38846701 9:0.0122812 10:-0.45559201 13:1 34:1 #
0.93811488766047546050685923546553 1:-2.1800101 2:1.28988 3:0.12016 4:-1.12646 5:-0.69331002 6:-1.35716 7:-1.31304 8:0.489631 9:1.39718 10:-0.99629998 13:1 28:1 #
0.96863283792531573723749716009479 1:-2.03 2:-0.79215401 3:1.7223001 4:-0.75949198 5:0.0271012 6:-1.13397 7:0.853567 8:-2.4441099 9:-2.3132999 10:-1.16093 14:1 17:1 #
0.77792500290244137595152551512001 1:-1.0692199 2:1.272 3:2.3898499 4:-0.420748 5:0.78181797 6:-0.68375802 7:-3.62906 8:-0.67374802 9:2.1810801 10:-0.841488 13:1 47:1 #
0.89462569506929223717150989614311 1:-1.74784 2:1.56688 3:1.98932 4:-0.37369999 5:0.30154401 6:-0.85627699 7:-2.65783 8:-1.5842201 9:1.05749 10:-0.69196302 13:1 24:1 #
0.52515771662921473250662529608235 1:-2.06215 2:0.50353003 3:0.38718301 4:-0.82065398 5:-0.281647 6:-1.48799 7:-0.34180099 8:1.55185 9:1.03136 10:-1.43128 13:1 16:1 #
0.99999872732716199585922822734574 1:-3.36938 2:-1.09597 3:2.3898499 4:0.51550198 5:2.0339601 6:-1.27507 7:-0.640643 8:-3.5569 9:-1.81683 10:-0.81279099 14:1 19:1 #
0.87978507709971964789730236589094 1:-0.89777797 2:-0.095165797 3:0.65420598 4:0.28496799 5:1.31355 6:-0.245086 7:1.15241 8:0.489631 9:-0.823883 10:0.52538502 13:1 18:1 #
0.79308611574565368584899260895327 1:-0.91206503 2:-0.82789701 3:-1.48198 4:0.57195997 5:-0.35025701 6:-0.0109989 7:0.36794901 8:0.489631 9:0.090671502 10:-0.226017 13:1 46:1 #
0.69734678904893665496445009921445 1:-0.90135002 2:-0.41685301 3:-0.68090802 4:0.651941 5:-1.13928 6:-1.05958 7:0.89092302 8:0.33788601 9:-0.484191 10:-1.31423 13:1 18:1 #
0.65771216469420834549453047657153 1:-1.75855 2:-1.19426 3:-0.68090802 4:0.308492 5:0.14717001 6:-1.23915 7:0.106462 8:-0.11735 9:0.0122812 10:-0.68667603 14:1 24:1 #
0.95665880207617615127446697442792 1:-0.92992401 2:-0.264945 3:-0.81441897 4:-0.27019501 5:0.061406501 6:-0.070001602 7:0.853567 8:0.54021198 9:-0.30127999 10:0.092667997 13:1 24:1 #
0.97853073014995728406972830271116 1:-1.71927 2:0.41417199 3:-0.0133511 4:1.32472 5:3.0631199 6:-0.89604002 7:0.031752001 8:1.45068 9:0.74392498 10:-1.0114 14:1 16:1 #
0.99999645319918872843345525325276 1:-0.29773599 2:1.35243 3:-0.0133511 4:0.204987 5:0.59313899 6:-0.35282999 7:-1.16362 8:0.38846701 9:1.2404 10:-0.24187601 13:1 48:1 #
0.18752121211944539069804704922717 1:-2.05143 2:1.52221 3:1.3217601 4:0.28496799 5:1.72521 6:-0.92874801 7:-2.13485 8:-0.87607503 9:1.16201 10:-0.71461803 14:1 24:1 #
0.65504138214000184881058430619305 1:-2.05143 2:0.548208 3:1.98932 4:-0.44427201 5:1.17633 6:-0.706846 7:-1.35039 8:1.45068 9:1.39718 10:-1.11033 14:1 15:1 #
0.84369241532264449556777208272251 1:-3.04793 2:-1.3461699 3:-0.0133511 4:-0.98532099 5:-0.60754699 6:-1.35716 7:-0.416511 8:-0.62316602 9:0.116802 10:-0.88302302 14:1 24:1 #
0.47696129066451697919859498142614 1:-0.67276198 2:1.272 3:1.98932 4:0.38376901 5:2.70292 6:-0.67221397 7:-3.1808 8:-0.42084 9:2.07656 10:-0.76899099 13:1 47:1 #
0.99999636452826112797964697165298 1:-1.35138 2:0.87883103 3:-0.94793099 4:0.84954101 5:0.112864 6:-1.06407 7:-0.304445 8:1.09661 9:0.95296597 10:-0.566603 13:1 16:1 #
0.99994930212285593196241961777559 1:-2.3193099 2:-0.48833901 3:-1.61549 4:-0.63716799 5:0.0099485395 6:-0.85435301 7:0.40530401 8:0.64137602 9:0.142932 10:-0.83695698 14:1 20:1 #
0.57170609234713187785104082649923 1:-0.829916 2:1.29881 3:1.05474 4:-0.063185103 5:0.50737602 6:-0.29254401 7:-2.2469201 8:0.034395501 9:1.763 10:0.119099 13:1 24:1 #
0.95986965290408210460526561291772 1:-2.2764499 2:1.21839 3:1.98932 4:-0.82065398 5:-0.12727299 6:-0.81458998 7:-3.1808 8:-0.16793101 9:2.1810801 10:-0.90114701 14:1 24:1 #
0.98265281855982655745407328140573 1:-2.39431 2:0.968189 3:0.65420598 4:-0.82065398 5:0.164322 6:-0.67991 7:-1.6118799 8:1.09661 9:1.86752 10:-1.12015 14:1 16:1 #
0.94698871640128512439105179510079 1:-1.40139 2:-0.300688 3:-0.81441897 4:0.52961701 5:1.17633 6:-1.09806 7:0.77885699 8:0.54021198 9:-0.24902 10:-0.69347298 13:1 18:1 #
0.93713350382194837706606449501123 1:-3.11937 2:1.31668 3:1.3217601 4:0.45434001 5:-0.41886801 6:-1.23787 7:-2.47105 8:-0.16793101 9:1.78913 10:-0.72594601 14:1 19:1 #
0.89567056266128997066289230133407 1:-2.0157199 2:-0.72066802 3:0.52069402 4:-0.67010099 5:0.164322 6:-1.3148299 7:1.00299 8:-1.02782 9:-1.42488 10:-1.24551 13:1 17:1 #
0.49007388301715448797324370389106 1:-1.52997 2:0.42310801 3:-1.61549 4:-1.26761 5:-0.79622602 6:-0.74468499 7:0.218528 8:0.84370297 9:0.430363 10:-0.40121901 13:1 31:1 #
0.84321460146144455727323929750128 1:-2.3264501 2:-0.44365999 3:1.5887901 4:-0.95238799 5:-0.36741 6:-0.78188199 7:1.52596 8:-1.33131 9:-2.3132999 10:-0.64891702 14:1 18:1 #
0.6727371864236991738650317529391 1:-1.8049901 2:-0.72960401 3:1.7223001 4:-0.56189102 5:0.43876499 6:-1.03906 7:1.0403399 8:-2.3429401 9:-2.41782 10:-0.94721299 13:1 24:1 #
0.25347747771837975117037444761081 1:-2.0157199 2:-1.33724 3:1.1882499 4:-0.75949198 5:-0.315952 6:-1.06279 7:-1.01419 8:-1.73596 9:-0.19676 10:-0.57944101 14:1 24:1 #
0.89430986012410174090803138824413 1:-1.08351 2:1.66518 3:1.1882499 4:-0.37369999 5:0.112864 6:-0.470835 7:-1.72394 8:-1.23015 9:0.66553402 10:0.57673699 13:1 24:1 #
0.99999999992353205691131279309047 1:-0.96206897 2:1.79028 3:0.253672 4:-0.75949198 5:-0.24734101 6:-0.228411 7:-0.75270802 8:-0.72433001 9:0.27358201 10:0.39625001 13:1 16:1 #
0.95035458639494474475384322431637 1:-2.59076 2:-0.97980499 3:0.78771698 4:0.57195997 5:1.05626 6:-1.10255 7:0.330594 8:-1.6348 9:-1.21583 10:-1.47282 14:1 16:1 #
0.52303052847244158041206674170098 1:-1.42996 2:1.34349 3:1.7223001 4:-1.12646 5:-0.487479 6:-0.421453 7:-2.9193101 8:-0.57258499 9:1.84139 10:-0.37629801 13:1 27:1 #
0.90251094587068603214419226787868 1:-0.729909 2:-1.14065 3:1.98932 4:-0.129052 5:1.34786 6:-0.67606199 7:-0.640643 8:-3.00051 9:-1.3987499 10:-1.00763 13:1 47:1 #
0.67501514341226220849989658745471 1:-1.90499 2:-0.20239501 3:0.38718301 4:0.129711 5:0.61029202 6:-1.04996 7:1.22712 8:0.28730401 9:-0.95453399 10:-0.44426399 14:1 15:1 #
0.99999999999909561232414034748217 1:-1.59426 2:1.60263 3:-0.54739702 4:-1.12646 5:-0.67615801 6:-0.92233402 7:-0.52857703 8:0.186141 9:0.66553402 10:-0.249428 13:1 47:1 #
0.97542909010332179420288412075024 1:-3.6158299 2:1.7634701 3:0.78771698 4:-0.50543398 5:0.164322 6:-1.42129 7:-1.16362 8:-1.1795599 9:0.29971299 10:-1.02877 14:1 15:1 #
0.75782426753664933194443165120902 1:-1.7121201 2:1.81709 3:-0.0133511 4:-0.84417802 5:-0.65900499 6:-1.31675 7:-0.52857703 8:-0.522003 9:0.24745201 10:-0.60662699 14:1 25:1 #
0.72067773040430238573605947749456 1:-1.3371 2:-0.80109 3:-0.68090802 4:-1.26761 5:-0.79622602 6:-0.24700999 7:0.62943602 8:-0.11735 9:-0.484191 10:0.0911576 13:1 16:1 #
0.73335987630233101519650062982691 1:-2.21573 2:1.56688 3:-0.146862 4:-0.56189102 5:0.0271012 6:-0.73250002 7:-0.90212899 8:-0.016186099 9:0.82231498 10:-1.17528 14:1 19:1 #
0.86845289958423999010506122431252 1:-0.74062401 2:-0.86364001 3:-0.81441897 4:-1.12646 5:-0.71046299 6:-0.93516099 7:0.55472499 8:-0.016186099 9:-0.327411 10:-0.371012 13:1 37:1 #
0.99438128315736329376761659659678 1:-2.13358 2:1.10223 3:1.05474 4:-0.84417802 5:-0.436021 6:-1.3064899 7:-2.2095599 8:0.64137602 9:2.0243001 10:-1.0559601 13:1 24:1 #
0.99992995967593489847757837196696 1:-3.47296 2:1.54008 3:1.85581 4:0.25203499 5:1.4679199 6:-1.31419 7:-2.62047 8:-1.3818901 9:1.16201 10:-0.775787 14:1 19:1 #
0.51642935345016638404302966591786 1:-3.0443599 2:-1.23001 3:2.1228299 4:-0.37369999 5:1.17633 6:-1.36101 7:-1.12626 8:-3.05109 9:-1.03292 10:-1.12166 14:1 24:1 #
0.85465794593405375323413863952737 1:-0.32273701 2:1.73666 3:-0.413885 4:-0.13846201 5:0.47307 6:-0.44005099 7:-0.453866 8:-0.11735 9:0.45649299 10:-0.124068 13:1 45:1 #
0.99999938267135135561147762928158 1:-1.84427 2:1.70986 3:-0.28037399 4:-0.27019501 5:0.66175002 6:-1.16027 7:-0.60328698 8:-0.16793101 9:0.50875401 10:-1.02424 13:1 25:1 #
0.99999999969159136803398268966703 1:-3.1586499 2:-1.14958 3:2.1228299 4:-1.12646 5:-0.53893697 6:-1.24813 7:-0.71535301 8:-3.10167 9:-1.3987499 10:-1.24626 14:1 15:1 #
0.80643820233964369492696278030053 1:-1.19423 2:-0.80109 3:-0.54739702 4:0.035615101 5:1.02196 6:-0.58306903 7:0.66679102 8:-0.218513 9:-0.56258202 10:-0.136151 13:1 16:1 #
0.70344221688290753391470389033202 1:-1.51925 2:-0.89044797 3:0.253672 4:0.308492 5:0.0271012 6:-1.20645 7:0.62943602 8:-0.92665702 9:-0.98066401 10:-0.61568999 13:1 16:1 #
0.92880532006468141670296745360247 1:-2.0335701 2:-0.032615501 3:-0.28037399 4:-0.75949198 5:-0.53893697 6:-1.33535 7:0.853567 8:0.84370297 9:-0.22289 10:-1.26212 13:1 17:1 #
0.9266639882782394810334380963468 1:-3.2800901 2:-0.82789701 3:2.52336 4:0.38376901 5:2.4970801 6:-1.29238 7:0.59208101 8:-3.50632 9:-2.86203 10:-0.83771199 14:1 15:1 #
0.55197713625504141177202654944267 1:-1.06208 2:-1.3283 3:0.78771698 4:-0.98532099 5:-0.230189 6:-0.57857901 7:-0.71535301 8:-1.33131 9:-0.118369 10:-0.18825801 13:1 27:1 #
0.99852392068750739362315016478533 1:-2.23716 2:1.58476 3:-1.61549 4:-0.32194799 5:1.05626 6:-0.85307002 7:0.069107197 8:0.64137602 9:0.45649299 10:-1.01744 14:1 19:1 #
0.47218110299259774542690593079897 1:-1.66212 2:-1.05129 3:2.1228299 4:-0.98532099 5:-1.20789 6:-0.99865299 7:-0.229735 8:-3.1522501 9:-1.81683 10:-0.46994001 13:1 24:1 #
0.63849069238017253091754810156999 1:-1.7692699 2:1.58476 3:1.1882499 4:-1.0700099 5:-0.50463098 6:-1.02495 7:-1.98543 8:-1.0784 9:0.92683601 10:-1.02424 13:1 31:1 #
0.78143005538494547668193490608246 1:-0.97635502 2:-1.37298 3:1.5887901 4:-0.251376 5:0.61029202 6:-0.393875 7:-1.35039 8:-2.09004 9:-0.17062999 10:0.504996 13:1 24:1 #
0.64927340404765565562428264456685 1:-1.67641 2:1.1201 3:0.92122799 4:-0.00672783 5:0.49022299 6:-1.1198699 7:-2.02279 8:0.69195801 9:1.91978 10:-1.22361 14:1 24:1 #
0.47561274141190557074310163443442 1:-1.00493 2:1.60263 3:0.92122799 4:0.56725502 5:2.0854199 6:-0.89860499 7:-1.68659 8:-0.87607503 9:0.848445 10:-1.04161 13:1 47:1 #
0.98014106874969231242289424699266 1:-2.1192901 2:-0.80109 3:-0.28037399 4:-1.12646 5:-0.72761601 6:-1.02495 7:0.74150199 8:-0.42084 9:-0.74549299 10:-0.32494599 14:1 19:1 #
0.77073664298422284169021168054314 1:-1.36924 2:-0.77428299 3:2.3898499 4:-0.86770201 5:-0.69331002 6:-0.135418 7:0.816212 8:-3.2028301 9:-2.88816 10:-1.02877 13:1 24:1 #
0.9520326913354697495606160373427 1:-1.27281 2:1.13797 3:0.253672 4:-0.27019501 5:0.66175002 6:-0.849222 7:-1.4251 8:0.79312098 9:1.60622 10:-0.169379 13:1 47:1 #
0.99547600138707414973993081730441 1:-2.5050399 2:1.77241 3:2.9238999 4:-1.0700099 5:-0.40171501 6:-0.93323702 7:-2.7698901 8:-3.5569 9:-0.17062999 10:-0.61568999 14:1 24:1 #
0.64182700277626103524397649380262 1:-1.93357 2:-0.16665199 3:-0.413885 4:1.70111 5:1.1248699 6:-1.0319999 7:0.92827803 8:0.64137602 9:-0.35354099 10:-0.62097597 14:1 20:1 #
0.78797076103145247127912398354965 1:-0.829916 2:1.54901 3:1.5887901 4:-0.00672783 5:-1.22504 6:-0.71838999 7:-2.32163 8:-1.1795599 9:1.08362 10:0.0194156 13:1 27:1 #
0.50945493587589496531364829934319 1:-0.50132197 2:1.55795 3:0.65420598 4:-0.98532099 5:-0.384563 6:-0.521501 7:-1.46246 8:-0.471421 9:0.95296597 10:-0.121803 13:1 27:1 #
0.81608546531504677634671907071606 1:-1.29066 2:-0.68492502 3:1.05474 4:-0.75949198 5:-0.76192099 6:-0.249575 7:1.11505 8:-1.43247 9:-1.84296 10:0.0231915 13:1 25:1 #
0.92903355858255898258590832483605 1:-3.18366 2:-1.23894 3:1.85581 4:0.28496799 5:-0.62470001 6:-1.0255899 7:-1.01419 8:-2.6970201 9:-0.87614298 10:-0.86112303 14:1 24:1 #
0.92802715442159600112148609696305 1:-2.01929 2:1.03967 3:-1.08144 4:-0.98532099 5:-0.71046299 6:-1.17117 7:-0.34180099 8:0.944866 9:0.92683601 10:-0.98874801 13:1 24:1 #
0.83329353838246600361117089050822 1:-1.86213 2:-1.2657501 3:0.12016 4:0.73662698 5:2.0854199 6:-0.88128901 7:-0.26708999 8:-0.77491099 9:-0.1445 10:-0.73576301 14:1 20:1 #
0.79889224085178145440266916921246 1:-1.27995 2:-0.41685301 3:0.12016 4:-0.00672783 5:-1.07067 6:-0.34898201 7:1.22712 8:-0.066767797 9:-1.05905 10:0.025457099 13:1 25:1 #
0.56707714331275760333284097214346 1:-0.80491501 2:1.60263 3:1.5887901 4:-0.420748 5:1.0048 6:-0.64976799 7:-2.2469201 8:-1.43247 9:0.87457502 10:-0.060633302 13:1 27:1 #
0.59929577509372256027830871971673 1:-1.27995 2:-1.10491 3:0.253672 4:-0.105528 5:0.93619198 6:-0.331025 7:0.106462 8:-0.977238 9:-0.56258202 10:-0.85734701 13:1 24:1 #
0.94557825924789351557109284840408 1:-1.68355 2:-1.0870301 3:2.25634 4:-0.251376 5:0.64459699 6:-0.84409201 7:-0.49122199 8:-3.40516 9:-1.7907 10:-0.72065902 13:1 24:1 #
0.81607434777688836469167199538788 1:-3.3836701 2:1.81709 3:2.6568799 4:0.28496799 5:1.96535 6:-1.3148299 7:-2.3589799 8:-3.3545799 9:-0.35354099 10:-0.81581199 14:1 19:1 #
0.73975618857425817775919085761416 1:-1.64426 2:1.40604 3:-0.81441897 4:-0.98532099 5:-0.69331002 6:-1.16668 7:-0.52857703 8:0.54021198 9:0.848445 10:-0.42765 14:1 20:1 #
0.99808988581415691854203942057211 1:-0.80491501 2:-0.89044797 3:0.65420598 4:-0.56189102 5:-0.12727299 6:-0.75686997 7:0.62943602 8:-1.33131 9:-1.24196 10:-1.12997 13:1 38:1 #
0.99998806294542452732798665238079 1:-0.68704897 2:-1.23001 3:-1.48198 4:0.99538898 5:1.26209 6:-0.24636801 7:0.181173 8:0.489631 9:0.27358201 10:0.097954199 13:1 24:1 #
0.84340851716166376217387323777075 1:-2.2442999 2:-1.18533 3:0.52069402 4:-1.26761 5:-0.79622602 6:-1.4257801 7:-0.229735 8:-1.28073 9:-0.51032102 10:-1.0597301 13:1 28:1 #
0.61787608895395862429467115362058 1:-1.8157001 2:1.00393 3:-0.28037399 4:0.92481798 5:2.3083999 6:-0.89155 7:-0.90212899 8:1.09661 9:1.37105 10:-1.12997 14:1 24:1 #
0.99999999534065042716690641100286 1:-2.63362 2:-0.89044797 3:-0.413885 4:0.38376901 5:2.1540301 6:-1.23915 7:0.55472499 8:-0.269095 9:-0.51032102 10:-1.2727 14:1 16:1 #
0.97500359703927208521179181843763 1:-1.21566 2:0.20864999 3:1.3217601 4:-1.12646 5:-0.59039497 6:-0.27651101 7:0.36794901 8:1.14719 9:0.0122812 10:0.58126903 13:1 18:1 #
0.56281756697902640684816333305207 1:-1.80141 2:-0.0236797 3:0.12016 4:-0.420748 5:-0.436021 6:-1.14103 7:0.92827803 8:0.84370297 9:-0.327411 10:-0.420854 14:1 20:1 #
0.79580264244698750708550960553112 1:-3.8301301 2:-1.27469 3:1.7223001 4:-0.82065398 5:-0.11012 6:-1.45272 7:-1.05155 8:-2.4441099 9:-0.66710198 10:-1.0333 14:1 19:1 #
0.75947726447360441870415570519981 1:-3.20151 2:1.54901 3:2.25634 4:-0.95238799 5:0.0099485395 6:-1.33407 7:-3.0313799 8:-1.88771 9:1.13588 10:-1.19038 14:1 24:1 #
0.75168717407278307085505275608739 1:-2.40503 2:0.86989498 3:2.52336 4:-0.98532099 5:-0.45317301 6:-0.54522997 7:-3.0313799 8:0.89428401 9:2.41625 10:-0.950234 14:1 15:1 #
0.33368314284859168505903426193981 1:-3.60869 2:-1.3461699 3:2.9238999 4:-0.547777 5:0.91903901 6:-1.42129 7:-2.28427 8:-3.8603899 9:-0.71936202 10:-0.97213399 14:1 19:1 #
0.90130634897969141849927154908073 1:-1.69426 2:0.896703 3:-0.94793099 4:0.83072197 5:1.43362 6:-0.99095702 7:-0.304445 8:1.09661 9:0.95296597 10:-0.460123 14:1 20:1 #
0.92349783485246372816135362882051 1:-3.4979601 2:-1.31043 3:3.1909201 4:0.14382499 5:1.57084 6:-1.33535 7:-2.32163 8:-4.31563 9:-1.05905 10:-0.83469099 14:1 19:1 #
0.53561061916640850810722440655809 1:-2.5550399 2:1.7456 3:-0.54739702 4:-1.12646 5:-0.89914203 6:-0.59974301 7:-0.37915599 8:-0.016186099 9:0.430363 10:-1.16546 14:1 28:1 #
0.77437095487627138901132184400922 1:-3.16223 2:-0.872576 3:2.52336 4:0.43081599 5:-0.62470001 6:-1.2641701 7:0.36794901 8:-3.6074901 9:-2.7575099 10:-0.79315698 14:1 15:1 #
0.056512936922502012004887461671387 1:-1.3621 2:-1.19426 3:0.52069402 4:-0.13846201 5:0.71320802 6:-0.46570501 7:-0.229735 8:-1.28073 9:-0.45806101 10:-0.713108 13:1 24:1 #
0.99998628060398853101276017696364 1:-2.06215 2:1.8081501 3:2.6568799 4:0.0120913 5:1.1248699 6:-1.00763 7:-2.3589799 8:-3.3039999 9:-0.30127999 10:-1.0114 14:1 24:1 #
0.63557097001648055201172837769263 1:-2.2193 2:1.40604 3:0.65420598 4:-1.0700099 5:-0.65900499 6:-0.62219 7:-1.68659 8:-0.016186099 9:1.34492 10:-1.2915699 14:1 30:1 #
0.99999999999996824762149572052294 1:-1.57283 2:-1.05129 3:-1.48198 4:-0.19491901 5:0.078559197 6:-1.03072 7:0.25588301 8:0.489631 9:0.19519199 10:-0.775787 13:1 16:1 #
0.99208181102620307534323274012422 1:-3.5301099 2:1.18265 3:2.1228299 4:-0.105528 5:1.2964 6:-1.37255 7:-3.2555101 8:-0.066767797 9:2.2855999 10:-0.87244999 14:1 19:1 #
0.99999999995119992490799631923437 1:-2.6693299 2:1.3703001 3:1.4552701 4:-1.12646 5:-0.59039497 6:-0.450313 7:-2.5831201 8:-0.42084 9:1.68461 10:-1.33084 14:1 28:1 #
0.99999999999426680830083569162525 1:-3.2407999 2:0.932446 3:1.3217601 4:0.59077901 5:1.43362 6:-1.23146 7:-2.0601399 8:1.09661 9:2.10269 10:-0.77125603 14:1 15:1 #
0.99942038518166054217317650909536 1:-2.22644 2:-1.28362 3:-1.08144 4:-1.12646 5:-0.81337899 6:-1.25711 7:0.069107197 8:0.23672201 9:0.221322 10:-0.400464 14:1 28:1 #
0.99999969187263726411174502572976 1:-1.19066 2:1.3256201 3:0.253672 4:0.477864 5:1.36501 6:-0.30473 7:-1.4251 8:0.33788601 9:1.39718 10:-0.91474003 13:1 16:1 #
0.93766122266142959418289137829561 1:-1.23709 2:1.48646 3:-0.0133511 4:-1.0700099 5:-0.67615801 6:-0.277794 7:-1.05155 8:0.13555899 9:1.0052299 10:0.57145101 13:1 31:1 #
0.9998084765827065512056037732691 1:-0.71919399 2:1.77241 3:0.38718301 4:0.83072197 5:1.34786 6:-0.25983599 7:-0.82741898 8:-0.72433001 9:0.32584301 10:0.19310699 13:1 24:1 #
0.86650207724618344418132664941368 1:-0.71919399 2:1.47753 3:-1.48198 4:0.186168 5:0.28439099 6:-0.34962299 7:-0.0056032902 8:0.64137602 9:0.53488398 10:0.210476 13:1 24:1 #
0.93804238206672663213936402826221 1:-1.79784 2:0.24439301 3:1.4552701 4:0.25674 5:2.39417 6:-0.76969701 7:0.181173 8:1.19777 9:0.142932 10:-1.07786 14:1 16:1 #
0.86976106597601710035405631060712 1:-3.22294 2:1.75453 3:1.98932 4:0.56725502 5:-2.9059999 6:-1.04547 7:-2.0601399 8:-2.3429401 9:0.169062 10:-0.90567797 14:1 24:1 #
0.97043699203528566155085854916251 1:-1.4478199 2:-1.06916 3:-1.34846 4:-1.0700099 5:-0.83053201 6:0.25900301 7:0.293239 8:0.33788601 9:0.116802 10:-0.82865 13:1 24:1 #
0.99162218618567465888702372467378 1:-3.0300701 2:1.70986 3:2.6568799 4:0.25203499 5:-1.9797601 6:-1.02174 7:-2.80725 8:-2.8993399 9:0.27358201 10:-0.92757797 14:1 24:1 #
0.9997152662939310374667911673896 1:-3.1157899 2:-0.55088902 3:2.1228299 4:-0.56189102 5:-0.161578 6:-1.37255 7:1.45125 8:-2.24178 9:-2.8359001 10:-1.1435601 14:1 24:1 #
0.99657001372253406490386851146468 1:-3.2407999 2:-1.35511 3:2.52336 4:0.38376901 5:-0.98490602 6:-1.23915 7:-1.98543 8:-3.3039999 9:-0.536452 10:-0.76748002 14:1 19:1 #
0.6604647352008365945863488377654 1:-3.1586499 2:1.55795 3:2.9238999 4:0.56725502 5:-0.60754699 6:-1.27635 7:-3.7411301 8:-2.64643 9:1.08362 10:-0.78031898 14:1 19:1 #
0.99193738166219447283111776414444 1:-2.85149 2:-0.36323801 3:1.4552701 4:0.14382499 5:1.17633 6:-1.27635 7:1.52596 8:-0.87607503 9:-2.052 10:-1.25155 14:1 16:1 #
0.7653420102874448627261472211103 1:-1.78356 2:0.12822799 3:-0.68090802 4:-1.26761 5:-0.79622602 6:-0.254706 7:0.55472499 8:1.04603 9:0.169062 10:-1.26816 13:1 30:1 #
0.96882881815984012163767147285398 1:-1.78713 2:-1.36404 3:0.65420598 4:1.02832 5:1.17633 6:-0.94862902 7:-0.82741898 8:-1.23015 9:0.0122812 10:-0.40801501 14:1 24:1 #
0.99999970883844802038709076441592 1:-3.6551199 2:1.6741101 3:3.05741 4:-0.547777 5:0.696055 6:-1.43027 7:-3.3675799 8:-3.3545799 9:0.37810299 10:-0.94343698 14:1 19:1 #
0.92139958764966334303636585900676 1:-2.4514599 2:0.476722 3:-0.54739702 4:-0.467796 5:-0.29879901 6:-0.428507 7:0.031752001 8:1.2989399 9:0.74392498 10:-0.85734701 14:1 16:1 #
0.99999995648738759790319363673916 1:-3.7872701 2:1.272 3:0.92122799 4:-1.26761 5:-0.79622602 6:-1.42129 7:-2.0975001 8:0.186141 9:1.7368701 10:-0.91096401 14:1 19:1 #
0.99986652586894642080750372770126 1:-1.53354 2:0.119292 3:1.7223001 4:-1.26761 5:-0.79622602 6:0.14163899 7:0.62943602 8:0.79312098 9:-0.51032102 10:-0.860367 13:1 24:1 #
0.999999999999956035168224843801 1:-1.74427 2:-1.18533 3:1.05474 4:-0.50543398 5:-0.058662102 6:-0.91079003 7:-0.416511 8:-1.78655 9:-0.71936202 10:-0.67459399 13:1 18:1 #
0.95514591000239257301274165001814 1:-3.32652 2:0.86096001 3:0.78771698 4:0.25203499 5:-1.29365 6:-1.12051 7:-1.46246 8:1.2989399 9:1.8152601 10:-0.82865 14:1 15:1 #
0.99999999999996225241716274467763 1:-1.3371 2:-0.25600901 3:0.78771698 4:-1.26761 5:-0.79622602 6:-0.25983599 7:1.3765399 8:-0.066767797 9:-1.3203599 10:0.030743301 13:1 31:1 #
0.99999999999954214402464458544273 1:-3.41224 2:1.13797 3:-1.08144 4:0.0026817201 5:0.61029202 6:-1.27635 7:-0.37915599 8:0.84370297 9:0.90070599 10:-0.83695698 14:1 15:1 #
0.99999999999999977795539507496869 1:-3.46225 2:-1.12278 3:-0.94793099 4:-0.82065398 5:-0.41886801 6:-1.3712699 7:0.218528 8:0.13555899 9:0.0122812 10:-1.1428 14:1 15:1 #
0.99997452164265054896929996175459 1:-1.45496 2:0.73585898 3:1.7223001 4:-1.26761 5:-0.79622602 6:0.28593901 7:-1.91072 8:1.4001 9:1.94591 10:-0.75766301 13:1 18:1 #
0.95409784388922680431477374440874 1:-2.01929 2:1.34349 3:-1.34846 4:-0.13846201 5:0.061406501 6:-0.94798797 7:-0.15502401 8:0.69195801 9:0.66553402 10:-0.30984199 14:1 25:1 #
0.89130330788145684106638100274722 1:-1.5406801 2:0.440979 3:-0.146862 4:-1.12646 5:-0.79622602 6:-0.764566 7:-0.0056032902 8:1.4001 9:0.770055 10:-0.461633 13:1 18:1 #
0.9706771748586355830212824002956 1:-2.68362 2:-1.06023 3:3.32443 4:-0.82065398 5:0.45591801 6:-1.14424 7:-0.90212899 8:-4.8720298 9:-2.5746 10:-1.2002 14:1 24:1 #
0.96651468286918862382606221217429 1:-1.59069 2:-1.24788 3:-1.48198 4:1.2024 5:0.64459699 6:-1.25647 7:0.181173 8:0.43904901 9:0.27358201 10:-0.83544701 14:1 20:1 #
0.79343123433165652080845120508457 1:-1.72998 2:1.8081501 3:1.1882499 4:-0.84417802 5:-0.230189 6:-0.72608602 7:-1.31304 8:-1.68538 9:0.064541399 10:-0.91323 13:1 24:1 #
0.99488837526036044689448090139194 1:-2.41574 2:-1.23894 3:1.4552701 4:-0.467796 5:0.696055 6:-0.98967499 7:-0.82741898 8:-2.24178 9:-0.693232 10:-0.99781001 14:1 20:1 #
0.93673763298808498944936218322255 1:-1.50139 2:1.65624 3:1.7223001 4:-0.56189102 5:-1.82539 6:-0.94670498 7:-2.2469201 8:-1.78655 9:0.639404 10:-0.60285199 13:1 24:1 #
0.91263652226422875557432234927546 1:-1.93357 2:1.40604 3:3.05741 4:-0.75949198 5:-0.041509401 6:-1.04804 7:-4.2641001 8:-1.98887 9:1.8152601 10:-0.76596999 13:1 24:1 #
0.9999927939810835386680309966323 1:-0.94063902 2:0.378429 3:-1.61549 4:-0.63716799 5:-0.55608898 6:-0.241879 7:0.218528 8:0.89428401 9:0.430363 10:0.43249801 13:1 16:1 #
0.41386594253518005359637754736468 1:-3.7765601 2:-1.37298 3:0.92122799 4:-0.56189102 5:0.078559197 6:-1.43027 7:-1.01419 8:-1.48306 9:-0.0399791 10:-0.95174402 14:1 16:1 #
0.99006690699790733667384756699903 1:-2.1514399 2:1.04861 3:2.6568799 4:-1.12646 5:-0.36741 6:-1.3687 7:-3.81584 8:0.084977202 9:2.59916 10:-1.3127199 13:1 28:1 #
0.99999999999996536104163169511594 1:-0.46560499 2:1.2362601 3:0.78771698 4:0.129711 5:2.3083999 6:-0.40221301 7:-1.8733701 8:0.38846701 9:1.7368701 10:-0.371012 13:1 18:1 #
0.99310346899086221483798908593599 1:-0.56203997 2:-0.60450399 3:1.4552701 4:0.14382499 5:1.4164701 6:-0.79278499 7:1.3018301 8:-1.6348 9:-2.2087801 10:-1.14054 13:1 38:1 #
0.99803327844772571353360035573132 1:-3.6515501 2:-1.06916 3:2.79039 4:-0.547777 5:0.61029202 6:-1.4110301 7:-0.640643 8:-4.1132998 9:-2.1826501 10:-0.82336402 14:1 19:1 #
0.54458324552346359936905173526611 1:-1.7657 2:-1.24788 3:0.253672 4:-1.12646 5:-0.71046299 6:-1.28789 7:-0.304445 8:-0.977238 9:-0.24902 10:-0.56433702 14:1 25:1 #
1 1:-1.20137 2:1.73666 3:4.39252 4:-0.50543398 5:0.45591801 6:-0.40221301 7:-4.4135199 8:-5.4284301 9:-0.35354099 10:-0.39064601 13:1 27:1 #
0.98529993799267323595358902821317 1:-3.3408101 2:1.56688 3:3.1909201 4:0.38376901 5:2.1025701 6:-1.3000799 7:-3.9279001 8:-2.9499199 9:1.0052299 10:-0.778808 14:1 19:1 #
0.99999998935893374962802226946224 1:-1.1478 2:-0.61343902 3:0.65420598 4:-0.053775601 5:0.59313899 6:-0.143755 7:1.22712 8:-0.977238 9:-1.60779 10:-0.92757797 13:1 18:1 #
0.78142643587518723080620475229807 1:-1.42996 2:1.61156 3:-0.0133511 4:-1.12646 5:-0.59039497 6:-0.220715 7:-0.939484 8:-0.16793101 9:0.74392498 10:-1.0997601 13:1 24:1 #
0.64139571479294010813987370056566 1:-1.78356 2:1.1201 3:0.12016 4:0.84954101 5:0.45591801 6:-0.94862902 7:-1.35039 8:0.84370297 9:1.58009 10:-1.2727 14:1 16:1 #
0.99999999985965759563555366185028 1:-1.50854 2:-1.01555 3:2.9238999 4:0.063843802 5:1.48508 6:-0.84280902 7:-0.416511 8:-4.2650499 9:-2.4962101 10:-0.74104899 13:1 18:1 #
0.99999796179148381369827802700456 1:-0.97278398 2:1.29881 3:4.39252 4:-0.50543398 5:1.31355 6:-0.39195099 7:-5.98244 8:-2.7476001 9:2.3117299 10:-0.46918499 13:1 27:1 #
0.99749608778341380954657324764412 1:-2.4836099 2:-0.27388099 3:-0.54739702 4:-0.56189102 5:0.095711797 6:-0.51701099 7:0.89092302 8:0.489631 9:-0.405801 10:-1.21153 14:1 24:1 #
0.99999999999999134026040792377898 1:-1.12994 2:-1.14958 3:1.5887901 4:-1.12646 5:-0.57324201 6:-0.71390098 7:-0.49122199 8:-2.4441099 9:-1.11131 10:-0.92757797 13:1 34:1 #
0.89607969523047314996944123777212 1:-1.3371 2:-1.0870301 3:-1.48198 4:-1.12646 5:-0.84768403 6:-0.413757 7:0.25588301 8:0.43904901 9:0.169062 10:0.72475201 13:1 31:1 #
0.99999986755258540860324956156546 1:-3.18366 2:-1.3283 3:1.85581 4:0.25203499 5:-2.71732 6:-1.0583 7:-1.38775 8:-2.4946899 9:-0.43193099 10:-0.95174402 14:1 24:1 #
0.99505288898996879787262059835484 1:-1.95857 2:0.49459401 3:1.1882499 4:-1.26761 5:-0.79622602 6:-0.54587102 7:-0.640643 8:1.55185 9:1.10975 10:-1.06276 13:1 30:1 #
0.98879696279682982584802175551886 1:-3.15151 2:-0.85470498 3:3.1909201 4:-0.98532099 5:-0.024356799 6:-1.27571 7:0.25588301 8:-4.46737 9:-3.7243299 10:-1.26816 14:1 15:1 #
0.98261088042190380953400108410278 1:-0.48703501 2:-0.89044797 3:1.05474 4:0.308492 5:2.1883399 6:-0.76969701 7:0.59208101 8:-1.73596 9:-1.55553 10:-1.099 13:1 47:1 #
0.86108344339592868266208824934438 1:-2.13715 2:-0.48833901 3:1.05474 4:-1.12646 5:-0.81337899 6:-1.12949 7:1.4139 8:-0.92665702 9:-1.84296 10:-0.75313199 13:1 30:1 #
0.99993779717729869283004973112838 1:-2.2835901 2:1.81709 3:1.3217601 4:-1.12646 5:-0.64185202 6:-0.89860499 7:-1.31304 8:-1.73596 9:0.0122812 10:-0.79617703 14:1 28:1 #
0.99969377752684174254227400524542 1:-1.95143 2:-0.36323801 3:2.3898499 4:-1.26761 5:-0.79622602 6:-1.17502 7:1.56332 8:-1.68538 9:-2.7836399 10:-1.07786 13:1 18:1 #
0.83542952611137788476725063446793 1:-3.36938 2:-1.18533 3:0.78771698 4:0.14382499 5:0.47307 6:-1.12243 7:-0.304445 8:-1.48306 9:-0.58871198 10:-0.94041598 14:1 24:1 #
0.89341338295731487217921085175476 1:-1.77641 2:0.181843 3:0.65420598 4:-1.26761 5:-0.79622602 6:-1.23979 7:0.51736999 8:1.19777 9:0.064541399 10:-0.66402102 13:1 31:1 #
0.92765581284409814877278677158756 1:-1.52282 2:0.83415198 3:1.5887901 4:-0.86770201 5:-0.53893697 6:-0.91976899 7:-2.2095599 8:1.19777 9:2.1288199 10:-0.207893 13:1 47:1 #
0.094312507256022692914143590314779 1:-2.04072 2:-0.52408201 3:0.65420598 4:-0.98532099 5:-0.50463098 6:-1.09293 7:1.3018301 8:-0.77491099 9:-1.60779 10:-0.36195001 14:1 20:1 #
1 1:-2.99793 2:1.78134 3:1.4552701 4:0.308492 5:0.164322 6:-1.25647 7:-1.6118799 8:-1.88771 9:0.116802 10:-0.76748002 14:1 19:1 #
0.66121733920340008960891964306938 1:-1.85856 2:-0.24707399 3:-0.81441897 4:0.477864 5:0.62744403 6:-0.97877198 7:0.816212 8:0.59079403 9:-0.27515 10:-0.61568999 14:1 16:1 #
0.997615778400638197886962643679 1:-2.6479001 2:1.54008 3:2.6568799 4:-0.19491901 5:1.87959 6:-1.10576 7:-3.47964 8:-2.1912 9:1.18814 10:-0.82865 14:1 24:1 #
0.99997773015177160438327064184705 1:-2.83006 2:-0.908319 3:2.25634 4:-0.24196699 5:1.19348 6:-1.32445 7:0.330594 8:-3.3545799 9:-2.4962101 10:-1.19718 14:1 18:1 #
0.99997145388976260704794185585342 1:-2.2514501 2:0.306943 3:1.5887901 4:-0.82065398 5:0.42161199 6:-0.46570501 7:-0.080313802 8:1.2989399 9:0.37810299 10:-0.81958801 14:1 16:1 #
0.85396837406759051880555944080697 1:-0.894207 2:-0.81896198 3:-0.0133511 4:0.38376901 5:-1.03636 6:-1.02495 7:0.74150199 8:-0.67374802 9:-0.92840302 10:-1.3089401 13:1 24:1 #
0.99999999985476684116747492225841 1:-1.76213 2:1.75453 3:0.65420598 4:-1.26761 5:-0.79622602 6:-1.05124 7:-1.12626 8:-1.02782 9:0.351973 10:-0.269063 13:1 34:1 #
1 1:-1.02279 2:-1.37298 3:5.0600801 4:-0.44427201 5:1.22779 6:-0.39131001 7:-4.33881 8:-6.7435498 9:-1.37262 10:-0.400464 13:1 27:1 #
0.99999999999992628119116488960572 1:-3.2658 2:1.79921 3:1.05474 4:0.43081599 5:-1.0020601 6:-1.06471 7:-1.16362 8:-1.43247 9:0.142932 10:-0.88226801 14:1 24:1 #
1 1:-1.20137 2:-1.35511 3:0.78771698 4:0.063843802 5:1.55369 6:-1.01661 7:-0.86477399 8:-1.3818901 9:-0.066109203 10:-1.19718 13:1 47:1 #
0.99999999999757194224514478264609 1:-1.06565 2:1.61156 3:2.1228299 4:-0.420748 5:0.061406501 6:-0.25663 7:-2.65783 8:-1.88771 9:0.848445 10:0.427212 13:1 38:1 #
0.99687094543806087365567236702191 1:-3.41224 2:1.79028 3:0.12016 4:-1.26761 5:-0.79622602 6:-1.35716 7:-0.60328698 8:-0.522003 9:0.29971299 10:-1.1435601 14:1 24:1 #
1 1:-2.5943301 2:1.79921 3:0.253672 4:0.14382499 5:1.09057 6:-1.09806 7:-0.75270802 8:-0.72433001 9:0.24745201 10:-1.42373 14:1 16:1 #
0.99980433899113341222886219838983 1:-3.6336901 2:-0.99767703 3:1.5887901 4:-0.105528 5:0.76466602 6:-1.36101 7:0.14381801 8:-2.4441099 9:-1.63392 10:-0.89586103 14:1 15:1 #
1 1:-2.3764601 2:1.22733 3:2.9238999 4:-0.420748 5:0.64459699 6:-0.94157398 7:-4.1893902 8:-0.87607503 9:2.39012 10:-0.93588501 14:1 20:1 #
0.99999288532441443777543099713512 1:-2.7300501 2:-0.68492502 3:1.85581 4:-0.68421501 5:-1.31081 6:-0.94927001 7:1.15241 8:-2.3935299 9:-2.6007299 10:-0.79768801 14:1 19:1 #
0.99392816834654251767489085978013 1:-1.48711 2:-0.264945 3:1.4552701 4:-1.12646 5:-1.01921 6:-0.28869599 7:1.48861 8:-0.471421 9:-1.7907 10:-1.13752 13:1 24:1 #
0.92132639593413623302353698818479 1:-3.1658001 2:1.79028 3:2.79039 4:0.25203499 5:-0.64185202 6:-1.2212 7:-2.5831201 8:-3.45574 9:-0.24902 10:-0.74482501 14:1 19:1 #
0.99584919874388777571994069148786 1:-1.81213 2:0.79840899 3:0.253672 4:-0.16669001 5:-0.76192099 6:-0.88898498 7:-1.01419 8:1.4001 9:1.52783 10:-1.46376 14:1 20:1 #
1 1:-3.09079 2:-1.2032 3:1.4552701 4:0.43081599 5:3.4061699 6:-1.29238 7:-0.67799801 8:-2.2923601 9:-0.85001302 10:-0.81430203 14:1 19:1 #
0.99999975728695955634606207240722 1:-1.7657 2:1.66518 3:-1.48198 4:-0.82065398 5:-1.03636 6:-0.81010097 7:0.031752001 8:0.59079403 9:0.430363 10:-0.42689499 13:1 18:1 #
0.81834111019246591478548680242966 1:-1.51568 2:-0.86364001 3:1.5887901 4:-0.75949198 5:-0.36741 6:-0.325894 7:0.62943602 8:-2.4441099 9:-2.052 10:-1.04614 13:1 18:1 #
0.99999999989614540840676681909827 1:-0.94778198 2:1.79028 3:-0.68090802 4:-0.84417802 5:-0.72761601 6:-0.20147499 7:-0.26708999 8:0.034395501 9:0.351973 10:0.467237 13:1 25:1 #
0.9967669502880598386695965018589 1:-1.20851 2:1.2452 3:1.3217601 4:-0.067889899 5:1.19348 6:-0.92233402 7:-2.4336901 8:0.13555899 9:1.91978 10:-1.12997 13:1 47:1 #
0.43313092222324578450809440255398 1:-1.70855 2:1.79921 3:-0.54739702 4:0.84954101 5:0.52452803 6:-1.17823 7:-0.304445 8:-0.11735 9:0.32584301 10:-0.707066 14:1 20:1 #
0.90111920598758821210338965101982 1:-2.40503 2:0.50353003 3:2.6568799 4:-1.12646 5:-0.45317301 6:-0.61705899 7:-1.57452 8:1.19777 9:1.26653 10:-1.0786099 14:1 15:1 #
0.42148933916515030073668413024279 1:-3.7051201 2:0.90563798 3:1.5887901 4:-1.26761 5:-0.79622602 6:-1.37255 7:-2.28427 8:1.09661 9:2.1810801 10:-0.93437499 14:1 15:1 #
0.99683775236618721304893142587389 1:-1.4478199 2:1.3703001 3:0.78771698 4:-1.12646 5:-0.53893697 6:-0.95183599 7:-1.91072 8:-0.016186099 9:1.5017 10:-0.70631099 13:1 38:1 #
0.99999996571093741071223348626518 1:-3.1550801 2:-1.14958 3:1.3217601 4:-1.12646 5:-0.71046299 6:-1.395 7:-0.416511 8:-2.1912 9:-0.98066401 10:-1.1058 14:1 29:1 #
0.93356436441406842607904081887682 1:-1.27281 2:-1.0870301 3:-0.0133511 4:0.94363701 5:-0.264494 6:-0.58178598 7:0.181173 8:-0.82549298 9:-0.536452 10:-0.186748 13:1 25:1 #
0.53132342432118806474505845471867 1:-1.39424 2:1.64731 3:0.52069402 4:0.063843802 5:1.15918 6:-1.13975 7:-1.2756799 8:-0.67374802 9:0.69166398 10:-1.21908 13:1 24:1 #
0.74957402733504163716560242392006 1:-0.89777797 2:1.45072 3:-0.28037399 4:-0.19491901 5:1.79383 6:-0.37784201 7:-0.939484 8:0.28730401 9:1.0052299 10:-0.43444699 13:1 27:1 #
0.66675974344613009314741702837637 1:-2.3336 2:-0.98874098 3:1.1882499 4:-1.12646 5:-0.55608898 6:-0.69786799 7:0.25588301 8:-2.09004 9:-1.45101 10:-0.59076899 14:1 24:1 #
0.99999143773417187297525288158795 1:-2.2121601 2:-1.1317101 3:-0.94793099 4:-0.56189102 5:0.78181797 6:-0.81908 7:0.218528 8:0.034395501 9:-0.013849 10:-0.70933199 14:1 25:1 #
0.99222694025671043238645552264643 1:-1.69426 2:-1.3908499 3:-0.68090802 4:-1.26761 5:-0.79622602 6:-0.463781 7:-0.229735 8:-0.066767797 9:0.29971299 10:-0.85734701 13:1 18:1 #
0.99928389755136781680278090789216 1:-1.77284 2:-1.0870301 3:-1.21495 4:1.27768 5:2.51424 6:-0.918486 7:0.25588301 8:0.23672201 9:0.064541399 10:-0.69271803 14:1 20:1 #
0.99999999999999977795539507496869 1:-3.4265299 2:-0.84576899 3:-0.146862 4:-0.13846201 5:0.54168099 6:-1.3148299 7:0.66679102 8:-0.62316602 9:-0.823883 10:-0.83469099 14:1 15:1 #
0.99999926522909210468981200392591 1:-1.98357 2:1.25413 3:0.38718301 4:-0.68421501 5:0.232933 6:-0.93644398 7:-1.57452 8:0.489631 9:1.55396 10:-0.27510399 14:1 20:1 #
0.64698652295145697710410104264156 1:-1.90142 2:1.7634701 3:0.52069402 4:-0.467796 5:-0.69331002 6:-0.78893697 7:-0.939484 8:-0.82549298 9:0.351973 10:-1.3822 14:1 20:1 #
0.96918953688188402839642776598339 1:-2.0335701 2:1.07542 3:1.85581 4:-0.63716799 5:-0.024356799 6:-1.36101 7:-2.9193101 8:0.43904901 9:2.3117299 10:-1.3353699 13:1 16:1 #
0.99236288138360040367302872255095 1:-2.10144 2:-0.62237501 3:-0.54739702 4:-1.26761 5:-0.79622602 6:-1.4463 7:0.816212 8:0.034395501 9:-0.58871198 10:-1.29006 13:1 28:1 #
0.99999999999993660626529390356154 1:-1.36924 2:1.48646 3:-0.28037399 4:-0.32194799 5:0.19862799 6:-0.27522799 7:-0.82741898 8:0.23672201 9:0.92683601 10:-0.98270601 13:1 18:1 #
0.68639283642649751016051595797762 1:-1.83356 2:1.4149801 3:1.3217601 4:0.651941 5:-0.59039497 6:-0.99416399 7:-2.28427 8:-0.471421 9:1.5017 10:-0.61568999 14:1 24:1 #
0.99340107585210879470594136364525 1:-2.15501 2:-0.77428299 3:1.05474 4:-0.41133901 5:0.67890197 6:-1.0583 7:0.92827803 8:-1.5842201 9:-1.73844 10:-0.809771 14:1 15:1 #
0.99999999999999955591079014993738 1:-1.15494 2:1.18265 3:-1.61549 4:0.14382499 5:1.22779 6:-0.75302202 7:0.031752001 8:0.79312098 9:0.561014 10:-0.204117 13:1 45:1 #
0.98202016037130746006766912614694 1:-1.64426 2:-0.81002599 3:0.12016 4:1.3953 5:0.696055 6:-1.17759 7:0.77885699 8:-0.77491099 9:-1.03292 10:-0.78409398 14:1 20:1 #
0.97666705573954215591214733649394 1:-2.17644 2:1.3703001 3:0.65420598 4:0.308492 5:0.35300201 6:-0.73763001 7:-1.79866 8:0.034395501 9:1.44944 10:-0.76068401 14:1 25:1 #
0.83297680801135876027530002829735 1:-0.62990201 2:1.06648 3:1.5887901 4:0.50138801 5:2.7886801 6:-0.63822401 7:-2.6951799 8:0.59079403 9:2.25947 10:-0.72368002 13:1 27:1 #
0.8329768080113586492529975657817 1:-0.57632703 2:1.09329 3:1.5887901 4:0.623712 5:3.14889 6:-0.64656103 7:-2.7325399 8:0.489631 9:2.23334 10:-0.72518998 13:1 27:1 #
0.99717439525446016634901980069117 1:-2.23716 2:-0.032615501 3:-0.68090802 4:-1.0700099 5:-0.77907401 6:-1.28276 7:0.74150199 8:0.84370297 9:-0.066109203 10:-0.53262001 14:1 15:1 #
0.6456697341667537726195291725162 1:-1.59426 2:-0.23813801 3:-0.68090802 4:-1.26761 5:-0.79622602 6:-1.31675 7:0.89092302 8:0.59079403 9:-0.35354099 10:-0.313618 13:1 24:1 #
0.99999999006888151686922583394335 1:-2.67291 2:-0.98874098 3:-0.94793099 4:-1.26761 5:-0.79622602 6:-0.59974301 7:0.36794901 8:0.034395501 9:-0.1445 10:-1.0922101 14:1 16:1 #
0.99999999999999600319711134943645 1:-1.6549799 2:-0.872576 3:1.5887901 4:0.25203499 5:0.953345 6:-1.12628 7:0.59208101 8:-2.3429401 9:-1.97361 10:-0.68894202 13:1 16:1 #
0.99146744635374095544477768271463 1:-3.2372301 2:1.3971 3:2.52336 4:0.28496799 5:2.70292 6:-1.3148299 7:-3.62906 8:-1.43247 9:1.78913 10:-0.82865 14:1 19:1 #
0.99999999999900501812533093470847 1:-0.50132197 2:-1.31043 3:-0.0133511 4:-0.41133901 5:-0.59039497 6:-0.64784402 7:-0.34180099 8:-0.62316602 9:0.0122812 10:0.048867598 13:1 45:1 #
0.99056366443312648950580978635116 1:-1.90142 2:1.16478 3:0.38718301 4:0.45434001 5:-1.1735801 6:-0.87230998 7:-1.57452 8:0.69195801 9:1.68461 10:-1.40485 14:1 24:1 #
0.99999999987425680636476954532554 1:-1.92285 2:1.42391 3:-1.21495 4:1.06126 5:0.52452803 6:-0.95632499 7:-0.229735 8:0.64137602 9:0.66553402 10:-0.48881999 14:1 24:1 #
0.99999999995707633537733727280283 1:-1.16565 2:1.4596601 3:3.05741 4:-0.68421501 5:0.38730699 6:-0.39131001 7:-4.0773301 8:-2.1912 9:1.58009 10:-0.48126799 13:1 27:1 #
0.99206369032855368228496217852808 1:-1.99786 2:1.54008 3:-0.54739702 4:-0.053775601 5:1.05626 6:-0.79278499 7:-0.640643 8:0.23672201 9:0.770055 10:-0.647407 14:1 24:1 #
0.85976396125405751824644084990723 1:-1.35853 2:1.64731 3:1.5887901 4:-0.27019501 5:0.88473397 6:-1.04483 7:-2.13485 8:-1.6348 9:0.69166398 10:-1.26816 13:1 47:1 #
0.064324760574923908751365786429233 1:-2.0478599 2:0.83415198 3:1.05474 4:-0.86770201 5:-0.55608898 6:-0.722238 7:-1.64923 8:1.34952 9:1.8936501 10:-0.85130501 14:1 24:1 #
0.84023838198208600225314057752257 1:-1.56568 2:-1.31936 3:-0.0133511 4:-1.12646 5:-0.69331002 6:-0.25406399 7:-0.34180099 8:-0.57258499 9:0.064541399 10:-0.0266503 13:1 31:1 #
0.99998357914890179110045664856443 1:-2.9693501 2:-1.0423599 3:0.253672 4:-0.56189102 5:-0.315952 6:-1.28276 7:0.25588301 8:-1.02782 9:-0.71936202 10:-1.2372 14:1 16:1 #
0.9999899756299357456157395063201 1:-1.46925 2:-1.3908499 3:-0.0133511 4:0.25203499 5:-1.70532 6:-0.63630003 7:-0.49122199 8:-0.522003 9:0.221322 10:-0.657224 13:1 24:1 #
0.74740175282624821129218162241159 1:-1.94785 2:0.12822799 3:-1.21495 4:-0.86770201 5:-0.79622602 6:-1.50723 7:0.44266 8:0.944866 9:0.27358201 10:-1.2689199 13:1 16:1 #
0.85788024319664801797813424855121 1:-2.3050201 2:-0.45259601 3:0.78771698 4:0.233216 5:0.55883402 6:-1.2622401 7:1.3765399 8:-0.62316602 9:-1.60779 10:-0.90265697 14:1 17:1 #
0.99951707246730903122511335823219 1:-0.71562302 2:1.37923 3:-0.28037399 4:-1.26761 5:-0.79622602 6:-0.95183599 7:-0.97684002 8:0.38846701 9:1.10975 10:-0.33098701 13:1 37:1 #
0.96865407639388112492895288596628 1:-2.3978901 2:1.66518 3:1.7223001 4:-1.12646 5:-0.57324201 6:-0.60294998 7:-2.13485 8:-1.73596 9:0.61327398 10:-1.1186399 14:1 31:1 #
0.99999999978116105303627136891009 1:-1.26209 2:-1.31043 3:1.05474 4:-0.98532099 5:-0.79622602 6:-0.33487299 7:-0.86477399 8:-1.73596 9:-0.30127999 10:0.63262099 13:1 31:1 #
0.90846898204367365625699903830537 1:-0.95135403 2:-1.29256 3:-0.68090802 4:-0.86770201 5:-0.77907401 6:-0.18736599 7:-0.042958502 8:-0.066767797 9:0.142932 10:0.48913699 13:1 25:1 #
0.72865990804040203787650398226106 1:-0.68347698 2:-1.36404 3:0.38718301 4:0.129711 5:-1.44803 6:-0.75302202 7:-0.640643 8:-0.87607503 9:0.090671502 10:0.109282 13:1 27:1 #
0.99999975065838553334174321207684 1:-1.21209 2:0.583951 3:0.92122799 4:-1.26761 5:-0.79622602 6:-0.18736599 7:-0.86477399 8:1.55185 9:1.37105 10:0.078319602 13:1 31:1 #
0.91873105152324974209676611280884 1:-0.729909 2:-1.35511 3:-0.28037399 4:0.56725502 5:0.232933 6:-0.29575101 7:-0.304445 8:-0.370258 9:0.169062 10:0.199148 13:1 24:1 #
0.92838418697699587323057812682237 1:-1.99786 2:0.61969399 3:0.38718301 4:-0.19491901 5:1.50223 6:-0.62475502 7:-0.640643 8:1.55185 9:1.26653 10:-0.95854098 14:1 15:1 #
0.85130869859930657916891050263075 1:-3.63012 2:0.87883103 3:-0.146862 4:-0.84417802 5:-0.436021 6:-1.3148299 7:-0.82741898 8:1.24836 9:1.39718 10:-0.92908901 14:1 15:1 #
0.99999985195064355902871966463863 1:-1.58354 2:-0.58663201 3:1.7223001 4:0.120301 5:1.2964 6:-0.97620702 7:1.3765399 8:-1.83713 9:-2.41782 10:-0.800708 13:1 18:1 #
0.90509518446739045671733947528992 1:-1.17637 2:-1.2568099 3:0.38718301 4:-1.26761 5:-0.79622602 6:-0.73250002 7:-0.37915599 8:-1.12898 9:-0.24902 10:-0.90492302 13:1 34:1 #
0.99997168255850299445341988757718 1:-1.955 2:-0.31856 3:1.1882499 4:-0.44427201 5:0.21578 6:-1.46426 7:1.48861 8:-0.522003 9:-1.76457 10:-1.26212 13:1 18:1 #
0.99999990122574411444134057092015 1:-2.12287 2:-0.872576 3:1.5887901 4:0.53902602 5:1.15918 6:-1.21863 7:0.62943602 8:-2.3935299 9:-2.0258701 10:-0.82185298 14:1 17:1 #
0.96500921483243540244245650683297 1:-1.34067 2:-0.85470498 3:1.05474 4:-0.82065398 5:-0.384563 6:0.33275601 7:0.70414603 8:-1.73596 9:-1.66005 10:-0.78560501 13:1 24:1 #
0.98578258043227495743821009455132 1:-0.86563301 2:-0.21133099 3:-0.146862 4:0.14382499 5:-0.69331002 6:-0.23289999 7:1.0777 8:0.489631 9:-0.58871198 10:0.51405799 13:1 18:1 #
0.99999999916043114112085277156439 1:-3.0515001 2:-1.10491 3:1.4552701 4:0.43081599 5:-0.092967398 6:-1.27314 7:-0.26708999 8:-2.2923601 9:-1.1897 10:-0.791646 14:1 19:1 #
0.99999999999999122923810546126333 1:-1.25852 2:1.79921 3:0.92122799 4:-1.0700099 5:-0.60754699 6:-0.31755701 7:-1.05155 8:-1.28073 9:0.142932 10:0.62809002 13:1 31:1 #
0.99999999999717448240232897660462 1:-3.1908 2:0.94138098 3:0.38718301 4:-0.24196699 5:0.37015399 6:-1.21863 7:-1.31304 8:1.19777 9:1.68461 10:-1.01744 14:1 24:1 #
0.9858059311013073200413714403112 1:-1.69426 2:-1.06916 3:-0.28037399 4:-1.26761 5:-0.79622602 6:-0.73314101 7:0.25588301 8:-0.522003 9:-0.37967101 10:-0.80221897 13:1 17:1 #
0.96597356063139638848724644049071 1:-2.09429 2:-0.667054 3:2.3898499 4:-0.84417802 5:-0.144425 6:-1.28212 7:1.18976 8:-2.8487599 9:-2.9665501 10:-1.20926 13:1 17:1 #
0.95945682195143788817404129076749 1:-2.2693 2:1.40604 3:0.92122799 4:-0.279605 5:1.15918 6:-0.91463798 7:-1.98543 8:-0.218513 9:1.44944 10:-0.92757797 14:1 19:1 #
0.94296070543264554064677440692321 1:-3.2658 2:1.7187901 3:1.3217601 4:-1.26761 5:-0.79622602 6:-1.2622401 7:-1.68659 8:-1.53364 9:0.430363 10:-1.21983 14:1 24:1 #
0.99999999882981727150621509281336 1:-2.07286 2:-1.0781 3:1.3217601 4:-0.68421501 5:0.21578 6:-1.36742 7:-0.080313802 8:-2.14062 9:-1.21583 10:-1.30215 13:1 17:1 #
0.99999999999998756550212419824675 1:-2.2121601 2:0.119292 3:1.1882499 4:-1.26761 5:-0.79622602 6:-1.40911 7:0.66679102 8:0.944866 9:-0.30127999 10:-1.35803 13:1 24:1 #
0.99763486949457957919662476342637 1:-1.96928 2:-1.23894 3:2.79039 4:0.14382499 5:1.57084 6:-0.99480498 7:-1.57452 8:-3.91098 9:-1.29423 10:-0.96231699 14:1 24:1 #
0.99986315991369456579462848822004 1:-1.8728499 2:-1.3461699 3:1.3217601 4:0.289673 5:2.0339601 6:-0.98710901 7:-1.12626 8:-1.83713 9:-0.19676 10:-0.91323 14:1 20:1 #
0.97993710783691856391897090361454 1:-1.91571 2:-0.595568 3:0.253672 4:-1.12646 5:-0.77907401 6:-0.89604002 7:1.15241 8:-0.57258499 9:-1.29423 10:-0.83469099 13:1 16:1 #
0.99999999986207188662490352726309 1:-1.92285 2:0.68224502 3:0.253672 4:-1.26761 5:-0.79622602 6:-0.81972098 7:-0.75270802 8:1.50126 9:1.37105 10:-0.60436201 13:1 17:1 #
0.99999999653455251547029547509737 1:-0.994214 2:1.07542 3:2.25634 4:-0.32194799 5:0.66175002 6:-0.59461302 7:-3.3675799 8:0.28730401 9:2.4685099 10:-0.72594601 13:1 27:1 #
0.66518970545463895760462946782354 1:-2.4621799 2:-0.86364001 3:0.38718301 4:-0.86770201 5:-0.74476802 6:-1.40911 7:0.70414603 8:-1.0784 9:-1.16357 10:-0.775787 14:1 17:1 #
0.9999986488900793890621798709617 1:-2.31217 2:-1.33724 3:-0.146862 4:-1.12646 5:-0.71046299 6:-0.75494599 7:-0.34180099 8:-0.471421 9:0.116802 10:-1.33084 14:1 30:1 #
0.95430349853431284401494849589653 1:-3.0622201 2:1.55795 3:0.52069402 4:-1.12646 5:-0.57324201 6:-0.90950799 7:-1.4251 8:-0.42084 9:0.979096 10:-0.92229199 14:1 28:1 #
0.99942281822176592953610452241264 1:-2.7943399 2:-1.37298 3:2.1228299 4:-1.0700099 5:-0.55608898 6:-0.52534902 7:-1.7613 8:-2.6970201 9:-0.327411 10:-1.29308 14:1 24:1 #
0.87244146411911394078941839325125 1:-2.37288 2:-1.1317101 3:0.78771698 4:-0.84417802 5:-0.24734101 6:-0.83383 7:-0.117669 8:-1.6348 9:-0.823883 10:-0.83469099 14:1 19:1 #
0.99998136598272024944122904344113 1:-2.48718 2:1.3971 3:2.52336 4:0.0026817201 5:-0.53893697 6:-0.84537399 7:-3.66642 8:-1.43247 9:1.78913 10:-0.81279099 14:1 24:1 #
0.79707442204691714149333847672096 1:-0.76562601 2:-0.73853999 3:0.65420598 4:-0.98532099 5:-0.62470001 6:-0.86974502 7:0.96563298 8:-1.12898 9:-1.4771399 10:-0.42160901 13:1 37:1 #
0.99990736676311764430380435442203 1:-1.15494 2:-0.48833901 3:1.7223001 4:-0.68421501 5:-0.333105 6:-0.25278199 7:1.48861 8:-1.53364 9:-2.41782 10:0.090402402 13:1 18:1 #
0.99999999999997890576253212202573 1:-2.4800301 2:-0.086230002 3:0.38718301 4:-0.36429101 5:-0.12727299 6:-1.3417701 7:1.0777 8:0.59079403 9:-0.66710198 10:-0.95476502 14:1 17:1 #
0.77634749382870538170209329109639 1:-0.81920099 2:-1.10491 3:-0.68090802 4:0.72721702 5:1.0391099 6:0.126247 7:0.218528 8:-0.11735 9:-0.092239402 10:-0.38536 13:1 46:1 #
0.96946963501238880844823597726645 1:-2.98364 2:-0.85470498 3:1.1882499 4:-0.13846201 5:0.47307 6:-1.3148299 7:0.70414603 8:-1.93829 9:-1.76457 10:-1.21983 14:1 24:1 #
0.99999998696195124825436550963786 1:-0.78705603 2:-1.10491 3:0.253672 4:-0.44427201 5:-0.041509401 6:-0.77610999 7:0.106462 8:-0.977238 9:-0.536452 10:-1.15262 13:1 47:1 #
0.99994788868846584684035860846052 1:-1.85856 2:1.1201 3:-0.68090802 4:-1.12646 5:-0.77907401 6:-0.32076299 7:-0.60328698 8:0.89428401 9:1.10975 10:-1.3127199 13:1 30:1 #
0.89792321625147986097204011457507 1:-0.92635202 2:-1.2032 3:1.3217601 4:-0.75949198 5:0.28439099 6:-0.66580099 7:-0.56593198 8:-2.09004 9:-0.77162302 10:-0.98874801 13:1 47:1 #
0.47230220817377910336176682903897 1:-3.1157899 2:1.05755 3:1.85581 4:0.233216 5:-0.40171501 6:-1.1993901 7:-2.8446 8:0.54021198 9:2.3117299 10:-0.71461803 14:1 15:1 #
0.99999873887081525136721893431968 1:-1.46568 2:-1.09597 3:1.05474 4:-0.75949198 5:-0.57324201 6:0.192945 7:-0.117669 8:-1.93829 9:-1.03292 10:-0.92757797 13:1 25:1 #
0.99999999311856646588836383671151 1:-1.67641 2:-1.28362 3:-0.81441897 4:-0.279605 5:-0.36741 6:-1.3417701 7:-0.0056032902 8:0.034395501 9:0.169062 10:-0.63305902 13:1 31:1 #
0.99998581824063814682546080803149 1:-2.23716 2:-0.79215401 3:0.12016 4:-0.56189102 5:0.061406501 6:-0.70620501 7:0.816212 8:-0.72433001 9:-1.03292 10:-0.69196302 14:1 25:1 #
0.99999999975516917771756197907962 1:-2.76577 2:-0.65811801 3:1.7223001 4:-1.12646 5:-0.436021 6:-0.64912599 7:1.22712 8:-2.0394499 9:-2.41782 10:-1.09372 14:1 16:1 #
0.9999982846010699866212689812528 1:-2.4121699 2:1.68305 3:1.05474 4:-0.56189102 5:0.71320802 6:-1.0025001 7:-1.57452 8:-1.1795599 9:0.58714402 10:-1.01744 14:1 20:1 #
0.99999999999996169730565043209936 1:-3.7837 2:1.54008 3:2.25634 4:-1.0700099 5:-0.77907401 6:-1.4463 7:-3.0687301 8:-1.83713 9:1.16201 10:-0.87924701 14:1 19:1 #
0.98920310533016064802325217897305 1:-1.88713 2:1.01287 3:1.4552701 4:0.035615101 5:2.0339601 6:-0.70876998 7:-2.4336901 8:0.84370297 9:2.2072101 10:-1.03708 14:1 15:1 #
0.99999979273527328516024681448471 1:-1.67641 2:1.29881 3:2.25634 4:-0.84417802 5:-0.77907401 6:-0.29446799 7:-3.4422901 8:-0.72433001 9:2.07656 10:-0.81958801 13:1 24:1 #
0.92682706518496604797263671571272 1:-1.62283 2:-1.16746 3:-0.54739702 4:-0.84417802 5:-0.59039497 6:-1.2212 7:0.106462 8:-0.218513 9:-0.066109203 10:-0.40952599 14:1 20:1 #
0.99999999187753763063568612778909 1:-1.5621099 2:0.56607997 3:-0.146862 4:-1.26761 5:-0.79622602 6:0.101235 7:-0.26708999 8:1.45068 9:1.0052299 10:-0.88000202 13:1 24:1 #
0.93512166975762867071608752667089 1:-2.0157199 2:1.72773 3:2.3898499 4:-0.82065398 5:-0.333105 6:-1.1179399 7:-2.5084 8:-2.7476001 9:0.19519199 10:-0.83469099 13:1 24:1 #
0.92495667095201006269178378715878 1:-1.75855 2:-0.36323801 3:-1.34846 4:-1.26761 5:-0.79622602 6:-0.946064 7:0.55472499 8:0.64137602 9:0.038411301 10:-0.95098901 13:1 31:1 #
0.57962894277998233683035778085468 1:-2.2014401 2:1.79028 3:2.25634 4:-0.129052 5:0.45591801 6:-1.06792 7:-2.0975001 8:-2.6970201 9:-0.0399791 10:-1.08541 14:1 24:1 #
0.79440357185230270342657377113937 1:-2.4121699 2:-1.29256 3:2.1228299 4:-0.053775601 5:0.97049701 6:-0.93580198 7:-1.4251 8:-3.00051 9:-0.74549299 10:-0.92757797 14:1 24:1 #
0.60026000020130299006382301740814 1:-2.1800101 2:1.4149801 3:0.38718301 4:0.063843802 5:1.3307 6:-0.80112201 7:-1.49981 8:0.034395501 9:1.26653 10:-1.06502 14:1 20:1 #
0.76735472875909915835279662132962 1:-3.45153 2:1.81709 3:2.52336 4:0.14382499 5:1.63945 6:-1.33407 7:-2.2469201 8:-3.2028301 9:-0.30127999 10:-0.83771199 14:1 19:1 #
0.99999870260575807190406294466811 1:-2.3836 2:1.68305 3:-0.81441897 4:-0.420748 5:0.21578 6:-0.60294998 7:-0.26708999 8:0.23672201 9:0.50875401 10:-1.00914 14:1 16:1 #
0.99999873992800891731036472265259 1:-2.2121601 2:-0.15771601 3:1.1882499 4:-1.12646 5:-0.65900499 6:-1.35331 7:1.33919 8:0.084977202 9:-1.29423 10:-1.2689199 13:1 17:1 #
0.99999999999994626520560814242344 1:-3.0122199 2:-1.14958 3:0.38718301 4:0.73662698 5:0.095711797 6:-1.21863 7:-0.042958502 8:-1.0784 9:-0.51032102 10:-0.74482501 14:1 19:1 #
0.99999996009457425838462540923501 1:-1.81213 2:-0.23813801 3:0.52069402 4:-1.12646 5:-0.91629499 6:-0.27651101 7:1.26448 8:0.186141 9:-1.05905 10:-1.28629 13:1 30:1 #
0.99999998947953605554772593677626 1:-0.644189 2:-0.86364001 3:-0.28037399 4:0.14382499 5:0.64459699 6:-0.83383 7:0.62943602 8:-0.471421 9:-0.693232 10:-1.20095 13:1 38:1 #
0.9958218835290614245892015787831 1:-2.2978799 2:1.01287 3:1.7223001 4:-0.420748 5:0.232933 6:-0.37527701 7:-2.6951799 8:0.74253899 9:2.3117299 10:-0.74784601 14:1 16:1 #
0.99718425057362458652221448573982 1:-1.4263901 2:1.33455 3:-0.0133511 4:-0.56189102 5:-0.281647 6:-0.65489799 7:-1.16362 8:0.43904901 9:1.26653 10:-0.49259499 13:1 16:1 #
0.99121238934116939756080455481424 1:-3.6551199 2:1.4149801 3:2.52336 4:-0.37369999 5:0.57598603 6:-1.4110301 7:-3.62906 8:-1.48306 9:1.7368701 10:-0.90643299 14:1 19:1 #
0.99999999999992617016886242709006 1:-2.7729101 2:-1.23894 3:2.25634 4:-1.12646 5:-0.62470001 6:-0.49328199 7:-1.2009701 8:-3.1522501 9:-1.03292 10:-1.33235 14:1 28:1 #
0.99999003756189930314235425612424 1:-1.37281 2:-0.390046 3:-0.413885 4:-0.98532099 5:-0.89914203 6:0.34943101 7:1.00299 8:0.23672201 9:-0.614842 10:-0.69875902 13:1 18:1 #
0.99988013046284685003683989634737 1:-2.0692899 2:0.226521 3:-0.54739702 4:-1.26761 5:-0.79622602 6:-1.10255 7:0.40530401 8:1.19777 9:0.351973 10:-0.69951397 13:1 28:1 #
0.99999136568030855265476475324249 1:-2.5121801 2:0.092485003 3:1.05474 4:-1.12646 5:-0.60754699 6:-0.47275901 7:0.77885699 8:0.89428401 9:-0.37967101 10:-0.79315698 14:1 16:1 #
0.85535761717209723986599101408501 1:-2.85149 2:-0.86364001 3:1.85581 4:-0.75949198 5:-0.45317301 6:-1.2455699 7:0.59208101 8:-2.6970201 9:-2.23491 10:-0.75615299 14:1 15:1 #
0.92504787325600523750779302645242 1:-0.76205403 2:1.272 3:1.05474 4:-0.16669001 5:1.48508 6:-0.457367 7:-2.17221 8:0.13555899 9:1.78913 10:-0.489575 13:1 27:1 #
0.68242252090200672398623282788321 1:-1.96928 2:-0.92619097 3:-0.146862 4:-1.26761 5:-0.79622602 6:-1.2507 7:0.51736999 8:-0.62316602 9:-0.71936202 10:-1.22285 14:1 24:1 #
0.9999960334541105888561673964432 1:-1.47639 2:-0.82789701 3:0.52069402 4:-0.19491901 5:-0.76192099 6:-1.19683 7:0.77885699 8:-1.0784 9:-1.2681 10:-0.556786 13:1 18:1 #
0.98765847982604915156201741410769 1:-1.35138 2:-1.1763901 3:0.12016 4:-0.37369999 5:-1.13928 6:-0.58627498 7:-0.042958502 8:-0.77491099 9:-0.327411 10:-0.59378898 13:1 16:1 #
0.99744498245095736255194651675993 1:-3.0729301 2:-1.14065 3:2.6568799 4:0.035615101 5:-0.19588301 6:-1.20324 7:-0.97684002 8:-3.96156 9:-1.7907 10:-0.72518998 14:1 15:1 #
0.99999991018622080840572152737877 1:-1.35853 2:-0.059422798 3:-1.749 4:-1.26761 5:-0.79622602 6:-0.428507 7:0.330594 8:0.74253899 9:0.29971299 10:0.67642099 13:1 18:1 #
0.9879190347621683576662121595291 1:-1.955 2:1.08435 3:0.65420598 4:-0.420748 5:0.21578 6:-1.39051 7:-1.68659 8:0.84370297 9:1.8152601 10:-1.3822 13:1 16:1 #
0.94076929869874170719867834122851 1:-0.79777098 2:-0.89938301 3:1.5887901 4:-0.63716799 5:0.28439099 6:-0.71838999 7:0.48001501 8:-2.4946899 9:-1.99974 10:-1.08239 13:1 38:1 #
0.88793462310107273971482300112257 1:-1.35138 2:-1.06023 3:1.3217601 4:-0.50543398 5:-0.00720412 6:-1.3295799 7:-0.042958502 8:-2.1912 9:-1.29423 10:-0.41103601 13:1 24:1 #
0.99907495069079021998703638018924 1:-1.97286 2:0.42310801 3:-0.28037399 4:0.035615101 5:0.28439099 6:-0.89347398 7:0.069107197 8:1.34952 9:0.71779501 10:-0.37025699 14:1 20:1 #
0.80327923211875340570031767128967 1:-2.31217 2:1.69198 3:0.12016 4:-1.26761 5:-0.79622602 6:-0.52599001 7:-0.86477399 8:-0.42084 9:0.561014 10:-1.07786 14:1 31:1 #
0.99999999895577984521111147842021 1:-0.95849699 2:-0.51514602 3:0.253672 4:-1.12646 5:-0.67615801 6:-0.64976799 7:1.18976 8:-0.370258 9:-1.21583 10:-0.489575 13:1 27:1 #
0.99999941437416695055873105957289 1:-2.2193 2:-0.86364001 3:-0.54739702 4:-0.105528 5:0.49022299 6:-0.84537399 7:0.59208101 8:-0.218513 9:-0.484191 10:-0.89133 14:1 19:1 #
0.98670380723190720395621156058041 1:-3.1336501 2:1.38817 3:0.92122799 4:-0.00672783 5:0.64459699 6:-1.18977 7:-2.02279 8:-0.16793101 9:1.5017 10:-0.96684802 14:1 24:1 #
0.99999999999984479082115740311565 1:-1.80141 2:0.396301 3:1.7223001 4:-1.0700099 5:-0.50463098 6:-1.3148299 7:-0.52857703 8:1.4001 9:0.770055 10:-0.71612799 13:1 31:1 #
0.65759814943240202378405001581996 1:-1.6014 2:1.55795 3:0.12016 4:-0.82065398 5:-0.315952 6:-1.36101 7:-1.12626 8:-0.16793101 9:0.90070599 10:-0.25849 14:1 24:1 #
0.98623543387135093052364709365065 1:-0.85134703 2:1.45072 3:-0.0133511 4:-0.32194799 5:0.38730699 6:-0.184159 7:-1.05155 8:0.186141 9:1.05749 10:0.20443401 13:1 24:1 #
0.99949561778025564073857367475284 1:-2.1693001 2:0.86989498 3:1.98932 4:-1.12646 5:-0.45317301 6:-1.37832 7:-2.5831201 8:1.04603 9:2.2855999 10:-1.32329 13:1 28:1 #
0.95829501494594893085121611875365 1:-2.9765 2:-1.09597 3:2.9238999 4:-0.63716799 5:-1.07067 6:-1.12628 7:-0.90212899 8:-4.2650499 9:-2.1303899 10:-1.08541 14:1 24:1 #
0.64994772489267949033830973348813 1:-2.1728699 2:-0.36323801 3:0.253672 4:-1.0700099 5:-0.62470001 6:-1.16027 7:1.26448 8:-0.066767797 9:-1.11131 10:-0.420854 14:1 15:1 #
0.94533419254373740603369924428989 1:-2.6871901 2:-0.79215401 3:2.3898499 4:-0.95238799 5:-0.36741 6:-1.07305 7:0.74150199 8:-3.2534101 9:-2.8359001 10:-0.78031898 14:1 18:1 #
0.99999536690905255209571578234318 1:-2.00857 2:1.64731 3:-1.21495 4:-0.68421501 5:-0.64185202 6:-1.50723 7:-0.080313802 8:0.489631 9:0.50875401 10:-1.43128 13:1 16:1 #
0.77795777716220382291822943443549 1:-1.25138 2:1.7634701 3:-1.34846 4:-1.12646 5:-0.81337899 6:-0.193138 7:0.031752001 8:0.489631 9:0.40423301 10:0.533692 13:1 31:1 #
0.98684876985750080713444276625523 1:-1.35853 2:1.52221 3:0.78771698 4:-0.86770201 5:-1.01921 6:-0.67285597 7:-1.7613 8:-0.522003 9:1.10975 10:-0.075736903 13:1 24:1 #
0.87990414978838449311382419182337 1:-1.75141 2:0.896703 3:0.253672 4:0.623712 5:1.0048 6:-1.0339299 7:-1.2009701 8:1.24836 9:1.65848 10:-0.49863699 14:1 20:1 #
0.99993207410511408816944367572432 1:-1.90142 2:-0.53301799 3:-0.28037399 4:1.32472 5:0.86758101 6:-1.06407 7:1.00299 8:-0.066767797 9:-0.823883 10:-0.51525098 14:1 24:1 #
0.99181936871068288041897176299244 1:-1.52282 2:1.48646 3:1.98932 4:-0.86770201 5:-0.17873099 6:-0.97620702 7:-2.9193101 8:-1.33131 9:1.39718 10:-1.25155 13:1 47:1 #
0.92565230530099873451632674914435 1:-1.76213 2:1.79028 3:-0.81441897 4:-1.12646 5:-0.86483699 6:-0.95568401 7:-0.15502401 8:0.13555899 9:0.351973 10:-0.95703 13:1 31:1 #
0.99028008084634489005537716366234 1:-1.0692199 2:1.70092 3:0.65420598 4:-0.105528 5:0.044253901 6:-0.171332 7:-1.16362 8:-0.82549298 9:0.50875401 10:0.36906299 13:1 38:1 #
0.99973997218882237891790509820567 1:-3.31938 2:1.72773 3:0.78771698 4:0.53902602 5:0.71320802 6:-1.08395 7:-1.23833 8:-1.02782 9:0.430363 10:-0.90265697 14:1 24:1 #
0.99977274957324457904661585416761 1:-3.2693801 2:-1.38191 3:0.65420598 4:0.289673 5:-1.01921 6:-1.06407 7:-0.86477399 8:-1.1795599 9:0.064541399 10:-0.85961199 14:1 24:1 #
0.99976253385848878885155954776565 1:-1.3621 2:-1.3908499 3:-1.61549 4:-1.26761 5:-0.79622602 6:-0.95632499 7:0.14381801 8:0.59079403 9:0.351973 10:-0.452571 13:1 25:1 #
0.99143834987829126959013592568226 1:-1.84427 2:-1.35511 3:1.85581 4:-0.56189102 5:-0.79622602 6:-1.14552 7:-1.57452 8:-2.54527 9:-0.327411 10:-0.94343698 13:1 24:1 #
0.9933838000863954853514314891072 1:-2.5228901 2:1.15584 3:1.1882499 4:-0.95238799 5:-0.50463098 6:-0.58371001 7:-2.2469201 8:0.489631 9:1.9720401 10:-1.02273 14:1 20:1 #
0.9569134683336711910683902715391 1:-1.20137 2:1.3256201 3:-0.68090802 4:-1.26761 5:-0.79622602 6:-0.75109798 7:-0.60328698 8:0.64137602 9:0.979096 10:-0.88226801 13:1 34:1 #
0.82463280281656337056261918405653 1:-1.88713 2:1.01287 3:0.92122799 4:0.713103 5:1.96535 6:-0.89155 7:-1.8733701 8:0.944866 9:1.9720401 10:-1.29006 14:1 24:1 #
0.92757642366020898183620602139854 1:-3.3015201 2:1.66518 3:0.65420598 4:0.17205399 5:-1.1735801 6:-1.0820301 7:-1.23833 8:-0.72433001 9:0.639404 10:-0.83469099 14:1 15:1 #
0.99985613979420440156076210769243 1:-3.3765299 2:1.70986 3:-0.146862 4:0.37906399 5:0.50737602 6:-1.12243 7:-0.640643 8:-0.269095 9:0.50875401 10:-0.89586103 14:1 15:1 #
0.99996757165781557930017697799485 1:-2.2728801 2:-1.37298 3:-1.08144 4:-0.98532099 5:-0.67615801 6:-0.52599001 7:-0.042958502 8:0.23672201 9:0.29971299 10:-1.08692 14:1 24:1 #
0.99999999999938971040336355144973 1:-2.3336 2:1.37923 3:1.85581 4:-0.75949198 5:0.26723799 6:-0.89604002 7:-2.9193101 8:-0.72433001 9:1.7368701 10:-1.06955 14:1 19:1 #
0.63547651246709535577394944994012 1:-1.7121201 2:1.75453 3:-0.54739702 4:-1.26761 5:-0.79622602 6:-1.31098 7:-0.34180099 8:-0.016186099 9:0.40423301 10:-0.306822 14:1 30:1 #
0.99999999999928479432753647415666 1:-1.7799799 2:-0.872576 3:0.38718301 4:-1.26761 5:-0.79622602 6:-1.22697 7:0.66679102 8:-1.02782 9:-1.11131 10:-0.40726 14:1 30:1 #
0.99999999409020867702224677486811 1:-1.35853 2:-0.0058082398 3:-0.68090802 4:0.70839798 5:0.078559197 6:-1.05958 7:0.70414603 8:0.89428401 9:-0.013849 10:-0.51827198 13:1 16:1 #
0.55139047228335869021975668147206 1:-0.88706303 2:-1.21213 3:-0.146862 4:-0.105528 5:-0.11012 6:-0.044348199 7:-0.080313802 8:-0.62316602 9:-0.19676 10:0.026967401 13:1 46:1 #
0.79766738643290846511035852017812 1:-1.30852 2:1.35243 3:1.1882499 4:-0.84417802 5:0.0271012 6:-0.75879401 7:-2.28427 8:-0.218513 9:1.65848 10:-0.371012 13:1 47:1 #
0.9999999999785444959599089997937 1:-3.1979401 2:-0.73853999 3:1.7223001 4:-1.26761 5:-0.79622602 6:-1.18015 7:1.00299 8:-2.3935299 9:-2.41782 10:-1.05822 14:1 28:1 #
0.96453596515753625695310802257154 1:-1.35495 2:0.38736501 3:1.05474 4:-1.26761 5:-0.79622602 6:0.31928799 7:-0.229735 8:1.45068 9:0.74392498 10:-0.66477603 13:1 18:1 #
0.97764439446923823151536225850577 1:-0.99778599 2:-0.425789 3:0.38718301 4:-0.27019501 5:-0.213036 6:-0.0526856 7:1.3018301 8:-0.269095 9:-1.24196 10:0.13646799 13:1 24:1 #
0.54972554537804863006300593042397 1:-1.955 2:1.17371 3:-0.146862 4:-0.50543398 5:-0.092967398 6:-1.09934 7:-1.12626 8:0.79312098 9:1.42331 10:-0.45559201 14:1 25:1 #
0.70050225310209346396561613801168 1:-1.21209 2:-1.06023 3:1.98932 4:-0.98532099 5:-0.264494 6:-0.80497003 7:-0.26708999 8:-3.00051 9:-1.71231 10:-0.82487398 13:1 47:1 #
0.69123312360011435195872309122933 1:-1.85856 2:-1.36404 3:-0.68090802 4:-0.00672783 5:0.747513 6:-0.728652 7:-0.19238 8:-0.066767797 9:0.24745201 10:-0.94721299 14:1 20:1 #
0.80353245124881766958679918388953 1:-1.56925 2:1.04861 3:0.12016 4:-1.0700099 5:-0.76192099 6:-0.912714 7:-1.2756799 8:0.99544799 9:1.58009 10:-0.238855 13:1 47:1 #
0.99999999997610211632803611792042 1:-1.71927 2:0.968189 3:-0.94793099 4:0.45434001 5:0.76466602 6:-0.98775101 7:-0.37915599 8:1.04603 9:1.0052299 10:-1.28629 14:1 16:1 #
0.743791862099485445725122190197 1:-2.13715 2:-0.631311 3:0.78771698 4:-0.75949198 5:-0.11012 6:-1.2077301 7:1.18976 8:-1.02782 9:-1.63392 10:-1.14054 14:1 24:1 #
0.27201683517795599565047837131715 1:-1.46925 2:1.40604 3:1.1882499 4:-0.467796 5:0.64459699 6:-1.0801001 7:-2.28427 8:-0.42084 9:1.5017 10:-1.11562 13:1 24:1 #
0.99999999999841371334241557633504 1:-2.1907301 2:1.61156 3:1.5887901 4:-0.95238799 5:-0.55608898 6:-1.35203 7:-2.2095599 8:-1.43247 9:0.87457502 10:-1.30064 13:1 28:1 #
0.99609875516332146982989570460632 1:-2.56933 2:-0.434724 3:1.3217601 4:-1.26761 5:-0.79622602 6:-1.18015 7:1.48861 8:-0.977238 9:-2.0258701 10:-0.97893101 14:1 15:1 #
0.99999999999835842423578924353933 1:-2.70505 2:-0.86364001 3:1.5887901 4:-0.251376 5:0.953345 6:-1.27571 7:0.62943602 8:-2.3935299 9:-2.0258701 10:-1.16093 14:1 16:1 #
0.9999887885345863924868581307237 1:-2.55861 2:0.95925301 3:0.78771698 4:-1.12646 5:-0.59039497 6:-0.62219 7:-1.7613 8:1.09661 9:1.94591 10:-1.07257 14:1 31:1 #
0.99690578845991539846949081038474 1:-0.38345599 2:1.3256201 3:-0.54739702 4:0.204987 5:0.181475 6:-0.365015 7:-0.75270802 8:0.59079403 9:1.05749 10:-0.306822 13:1 27:1 #
0.99999869992275647323509701891453 1:-1.7907 2:1.47753 3:0.12016 4:-1.26761 5:-0.79622602 6:-0.99801201 7:-1.12626 8:0.034395501 9:1.03136 10:-0.99856502 13:1 18:1 #
0.48701834157678380865519329745439 1:-2.0478599 2:-1.3283 3:0.253672 4:-0.36429101 5:0.747513 6:-0.91079003 7:-0.49122199 8:-0.82549298 9:0.0122812 10:-0.79768801 14:1 24:1 #
0.76730732734030582253836882955511 1:-2.0585799 2:1.54008 3:0.78771698 4:-0.84417802 5:-0.487479 6:-1.03777 7:-1.6118799 8:-0.522003 9:1.03136 10:-0.34835601 14:1 25:1 #
0.75799080654816342050850153100328 1:-0.76205403 2:-0.56876099 3:-0.413885 4:0.14853001 5:-0.72761601 6:-1.00378 7:0.96563298 8:-0.066767797 9:-0.74549299 10:-1.17528 13:1 25:1 #
0.99999913479945568006712619535392 1:-3.15151 2:-1.33724 3:0.12016 4:-0.279605 5:-0.47032601 6:-1.01661 7:-0.453866 8:-0.72433001 9:0.038411301 10:-0.80675 14:1 15:1 #
0.9999999999977011722052111508674 1:-1.16208 2:-1.2568099 3:0.65420598 4:-0.00672783 5:0.67890197 6:-1.20324 7:-0.453866 8:-1.28073 9:-0.327411 10:-0.52733397 13:1 16:1 #
0.99999999999769351166634123728727 1:-1.18708 2:-0.64024699 3:0.65420598 4:-0.82065398 5:-0.60754699 6:-0.125156 7:1.15241 8:-1.02782 9:-1.58166 10:0.50273001 13:1 38:1 #
0.93279799044694866605453853480867 1:-2.1585801 2:1.68305 3:-1.34846 4:0.14853001 5:1.9310499 6:-0.94798797 7:-0.042958502 8:0.489631 9:0.45649299 10:-0.99629998 14:1 20:1 #
0.99881988021671352928620990496711 1:-1.03707 2:-1.0423599 3:-0.54739702 4:-0.467796 5:-0.281647 6:-0.29575101 7:0.330594 8:-0.269095 9:-0.30127999 10:-0.0538367 13:1 18:1 #
0.74875398185157293617919549433282 1:-1.25138 2:0.056742001 3:-0.413885 4:-1.26761 5:-0.79622602 6:-0.167484 7:0.70414603 8:0.99544799 9:-0.013849 10:0.073788501 13:1 31:1 #
0.98117663065505378305886097223265 1:-2.24787 2:-1.23001 3:-1.48198 4:-1.12646 5:-0.91629499 6:-1.31675 7:0.181173 8:0.489631 9:0.27358201 10:-1.25457 13:1 28:1 #
0.79592907673433643811478077623178 1:-2.23002 2:1.26307 3:-0.413885 4:-0.24196699 5:1.34786 6:-0.88321298 7:-0.86477399 8:0.69195801 9:1.16201 10:-0.95174402 14:1 19:1 #
0.72695013996063218009169304423267 1:-0.90492201 2:-0.425789 3:-0.81441897 4:-0.27019501 5:-0.86483699 6:-0.23995499 7:0.853567 8:0.38846701 9:-0.37967101 10:0.54124397 13:1 46:1 #
0.94502327549003517503933835541829 1:-2.7514801 2:-0.92619097 3:1.85581 4:-0.56189102 5:0.25008601 6:-0.98775101 7:0.36794901 8:-2.7476001 9:-2.07813 10:-0.82940501 14:1 19:1 #
0.94353831831241341543403677860624 1:-1.6085401 2:1.38817 3:-0.54739702 4:-0.27019501 5:0.54168099 6:-0.722238 7:-0.75270802 8:0.489631 9:1.0052299 10:-1.12921 14:1 20:1 #
0.99999999999570665654147205714253 1:-3.7801299 2:-1.1317101 3:1.4552701 4:-0.37369999 5:0.21578 6:-1.40911 7:-0.34180099 8:-2.2923601 9:-1.11131 10:-0.89133 14:1 16:1 #
0.94981672225271562837178862537257 1:-1.76213 2:-0.559825 3:-0.28037399 4:-1.12646 5:-1.07067 6:-1.11089 7:1.00299 8:-0.11735 9:-0.85001302 10:-0.89737099 13:1 25:1 #
0.99999999999665167838003299038974 1:-1.40139 2:-0.300688 3:0.52069402 4:0.52961701 5:1.1248699 6:-1.04419 7:1.33919 8:-0.066767797 9:-1.24196 10:-0.69347298 13:1 18:1 #
0.99999997818613639566365236532874 1:-1.5764 2:-1.2568099 3:-0.413885 4:-1.26761 5:-0.79622602 6:-0.90501797 7:-0.080313802 8:-0.31967601 9:0.0122812 10:-0.269063 13:1 47:1 #
0.91327859851535808655143000578391 1:-2.33002 2:-1.27469 3:2.52336 4:-0.41133901 5:1.10772 6:-1.01533 7:-1.57452 8:-3.45574 9:-1.00679 10:-1.06276 14:1 20:1 #
0.99068566870835839122122479238897 1:-1.8657 2:1.54901 3:-0.54739702 4:-0.24196699 5:-1.0020601 6:-0.86204898 7:-0.60328698 8:0.23672201 9:0.770055 10:-1.40485 14:1 24:1 #
0.98039132592982702885109347334947 1:-2.0978601 2:0.70905203 3:2.6568799 4:-0.56189102 5:1.02196 6:-0.568959 7:-2.5831201 8:1.14719 9:2.07656 10:-0.92380202 14:1 15:1 #
0.66130114153916708108482680472662 1:-2.1407199 2:1.68305 3:1.98932 4:0.63312203 5:1.99966 6:-0.82677603 7:-2.32163 8:-2.09004 9:0.50875401 10:-0.75841802 14:1 24:1 #
0.99999999999582889209648328687763 1:-3.1372199 2:-0.92619097 3:2.25634 4:0.449635 5:3.1831901 6:-1.28789 7:0.25588301 8:-3.3039999 9:-2.39169 10:-0.81581199 14:1 19:1 #
0.99890041234776583145560380216921 1:-3.2193699 2:-1.14065 3:2.3898499 4:0.34142601 5:-0.88199002 6:-1.23146 7:-0.79006398 8:-3.45574 9:-1.58166 10:-0.76899099 14:1 19:1 #
0.99875061730225134226657246472314 1:-1.46568 2:-1.06023 3:0.253672 4:-0.98532099 5:-0.77907401 6:-1.36101 7:0.218528 8:-1.02782 9:-0.66710198 10:-0.46918499 13:1 31:1 #
0.96325972259793679608463889962877 1:-2.67291 2:-0.88151199 3:3.05741 4:-0.56189102 5:-0.29879901 6:-1.09934 7:0.181173 8:-4.31563 9:-3.1494601 10:-0.81430203 14:1 24:1 #
0.7733438825608497380059702663857 1:-0.919209 2:1.56688 3:2.25634 4:-0.19491901 5:0.76466602 6:-0.31755701 7:-2.8819599 8:-1.88771 9:1.03136 10:0.41512901 13:1 24:1 #
0.99059121535291549953683443163754 1:-1.05493 2:1.42391 3:1.05474 4:-1.12646 5:-0.53893697 6:-0.66131198 7:-2.13485 8:-0.42084 9:1.44944 10:-0.97364402 13:1 34:1 #
0.97176536430895532614471221677377 1:-1.19066 2:1.20052 3:0.65420598 4:0.0026817201 5:1.05626 6:-0.77995801 7:-1.7613 8:0.54021198 9:1.71074 10:-0.199586 13:1 45:1 #
0.46461539752857372587158124588314 1:-2.0907199 2:1.26307 3:0.78771698 4:-1.0700099 5:-0.487479 6:-0.96530402 7:-2.02279 8:0.28730401 9:1.7368701 10:-0.30304599 14:1 24:1 #
0.89328228644251461698644334319397 1:-2.13715 2:-0.68492502 3:0.92122799 4:-1.12646 5:-0.487479 6:-0.93516099 7:1.11505 8:-1.3818901 9:-1.7907 10:-0.39895299 14:1 19:1 #
0.91012973758946091873411887718248 1:-3.7372701 2:-1.24788 3:1.1882499 4:-0.56189102 5:0.130017 6:-1.40333 7:-0.67799801 8:-1.88771 9:-0.536452 10:-0.96533698 14:1 15:1 #
0.91458228388529594354849905357696 1:-2.11215 2:-0.84576899 3:-1.21495 4:-1.26761 5:-0.79622602 6:-0.844733 7:0.44266 8:0.28730401 9:-0.0399791 10:-0.86565399 14:1 30:1 #
0.99985261329835484200856399183976 1:-1.77641 2:-1.29256 3:1.85581 4:-0.27019501 5:0.73035997 6:-0.99416399 7:-1.31304 8:-2.6970201 9:-0.64097202 10:-0.87698102 13:1 24:1 #
0.96141451667469446373814889739151 1:-0.65490401 2:1.3703001 3:-0.68090802 4:0.75544602 5:1.24494 6:-0.323329 7:-0.67799801 8:0.54021198 9:0.979096 10:0.00129136 13:1 24:1 #
0.99995730503624524754258118264261 1:-1.8157001 2:-0.88151199 3:-0.81441897 4:-0.63716799 5:-0.67615801 6:-1.35331 7:0.51736999 8:-0.016186099 9:-0.30127999 10:-0.62399697 14:1 25:1 #
0.98113609815076385789467394715757 1:-0.99064201 2:-1.38191 3:-0.0133511 4:-0.75949198 5:-0.333105 6:-0.227128 7:-0.49122199 8:-0.522003 9:0.19519199 10:0.367553 13:1 16:1 #
0.99999931717879120274261595113785 1:-1.64069 2:-1.3461699 3:-0.146862 4:-0.82065398 5:-0.50463098 6:-1.37255 7:-0.34180099 8:-0.471421 9:0.142932 10:-0.225262 14:1 19:1 #
0.99714224500144976737203705852153 1:-1.19066 2:-0.34536701 3:-0.28037399 4:0.25674 5:-0.76192099 6:-0.39515799 7:1.0403399 8:0.28730401 9:-0.66710198 10:-0.0999026 13:1 16:1 #
0.9999999999913088410963268870546 1:-1.0120699 2:-0.184523 3:-0.81441897 4:0.0026817201 5:0.78181797 6:-0.375918 7:0.77885699 8:0.69195801 9:-0.17062999 10:0.49064699 13:1 18:1 #
0.25794664300965153280742470087716 1:-2.6871901 2:1.56688 3:1.7223001 4:0.0026817201 5:0.59313899 6:-1.08523 7:-2.3963399 8:-1.3818901 9:1.03136 10:-1.3822 14:1 24:1 #
0.99553040523857705412780205733725 1:-1.20851 2:-0.94406199 3:-0.413885 4:-0.75949198 5:-0.62470001 6:-0.148886 7:0.48001501 8:-0.370258 9:-0.484191 10:0.481585 13:1 38:1 #
0.99053835184078664610751729924232 1:-2.6264701 2:-1.19426 3:1.7223001 4:0.72721702 5:2.1883399 6:-1.19426 7:-0.71535301 8:-2.54527 9:-0.98066401 10:-1.35199 14:1 24:1 #
0.9999999999896869162796519958647 1:-1.35495 2:0.77160197 3:2.79039 4:-1.26761 5:-0.79622602 6:0.29620001 7:-2.95667 8:0.99544799 9:2.2855999 10:-0.69120699 13:1 18:1 #
0.99985963195592919561249800608493 1:-1.80141 2:-0.23813801 3:0.38718301 4:-1.26761 5:-0.79622602 6:-0.74468499 7:1.26448 8:0.186141 9:-1.03292 10:-0.29171801 13:1 34:1 #
0.9597014554298959332356844242895 1:-1.1156501 2:1.2362601 3:2.9238999 4:-0.82065398 5:0.19862799 6:-0.52791399 7:-4.1893902 8:-0.87607503 9:2.3639901 10:-0.61417902 13:1 27:1 #
0.99780339061776934794778526338632 1:-1.77284 2:1.26307 3:1.1882499 4:-1.12646 5:-0.64185202 6:-0.97620702 7:-2.32163 8:0.13555899 9:1.84139 10:-1.02424 13:1 31:1 #
0.69974429062876331020248699132935 1:-1.20851 2:1.37923 3:-0.413885 4:-1.26761 5:-0.79622602 6:-0.133494 7:-0.79006398 8:0.489631 9:1.03136 10:0.273911 13:1 24:1 #
0.99800044632574769210009435482789 1:-1.76213 2:0.056742001 3:-1.749 4:-1.26761 5:-0.79622602 6:-0.55484998 7:0.25588301 8:0.74253899 9:0.351973 10:-0.925313 13:1 18:1 #
0.99999890645087030627280455519212 1:-2.04072 2:1.26307 3:-1.21495 4:-0.67010099 5:-0.213036 6:-1.35716 7:-0.26708999 8:0.74253899 9:0.770055 10:-1.28629 13:1 17:1 #
0.92881502230283585763714881977648 1:-0.94420999 2:-1.27469 3:-1.48198 4:-0.703035 5:-0.74476802 6:-0.21494301 7:0.14381801 8:0.489631 9:0.29971299 10:0.47478801 13:1 16:1 #
0.47483245574750027051535994360165 1:-2.04072 2:-1.2568099 3:-0.94793099 4:-0.98532099 5:-0.74476802 6:-1.3687 7:0.069107197 8:0.084977202 9:0.142932 10:-1.20926 13:1 24:1 #
0.67579491906116184729569340561284 1:-1.52639 2:-0.51514602 3:1.98932 4:-1.0700099 5:-0.55608898 6:-0.302165 7:1.48861 8:-1.83713 9:-2.6007299 10:-1.10958 13:1 24:1 #
0.69363049093559026037070225356729 1:-1.41924 2:-0.45259601 3:1.98932 4:-0.82065398 5:-0.71046299 6:-0.26625001 7:1.56332 8:-1.6348 9:-2.5746 10:-1.07408 13:1 24:1 #
0.99870657954595631888849993629265 1:-3.4443901 2:0.73585898 3:1.05474 4:-0.279605 5:0.45591801 6:-1.29559 7:-1.38775 8:1.45068 9:1.7368701 10:-0.86565399 14:1 15:1 #
0.99461167773465131158872054584208 1:-1.80141 2:-0.595568 3:-0.0133511 4:0.713103 5:0.901887 6:-1.02302 7:1.0777 8:-0.370258 9:-1.05905 10:-0.67836899 14:1 16:1 #
0.99999999975627107406950244694599 1:-3.6443999 2:-1.01555 3:2.52336 4:-0.129052 5:0.73035997 6:-1.35331 7:-0.304445 8:-3.8098099 9:-2.2871699 10:-0.81958801 14:1 17:1 #
0.57220751075859777046161980251782 1:-2.06215 2:1.78134 3:0.52069402 4:-1.26761 5:-0.79622602 6:-0.67221397 7:-0.939484 8:-0.92665702 9:0.27358201 10:-0.91776103 14:1 24:1 #
0.99807174844644219735556589512271 1:-2.16573 2:1.06648 3:0.92122799 4:-0.279605 5:0.62744403 6:-0.75494599 7:-1.9480799 8:0.84370297 9:1.94591 10:-1.21153 14:1 15:1 #
0.65023102998483905956561557104578 1:-1.7799799 2:-0.75641102 3:0.65420598 4:-0.19491901 5:0.35300201 6:-1.09549 7:0.92827803 8:-1.28073 9:-1.5294 10:-0.66175503 13:1 24:1 #
0.81260476441926488000433437264292 1:-2.8229201 2:-1.01555 3:2.3898499 4:-0.129052 5:1.24494 6:-1.31098 7:-0.229735 8:-3.5569 9:-2.1565199 10:-1.22285 14:1 24:1 #
0.99999998717985583152056960898335 1:-2.3336 2:-0.80109 3:1.1882499 4:-0.703035 5:0.19862799 6:-0.87936503 7:0.853567 8:-1.78655 9:-1.7907 10:-0.697249 14:1 25:1 #
0.99999998717787685897917526745005 1:-2.35145 2:-0.336431 3:1.7223001 4:-0.82065398 5:0.112864 6:-0.92233402 7:1.56332 8:-0.977238 9:-2.1565199 10:-0.67836899 14:1 25:1 #
0.99832773788014739224649929383304 1:-2.5657499 2:1.3971 3:1.05474 4:-1.0700099 5:-0.64185202 6:-0.48815101 7:-2.0601399 8:-0.269095 9:1.47557 10:-0.94419199 14:1 31:1 #
0.99987833743143983422640985736507 1:-2.25859 2:-0.57769603 3:-0.146862 4:-1.12646 5:-1.03636 6:-1.4110301 7:1.0403399 8:-0.218513 9:-0.902273 10:-1.35954 13:1 24:1 #
0.99968523116708440934274904066115 1:-2.1585801 2:0.65543699 3:0.253672 4:-1.0700099 5:-0.55608898 6:-1.32573 7:-0.640643 8:1.50126 9:1.29266 10:-1.01744 13:1 24:1 #
0.99865922847905574943894180250936 1:-1.67283 2:1.72773 3:-1.08144 4:-1.12646 5:-0.81337899 6:-1.16668 7:-0.117669 8:0.33788601 9:0.430363 10:-0.44199899 14:1 24:1 #
0.95441292722350679067488954387954 1:-2.9800701 2:-1.37298 3:-0.146862 4:-1.12646 5:-0.67615801 6:-0.75302202 7:-0.416511 8:-0.42084 9:0.19519199 10:-1.06427 14:1 28:1 #
0.99999999997429256382019957527518 1:-1.70498 2:-0.84576899 3:0.92122799 4:-0.68421501 5:-0.213036 6:-0.79278499 7:0.74150199 8:-1.6348 9:-1.58166 10:-0.80750501 13:1 16:1 #
0.99481037636268865309574493949185 1:-2.0907199 2:-1.3461699 3:0.12016 4:-1.26761 5:-0.79622602 6:-1.06279 7:-0.453866 8:-0.67374802 9:0.090671502 10:-0.57113397 14:1 28:1 #
0.74819632078921238793611792061711 1:-2.47646 2:1.4149801 3:2.3898499 4:-0.50543398 5:0.93619198 6:-0.62988597 7:-3.4049301 8:-1.28073 9:1.71074 10:-0.938151 14:1 24:1 #
0.99999999997115951444470738351811 1:-3.17294 2:-0.559825 3:1.85581 4:-1.12646 5:-0.67615801 6:-1.18015 7:1.4139 8:-1.98887 9:-2.6268599 10:-1.04916 14:1 17:1 #
0.99803708033386884235227398676216 1:-3.44082 2:-1.1317101 3:3.1909201 4:0.25203499 5:1.79383 6:-1.32445 7:-1.2756799 8:-4.6697001 9:-2.1303899 10:-0.809771 14:1 19:1 #
0.99144255890890831128814397743554 1:-2.2621601 2:-0.89044797 3:0.92122799 4:-0.32194799 5:1.09057 6:-1.07497 7:0.59208101 8:-1.6348 9:-1.4771399 10:-0.69271803 14:1 20:1 #
0.99999999996452848538552871104912 1:-2.2550199 2:-1.05129 3:-0.54739702 4:0.0026817201 5:0.30154401 6:-0.41055 7:0.293239 8:-0.31967601 9:-0.30127999 10:-0.800708 14:1 16:1 #
0.98709849070333499643226105035865 1:-1.35853 2:1.22733 3:0.52069402 4:0.25203499 5:1.07341 6:-1.09165 7:-1.68659 8:0.489631 9:1.65848 10:-1.0597301 13:1 24:1 #
0.98767797036267290788913442156627 1:-2.5228901 2:1.61156 3:1.98932 4:-0.053775601 5:-0.71046299 6:-0.999295 7:-2.5831201 8:-1.83713 9:0.87457502 10:-0.71990401 14:1 24:1 #
0.88783167145201069558879680698738 1:-1.83713 2:-0.28281701 3:0.65420598 4:0.32731101 5:0.73035997 6:-1.01405 7:1.3765399 8:-0.066767797 9:-1.29423 10:-0.47069499 14:1 20:1 #
0.99999760602249487817516637733206 1:-1.70498 2:0.28013599 3:0.253672 4:-1.12646 5:-0.65900499 6:-0.83511299 7:0.293239 8:1.34952 9:0.40423301 10:-0.54923397 13:1 16:1 #
0.99999999995643751304896795772947 1:-2.23002 2:1.18265 3:0.38718301 4:-1.26761 5:-0.79622602 6:-1.36101 7:-1.6118799 8:0.64137602 9:1.65848 10:-1.30215 13:1 17:1 #
0.66833011509398254634817249097978 1:-1.75855 2:1.05755 3:-0.146862 4:0.85424602 5:2.87444 6:-0.96017301 7:-1.05155 8:0.99544799 9:1.44944 10:-1.17981 14:1 16:1 #
0.9998447770068512596708387718536 1:-2.6229 2:-1.31043 3:1.05474 4:-0.27019501 5:2.0339601 6:-1.22312 7:-0.86477399 8:-1.73596 9:-0.30127999 10:-1.31876 14:1 24:1 #
0.99910302410434825848284390303888 1:-3.43367 2:-0.908319 3:2.79039 4:0.14853001 5:1.45077 6:-1.31098 7:0.181173 8:-3.96156 9:-2.8359001 10:-0.78409398 14:1 19:1 #
0.99999999995025135035575658548623 1:-2.51932 2:0.342686 3:0.52069402 4:-1.12646 5:-0.81337899 6:-0.456085 7:0.069107197 8:1.45068 9:0.58714402 10:-0.738029 14:1 15:1 #
0.99999411076701827383317322528455 1:-3.7658401 2:1.79028 3:2.3898499 4:-0.75949198 5:0.164322 6:-1.44951 7:-2.28427 8:-3.00051 9:-0.1445 10:-1.01895 14:1 19:1 #
0.97673029937274524758805682722596 1:-3.2158 2:1.63837 3:2.52336 4:0.57195997 5:2.80583 6:-1.27635 7:-2.9193101 8:-2.4441099 9:0.69166398 10:-0.77050102 14:1 19:1 #
0.92643479405232920242951877298765 1:-3.08722 2:-1.2210701 3:2.3898499 4:-0.44427201 5:-1.6023999 6:-1.12564 7:-1.23833 8:-3.3545799 9:-1.1897 10:-1.06427 14:1 24:1 #
0.91638009524735763999814253111253 1:-2.3157401 2:1.15584 3:0.78771698 4:-0.75949198 5:0.044253901 6:-0.86782098 7:-1.9480799 8:0.59079403 9:1.84139 10:-1.10807 14:1 19:1 #
0.9336065744999142435034400477889 1:-1.98 2:1.29881 3:-1.34846 4:-1.26761 5:-0.79622602 6:-1.23146 7:-0.15502401 8:0.74253899 9:0.66553402 10:-1.03708 13:1 28:1 #
0.4368671828677813118169126482826 1:-1.54782 2:1.77241 3:0.38718301 4:0.129711 5:0.71320802 6:-0.83511299 7:-0.82741898 8:-0.72433001 9:0.32584301 10:-1.15564 14:1 20:1 #
0.56313709171023706989700485792127 1:-1.75141 2:0.74479502 3:0.65420598 4:-0.63716799 5:0.19862799 6:-0.62026602 7:-1.12626 8:1.45068 9:1.63235 10:-1.03708 14:1 24:1 #
0.97706723738090917041887450977811 1:-2.9622099 2:1.03967 3:1.5887901 4:-0.16669001 5:0.044253901 6:-1.2539001 7:-2.62047 8:0.69195801 9:2.25947 10:-0.89208502 14:1 24:1 #
0.97461679211460350291673648825963 1:-0.80134302 2:1.70986 3:1.4552701 4:0.63312203 5:1.0048 6:-0.245727 7:-1.7613 8:-1.6348 9:0.430363 10:0.238417 13:1 24:1 #
0.99976302849699094643654007086297 1:-2.2657299 2:-0.434724 3:0.65420598 4:-0.703035 5:-0.075814798 6:-0.73185802 7:1.3765399 8:-0.522003 9:-1.50327 10:-0.67836899 14:1 18:1 #
0.94626253262864712390012300602393 1:-2.01929 2:-0.62237501 3:1.1882499 4:-1.12646 5:-0.69331002 6:-1.09934 7:1.26448 8:-1.48306 9:-2.052 10:-0.65420401 13:1 18:1 #
0.63502437511154274929481289291289 1:-1.76213 2:1.79921 3:1.4552701 4:-0.27019501 5:1.09057 6:-1.08459 7:-1.46246 8:-1.88771 9:0.038411301 10:-0.87320602 13:1 24:1 #
0.82085086634843762443125569916447 1:-1.96928 2:-1.21213 3:1.05474 4:-0.84417802 5:-0.71046299 6:-1.29238 7:-0.52857703 8:-1.83713 9:-0.64097202 10:-1.11562 13:1 24:1 #
0.5694171890030949034766649674566 1:-1.04422 2:1.7634701 3:0.38718301 4:-1.12646 5:-0.64185202 6:-0.173898 7:-0.90212899 8:-0.82549298 9:0.32584301 10:0.42494699 13:1 24:1 #
0.85964529966722957876612554173335 1:-1.82284 2:-1.35511 3:0.12016 4:-0.44427201 5:-0.60754699 6:-0.82036197 7:-0.49122199 8:-0.67374802 9:0.116802 10:-1.37313 14:1 20:1 #
0.68210514036097569245953309291508 1:-1.4371001 2:-0.93512601 3:0.78771698 4:-1.0700099 5:-0.57324201 6:-0.96273798 7:0.48001501 8:-1.5842201 9:-1.29423 10:-0.75766301 13:1 34:1 #
0.99999999991128962761877119191922 1:-1.8407 2:1.06648 3:-0.413885 4:0.52961701 5:2.4456301 6:-0.52791399 7:-0.79006398 8:0.99544799 9:1.26653 10:-1.13752 14:1 20:1 #
0.59110116344345819960892640665406 1:-2.2193 2:1.38817 3:-0.68090802 4:-1.26761 5:-0.79622602 6:-0.57665497 7:-0.60328698 8:0.54021198 9:0.90070599 10:-1.17981 14:1 30:1 #
0.94593077098652367240561034122948 1:-1.92285 2:1.08435 3:1.85581 4:-0.32194799 5:0.43876499 6:-1.3295799 7:-2.95667 8:0.43904901 9:2.3378601 10:-1.3127199 13:1 24:1 #
0.9999999990541266203791792577249 1:-2.06215 2:0.91457403 3:0.253672 4:-1.26761 5:-0.79622602 6:-1.10704 7:-1.2009701 8:1.24836 9:1.63235 10:-0.73576301 13:1 18:1 #
0.96446286317764817752618000668008 1:-2.1585801 2:0.476722 3:0.38718301 4:-1.12646 5:-0.74476802 6:-1.50723 7:-0.26708999 8:1.55185 9:0.95296597 10:-1.40485 13:1 28:1 #
0.94634297397728062151145422831178 1:-1.31924 2:-1.31936 3:-0.68090802 4:-1.12646 5:-0.84768403 6:-0.397082 7:-0.080313802 8:-0.016186099 9:0.19519199 10:0.67491102 13:1 24:1 #
0.97803187254266910066746731899912 1:-1.5621099 2:-1.31043 3:-0.28037399 4:-0.067889899 5:0.0271012 6:-1.07177 7:-0.229735 8:-0.370258 9:0.090671502 10:-0.72518998 13:1 16:1 #
0.94634298493389934492370230145752 1:-1.09065 2:-1.3908499 3:-0.54739702 4:-1.26761 5:-0.79622602 6:-0.15850601 7:-0.26708999 8:-0.11735 9:0.27358201 10:0.39020801 13:1 24:1 #
0.71125265477265375846371853185701 1:-0.93706697 2:1.6205 3:-0.81441897 4:-0.75949198 5:-0.384563 6:-0.228411 7:-0.34180099 8:0.28730401 9:0.58714402 10:0.42494699 13:1 16:1 #
0.99996653682104919003137410982163 1:-2.6764801 2:-0.75641102 3:2.6568799 4:-1.12646 5:-0.47032601 6:-1.2135 7:0.816212 8:-3.5569 9:-3.1494601 10:-0.78636003 14:1 15:1 #
0.99999999851599918887501416975283 1:-3.8015599 2:1.79921 3:1.05474 4:-0.703035 5:-0.041509401 6:-1.44951 7:-1.16362 8:-1.43247 9:0.142932 10:-0.969868 14:1 16:1 #
0.90407708495183158881047802424291 1:-2.34074 2:1.1469001 3:-0.54739702 4:-1.12646 5:-0.71046299 6:-0.62219 7:-0.79006398 8:0.84370297 9:1.21427 10:-0.885288 14:1 31:1 #
0.99999700121675361152995265001664 1:-1.25138 2:0.217586 3:1.4552701 4:-1.12646 5:-0.79622602 6:-0.18351801 7:0.293239 8:1.09661 9:0.0122812 10:0.137224 13:1 31:1 #
0.99995807488302068666286004372523 1:-2.16573 2:-0.0236797 3:-0.0133511 4:-1.26761 5:-0.79622602 6:-1.50723 7:0.92827803 8:0.84370297 9:-0.327411 10:-1.35954 13:1 16:1 #
0.67199141679923179992783843772486 1:-1.95857 2:1.65624 3:0.12016 4:0.0026817201 5:0.35300201 6:-0.96273798 7:-0.939484 8:-0.370258 9:0.639404 10:-0.31890401 14:1 25:1 #
0.99999999179270881999315179200494 1:-2.24787 2:1.68305 3:-1.34846 4:-1.26761 5:-0.79622602 6:-0.64078897 7:-0.042958502 8:0.489631 9:0.45649299 10:-1.3127199 14:1 20:1 #
0.96846420336899496916771568066906 1:-1.7907 2:-1.24788 3:2.52336 4:-0.50543398 5:-0.53893697 6:-1.09293 7:-1.46246 8:-3.5569 9:-1.16357 10:-0.885288 13:1 24:1 #
0.99999999984487597526339186515543 1:-1.79427 2:-1.35511 3:-0.81441897 4:0.43552101 5:-0.69331002 6:-0.85435301 7:-0.080313802 8:0.084977202 9:0.27358201 10:-0.778808 14:1 20:1 #
0.31159077243790456179795000934973 1:-2.20859 2:1.78134 3:1.05474 4:0.50138801 5:1.57084 6:-0.90309399 7:-1.23833 8:-1.43247 9:0.19519199 10:-0.58699298 14:1 24:1 #
0.91085273385087728303943777063978 1:-3.51582 2:-1.3283 3:0.92122799 4:-1.12646 5:-0.53893697 6:-1.27314 7:-0.82741898 8:-1.53364 9:-0.19676 10:-1.06804 14:1 24:1 #
0.99642154618249145769937058503274 1:-3.6229701 2:1.56688 3:1.1882499 4:-1.12646 5:-0.52178401 6:-1.29559 7:-1.9480799 8:-0.92665702 9:1.0052299 10:-0.97893101 14:1 15:1 #
0.92232575124454685422392685723025 1:-3.3443799 2:1.45072 3:1.5887901 4:-1.0700099 5:-0.53893697 6:-1.33407 7:-2.5457599 8:-0.82549298 9:1.44944 10:-1.23116 14:1 24:1 #
0.86016998020837798222260062175337 1:-2.3978901 2:-0.229202 3:-1.34846 4:-0.56189102 5:0.061406501 6:-0.46570501 7:0.51736999 8:0.69195801 9:0.090671502 10:-0.90492302 14:1 16:1 #
0.9994886332630815717337213754945 1:-2.7443399 2:1.55795 3:0.38718301 4:-0.00672783 5:1.6223 6:-1.19426 7:-1.31304 8:-0.370258 9:0.92683601 10:-0.94721299 14:1 24:1 #
0.99999999917829773821154049073812 1:-2.2978799 2:-1.31936 3:-0.81441897 4:-1.26761 5:-0.79622602 6:-0.54522997 7:-0.042958502 8:-0.016186099 9:0.19519199 10:-1.10429 14:1 31:1 #
0.99989232045725828790239120280603 1:-2.4335999 2:-1.00661 3:0.65420598 4:-1.0700099 5:-0.53893697 6:-0.79535002 7:0.293239 8:-1.48306 9:-1.05905 10:-0.816567 14:1 20:1 #
0.98874458659711372821021768686478 1:-1.16565 2:-1.2568099 3:-0.94793099 4:0.96245599 5:0.81612301 6:-0.50674999 7:0.069107197 8:0.084977202 9:0.142932 10:-0.066674702 13:1 16:1 #
0.99993614139088737857719024759717 1:-1.24066 2:-1.37298 3:0.92122799 4:-0.84417802 5:-0.64185202 6:-0.39579901 7:-1.01419 8:-1.48306 9:-0.0399791 10:0.62582397 13:1 24:1 #
0.86694236603721119838183994943392 1:-1.54782 2:1.7456 3:0.253672 4:-0.63716799 5:-0.62470001 6:-1.28276 7:-0.86477399 8:-0.62316602 9:0.40423301 10:-0.42689499 13:1 24:1 #
0.99999465557182865005358962662285 1:-3.1586499 2:1.53114 3:1.85581 4:0.57195997 5:-0.60754699 6:-1.25711 7:-2.65783 8:-1.3818901 9:1.21427 10:-0.74784601 14:1 19:1 #
0.99627962970063255188080120205996 1:-1.90499 2:-1.31936 3:0.38718301 4:-0.00672783 5:-0.83053201 6:-1.00699 7:-0.52857703 8:-0.977238 9:-0.0399791 10:-0.682145 14:1 24:1 #
0.99999779312092085259422447052202 1:-2.31217 2:-0.184523 3:-0.54739702 4:-0.68421501 5:0.30154401 6:-0.912714 7:0.89092302 8:0.64137602 9:-0.30127999 10:-0.70102501 14:1 25:1 #
0.99775236387088828138303142623045 1:-1.57283 2:1.11116 3:-0.146862 4:0.25674 5:0.798971 6:-1.10704 7:-1.08891 8:0.89428401 9:1.44944 10:-1.2372 14:1 24:1 #
0.9678652398615944507653807704628 1:-1.6514 2:-0.91725498 3:-0.68090802 4:-0.063185103 5:-0.19588301 6:-1.31804 7:0.51736999 8:-0.11735 9:-0.35354099 10:-0.68365598 13:1 24:1 #
0.83065378965533964716883019718807 1:-2.01214 2:-0.65811801 3:-0.54739702 4:-0.420748 5:0.40446001 6:-0.86525601 7:0.816212 8:-0.066767797 9:-0.614842 10:-0.55754101 14:1 20:1 #
0.86701090990503315580895105085801 1:-1.47996 2:-0.908319 3:-0.413885 4:-1.26761 5:-0.79622602 6:-0.39515799 7:0.51736999 8:-0.370258 9:-0.536452 10:-0.414812 13:1 34:1 #
0.99999999974376152511723603311111 1:-2.3085899 2:1.50433 3:1.4552701 4:-0.279605 5:0.31869599 6:-0.83383 7:-2.28427 8:-0.92665702 9:1.2404 10:-0.76143903 14:1 25:1 #
0.99996757227994426120432081006584 1:-1.8835599 2:-0.57769603 3:0.52069402 4:-1.26761 5:-0.79622602 6:-1.01982 7:1.22712 8:-0.77491099 9:-1.4771399 10:-0.70253497 13:1 28:1 #
0.91073580216061500447466414698283 1:-1.68712 2:1.42391 3:0.38718301 4:-1.12646 5:-0.57324201 6:-1.00827 7:-1.4251 8:0.034395501 9:1.2404 10:-0.24187601 13:1 34:1 #
0.96356408796049541898298684827751 1:-1.90499 2:0.119292 3:-0.94793099 4:-0.98532099 5:-0.91629499 6:-1.21863 7:0.51736999 8:0.99544799 9:0.221322 10:-0.466919 14:1 20:1 #
0.99757166626739790515898675948847 1:-3.7337 2:1.81709 3:0.65420598 4:-0.420748 5:0.28439099 6:-1.40911 7:-0.86477399 8:-1.0784 9:0.142932 10:-0.92908901 14:1 19:1 #
0.9767182480027182256421269812563 1:-2.24073 2:-1.16746 3:1.5887901 4:-0.67010099 5:0.095711797 6:-0.67991 7:-0.56593198 8:-2.4441099 9:-1.03292 10:-1.21908 14:1 24:1 #
0.93186970740853103389866873840219 1:-3.1050799 2:-1.14065 3:1.85581 4:-1.12646 5:-0.53893697 6:-1.23531 7:-0.60328698 8:-2.7981801 9:-1.29423 10:-1.24551 14:1 24:1 #
0.98515096045643868460928160857293 1:-1.9192801 2:1.66518 3:-1.61549 4:1.19769 5:0.54168099 6:-0.97492403 7:0.14381801 8:0.64137602 9:0.40423301 10:-0.50845402 14:1 20:1 #
0.9879936697107839504994331036869 1:-2.01214 2:1.77241 3:-1.21495 4:-1.12646 5:-0.91629499 6:-1.13718 7:-0.0056032902 8:0.38846701 9:0.37810299 10:-0.588503 13:1 34:1 #
0.99999999964737695812289075547596 1:-2.22644 2:1.59369 3:1.3217601 4:-1.0700099 5:-0.50463098 6:-0.67991 7:-2.0601399 8:-1.1795599 9:0.92683601 10:-1.33235 14:1 30:1 #
0.55394357895031220984094488812843 1:-1.62997 2:-0.702797 3:-0.54739702 4:-1.26761 5:-0.79622602 6:-0.722238 7:0.77885699 8:-0.11735 9:-0.614842 10:-0.371012 13:1 31:1 #
0.99945108538371008055634092670516 1:-2.5228901 2:1.3971 3:1.7223001 4:-0.98532099 5:-0.57324201 6:-0.491999 7:-2.7325399 8:-0.72433001 9:1.63235 10:-0.94721299 14:1 20:1 #
0.99750407325530343616293293962372 1:-3.6015401 2:1.53114 3:-0.146862 4:-1.12646 5:-0.64185202 6:-1.25711 7:-0.939484 8:0.084977202 9:0.90070599 10:-1.02424 14:1 15:1 #
0.99321474784776353494919476361247 1:-1.29781 2:0.083549298 3:-0.94793099 4:-1.26761 5:-0.79622602 6:0.44819599 7:0.55472499 8:0.99544799 9:0.169062 10:-0.54243702 13:1 24:1 #
0.88449719519774783194066003488842 1:-1.02279 2:-1.2568099 3:0.65420598 4:-1.26761 5:-0.79622602 6:-0.648485 7:-0.49122199 8:-1.33131 9:-0.327411 10:-0.99705499 13:1 38:1 #
0.89827588124262236490835675795097 1:-2.3550301 2:-1.23894 3:3.1909201 4:-0.129052 5:-0.36741 6:-1.16027 7:-1.83601 8:-4.46737 9:-1.5294 10:-1.2002 14:1 24:1 #
0.85667590190967701779811704909662 1:-1.87642 2:-0.32749501 3:-0.94793099 4:-1.26761 5:-0.79622602 6:-1.10704 7:0.77885699 8:0.54021198 9:-0.24902 10:-0.249428 13:1 18:1 #
0.98209374248390612915926567438873 1:-2.1514399 2:0.95925301 3:-0.146862 4:-0.36429101 5:0.86758101 6:-0.50931501 7:-0.939484 8:1.14719 9:1.42331 10:-0.82336402 14:1 16:1 #
0.95767152511952435833819663457689 1:-1.9764301 2:-1.05129 3:-1.48198 4:-1.26761 5:-0.79622602 6:-0.79278499 7:0.25588301 8:0.489631 9:0.19519199 10:-0.68894202 13:1 30:1 #
0.59277051409361758427252198089263 1:-1.77284 2:-0.89938301 3:-0.68090802 4:-0.98532099 5:-0.77907401 6:-1.4110301 7:0.51736999 8:-0.11735 9:-0.37967101 10:-0.62022102 13:1 16:1 #
0.66136419119283007539422669651685 1:-2.09429 2:1.81709 3:1.05474 4:-0.36429101 5:0.25008601 6:-0.63630003 7:-1.08891 8:-1.43247 9:0.064541399 10:-1.22285 14:1 24:1 #
0.99999899774669809282556798279984 1:-1.98 2:0.056742001 3:0.12016 4:-0.56189102 5:-0.95060003 6:-1.50723 7:0.77885699 8:0.99544799 9:-0.17062999 10:-1.28629 13:1 18:1 #
0.9999999995802829610980211327842 1:-1.92642 2:0.32481501 3:1.3217601 4:0.120301 5:1.77667 6:-0.77867597 7:-0.080313802 8:1.34952 9:0.48262301 10:-1.12166 14:1 15:1 #
0.99999999957469876132876152041717 1:-0.94420999 2:1.52221 3:1.4552701 4:-1.26761 5:-0.79622602 6:-0.67606199 7:-2.28427 8:-0.977238 9:1.18814 10:-1.04161 13:1 38:1 #
0.97411458631655056805698222888168 1:-3.1658001 2:1.6294301 3:1.7223001 4:-0.105528 5:-1.9797601 6:-1.1179399 7:-2.32163 8:-1.73596 9:0.74392498 10:-1.01895 14:1 24:1 #
0.79096651320087496550570449471707 1:-1.72641 2:1.70092 3:0.92122799 4:-0.16669001 5:-0.86483699 6:-1.14424 7:-1.4251 8:-1.12898 9:0.50875401 10:-0.43369201 14:1 24:1 #
0.99999999455375010448676675878232 1:-3.6051099 2:-1.36404 3:1.7223001 4:0.0120913 5:0.901887 6:-1.34882 7:-1.4251 8:-2.2923601 9:-0.24902 10:-0.86867398 14:1 19:1 #
0.95171350554468225890758503737743 1:-1.70498 2:0.217586 3:-1.8825099 4:1.02832 5:1.36501 6:-0.95632499 7:0.25588301 8:0.74253899 9:0.37810299 10:-0.46087801 14:1 20:1 #
0.98283976041022447223127755933092 1:-0.22273 2:1.77241 3:-0.413885 4:0.426112 5:0.953345 6:-0.40670201 7:-0.37915599 8:-0.11735 9:0.37810299 10:-0.13313 13:1 48:1 #
0.99998908836921274190245867430349 1:-3.3336699 2:1.30775 3:-0.146862 4:0.204987 5:-1.32796 6:-1.10127 7:-1.12626 8:0.489631 9:1.26653 10:-0.83242601 14:1 15:1 #
0.98149437769716052493151892122114 1:-3.52654 2:1.43285 3:0.12016 4:-0.75949198 5:-0.41886801 6:-1.21286 7:-1.2756799 8:0.084977202 9:1.16201 10:-1.01895 14:1 24:1 #
0.9918744855615321265318584664783 1:-3.5908301 2:-0.970869 3:2.3898499 4:-0.24196699 5:0.901887 6:-1.37255 7:0.031752001 8:-3.45574 9:-2.2871699 10:-0.79542202 14:1 15:1 #
0.99999999946050466270719425665447 1:-1.0692199 2:1.26307 3:3.59146 4:-0.56189102 5:0.73035997 6:-0.41888699 7:-5.0485601 8:-1.6348 9:2.41625 10:-0.49863699 13:1 27:1 #
0.99999937270627836660707998817088 1:-1.94428 2:-0.908319 3:0.65420598 4:-0.50543398 5:0.43876499 6:-1.11089 7:0.59208101 8:-1.33131 9:-1.24196 10:-1.12015 14:1 17:1 #
0.98905525461689836053125191028812 1:-2.3764601 2:1.51327 3:0.12016 4:-0.36429101 5:0.19862799 6:-0.52599001 7:-1.2009701 8:-0.066767797 9:1.0052299 10:-0.93588501 14:1 16:1 #
0.92873612379048386955560090427753 1:-1.31567 2:-0.68492502 3:0.12016 4:-0.63716799 5:-0.64185202 6:0.37572601 7:1.00299 8:-0.62316602 9:-1.16357 10:-0.728966 13:1 25:1 #
0.8959885381090495481970492619439 1:-1.66212 2:0.092485003 3:1.5887901 4:-1.26761 5:-0.79622602 6:-0.115536 7:0.70414603 8:0.74253899 9:-0.56258202 10:-0.86565399 13:1 18:1 #
0.9690852601555464129745587342768 1:-2.33002 2:-0.60450399 3:1.1882499 4:-0.279605 5:0.232933 6:-0.82036197 7:1.3018301 8:-1.43247 9:-2.052 10:-0.90567797 14:1 16:1 #
0.98230609965099935365628880390432 1:-1.71927 2:-1.05129 3:2.3898499 4:-0.36429101 5:0.52452803 6:-0.79535002 7:-0.34180099 8:-3.50632 9:-1.99974 10:-0.78409398 13:1 18:1 #
0.93878756461761481144634444717667 1:-1.19066 2:-1.0423599 3:-0.146862 4:-0.41133901 5:-0.69331002 6:-0.77098 7:0.293239 8:-0.67374802 9:-0.536452 10:-0.22677299 13:1 25:1 #
0.8757785970307098155629432767455 1:-1.22637 2:1.64731 3:1.7223001 4:-0.86770201 5:-0.29879901 6:-0.717749 7:-2.17221 8:-1.6348 9:0.69166398 10:-0.0251399 13:1 27:1 #
0.84446190736998394399392964260187 1:-1.99071 2:1.1915801 3:1.5887901 4:-0.13846201 5:0.850429 6:-0.73057598 7:-2.6951799 8:0.186141 9:2.07656 10:-0.46994001 14:1 24:1 #
0.99999999925602089945186889963225 1:-1.57283 2:-1.05129 3:2.3898499 4:-0.053775601 5:-2.1684401 6:-0.88064802 7:-0.37915599 8:-3.50632 9:-1.97361 10:-0.68441099 13:1 24:1 #
0.99999999924199400869184728435357 1:-2.99436 2:1.09329 3:2.1228299 4:0.129711 5:0.0099485395 6:-1.23915 7:-3.2555101 8:0.23672201 9:2.41625 10:-0.94721299 14:1 19:1 #
0.9999999992337731402614053877187 1:-1.21209 2:1.47753 3:-0.54739702 4:-0.420748 5:0.83327597 6:-0.73185802 7:-0.71535301 8:0.33788601 9:0.87457502 10:-0.33098701 13:1 47:1 #
0.99997270788494885263020250931731 1:-0.92635202 2:1.52221 3:1.98932 4:0.289673 5:1.6223 6:-0.82934099 7:-2.7698901 8:-1.43247 9:1.2404 10:-0.97364402 13:1 47:1 #
0.99999999919137083637110663403291 1:-1.71927 2:0.56607997 3:-0.94793099 4:0.84954101 5:2.7715299 6:-0.806894 7:-0.0056032902 8:1.19777 9:0.74392498 10:-1.01895 14:1 24:1 #
0.99334606415871828932750986496103 1:-3.5908301 2:-1.12278 3:1.85581 4:0.035615101 5:0.97049701 6:-1.34305 7:-0.49122199 8:-2.7981801 9:-1.37262 10:-0.87320602 14:1 19:1 #
0.99999999910524306478976086509647 1:-2.53004 2:-0.27388099 3:0.65420598 4:-0.75949198 5:-0.12727299 6:-0.53432697 7:1.33919 8:0.034395501 9:-1.1897 10:-1.18056 14:1 24:1 #
0.99999999908524572767021254549036 1:-0.87277699 2:-1.09597 3:0.65420598 4:0.035615101 5:0.38730699 6:-0.13798299 7:0.031752001 8:-1.3818901 9:-0.79775298 10:0.227845 13:1 24:1 #
0.8047824179878387829134567255096 1:-2.6229 2:1.3971 3:3.05741 4:-1.0700099 5:-0.29879901 6:-1.07112 7:-4.1893902 8:-1.83713 9:1.84139 10:-1.08994 14:1 24:1 #
0.96786167676857026709313913670485 1:-2.23716 2:-1.19426 3:0.253672 4:-0.56189102 5:0.66175002 6:-0.83575398 7:-0.19238 8:-1.02782 9:-0.37967101 10:-0.713108 14:1 25:1 #
0.73884464206086497561898340791231 1:-1.79427 2:1.52221 3:0.12016 4:-1.0700099 5:-0.65900499 6:-1.08331 7:-1.12626 8:-0.066767797 9:0.95296597 10:-0.99856502 13:1 31:1 #
0.99999973447748646826482854521601 1:-1.2228 2:0.78053802 3:-0.413885 4:-1.26761 5:-0.79622602 6:-0.171974 7:-0.49122199 8:1.2989399 9:1.16201 10:0.100975 13:1 31:1 #
0.99999999891863178280715374057763 1:-0.954925 2:-0.72960401 3:0.92122799 4:-1.12646 5:-0.55608898 6:-0.63630003 7:1.0403399 8:-1.48306 9:-1.76457 10:-0.49259499 13:1 27:1 #
0.98662689469756759130802947765915 1:-1.93357 2:1.17371 3:-0.94793099 4:-0.251376 5:-0.024356799 6:-1.11089 7:-0.453866 8:0.84370297 9:0.95296597 10:-0.49561599 14:1 24:1 #
0.98918986664282937404379936197074 1:-1.99429 2:-1.33724 3:1.1882499 4:-0.16669001 5:0.747513 6:-0.59781897 7:-1.01419 8:-1.73596 9:-0.19676 10:-1.19038 14:1 24:1 #
0.9999652000710901322833024096326 1:-2.18716 2:-0.85470498 3:1.1882499 4:-1.0700099 5:-0.71046299 6:-1.37255 7:0.70414603 8:-1.98887 9:-1.7907 10:-1.31423 13:1 17:1 #
0.85427941229610548923290025413735 1:-1.52997 2:-0.56876099 3:-1.08144 4:-1.12646 5:-0.79622602 6:0.111496 7:0.66679102 8:0.38846701 9:-0.19676 10:0.330549 13:1 34:1 #
0.97667219993483922468868740907055 1:-1.75855 2:1.4954 3:0.52069402 4:0.69898802 5:1.2106301 6:-0.96273798 7:-1.46246 8:-0.218513 9:1.10975 10:-0.397443 14:1 24:1 #
0.95910969863304429416928087448468 1:-0.78705603 2:1.69198 3:0.65420598 4:0.69428402 5:-0.041509401 6:-0.28164199 7:-1.23833 8:-0.87607503 9:0.53488398 10:0.244459 13:1 24:1 #
0.9593803668818782215410578828596 1:-1.5513999 2:-1.06023 3:-1.61549 4:-0.41133901 5:-0.57324201 6:-1.4257801 7:0.25588301 8:0.54021198 9:0.221322 10:-0.178441 14:1 20:1 #
0.98274378273350815327091822837247 1:-1.37638 2:1.35243 3:1.85581 4:-0.00672783 5:0.47307 6:-0.29254401 7:-2.99402 8:-0.67374802 9:1.84139 10:-0.89661598 13:1 24:1 #
0.89511966620627958501899001930724 1:-2.0050001 2:0.432044 3:-0.413885 4:-0.95238799 5:-0.72761601 6:-1.2693 7:0.069107197 8:1.34952 9:0.71779501 10:-1.18736 13:1 17:1 #
0.76896496754277887664130730627221 1:-1.5978301 2:-0.30962399 3:-0.413885 4:-1.12646 5:-0.86483699 6:-0.038576201 7:1.00299 8:0.38846701 9:-0.58871198 10:-0.90643299 13:1 24:1 #
0.99999999423622654148857691325247 1:-1.40139 2:-0.425789 3:-1.61549 4:-0.467796 5:0.044253901 6:-0.26496699 7:0.40530401 8:0.64137602 9:0.169062 10:-1.01367 13:1 24:1 #
0.9999999984610662417949811242579 1:-0.77276897 2:-1.27469 3:0.12016 4:0.37906399 5:1.4679199 6:-0.42017001 7:-0.304445 8:-0.77491099 9:-0.118369 10:0.394739 13:1 24:1 #
0.99501374826167243714536425613915 1:-2.5657499 2:-1.21213 3:-0.0133511 4:0.28496799 5:1.17633 6:-1.08331 7:-0.117669 8:-0.72433001 9:-0.22289 10:-1.44488 14:1 16:1 #
0.99535662874334662753028624138096 1:-2.7372 2:-1.11384 3:3.9919901 4:-0.68421501 5:0.953345 6:-1.19683 7:-1.64923 8:-5.7319198 9:-2.6529901 10:-1.26212 14:1 24:1 #
0.99999999837986541795231687501655 1:-1.88713 2:0.52140099 3:1.4552701 4:-1.26761 5:-0.79622602 6:-0.37784201 7:-0.90212899 8:1.55185 9:1.2404 10:-1.28176 13:1 18:1 #
0.99689466194104592311475698807044 1:-3.7265501 2:1.46859 3:1.3217601 4:-0.37369999 5:0.232933 6:-1.40333 7:-2.28427 8:-0.67374802 9:1.37105 10:-0.86716402 14:1 19:1 #
