SVM-light Version V6.02
2 # kernel type
3 # kernel parameter -d 
0.01 # kernel parameter -g 
1 # kernel parameter -s 
1 # kernel parameter -r 
empty# kernel parameter -u 
48 # highest feature index 
5000 # number of training documents 
22 # number of support vectors plus 1 
0 # threshold b, each following line is a SV (starting with alpha*y)
0.0082771346134165590946452084608609 1:-1.71569 2:0.101421 3:-0.0133511 4:1.19769 5:3.0802701 6:-0.91335601 7:0.70414603 8:1.04603 9:-0.0399791 10:-1.00612 14:1 16:1 #
0.071047090137780807839185115426517 1:-1.0692199 2:1.26307 3:3.59146 4:-0.56189102 5:0.73035997 6:-0.41888699 7:-5.0485601 8:-1.6348 9:2.41625 10:-0.49863699 13:1 27:1 #
0.090665698192002097677288929844508 1:-3.1050799 2:-0.908319 3:3.1909201 4:-0.98532099 5:-0.024356799 6:-1.2622401 7:-0.042958502 8:-4.6191201 9:-3.1494601 10:-1.2689199 14:1 15:1 #
0.10000000000000000555111512312578 1:-0.94420999 2:1.42391 3:-1.749 4:-0.68421501 5:-0.71046299 6:-0.228411 7:0.14381801 8:0.69195801 9:0.430363 10:0.45364299 13:1 16:1 #
0.073426712573013253049225568247493 1:-3.64797 2:0.85202402 3:2.1228299 4:-1.12646 5:-0.52178401 6:-1.37255 7:-2.6951799 8:1.04603 9:2.3117299 10:-0.91851598 14:1 15:1 #
0.10000000000000000555111512312578 1:-1.02279 2:-1.37298 3:5.0600801 4:-0.44427201 5:1.22779 6:-0.39131001 7:-4.33881 8:-6.7435498 9:-1.37262 10:-0.400464 13:1 27:1 #
0.10000000000000000555111512312578 1:-0.97278398 2:1.29881 3:4.39252 4:-0.50543398 5:1.31355 6:-0.39195099 7:-5.98244 8:-2.7476001 9:2.3117299 10:-0.46918499 13:1 27:1 #
0.10000000000000000555111512312578 1:-0.94063902 2:1.1469001 3:4.39252 4:-0.50543398 5:1.55369 6:-0.36437401 7:-5.9077301 8:-1.73596 9:2.75594 10:-0.43067101 13:1 27:1 #
0.10000000000000000555111512312578 1:-1.20137 2:1.73666 3:4.39252 4:-0.50543398 5:0.45591801 6:-0.40221301 7:-4.4135199 8:-5.4284301 9:-0.35354099 10:-0.39064601 13:1 27:1 #
0.0063142936142712713376567990053445 1:-1.95143 2:-0.98874098 3:-1.61549 4:1.72463 5:0.798971 6:-1.04483 7:0.293239 8:0.54021198 9:0.221322 10:-0.59680998 14:1 20:1 #
0.031835876976302565632970242859301 1:-3.2800901 2:-0.82789701 3:2.52336 4:0.38376901 5:2.4970801 6:-1.29238 7:0.59208101 8:-3.50632 9:-2.86203 10:-0.83771199 14:1 15:1 #
0.10000000000000000555111512312578 1:-3.15151 2:-0.85470498 3:3.1909201 4:-0.98532099 5:-0.024356799 6:-1.27571 7:0.25588301 8:-4.46737 9:-3.7243299 10:-1.26816 14:1 15:1 #
0.10000000000000000555111512312578 1:-2.7372 2:-1.11384 3:3.9919901 4:-0.68421501 5:0.953345 6:-1.19683 7:-1.64923 8:-5.7319198 9:-2.6529901 10:-1.26212 14:1 24:1 #
0.10000000000000000555111512312578 1:-2.7943399 2:-1.10491 3:3.85848 4:-0.82065398 5:0.28439099 6:-1.18721 7:-1.46246 8:-5.5801702 9:-2.6791201 10:-1.2424901 14:1 24:1 #
0.10000000000000000555111512312578 1:-1.74427 2:-1.3908499 3:-1.8825099 4:-1.26761 5:-0.79622602 6:-0.90501797 7:0.218528 8:0.74253899 9:0.351973 10:-0.89133 13:1 31:1 #
0.10000000000000000555111512312578 1:-1.35853 2:-0.059422798 3:-1.749 4:-1.26761 5:-0.79622602 6:-0.428507 7:0.330594 8:0.74253899 9:0.29971299 10:0.67642099 13:1 18:1 #
0.10000000000000000555111512312578 1:-1.69069 2:0.50353003 3:0.38718301 4:1.36707 5:3.20034 6:-0.88770199 7:-0.304445 8:1.55185 9:1.0052299 10:-0.98874801 14:1 16:1 #
0.10000000000000000555111512312578 1:-1.71927 2:0.41417199 3:-0.0133511 4:1.32472 5:3.0631199 6:-0.89604002 7:0.031752001 8:1.45068 9:0.74392498 10:-1.0114 14:1 16:1 #
0.10000000000000000555111512312578 1:-3.06936 2:-0.98874098 3:-1.749 4:-1.12646 5:-0.93344802 6:-0.840244 7:0.25588301 8:0.64137602 9:0.29971299 10:-1.0008301 14:1 28:1 #
0.089333053614599533531759334437083 1:-0.68347698 2:1.0218 3:-1.749 4:0.96245599 5:1.2106301 6:-0.20083401 7:0.14381801 8:0.74253899 9:0.45649299 10:0.0481124 13:1 24:1 #
8.8817841970012523233890533447266e-16 1:-1.29781 2:-0.65811801 3:-1.61549 4:-1.12646 5:-0.96775299 6:-0.309861 7:0.330594 8:0.64137602 9:0.221322 10:0.62809002 13:1 31:1 #
