SVM-light Version V6.02
2 # kernel type
3 # kernel parameter -d 
0.1 # kernel parameter -g 
1 # kernel parameter -s 
1 # kernel parameter -r 
empty# kernel parameter -u 
48 # highest feature index 
5000 # number of training documents 
78 # number of support vectors plus 1 
0 # threshold b, each following line is a SV (starting with alpha*y)
0.12040621104041951405783095196966 1:-1.03707 2:-1.3461699 3:1.85581 4:-0.279605 5:0.42161199 6:-0.424018 7:-1.46246 8:-2.4946899 9:-0.37967101 10:0.53746802 13:1 24:1 #
0.43607406715727131674142924566695 1:-3.15151 2:-0.85470498 3:3.1909201 4:-0.98532099 5:-0.024356799 6:-1.27571 7:0.25588301 8:-4.46737 9:-3.7243299 10:-1.26816 14:1 15:1 #
0.101053172924678635880013644055 1:-1.9192801 2:1.66518 3:-1.61549 4:1.19769 5:0.54168099 6:-0.97492403 7:0.14381801 8:0.64137602 9:0.40423301 10:-0.50845402 14:1 20:1 #
0.52388930356661977949528363751597 1:-1.20137 2:1.73666 3:4.39252 4:-0.50543398 5:0.45591801 6:-0.40221301 7:-4.4135199 8:-5.4284301 9:-0.35354099 10:-0.39064601 13:1 27:1 #
0.0090683067912943060573383036171435 1:-3.7765601 2:-1.37298 3:0.92122799 4:-0.56189102 5:0.078559197 6:-1.43027 7:-1.01419 8:-1.48306 9:-0.0399791 10:-0.95174402 14:1 16:1 #
0.26141828822032209256320811618934 1:-0.97278398 2:1.29881 3:4.39252 4:-0.50543398 5:1.31355 6:-0.39195099 7:-5.98244 8:-2.7476001 9:2.3117299 10:-0.46918499 13:1 27:1 #
0.52725496489835133040458003961248 1:-0.94063902 2:1.1469001 3:4.39252 4:-0.50543398 5:1.55369 6:-0.36437401 7:-5.9077301 8:-1.73596 9:2.75594 10:-0.43067101 13:1 27:1 #
0.73071788839830054129720338096377 1:-1.02279 2:-1.37298 3:5.0600801 4:-0.44427201 5:1.22779 6:-0.39131001 7:-4.33881 8:-6.7435498 9:-1.37262 10:-0.400464 13:1 27:1 #
0.19718217779441907233639597052388 1:-1.77284 2:-1.0870301 3:-1.21495 4:1.27768 5:2.51424 6:-0.918486 7:0.25588301 8:0.23672201 9:0.064541399 10:-0.69271803 14:1 20:1 #
0.07708663500673577917421397387443 1:-1.71569 2:0.101421 3:-0.0133511 4:1.19769 5:3.0802701 6:-0.91335601 7:0.70414603 8:1.04603 9:-0.0399791 10:-1.00612 14:1 16:1 #
0.1947474967265116763126542309692 1:-0.68704897 2:-1.23001 3:-1.48198 4:0.99538898 5:1.26209 6:-0.24636801 7:0.181173 8:0.489631 9:0.27358201 10:0.097954199 13:1 24:1 #
0.45563877100093141958581099970615 1:-3.2265201 2:1.81709 3:3.05741 4:0.56725502 5:2.7200699 6:-1.27635 7:-2.6951799 8:-3.91098 9:-0.484191 10:-0.77050102 14:1 19:1 #
0.42979804596429499463638990164327 1:-0.52632302 2:1.28988 3:1.7223001 4:0.78837901 5:3.5434 6:-0.69850898 7:-2.9193101 8:-0.370258 9:1.9720401 10:-0.77050102 13:1 47:1 #
0.284311041294539490476012133513 1:-3.22294 2:1.75453 3:1.98932 4:0.56725502 5:-2.9059999 6:-1.04547 7:-2.0601399 8:-2.3429401 9:0.169062 10:-0.90567797 14:1 24:1 #
0.19444634498339138928280078744137 1:-3.23366 2:1.77241 3:1.7223001 4:0.43552101 5:-2.9574599 6:-1.05124 7:-1.79866 8:-2.1912 9:0.090671502 10:-0.928334 14:1 24:1 #
0.46255319017348189847282924347383 1:-0.444175 2:-0.53301799 3:1.4552701 4:0.651941 5:1.9825 6:-0.82420999 7:1.4139 8:-1.48306 9:-2.23491 10:-1.1412899 13:1 38:1 #
0.30732517713421986238486738329811 1:-3.06936 2:-0.98874098 3:-1.749 4:-1.12646 5:-0.93344802 6:-0.840244 7:0.25588301 8:0.64137602 9:0.29971299 10:-1.0008301 14:1 28:1 #
0.041838402933626062107919096888509 1:-2.31217 2:0.67330903 3:3.59146 4:-0.86770201 5:-0.00720412 6:-0.53689301 7:-3.29287 8:0.69195801 9:2.07656 10:-0.91549599 14:1 15:1 #
0.19493098279512940940172427417565 1:-3.2800901 2:-0.82789701 3:2.52336 4:0.38376901 5:2.4970801 6:-1.29238 7:0.59208101 8:-3.50632 9:-2.86203 10:-0.83771199 14:1 15:1 #
0.23900737024170776168219276769378 1:-1.95143 2:-0.36323801 3:2.3898499 4:-1.26761 5:-0.79622602 6:-1.17502 7:1.56332 8:-1.68538 9:-2.7836399 10:-1.07786 13:1 18:1 #
0.11183247334746847234665523274089 1:-1.1978 2:-0.62237501 3:1.85581 4:-0.27019501 5:-0.76192099 6:-0.31691501 7:1.3018301 8:-2.14062 9:-2.5746 10:0.0111087 13:1 25:1 #
0.23172907096712397345683598359756 1:-1.25138 2:1.7634701 3:-1.34846 4:-1.12646 5:-0.81337899 6:-0.193138 7:0.031752001 8:0.489631 9:0.40423301 10:0.533692 13:1 31:1 #
0.13695796151915215488337196347857 1:-0.94420999 2:1.42391 3:-1.749 4:-0.68421501 5:-0.71046299 6:-0.228411 7:0.14381801 8:0.69195801 9:0.430363 10:0.45364299 13:1 16:1 #
1.3660947373317355868493905290961e-17 1:-1.3371 2:-1.0870301 3:-1.48198 4:-1.12646 5:-0.84768403 6:-0.413757 7:0.25588301 8:0.43904901 9:0.169062 10:0.72475201 13:1 31:1 #
0.3560251644280080229876261910249 1:-2.7372 2:-1.11384 3:3.9919901 4:-0.68421501 5:0.953345 6:-1.19683 7:-1.64923 8:-5.7319198 9:-2.6529901 10:-1.26212 14:1 24:1 #
0.0058200873441307497679897409170735 1:-0.77991301 2:1.1469001 3:0.12016 4:-1.26761 5:-0.79622602 6:-0.83575398 7:-1.35039 8:0.79312098 9:1.55396 10:-0.38082901 13:1 34:1 #
0.3067716488068565339197846242314 1:-3.2372301 2:1.3971 3:2.52336 4:0.28496799 5:2.70292 6:-1.3148299 7:-3.62906 8:-1.43247 9:1.78913 10:-0.82865 14:1 19:1 #
0.092367418036936543845882852110662 1:-3.2407999 2:0.932446 3:1.3217601 4:0.59077901 5:1.43362 6:-1.23146 7:-2.0601399 8:1.09661 9:2.10269 10:-0.77125603 14:1 15:1 #
0.33969026590547868327263358878554 1:-3.18366 2:-1.3283 3:1.85581 4:0.25203499 5:-2.71732 6:-1.0583 7:-1.38775 8:-2.4946899 9:-0.43193099 10:-0.95174402 14:1 24:1 #
0.31187194090293968162797000331921 1:-3.09079 2:-1.2032 3:1.4552701 4:0.43081599 5:3.4061699 6:-1.29238 7:-0.67799801 8:-2.2923601 9:-0.85001302 10:-0.81430203 14:1 19:1 #
0.083616539529774963623864891815174 1:-0.68347698 2:-1.36404 3:0.38718301 4:0.129711 5:-1.44803 6:-0.75302202 7:-0.640643 8:-0.87607503 9:0.090671502 10:0.109282 13:1 27:1 #
0.45604197968234305715640175549197 1:-1.35495 2:0.77160197 3:2.79039 4:-1.26761 5:-0.79622602 6:0.29620001 7:-2.95667 8:0.99544799 9:2.2855999 10:-0.69120699 13:1 18:1 #
0.28552978790865024549816553189885 1:-2.41574 2:0.20864999 3:3.32443 4:-1.12646 5:-0.36741 6:-0.43876901 7:-0.26708999 8:0.33788601 9:-0.51032102 10:-0.82260901 14:1 15:1 #
0.34542715222633740834723425905395 1:-3.6336901 2:-1.38191 3:3.59146 4:-0.68421501 5:0.696055 6:-1.43027 7:-3.0313799 8:-4.5685401 9:-0.71936202 10:-0.82260901 14:1 19:1 #
0.26187034744185622159307058609556 1:-3.20151 2:1.59369 3:3.1909201 4:0.70839798 5:-0.79622602 6:-1.25711 7:-3.81584 8:-3.10167 9:0.848445 10:-0.74784601 14:1 19:1 #
0.21864126179326592858132016772288 1:-3.35867 2:0.92351002 3:1.05474 4:0.43552101 5:-1.44803 6:-1.14103 7:-1.83601 8:1.14719 9:1.99817 10:-0.84677398 14:1 15:1 #
0.028878658939175183562042548146565 1:-3.7479801 2:0.95031703 3:1.3217601 4:-1.26761 5:-0.79622602 6:-1.39051 7:-2.17221 8:1.04603 9:2.1288199 10:-0.93286502 14:1 15:1 #
0.28651708948785609143428132483677 1:-1.57283 2:-1.05129 3:2.3898499 4:-0.053775601 5:-2.1684401 6:-0.88064802 7:-0.37915599 8:-3.50632 9:-1.97361 10:-0.68441099 13:1 24:1 #
0.21940727704423731991845158972865 1:-1.01564 2:-0.62237501 3:-0.81441897 4:0.76955998 5:-1.46518 6:-1.06856 7:0.74150199 8:0.186141 9:-0.35354099 10:-1.43128 13:1 18:1 #
0.19912326775262162437130086800607 1:-2.1514399 2:1.04861 3:2.6568799 4:-1.12646 5:-0.36741 6:-1.3687 7:-3.81584 8:0.084977202 9:2.59916 10:-1.3127199 13:1 28:1 #
0.10145076510858402896175789464905 1:-3.5086801 2:-0.60450399 3:1.05474 4:-1.0700099 5:-0.64185202 6:-1.33279 7:1.26448 8:-1.23015 9:-1.86909 10:-1.10958 14:1 15:1 #
0.074873860787887491774483805784257 1:-0.80134302 2:1.70986 3:1.4552701 4:0.63312203 5:1.0048 6:-0.245727 7:-1.7613 8:-1.6348 9:0.430363 10:0.238417 13:1 24:1 #
0.15186998566457690640341127163992 1:-3.17294 2:-0.559825 3:1.85581 4:-1.12646 5:-0.67615801 6:-1.18015 7:1.4139 8:-1.98887 9:-2.6268599 10:-1.04916 14:1 17:1 #
0.41712109992289148063804304911173 1:-1.69069 2:0.50353003 3:0.38718301 4:1.36707 5:3.20034 6:-0.88770199 7:-0.304445 8:1.55185 9:1.0052299 10:-0.98874801 14:1 16:1 #
0.19988728422835133624602121926728 1:-1.74427 2:-1.3908499 3:-1.8825099 4:-1.26761 5:-0.79622602 6:-0.90501797 7:0.218528 8:0.74253899 9:0.351973 10:-0.89133 13:1 31:1 #
0.10456649501601567031627837423002 1:-3.8194201 2:1.47753 3:0.253672 4:-1.26761 5:-0.79622602 6:-1.4110301 7:-1.23833 8:-0.016186099 9:1.08362 10:-0.92380202 14:1 19:1 #
0.14216637313894167626848741292633 1:-1.23709 2:-0.014744 3:1.1882499 4:-1.12646 5:-0.69331002 6:-0.31114301 7:1.0403399 8:0.59079403 9:-0.823883 10:0.61676198 13:1 18:1 #
0.04933677818847363033549768829289 1:-3.8015599 2:1.79921 3:1.05474 4:-0.703035 5:-0.041509401 6:-1.44951 7:-1.16362 8:-1.43247 9:0.142932 10:-0.969868 14:1 16:1 #
0.26676892127619050709697035017598 1:-0.57632703 2:1.09329 3:1.5887901 4:0.623712 5:3.14889 6:-0.64656103 7:-2.7325399 8:0.489631 9:2.23334 10:-0.72518998 13:1 27:1 #
0.091051434544833678708108948285371 1:-1.50854 2:-1.01555 3:2.9238999 4:0.063843802 5:1.48508 6:-0.84280902 7:-0.416511 8:-4.2650499 9:-2.4962101 10:-0.74104899 13:1 18:1 #
0.15023525484540145580325543051003 1:-2.24787 2:1.68305 3:-1.34846 4:-1.26761 5:-0.79622602 6:-0.64078897 7:-0.042958502 8:0.489631 9:0.45649299 10:-1.3127199 14:1 20:1 #
0.0057166933614509717054286142001729 1:-2.6229 2:1.3971 3:3.05741 4:-1.0700099 5:-0.29879901 6:-1.07112 7:-4.1893902 8:-1.83713 9:1.84139 10:-1.08994 14:1 24:1 #
0.050418363706981175753618629187258 1:-2.7300501 2:1.4149801 3:2.9238999 4:-1.12646 5:-0.55608898 6:-1.09934 7:-4.0026102 8:-1.83713 9:1.763 10:-1.10807 14:1 24:1 #
0.21572060119618297058252665010514 1:-3.1372199 2:-0.92619097 3:2.25634 4:0.449635 5:3.1831901 6:-1.28789 7:0.25588301 8:-3.3039999 9:-2.39169 10:-0.81581199 14:1 19:1 #
0.0037039348467800270459093781028059 1:-3.20509 2:1.82602 3:2.1228299 4:0.14382499 5:2.85729 6:-1.33279 7:-1.8733701 8:-2.64643 9:-0.19676 10:-0.85734701 14:1 19:1 #
0.14606597242958460625139593958011 1:-0.68347698 2:1.0218 3:-1.749 4:0.96245599 5:1.2106301 6:-0.20083401 7:0.14381801 8:0.74253899 9:0.45649299 10:0.0481124 13:1 24:1 #
0.13034485058371333976445782809606 1:-0.64776099 2:-1.2568099 3:1.7223001 4:0.063843802 5:1.74237 6:-0.69337797 7:-1.05155 8:-2.54527 9:-0.71936202 10:-1.01895 13:1 47:1 #
0.077964084678773776238003279104305 1:-3.6051099 2:-1.37298 3:0.12016 4:-1.26761 5:-0.79622602 6:-1.27635 7:-0.56593198 8:-0.72433001 9:0.142932 10:-1.04237 14:1 15:1 #
0.054765763833001024352142849238589 1:-1.53354 2:0.119292 3:1.7223001 4:-1.26761 5:-0.79622602 6:0.14163899 7:0.62943602 8:0.79312098 9:-0.51032102 10:-0.860367 13:1 24:1 #
0.085087458367667540004575243983709 1:-2.56218 2:1.8081501 3:3.32443 4:-0.86770201 5:-0.24734101 6:-0.96273798 7:-2.9193101 8:-4.1132998 9:-0.45806101 10:-0.64967299 14:1 24:1 #
0.057304545338068543780529751074937 1:-1.06565 2:1.61156 3:2.1228299 4:-0.420748 5:0.061406501 6:-0.25663 7:-2.65783 8:-1.88771 9:0.848445 10:0.427212 13:1 38:1 #
0.072162355696350377609604720419156 1:-0.94420999 2:-1.27469 3:-1.48198 4:-0.703035 5:-0.74476802 6:-0.21494301 7:0.14381801 8:0.489631 9:0.29971299 10:0.47478801 13:1 16:1 #
0.041351658538586168190054337401307 1:-1.26209 2:-1.31043 3:1.05474 4:-0.98532099 5:-0.79622602 6:-0.33487299 7:-0.86477399 8:-1.73596 9:-0.30127999 10:0.63262099 13:1 31:1 #
0.032353499675196656371056747047987 1:-1.3621 2:-1.3908499 3:-1.61549 4:-1.26761 5:-0.79622602 6:-0.95632499 7:0.14381801 8:0.59079403 9:0.351973 10:-0.452571 13:1 25:1 #
0.060625299184050754353059176082752 1:-2.5550399 2:1.21839 3:2.79039 4:-0.063185103 5:-0.84768403 6:-0.90309399 7:-4.1146798 8:-0.77491099 9:2.39012 10:-0.79315698 14:1 24:1 #
0.10666144049920572856038347708818 1:-2.1585801 2:1.68305 3:-1.34846 4:0.14853001 5:1.9310499 6:-0.94798797 7:-0.042958502 8:0.489631 9:0.45649299 10:-0.99629998 14:1 20:1 #
0.028108914380100269436724147453788 1:-0.22273 2:1.77241 3:-0.413885 4:0.426112 5:0.953345 6:-0.40670201 7:-0.37915599 8:-0.11735 9:0.37810299 10:-0.13313 13:1 48:1 #
0.069592065710104511477851474410272 1:-1.25852 2:1.79921 3:0.92122799 4:-1.0700099 5:-0.60754699 6:-0.31755701 7:-1.05155 8:-1.28073 9:0.142932 10:0.62809002 13:1 31:1 #
0.066628698528910984544282314345764 1:-2.85149 2:-0.36323801 3:1.4552701 4:0.14382499 5:1.17633 6:-1.27635 7:1.52596 8:-0.87607503 9:-2.052 10:-1.25155 14:1 16:1 #
0.020837221067596216339534720418669 1:-1.21209 2:0.583951 3:0.92122799 4:-1.26761 5:-0.79622602 6:-0.18736599 7:-0.86477399 8:1.55185 9:1.37105 10:0.078319602 13:1 31:1 #
0.10647057682642616094348397837166 1:-1.95143 2:-0.98874098 3:-1.61549 4:1.72463 5:0.798971 6:-1.04483 7:0.293239 8:0.54021198 9:0.221322 10:-0.59680998 14:1 20:1 #
0.050140352570549023836221635974653 1:-2.16573 2:0.65543699 3:0.253672 4:-1.26761 5:-0.79622602 6:-1.48799 7:-0.640643 8:1.50126 9:1.29266 10:-1.42373 13:1 28:1 #
0.064707757230587525931753134500468 1:-1.31924 2:-0.65811801 3:2.1228299 4:-0.82065398 5:-0.84768403 6:-0.110406 7:1.22712 8:-2.59585 9:-2.8359001 10:-1.0114 13:1 24:1 #
0.080877681393589168079572004899092 1:-0.769198 2:1.57582 3:0.92122799 4:0.186168 5:-1.36226 6:-0.75815302 7:-1.72394 8:-0.77491099 9:0.95296597 10:0.082095496 13:1 27:1 #
0.20473363401292032914824403633247 1:-3.64797 2:0.85202402 3:2.1228299 4:-1.12646 5:-0.52178401 6:-1.37255 7:-2.6951799 8:1.04603 9:2.3117299 10:-0.91851598 14:1 15:1 #
0.041811467367128485328464648773661 1:-0.87277699 2:-0.220266 3:0.52069402 4:0.25203499 5:1.43362 6:-0.22584599 7:1.26448 8:0.186141 9:-1.05905 10:0.497444 13:1 18:1 #
0.00057956062370817518214494157291483 1:-3.7051201 2:0.90563798 3:1.5887901 4:-1.26761 5:-0.79622602 6:-1.37255 7:-2.28427 8:1.09661 9:2.1810801 10:-0.93437499 14:1 15:1 #
